/* Species # 001         : (size= 087) (AvfFit= 6,116) (Age= 6,000)  */
/*-------------------------------------------------------------------*/
/* Organism # 000 Fitness:  8,995 Error:  3,999                      */
genomestart  0
trait 1 0.1 0.0 0.0 0.0 0.0 0.0 0.0 0.0 
trait 2 0.2 0.0 0.0 0.0 0.0 0.0 0.0 0.0 
trait 3 0.3 0.0 0.0 0.0 0.0 0.0 0.0 0.0 
node 1 1 1 1
node 2 1 1 1
node 3 1 1 3
node 4 1 0 2
gene  1 1 4 1.4634395364137718 0 1.0 1.4634395364137718 1
gene  2 2 4 -3.4340303763316995 0 2.0 -3.4340303763316995 1
gene  3 3 4 -4.580291697266421 0 3.0 -4.580291697266421 1
genomeend 0
/* Organism # 001 Fitness:  4,141 Error:  3,035                      */
genomestart  1
trait 1 0.1 0.0 0.0 0.0 0.0 0.0 0.0 0.0 
trait 2 0.2 0.0 0.0 0.0 0.0 0.0 0.0 0.0 
trait 3 0.3 0.0 0.0 0.0 0.0 0.0 0.0 0.0 
node 1 1 1 1
node 2 1 1 1
node 3 1 1 3
node 4 1 0 2
gene  1 1 4 2.351812665220197 0 1.0 2.351812665220197 1
gene  2 2 4 -4.055688714536851 0 2.0 -4.055688714536851 1
gene  3 3 4 -1.6786764233952352 0 3.0 -1.6786764233952352 1
genomeend 1
/* Organism # 002 Fitness:  8,891 Error:  3,982                      */
genomestart  2
trait 1 0.1 0.0 0.0 0.0 0.0 0.0 0.0 0.0 
trait 2 0.42456884741091117 0.08553049455110995 0.04238119945796015 0.0 0.0 0.0 0.0 0.0 
trait 3 0.3 0.0 0.0 0.0 0.0 0.0 0.0 0.0 
node 1 1 1 1
node 2 1 1 1
node 3 1 1 3
node 4 2 0 2
gene  1 1 4 1.1257817722798213 0 1.0 1.1257817722798213 1
gene  2 2 4 -4.19430798358652 0 2.0 -4.19430798358652 1
gene  3 3 4 -1.9846631343779035 0 3.0 -1.9846631343779035 1
genomeend 2
/* Organism # 003 Fitness:  8,910 Error:  3,985                      */
genomestart  3
trait 1 0.1 0.0 0.0 0.0 0.0 0.0 0.0 0.0 
trait 2 0.42456884741091117 0.08553049455110995 0.04238119945796015 0.0 0.0 0.0 0.0 0.0 
trait 3 0.3 0.0 0.0 0.0 0.0 0.0 0.0 0.0 
node 1 1 1 1
node 2 1 1 1
node 3 1 1 3
node 4 1 0 2
gene  1 1 4 0.9497106717654061 0 1.0 0.9497106717654061 1
gene  2 2 4 -3.0870954108102593 0 2.0 -3.0870954108102593 1
gene  3 3 4 -1.9923840406132731 0 3.0 -1.9923840406132731 1
genomeend 3
/* Organism # 004 Fitness:  7,990 Error:  3,827                      */
genomestart  4
trait 1 0.1 0.0 0.0 0.0 0.0 0.0 0.0 0.0 
trait 2 0.4308969893390961 0.08553049455110995 0.06330559963374502 0.09164655632549605 0.024557948117362838 0.0 0.0 0.0 
trait 3 0.3 0.0 0.0 0.0 0.0 0.0 0.0 0.0 
node 1 3 1 1
node 2 1 1 1
node 3 1 1 3
node 4 1 0 2
gene  1 1 4 1.8417836331862407 0 1.0 1.8417836331862407 1
gene  2 2 4 -3.836124838615631 0 2.0 -3.836124838615631 1
gene  3 3 4 -2.159214828392453 0 3.0 -2.159214828392453 1
genomeend 4
/* Organism # 005 Fitness:  8,868 Error:  3,978                      */
genomestart  5
trait 1 0.1 0.0 0.0 0.0 0.0 0.0 0.0 0.0 
trait 2 0.2 0.0 0.0 0.0 0.0 0.0 0.0 0.0 
trait 3 0.3 0.0 0.0 0.0 0.0 0.0 0.0 0.0 
node 1 3 1 1
node 2 1 1 1
node 3 1 1 3
node 4 1 0 2
gene  1 1 4 2.020585523047841 0 1.0 2.020585523047841 1
gene  3 2 4 -4.87919675153752 0 2.0 -4.87919675153752 1
gene  3 3 4 -2.7911615274402917 0 3.0 -2.7911615274402917 1
genomeend 5
/* Organism # 006 Fitness:  8,858 Error:  3,976                      */
genomestart  6
trait 1 0.1 0.0 0.0 0.0 0.0 0.0 0.0 0.0 
trait 2 0.42456884741091117 0.08553049455110995 0.04238119945796015 0.0 0.0 0.0 0.0 0.0 
trait 3 0.3 0.0 0.0 0.0 0.0 0.0 0.0 0.0 
node 1 1 1 1
node 2 1 1 1
node 3 1 1 3
node 4 1 0 2
node 13 1 0 0
gene  1 1 4 0.8182934108025377 0 1.0 0.8182934108025377 0
gene  2 2 4 -2.733231077731422 0 2.0 -2.733231077731422 1
gene  3 3 4 -1.8617550359117603 0 3.0 -1.8617550359117603 1
gene  1 1 13 1.0 0 25.0 0.0 1
gene  1 13 4 0.8182934108025377 0 26.0 0.0 1
genomeend 6
/* Organism # 007 Fitness:  4,223 Error:  3,055                      */
genomestart  7
trait 1 0.1 0.0 0.0 0.0 0.0 0.0 0.0 0.0 
trait 2 0.2 0.0 0.0 0.0 0.0 0.0 0.0 0.0 
trait 3 0.3 0.0 0.0 0.0 0.0 0.0 0.0 0.0 
node 1 1 1 1
node 2 1 1 1
node 3 1 1 3
node 4 1 0 2
gene  1 1 4 3.3484019719894866 0 1.0 3.3484019719894866 1
gene  2 2 4 -4.220320941878539 0 2.0 -4.220320941878539 1
gene  3 3 4 -2.8184678727874615 0 3.0 -2.8184678727874615 1
genomeend 7
/* Organism # 008 Fitness:  8,945 Error:  3,991                      */
genomestart  8
trait 1 0.1 0.0 0.0 0.0 0.0 0.0 0.0 0.0 
trait 2 0.42456884741091117 0.08553049455110995 0.04238119945796015 0.0 0.0 0.0 0.0 0.0 
trait 3 0.3 0.0 0.0 0.0 0.0 0.0 0.0 0.0 
node 1 1 1 1
node 2 1 1 1
node 3 1 1 3
node 4 1 0 2
gene  1 1 4 0.9720375915411795 0 1.0 0.9720375915411795 1
gene  2 2 4 -3.1870483777489342 0 2.0 -3.1870483777489342 1
gene  3 3 4 -2.4038697003880394 0 3.0 -2.4038697003880394 1
genomeend 8
/* Organism # 009 Fitness:  8,978 Error:  3,996                      */
genomestart  9
trait 1 0.1 0.0 0.0 0.0 0.0 0.0 0.0 0.0 
trait 2 0.21265628385636992 0.0 0.04184880035156974 0.1832931126509921 0.049115896234725676 0.0 0.0 0.0 
trait 3 0.3 0.0 0.0 0.0 0.0 0.0 0.0 0.0 
node 1 1 1 1
node 2 1 1 1
node 3 1 1 3
node 4 1 0 2
gene  1 1 4 1.721917864589062 0 1.0 1.721917864589062 1
gene  2 2 4 -5.036238582525836 0 2.0 -5.036238582525836 1
gene  3 3 4 -2.8685838598561424 0 3.0 -2.8685838598561424 1
genomeend 9
/* Organism # 010 Fitness:  0,067 Error:  1,259                      */
genomestart  10
trait 1 0.1 0.0 0.0 0.0 0.0 0.0 0.0 0.0 
trait 2 0.42456884741091117 0.08553049455110995 0.04238119945796015 0.0 0.0 0.0 0.0 0.0 
trait 3 0.3 0.0 0.0 0.0 0.0 0.0 0.0 0.0 
node 1 1 1 1
node 2 1 1 1
node 3 1 1 3
node 4 1 0 2
gene  1 1 4 0.8530357854083339 0 1.0 0.8530357854083339 1
gene  2 2 4 -0.03351145933061378 0 2.0 -0.03351145933061378 1
gene  3 3 4 -0.4465270122244247 0 3.0 -0.4465270122244247 1
genomeend 10
/* Organism # 011 Fitness:  8,950 Error:  3,992                      */
genomestart  11
trait 1 0.1 0.0 0.0 0.0 0.0 0.0 0.0 0.0 
trait 2 0.42456884741091117 0.08553049455110995 0.04238119945796015 0.0 0.0 0.0 0.0 0.0 
trait 3 0.3 0.0 0.0 0.0 0.0 0.0 0.0 0.0 
node 1 1 1 1
node 2 1 1 1
node 3 1 1 3
node 4 1 0 2
gene  1 1 4 0.9710542904643413 0 1.0 0.9710542904643413 1
gene  2 2 4 -4.204463130688609 0 2.0 -4.204463130688609 1
gene  3 3 4 -4.271091827674214 0 3.0 -4.271091827674214 1
genomeend 11
/* Organism # 012 Fitness:  8,876 Error:  3,979                      */
genomestart  12
trait 1 0.1 0.0 0.0 0.0 0.0 0.0 0.0 0.0 
trait 2 0.42456884741091117 0.08553049455110995 0.04238119945796015 0.0 0.0 0.0 0.0 0.0 
trait 3 0.3 0.0 0.0 0.0 0.0 0.0 0.0 0.0 
node 1 1 1 1
node 2 1 1 1
node 3 1 1 3
node 4 1 0 2
gene  1 1 4 0.8179278940253698 0 1.0 0.8179278940253698 1
gene  2 2 4 -2.796030236175945 0 2.0 -2.796030236175945 1
gene  3 3 4 -1.9846631343779035 0 3.0 -1.9846631343779035 1
genomeend 12
/* Organism # 013 Fitness:  1,719 Error:  2,311                      */
genomestart  13
trait 1 0.1 0.0 0.0 0.0 0.0 0.0 0.0 0.0 
trait 2 0.2 0.0 0.0 0.0 0.0 0.0 0.0 0.0 
trait 3 0.3 0.0 0.0 0.0 0.0 0.0 0.0 0.0 
node 1 1 1 1
node 2 1 1 1
node 3 1 1 3
node 4 2 0 2
gene  1 1 4 -0.8152621973766785 0 1.0 -0.8152621973766785 1
gene  2 2 4 0.7171116897106897 0 2.0 0.7171116897106897 1
gene  3 3 4 -0.06243575988489153 0 3.0 -0.06243575988489153 1
genomeend 13
/* Organism # 014 Fitness:  8,977 Error:  3,996                      */
genomestart  14
trait 1 0.1 0.0 0.0 0.0 0.0 0.0 0.0 0.0 
trait 2 0.2 0.0 0.0 0.0 0.0 0.0 0.0 0.0 
trait 3 0.3 0.0 0.0 0.0 0.0 0.0 0.0 0.0 
node 1 1 1 1
node 2 1 1 1
node 3 1 1 3
node 4 1 0 2
gene  1 1 4 1.1281406750876921 0 1.0 1.1281406750876921 1
gene  2 2 4 -4.019735509315765 0 2.0 -4.019735509315765 1
gene  3 3 4 -3.917921595220537 0 3.0 -3.917921595220537 1
genomeend 14
/* Organism # 015 Fitness:  8,858 Error:  3,976                      */
genomestart  15
trait 1 0.1 0.0 0.0 0.0 0.0 0.0 0.0 0.0 
trait 2 0.2 0.0 0.0 0.0 0.0 0.0 0.0 0.0 
trait 3 0.9061638880285916 0.0 0.0 0.0 0.48451934441053623 0.0 0.9505078653852667 0.0 
node 1 1 1 1
node 2 1 1 1
node 3 1 1 3
node 4 1 0 2
gene  1 1 4 0.7696116432820469 0 1.0 0.7696116432820469 1
gene  2 2 4 -2.0650854116029795 0 2.0 -2.0650854116029795 1
gene  3 3 4 -5.830357376890356 0 3.0 -5.830357376890356 1
genomeend 15
/* Organism # 016 Fitness:  1,851 Error:  2,361                      */
genomestart  16
trait 1 0.1 0.0 0.0 0.0 0.0 0.0 0.0 0.0 
trait 2 0.2 0.0 0.0 0.0 0.0 0.0 0.0 0.0 
trait 3 0.3 0.0 0.0 0.0 0.0 0.0 0.0 0.0 
node 1 1 1 1
node 2 1 1 1
node 3 1 1 3
node 4 1 0 2
gene  1 1 4 -0.19741145397425464 0 1.0 -0.19741145397425464 1
gene  2 2 4 0.6761436813604571 0 2.0 0.6761436813604571 1
gene  3 3 4 -2.0835333980413377 0 3.0 -2.0835333980413377 1
genomeend 16
/* Organism # 017 Fitness:  4,671 Error:  3,161                      */
genomestart  17
trait 1 0.1 0.0 0.0 0.0 0.0 0.0 0.0 0.0 
trait 2 0.2 0.0 0.0 0.0 0.0 0.0 0.0 0.0 
trait 3 0.3 0.0 0.0 0.0 0.0 0.0 0.0 0.0 
node 1 1 1 1
node 2 1 1 1
node 3 3 1 3
node 4 1 0 2
gene  1 1 4 1.787045268686139 0 1.0 1.787045268686139 1
gene  3 2 4 -1.452330864063205 0 2.0 -1.452330864063205 1
gene  3 3 4 -4.636268374542767 0 3.0 -4.636268374542767 1
genomeend 17
/* Organism # 018 Fitness:  8,979 Error:  3,997                      */
genomestart  18
trait 1 0.1 0.0 0.0 0.0 0.0 0.0 0.0 0.0 
trait 2 0.2 0.0 0.0 0.0 0.0 0.0 0.0 0.0 
trait 3 0.3 0.0 0.0 0.0 0.0 0.0 0.0 0.0 
node 1 1 1 1
node 2 1 1 1
node 3 1 1 3
node 4 1 0 2
gene  1 1 4 1.1516686665735738 0 1.0 1.1516686665735738 1
gene  2 2 4 -3.6490045117769627 0 2.0 -3.6490045117769627 1
gene  3 3 4 -4.003909946858597 0 3.0 -4.003909946858597 1
genomeend 18
/* Organism # 019 Fitness:  4,066 Error:  3,017                      */
genomestart  19
trait 1 0.1 0.0 0.0 0.0 0.0 0.0 0.0 0.0 
trait 2 0.21265628385636992 0.0 0.04184880035156974 0.1832931126509921 0.049115896234725676 0.0 0.0 0.0 
trait 3 0.3 0.0 0.0 0.0 0.0 0.0 0.0 0.0 
node 1 1 1 1
node 2 1 1 1
node 3 1 1 3
node 4 1 0 2
gene  1 1 4 -0.82950962477776 0 1.0 -0.82950962477776 1
gene  2 2 4 -4.0437854262847175 0 2.0 -4.0437854262847175 1
gene  3 3 4 -2.3233689773545767 0 3.0 -2.3233689773545767 1
genomeend 19
/* Organism # 020 Fitness:  4,656 Error:  3,158                      */
genomestart  20
trait 1 0.1 0.0 0.0 0.0 0.0 0.0 0.0 0.0 
trait 2 0.42456884741091117 0.08553049455110995 0.04238119945796015 0.0 0.0 0.0 0.0 0.0 
trait 3 0.3 0.0 0.0 0.0 0.0 0.0 0.0 0.0 
node 1 1 1 1
node 2 1 1 1
node 3 1 1 3
node 4 1 0 2
gene  1 1 4 -0.3402320636618468 0 1.0 -0.3402320636618468 1
gene  2 2 4 -3.8825171562743117 0 2.0 -3.8825171562743117 1
gene  3 3 4 -3.2430293505274435 0 3.0 -3.2430293505274435 1
genomeend 20
/* Organism # 021 Fitness:  0,935 Error:  1,967                      */
genomestart  21
trait 1 0.1 0.0 0.0 0.0 0.0 0.0 0.0 0.0 
trait 2 0.2 0.0 0.0 0.0 0.0 0.0 0.0 0.0 
trait 3 0.3 0.0 0.0 0.0 0.0 0.0 0.0 0.0 
node 1 1 1 1
node 2 1 1 1
node 3 1 1 3
node 4 1 0 2
gene  1 1 4 2.751383999048712 0 1.0 2.751383999048712 1
gene  2 2 4 -1.9735291696441244 0 2.0 -1.9735291696441244 1
gene  3 3 4 -1.3551073435574725 0 3.0 -1.3551073435574725 1
genomeend 21
/* Organism # 022 Fitness:  8,880 Error:  3,980                      */
genomestart  22
trait 1 0.1 0.0 0.0 0.0 0.0 0.0 0.0 0.0 
trait 2 0.6491376948218223 0.1710609891022199 0.0847623989159203 0.0 0.0 0.0 0.0 0.0 
trait 3 0.3 0.0 0.0 0.0 0.0 0.0 0.0 0.0 
node 1 1 1 1
node 2 1 1 1
node 3 1 1 3
node 4 1 0 2
gene  1 1 4 0.7894898999009512 0 1.0 0.7894898999009512 1
gene  2 2 4 -3.0317527435042186 0 2.0 -3.0317527435042186 1
gene  1 3 4 -2.8736504861218126 0 3.0 -2.8736504861218126 1
genomeend 22
/* Organism # 023 Fitness:  4,237 Error:  3,058                      */
genomestart  23
trait 1 0.1 0.0 0.0 0.0 0.0 0.0 0.0 0.0 
trait 2 0.2 0.0 0.0 0.0 0.0 0.0 0.0 0.0 
trait 3 0.3 0.0 0.0 0.0 0.0 0.0 0.0 0.0 
node 1 1 1 1
node 2 1 1 1
node 3 1 1 3
node 4 1 0 2
gene  1 1 4 0.8437637354693843 0 1.0 0.8437637354693843 1
gene  2 2 4 -3.941597459744335 0 2.0 -3.941597459744335 1
gene  3 3 4 -0.3302894007789847 0 3.0 -0.3302894007789847 1
genomeend 23
/* Organism # 024 Fitness:  2,250 Error:  2,500                      */
genomestart  24
trait 1 0.1 0.0 0.0 0.0 0.0 0.0 0.0 0.0 
trait 2 0.6491376948218223 0.1710609891022199 0.0847623989159203 0.0 0.0 0.0 0.0 0.0 
trait 3 0.3 0.0 0.0 0.0 0.0 0.0 0.0 0.0 
node 1 1 1 1
node 2 1 1 1
node 3 1 1 3
node 4 1 0 2
gene  1 1 4 -0.17506352315745421 0 1.0 -0.17506352315745421 1
gene  2 2 4 0.4527667547703704 0 2.0 0.4527667547703704 1
gene  3 3 4 -5.011541261351703 0 3.0 -5.011541261351703 1
genomeend 24
/* Organism # 025 Fitness:  9,000 Error:  4,000                      */
genomestart  25
trait 1 0.1 0.0 0.0 0.0 0.0 0.0 0.0 0.0 
trait 2 0.2 0.0 0.0 0.0 0.0 0.0 0.0 0.0 
trait 3 0.3 0.0 0.0 0.0 0.0 0.0 0.0 0.0 
node 1 1 1 1
node 2 1 1 1
node 3 1 1 3
node 4 2 0 2
gene  1 1 4 2.6194591783678667 0 1.0 2.6194591783678667 1
gene  2 2 4 -5.226860594732345 0 2.0 -5.226860594732345 1
gene  3 3 4 -4.790814719098934 0 3.0 -4.790814719098934 1
genomeend 25
/* Organism # 026 Fitness:  4,000 Error:  3,000                      */
genomestart  26
trait 1 0.1 0.0 0.0 0.0 0.0 0.0 0.0 0.0 
trait 2 0.2 0.0 0.0 0.0 0.0 0.0 0.0 0.0 
trait 3 0.9061638880285916 0.0 0.0 0.0 0.48451934441053623 0.0 0.9505078653852667 0.0 
node 1 1 1 1
node 2 1 1 1
node 3 1 1 3
node 4 1 0 2
gene  1 1 4 2.5250661189421946 0 1.0 2.5250661189421946 1
gene  2 2 4 -0.10649815716814048 0 2.0 -0.10649815716814048 1
gene  3 3 4 -6.048104434254707 0 3.0 -6.048104434254707 1
genomeend 26
/* Organism # 027 Fitness:  8,280 Error:  3,877                      */
genomestart  27
trait 1 0.1 0.0 0.0 0.0 0.0 0.0 0.0 0.0 
trait 2 0.2 0.0 0.0 0.0 0.0 0.0 0.0 0.0 
trait 3 0.3 0.0 0.0 0.0 0.0 0.0 0.0 0.0 
node 1 1 1 1
node 2 1 1 1
node 3 1 1 3
node 4 1 0 2
gene  1 1 4 0.4171707729227575 0 1.0 0.4171707729227575 1
gene  2 2 4 -1.3745622888269733 0 2.0 -1.3745622888269733 1
gene  3 3 4 -2.4732318531189144 0 3.0 -2.4732318531189144 1
genomeend 27
/* Organism # 028 Fitness:  8,602 Error:  3,933                      */
genomestart  28
trait 1 0.1 0.0 0.0 0.0 0.0 0.0 0.0 0.0 
trait 2 0.2 0.0 0.0 0.0 0.0 0.0 0.0 0.0 
trait 3 0.3 0.0 0.0 0.0 0.0 0.0 0.0 0.0 
node 1 1 1 1
node 2 1 1 1
node 3 1 1 3
node 4 1 0 2
gene  1 1 4 0.5500107573885754 0 1.0 0.5500107573885754 1
gene  2 2 4 -1.647220403992497 0 2.0 -1.647220403992497 1
gene  3 3 4 -2.3031644334393775 0 3.0 -2.3031644334393775 1
genomeend 28
/* Organism # 029 Fitness:  8,957 Error:  3,993                      */
genomestart  29
trait 1 0.1 0.0 0.0 0.0 0.0 0.0 0.0 0.0 
trait 2 0.2 0.0 0.0 0.0 0.0 0.0 0.0 0.0 
trait 3 0.3 0.0 0.0 0.0 0.0 0.0 0.0 0.0 
node 1 1 1 1
node 2 1 1 1
node 3 1 1 3
node 4 1 0 2
gene  1 1 4 1.0109204650625863 0 1.0 1.0109204650625863 1
gene  3 2 4 -2.9216511582608047 0 2.0 -2.9216511582608047 1
gene  3 3 4 -2.7079412777639233 0 3.0 -2.7079412777639233 1
genomeend 29
/* Organism # 030 Fitness:  8,829 Error:  3,971                      */
genomestart  30
trait 1 0.1 0.0 0.0 0.0 0.0 0.0 0.0 0.0 
trait 2 0.2 0.0 0.0 0.0 0.0 0.0 0.0 0.0 
trait 3 0.6030819440142958 0.0 0.0 0.0 0.24225967220526812 0.0 0.47525393269263333 0.0 
node 1 1 1 1
node 2 1 1 1
node 3 1 1 3
node 4 1 0 2
gene  1 1 4 0.7162842464776786 0 1.0 0.7162842464776786 1
gene  2 2 4 -2.7564162461815576 0 2.0 -2.7564162461815576 1
gene  3 3 4 -2.793843349592697 0 3.0 -2.793843349592697 1
genomeend 30
/* Organism # 031 Fitness:  4,058 Error:  3,015                      */
genomestart  31
trait 1 0.1 0.0 0.0 0.0 0.0 0.0 0.0 0.0 
trait 2 0.2 0.801764589983136 0.0 0.0 0.0 0.0 0.2599460746603107 0.8735907409817208 
trait 3 0.3 0.0 0.0 0.0 0.0 0.0 0.0 0.0 
node 1 1 1 1
node 2 1 1 1
node 3 1 1 3
node 4 2 0 2
gene  3 1 4 -0.8555300170155618 0 1.0 -0.8555300170155618 1
gene  2 2 4 -6.29399183424908 0 2.0 -6.29399183424908 1
gene  3 3 4 -1.2483117402284973 0 3.0 -1.2483117402284973 1
genomeend 31
/* Organism # 032 Fitness:  3,377 Error:  2,838                      */
genomestart  32
trait 1 0.1 0.0 0.0 0.0 0.0 0.0 0.0 0.0 
trait 2 0.2 0.0 0.0 0.0 0.0 0.0 0.0 0.0 
trait 3 0.3 0.0 0.0 0.0 0.0 0.0 0.0 0.0 
node 1 1 1 1
node 2 1 1 1
node 3 1 1 3
node 4 1 0 2
gene  1 1 4 2.107868162892595 0 1.0 2.107868162892595 1
gene  2 2 4 -1.7342145212876223 0 2.0 -1.7342145212876223 1
gene  3 3 4 -2.280502050786634 0 3.0 -2.280502050786634 1
genomeend 32
/* Organism # 033 Fitness:  1,088 Error:  2,043                      */
genomestart  33
trait 1 0.1 0.0 0.0 0.0 0.0 0.0 0.0 0.0 
trait 2 0.6491376948218223 0.1710609891022199 0.0847623989159203 0.0 0.0 0.0 0.0 0.0 
trait 3 0.3 0.0 0.0 0.0 0.0 0.0 0.0 0.0 
node 1 1 1 1
node 2 1 1 1
node 3 1 1 3
node 4 1 0 2
gene  1 1 4 -0.646171734407699 0 1.0 -0.646171734407699 1
gene  2 2 4 -2.3600361623250747 0 2.0 -2.3600361623250747 1
gene  3 3 4 1.7171702905447694 0 3.0 1.7171702905447694 1
genomeend 33
/* Organism # 034 Fitness:  8,835 Error:  3,972                      */
genomestart  34
trait 1 0.1 0.0 0.0 0.0 0.0 0.0 0.0 0.0 
trait 2 0.2 0.0 0.0 0.0 0.0 0.0 0.0 0.0 
trait 3 0.3 0.0 0.0 0.0 0.0 0.0 0.0 0.0 
node 1 1 1 1
node 2 1 1 1
node 3 1 1 3
node 4 1 0 2
gene  1 1 4 0.7324648545747579 0 1.0 0.7324648545747579 1
gene  2 2 4 -2.733231077731422 0 2.0 -2.733231077731422 1
gene  3 3 4 -2.107571232844047 0 3.0 -2.107571232844047 1
genomeend 34
/* Organism # 035 Fitness:  8,923 Error:  3,987                      */
genomestart  35
trait 1 0.1 0.0 0.0 0.0 0.0 0.0 0.0 0.0 
trait 2 0.20632814192818497 0.0 0.02092440017578487 0.09164655632549605 0.024557948117362838 0.0 0.0 0.0 
trait 3 0.3 0.0 0.0 0.0 0.0 0.0 0.0 0.0 
node 1 1 1 1
node 2 1 1 1
node 3 1 1 3
node 4 1 0 2
gene  1 1 4 0.8834796107112757 0 1.0 0.8834796107112757 1
gene  2 2 4 -2.7564162461815576 0 2.0 -2.7564162461815576 1
gene  3 3 4 -2.7358494686602164 0 3.0 -2.7358494686602164 1
genomeend 35
/* Organism # 036 Fitness:  7,163 Error:  3,676                      */
genomestart  36
trait 1 0.1 0.0 0.0 0.0 0.0 0.0 0.0 0.0 
trait 2 0.2 0.0 0.0 0.0 0.0 0.0 0.0 0.0 
trait 3 0.3 0.0 0.0 0.0 0.0 0.0 0.0 0.0 
node 1 1 1 1
node 2 1 1 1
node 3 1 1 3
node 4 1 0 2
gene  1 1 4 1.8285968597998714 0 1.0 1.8285968597998714 1
gene  2 2 4 -1.9784274640455863 0 2.0 -1.9784274640455863 1
gene  3 3 4 -5.606227609630056 0 3.0 -5.606227609630056 1
genomeend 36
/* Organism # 037 Fitness:  8,943 Error:  3,990                      */
genomestart  37
trait 1 0.1 0.0 0.0 0.0 0.0 0.0 0.0 0.0 
trait 2 0.2 0.0 0.0 0.0 0.0 0.0 0.0 0.0 
trait 3 0.6030819440142958 0.0 0.0 0.0 0.24225967220526812 0.0 0.47525393269263333 0.0 
node 1 1 1 1
node 2 1 1 1
node 3 1 1 3
node 4 2 0 2
gene  3 1 4 0.9886277894098554 0 1.0 0.9886277894098554 1
gene  2 2 4 -4.038859453720674 0 2.0 -4.038859453720674 1
gene  3 3 4 -2.2622111347834224 0 3.0 -2.2622111347834224 1
genomeend 37
/* Organism # 038 Fitness:  8,919 Error:  3,986                      */
genomestart  38
trait 1 0.1 0.0 0.0 0.0 0.0 0.0 0.0 0.0 
trait 2 0.2 0.0 0.0 0.0 0.0 0.0 0.0 0.0 
trait 3 0.6030819440142958 0.0 0.0 0.0 0.24225967220526812 0.0 0.47525393269263333 0.0 
node 1 1 1 1
node 2 1 1 1
node 3 1 1 3
node 4 1 0 2
gene  1 1 4 1.9685239868806885 0 1.0 1.9685239868806885 1
gene  2 2 4 -2.8485384532543305 0 2.0 -2.8485384532543305 1
gene  3 3 4 -3.5142552358881245 0 3.0 -3.5142552358881245 1
genomeend 38
/* Organism # 039 Fitness:  4,351 Error:  3,086                      */
genomestart  39
trait 1 0.1 0.0 0.0 0.0 0.0 0.0 0.0 0.0 
trait 2 0.6491376948218223 0.1710609891022199 0.0847623989159203 0.0 0.0 0.0 0.0 0.0 
trait 3 0.3 0.0 0.0 0.0 0.0 0.0 0.0 0.0 
node 1 1 1 1
node 2 1 1 1
node 3 1 1 3
node 4 1 0 2
gene  1 1 4 0.9753575800941244 0 1.0 0.9753575800941244 1
gene  2 2 4 -0.9700297303850403 0 2.0 -0.9700297303850403 1
gene  3 3 4 -1.0628146014310174 0 3.0 -1.0628146014310174 1
genomeend 39
/* Organism # 040 Fitness:  8,849 Error:  3,975                      */
genomestart  40
trait 1 0.1 0.0 0.0 0.0 0.0 0.0 0.0 0.0 
trait 2 0.6491376948218223 0.1710609891022199 0.0847623989159203 0.0 0.0 0.0 0.0 0.0 
trait 3 0.3 0.0 0.0 0.0 0.0 0.0 0.0 0.0 
node 1 1 1 1
node 2 1 1 1
node 3 1 1 3
node 4 1 0 2
gene  1 1 4 0.8182934108025377 0 1.0 0.8182934108025377 1
gene  2 2 4 -2.179788771911348 0 2.0 -2.179788771911348 1
gene  3 3 4 -1.8359628593381339 0 3.0 -1.8359628593381339 1
genomeend 40
/* Organism # 041 Fitness:  0,045 Error:  1,212                      */
genomestart  41
trait 1 0.1 0.0 0.0 0.0 0.0 0.0 0.0 0.0 
trait 2 0.6491376948218223 0.1710609891022199 0.0847623989159203 0.0 0.0 0.0 0.0 0.0 
trait 3 0.3 0.0 0.0 0.0 0.0 0.0 0.0 0.0 
node 1 1 1 1
node 2 1 1 1
node 3 3 1 3
node 4 1 0 2
gene  1 1 4 2.517474528920567 0 1.0 2.517474528920567 1
gene  2 2 4 -0.129435539585403 0 2.0 -0.129435539585403 1
gene  3 3 4 -2.012092017407796 0 3.0 -2.012092017407796 1
genomeend 41
/* Organism # 042 Fitness:  2,982 Error:  2,727                      */
genomestart  42
trait 1 0.1 0.0 0.0 0.0 0.0 0.0 0.0 0.0 
trait 2 0.2 0.0 0.0 0.0 0.0 0.0 0.0 0.0 
trait 3 0.3 0.0 0.0 0.0 0.0 0.0 0.0 0.0 
node 1 1 1 1
node 2 1 1 1
node 3 1 1 3
node 4 1 0 2
gene  1 1 4 1.848665640511952 0 1.0 1.848665640511952 1
gene  2 2 4 -1.363535084994321 0 2.0 -1.363535084994321 1
gene  3 3 4 -1.9685859534941919 0 3.0 -1.9685859534941919 1
genomeend 42
/* Organism # 043 Fitness:  8,975 Error:  3,996                      */
genomestart  43
trait 1 0.1 0.0 0.0 0.0 0.0 0.0 0.0 0.0 
trait 2 0.2 0.0 0.0 0.0 0.0 0.0 0.0 0.0 
trait 3 0.3 0.0 0.0 0.0 0.0 0.0 0.0 0.0 
node 1 1 1 1
node 2 1 1 1
node 3 1 1 3
node 4 2 0 2
node 13 1 0 0
gene  1 1 4 1.1257817722798213 0 1.0 1.1257817722798213 0
gene  2 2 4 -4.19430798358652 0 2.0 -4.19430798358652 1
gene  3 3 4 -2.9717765414379453 0 3.0 -2.9717765414379453 1
gene  1 1 13 1.0 0 25.0 0.0 1
gene  1 13 4 1.1257817722798213 0 26.0 0.0 1
genomeend 43
/* Organism # 044 Fitness:  5,011 Error:  3,239                      */
genomestart  44
trait 1 0.1 0.0 0.0 0.0 0.0 0.0 0.0 0.0 
trait 2 0.2 0.0 0.0 0.0 0.0 0.0 0.0 0.0 
trait 3 0.3 0.0 0.0 0.0 0.0 0.0 0.0 0.0 
node 1 1 1 1
node 2 1 1 1
node 3 1 1 3
node 4 1 0 2
gene  1 1 4 -0.23023230546310636 0 1.0 -0.23023230546310636 1
gene  2 2 4 -0.8507600041956089 0 2.0 -0.8507600041956089 1
gene  3 3 4 -3.0639979359735374 0 3.0 -3.0639979359735374 1
genomeend 44
/* Organism # 045 Fitness:  8,412 Error:  3,900                      */
genomestart  45
trait 1 0.1 0.0 0.0 0.0 0.0 0.0 0.0 0.0 
trait 2 0.42456884741091117 0.08553049455110995 0.04238119945796015 0.0 0.0 0.0 0.0 0.0 
trait 3 0.3 0.0 0.0 0.0 0.0 0.0 0.0 0.0 
node 1 1 1 1
node 2 1 1 1
node 3 1 1 3
node 4 1 0 2
gene  1 1 4 0.44693768713248727 0 1.0 0.44693768713248727 1
gene  2 2 4 -2.6792681377533953 0 2.0 -2.6792681377533953 1
gene  3 3 4 -3.4448637463244625 0 3.0 -3.4448637463244625 1
genomeend 45
/* Organism # 046 Fitness:  0,000 Error:  1,000                      */
genomestart  46
trait 1 0.1 0.0 0.0 0.0 0.0 0.0 0.0 0.0 
trait 2 0.2 0.0 0.0 0.0 0.0 0.0 0.0 0.0 
trait 3 0.3 0.0 0.0 0.0 0.0 0.0 0.0 0.0 
node 1 1 1 1
node 2 1 1 1
node 3 1 1 3
node 4 1 0 2
gene  1 1 4 2.2894055065955383 0 1.0 2.2894055065955383 1
gene  2 2 4 2.2671585284495075 0 2.0 2.2671585284495075 1
gene  3 3 4 -0.5973384236385764 0 3.0 -0.5973384236385764 1
genomeend 46
/* Organism # 047 Fitness:  4,005 Error:  3,001                      */
genomestart  47
trait 1 0.1 0.0 0.0 0.0 0.0 0.0 0.0 0.0 
trait 2 0.6491376948218223 0.1710609891022199 0.0847623989159203 0.0 0.0 0.0 0.0 0.0 
trait 3 0.3 0.0 0.0 0.0 0.0 0.0 0.0 0.0 
node 1 1 1 1
node 2 1 1 1
node 3 1 1 3
node 4 1 0 2
gene  1 1 4 -1.3506385900885622 0 1.0 -1.3506385900885622 1
gene  2 2 4 -2.6569032112990305 0 2.0 -2.6569032112990305 1
gene  3 3 4 -6.066715786377247 0 3.0 -6.066715786377247 1
genomeend 47
/* Organism # 048 Fitness:  8,929 Error:  3,988                      */
genomestart  48
trait 1 0.1 0.0 0.0 0.0 0.0 0.0 0.0 0.0 
trait 2 0.2 0.0 0.0 0.0 0.0 0.0 0.0 0.0 
trait 3 0.3 0.0 0.0 0.0 0.0 0.0 0.0 0.0 
node 1 1 1 1
node 2 1 1 1
node 3 1 1 3
node 4 1 0 2
gene  1 1 4 0.8992447951460647 0 1.0 0.8992447951460647 1
gene  2 2 4 -2.9571940172289803 0 2.0 -2.9571940172289803 1
gene  3 3 4 -2.795148636300131 0 3.0 -2.795148636300131 1
genomeend 48
/* Organism # 049 Fitness:  4,253 Error:  3,062                      */
genomestart  49
trait 1 0.1 0.0 0.0 0.8302458141671849 0.9668947112063048 0.0 0.0 0.0 
trait 2 0.2 0.0 0.0 0.0 0.0 0.0 0.0 0.0 
trait 3 0.3 0.0 0.0 0.0 0.0 0.0 0.0 0.0 
node 1 1 1 1
node 2 1 1 1
node 3 1 1 3
node 4 1 0 2
gene  1 1 4 2.2845880472147924 0 1.0 2.2845880472147924 1
gene  2 2 4 -1.7342145212876223 0 2.0 -1.7342145212876223 1
gene  3 3 4 -5.836522387768136 0 3.0 -5.836522387768136 1
genomeend 49
/* Organism # 050 Fitness:  8,860 Error:  3,977                      */
genomestart  50
trait 1 0.1 0.0 0.0 0.0 0.0 0.0 0.0 0.0 
trait 2 0.6491376948218223 0.1710609891022199 0.0847623989159203 0.0 0.0 0.0 0.0 0.0 
trait 3 0.3 0.0 0.0 0.0 0.0 0.0 0.0 0.0 
node 1 1 1 1
node 2 1 1 1
node 3 1 1 3
node 4 1 0 2
gene  1 1 4 0.8182934108025377 0 1.0 0.8182934108025377 1
gene  2 2 4 -2.858829394620468 0 2.0 -2.858829394620468 1
gene  3 3 4 -1.8617550359117603 0 3.0 -1.8617550359117603 1
genomeend 50
/* Organism # 051 Fitness:  8,597 Error:  3,932                      */
genomestart  51
trait 1 0.1 0.0 0.0 0.0 0.0 0.0 0.0 0.0 
trait 2 0.2 0.0 0.0 0.0 0.0 0.0 0.0 0.0 
trait 3 0.3 0.0 0.0 0.0 0.0 0.0 0.0 0.0 
node 1 1 1 1
node 2 1 1 1
node 3 1 1 3
node 4 2 0 2
gene  1 1 4 1.1419949057454608 0 1.0 1.1419949057454608 1
gene  2 2 4 -1.6859135075155651 0 2.0 -1.6859135075155651 1
gene  3 3 4 -3.463566159697563 0 3.0 -3.463566159697563 1
genomeend 51
/* Organism # 052 Fitness:  8,995 Error:  3,999                      */
genomestart  52
trait 1 0.1 0.0 0.0 0.0 0.0 0.0 0.0 0.0 
trait 2 0.2 0.0 0.0 0.0 0.0 0.0 0.0 0.0 
trait 3 0.3 0.0 0.0 0.0 0.0 0.0 0.0 0.0 
node 1 1 1 1
node 2 1 1 1
node 3 1 1 3
node 4 2 0 2
gene  3 1 4 1.4503549883271036 0 1.0 1.4503549883271036 1
gene  2 2 4 -3.8675577034740165 0 2.0 -3.8675577034740165 1
gene  3 3 4 -3.4984463281383746 0 3.0 -3.4984463281383746 1
genomeend 52
/* Organism # 053 Fitness:  7,661 Error:  3,768                      */
genomestart  53
trait 1 0.1 0.0 0.0 0.0 0.0 0.0 0.0 0.0 
trait 2 0.42456884741091117 0.08553049455110995 0.04238119945796015 0.0 0.0 0.0 0.0 0.0 
trait 3 0.3 0.0 0.0 0.0 0.0 0.0 0.0 0.0 
node 1 1 1 1
node 2 1 1 1
node 3 1 1 3
node 4 1 0 2
gene  1 1 4 0.24333646367617 0 1.0 0.24333646367617 1
gene  2 2 4 -1.8453655828894833 0 2.0 -1.8453655828894833 1
gene  3 3 4 -5.888825215091612 0 3.0 -5.888825215091612 1
genomeend 53
/* Organism # 054 Fitness:  4,012 Error:  3,003                      */
genomestart  54
trait 1 0.1 0.0 0.0 0.0 0.0 0.0 0.0 0.0 
trait 2 0.2 0.0 0.0 0.0 0.0 0.0 0.0 0.0 
trait 3 0.3 0.0 0.0 0.0 0.0 0.0 0.0 0.0 
node 1 1 1 1
node 2 1 1 1
node 3 1 1 3
node 4 1 0 2
gene  1 1 4 -1.1759790944138226 0 1.0 -1.1759790944138226 1
gene  3 2 4 -1.9630669182763063 0 2.0 -1.9630669182763063 1
gene  3 3 4 -3.967887137117341 0 3.0 -3.967887137117341 1
genomeend 54
/* Organism # 055 Fitness:  4,265 Error:  3,065                      */
genomestart  55
trait 1 0.1 0.0 0.0 0.0 0.0 0.0 0.0 0.0 
trait 2 0.20632814192818497 0.0 0.02092440017578487 0.09164655632549605 0.024557948117362838 0.0 0.0 0.0 
trait 3 0.3 0.0 0.0 0.0 0.0 0.0 0.0 0.0 
node 1 1 1 1
node 2 1 1 1
node 3 1 1 3
node 4 1 0 2
gene  1 1 4 2.1308387402718743 0 1.0 2.1308387402718743 1
gene  2 2 4 -4.691253432436499 0 2.0 -4.691253432436499 1
gene  3 3 4 -1.5902116700990596 0 3.0 -1.5902116700990596 1
genomeend 55
/* Organism # 056 Fitness:  8,998 Error:  4,000                      */
genomestart  56
trait 1 0.1 0.0 0.0 0.0 0.0 0.0 0.0 0.0 
trait 2 0.2 0.0 0.0 0.0 0.0 0.0 0.0 0.0 
trait 3 0.3 0.0 0.0 0.0 0.0 0.0 0.0 0.0 
node 1 1 1 1
node 2 1 1 1
node 3 1 1 3
node 4 1 0 2
gene  1 1 4 1.6619959719467496 0 1.0 1.6619959719467496 1
gene  2 2 4 -4.369574608383714 0 2.0 -4.369574608383714 1
gene  3 3 4 -3.758051871710396 0 3.0 -3.758051871710396 1
genomeend 56
/* Organism # 057 Fitness:  0,001 Error:  1,029                      */
genomestart  57
trait 1 0.1 0.0 0.0 0.0 0.0 0.0 0.0 0.0 
trait 2 0.21265628385636992 0.0 0.04184880035156974 0.1832931126509921 0.049115896234725676 0.0 0.0 0.0 
trait 3 0.3 0.0 0.0 0.0 0.0 0.0 0.0 0.0 
node 1 1 1 1
node 2 1 1 1
node 3 1 1 3
node 4 1 0 2
gene  1 1 4 0.5647226561182901 0 1.0 0.5647226561182901 1
gene  2 2 4 0.009150017808905175 0 2.0 0.009150017808905175 1
gene  3 3 4 0.27115189385147537 0 3.0 0.27115189385147537 1
genomeend 57
/* Organism # 058 Fitness:  1,256 Error:  2,121                      */
genomestart  58
trait 1 0.1 0.0 0.0 0.0 0.0 0.0 0.0 0.0 
trait 2 0.42456884741091117 0.08553049455110995 0.04238119945796015 0.0 0.0 0.0 0.0 0.0 
trait 3 0.3 0.0 0.0 0.0 0.0 0.0 0.0 0.0 
node 1 1 1 1
node 2 1 1 1
node 3 1 1 3
node 4 1 0 2
gene  1 1 4 2.8330634660871796 0 1.0 2.8330634660871796 1
gene  2 2 4 -2.4471217891858283 0 2.0 -2.4471217891858283 1
gene  3 3 4 -1.3211724131944274 0 3.0 -1.3211724131944274 1
genomeend 58
/* Organism # 059 Fitness:  8,700 Error:  3,950                      */
genomestart  59
trait 1 0.1 0.0 0.0 0.0 0.0 0.0 0.0 0.0 
trait 2 0.2 0.0 0.0 0.0 0.0 0.0 0.0 0.0 
trait 3 0.3 0.0 0.0 0.0 0.0 0.0 0.0 0.0 
node 1 1 1 1
node 2 1 1 1
node 3 1 1 3
node 4 1 0 2
gene  1 1 4 2.459939674726151 0 1.0 2.459939674726151 1
gene  2 2 4 -3.9149784839316424 0 2.0 -3.9149784839316424 1
gene  3 3 4 -3.059334423688041 0 3.0 -3.059334423688041 1
genomeend 59
/* Organism # 060 Fitness:  4,317 Error:  3,078                      */
genomestart  60
trait 1 0.1 0.0 0.0 0.0 0.0 0.0 0.0 0.0 
trait 2 0.2 0.0 0.0 0.0 0.0 0.0 0.0 0.0 
trait 3 0.3 0.0 0.0 0.0 0.0 0.0 0.0 0.0 
node 1 1 1 1
node 2 1 1 1
node 3 1 1 3
node 4 1 0 2
gene  1 1 4 -0.5023499546689449 0 1.0 -0.5023499546689449 1
gene  3 2 4 -3.775517318555443 0 2.0 -3.775517318555443 1
gene  3 3 4 -4.809295334447046 0 3.0 -4.809295334447046 1
genomeend 60
/* Organism # 061 Fitness:  8,877 Error:  3,979                      */
genomestart  61
trait 1 0.1 0.0 0.0 0.0 0.0 0.0 0.0 0.0 
trait 2 0.2 0.0 0.0 0.0 0.0 0.0 0.0 0.0 
trait 3 0.3 0.0 0.0 0.0 0.0 0.0 0.0 0.0 
node 1 1 1 1
node 2 1 1 1
node 3 1 1 3
node 4 1 0 2
gene  1 1 4 0.9103625025885759 0 1.0 0.9103625025885759 1
gene  2 2 4 -1.8572894129299136 0 2.0 -1.8572894129299136 1
gene  3 3 4 -3.107132259086965 0 3.0 -3.107132259086965 1
genomeend 61
/* Organism # 062 Fitness:  8,995 Error:  3,999                      */
genomestart  62
trait 1 0.1 0.0 0.0 0.0 0.0 0.0 0.0 0.0 
trait 2 0.2 0.0 0.0 0.0 0.0 0.0 0.0 0.0 
trait 3 0.3 0.0 0.0 0.0 0.0 0.0 0.0 0.0 
node 1 1 1 1
node 2 1 1 1
node 3 1 1 3
node 4 1 0 2
gene  1 1 4 1.4634395364137718 0 1.0 1.4634395364137718 1
gene  2 2 4 -3.4340303763316995 0 2.0 -3.4340303763316995 1
gene  3 3 4 -3.917921595220537 0 3.0 -3.917921595220537 1
genomeend 62
/* Organism # 063 Fitness:  0,051 Error:  1,225                      */
genomestart  63
trait 1 0.1 0.0 0.0 0.0 0.0 0.0 0.0 0.0 
trait 2 0.2 0.0 0.0 0.0 0.0 0.0 0.0 0.0 
trait 3 0.3 0.0 0.0 0.0 0.2430668709977557 0.8056041093803405 0.8726957438029579 0.41291052189554023 
node 1 1 1 1
node 2 1 1 1
node 3 1 1 3
node 4 1 0 2
gene  1 1 4 2.0799776522437443 0 1.0 2.0799776522437443 1
gene  2 2 4 -0.8587113897553271 0 2.0 -0.8587113897553271 1
gene  3 3 4 -0.9627726138642556 0 3.0 -0.9627726138642556 1
genomeend 63
/* Organism # 064 Fitness:  8,835 Error:  3,972                      */
genomestart  64
trait 1 0.1 0.0 0.0 0.0 0.0 0.0 0.0 0.0 
trait 2 0.6491376948218223 0.1710609891022199 0.0847623989159203 0.0 0.0 0.0 0.0 0.0 
trait 3 0.3 0.0 0.0 0.0 0.0 0.0 0.0 0.0 
node 1 1 1 1
node 2 1 1 1
node 3 1 1 3
node 4 1 0 2
gene  1 1 4 0.7894898999009512 0 1.0 0.7894898999009512 1
gene  2 2 4 -2.082554530986842 0 2.0 -2.082554530986842 1
gene  3 3 4 -1.8359628593381339 0 3.0 -1.8359628593381339 1
genomeend 64
/* Organism # 065 Fitness:  8,488 Error:  3,913                      */
genomestart  65
trait 1 0.1 0.0 0.0 0.0 0.0 0.0 0.0 0.0 
trait 2 0.2 0.0 0.0 0.0 0.0 0.0 0.0 0.0 
trait 3 0.3 0.0 0.0 0.0 0.0 0.0 0.0 0.0 
node 1 1 1 1
node 2 1 1 1
node 3 1 1 3
node 4 2 0 2
gene  1 1 4 1.0125132837129431 0 1.0 1.0125132837129431 1
gene  2 2 4 -2.2525454333935677 0 2.0 -2.2525454333935677 1
gene  3 3 4 -1.5154609379019288 0 3.0 -1.5154609379019288 1
genomeend 65
/* Organism # 066 Fitness:  8,865 Error:  3,977                      */
genomestart  66
trait 1 0.1 0.0 0.0 0.0 0.0 0.0 0.0 0.0 
trait 2 0.42456884741091117 0.08553049455110995 0.04238119945796015 0.0 0.0 0.0 0.0 0.0 
trait 3 0.3 0.0 0.0 0.0 0.0 0.0 0.0 0.0 
node 1 1 1 1
node 2 1 1 1
node 3 1 1 3
node 4 2 0 2
gene  3 1 4 0.7928418137616124 0 1.0 0.7928418137616124 1
gene  2 2 4 -4.605440642299831 0 2.0 -4.605440642299831 1
gene  3 3 4 -1.9846631343779035 0 3.0 -1.9846631343779035 1
genomeend 66
/* Organism # 067 Fitness:  3,998 Error:  2,999                      */
genomestart  67
trait 1 0.1 0.0 0.0 0.0 0.0 0.0 0.0 0.0 
trait 2 0.7760096539823691 0.1710609891022199 0.0847623989159203 0.5003275197278904 0.0 0.07623098332186495 0.8244998697404918 0.0 
trait 3 0.3 0.0 0.0 0.0 0.0 0.0 0.0 0.0 
node 1 1 1 1
node 2 1 1 1
node 3 1 1 3
node 4 1 0 2
gene  1 1 4 -1.6532134118377604 0 1.0 -1.6532134118377604 1
gene  2 2 4 0.22053584487417766 0 2.0 0.22053584487417766 1
gene  3 3 4 -0.8472856376424396 0 3.0 -0.8472856376424396 1
genomeend 67
/* Organism # 068 Fitness:  4,001 Error:  3,000                      */
genomestart  68
trait 1 0.1 0.0 0.0 0.0 0.0 0.0 0.0 0.0 
trait 2 0.2 0.0 0.0 0.0 0.0 0.0 0.0 0.0 
trait 3 0.3 0.0 0.0 0.0 0.0 0.0 0.0 0.0 
node 1 1 1 1
node 2 1 1 1
node 3 1 1 3
node 4 1 0 2
gene  1 1 4 -1.812627394811145 0 1.0 -1.812627394811145 1
gene  2 2 4 -6.405966702883179 0 2.0 -6.405966702883179 1
gene  3 3 4 -3.764891794713917 0 3.0 -3.764891794713917 1
genomeend 68
/* Organism # 069 Fitness:  8,952 Error:  3,992                      */
genomestart  69
trait 1 0.1 0.0 0.0 0.0 0.0 0.0 0.0 0.0 
trait 2 0.6491376948218223 0.1710609891022199 0.0847623989159203 0.0 0.0 0.0 0.0 0.0 
trait 3 0.3 0.0 0.0 0.0 0.0 0.0 0.0 0.0 
node 1 1 1 1
node 2 1 1 1
node 3 1 1 3
node 4 1 0 2
gene  1 1 4 1.5771229790229366 0 1.0 1.5771229790229366 1
gene  2 2 4 -4.174362511718229 0 2.0 -4.174362511718229 1
gene  3 3 4 -2.5691367134868437 0 3.0 -2.5691367134868437 1
genomeend 69
/* Organism # 070 Fitness:  1,019 Error:  2,009                      */
genomestart  70
trait 1 0.1 0.0 0.0 0.0 0.0 0.0 0.0 0.0 
trait 2 0.42456884741091117 0.08553049455110995 0.04238119945796015 0.0 0.0 0.0 0.0 0.0 
trait 3 0.3 0.0 0.0 0.0 0.0 0.0 0.0 0.0 
node 1 1 1 1
node 2 1 1 1
node 3 1 1 3
node 4 1 0 2
gene  1 1 4 3.0863555713395767 0 1.0 3.0863555713395767 1
gene  2 2 4 -1.6068212827691317 0 2.0 -1.6068212827691317 1
gene  3 3 4 -2.3305511838632302 0 3.0 -2.3305511838632302 1
genomeend 70
/* Organism # 071 Fitness:  8,804 Error:  3,967                      */
genomestart  71
trait 1 0.1 0.0 0.0 0.0 0.0 0.0 0.0 0.0 
trait 2 0.42456884741091117 0.08553049455110995 0.04238119945796015 0.0 0.0 0.0 0.0 0.0 
trait 3 0.3 0.0 0.0 0.0 0.0 0.0 0.0 0.0 
node 1 1 1 1
node 2 1 1 1
node 3 1 1 3
node 4 1 0 2
gene  1 1 4 0.7162842464776786 0 1.0 0.7162842464776786 1
gene  2 2 4 -2.7564162461815576 0 2.0 -2.7564162461815576 1
gene  3 3 4 -1.8265181721508172 0 3.0 -1.8265181721508172 1
genomeend 71
/* Organism # 072 Fitness:  4,981 Error:  3,232                      */
genomestart  72
trait 1 0.1 0.0 0.0 0.0 0.0 0.0 0.0 0.0 
trait 2 0.42456884741091117 0.08553049455110995 0.04238119945796015 0.0 0.0 0.0 0.0 0.0 
trait 3 0.3 0.0 0.0 0.0 0.0 0.0 0.0 0.0 
node 1 1 1 1
node 2 1 1 1
node 3 1 1 3
node 4 1 0 2
gene  1 1 4 2.0396658183294294 0 1.0 2.0396658183294294 1
gene  2 2 4 -1.8009382902686697 0 2.0 -1.8009382902686697 1
gene  3 3 4 -3.1613703181560346 0 3.0 -3.1613703181560346 1
genomeend 72
/* Organism # 073 Fitness:  8,916 Error:  3,986                      */
genomestart  73
trait 1 0.1 0.0 0.0 0.0 0.0 0.0 0.0 0.0 
trait 2 0.42456884741091117 0.08553049455110995 0.04238119945796015 0.0 0.0 0.0 0.0 0.0 
trait 3 0.3 0.0 0.0 0.0 0.0 0.0 0.0 0.0 
node 1 1 1 1
node 2 1 1 1
node 3 1 1 3
node 4 1 0 2
gene  1 1 4 0.9159028524572315 0 1.0 0.9159028524572315 1
gene  2 2 4 -2.2568834573860057 0 2.0 -2.2568834573860057 1
gene  3 3 4 -2.1896322177778575 0 3.0 -2.1896322177778575 1
genomeend 73
/* Organism # 074 Fitness:  4,012 Error:  3,003                      */
genomestart  74
trait 1 0.1 0.0 0.0 0.0 0.0 0.0 0.0 0.0 
trait 2 0.42456884741091117 0.08553049455110995 0.04238119945796015 0.0 0.0 0.0 0.0 0.0 
trait 3 0.3 0.0 0.0 0.0 0.0 0.0 0.0 0.0 
node 1 1 1 1
node 2 1 1 1
node 3 1 1 3
node 4 1 0 2
gene  1 1 4 -1.1671540844565078 0 1.0 -1.1671540844565078 1
gene  2 2 4 -0.6592806287282114 0 2.0 -0.6592806287282114 1
gene  3 3 4 -3.700442336251432 0 3.0 -3.700442336251432 1
genomeend 74
/* Organism # 075 Fitness:  4,007 Error:  3,002                      */
genomestart  75
trait 1 0.1 0.0 0.0 0.0 0.0 0.0 0.0 0.0 
trait 2 0.6491376948218223 0.1710609891022199 0.0847623989159203 0.0 0.0 0.0 0.0 0.0 
trait 3 0.3 0.0 0.0 0.0 0.0 0.0 0.0 0.0 
node 1 1 1 1
node 2 1 1 1
node 3 1 1 3
node 4 1 0 2
gene  1 1 4 -1.1972870889985432 0 1.0 -1.1972870889985432 1
gene  2 2 4 -3.3081086737420495 0 2.0 -3.3081086737420495 1
gene  3 3 4 -0.21383409841907786 0 3.0 -0.21383409841907786 1
genomeend 75
/* Organism # 076 Fitness:  8,996 Error:  3,999                      */
genomestart  76
trait 1 0.1 0.0 0.0 0.0 0.0 0.0 0.0 0.0 
trait 2 0.6491376948218223 0.1710609891022199 0.0847623989159203 0.0 0.0 0.0 0.0 0.0 
trait 3 0.3 0.0 0.0 0.0 0.0 0.0 0.0 0.0 
node 1 1 1 1
node 2 1 1 1
node 3 1 1 3
node 4 1 0 2
gene  1 1 4 2.0195202996418025 0 1.0 2.0195202996418025 1
gene  2 2 4 -3.5416838207320653 0 2.0 -3.5416838207320653 1
gene  3 3 4 -4.776030856060165 0 3.0 -4.776030856060165 1
genomeend 76
/* Organism # 077 Fitness:  6,600 Error:  3,569                      */
genomestart  77
trait 1 0.1 0.0 0.0 0.0 0.0 0.0 0.0 0.0 
trait 2 0.2 0.0 0.0 0.0 0.0 0.0 0.0 0.0 
trait 3 0.3 0.0 0.0 0.0 0.0 0.0 0.0 0.0 
node 1 1 1 1
node 2 1 1 1
node 3 1 1 3
node 4 1 0 2
gene  1 1 4 0.056489916426982756 0 1.0 0.056489916426982756 1
gene  2 2 4 -5.874588235603901 0 2.0 -5.874588235603901 1
gene  3 3 4 -4.580291697266421 0 3.0 -4.580291697266421 1
genomeend 77
/* Organism # 078 Fitness:  8,882 Error:  3,980                      */
genomestart  78
trait 1 0.1 0.0 0.0 0.0 0.0 0.0 0.0 0.0 
trait 2 0.2 0.0 0.0 0.0 0.0 0.0 0.0 0.0 
trait 3 0.3 0.0 0.0 0.0 0.0 0.0 0.0 0.0 
node 1 1 1 1
node 2 1 1 1
node 3 1 1 3
node 4 2 0 2
gene  3 1 4 0.7928418137616124 0 1.0 0.7928418137616124 1
gene  2 2 4 -4.605440642299831 0 2.0 -4.605440642299831 1
gene  3 3 4 -3.2555514931746528 0 3.0 -3.2555514931746528 1
genomeend 78
/* Organism # 079 Fitness:  8,727 Error:  3,954                      */
genomestart  79
trait 1 0.1 0.0 0.0 0.0 0.0 0.0 0.0 0.0 
trait 2 0.2 0.0 0.0 0.0 0.0 0.0 0.0 0.0 
trait 3 0.3 0.0 0.0 0.0 0.0 0.0 0.0 0.0 
node 1 1 1 1
node 2 1 1 1
node 3 1 1 3
node 4 1 0 2
gene  1 1 4 0.6163324901844837 0 1.0 0.6163324901844837 1
gene  3 2 4 -3.4062163734533617 0 2.0 -3.4062163734533617 1
gene  3 3 4 -4.706438933575722 0 3.0 -4.706438933575722 1
genomeend 79
/* Organism # 080 Fitness:  1,100 Error:  2,049                      */
genomestart  80
trait 1 0.1 0.0 0.0 0.0 0.0 0.0 0.0 0.0 
trait 2 0.6491376948218223 0.1710609891022199 0.0847623989159203 0.0 0.0 0.0 0.0 0.0 
trait 3 0.3 0.0 0.0 0.0 0.0 0.0 0.0 0.0 
node 1 1 1 1
node 2 1 1 1
node 3 1 1 3
node 4 1 0 2
gene  1 1 4 -0.9047754987884387 0 1.0 -0.9047754987884387 1
gene  2 2 4 -5.1230271172643045 0 2.0 -5.1230271172643045 1
gene  3 3 4 1.5660063283424246 0 3.0 1.5660063283424246 1
genomeend 80
/* Organism # 081 Fitness:  8,984 Error:  3,997                      */
genomestart  81
trait 1 0.1 0.0 0.0 0.0 0.0 0.0 0.0 0.0 
trait 2 0.42456884741091117 0.08553049455110995 0.04238119945796015 0.0 0.0 0.0 0.0 0.0 
trait 3 0.3 0.0 0.0 0.0 0.0 0.0 0.0 0.0 
node 1 1 1 1
node 2 1 1 1
node 3 1 1 3
node 4 1 0 2
gene  1 1 4 1.3055566836474937 0 1.0 1.3055566836474937 1
gene  3 2 4 -3.086886070340052 0 2.0 -3.086886070340052 1
gene  3 3 4 -2.71738596495124 0 3.0 -2.71738596495124 1
genomeend 81
/* Organism # 082 Fitness:  4,000 Error:  3,000                      */
genomestart  82
trait 1 0.07500000000000001 0.0 0.21490630207937414 0.0 0.0 0.0 0.0 0.0 
trait 2 0.2 0.0 0.0 0.0 0.0 0.0 0.0 0.0 
trait 3 0.3 0.0 0.0 0.0 0.0 0.0 0.0 0.0 
node 1 1 1 1
node 2 1 1 1
node 3 1 1 3
node 4 1 0 2
node 6 1 0 0
gene  1 1 4 -0.5830709936240477 0 1.0 -0.5830709936240477 1
gene  2 2 4 -0.7650283750899345 0 2.0 -0.7650283750899345 1
gene  3 3 4 -3.072060423772495 0 3.0 -3.072060423772495 1
gene  1 1 6 1.3479839391936845 0 6.0 1.3479839391936845 1
gene  1 6 4 -3.9773928066188393 0 7.0 -3.9773928066188393 1
genomeend 82
/* Organism # 083 Fitness:  2,487 Error:  2,577                      */
genomestart  83
trait 1 0.07500000000000001 0.0 0.21490630207937414 0.0 0.0 0.0 0.0 0.0 
trait 2 0.2 0.0 0.0 0.0 0.0 0.0 0.0 0.0 
trait 3 0.3 0.0 0.0 0.0 0.0 0.0 0.0 0.0 
node 1 1 1 1
node 2 1 1 1
node 3 1 1 3
node 4 1 0 2
node 6 1 0 0
gene  1 1 4 1.5541752490708685 0 1.0 1.5541752490708685 1
gene  2 2 4 -1.5705167488827914 0 2.0 -1.5705167488827914 1
gene  3 3 4 0.4095945335412695 0 3.0 0.4095945335412695 1
gene  1 1 6 -0.2817256315790148 0 6.0 -0.2817256315790148 1
gene  1 6 4 -2.5943854877390797 0 7.0 -2.5943854877390797 1
genomeend 83
/* Organism # 084 Fitness:  4,114 Error:  3,028                      */
genomestart  84
trait 1 0.07500000000000001 0.0 0.21490630207937414 0.0 0.0 0.0 0.0 0.0 
trait 2 0.2 0.0 0.0 0.0 0.0 0.0 0.0 0.0 
trait 3 0.3 0.0 0.0 0.0 0.0 0.0 0.0 0.0 
node 1 1 1 1
node 2 1 1 1
node 3 1 1 3
node 4 1 0 2
node 6 1 0 0
gene  1 1 4 -0.7172189865730754 0 1.0 -0.7172189865730754 1
gene  2 2 4 -4.03493312500092 0 2.0 -4.03493312500092 1
gene  3 3 4 -1.347102655343124 0 3.0 -1.347102655343124 1
gene  3 1 6 -1.7323179251123904 0 6.0 -1.7323179251123904 1
gene  1 6 4 -3.4423441609897 0 7.0 -3.4423441609897 1
genomeend 84
/* Organism # 085 Fitness:  4,153 Error:  3,038                      */
genomestart  85
trait 1 0.07500000000000001 0.0 0.21490630207937414 0.0 0.0 0.0 0.0 0.0 
trait 2 0.2 0.0 0.0 0.0 0.0 0.0 0.0 0.0 
trait 3 0.3 0.0 0.0 0.0 0.0 0.0 0.0 0.0 
node 1 1 1 1
node 2 1 1 1
node 3 1 1 3
node 4 1 0 2
node 6 1 0 0
gene  1 1 4 0.03996875163846697 0 1.0 0.03996875163846697 1
gene  2 2 4 -0.7703962440385772 0 2.0 -0.7703962440385772 1
gene  3 3 4 -2.200985327561803 0 3.0 -2.200985327561803 1
gene  1 1 6 0.03991697264858696 0 6.0 0.03991697264858696 1
gene  1 6 4 -1.2603903624176933 0 7.0 -1.2603903624176933 1
genomeend 85
/* Organism # 086 Fitness:  4,000 Error:  3,000                      */
genomestart  86
trait 1 0.07500000000000001 0.0 0.21490630207937414 0.0 0.0 0.0 0.0 0.0 
trait 2 0.48930143701012047 0.0 0.0 0.3650126086267398 0.0 0.0 0.0 0.0 
trait 3 0.3 0.0 0.0 0.0 0.0 0.0 0.0 0.0 
node 1 1 1 1
node 2 1 1 1
node 3 1 1 3
node 4 1 0 2
node 6 1 0 0
gene  1 1 4 -2.590735932685709 0 1.0 -2.590735932685709 1
gene  2 2 4 -4.352205318403789 0 2.0 -4.352205318403789 1
gene  3 3 4 -2.0900718334651813 0 3.0 -2.0900718334651813 1
gene  1 1 6 2.027311943992197 0 6.0 2.027311943992197 1
gene  1 6 4 -4.9861931433189355 0 7.0 -4.9861931433189355 1
genomeend 86
/*-------------------------------------------------------------------*/
/* Species # 002         : (size= 073) (AvfFit= 5,677) (Age= 4,000)  */
/*-------------------------------------------------------------------*/
/* Organism # 087 Fitness:  8,948 Error:  3,991                      */
genomestart  87
trait 1 0.1 0.0 0.0 0.0 0.0 0.0 0.0 0.0 
trait 2 0.2 0.0 0.0 0.0 0.0 0.0 0.0 0.0 
trait 3 0.3 0.0 0.0 0.0 0.0 0.0 0.0 0.0 
node 1 1 1 1
node 2 1 1 1
node 3 3 1 3
node 4 1 0 2
node 5 1 0 0
gene  1 1 4 -1.5453702182798266 0 1.0 -1.5453702182798266 0
gene  2 2 4 -3.0471007345800896 0 2.0 -3.0471007345800896 1
gene  3 3 4 -2.424830275456342 0 3.0 -2.424830275456342 1
gene  1 1 5 0.7676622462276903 0 4.0 0.7676622462276903 1
gene  1 5 4 1.0050945647154628 0 5.0 1.0050945647154628 1
gene  3 2 5 6.4912715352283215 0 10.0 6.4912715352283215 1
genomeend 87
/* Organism # 088 Fitness:  7,733 Error:  3,781                      */
genomestart  88
trait 1 0.1 0.0 0.0 0.0 0.0 0.0 0.0 0.0 
trait 2 0.2 0.0 0.0 0.0 0.0 0.0 0.0 0.0 
trait 3 0.3 0.0 0.0 0.0 0.0 0.0 0.0 0.0 
node 1 1 1 1
node 2 1 1 1
node 3 1 1 3
node 4 1 0 2
node 5 1 0 0
gene  1 1 4 -0.5994061958923829 0 1.0 -0.5994061958923829 0
gene  2 2 4 -4.601831062369253 0 2.0 -4.601831062369253 1
gene  3 3 4 -0.9817188302926481 0 3.0 -0.9817188302926481 1
gene  1 1 5 2.1918020087530796 0 4.0 2.1918020087530796 1
gene  1 5 4 0.30071999456509846 0 5.0 0.30071999456509846 1
gene  3 2 5 -1.6245652690928227 0 10.0 -1.6245652690928227 1
genomeend 88
/* Organism # 089 Fitness:  5,450 Error:  3,334                      */
genomestart  89
trait 1 0.0 0.0 0.8416051905095658 0.0 0.0 0.16380825913395658 0.5421953789680601 0.0 
trait 2 0.2 0.0 0.0 0.0 0.0 0.0 0.0 0.0 
trait 3 0.3 0.0 0.0 0.0 0.0 0.0 0.0 0.0 
node 1 1 1 1
node 2 1 1 1
node 3 1 1 3
node 4 1 0 2
node 5 1 0 0
gene  1 1 4 -2.615607581019586 0 1.0 -2.615607581019586 1
gene  2 2 4 -4.100568346469699 0 2.0 -4.100568346469699 1
gene  3 3 4 -1.644538909850432 0 3.0 -1.644538909850432 1
gene  1 1 5 2.2965861279357784 0 4.0 2.2965861279357784 1
gene  1 5 4 2.4760094900463514 0 5.0 2.4760094900463514 1
gene  3 2 5 0.7077621145627777 0 10.0 0.7077621145627777 1
genomeend 89
/* Organism # 090 Fitness:  7,471 Error:  3,733                      */
genomestart  90
trait 1 0.1 0.0 0.0 0.0 0.0 0.0 0.0 0.0 
trait 2 0.2 0.0 0.0 0.0 0.0 0.0 0.0 0.0 
trait 3 0.3 0.0 0.0 0.0 0.0 0.0 0.0 0.0 
node 1 1 1 1
node 2 1 1 1
node 3 1 1 3
node 4 1 0 2
node 5 1 0 0
gene  1 1 4 -0.15176247883030597 0 1.0 -0.15176247883030597 0
gene  2 2 4 -1.980637858490351 0 2.0 -1.980637858490351 1
gene  3 3 4 -1.4313751063581328 0 3.0 -1.4313751063581328 1
gene  1 1 5 1.1096690548612402 0 4.0 1.1096690548612402 1
gene  1 5 4 1.2050806273973087 0 5.0 1.2050806273973087 1
gene  3 2 5 3.2652755815363017 0 10.0 3.2652755815363017 1
genomeend 90
/* Organism # 091 Fitness:  8,996 Error:  3,999                      */
genomestart  91
trait 1 0.1 0.0 0.0 0.0 0.0 0.0 0.0 0.0 
trait 2 0.2 0.0 0.0 0.0 0.0 0.0 0.0 0.0 
trait 3 0.3 0.0 0.0 0.0 0.0 0.0 0.0 0.0 
node 1 1 1 1
node 2 1 1 1
node 3 1 1 3
node 4 1 0 2
node 5 1 0 0
gene  1 1 4 1.7261892312310105 0 1.0 1.7261892312310105 0
gene  2 2 4 -4.792056357190189 0 2.0 -4.792056357190189 1
gene  3 3 4 -3.243633682725604 0 3.0 -3.243633682725604 1
gene  1 1 5 3.7800323228907007 0 4.0 3.7800323228907007 1
gene  1 5 4 1.5900924087250088 0 5.0 1.5900924087250088 1
gene  3 2 5 3.9364642277621114 0 10.0 3.9364642277621114 1
genomeend 91
/* Organism # 092 Fitness:  6,284 Error:  3,507                      */
genomestart  92
trait 1 0.1 0.0 0.0 0.0 0.0 0.0 0.0 0.0 
trait 2 0.2 0.0 0.0 0.0 0.0 0.0 0.0 0.0 
trait 3 0.3 0.0 0.0 0.0 0.0 0.0 0.0 0.0 
node 1 1 1 1
node 2 1 1 1
node 3 1 1 3
node 4 1 0 2
node 5 1 0 0
gene  1 1 4 -0.3813080600500035 0 1.0 -0.3813080600500035 0
gene  2 2 4 -3.9115958098496986 0 2.0 -3.9115958098496986 1
gene  3 3 4 -1.3067237395444473 0 3.0 -1.3067237395444473 1
gene  1 1 5 -1.0016442590507688 0 4.0 -1.0016442590507688 1
gene  1 5 4 0.9638916854413038 0 5.0 0.9638916854413038 1
gene  3 2 5 1.7780910991672558 0 10.0 1.7780910991672558 1
genomeend 92
/* Organism # 093 Fitness:  6,512 Error:  3,552                      */
genomestart  93
trait 1 0.1 0.0 0.0 0.0 0.0 0.0 0.0 0.0 
trait 2 0.2 0.0 0.0 0.0 0.0 0.0 0.0 0.0 
trait 3 0.3 0.0 0.0 0.0 0.0 0.0 0.0 0.0 
node 1 1 1 1
node 2 1 1 1
node 3 1 1 3
node 4 1 0 2
node 5 1 0 0
gene  1 1 4 0.19074092373188878 0 1.0 0.19074092373188878 0
gene  2 2 4 -2.4898234483750556 0 2.0 -2.4898234483750556 1
gene  3 3 4 -2.339241558692217 0 3.0 -2.339241558692217 1
gene  1 1 5 -0.6863158094531374 0 4.0 -0.6863158094531374 1
gene  1 5 4 1.6132222353929622 0 5.0 1.6132222353929622 1
gene  3 2 5 5.294351558447153 0 10.0 5.294351558447153 1
genomeend 93
/* Organism # 094 Fitness:  4,312 Error:  3,076                      */
genomestart  94
trait 1 0.1 0.0 0.0 0.0 0.0 0.0 0.0 0.0 
trait 2 0.2 0.0 0.0 0.0 0.0 0.0 0.0 0.0 
trait 3 0.3 0.0 0.0 0.0 0.0 0.0 0.0 0.0 
node 1 1 1 1
node 2 1 1 1
node 3 1 1 3
node 4 2 0 2
node 5 1 0 0
gene  3 1 4 -2.5636962568284924 0 1.0 -2.5636962568284924 0
gene  2 2 4 -3.185893645034504 0 2.0 -3.185893645034504 1
gene  3 3 4 -1.182205237487101 0 3.0 -1.182205237487101 1
gene  1 1 5 -1.180931407984644 0 4.0 -1.180931407984644 1
gene  1 5 4 1.123015588998432 0 5.0 1.123015588998432 1
gene  3 2 5 0.35869591610329515 0 10.0 0.35869591610329515 1
gene  3 3 5 7.599849640699466 0 27.0 7.599849640699466 1
genomeend 94
/* Organism # 095 Fitness:  4,062 Error:  3,015                      */
genomestart  95
trait 1 0.1 0.0 0.0 0.0 0.0 0.0 0.0 0.0 
trait 2 0.2 0.0 0.0 0.0 0.0 0.0 0.0 0.0 
trait 3 0.3 0.0 0.0 0.0 0.0 0.0 0.0 0.0 
node 1 1 1 1
node 2 1 1 1
node 3 1 1 3
node 4 1 0 2
node 5 1 0 0
gene  1 1 4 -3.1423328344594643 0 1.0 -3.1423328344594643 0
gene  2 2 4 -3.352576212250827 0 2.0 -3.352576212250827 1
gene  3 3 4 -3.373015145472911 0 3.0 -3.373015145472911 1
gene  1 1 5 1.6046988108467048 0 4.0 1.6046988108467048 1
gene  1 5 4 -0.8452795396300248 0 5.0 -0.8452795396300248 1
gene  3 2 5 2.5232474210040947 0 10.0 2.5232474210040947 1
genomeend 95
/* Organism # 096 Fitness:  7,778 Error:  3,789                      */
genomestart  96
trait 1 0.1 0.0 0.0 0.0 0.0 0.0 0.0 0.0 
trait 2 0.2 0.0 0.0 0.0 0.0 0.0 0.0 0.0 
trait 3 0.3 0.0 0.0 0.0 0.0 0.0 0.0 0.0 
node 1 1 1 1
node 2 1 1 1
node 3 1 1 3
node 4 1 0 2
node 5 1 0 0
gene  1 1 4 -0.6273114418440073 0 1.0 -0.6273114418440073 0
gene  2 2 4 -1.875790824464774 0 2.0 -1.875790824464774 1
gene  3 3 4 -1.0638490944266845 0 3.0 -1.0638490944266845 1
gene  1 1 5 1.1774782245939963 0 4.0 1.1774782245939963 1
gene  1 5 4 0.2975167325017746 0 5.0 0.2975167325017746 1
gene  3 2 5 4.657712373830784 0 10.0 4.657712373830784 1
genomeend 96
/* Organism # 097 Fitness:  7,941 Error:  3,818                      */
genomestart  97
trait 1 0.1 0.0 0.0 0.0 0.0 0.0 0.0 0.0 
trait 2 0.2 0.0 0.0 0.0 0.0 0.0 0.0 0.0 
trait 3 0.3 0.0 0.0 0.0 0.0 0.0 0.0 0.0 
node 1 1 1 1
node 2 1 1 1
node 3 1 1 3
node 4 1 0 2
node 5 1 0 0
gene  1 1 4 -1.2585422908969706 0 1.0 -1.2585422908969706 0
gene  2 2 4 -2.7939472905465528 0 2.0 -2.7939472905465528 1
gene  3 3 4 -1.0400740528721923 0 3.0 -1.0400740528721923 1
gene  1 1 5 -0.0017265916953238536 0 4.0 -0.0017265916953238536 1
gene  1 5 4 0.7102661607501033 0 5.0 0.7102661607501033 1
gene  3 2 5 2.50820414496704 0 10.0 2.50820414496704 1
genomeend 97
/* Organism # 098 Fitness:  6,256 Error:  3,501                      */
genomestart  98
trait 1 0.1 0.0 0.0 0.0 0.0 0.0 0.0 0.0 
trait 2 0.2 0.0 0.0 0.0 0.0 0.0 0.0 0.0 
trait 3 0.3 0.0 0.0 0.0 0.0 0.0 0.0 0.0 
node 1 1 1 1
node 2 1 1 1
node 3 3 1 3
node 4 1 0 2
node 5 1 0 0
gene  1 1 4 0.8735416433570478 0 1.0 0.8735416433570478 0
gene  2 2 4 -5.523892446386663 0 2.0 -5.523892446386663 1
gene  3 3 4 -3.8597630412689554 0 3.0 -3.8597630412689554 1
gene  1 1 5 -1.5140676648426905 0 4.0 -1.5140676648426905 1
gene  3 5 4 1.657545152898137 0 5.0 1.657545152898137 1
gene  3 2 5 7.48709044942981 0 10.0 7.48709044942981 1
genomeend 98
/* Organism # 099 Fitness:  7,922 Error:  3,815                      */
genomestart  99
trait 1 0.1 0.0 0.0 0.0 0.0 0.0 0.0 0.0 
trait 2 0.2 0.0 0.0 0.0 0.0 0.0 0.0 0.0 
trait 3 0.3 0.0 0.0 0.0 0.0 0.0 0.0 0.0 
node 1 1 1 1
node 2 1 1 1
node 3 1 1 3
node 4 1 0 2
node 5 1 0 0
gene  1 1 4 2.4985659885826124 0 1.0 2.4985659885826124 0
gene  2 2 4 -4.103421048087431 0 2.0 -4.103421048087431 1
gene  3 3 4 -3.8970961884851634 0 3.0 -3.8970961884851634 1
gene  1 1 5 2.1918020087530796 0 4.0 2.1918020087530796 1
gene  1 5 4 0.30071999456509846 0 5.0 0.30071999456509846 1
gene  3 2 5 5.489324462199384 0 10.0 5.489324462199384 1
gene  3 3 5 7.599849640699466 0 27.0 0.0 1
genomeend 99
/* Organism # 100 Fitness:  5,532 Error:  3,352                      */
genomestart  100
trait 1 0.1 0.0 0.0 0.0 0.0 0.0 0.0 0.0 
trait 2 0.2 0.0 0.0 0.0 0.0 0.0 0.0 0.0 
trait 3 0.3 0.0 0.0 0.0 0.0 0.0 0.0 0.0 
node 1 1 1 1
node 2 1 1 1
node 3 1 1 3
node 4 1 0 2
node 5 1 0 0
gene  1 1 4 -1.1039485488635103 0 1.0 -1.1039485488635103 0
gene  1 2 4 -0.770860759628738 0 2.0 -0.770860759628738 1
gene  3 3 4 -3.755447213851588 0 3.0 -3.755447213851588 1
gene  1 1 5 0.8953780877116846 0 4.0 0.8953780877116846 1
gene  1 5 4 -0.11406666241084285 0 5.0 -0.11406666241084285 1
gene  3 2 5 2.8882136765066777 0 10.0 2.8882136765066777 1
genomeend 100
/* Organism # 101 Fitness:  7,274 Error:  3,697                      */
genomestart  101
trait 1 0.1 0.0 0.0 0.0 0.0 0.0 0.0 0.0 
trait 2 0.2 0.0 0.0 0.0 0.0 0.0 0.0 0.0 
trait 3 0.3 0.0 0.0 0.0 0.0 0.0 0.0 0.0 
node 1 1 1 1
node 2 1 1 1
node 3 1 1 3
node 4 2 0 2
node 5 1 0 0
gene  1 1 4 -2.444784427140655 0 1.0 -2.444784427140655 0
gene  2 2 4 -3.7462460439673517 0 2.0 -3.7462460439673517 1
gene  3 3 4 -3.8978678330881364 0 3.0 -3.8978678330881364 1
gene  1 1 5 2.4283694422612774 0 4.0 2.4283694422612774 1
gene  1 5 4 0.16927899871330776 0 5.0 0.16927899871330776 1
gene  3 2 5 -0.7876715862310955 0 10.0 -0.7876715862310955 1
genomeend 101
/* Organism # 102 Fitness:  9,000 Error:  4,000                      */
genomestart  102
trait 1 0.1 0.0 0.0 0.0 0.0 0.0 0.0 0.0 
trait 2 0.2 0.0 0.0 0.0 0.0 0.0 0.0 0.0 
trait 3 0.3 0.0 0.0 0.0 0.0 0.0 0.0 0.0 
node 1 1 1 1
node 2 1 1 1
node 3 1 1 3
node 4 1 0 2
node 5 1 0 0
gene  1 1 4 -0.016236474952152857 0 1.0 -0.016236474952152857 1
gene  2 2 4 -4.316679004285547 0 2.0 -4.316679004285547 1
gene  3 3 4 -4.659191080654625 0 3.0 -4.659191080654625 1
gene  1 1 5 2.1741405337088793 0 4.0 2.1741405337088793 1
gene  1 5 4 2.1872566371454587 0 5.0 2.1872566371454587 1
gene  3 2 5 6.377572706559588 0 10.0 6.377572706559588 1
genomeend 102
/* Organism # 103 Fitness:  6,250 Error:  3,500                      */
genomestart  103
trait 1 0.1 0.0 0.0 0.0 0.0 0.0 0.0 0.0 
trait 2 0.2 0.0 0.0 0.0 0.0 0.0 0.0 0.0 
trait 3 0.3 0.0 0.0 0.0 0.0 0.0 0.0 0.0 
node 1 1 1 1
node 2 1 1 1
node 3 1 1 3
node 4 2 0 2
node 5 1 0 0
gene  3 1 4 -1.5898161017997376 0 1.0 -1.5898161017997376 0
gene  2 2 4 -3.185893645034504 0 2.0 -3.185893645034504 1
gene  3 3 4 -4.043186410461243 0 3.0 -4.043186410461243 1
gene  1 1 5 -3.182155379622168 0 4.0 -3.182155379622168 1
gene  1 5 4 -3.3639626852724875 0 5.0 -3.3639626852724875 1
gene  3 2 5 1.3357740586980424 0 10.0 1.3357740586980424 1
genomeend 103
/* Organism # 104 Fitness:  6,251 Error:  3,500                      */
genomestart  104
trait 1 0.1 0.0 0.0 0.0 0.0 0.0 0.0 0.0 
trait 2 0.2 0.0 0.4046939281810287 0.0 0.0 0.21757061862844396 0.0 0.0 
trait 3 0.3 0.0 0.0 0.0 0.0 0.0 0.0 0.0 
node 1 1 1 1
node 2 1 1 1
node 3 1 1 3
node 4 1 0 2
node 5 1 0 0
gene  1 1 4 2.0201260602287943 0 1.0 2.0201260602287943 0
gene  2 2 4 -6.007459064009858 0 2.0 -6.007459064009858 1
gene  3 3 4 -1.7254485776524284 0 3.0 -1.7254485776524284 1
gene  3 1 5 -1.0947206854899114 0 4.0 -1.0947206854899114 1
gene  1 5 4 0.07028344109220597 0 5.0 0.07028344109220597 1
gene  3 2 5 5.955741535969224 0 10.0 5.955741535969224 1
genomeend 104
/* Organism # 105 Fitness:  0,000 Error:  1,000                      */
genomestart  105
trait 1 0.1 0.0 0.0 0.0 0.0 0.0 0.0 0.0 
trait 2 0.2 0.0 0.0 0.0 0.0 0.0 0.0 0.0 
trait 3 0.3 0.0 0.0 0.0 0.0 0.0 0.0 0.0 
node 1 1 1 1
node 2 1 1 1
node 3 1 1 3
node 4 1 0 2
node 5 1 0 0
gene  1 1 4 2.4204912035014363 0 1.0 2.4204912035014363 1
gene  2 2 4 -0.7968581239367345 0 2.0 -0.7968581239367345 1
gene  3 3 4 -2.1886681403254284 0 3.0 -2.1886681403254284 1
gene  1 1 5 1.3215991714394586 0 4.0 1.3215991714394586 1
gene  1 5 4 2.922840124146422 0 5.0 2.922840124146422 1
gene  3 2 5 2.6848872577774934 0 10.0 2.6848872577774934 1
genomeend 105
/* Organism # 106 Fitness:  3,982 Error:  2,996                      */
genomestart  106
trait 1 0.1 0.0 0.0 0.0 0.0 0.0 0.0 0.0 
trait 2 0.2 0.0 0.0 0.0 0.0 0.0 0.0 0.0 
trait 3 0.3 0.0 0.0 0.0 0.0 0.0 0.0 0.0 
node 1 1 1 1
node 2 1 1 1
node 3 1 1 3
node 4 1 0 2
node 5 1 0 0
gene  1 1 4 1.7536796389451985 0 1.0 1.7536796389451985 1
gene  2 2 4 -3.701952458475324 0 2.0 -3.701952458475324 1
gene  3 3 4 -1.959161626232655 0 3.0 -1.959161626232655 1
gene  3 1 5 -0.3174074910263618 0 4.0 -0.3174074910263618 1
gene  1 5 4 1.8390444967263915 0 5.0 1.8390444967263915 1
gene  3 2 5 6.540588380771975 0 10.0 6.540588380771975 1
genomeend 106
/* Organism # 107 Fitness:  4,454 Error:  3,111                      */
genomestart  107
trait 1 0.1 0.0 0.0 0.0 0.0 0.0 0.0 0.0 
trait 2 0.2 0.0 0.0 0.0 0.0 0.0 0.0 0.0 
trait 3 0.3 0.0 0.0 0.0 0.0 0.0 0.0 0.0 
node 1 1 1 1
node 2 1 1 1
node 3 1 1 3
node 4 1 0 2
node 5 1 0 0
gene  1 1 4 -1.8577649774250997 0 1.0 -1.8577649774250997 0
gene  2 2 4 -5.050090611699533 0 2.0 -5.050090611699533 1
gene  3 3 4 -1.2616911339485757 0 3.0 -1.2616911339485757 1
gene  1 1 5 3.273290786242768 0 4.0 3.273290786242768 1
gene  1 5 4 -0.4229712785216635 0 5.0 -0.4229712785216635 1
gene  3 2 5 0.8853080140463669 0 10.0 0.8853080140463669 1
genomeend 107
/* Organism # 108 Fitness:  8,980 Error:  3,997                      */
genomestart  108
trait 1 0.1 0.0 0.0 0.0 0.0 0.0 0.0 0.0 
trait 2 0.2 0.0 0.0 0.0 0.0 0.0 0.0 0.0 
trait 3 0.3 0.0 0.0 0.0 0.0 0.0 0.0 0.0 
node 1 1 1 1
node 2 1 1 1
node 3 1 1 3
node 4 2 0 2
node 5 1 0 0
gene  3 1 4 -2.5636962568284924 0 1.0 -2.5636962568284924 0
gene  2 2 4 -4.914081468575592 0 2.0 -4.914081468575592 1
gene  3 3 4 -4.4057204089518995 0 3.0 -4.4057204089518995 1
gene  3 1 5 0.05150082740041384 0 4.0 0.05150082740041384 1
gene  1 5 4 2.064866758059821 0 5.0 2.064866758059821 1
gene  3 2 5 4.6232423627519275 0 10.0 4.6232423627519275 1
gene  3 3 5 7.599849640699466 0 27.0 0.0 1
genomeend 108
/* Organism # 109 Fitness:  7,922 Error:  3,815                      */
genomestart  109
trait 1 0.1 0.0 0.0 0.0 0.0 0.0 0.0 0.0 
trait 2 0.2 0.0 0.0 0.0 0.0 0.0 0.0 0.0 
trait 3 0.3 0.0 0.0 0.0 0.0 0.0 0.0 0.0 
node 1 1 1 1
node 2 1 1 1
node 3 1 1 3
node 4 1 0 2
node 5 1 0 0
node 14 1 0 0
gene  1 1 4 3.551099128726648 0 1.0 3.551099128726648 0
gene  2 2 4 -3.29276062759927 0 2.0 -3.29276062759927 1
gene  3 3 4 -3.8970961884851634 0 3.0 -3.8970961884851634 1
gene  1 1 5 2.1918020087530796 0 4.0 2.1918020087530796 0
gene  1 5 4 0.30071999456509846 0 5.0 0.30071999456509846 1
gene  3 2 5 5.489324462199384 0 10.0 5.489324462199384 1
gene  1 1 14 1.0 0 28.0 0.0 1
gene  1 14 5 2.1918020087530796 0 29.0 0.0 1
genomeend 109
/* Organism # 110 Fitness:  8,415 Error:  3,901                      */
genomestart  110
trait 1 0.1 0.0 0.0 0.0 0.0 0.0 0.0 0.0 
trait 2 0.2 0.0 0.0 0.0 0.0 0.0 0.0 0.0 
trait 3 0.3 0.0 0.0 0.0 0.0 0.0 0.0 0.0 
node 1 1 1 1
node 2 1 1 1
node 3 1 1 3
node 4 1 0 2
node 5 1 0 0
gene  1 1 4 1.2833424559689115 0 1.0 1.2833424559689115 0
gene  2 2 4 -3.014585884178513 0 2.0 -3.014585884178513 1
gene  3 3 4 -1.2374461803488288 0 3.0 -1.2374461803488288 1
gene  3 1 5 3.4119655840665626 0 4.0 3.4119655840665626 1
gene  1 5 4 0.525085002621599 0 5.0 0.525085002621599 1
gene  3 2 5 7.526557162703018 0 10.0 7.526557162703018 1
genomeend 110
/* Organism # 111 Fitness:  3,908 Error:  2,977                      */
genomestart  111
trait 1 0.1 0.0 0.0 0.0 0.0 0.0 0.0 0.0 
trait 2 0.2 0.0 0.0 0.0 0.0 0.0 0.0 0.0 
trait 3 0.3 0.0 0.0 0.0 0.0 0.0 0.0 0.0 
node 1 1 1 1
node 2 1 1 1
node 3 1 1 3
node 4 1 0 2
node 5 1 0 0
gene  1 1 4 -0.6273114418440073 0 1.0 -0.6273114418440073 0
gene  2 2 4 -0.5697614784194032 0 2.0 -0.5697614784194032 1
gene  3 3 4 -2.7020330622492654 0 3.0 -2.7020330622492654 1
gene  1 1 5 0.5433872186202277 0 4.0 0.5433872186202277 1
gene  1 5 4 2.0567121601361325 0 5.0 2.0567121601361325 1
gene  3 2 5 4.477777519023753 0 10.0 4.477777519023753 1
genomeend 111
/* Organism # 112 Fitness:  4,105 Error:  3,026                      */
genomestart  112
trait 1 0.20043468696350977 0.0 0.0 0.0 0.13604273782194465 0.0 0.4596439287800853 0.0 
trait 2 0.2 0.0 0.0 0.0 0.0 0.0 0.0 0.0 
trait 3 0.3 0.0 0.0 0.0 0.0 0.0 0.0 0.0 
node 1 1 1 1
node 2 1 1 1
node 3 1 1 3
node 4 1 0 2
node 5 1 0 0
gene  1 1 4 -1.021527415348074 0 1.0 -1.021527415348074 0
gene  2 2 4 -4.1186114031399255 0 2.0 -4.1186114031399255 1
gene  3 3 4 -1.4848757975960585 0 3.0 -1.4848757975960585 1
gene  1 1 5 1.928683557187695 0 4.0 1.928683557187695 1
gene  1 5 4 2.2202560836909186 0 5.0 2.2202560836909186 1
gene  3 2 5 3.038558805087241 0 10.0 3.038558805087241 1
genomeend 112
/* Organism # 113 Fitness:  8,937 Error:  3,989                      */
genomestart  113
trait 1 0.1 0.0 0.0 0.0 0.0 0.0 0.0 0.0 
trait 2 0.2 0.0 0.0 0.0 0.0 0.0 0.0 0.0 
trait 3 0.3 0.0 0.0 0.0 0.0 0.0 0.0 0.0 
node 1 1 1 1
node 2 1 1 1
node 3 1 1 3
node 4 1 0 2
node 5 1 0 0
gene  1 1 4 -2.5379568166113327 0 1.0 -2.5379568166113327 0
gene  2 2 4 -2.923728097769936 0 2.0 -2.923728097769936 1
gene  3 3 4 -2.2456256027062165 0 3.0 -2.2456256027062165 1
gene  1 1 5 3.3421382764164616 0 4.0 3.3421382764164616 1
gene  1 5 4 0.9614153351908165 0 5.0 0.9614153351908165 1
gene  3 2 5 3.1576822137716487 0 10.0 3.1576822137716487 1
gene  3 3 5 7.599849640699466 0 27.0 0.0 1
genomeend 113
/* Organism # 114 Fitness:  3,028 Error:  2,740                      */
genomestart  114
trait 1 0.1 0.0 0.0 0.0 0.0 0.0 0.0 0.0 
trait 2 0.2 0.0 0.0 0.0 0.0 0.0 0.0 0.0 
trait 3 0.3 0.0 0.0 0.0 0.0 0.0 0.0 0.0 
node 1 1 1 1
node 2 1 1 1
node 3 1 1 3
node 4 1 0 2
node 5 1 0 0
gene  1 1 4 -0.9140713099635487 0 1.0 -0.9140713099635487 0
gene  2 2 4 -5.541657062356816 0 2.0 -5.541657062356816 1
gene  3 3 4 0.8282211480968535 0 3.0 0.8282211480968535 1
gene  2 1 5 5.199048550117453 0 4.0 5.199048550117453 1
gene  1 5 4 0.20617504986118274 0 5.0 0.20617504986118274 1
gene  3 2 5 1.86010984510085 0 10.0 1.86010984510085 1
genomeend 114
/* Organism # 115 Fitness:  4,007 Error:  3,002                      */
genomestart  115
trait 1 0.1 0.0 0.0 0.0 0.0 0.0 0.0 0.0 
trait 2 0.2 0.0 0.0 0.0 0.0 0.0 0.0 0.0 
trait 3 0.3 0.0 0.0 0.0 0.0 0.0 0.0 0.0 
node 1 1 1 1
node 2 1 1 1
node 3 1 1 3
node 4 1 0 2
node 5 1 0 0
node 15 1 0 0
gene  1 1 4 2.4985659885826124 0 1.0 2.4985659885826124 0
gene  2 2 4 -4.914081468575592 0 2.0 -4.914081468575592 0
gene  3 3 4 -1.579081693773093 0 3.0 -1.579081693773093 1
gene  3 1 5 0.05150082740041384 0 4.0 0.05150082740041384 1
gene  1 5 4 2.064866758059821 0 5.0 2.064866758059821 1
gene  3 2 5 6.205033782924362 0 10.0 6.205033782924362 1
gene  2 2 15 1.0 0 30.0 0.0 1
gene  2 15 4 -4.914081468575592 0 31.0 0.0 1
genomeend 115
/* Organism # 116 Fitness:  1,365 Error:  2,168                      */
genomestart  116
trait 1 0.1 0.0 0.0 0.0 0.0 0.0 0.0 0.0 
trait 2 0.2 0.0 0.0 0.0 0.0 0.0 0.0 0.0 
trait 3 0.3 0.0 0.0 0.0 0.0 0.0 0.0 0.0 
node 1 1 1 1
node 2 1 1 1
node 3 1 1 3
node 4 1 0 2
node 5 1 0 0
gene  1 1 4 3.892251903364586 0 1.0 3.892251903364586 0
gene  2 2 4 -3.185893645034504 0 2.0 -3.185893645034504 1
gene  3 3 4 0.5160680982165295 0 3.0 0.5160680982165295 1
gene  3 1 5 -1.230484256530509 0 4.0 -1.230484256530509 1
gene  1 5 4 2.5588017086923043 0 5.0 2.5588017086923043 1
gene  3 2 5 9.021010928321296 0 10.0 9.021010928321296 1
genomeend 116
/* Organism # 117 Fitness:  8,533 Error:  3,921                      */
genomestart  117
trait 1 0.1 0.0 0.0 0.0 0.0 0.0 0.0 0.0 
trait 2 0.2 0.0 0.0 0.0 0.0 0.0 0.0 0.0 
trait 3 0.3 0.0 0.0 0.0 0.0 0.0 0.0 0.0 
node 1 1 1 1
node 2 1 1 1
node 3 1 1 3
node 4 2 0 2
node 5 1 0 0
gene  2 1 4 2.2465730764348124 0 1.0 2.2465730764348124 1
gene  2 2 4 -4.771113552450935 0 2.0 -4.771113552450935 1
gene  3 3 4 -5.035907020180854 0 3.0 -5.035907020180854 1
gene  1 1 5 -0.13823954187644416 0 4.0 -0.13823954187644416 1
gene  1 5 4 2.025118195189492 0 5.0 2.025118195189492 1
gene  3 2 5 4.846858349610251 0 10.0 4.846858349610251 1
genomeend 117
/* Organism # 118 Fitness:  4,373 Error:  3,091                      */
genomestart  118
trait 1 0.1 0.0 0.0 0.0 0.0 0.0 0.0 0.0 
trait 2 0.2 0.0 0.0 0.0 0.0 0.0 0.0 0.0 
trait 3 0.3 0.0 0.0 0.0 0.0 0.0 0.0 0.0 
node 1 1 1 1
node 2 1 1 1
node 3 1 1 3
node 4 1 0 2
node 5 1 0 0
gene  1 1 4 4.493824690683247 0 1.0 4.493824690683247 0
gene  2 2 4 -3.29276062759927 0 2.0 -3.29276062759927 1
gene  3 3 4 -1.0362686886840016 0 3.0 -1.0362686886840016 1
gene  1 1 5 0.035261447600984375 0 4.0 0.035261447600984375 1
gene  1 5 4 -0.8571161628051961 0 5.0 -0.8571161628051961 1
gene  3 2 5 1.3606388407196164 0 10.0 1.3606388407196164 1
genomeend 118
/* Organism # 119 Fitness:  8,945 Error:  3,991                      */
genomestart  119
trait 1 0.1 0.0 0.0 0.0 0.0 0.0 0.0 0.0 
trait 2 0.2 0.0 0.0 0.0 0.0 0.0 0.0 0.0 
trait 3 0.3 0.0 0.0 0.0 0.0 0.0 0.0 0.0 
node 1 1 1 1
node 2 1 1 1
node 3 1 1 3
node 4 1 0 2
node 5 1 0 0
gene  1 1 4 3.551099128726648 0 1.0 3.551099128726648 0
gene  2 2 4 -3.29276062759927 0 2.0 -3.29276062759927 1
gene  3 3 4 -3.8970961884851634 0 3.0 -3.8970961884851634 1
gene  1 1 5 2.487037655899176 0 4.0 2.487037655899176 1
gene  1 5 4 0.9501184910070897 0 5.0 0.9501184910070897 1
gene  3 2 5 3.029800305811179 0 10.0 3.029800305811179 1
genomeend 119
/* Organism # 120 Fitness:  4,247 Error:  3,061                      */
genomestart  120
trait 1 0.1 0.0 0.0 0.0 0.0 0.0 0.0 0.0 
trait 2 0.2 0.0 0.0 0.0 0.0 0.0 0.0 0.0 
trait 3 0.3 0.0 0.0 0.0 0.0 0.0 0.0 0.0 
node 1 1 1 1
node 2 1 1 1
node 3 1 1 3
node 4 1 0 2
node 5 1 0 0
gene  1 1 4 -0.3213827558194371 0 1.0 -0.3213827558194371 0
gene  2 2 4 -4.904670310685722 0 2.0 -4.904670310685722 1
gene  3 3 4 -0.04950152659250351 0 3.0 -0.04950152659250351 1
gene  1 1 5 -1.146379922448019 0 4.0 -1.146379922448019 1
gene  1 5 4 1.507218620738691 0 5.0 1.507218620738691 1
gene  3 2 5 1.358408576253969 0 10.0 1.358408576253969 1
genomeend 120
/* Organism # 121 Fitness:  7,631 Error:  3,762                      */
genomestart  121
trait 1 0.1 0.0 0.0 0.0 0.0 0.0 0.0 0.0 
trait 2 0.2 0.0 0.0 0.0 0.0 0.0 0.0 0.0 
trait 3 0.3 0.0 0.0 0.0 0.0 0.0 0.0 0.0 
node 1 1 1 1
node 2 1 1 1
node 3 1 1 3
node 4 1 0 2
node 5 1 0 0
gene  1 1 4 -1.5422254512369142 0 1.0 -1.5422254512369142 0
gene  2 2 4 -2.4020009360586014 0 2.0 -2.4020009360586014 1
gene  3 3 4 -0.8979428682572836 0 3.0 -0.8979428682572836 1
gene  1 1 5 1.1774782245939963 0 4.0 1.1774782245939963 1
gene  1 5 4 0.2975167325017746 0 5.0 0.2975167325017746 1
gene  2 2 5 4.657712373830784 0 10.0 4.657712373830784 1
genomeend 121
/* Organism # 122 Fitness:  4,222 Error:  3,055                      */
genomestart  122
trait 1 0.1 0.0 0.0 0.0 0.0 0.0 0.0 0.0 
trait 2 0.2 0.0 0.0 0.0 0.0 0.0 0.0 0.0 
trait 3 0.3 0.0 0.0 0.0 0.0 0.0 0.0 0.0 
node 1 1 1 1
node 2 1 1 1
node 3 1 1 3
node 4 1 0 2
node 5 1 0 0
node 15 1 0 0
gene  1 1 4 -0.1083728736336309 0 1.0 -0.1083728736336309 0
gene  2 2 4 -4.1942318904565905 0 2.0 -4.1942318904565905 0
gene  3 3 4 -1.4203864138608342 0 3.0 -1.4203864138608342 1
gene  3 1 5 1.9767520385940323 0 4.0 1.9767520385940323 1
gene  1 5 4 1.5187894687171821 0 5.0 1.5187894687171821 1
gene  3 2 5 5.536194662414458 0 10.0 5.536194662414458 1
gene  2 2 15 1.0 0 30.0 0.0 1
gene  2 15 4 -4.1942318904565905 0 31.0 0.0 1
genomeend 122
/* Organism # 123 Fitness:  8,235 Error:  3,870                      */
genomestart  123
trait 1 0.1 0.0 0.0 0.0 0.0 0.0 0.0 0.0 
trait 2 0.2 0.0 0.0 0.0 0.0 0.0 0.0 0.0 
trait 3 0.3 0.0 0.0 0.0 0.0 0.0 0.0 0.0 
node 1 1 1 1
node 2 1 1 1
node 3 1 1 3
node 4 1 0 2
node 5 1 0 0
gene  1 1 4 -1.0847684465404608 0 1.0 -1.0847684465404608 0
gene  2 2 4 -1.875790824464774 0 2.0 -1.875790824464774 1
gene  3 3 4 -1.2297553205960852 0 3.0 -1.2297553205960852 1
gene  1 1 5 0.1576093108002743 0 4.0 0.1576093108002743 1
gene  1 5 4 0.6211733071190035 0 5.0 0.6211733071190035 1
gene  3 2 5 3.7771111964419006 0 10.0 3.7771111964419006 1
genomeend 123
/* Organism # 124 Fitness:  6,900 Error:  3,627                      */
genomestart  124
trait 1 0.1 0.0 0.0 0.0 0.0 0.0 0.0 0.0 
trait 2 0.2 0.0 0.0 0.0 0.0 0.0 0.0 0.0 
trait 3 0.3 0.0 0.0 0.0 0.0 0.0 0.0 0.0 
node 1 1 1 1
node 2 1 1 1
node 3 1 1 3
node 4 1 0 2
node 5 1 0 0
gene  1 1 4 3.391001225470007 0 1.0 3.391001225470007 0
gene  2 2 4 -6.433205077932852 0 2.0 -6.433205077932852 1
gene  3 3 4 -2.807602058666147 0 3.0 -2.807602058666147 1
gene  1 1 5 0.8263450068511355 0 4.0 0.8263450068511355 1
gene  1 5 4 0.10703160101320064 0 5.0 0.10703160101320064 1
gene  3 2 5 6.261148651986831 0 10.0 6.261148651986831 1
genomeend 124
/* Organism # 125 Fitness:  6,117 Error:  3,473                      */
genomestart  125
trait 1 0.1 0.0 0.0 0.0 0.0 0.0 0.0 0.0 
trait 2 0.2 0.0 0.0 0.0 0.0 0.0 0.0 0.0 
trait 3 0.3 0.0 0.0 0.0 0.0 0.0 0.0 0.0 
node 1 1 1 1
node 2 1 1 1
node 3 1 1 3
node 4 1 0 2
node 5 1 0 0
gene  1 1 4 2.6865340720608923 0 1.0 2.6865340720608923 0
gene  2 2 4 -0.7210018515733521 0 2.0 -0.7210018515733521 1
gene  3 3 4 -0.967264805521556 0 3.0 -0.967264805521556 1
gene  1 1 5 -1.8311447808689165 0 4.0 -1.8311447808689165 1
gene  1 5 4 -0.1746198878427253 0 5.0 -0.1746198878427253 1
gene  3 2 5 1.8463826151769935 0 10.0 1.8463826151769935 1
genomeend 125
/* Organism # 126 Fitness:  8,945 Error:  3,991                      */
genomestart  126
trait 1 0.1 0.0 0.0 0.0 0.0 0.0 0.0 0.0 
trait 2 0.2 0.0 0.0 0.0 0.0 0.0 0.0 0.0 
trait 3 0.3 0.0 0.0 0.0 0.0 0.0 0.0 0.0 
node 1 1 1 1
node 2 1 1 1
node 3 1 1 3
node 4 1 0 2
node 5 1 0 0
gene  1 1 4 3.551099128726648 0 1.0 3.551099128726648 0
gene  2 2 4 -3.29276062759927 0 2.0 -3.29276062759927 1
gene  3 3 4 -3.5633281299745105 0 3.0 -3.5633281299745105 1
gene  1 1 5 2.7822733030452724 0 4.0 2.7822733030452724 1
gene  1 5 4 0.9501184910070897 0 5.0 0.9501184910070897 1
gene  3 2 5 3.029800305811179 0 10.0 3.029800305811179 1
genomeend 126
/* Organism # 127 Fitness:  6,209 Error:  3,492                      */
genomestart  127
trait 1 0.1 0.0 0.0 0.0 0.0 0.0 0.0 0.0 
trait 2 0.2 0.0 0.0 0.0 0.0 0.0 0.0 0.0 
trait 3 0.3 0.0 0.0 0.0 0.0 0.0 0.0 0.0 
node 1 1 1 1
node 2 1 1 1
node 3 1 1 3
node 4 1 0 2
node 5 1 0 0
gene  1 1 4 -0.9255244295832652 0 1.0 -0.9255244295832652 0
gene  2 2 4 -0.9739126210781681 0 2.0 -0.9739126210781681 1
gene  3 3 4 -2.0757253147754673 0 3.0 -2.0757253147754673 1
gene  1 1 5 -1.3413887092945043 0 4.0 -1.3413887092945043 1
gene  1 5 4 0.05957943561893486 0 5.0 0.05957943561893486 1
gene  3 2 5 0.5380259015374982 0 10.0 0.5380259015374982 1
genomeend 127
/* Organism # 128 Fitness:  8,471 Error:  3,910                      */
genomestart  128
trait 1 0.1 0.0 0.0 0.0 0.0 0.0 0.0 0.0 
trait 2 0.2 0.0 0.0 0.0 0.0 0.0 0.0 0.0 
trait 3 0.3 0.0 0.0 0.0 0.0 0.0 0.0 0.0 
node 1 1 1 1
node 2 1 1 1
node 3 1 1 3
node 4 1 0 2
node 5 1 0 0
gene  1 1 4 1.6810412196612443 0 1.0 1.6810412196612443 0
gene  2 2 4 -2.6869159242605116 0 2.0 -2.6869159242605116 1
gene  3 3 4 -2.9499142514649357 0 3.0 -2.9499142514649357 1
gene  2 1 5 -0.14798284687819663 0 4.0 -0.14798284687819663 1
gene  1 5 4 2.117055565465388 0 5.0 2.117055565465388 1
gene  3 2 5 3.8842534363995638 0 10.0 3.8842534363995638 1
genomeend 128
/* Organism # 129 Fitness:  1,555 Error:  2,247                      */
genomestart  129
trait 1 0.1 0.0 0.0 0.0 0.0 0.0 0.0 0.0 
trait 2 0.2 0.0 0.0 0.0 0.0 0.0 0.0 0.0 
trait 3 0.3 0.0 0.0 0.0 0.0 0.0 0.0 0.0 
node 1 1 1 1
node 2 1 1 1
node 3 3 1 3
node 4 1 0 2
node 5 1 0 0
gene  1 1 4 0.49726687189986096 0 1.0 0.49726687189986096 0
gene  2 2 4 -2.7245508353193455 0 2.0 -2.7245508353193455 1
gene  3 3 4 0.348274338223018 0 3.0 0.348274338223018 1
gene  1 1 5 3.265396877243283 0 4.0 3.265396877243283 1
gene  1 5 4 2.428615989231226 0 5.0 2.428615989231226 1
gene  3 2 5 5.574491954529552 0 10.0 5.574491954529552 1
genomeend 129
/* Organism # 130 Fitness:  0,592 Error:  1,770                      */
genomestart  130
trait 1 0.1 0.0 0.0 0.0 0.0 0.0 0.0 0.0 
trait 2 0.2 0.0 0.0 0.0 0.0 0.0 0.0 0.0 
trait 3 0.3 0.0 0.0 0.0 0.0 0.0 0.0 0.0 
node 1 1 1 1
node 2 1 1 1
node 3 1 1 3
node 4 1 0 2
node 5 1 0 0
gene  1 1 4 -3.4393398243997058 0 1.0 -3.4393398243997058 0
gene  2 2 4 -2.373073883202282 0 2.0 -2.373073883202282 1
gene  3 3 4 1.6327529498071298 0 3.0 1.6327529498071298 1
gene  1 1 5 -0.003732638833366664 0 4.0 -0.003732638833366664 1
gene  1 5 4 2.122892826513584 0 5.0 2.122892826513584 1
gene  3 2 5 3.1887888910841364 0 10.0 3.1887888910841364 1
genomeend 130
/* Organism # 131 Fitness:  4,169 Error:  3,042                      */
genomestart  131
trait 1 0.1 0.0 0.0 0.0 0.0 0.0 0.0 0.0 
trait 2 0.2 0.0 0.0 0.0 0.0 0.0 0.0 0.0 
trait 3 0.3 0.0 0.0 0.0 0.0 0.0 0.0 0.0 
node 1 1 1 1
node 2 1 1 1
node 3 3 1 3
node 4 1 0 2
node 5 1 0 0
node 15 1 0 0
gene  1 1 4 0.4765978851513929 0 1.0 0.4765978851513929 0
gene  2 2 4 -3.980591101577841 0 2.0 -3.980591101577841 0
gene  3 3 4 -2.0019559846147175 0 3.0 -2.0019559846147175 1
gene  1 1 5 0.40958153681405207 0 4.0 0.40958153681405207 1
gene  1 5 4 1.534980661387642 0 5.0 1.534980661387642 1
gene  3 2 5 7.139048369162559 0 10.0 7.139048369162559 1
gene  2 2 15 1.0 0 30.0 0.0 1
gene  2 15 4 -3.980591101577841 0 31.0 0.0 1
genomeend 131
/* Organism # 132 Fitness:  4,145 Error:  3,036                      */
genomestart  132
trait 1 0.1 0.0 0.0 0.0 0.0 0.0 0.0 0.0 
trait 2 0.2 0.0 0.0 0.0 0.0 0.0 0.0 0.0 
trait 3 0.3 0.0 0.0 0.0 0.0 0.0 0.0 0.0 
node 1 1 1 1
node 2 1 1 1
node 3 1 1 3
node 4 1 0 2
node 5 1 0 0
gene  1 1 4 0.8041825638003264 0 1.0 0.8041825638003264 0
gene  2 2 4 -5.840373802679978 0 2.0 -5.840373802679978 1
gene  3 3 4 -2.134076021930744 0 3.0 -2.134076021930744 1
gene  1 1 5 3.123257653065866 0 4.0 3.123257653065866 1
gene  1 5 4 -0.6684648703115128 0 5.0 -0.6684648703115128 1
gene  3 2 5 -0.617956467008616 0 10.0 -0.617956467008616 1
genomeend 132
/* Organism # 133 Fitness:  4,002 Error:  3,000                      */
genomestart  133
trait 1 0.1 0.0 0.0 0.0 0.0 0.0 0.0 0.0 
trait 2 0.2 0.0 0.0 0.0 0.0 0.0 0.0 0.0 
trait 3 0.3 0.0 0.0 0.0 0.0 0.0 0.0 0.0 
node 1 1 1 1
node 2 1 1 1
node 3 1 1 3
node 4 1 0 2
node 5 1 0 0
gene  1 1 4 4.812946778028252 0 1.0 4.812946778028252 0
gene  2 2 4 -4.503533971710965 0 2.0 -4.503533971710965 1
gene  3 3 4 -1.994537310793706 0 3.0 -1.994537310793706 1
gene  1 1 5 4.556078784054776 0 4.0 4.556078784054776 1
gene  1 5 4 -1.5618125428695482 0 5.0 -1.5618125428695482 1
gene  3 2 5 0.6922795254710947 0 10.0 0.6922795254710947 1
genomeend 133
/* Organism # 134 Fitness:  1,888 Error:  2,374                      */
genomestart  134
trait 1 0.1 0.0 0.0 0.0 0.0 0.0 0.0 0.0 
trait 2 0.2 0.0 0.0 0.0 0.0 0.0 0.0 0.0 
trait 3 0.3 0.0 0.0 0.0 0.0 0.0 0.0 0.0 
node 1 1 1 1
node 2 1 1 1
node 3 1 1 3
node 4 1 0 2
node 5 1 0 0
gene  1 1 4 0.28649870381444076 0 1.0 0.28649870381444076 0
gene  2 2 4 -1.1175664406695396 0 2.0 -1.1175664406695396 1
gene  3 3 4 1.2019287165255537 0 3.0 1.2019287165255537 1
gene  1 1 5 -1.6488332640438859 0 4.0 -1.6488332640438859 1
gene  1 5 4 -0.47388901652330073 0 5.0 -0.47388901652330073 1
gene  3 2 5 6.905746834666086 0 10.0 6.905746834666086 1
genomeend 134
/* Organism # 135 Fitness:  6,249 Error:  3,500                      */
genomestart  135
trait 1 0.1 0.0 0.0 0.0 0.0 0.0 0.0 0.0 
trait 2 0.2 0.0 0.0 0.0 0.0 0.0 0.0 0.0 
trait 3 0.3 0.0 0.0 0.0 0.0 0.0 0.0 0.0 
node 1 1 1 1
node 2 1 1 1
node 3 1 1 3
node 4 1 0 2
node 5 1 0 0
gene  1 1 4 0.9550016851248452 0 1.0 0.9550016851248452 0
gene  2 2 4 -1.076318423257633 0 2.0 -1.076318423257633 1
gene  3 3 4 -3.0274555514458497 0 3.0 -3.0274555514458497 1
gene  1 1 5 -2.29987631580903 0 4.0 -2.29987631580903 1
gene  1 5 4 -0.7956583598460361 0 5.0 -0.7956583598460361 1
gene  3 2 5 2.60443847859174 0 10.0 2.60443847859174 1
genomeend 135
/* Organism # 136 Fitness:  4,000 Error:  3,000                      */
genomestart  136
trait 1 0.1 0.0 0.0 0.0 0.0 0.0 0.0 0.0 
trait 2 0.2 0.0 0.0 0.0 0.0 0.0 0.0 0.0 
trait 3 0.3 0.0 0.0 0.0 0.0 0.0 0.0 0.0 
node 1 1 1 1
node 2 3 1 1
node 3 1 1 3
node 4 1 0 2
node 5 1 0 0
gene  1 1 4 -2.7807311324900654 0 1.0 -2.7807311324900654 1
gene  2 2 4 -1.3612693588172529 0 2.0 -1.3612693588172529 1
gene  3 3 4 -2.364226629367277 0 3.0 -2.364226629367277 1
gene  1 1 5 6.113889595244114 0 4.0 6.113889595244114 1
gene  1 5 4 -0.5632410062899185 0 5.0 -0.5632410062899185 1
gene  3 2 5 1.976177147731162 0 10.0 1.976177147731162 1
genomeend 136
/* Organism # 137 Fitness:  4,517 Error:  3,125                      */
genomestart  137
trait 1 0.1 0.0 0.0 0.0 0.0 0.0 0.0 0.0 
trait 2 0.2 0.0 0.0 0.0 0.0 0.0 0.0 0.0 
trait 3 0.3 0.0 0.0 0.0 0.0 0.0 0.0 0.0 
node 1 1 1 1
node 2 1 1 1
node 3 1 1 3
node 4 1 0 2
node 5 1 0 0
gene  1 1 4 0.041128915749889305 0 1.0 0.041128915749889305 0
gene  2 2 4 -2.233290965313494 0 2.0 -2.233290965313494 1
gene  3 3 4 -1.455113522632763 0 3.0 -1.455113522632763 1
gene  1 1 5 1.6227049315376618 0 4.0 1.6227049315376618 1
gene  1 5 4 -0.3945034454577325 0 5.0 -0.3945034454577325 1
gene  3 2 5 4.089169590371216 0 10.0 4.089169590371216 1
genomeend 137
/* Organism # 138 Fitness:  1,837 Error:  2,355                      */
genomestart  138
trait 1 0.1 0.0 0.0 0.0 0.0 0.0 0.0 0.0 
trait 2 0.2 0.0 0.0 0.0 0.0 0.0 0.0 0.0 
trait 3 0.3 0.0 0.0 0.0 0.0 0.0 0.0 0.0 
node 1 1 1 1
node 2 1 1 1
node 3 1 1 3
node 4 1 0 2
node 5 1 0 0
gene  1 1 4 -1.357504041213006 0 1.0 -1.357504041213006 0
gene  2 2 4 -4.332828234020437 0 2.0 -4.332828234020437 1
gene  3 3 4 -0.37819563571588666 0 3.0 -0.37819563571588666 1
gene  3 1 5 -1.1285556354737223 0 4.0 -1.1285556354737223 1
gene  1 5 4 4.532646031715758 0 5.0 4.532646031715758 1
gene  3 2 5 9.987623220426517 0 10.0 9.987623220426517 1
genomeend 138
/* Organism # 139 Fitness:  6,814 Error:  3,610                      */
genomestart  139
trait 1 0.1 0.0 0.0 0.0 0.0 0.0 0.0 0.0 
trait 2 0.2 0.0 0.0 0.0 0.0 0.0 0.0 0.0 
trait 3 0.3 0.0 0.0 0.0 0.0 0.0 0.0 0.0 
node 1 1 1 1
node 2 1 1 1
node 3 1 1 3
node 4 1 0 2
node 5 1 0 0
gene  1 1 4 0.1630636736089085 0 1.0 0.1630636736089085 0
gene  2 2 4 -4.44919735608065 0 2.0 -4.44919735608065 1
gene  3 3 4 -1.0049298001345979 0 3.0 -1.0049298001345979 1
gene  1 1 5 -0.6863158094531374 0 4.0 -0.6863158094531374 1
gene  1 5 4 3.0890556828036875 0 5.0 3.0890556828036875 1
gene  3 2 5 1.3559051986124426 0 10.0 1.3559051986124426 1
genomeend 139
/* Organism # 140 Fitness:  8,368 Error:  3,893                      */
genomestart  140
trait 1 0.1 0.0 0.0 0.0 0.0 0.0 0.0 0.0 
trait 2 0.2 0.0 0.0 0.0 0.0 0.0 0.0 0.0 
trait 3 0.3 0.0 0.0 0.0 0.0 0.0 0.0 0.0 
node 1 1 1 1
node 2 1 1 1
node 3 1 1 3
node 4 2 0 2
node 5 1 0 0
gene  3 1 4 -4.1187111814130954 0 1.0 -4.1187111814130954 0
gene  2 2 4 -3.4536547679534766 0 2.0 -3.4536547679534766 1
gene  3 3 4 -4.31905316002593 0 3.0 -4.31905316002593 1
gene  1 1 5 0.32209503641424186 0 4.0 0.32209503641424186 1
gene  1 5 4 0.5184568976092558 0 5.0 0.5184568976092558 1
gene  3 2 5 5.706104978362005 0 10.0 5.706104978362005 1
genomeend 140
/* Organism # 141 Fitness:  6,253 Error:  3,501                      */
genomestart  141
trait 1 0.1 0.0 0.0 0.0 0.0 0.0 0.0 0.0 
trait 2 0.2 0.0 0.0 0.0 0.0 0.0 0.0 0.0 
trait 3 0.3 0.0 0.0 0.0 0.0 0.0 0.0 0.0 
node 1 1 1 1
node 2 1 1 1
node 3 1 1 3
node 4 1 0 2
node 5 1 0 0
gene  1 1 4 1.1427341517019105 0 1.0 1.1427341517019105 0
gene  2 2 4 -2.946743052903517 0 2.0 -2.946743052903517 1
gene  3 3 4 -1.118438859829027 0 3.0 -1.118438859829027 1
gene  1 1 5 -1.0965181382017968 0 4.0 -1.0965181382017968 1
gene  1 5 4 0.8751891803311034 0 5.0 0.8751891803311034 1
gene  3 2 5 2.496597261358699 0 10.0 2.496597261358699 1
genomeend 141
/* Organism # 142 Fitness:  5,215 Error:  3,284                      */
genomestart  142
trait 1 0.1 0.0 0.0 0.0 0.0 0.0 0.0 0.0 
trait 2 0.2 0.0 0.0 0.0 0.0 0.0 0.0 0.0 
trait 3 0.3 0.0 0.0 0.0 0.0 0.0 0.0 0.0 
node 1 1 1 1
node 2 1 1 1
node 3 1 1 3
node 4 1 0 2
node 5 1 0 0
gene  3 1 4 -2.8661488133225506 0 1.0 -2.8661488133225506 0
gene  2 2 4 -2.055550638643304 0 2.0 -2.055550638643304 1
gene  3 3 4 -0.28021265667110773 0 3.0 -0.28021265667110773 1
gene  1 1 5 -0.7209861490541263 0 4.0 -0.7209861490541263 1
gene  1 5 4 -1.1602410791351938 0 5.0 -1.1602410791351938 1
gene  3 2 5 -2.4062938174832693 0 10.0 -2.4062938174832693 1
genomeend 142
/* Organism # 143 Fitness:  2,743 Error:  2,656                      */
genomestart  143
trait 1 0.1 0.0 0.0 0.0 0.0 0.0 0.0 0.0 
trait 2 0.2 0.0 0.0 0.0 0.0 0.0 0.0 0.0 
trait 3 0.3 0.0 0.0 0.0 0.0 0.0 0.0 0.0 
node 1 1 1 1
node 2 1 1 1
node 3 1 1 3
node 4 1 0 2
node 5 1 0 0
gene  1 1 4 4.633759677831459 0 1.0 4.633759677831459 0
gene  2 2 4 -3.8495120505715077 0 2.0 -3.8495120505715077 1
gene  3 3 4 0.34235373816916903 0 3.0 0.34235373816916903 1
gene  3 1 5 -2.385725242509664 0 4.0 -2.385725242509664 1
gene  1 5 4 0.29618998614991787 0 5.0 0.29618998614991787 1
gene  3 2 5 7.381382121415564 0 10.0 7.381382121415564 1
genomeend 143
/* Organism # 144 Fitness:  4,298 Error:  3,073                      */
genomestart  144
trait 1 0.1 0.0 0.0 0.0 0.0 0.0 0.0 0.0 
trait 2 0.2 0.0 0.0 0.0 0.0 0.0 0.0 0.0 
trait 3 0.3 0.0 0.0 0.0 0.0 0.0 0.0 0.0 
node 1 1 1 1
node 2 1 1 1
node 3 1 1 3
node 4 1 0 2
node 5 1 0 0
gene  1 1 4 -1.4986547357484707 0 1.0 -1.4986547357484707 0
gene  2 2 4 -0.3434358900946979 0 2.0 -0.3434358900946979 1
gene  3 3 4 -2.3535177501768834 0 3.0 -2.3535177501768834 1
gene  1 1 5 5.172818224350044 0 4.0 5.172818224350044 1
gene  1 5 4 0.8082984632159228 0 5.0 0.8082984632159228 1
gene  3 2 5 3.0205750709387376 0 10.0 3.0205750709387376 1
genomeend 144
/* Organism # 145 Fitness:  4,008 Error:  3,002                      */
genomestart  145
trait 1 0.1 0.0 0.0 0.0 0.0 0.0 0.0 0.0 
trait 2 0.2 0.0 0.0 0.0 0.0 0.0 0.0 0.0 
trait 3 0.3 0.0 0.0 0.0 0.0 0.0 0.0 0.0 
node 1 1 1 1
node 2 1 1 1
node 3 1 1 3
node 4 1 0 2
node 5 1 0 0
gene  1 1 4 1.9206448000757508 0 1.0 1.9206448000757508 0
gene  3 2 4 -2.6632490929074626 0 2.0 -2.6632490929074626 1
gene  3 3 4 -2.825254062620414 0 3.0 -2.825254062620414 1
gene  3 1 5 2.1110601189063987 0 4.0 2.1110601189063987 1
gene  1 5 4 -1.266375491942547 0 5.0 -1.266375491942547 1
gene  3 2 5 4.83645326051536 0 10.0 4.83645326051536 1
genomeend 145
/* Organism # 146 Fitness:  7,437 Error:  3,727                      */
genomestart  146
trait 1 0.1 0.0 0.0 0.0 0.0 0.0 0.0 0.0 
trait 2 0.2 0.0 0.0 0.0 0.0 0.0 0.0 0.0 
trait 3 0.3 0.0 0.0 0.0 0.0 0.0 0.0 0.0 
node 1 1 1 1
node 2 1 1 1
node 3 1 1 3
node 4 1 0 2
node 5 1 0 0
node 14 1 0 0
gene  1 1 4 -0.6273114418440073 0 1.0 -0.6273114418440073 0
gene  2 2 4 -3.29276062759927 0 2.0 -3.29276062759927 1
gene  3 3 4 -1.2297553205960852 0 3.0 -1.2297553205960852 1
gene  1 1 5 0.1576093108002743 0 4.0 0.1576093108002743 0
gene  1 5 4 0.30071999456509846 0 5.0 0.30071999456509846 1
gene  3 2 5 5.489324462199384 0 10.0 5.489324462199384 1
gene  1 1 14 1.0 0 28.0 0.0 1
gene  1 14 5 0.1576093108002743 0 29.0 0.0 1
genomeend 146
/* Organism # 147 Fitness:  8,940 Error:  3,990                      */
genomestart  147
trait 1 0.1 0.0 0.0 0.0 0.0 0.0 0.0 0.0 
trait 2 0.2 0.0 0.0 0.0 0.0 0.0 0.0 0.0 
trait 3 0.3 0.0 0.0 0.0 0.0 0.0 0.0 0.0 
node 1 1 1 1
node 2 1 1 1
node 3 1 1 3
node 4 1 0 2
node 5 1 0 0
gene  1 1 4 1.008793289307785 0 1.0 1.008793289307785 0
gene  2 2 4 -2.4898234483750556 0 2.0 -2.4898234483750556 1
gene  3 3 4 -2.339241558692217 0 3.0 -2.339241558692217 1
gene  1 1 5 1.6078437201672566 0 4.0 1.6078437201672566 1
gene  1 5 4 0.9727121793745432 0 5.0 0.9727121793745432 1
gene  3 2 5 3.2855641217321185 0 10.0 3.2855641217321185 1
genomeend 147
/* Organism # 148 Fitness:  7,285 Error:  3,699                      */
genomestart  148
trait 1 0.1 0.0 0.0 0.0 0.0 0.0 0.0 0.0 
trait 2 0.2 0.0 0.0 0.0 0.0 0.0 0.0 0.0 
trait 3 0.3 0.0 0.0 0.0 0.0 0.0 0.0 0.0 
node 1 1 1 1
node 2 1 1 1
node 3 1 1 3
node 4 1 0 2
node 5 1 0 0
gene  1 1 4 -2.207923818547264 0 1.0 -2.207923818547264 0
gene  2 2 4 -3.085676944178089 0 2.0 -3.085676944178089 1
gene  3 3 4 -1.5185273826360488 0 3.0 -1.5185273826360488 1
gene  1 1 5 4.4378107411209 0 4.0 4.4378107411209 1
gene  1 5 4 1.3458944674186897 0 5.0 1.3458944674186897 1
gene  3 2 5 7.173367945441209 0 10.0 7.173367945441209 1
genomeend 148
/* Organism # 149 Fitness:  6,028 Error:  3,455                      */
genomestart  149
trait 1 0.1 0.0 0.0 0.0 0.0 0.0 0.0 0.0 
trait 2 0.2 0.0 0.0 0.0 0.0 0.0 0.0 0.0 
trait 3 0.3 0.0 0.0 0.0 0.0 0.0 0.0 0.0 
node 1 1 1 1
node 2 1 1 1
node 3 1 1 3
node 4 1 0 2
node 5 1 0 0
gene  1 1 4 -2.887521371531429 0 1.0 -2.887521371531429 0
gene  2 2 4 -2.1526174647692784 0 2.0 -2.1526174647692784 1
gene  3 3 4 -0.621566236952878 0 3.0 -0.621566236952878 1
gene  1 1 5 -3.2703093322803016 0 4.0 -3.2703093322803016 1
gene  1 5 4 -2.213220581956305 0 5.0 -2.213220581956305 1
gene  3 2 5 6.940861541590685 0 10.0 6.940861541590685 1
genomeend 149
/* Organism # 150 Fitness:  4,831 Error:  3,198                      */
genomestart  150
trait 1 0.1 0.0 0.0 0.0 0.0 0.0 0.0 0.0 
trait 2 0.2 0.0 0.0 0.0 0.0 0.0 0.0 0.0 
trait 3 0.3 0.0 0.0 0.0 0.0 0.0 0.0 0.0 
node 1 1 1 1
node 2 1 1 1
node 3 1 1 3
node 4 1 0 2
node 5 1 0 0
gene  1 1 4 -0.03187785037288626 0 1.0 -0.03187785037288626 0
gene  2 2 4 -2.4561625051731433 0 2.0 -2.4561625051731433 1
gene  3 3 4 -4.419235461057705 0 3.0 -4.419235461057705 1
gene  1 1 5 1.6067420029730082 0 4.0 1.6067420029730082 1
gene  1 5 4 -0.284162537143696 0 5.0 -0.284162537143696 1
gene  3 2 5 3.7640506484879546 0 10.0 3.7640506484879546 1
genomeend 150
/* Organism # 151 Fitness:  8,753 Error:  3,958                      */
genomestart  151
trait 1 0.1 0.0 0.0 0.0 0.0 0.0 0.0 0.0 
trait 2 0.2 0.0 0.0 0.0 0.0 0.0 0.0 0.0 
trait 3 0.3 0.0 0.0 0.0 0.0 0.0 0.0 0.0 
node 1 1 1 1
node 2 1 1 1
node 3 3 1 3
node 4 1 0 2
node 5 1 0 0
gene  1 1 4 -1.5453702182798266 0 1.0 -1.5453702182798266 0
gene  2 2 4 -3.0471007345800896 0 2.0 -3.0471007345800896 1
gene  3 3 4 -2.424830275456342 0 3.0 -2.424830275456342 1
gene  1 1 5 0.7676622462276903 0 4.0 0.7676622462276903 1
gene  1 5 4 0.6529072796402806 0 5.0 0.6529072796402806 1
gene  3 2 5 5.489324462199384 0 10.0 5.489324462199384 1
genomeend 151
/* Organism # 152 Fitness:  6,998 Error:  3,645                      */
genomestart  152
trait 1 0.1 0.0 0.0 0.0 0.0 0.0 0.0 0.0 
trait 2 0.2 0.6126150841885754 0.0 0.0 0.0 0.0 0.0 0.45115247914083967 
trait 3 0.3 0.0 0.0 0.0 0.0 0.0 0.0 0.0 
node 1 1 1 1
node 2 1 1 1
node 3 1 1 3
node 4 1 0 2
node 5 1 0 0
gene  1 1 4 1.969033859686423 0 1.0 1.969033859686423 0
gene  2 2 4 -1.4307962523100768 0 2.0 -1.4307962523100768 1
gene  3 3 4 -3.568371046125402 0 3.0 -3.568371046125402 1
gene  1 1 5 1.4240817374793409 0 4.0 1.4240817374793409 1
gene  1 5 4 0.12307814709644843 0 5.0 0.12307814709644843 1
gene  2 2 5 5.157551831385318 0 10.0 5.157551831385318 1
genomeend 152
/* Organism # 153 Fitness:  0,000 Error:  1,000                      */
genomestart  153
trait 1 0.1 0.0 0.0 0.0 0.0 0.0 0.0 0.0 
trait 2 0.2 0.0 0.0 0.0 0.0 0.0 0.0 0.0 
trait 3 0.3 0.0 0.0 0.0 0.0 0.0 0.0 0.0 
node 1 1 1 1
node 2 1 1 1
node 3 1 1 3
node 4 1 0 2
node 5 1 0 0
gene  1 1 4 3.0379480864855495 0 1.0 3.0379480864855495 0
gene  2 2 4 -0.6623234753728537 0 2.0 -0.6623234753728537 1
gene  3 3 4 0.9956306289135184 0 3.0 0.9956306289135184 1
gene  1 1 5 0.2998289965621373 0 4.0 0.2998289965621373 1
gene  1 5 4 3.1792118019245246 0 5.0 3.1792118019245246 1
gene  3 2 5 6.996603025821715 0 10.0 6.996603025821715 1
genomeend 153
/* Organism # 154 Fitness:  4,010 Error:  3,002                      */
genomestart  154
trait 1 0.1 0.0 0.0 0.0 0.0 0.0 0.0 0.0 
trait 2 0.2 0.0 0.0 0.0 0.0 0.0 0.0 0.0 
trait 3 0.3 0.0 0.0 0.0 0.0 0.0 0.0 0.0 
node 1 1 1 1
node 2 1 1 1
node 3 1 1 3
node 4 1 0 2
node 5 1 0 0
gene  1 1 4 4.835262711647608 0 1.0 4.835262711647608 0
gene  2 2 4 -4.431012939260697 0 2.0 -4.431012939260697 1
gene  3 3 4 -6.250528805636829 0 3.0 -6.250528805636829 1
gene  1 1 5 0.17277195507060794 0 4.0 0.17277195507060794 1
gene  1 5 4 -1.7364158241489875 0 5.0 -1.7364158241489875 1
gene  3 2 5 6.647522152126495 0 10.0 6.647522152126495 1
genomeend 154
/* Organism # 155 Fitness:  8,985 Error:  3,997                      */
genomestart  155
trait 1 0.1 0.0 0.0 0.0 0.0 0.0 0.0 0.0 
trait 2 0.2 0.0 0.0 0.0 0.0 0.0 0.0 0.0 
trait 3 0.3 0.0 0.0 0.0 0.0 0.0 0.0 0.0 
node 1 1 1 1
node 2 1 1 1
node 3 1 1 3
node 4 1 0 2
node 5 1 0 0
gene  1 1 4 0.18634831188015277 0 1.0 0.18634831188015277 0
gene  2 2 4 -3.1336068288667844 0 2.0 -3.1336068288667844 1
gene  3 3 4 -3.120876815592908 0 3.0 -3.120876815592908 1
gene  1 1 5 0.2500741847685739 0 4.0 0.2500741847685739 1
gene  2 5 4 1.6895138086632562 0 5.0 1.6895138086632562 1
gene  3 2 5 4.679792658556721 0 10.0 4.679792658556721 1
genomeend 155
/* Organism # 156 Fitness:  2,754 Error:  2,660                      */
genomestart  156
trait 1 0.1 0.0 0.0 0.0 0.0 0.0 0.0 0.0 
trait 2 0.2 0.0 0.0 0.0 0.0 0.0 0.0 0.0 
trait 3 0.3 0.0 0.0 0.0 0.0 0.0 0.0 0.0 
node 1 1 1 1
node 2 1 1 1
node 3 1 1 3
node 4 1 0 2
node 5 1 0 0
gene  1 1 4 -1.2814168397932182 0 1.0 -1.2814168397932182 0
gene  2 2 4 -1.788991523406081 0 2.0 -1.788991523406081 1
gene  3 3 4 -2.7642560235246734 0 3.0 -2.7642560235246734 1
gene  1 1 5 1.3386209342707907 0 4.0 1.3386209342707907 1
gene  1 5 4 2.6464855654124735 0 5.0 2.6464855654124735 1
gene  3 2 5 2.370081979146451 0 10.0 2.370081979146451 1
genomeend 156
/* Organism # 157 Fitness:  4,000 Error:  3,000                      */
genomestart  157
trait 1 0.1 0.0 0.0 0.0 0.0 0.0 0.0 0.0 
trait 2 0.2 0.0 0.0 0.0 0.0 0.0 0.0 0.0 
trait 3 0.3 0.0 0.0 0.0 0.0 0.0 0.0 0.0 
node 1 1 1 1
node 2 1 1 1
node 3 1 1 3
node 4 1 0 2
node 5 1 0 0
gene  1 1 4 -2.509927907354859 0 1.0 -2.509927907354859 1
gene  2 2 4 -5.158079921270453 0 2.0 -5.158079921270453 1
gene  3 3 4 -4.009212084645375 0 3.0 -4.009212084645375 1
gene  1 1 5 -2.432747247050617 0 4.0 -2.432747247050617 1
gene  1 5 4 0.7054373567093024 0 5.0 0.7054373567093024 1
gene  3 2 5 2.9644796206284525 0 10.0 2.9644796206284525 1
genomeend 157
/* Organism # 158 Fitness:  0,003 Error:  1,055                      */
genomestart  158
trait 1 0.1 0.0 0.0 0.0 0.0 0.0 0.0 0.0 
trait 2 0.2 0.0 0.0 0.0 0.0 0.0 0.0 0.0 
trait 3 0.3 0.0 0.0 0.0 0.0 0.0 0.0 0.0 
node 1 1 1 1
node 2 1 1 1
node 3 1 1 3
node 4 1 0 2
node 5 1 0 0
gene  1 1 4 5.585317026541922 0 1.0 5.585317026541922 0
gene  2 2 4 -1.9116893157306927 0 2.0 -1.9116893157306927 1
gene  3 3 4 1.0549587122067416 0 3.0 1.0549587122067416 1
gene  1 1 5 3.825949097786034 0 4.0 3.825949097786034 1
gene  2 5 4 2.4910905249853483 0 5.0 2.4910905249853483 1
gene  3 2 5 7.305894068004832 0 10.0 7.305894068004832 1
genomeend 158
/* Organism # 159 Fitness:  7,849 Error:  3,802                      */
genomestart  159
trait 1 0.1 0.0 0.0 0.0 0.0 0.0 0.0 0.0 
trait 2 0.2 0.0 0.0 0.0 0.0 0.0 0.0 0.0 
trait 3 0.3 0.0 0.0 0.0 0.0 0.0 0.0 0.0 
node 1 1 1 1
node 2 1 1 1
node 3 1 1 3
node 4 1 0 2
node 5 1 0 0
gene  1 1 4 -0.30133178951492395 0 1.0 -0.30133178951492395 0
gene  2 2 4 -5.488927995287144 0 2.0 -5.488927995287144 1
gene  3 3 4 -0.9148401813907221 0 3.0 -0.9148401813907221 1
gene  1 1 5 0.3459985262703331 0 4.0 0.3459985262703331 1
gene  1 5 4 0.45848761097636526 0 5.0 0.45848761097636526 1
gene  3 2 5 3.0585093087017228 0 10.0 3.0585093087017228 1
genomeend 159
/*-------------------------------------------------------------------*/
/* Species # 003         : (size= 040) (AvfFit= 3,602) (Age= 3,000)  */
/*-------------------------------------------------------------------*/
/* Organism # 160 Fitness:  4,915 Error:  3,217                      */
genomestart  160
trait 1 0.07500000000000001 0.0 0.21490630207937414 0.0 0.0 0.0 0.0 0.0 
trait 2 0.2 0.0 0.0 0.0 0.0 0.0 0.0 0.0 
trait 3 0.3 0.0 0.0 0.0 0.0 0.0 0.0 0.0 
node 1 1 1 1
node 2 1 1 1
node 3 1 1 3
node 4 1 0 2
node 6 1 0 0
gene  1 1 4 -0.028390077893463428 0 1.0 -0.028390077893463428 1
gene  2 2 4 -0.8486020050026742 0 2.0 -0.8486020050026742 1
gene  3 3 4 -0.3014522086254916 0 3.0 -0.3014522086254916 1
gene  1 1 6 0.9822752381662538 0 6.0 0.9822752381662538 1
gene  1 6 4 -0.12215978717744713 0 7.0 -0.12215978717744713 1
genomeend 160
/* Organism # 161 Fitness:  4,000 Error:  3,000                      */
genomestart  161
trait 1 0.07500000000000001 0.0 0.21490630207937414 0.0 0.0 0.0 0.0 0.0 
trait 2 0.2 0.0 0.0 0.0 0.0 0.0 0.0 0.0 
trait 3 0.3 0.0 0.0 0.0 0.0 0.0 0.0 0.0 
node 1 1 1 1
node 2 1 1 1
node 3 1 1 3
node 4 1 0 2
node 6 1 0 0
gene  1 1 4 -4.356260169786681 0 1.0 -4.356260169786681 1
gene  2 2 4 2.5363171828432467 0 2.0 2.5363171828432467 1
gene  3 3 4 2.2241828991566854 0 3.0 2.2241828991566854 1
gene  1 1 6 0.9210133202817965 0 6.0 0.9210133202817965 1
gene  1 6 4 -2.6786954958725984 0 7.0 -2.6786954958725984 1
genomeend 161
/* Organism # 162 Fitness:  4,000 Error:  3,000                      */
genomestart  162
trait 1 0.07500000000000001 0.0 0.21490630207937414 0.0 0.0 0.0 0.0 0.0 
trait 2 0.2 0.0 0.0 0.0 0.0 0.0 0.0 0.0 
trait 3 0.3 0.0 0.0 0.0 0.0 0.0 0.0 0.0 
node 1 1 1 1
node 2 1 1 1
node 3 1 1 3
node 4 1 0 2
node 6 1 0 0
gene  1 1 4 -4.888222222793275 0 1.0 -4.888222222793275 1
gene  2 2 4 -0.9726527176812689 0 2.0 -0.9726527176812689 1
gene  3 3 4 -0.5643764339966038 0 3.0 -0.5643764339966038 1
gene  1 1 6 1.030334723213417 0 6.0 1.030334723213417 1
gene  1 6 4 -5.286759990631008 0 7.0 -5.286759990631008 1
genomeend 162
/* Organism # 163 Fitness:  4,000 Error:  3,000                      */
genomestart  163
trait 1 0.07500000000000001 0.0 0.21490630207937414 0.0 0.0 0.0 0.0 0.0 
trait 2 0.2 0.0 0.0 0.0 0.0 0.0 0.0 0.0 
trait 3 0.3 0.0 0.0 0.0 0.0 0.0 0.0 0.0 
node 1 1 1 1
node 2 1 1 1
node 3 1 1 3
node 4 1 0 2
node 6 1 0 0
gene  1 1 4 -3.9616781330449955 0 1.0 -3.9616781330449955 1
gene  2 2 4 -1.3883003303055192 0 2.0 -1.3883003303055192 1
gene  3 3 4 -1.9170695732822816 0 3.0 -1.9170695732822816 1
gene  1 1 6 1.944235164256898 0 6.0 1.944235164256898 1
gene  1 6 4 -2.465280457334738 0 7.0 -2.465280457334738 1
genomeend 163
/* Organism # 164 Fitness:  3,943 Error:  2,986                      */
genomestart  164
trait 1 0.07500000000000001 0.0 0.21490630207937414 0.0 0.0 0.0 0.0 0.0 
trait 2 0.2 0.0 0.0 0.0 0.0 0.0 0.0 0.0 
trait 3 0.3 0.0 0.0 0.0 0.0 0.0 0.0 0.0 
node 1 1 1 1
node 2 1 1 1
node 3 1 1 3
node 4 1 0 2
node 6 1 0 0
gene  1 1 4 -1.8718545699280469 0 1.0 -1.8718545699280469 1
gene  2 2 4 -1.9542424183352058 0 2.0 -1.9542424183352058 1
gene  3 3 4 1.0086022282927598 0 3.0 1.0086022282927598 1
gene  1 1 6 -0.9036688078829791 0 6.0 -0.9036688078829791 1
gene  1 6 4 0.42564875980671435 0 7.0 0.42564875980671435 1
genomeend 164
/* Organism # 165 Fitness:  4,000 Error:  3,000                      */
genomestart  165
trait 1 0.07500000000000001 0.0 0.21490630207937414 0.0 0.0 0.0 0.0 0.0 
trait 2 0.2 0.0 0.0 0.0 0.0 0.0 0.0 0.0 
trait 3 0.3 0.0 0.0 0.0 0.0 0.0 0.0 0.0 
node 1 1 1 1
node 2 1 1 1
node 3 1 1 3
node 4 1 0 2
node 6 1 0 0
gene  1 1 4 -2.5366477289421607 0 1.0 -2.5366477289421607 1
gene  2 2 4 -0.2511938805014351 0 2.0 -0.2511938805014351 1
gene  3 3 4 -0.3671600489215894 0 3.0 -0.3671600489215894 1
gene  3 1 6 0.6367340266473545 0 6.0 0.6367340266473545 1
gene  1 6 4 -2.010131164643955 0 7.0 -2.010131164643955 1
genomeend 165
/* Organism # 166 Fitness:  0,650 Error:  1,806                      */
genomestart  166
trait 1 0.07500000000000001 0.0 0.21490630207937414 0.0 0.0 0.0 0.0 0.0 
trait 2 0.2 0.0 0.0 0.43659655166210665 0.0 0.0 0.0 0.0 
trait 3 0.3 0.0 0.0 0.0 0.0 0.0 0.0 0.0 
node 1 1 1 1
node 2 1 1 1
node 3 1 1 3
node 4 1 0 2
node 6 1 0 0
gene  1 1 4 0.40405783557929476 0 1.0 0.40405783557929476 1
gene  2 2 4 -0.9114097266695655 0 2.0 -0.9114097266695655 1
gene  3 3 4 1.60630244237478 0 3.0 1.60630244237478 1
gene  3 1 6 -1.252839985556677 0 6.0 -1.252839985556677 1
gene  1 6 4 -5.793077478638512 0 7.0 -5.793077478638512 1
genomeend 166
/* Organism # 167 Fitness:  4,000 Error:  3,000                      */
genomestart  167
trait 1 0.07500000000000001 0.0 0.21490630207937414 0.0 0.0 0.0 0.0 0.0 
trait 2 0.2 0.0 0.0 0.0 0.0 0.0 0.0 0.0 
trait 3 0.3 0.0 0.0 0.0 0.0 0.0 0.0 0.0 
node 1 1 1 1
node 2 1 1 1
node 3 1 1 3
node 4 1 0 2
node 6 1 0 0
gene  1 1 4 -1.7283369972645857 0 1.0 -1.7283369972645857 1
gene  2 2 4 -1.4457908969367232 0 2.0 -1.4457908969367232 1
gene  3 3 4 -0.20873750016300185 0 3.0 -0.20873750016300185 1
gene  1 1 6 1.884731237228479 0 6.0 1.884731237228479 1
gene  1 6 4 -3.218587886040307 0 7.0 -3.218587886040307 1
genomeend 167
/* Organism # 168 Fitness:  4,001 Error:  3,000                      */
genomestart  168
trait 1 0.07500000000000001 0.0 0.21490630207937414 0.0 0.0 0.0 0.0 0.0 
trait 2 0.2 0.0 0.0 0.0 0.0 0.0 0.0 0.0 
trait 3 0.3 0.0 0.0 0.0 0.0 0.0 0.0 0.0 
node 1 1 1 1
node 2 1 1 1
node 3 1 1 3
node 4 1 0 2
node 6 1 0 0
gene  1 1 4 -0.15669024899480213 0 1.0 -0.15669024899480213 1
gene  2 2 4 -0.8142936469102338 0 2.0 -0.8142936469102338 1
gene  3 3 4 -0.510760680665088 0 3.0 -0.510760680665088 1
gene  1 1 6 1.3622128843155075 0 6.0 1.3622128843155075 1
gene  1 6 4 -1.5897886310317553 0 7.0 -1.5897886310317553 1
genomeend 168
/* Organism # 169 Fitness:  4,000 Error:  3,000                      */
genomestart  169
trait 1 0.07500000000000001 0.0 0.21490630207937414 0.0 0.0 0.0 0.0 0.0 
trait 2 0.2 0.0 0.0 0.0 0.0 0.0 0.0 0.0 
trait 3 0.3 0.0 0.0 0.0 0.0 0.0 0.0 0.0 
node 1 1 1 1
node 2 1 1 1
node 3 1 1 3
node 4 1 0 2
node 6 1 0 0
gene  1 1 4 -2.328276530737772 0 1.0 -2.328276530737772 1
gene  2 2 4 -3.286486188353927 0 2.0 -3.286486188353927 1
gene  3 3 4 -0.28882688600802964 0 3.0 -0.28882688600802964 1
gene  3 1 6 2.9261221667640336 0 6.0 2.9261221667640336 1
gene  1 6 4 0.5434388520852134 0 7.0 0.5434388520852134 1
genomeend 169
/* Organism # 170 Fitness:  4,000 Error:  3,000                      */
genomestart  170
trait 1 0.07500000000000001 0.0 0.21490630207937414 0.0 0.0 0.0 0.0 0.0 
trait 2 0.2 0.0 0.0 0.0 0.0 0.0 0.0 0.0 
trait 3 0.3 0.0 0.0 0.0 0.0 0.0 0.0 0.0 
node 1 1 1 1
node 2 1 1 1
node 3 1 1 3
node 4 1 0 2
node 6 1 0 0
gene  1 1 4 -4.584288995002545 0 1.0 -4.584288995002545 1
gene  2 2 4 -2.036133974235317 0 2.0 -2.036133974235317 1
gene  3 3 4 -0.6492857067177528 0 3.0 -0.6492857067177528 1
gene  1 1 6 -1.6801397798038156 0 6.0 -1.6801397798038156 1
gene  1 6 4 -1.3993737702245341 0 7.0 -1.3993737702245341 1
genomeend 170
/* Organism # 171 Fitness:  4,000 Error:  3,000                      */
genomestart  171
trait 1 0.07500000000000001 0.0 0.21490630207937414 0.0 0.0 0.0 0.0 0.0 
trait 2 0.2 0.0 0.0 0.8731931033242133 0.0 0.0 0.0 0.0 
trait 3 0.3 0.0 0.0 0.0 0.0 0.0 0.0 0.0 
node 1 1 1 1
node 2 1 1 1
node 3 1 1 3
node 4 1 0 2
node 6 1 0 0
gene  1 1 4 -3.420800093502758 0 1.0 -3.420800093502758 1
gene  2 2 4 -1.3760250018147837 0 2.0 -1.3760250018147837 1
gene  3 3 4 0.19859574703412342 0 3.0 0.19859574703412342 1
gene  1 1 6 -0.28330271197125423 0 6.0 -0.28330271197125423 1
gene  1 6 4 -3.786111551570066 0 7.0 -3.786111551570066 1
genomeend 171
/* Organism # 172 Fitness:  4,000 Error:  3,000                      */
genomestart  172
trait 1 0.07500000000000001 0.0 0.21490630207937414 0.0 0.0 0.0 0.0 0.0 
trait 2 0.2 0.0 0.0 0.43659655166210665 0.0 0.0 0.0 0.0 
trait 3 0.3 0.0 0.0 0.0 0.0 0.0 0.0 0.0 
node 1 1 1 1
node 2 1 1 1
node 3 1 1 3
node 4 1 0 2
node 6 1 0 0
gene  1 1 4 -4.19041370761658 0 1.0 -4.19041370761658 1
gene  2 2 4 -0.06255118093235534 0 2.0 -0.06255118093235534 1
gene  3 3 4 -0.13091037240812442 0 3.0 -0.13091037240812442 1
gene  1 1 6 2.9859373962450215 0 6.0 2.9859373962450215 1
gene  1 6 4 -1.6622441205690661 0 7.0 -1.6622441205690661 1
genomeend 172
/* Organism # 173 Fitness:  4,000 Error:  3,000                      */
genomestart  173
trait 1 0.07500000000000001 0.0 0.21490630207937414 0.0 0.0 0.0 0.0 0.0 
trait 2 0.2 0.0 0.0 0.0 0.0 0.0 0.0 0.0 
trait 3 0.3 0.0 0.0 0.0 0.0 0.0 0.0 0.0 
node 1 1 1 1
node 2 1 1 1
node 3 1 1 3
node 4 1 0 2
node 6 1 0 0
gene  1 1 4 -3.8173961518014696 0 1.0 -3.8173961518014696 1
gene  2 2 4 0.8336146319547806 0 2.0 0.8336146319547806 1
gene  3 3 4 -1.9177012221667094 0 3.0 -1.9177012221667094 1
gene  1 1 6 -0.3244637911940552 0 6.0 -0.3244637911940552 1
gene  2 6 4 -4.624700016125604 0 7.0 -4.624700016125604 1
genomeend 173
/* Organism # 174 Fitness:  4,000 Error:  3,000                      */
genomestart  174
trait 1 0.07500000000000001 0.0 0.21490630207937414 0.0 0.0 0.0 0.0 0.0 
trait 2 0.2 0.0 0.0 0.0 0.0 0.0 0.0 0.0 
trait 3 0.3 0.0 0.0 0.0 0.0 0.0 0.0 0.0 
node 1 1 1 1
node 2 1 1 1
node 3 1 1 3
node 4 1 0 2
node 6 1 0 0
gene  1 1 4 -3.2774174661623383 0 1.0 -3.2774174661623383 1
