/* Species # 001         : (size= 005) (AvfFit= 3,439) (Age= 80,000)  */
/*-------------------------------------------------------------------*/
/* Organism # 000 Fitness:  4,000 Error:  3,000                      */
genomestart  0
trait 1 0.0 0.0 0.019454913507653826 0.0 0.0 0.0 0.042098570214421316 0.0 
trait 2 0.0 0.0 0.0 0.0 0.11110840292400782 0.0 0.8243238877850094 0.0 
trait 3 0.15 0.0 0.0 0.0 0.0 0.2323021205038202 0.46444145894167854 0.3761360985062726 
node 1 2 1 1
node 2 2 1 1
node 3 2 1 3
node 4 1 0 2
node 8 1 0 0
node 10 3 0 0
gene  3 1 4 -4.104233849782814 0 1.0 -4.104233849782814 0
gene  2 2 4 -6.286649962982986 0 2.0 -6.286649962982986 1
gene  1 3 4 7.338382958512513 0 3.0 7.338382958512513 1
gene  1 1 8 -3.738045593334693 0 10.0 -3.738045593334693 1
gene  1 1 10 8.351090044658754 0 14.0 8.351090044658754 1
gene  3 10 4 9.196657780246062 0 15.0 9.196657780246062 1
gene  3 4 8 1.9046864901120237 0 50.0 1.9046864901120237 1
gene  2 3 10 6.764415592684028 0 185.0 6.764415592684028 1
gene  1 2 8 4.4639322514719675 0 435.0 4.4639322514719675 1
gene  2 3 8 -12.298880563478892 0 467.0 -12.298880563478892 1
gene  1 10 8 -0.39717014201520184 0 642.0 -0.39717014201520184 1
gene  2 2 10 -10.053890891332788 0 821.0 -10.053890891332788 1
genomeend 0
/* Organism # 001 Fitness:  3,989 Error:  2,997                      */
genomestart  1
trait 1 0.0 0.0 0.019454913507653826 0.0 0.0 0.0 0.042098570214421316 0.0 
trait 2 0.0 0.0 0.0 0.0 0.11110840292400782 0.0 0.8243238877850094 0.0 
trait 3 0.15 0.0 0.0 0.0 0.0 0.2323021205038202 0.46444145894167854 0.3761360985062726 
node 1 2 1 1
node 2 2 1 1
node 3 2 1 3
node 4 1 0 2
node 8 1 0 0
node 10 3 0 0
gene  3 1 4 -4.995986946927996 0 1.0 -4.995986946927996 0
gene  2 2 4 -1.1908256487673305 0 2.0 -1.1908256487673305 1
gene  1 3 4 7.55295815908851 0 3.0 7.55295815908851 1
gene  1 1 8 -1.8259569122045118 0 10.0 -1.8259569122045118 1
gene  1 1 10 5.528171976663671 0 14.0 5.528171976663671 1
gene  3 10 4 12.8705952044554 0 15.0 12.8705952044554 1
gene  3 4 8 3.2067569504611724 0 50.0 3.2067569504611724 1
gene  2 3 10 7.9510693849644305 0 185.0 7.9510693849644305 1
gene  1 2 8 1.0877595504330158 0 435.0 1.0877595504330158 1
gene  2 3 8 -0.3171217985829708 0 467.0 -0.3171217985829708 1
gene  1 10 8 -1.2757550080637952 0 642.0 -1.2757550080637952 1
gene  2 2 10 -9.790985702742878 0 821.0 -9.790985702742878 1
genomeend 1
/* Organism # 002 Fitness:  4,000 Error:  3,000                      */
genomestart  2
trait 1 0.0 0.0 0.019454913507653826 0.0 0.0 0.0 0.042098570214421316 0.0 
trait 2 0.0 0.0 0.0 0.0 0.11110840292400782 0.0 0.8243238877850094 0.0 
trait 3 0.15 0.0 0.0 0.0 0.0 0.2323021205038202 0.46444145894167854 0.3761360985062726 
node 1 2 1 1
node 2 2 1 1
node 3 2 1 3
node 4 1 0 2
node 8 1 0 0
node 10 3 0 0
gene  3 1 4 -6.229959692233086 0 1.0 -6.229959692233086 0
gene  2 2 4 -7.471162770968696 0 2.0 -7.471162770968696 1
gene  1 3 4 7.582330546609089 0 3.0 7.582330546609089 1
gene  1 1 8 0.4418429044318135 0 10.0 0.4418429044318135 1
gene  1 1 10 9.36428272889669 0 14.0 9.36428272889669 1
gene  3 10 4 9.700586694735978 0 15.0 9.700586694735978 1
gene  3 4 8 0.0797819537538258 0 50.0 0.0797819537538258 1
gene  2 3 10 8.985456864123082 0 185.0 8.985456864123082 1
gene  1 2 8 1.4498843793619556 0 435.0 1.4498843793619556 1
gene  2 3 8 -9.473175842409985 0 467.0 -9.473175842409985 1
gene  1 10 8 1.1388949943157565 0 642.0 1.1388949943157565 1
gene  2 2 10 -10.037650183602986 0 821.0 -10.037650183602986 1
genomeend 2
/* Organism # 003 Fitness:  1,207 Error:  2,099                      */
genomestart  3
trait 1 0.0 0.0 0.019454913507653826 0.0 0.0 0.0 0.042098570214421316 0.0 
trait 2 0.0 0.0 0.0 0.0 0.11110840292400782 0.0 0.8243238877850094 0.0 
trait 3 0.15 0.0 0.0 0.0 0.0 0.2323021205038202 0.46444145894167854 0.3761360985062726 
node 1 2 1 1
node 2 2 1 1
node 3 2 1 3
node 4 1 0 2
node 8 1 0 0
node 10 3 0 0
gene  3 1 4 -4.189456908158281 0 1.0 -4.189456908158281 0
gene  2 2 4 -8.003132074711665 0 2.0 -8.003132074711665 1
gene  1 3 4 -1.421684739982447 0 3.0 -1.421684739982447 1
gene  1 1 8 -1.252643742724395 0 10.0 -1.252643742724395 1
gene  1 1 10 9.227166977302101 0 14.0 9.227166977302101 1
gene  3 10 4 8.97567934221446 0 15.0 8.97567934221446 1
gene  3 4 8 1.4115745492081655 0 50.0 1.4115745492081655 1
gene  2 3 10 8.368567779473373 0 185.0 8.368567779473373 1
gene  1 2 8 2.7887564281368302 0 435.0 2.7887564281368302 1
gene  2 3 8 -9.482435734558987 0 467.0 -9.482435734558987 1
gene  1 10 8 3.1705443695653526 0 642.0 3.1705443695653526 1
gene  2 2 10 -12.137665062511582 0 821.0 -12.137665062511582 1
genomeend 3
/* Organism # 004 Fitness:  4,000 Error:  3,000                      */
genomestart  4
trait 1 0.0 0.0 0.019454913507653826 0.0 0.0 0.0 0.042098570214421316 0.0 
trait 2 0.0 0.0 0.0 0.0 0.11110840292400782 0.0 0.8243238877850094 0.0 
trait 3 0.15 0.0 0.0 0.0 0.0 0.2323021205038202 0.46444145894167854 0.3761360985062726 
node 1 2 1 1
node 2 2 1 1
node 3 2 1 3
node 4 1 0 2
node 8 1 0 0
node 10 3 0 0
gene  3 1 4 -3.1727219618888003 0 1.0 -3.1727219618888003 0
gene  2 2 4 -5.86761348524619 0 2.0 -5.86761348524619 1
gene  1 3 4 5.755623130127159 0 3.0 5.755623130127159 1
gene  1 1 8 -1.1579338880589893 0 10.0 -1.1579338880589893 1
gene  1 1 10 9.009638824205588 0 14.0 9.009638824205588 1
gene  3 10 4 9.882723370870368 0 15.0 9.882723370870368 1
gene  3 4 8 1.453373140566384 0 50.0 1.453373140566384 1
gene  2 3 10 7.118570066652526 0 185.0 7.118570066652526 1
gene  1 2 8 0.6426683501303496 0 435.0 0.6426683501303496 1
gene  2 3 8 -10.843933617355496 0 467.0 -10.843933617355496 1
gene  1 10 8 1.1789923393131043 0 642.0 1.1789923393131043 1
gene  2 2 10 -9.286925576660265 0 821.0 -9.286925576660265 1
genomeend 4
/*-------------------------------------------------------------------*/
/* Species # 002         : (size= 001) (AvfFit= 4,000) (Age= 77,000)  */
/*-------------------------------------------------------------------*/
/* Organism # 005 Fitness:  4,000 Error:  3,000                      */
genomestart  5
trait 1 0.1 0.0 0.0 0.0 0.0 0.0 0.0 0.0 
trait 2 0.0 0.18894246321458552 0.9481424117406407 0.20967005110301185 0.0 0.6726964833252337 1.0240103435372196 0.0 
trait 3 0.7105937273343093 1.0768470392432374 0.2625478134917679 0.7517853547765823 0.8352783361779413 0.9674370869282828 2.3450847628507407 0.0 
node 1 1 1 1
node 2 1 1 1
node 3 3 1 3
node 4 1 0 2
node 8 1 0 0
node 10 1 0 0
node 15 2 0 0
node 323 1 0 0
node 334 1 0 0
gene  2 1 4 1.020930919243047 0 1.0 1.020930919243047 0
gene  2 2 4 -31.200961882541566 0 2.0 -31.200961882541566 1
gene  1 3 4 22.22839590290648 0 3.0 22.22839590290648 1
gene  1 1 8 2.173231941426791 0 10.0 2.173231941426791 0
gene  1 1 10 3.846450530359245 0 14.0 3.846450530359245 1
gene  1 10 4 16.590072305930263 0 15.0 16.590072305930263 0
gene  3 4 8 7.677555262632554 0 25.0 7.677555262632554 0
gene  3 3 10 5.20763249934462 0 27.0 5.20763249934462 1
gene  1 1 15 -3.1912212298934075 0 38.0 -3.1912212298934075 1
gene  1 15 8 2.539437994292605 0 39.0 2.539437994292605 1
gene  3 10 15 -0.3860033515789558 0 494.0 -0.3860033515789558 1
gene  1 10 8 8.835877066674508 0 611.0 8.835877066674508 1
gene  3 2 15 -3.3504157065838407 0 921.0 -3.3504157065838407 1
gene  3 3 15 -0.485736005180987 0 997.0 -0.485736005180987 1
gene  3 15 4 4.975906572743142 0 1084.0 4.975906572743142 1
gene  2 2 8 5.117673085939189 0 1378.0 5.117673085939189 1
gene  1 10 323 1.0 0 1450.0 0.0 1
gene  1 323 4 16.590072305930263 0 1451.0 0.0 1
gene  3 4 334 1.0 0 1485.0 0.0 1
gene  3 334 8 7.677555262632554 0 1486.0 0.0 1
genomeend 5
/*-------------------------------------------------------------------*/
/* Species # 004         : (size= 003) (AvfFit= 2,859) (Age= 76,000)  */
/*-------------------------------------------------------------------*/
/* Organism # 006 Fitness:  2,142 Error:  2,464                      */
genomestart  6
trait 1 0.1 0.0 0.0 0.0 0.0 0.7799236426351998 0.06893602596017512 0.0 
trait 2 0.0 0.0 0.0 0.3093884620036361 0.07578164144439015 1.3193493520292519 0.7932833759659115 0.0 
trait 3 0.0 0.9380519857669419 0.11394492249963561 1.0512967988818502 2.062933348820339 0.0 0.0 0.0 
node 1 1 1 1
node 2 1 1 1
node 3 3 1 3
node 4 2 0 2
node 8 1 0 0
node 10 1 0 0
node 28 3 0 0
node 272 1 0 0
node 331 1 0 0
gene  1 1 4 -4.038793186461341 0 1.0 -4.038793186461341 0
gene  2 2 4 -2.653890581024207 0 2.0 -2.653890581024207 1
gene  3 3 4 -14.83550618523971 0 3.0 -14.83550618523971 1
gene  3 1 8 -1.364405472437563 0 10.0 -1.364405472437563 1
gene  3 1 10 8.289998955977063 0 14.0 8.289998955977063 0
gene  1 10 4 17.457916024444877 0 15.0 17.457916024444877 1
gene  2 4 8 7.304252259118275 0 25.0 7.304252259118275 1
gene  1 3 10 -8.359298921530577 0 27.0 -8.359298921530577 1
gene  2 1 28 -0.15796213321996344 0 115.0 -0.15796213321996344 1
gene  1 28 10 -0.5913198826474817 0 116.0 -0.5913198826474817 0
gene  1 3 28 6.976686001729606 0 129.0 6.976686001729606 1
gene  2 2 8 -1.4880517047767625 0 215.0 -1.4880517047767625 0
gene  2 2 10 -3.305224434850821 0 284.0 -3.305224434850821 1
gene  1 28 4 -0.12735537649359507 0 702.0 -0.12735537649359507 1
gene  3 2 28 0.5580996383060248 0 820.0 0.5580996383060248 1
gene  2 28 8 -1.2852210736438248 0 1045.0 -1.2852210736438248 1
gene  1 3 8 -1.045509554603554 0 1085.0 -1.045509554603554 1
gene  3 10 8 -1.1557317645164376 0 1236.0 -1.1557317645164376 1
gene  1 28 272 0.744185975454012 0 1262.0 0.744185975454012 1
gene  1 272 10 -1.9808340998511318 0 1263.0 -1.9808340998511318 1
gene  3 3 272 -10.818280908537877 0 1346.0 -10.818280908537877 1
gene  2 2 331 2.5351028694865168 0 1477.0 2.5351028694865168 1
gene  2 331 8 -0.590003208924393 0 1478.0 -0.590003208924393 1
genomeend 6
/* Organism # 007 Fitness:  3,998 Error:  3,000                      */
genomestart  7
trait 1 0.1 0.0 0.0 0.0 0.0 0.7799236426351998 0.06893602596017512 0.0 
trait 2 0.0 0.0 0.0 0.3093884620036361 0.07578164144439015 1.3193493520292519 0.7932833759659115 0.0 
trait 3 0.0 0.9380519857669419 0.11394492249963561 1.0512967988818502 2.062933348820339 0.0 0.0 0.0 
node 1 1 1 1
node 2 1 1 1
node 3 3 1 3
node 4 2 0 2
node 8 1 0 0
node 10 1 0 0
node 28 3 0 0
node 272 1 0 0
node 331 1 0 0
gene  1 1 4 -3.4366340784980403 0 1.0 -3.4366340784980403 0
gene  2 2 4 -1.580501939893065 0 2.0 -1.580501939893065 1
gene  3 3 4 -13.002107815505676 0 3.0 -13.002107815505676 1
gene  3 1 8 0.33431172027516354 0 10.0 0.33431172027516354 1
gene  3 1 10 7.852167692596939 0 14.0 7.852167692596939 0
gene  1 10 4 19.759711976936803 0 15.0 19.759711976936803 1
gene  2 4 8 5.533324679211841 0 25.0 5.533324679211841 1
gene  1 3 10 -10.085104157143048 0 27.0 -10.085104157143048 1
gene  2 1 28 -2.5409220643750743 0 115.0 -2.5409220643750743 1
gene  1 28 10 -2.3594442417672434 0 116.0 -2.3594442417672434 0
gene  1 3 28 7.7526348553967015 0 129.0 7.7526348553967015 1
gene  2 2 8 -2.384631734487813 0 215.0 -2.384631734487813 0
gene  2 2 10 -3.1223335298968995 0 284.0 -3.1223335298968995 1
gene  1 28 4 -0.4963607615436494 0 702.0 -0.4963607615436494 1
gene  3 2 28 1.3428156906213273 0 820.0 1.3428156906213273 1
gene  2 28 8 0.3988469664591584 0 1045.0 0.3988469664591584 1
gene  1 3 8 -0.025026333851287497 0 1085.0 -0.025026333851287497 1
gene  3 10 8 0.13014969439345603 0 1236.0 0.13014969439345603 1
gene  1 28 272 -1.7550101556246518 0 1262.0 -1.7550101556246518 1
gene  1 272 10 -0.5385224824083621 0 1263.0 -0.5385224824083621 1
gene  3 3 272 -9.212182161997664 0 1346.0 -9.212182161997664 1
gene  2 2 331 0.43602706113585465 0 1477.0 0.43602706113585465 1
gene  2 331 8 2.2917412926907894 0 1478.0 2.2917412926907894 1
genomeend 7
/* Organism # 008 Fitness:  2,437 Error:  2,561                      */
genomestart  8
trait 1 0.1 0.0 0.0 0.0 0.0 0.7799236426351998 0.06893602596017512 0.0 
trait 2 0.0 0.0 0.0 0.3093884620036361 0.07578164144439015 1.3193493520292519 0.7932833759659115 0.0 
trait 3 0.0 0.9380519857669419 0.11394492249963561 1.0512967988818502 2.062933348820339 0.0 0.0 0.0 
node 1 1 1 1
node 2 1 1 1
node 3 3 1 3
node 4 2 0 2
node 8 1 0 0
node 10 1 0 0
node 28 3 0 0
node 272 1 0 0
node 331 1 0 0
gene  1 1 4 -2.9444947448050947 0 1.0 -2.9444947448050947 0
gene  2 2 4 -3.603508542802464 0 2.0 -3.603508542802464 1
gene  3 3 4 -11.787967313820124 0 3.0 -11.787967313820124 1
gene  3 1 8 -1.289466231215788 0 10.0 -1.289466231215788 1
gene  3 1 10 6.2080510560454565 0 14.0 6.2080510560454565 0
gene  1 10 4 16.789532739040965 0 15.0 16.789532739040965 1
gene  2 4 8 -0.8731814409885508 0 25.0 -0.8731814409885508 1
gene  1 3 10 -8.443773983547532 0 27.0 -8.443773983547532 1
gene  2 1 28 -1.550155977023142 0 115.0 -1.550155977023142 1
gene  1 28 10 -0.8809511154194694 0 116.0 -0.8809511154194694 0
gene  1 3 28 8.379573174004552 0 129.0 8.379573174004552 1
gene  2 2 8 -0.6550136273899139 0 215.0 -0.6550136273899139 0
gene  2 2 10 -0.786198792190292 0 284.0 -0.786198792190292 1
gene  1 28 4 0.9534130944543329 0 702.0 0.9534130944543329 1
gene  3 2 28 0.9815480080174412 0 820.0 0.9815480080174412 1
gene  2 28 8 -0.00257641211755838 0 1045.0 -0.00257641211755838 1
gene  1 3 8 -1.4648524140396155 0 1085.0 -1.4648524140396155 1
gene  3 10 8 1.0264920255035763 0 1236.0 1.0264920255035763 1
gene  1 28 272 -0.9550035753970603 0 1262.0 -0.9550035753970603 1
gene  1 272 10 -2.3693582043735057 0 1263.0 -2.3693582043735057 1
gene  3 3 272 -11.77195591644582 0 1346.0 -11.77195591644582 1
gene  2 2 331 -0.44237771669377723 0 1477.0 -0.44237771669377723 1
gene  2 331 8 -1.9240033956613751 0 1478.0 -1.9240033956613751 1
genomeend 8
/*-------------------------------------------------------------------*/
/* Species # 005         : (size= 002) (AvfFit= 4,000) (Age= 75,000)  */
/*-------------------------------------------------------------------*/
/* Organism # 009 Fitness:  4,000 Error:  3,000                      */
genomestart  9
trait 1 0.0 0.8937078913675888 0.0 0.0 0.027307119395762802 0.0 0.0 0.0 
trait 2 0.24900708042332667 0.3209554101411378 0.5135321303941194 0.0 0.7569727737253293 0.0 1.733678387213343 1.04666052729948 
trait 3 0.0 0.0 0.0 0.0 0.0 0.0 0.0 0.0 
node 1 1 1 1
node 2 2 1 1
node 3 1 1 3
node 4 3 0 2
node 10 2 0 0
node 13 3 0 0
node 17 1 0 0
node 84 1 0 0
node 286 1 0 0
gene  1 1 4 0.14086042770715096 0 1.0 0.14086042770715096 1
gene  2 2 4 -16.951941732894486 0 2.0 -16.951941732894486 1
gene  3 3 4 16.324133455072044 0 3.0 16.324133455072044 1
gene  1 1 10 2.3961479617365016 0 14.0 2.3961479617365016 1
gene  2 10 4 2.739256527579186 0 15.0 2.739256527579186 1
gene  2 2 10 -6.157902754410765 0 26.0 -6.157902754410765 1
gene  1 1 13 1.1964963039957204 0 28.0 1.1964963039957204 0
gene  1 13 10 -1.366981992674797 0 29.0 -1.366981992674797 1
gene  1 1 17 6.302098385070098 0 45.0 6.302098385070098 1
gene  1 17 10 -1.9026604053237586 0 46.0 -1.9026604053237586 1
gene  1 17 4 9.328318501202741 0 63.0 9.328318501202741 1
gene  1 17 13 1.1599257702258665 0 78.0 1.1599257702258665 1
gene  3 3 17 0.42756275681134603 0 255.0 0.42756275681134603 1
gene  1 1 84 0.5203851443219356 0 395.0 0.5203851443219356 1
gene  1 84 13 6.191402621164032 0 396.0 6.191402621164032 1
gene  1 2 13 -0.4109536055302426 0 613.0 -0.4109536055302426 1
gene  1 84 17 -3.3132571238656277 0 636.0 -3.3132571238656277 1
gene  3 84 10 -2.574283799462027 0 980.0 -2.574283799462027 1
gene  1 2 84 -4.9950005294811275 0 1002.0 -4.9950005294811275 0
gene  1 2 286 1.9600399176715961 0 1321.0 1.9600399176715961 1
gene  1 286 84 -1.3126383908589156 0 1322.0 -1.3126383908589156 1
genomeend 9
/* Organism # 010 Fitness:  4,000 Error:  3,000                      */
genomestart  10
trait 1 0.0 0.8937078913675888 0.0 0.0 0.027307119395762802 0.0 0.0 0.0 
trait 2 0.24900708042332667 0.3209554101411378 0.5135321303941194 0.0 0.7569727737253293 0.0 1.733678387213343 1.04666052729948 
trait 3 0.0 0.0 0.0 0.0 0.0 0.0 0.0 0.0 
node 1 1 1 1
node 2 2 1 1
node 3 1 1 3
node 4 3 0 2
node 10 2 0 0
node 13 3 0 0
node 17 1 0 0
node 84 1 0 0
node 286 1 0 0
gene  1 1 4 -4.152175969841627 0 1.0 -4.152175969841627 1
gene  2 2 4 -18.825100228575476 0 2.0 -18.825100228575476 1
gene  3 3 4 14.328897111641574 0 3.0 14.328897111641574 1
gene  1 1 10 2.5502058331293584 0 14.0 2.5502058331293584 1
gene  2 10 4 0.9863377101188336 0 15.0 0.9863377101188336 1
gene  2 2 10 -4.507960352017232 0 26.0 -4.507960352017232 1
gene  1 1 13 1.2392305367671912 0 28.0 1.2392305367671912 0
gene  1 13 10 -0.9106477395649831 0 29.0 -0.9106477395649831 1
gene  1 1 17 8.18513516853772 0 45.0 8.18513516853772 1
gene  1 17 10 -2.64607329046039 0 46.0 -2.64607329046039 1
gene  1 17 4 10.559600085275994 0 63.0 10.559600085275994 1
gene  1 17 13 0.09465340057444305 0 78.0 0.09465340057444305 1
gene  3 3 17 -2.8046799851669384 0 255.0 -2.8046799851669384 1
gene  1 1 84 -1.9278208521725693 0 395.0 -1.9278208521725693 1
gene  1 84 13 4.548177314361224 0 396.0 4.548177314361224 1
gene  1 2 13 -0.2925527261043262 0 613.0 -0.2925527261043262 1
gene  1 84 17 -4.925088394287182 0 636.0 -4.925088394287182 1
gene  3 84 10 -2.111472592121716 0 980.0 -2.111472592121716 1
gene  1 2 84 -5.071074873983281 0 1002.0 -5.071074873983281 0
gene  1 2 286 1.1326209011383315 0 1321.0 1.1326209011383315 1
gene  1 286 84 -0.6265656886680743 0 1322.0 -0.6265656886680743 1
gene  1 84 4 7.9016359869073565 0 1502.0 7.9016359869073565 1
genomeend 10
/*-------------------------------------------------------------------*/
/* Species # 008         : (size= 004) (AvfFit= 3,250) (Age= 75,000)  */
/*-------------------------------------------------------------------*/
/* Organism # 011 Fitness:  1,000 Error:  2,000                      */
genomestart  11
trait 1 0.5354335940656408 0.0 0.0 0.0 0.0 0.0 0.0 0.6045265643526534 
trait 2 0.2 0.0 0.0 0.0 0.08691693476032844 0.0 0.0 0.0 
trait 3 0.3 0.0 0.0 0.0 0.0 0.0 0.0 0.0 
node 1 1 1 1
node 2 3 1 1
node 3 3 1 3
node 4 3 0 2
node 8 1 0 0
node 10 1 0 0
node 12 1 0 0
node 217 1 0 0
gene  1 1 4 1.2812980617022363 0 1.0 1.2812980617022363 1
gene  3 2 4 -22.623713782912176 0 2.0 -22.623713782912176 1
gene  3 3 4 -2.4765300679323863 0 3.0 -2.4765300679323863 1
gene  1 1 8 0.6537480638821849 0 10.0 0.6537480638821849 1
gene  2 1 10 0.26252533733921835 0 14.0 0.26252533733921835 1
gene  1 10 4 -0.5220183806368399 0 15.0 -0.5220183806368399 1
gene  1 3 10 5.091999103382976 0 27.0 5.091999103382976 1
gene  2 2 10 4.766935374788636 0 26.0 4.766935374788636 1
gene  3 2 12 -2.3696789554633604 0 23.0 -2.3696789554633604 1
gene  1 12 4 -3.380967852552198 0 24.0 -3.380967852552198 1
gene  2 1 12 4.321468066226672 0 85.0 4.321468066226672 1
gene  3 3 12 -8.286705747810672 0 724.0 -8.286705747810672 1
gene  3 8 12 -2.140617930607585 0 749.0 -2.140617930607585 1
gene  1 10 8 4.053783411786795 0 789.0 4.053783411786795 1
gene  1 10 12 -2.9367754185045514 0 809.0 -2.9367754185045514 1
gene  1 10 217 2.871322368782449 0 1022.0 2.871322368782449 1
gene  1 217 8 -1.415684109268008 0 1023.0 -1.415684109268008 1
gene  1 217 4 14.114428687921608 0 1086.0 14.114428687921608 1
gene  2 2 8 2.841925470395548 0 1378.0 2.841925470395548 1
gene  1 1 217 2.3863031411587965 0 1430.0 2.3863031411587965 1
genomeend 11
/* Organism # 012 Fitness:  4,000 Error:  3,000                      */
genomestart  12
trait 1 0.5354335940656408 0.0 0.0 0.0 0.0 0.0 0.0 0.6045265643526534 
trait 2 0.2 0.0 0.0 0.0 0.08691693476032844 0.0 0.0 0.0 
trait 3 0.3 0.0 0.0 0.0 0.0 0.0 0.0 0.0 
node 1 1 1 1
node 2 3 1 1
node 3 3 1 3
node 4 3 0 2
node 8 1 0 0
node 10 1 0 0
node 12 1 0 0
node 217 1 0 0
gene  1 1 4 0.8102200004304192 0 1.0 0.8102200004304192 1
gene  3 2 4 -20.444105023103393 0 2.0 -20.444105023103393 1
gene  3 3 4 20.68747847291116 0 3.0 20.68747847291116 1
gene  1 1 8 1.5136724994285378 0 10.0 1.5136724994285378 1
gene  2 1 10 1.0743225019147107 0 14.0 1.0743225019147107 1
gene  1 10 4 -0.3481061685956637 0 15.0 -0.3481061685956637 1
gene  1 3 10 5.661803826492806 0 27.0 5.661803826492806 1
gene  2 2 10 4.347345904710652 0 26.0 4.347345904710652 1
gene  3 2 12 -1.671933981816273 0 23.0 -1.671933981816273 1
gene  1 12 4 -4.7645461122838775 0 24.0 -4.7645461122838775 1
gene  2 1 12 2.0449507165106775 0 85.0 2.0449507165106775 1
gene  3 3 12 -6.873682690352167 0 724.0 -6.873682690352167 1
gene  3 8 12 3.7241577950262874 0 749.0 3.7241577950262874 1
gene  1 10 8 3.392168678479915 0 789.0 3.392168678479915 1
gene  1 10 12 -2.308553052269211 0 809.0 -2.308553052269211 1
gene  1 10 217 1.734035922390188 0 1022.0 1.734035922390188 1
gene  1 217 8 -1.3504149450578105 0 1023.0 -1.3504149450578105 1
gene  1 217 4 13.247175895147134 0 1086.0 13.247175895147134 1
gene  2 2 8 2.712439546196862 0 1378.0 0.0 1
gene  1 1 217 0.4509413652465588 0 1430.0 0.4509413652465588 1
gene  3 2 217 5.516621199456063 0 1487.0 5.516621199456063 1
genomeend 12
/* Organism # 013 Fitness:  4,000 Error:  3,000                      */
genomestart  13
trait 1 0.5354335940656408 0.0 0.0 0.0 0.0 0.0 0.0 0.6045265643526534 
trait 2 0.2 0.0 0.0 0.0 0.08691693476032844 0.0 0.0 0.0 
trait 3 0.3 0.0 0.0 0.0 0.0 0.0 0.0 0.0 
node 1 1 1 1
node 2 3 1 1
node 3 3 1 3
node 4 3 0 2
node 8 1 0 0
node 10 1 0 0
node 12 1 0 0
node 217 1 0 0
gene  1 1 4 -0.6722477704536449 0 1.0 -0.6722477704536449 1
gene  3 2 4 -21.8314006223064 0 2.0 -21.8314006223064 1
gene  3 3 4 19.194723155632076 0 3.0 19.194723155632076 1
gene  1 1 8 3.5981291533543347 0 10.0 3.5981291533543347 1
gene  2 1 10 1.7683779999288098 0 14.0 1.7683779999288098 1
gene  1 10 4 -1.2192194732317465 0 15.0 -1.2192194732317465 1
gene  1 3 10 6.279822453627093 0 27.0 6.279822453627093 1
gene  2 2 10 3.9857295463382827 0 26.0 3.9857295463382827 1
gene  3 2 12 0.154713216422665 0 23.0 0.154713216422665 1
gene  1 12 4 -3.3440337059824143 0 24.0 -3.3440337059824143 1
gene  2 1 12 0.5875128467421558 0 85.0 0.5875128467421558 1
gene  3 3 12 -8.536019203018038 0 724.0 -8.536019203018038 1
gene  3 8 12 4.745708608768943 0 749.0 4.745708608768943 1
gene  1 10 8 2.9891786766332675 0 789.0 2.9891786766332675 1
gene  1 10 12 -4.384724450741583 0 809.0 -4.384724450741583 1
gene  1 10 217 3.7859600564830345 0 1022.0 3.7859600564830345 1
gene  1 217 8 -3.584847688953668 0 1023.0 -3.584847688953668 1
gene  1 217 4 12.38612997320472 0 1086.0 12.38612997320472 1
gene  2 2 8 2.712439546196862 0 1378.0 2.712439546196862 1
gene  1 1 217 0.36302391724762295 0 1430.0 0.36302391724762295 1
genomeend 13
/* Organism # 014 Fitness:  4,000 Error:  3,000                      */
genomestart  14
trait 1 0.5354335940656408 0.0 0.0 0.0 0.0 0.0 0.0 0.6045265643526534 
trait 2 0.2 0.0 0.0 0.0 0.08691693476032844 0.0 0.0 0.0 
trait 3 0.3 0.0 0.0 0.0 0.0 0.0 0.0 0.0 
node 1 1 1 1
node 2 3 1 1
node 3 3 1 3
node 4 3 0 2
node 8 1 0 0
node 10 1 0 0
node 12 1 0 0
node 217 1 0 0
gene  1 1 4 -0.6071720133978145 0 1.0 -0.6071720133978145 1
gene  3 2 4 -22.4110309134003 0 2.0 -22.4110309134003 1
gene  3 3 4 22.865804071934985 0 3.0 22.865804071934985 1
gene  1 1 8 1.5136724994285378 0 10.0 1.5136724994285378 1
gene  2 1 10 2.7989305797581485 0 14.0 2.7989305797581485 1
gene  1 10 4 -1.4709189368522029 0 15.0 -1.4709189368522029 1
gene  1 3 10 7.876098513032036 0 27.0 7.876098513032036 1
gene  2 2 10 3.545166543936559 0 26.0 3.545166543936559 1
gene  3 2 12 -3.471494601497384 0 23.0 -3.471494601497384 1
gene  1 12 4 -3.0244432418101215 0 24.0 -3.0244432418101215 1
gene  2 1 12 3.3271252265076443 0 85.0 3.3271252265076443 1
gene  3 3 12 -7.060972951311241 0 724.0 -7.060972951311241 1
gene  3 8 12 2.4795419693439817 0 749.0 2.4795419693439817 1
gene  1 10 8 2.3381596418229353 0 789.0 2.3381596418229353 1
gene  1 10 12 -2.308553052269211 0 809.0 -2.308553052269211 1
gene  1 10 217 4.052467240520243 0 1022.0 4.052467240520243 1
gene  1 217 8 -1.3504149450578105 0 1023.0 -1.3504149450578105 1
gene  1 217 4 15.22688877854092 0 1086.0 15.22688877854092 1
gene  2 2 8 3.923207179756439 0 1378.0 3.923207179756439 1
gene  1 1 217 0.4509413652465588 0 1430.0 0.4509413652465588 1
genomeend 14
/*-------------------------------------------------------------------*/
/* Species # 009         : (size= 004) (AvfFit= 2,413) (Age= 74,000)  */
/*-------------------------------------------------------------------*/
/* Organism # 015 Fitness:  0,654 Error:  1,808                      */
genomestart  15
trait 1 0.1 0.0075193906016581685 0.24632806753648584 0.0 0.0 0.0 0.47694877980636385 0.0 
trait 2 0.2 0.5414063638149041 0.0 0.0 0.0 0.0 0.0 0.0 
trait 3 0.9875716135269572 0.6457581069299619 0.03432439298377177 0.0 0.0 0.0 0.0 0.13985423434554056 
node 1 2 1 1
node 2 3 1 1
node 3 2 1 3
node 4 1 0 2
node 76 2 0 0
gene  1 1 4 -0.6809211727654096 0 1.0 -0.6809211727654096 0
gene  2 2 4 0.39293097239343766 0 2.0 0.39293097239343766 1
gene  1 3 4 -25.589959460458537 0 3.0 -25.589959460458537 1
gene  1 1 76 -0.8805474319009288 0 370.0 -0.8805474319009288 1
gene  1 76 4 12.95093392792621 0 371.0 12.95093392792621 1
gene  3 3 76 2.8211013920758337 0 598.0 2.8211013920758337 1
gene  3 2 76 -0.3912304208850831 0 956.0 -0.3912304208850831 1
genomeend 15
/* Organism # 016 Fitness:  1,000 Error:  2,000                      */
genomestart  16
trait 1 0.1 0.0075193906016581685 0.24632806753648584 0.0 0.0 0.0 0.47694877980636385 0.0 
trait 2 0.2 0.5414063638149041 0.0 0.0 0.0 0.0 0.0 0.0 
trait 3 0.9875716135269572 0.6457581069299619 0.03432439298377177 0.0 0.0 0.0 0.0 0.13985423434554056 
node 1 2 1 1
node 2 3 1 1
node 3 2 1 3
node 4 1 0 2
node 76 2 0 0
gene  1 1 4 3.143953292792992 0 1.0 3.143953292792992 0
gene  2 2 4 -18.8530396318761 0 2.0 -18.8530396318761 1
gene  1 3 4 -1.3205634990366097 0 3.0 -1.3205634990366097 1
gene  1 1 76 2.3632531464589643 0 370.0 2.3632531464589643 1
gene  1 76 4 13.212752297054337 0 371.0 13.212752297054337 1
gene  3 3 76 3.543497571045923 0 598.0 3.543497571045923 1
gene  3 2 76 -0.5764531343586672 0 956.0 -0.5764531343586672 1
genomeend 16
/* Organism # 017 Fitness:  4,000 Error:  3,000                      */
genomestart  17
trait 1 0.1 0.0075193906016581685 0.24632806753648584 0.0 0.0 0.0 0.47694877980636385 0.0 
trait 2 0.2 0.5414063638149041 0.0 0.0 0.0 0.0 0.0 0.0 
trait 3 0.9875716135269572 0.6457581069299619 0.03432439298377177 0.0 0.0 0.0 0.0 0.13985423434554056 
node 1 2 1 1
node 2 3 1 1
node 3 2 1 3
node 4 2 0 2
node 76 3 0 0
gene  1 1 4 3.7682094627706824 0 1.0 3.7682094627706824 0
gene  2 2 4 -21.150307362329624 0 2.0 -21.150307362329624 1
gene  1 3 4 -23.389317541385942 0 3.0 -23.389317541385942 1
gene  1 1 76 0.45074182789293893 0 370.0 0.45074182789293893 1
gene  1 76 4 12.377790144464909 0 371.0 12.377790144464909 1
gene  3 3 76 1.9649777881633064 0 598.0 1.9649777881633064 1
gene  3 2 76 -5.482612180021206 0 956.0 -5.482612180021206 1
genomeend 17
/* Organism # 018 Fitness:  4,000 Error:  3,000                      */
genomestart  18
trait 1 0.1 0.0075193906016581685 0.24632806753648584 0.0 0.0 0.0 0.47694877980636385 0.0 
trait 2 0.2 0.5414063638149041 0.0 0.0 0.0 0.0 0.0 0.0 
trait 3 0.9875716135269572 0.6457581069299619 0.03432439298377177 0.0 0.0 0.0 0.0 0.13985423434554056 
node 1 2 1 1
node 2 3 1 1
node 3 2 1 3
node 4 1 0 2
node 76 2 0 0
gene  1 1 4 0.8611036866911053 0 1.0 0.8611036866911053 0
gene  2 2 4 -20.18739425074168 0 2.0 -20.18739425074168 1
gene  1 3 4 -25.683649016392707 0 3.0 -25.683649016392707 1
gene  1 1 76 1.371997689425074 0 370.0 1.371997689425074 1
gene  1 76 4 11.485933720001352 0 371.0 11.485933720001352 1
gene  3 3 76 1.118674346852125 0 598.0 1.118674346852125 1
gene  3 2 76 -1.9253632921878308 0 956.0 -1.9253632921878308 1
genomeend 18
/*-------------------------------------------------------------------*/
/* Species # 013         : (size= 001) (AvfFit= 1,114) (Age= 73,000)  */
/*-------------------------------------------------------------------*/
/* Organism # 019 Fitness:  1,114 Error:  2,055                      */
genomestart  19
trait 1 0.6887504438296446 0.0 0.054397428675778126 0.26010643193856875 0.2844752268191756 0.4899220653025119 0.6799775877909625 0.0 
trait 2 0.2 0.0 0.0 0.0 0.2172923369008211 0.0 0.0 0.37742425852042827 
trait 3 0.943959142121813 0.9589451192831059 0.9231349760149306 0.6932204791619497 0.10580352853150166 0.07646675187527108 0.0 0.0 
node 1 3 1 1
node 2 3 1 1
node 3 2 1 3
node 4 3 0 2
node 10 1 0 0
node 20 1 0 0
gene  1 1 4 10.498203111531204 0 1.0 10.498203111531204 1
gene  2 2 4 0.487321606169408 0 2.0 0.487321606169408 1
gene  2 3 4 -7.260632168058302 0 3.0 -7.260632168058302 1
gene  2 1 10 -1.9594753314013822 0 14.0 -1.9594753314013822 1
gene  1 10 4 -1.3034102228779474 0 15.0 -1.3034102228779474 1
gene  1 3 10 2.2467120167771926 0 27.0 2.2467120167771926 1
gene  2 2 10 -7.41791735557347 0 40.0 -7.41791735557347 1
gene  2 2 20 9.096493733635995 0 69.0 9.096493733635995 1
gene  2 20 4 -1.6129464138956244 0 70.0 -1.6129464138956244 1
gene  3 3 20 0.14310575446418827 0 344.0 0.14310575446418827 1
gene  1 10 20 6.321219146108843 0 828.0 6.321219146108843 1
gene  3 1 20 4.199536622407718 0 987.0 4.199536622407718 1
genomeend 19
/*-------------------------------------------------------------------*/
/* Species # 014         : (size= 002) (AvfFit= 2,615) (Age= 73,000)  */
/*-------------------------------------------------------------------*/
/* Organism # 020 Fitness:  1,229 Error:  2,109                      */
genomestart  20
trait 1 0.1 0.0 0.0 0.0 0.0 0.0 0.0 0.0 
trait 2 0.1 0.0 0.0 0.0 0.44341793274537944 0.0 0.0 0.0 
trait 3 0.3 0.0 0.0 0.0 0.0 0.0 0.0 0.0 
node 1 1 1 1
node 2 2 1 1
node 3 1 1 3
node 4 1 0 2
node 8 3 0 0
node 10 1 0 0
node 14 1 0 0
node 119 1 0 0
node 143 2 0 0
node 197 1 0 0
gene  2 1 4 1.533587309073898 0 1.0 1.533587309073898 1
gene  2 2 4 -5.169510294157959 0 2.0 -5.169510294157959 1
gene  3 3 4 0.7257813921553844 0 3.0 0.7257813921553844 1
gene  1 1 8 -0.9366472760215758 0 10.0 -0.9366472760215758 1
gene  1 1 10 -6.108325348197842 0 14.0 -6.108325348197842 1
gene  1 10 4 23.07852979459767 0 15.0 23.07852979459767 1
gene  2 4 8 0.23439049526379319 0 25.0 0.23439049526379319 0
gene  1 3 10 20.244265677262494 0 27.0 20.244265677262494 1
gene  2 2 8 -0.1532791293321331 0 30.0 -0.1532791293321331 1
gene  2 2 14 -2.1114027757627114 0 35.0 -2.1114027757627114 1
gene  2 14 4 1.9713995901050585 0 36.0 1.9713995901050585 1
gene  1 1 14 -1.5261600372107522 0 241.0 -1.5261600372107522 1
gene  3 3 14 1.3094243367837168 0 504.0 1.3094243367837168 1
gene  2 2 119 1.5622911286808843 0 560.0 1.5622911286808843 1
gene  2 119 4 4.065028748737599 0 561.0 4.065028748737599 1
gene  2 4 143 -0.5828848595279525 0 678.0 -0.5828848595279525 1
gene  2 143 8 -0.31964541954641823 0 679.0 -0.31964541954641823 1
gene  1 119 143 12.319615137681604 0 854.0 12.319615137681604 1
gene  3 3 119 0.8396801835849743 0 871.0 0.8396801835849743 1
gene  2 143 197 -1.3776920625405678 0 930.0 -1.3776920625405678 1
gene  2 197 8 1.5079360821041838 0 931.0 1.5079360821041838 1
gene  2 119 8 -0.7039218957400537 0 1266.0 -0.7039218957400537 1
gene  2 14 143 -4.193417728218164 0 1291.0 -4.193417728218164 1
genomeend 20
/* Organism # 021 Fitness:  4,000 Error:  3,000                      */
genomestart  21
trait 1 0.1 0.0 0.0 0.0 0.0 0.0 0.0 0.0 
trait 2 0.1 0.0 0.0 0.0 0.44341793274537944 0.0 0.0 0.0 
trait 3 0.3 0.0 0.0 0.0 0.0 0.0 0.0 0.0 
node 1 1 1 1
node 2 2 1 1
node 3 1 1 3
node 4 1 0 2
node 8 3 0 0
node 10 1 0 0
node 14 1 0 0
node 119 1 0 0
node 143 2 0 0
node 197 1 0 0
gene  2 1 4 -0.23047203058637078 0 1.0 -0.23047203058637078 1
gene  2 2 4 -5.965479824743167 0 2.0 -5.965479824743167 1
gene  3 3 4 -2.8497310450969215 0 3.0 -2.8497310450969215 1
gene  1 1 8 -3.0757656453060997 0 10.0 -3.0757656453060997 1
gene  1 1 10 -4.415045451872751 0 14.0 -4.415045451872751 1
gene  1 10 4 22.170105463353224 0 15.0 22.170105463353224 1
gene  2 4 8 2.9072768566121634 0 25.0 2.9072768566121634 0
gene  1 3 10 23.54971200543794 0 27.0 23.54971200543794 1
gene  2 2 8 -2.200525141381312 0 30.0 -2.200525141381312 1
gene  2 2 14 -3.797559761961171 0 35.0 -3.797559761961171 1
gene  2 14 4 5.3734288710184455 0 36.0 5.3734288710184455 1
gene  1 1 14 1.2994007356876855 0 241.0 1.2994007356876855 1
gene  3 3 14 2.149471898852049 0 504.0 2.149471898852049 1
gene  2 2 119 -0.029081638200928017 0 560.0 -0.029081638200928017 1
gene  2 119 4 6.542801363856552 0 561.0 6.542801363856552 1
gene  2 4 143 -0.3683737832284372 0 678.0 -0.3683737832284372 1
gene  2 143 8 1.9207848790112023 0 679.0 1.9207848790112023 1
gene  1 119 143 10.993554955386747 0 854.0 10.993554955386747 1
gene  3 3 119 2.585618245570676 0 871.0 2.585618245570676 1
gene  2 143 197 -2.666458704006402 0 930.0 -2.666458704006402 1
gene  2 197 8 -2.851641673428249 0 931.0 -2.851641673428249 1
gene  2 119 8 0.6231892826226642 0 1266.0 0.6231892826226642 1
gene  2 14 143 -4.193417728218164 0 1291.0 -4.193417728218164 1
genomeend 21
/*-------------------------------------------------------------------*/
/* Species # 015         : (size= 004) (AvfFit= 1,591) (Age= 72,000)  */
/*-------------------------------------------------------------------*/
/* Organism # 022 Fitness:  1,000 Error:  2,000                      */
genomestart  22
trait 1 0.8175541605167498 0.48182723947209094 0.6522163065965151 0.0 0.6549362145497185 0.0 0.023764498137835766 0.0 
trait 2 0.0 0.0 0.0 0.0 0.22815695374586215 0.0 0.0 0.0 
trait 3 0.0 0.0 0.0 0.0 0.0 0.8941790986483116 0.9823221557864628 0.34149136780352596 
node 1 1 1 1
node 2 1 1 1
node 3 2 1 3
node 4 1 0 2
node 10 1 0 0
node 13 1 0 0
node 21 2 0 0
node 199 1 0 0
node 315 1 0 0
gene  1 1 4 11.050218956336932 0 1.0 11.050218956336932 1
gene  2 2 4 -11.61786739015793 0 2.0 -11.61786739015793 1
gene  3 3 4 -0.01873542309520837 0 3.0 -0.01873542309520837 1
gene  1 1 10 1.6672380843156707 0 14.0 1.6672380843156707 1
gene  1 10 4 -1.5228037933103407 0 15.0 -1.5228037933103407 1
gene  1 1 13 4.529580458883307 0 28.0 4.529580458883307 1
gene  1 13 10 -1.941255655278973 0 29.0 -1.941255655278973 1
gene  3 3 13 -5.467905977456995 0 54.0 -5.467905977456995 1
gene  1 10 21 1.7136211353359876 0 72.0 1.7136211353359876 1
gene  2 21 4 12.767191630474773 0 73.0 12.767191630474773 1
gene  2 2 21 -1.5432786127081002 0 847.0 -1.5432786127081002 1
gene  1 13 4 -7.423798195827782 0 916.0 -7.423798195827782 1
gene  1 1 199 -8.827060672379806 0 936.0 -8.827060672379806 0
gene  1 199 10 -1.191237694458562 0 937.0 -1.191237694458562 1
gene  3 199 13 -2.4079008609458077 0 1014.0 -2.4079008609458077 1
gene  2 1 21 -10.11770814366117 0 1294.0 -10.11770814366117 1
gene  2 199 21 0.37815053802557036 0 1401.0 0.37815053802557036 1
gene  1 1 315 1.5381267190911392 0 1421.0 1.5381267190911392 1
gene  1 315 199 -7.965095324856075 0 1422.0 -7.965095324856075 1
genomeend 22
/* Organism # 023 Fitness:  0,241 Error:  1,491                      */
genomestart  23
trait 1 0.8175541605167498 0.48182723947209094 0.6522163065965151 0.0 0.6549362145497185 0.0 0.023764498137835766 0.0 
trait 2 0.0 0.0 0.0 0.0 0.22815695374586215 0.0 0.0 0.0 
trait 3 0.0 0.0 0.0 0.0 0.0 0.8941790986483116 0.9823221557864628 0.34149136780352596 
node 1 1 1 1
node 2 1 1 1
node 3 2 1 3
node 4 1 0 2
node 10 1 0 0
node 13 1 0 0
node 21 2 0 0
node 199 1 0 0
node 315 1 0 0
gene  1 1 4 15.147678541992232 0 1.0 15.147678541992232 1
gene  2 2 4 -12.597997159621636 0 2.0 -12.597997159621636 1
gene  3 3 4 -2.2346488337290813 0 3.0 -2.2346488337290813 1
gene  1 1 10 0.2862310839669483 0 14.0 0.2862310839669483 1
gene  1 10 4 1.6030159802785056 0 15.0 1.6030159802785056 1
gene  1 1 13 4.606095062485217 0 28.0 4.606095062485217 1
gene  1 13 10 -0.687211429122641 0 29.0 -0.687211429122641 1
gene  3 3 13 -4.214820194507482 0 54.0 -4.214820194507482 1
gene  1 10 21 -1.079286330037269 0 72.0 -1.079286330037269 1
gene  2 21 4 14.141252499779958 0 73.0 14.141252499779958 1
gene  2 2 21 -2.6513736324658677 0 847.0 -2.6513736324658677 1
gene  1 13 4 -2.594998416614846 0 916.0 -2.594998416614846 1
gene  1 1 199 -9.84793726392603 0 936.0 -9.84793726392603 0
gene  1 199 10 -0.5808405679030763 0 937.0 -0.5808405679030763 1
gene  3 199 13 3.33651311986842 0 1014.0 3.33651311986842 1
gene  2 1 21 -10.918192976804226 0 1294.0 -10.918192976804226 1
gene  2 199 21 1.6406006002228284 0 1401.0 1.6406006002228284 1
gene  1 1 315 -1.4136242326456736 0 1421.0 -1.4136242326456736 1
gene  1 315 199 -8.881008934718068 0 1422.0 -8.881008934718068 1
genomeend 23
/* Organism # 024 Fitness:  1,125 Error:  2,061                      */
genomestart  24
trait 1 0.8175541605167498 0.48182723947209094 0.6522163065965151 0.0 0.6549362145497185 0.0 0.023764498137835766 0.0 
trait 2 0.0 0.0 0.0 0.0 0.22815695374586215 0.0 0.0 0.0 
trait 3 0.0 0.0 0.0 0.0 0.0 0.8941790986483116 0.9823221557864628 0.34149136780352596 
node 1 1 1 1
node 2 1 1 1
node 3 1 1 3
node 4 1 0 2
node 10 1 0 0
node 13 1 0 0
node 21 2 0 0
node 199 1 0 0
node 315 1 0 0
gene  1 1 4 15.136766733994152 0 1.0 15.136766733994152 1
gene  2 2 4 -9.128678276062322 0 2.0 -9.128678276062322 1
gene  3 3 4 -1.623102622428908 0 3.0 -1.623102622428908 1
gene  1 1 10 0.7570081165799117 0 14.0 0.7570081165799117 1
gene  1 10 4 3.087057220279698 0 15.0 3.087057220279698 1
gene  1 1 13 3.5008270377531434 0 28.0 3.5008270377531434 1
gene  1 13 10 -2.050583929138891 0 29.0 -2.050583929138891 1
gene  3 3 13 -8.418678243963608 0 54.0 -8.418678243963608 1
gene  1 10 21 -0.23412905106287774 0 72.0 -0.23412905106287774 1
gene  2 21 4 11.65079016456551 0 73.0 11.65079016456551 1
gene  2 2 21 0.0017318711594953573 0 847.0 0.0017318711594953573 1
gene  1 13 4 -5.457049390777039 0 916.0 -5.457049390777039 1
gene  1 1 199 -6.640202372722845 0 936.0 -6.640202372722845 0
gene  1 199 10 -1.0167673691347519 0 937.0 -1.0167673691347519 1
gene  3 199 13 3.537989968572112 0 1014.0 3.537989968572112 1
gene  2 1 21 -12.13274852560332 0 1294.0 -12.13274852560332 1
gene  2 199 21 -0.3390651455015199 0 1401.0 -0.3390651455015199 1
gene  1 1 315 1.0 0 1421.0 1.0 1
gene  1 315 199 -8.728005047363844 0 1422.0 -8.728005047363844 1
genomeend 24
/* Organism # 025 Fitness:  4,000 Error:  3,000                      */
genomestart  25
trait 1 0.8175541605167498 0.48182723947209094 0.6522163065965151 0.0 0.6549362145497185 0.0 0.023764498137835766 0.0 
trait 2 0.0 0.0 0.0 0.0 0.22815695374586215 0.0 0.0 0.0 
trait 3 0.0 0.0 0.0 0.0 0.0 0.8941790986483116 0.9823221557864628 0.34149136780352596 
node 1 1 1 1
node 2 1 1 1
node 3 2 1 3
node 4 1 0 2
node 10 1 0 0
node 13 1 0 0
node 21 2 0 0
node 199 1 0 0
node 315 1 0 0
gene  1 1 4 12.405759382978324 0 1.0 12.405759382978324 1
gene  2 2 4 -10.405459907584337 0 2.0 -10.405459907584337 1
gene  3 3 4 1.3035836053468002 0 3.0 1.3035836053468002 1
gene  1 1 10 1.3530781578452813 0 14.0 1.3530781578452813 1
gene  1 10 4 -0.8402081713779762 0 15.0 -0.8402081713779762 1
gene  1 1 13 2.8731319329570604 0 28.0 2.8731319329570604 1
gene  1 13 10 1.567453396260635 0 29.0 1.567453396260635 1
gene  3 3 13 -6.936410517788525 0 54.0 -6.936410517788525 1
gene  1 10 21 1.4028102863992324 0 72.0 1.4028102863992324 1
gene  2 21 4 11.354209720950294 0 73.0 11.354209720950294 1
gene  2 2 21 -1.521033157377913 0 847.0 -1.521033157377913 1
gene  1 13 4 -6.364826368339253 0 916.0 -6.364826368339253 1
gene  1 1 199 -10.579139790460008 0 936.0 -10.579139790460008 0
gene  1 199 10 -1.7958951837071466 0 937.0 -1.7958951837071466 1
gene  3 199 13 2.3987709807360185 0 1014.0 2.3987709807360185 1
gene  2 1 21 -10.633327597542694 0 1294.0 -10.633327597542694 1
gene  2 199 21 -1.7009105378081044 0 1401.0 -1.7009105378081044 1
gene  1 1 315 0.016218425420015614 0 1421.0 0.016218425420015614 1
gene  1 315 199 -9.964707983532787 0 1422.0 -9.964707983532787 1
genomeend 25
/*-------------------------------------------------------------------*/
/* Species # 019         : (size= 002) (AvfFit= 2,726) (Age= 71,000)  */
/*-------------------------------------------------------------------*/
/* Organism # 026 Fitness:  3,976 Error:  2,994                      */
genomestart  26
trait 1 0.1 0.9997662974900371 0.7103392541240491 0.3561706666122195 0.0 0.5679909084793242 0.0 0.0 
trait 2 0.125 0.0 0.0 0.0 0.38688653378423987 0.0 0.0 0.0 
trait 3 0.3 0.0 0.0 0.0 0.0 0.0 0.0 0.0 
node 1 2 1 1
node 2 1 1 1
node 3 1 1 3
node 4 1 0 2
node 8 1 0 0
node 10 1 0 0
node 15 2 0 0
node 23 1 0 0
node 87 2 0 0
node 107 1 0 0
node 250 1 0 0
node 262 1 0 0
gene  1 1 4 1.3654841219638683 0 1.0 1.3654841219638683 0
gene  2 2 4 -3.952631375508392 0 2.0 -3.952631375508392 1
gene  3 3 4 -13.659556439390904 0 3.0 -13.659556439390904 1
gene  1 1 8 -0.35702568679279834 0 10.0 -0.35702568679279834 1
gene  1 1 10 -5.722290833708467 0 14.0 -5.722290833708467 1
gene  1 10 4 -15.689990338442541 0 15.0 -15.689990338442541 1
gene  2 4 8 0.1857183838365266 0 25.0 0.1857183838365266 1
gene  1 3 10 -2.75201382668919 0 27.0 -2.75201382668919 1
gene  1 1 15 -2.2922445674997562 0 38.0 -2.2922445674997562 1
gene  1 15 8 -15.539690887817185 0 39.0 -15.539690887817185 0
gene  1 1 23 -2.933383489298489 0 83.0 -2.933383489298489 0
gene  1 23 4 2.0445218959581366 0 84.0 2.0445218959581366 1
gene  3 2 8 2.9673531694613473 0 106.0 2.9673531694613473 1
gene  2 10 23 -22.979848637931592 0 313.0 -22.979848637931592 1
gene  1 4 15 -3.2829519623171137 0 329.0 -3.2829519623171137 1
gene  1 1 87 -6.204840852153782 0 407.0 -6.204840852153782 1
gene  1 87 15 -1.5714017257214254 0 408.0 -1.5714017257214254 1
gene  1 87 107 -1.3967077143283122 0 507.0 -1.3967077143283122 1
gene  3 107 15 -3.298729228120399 0 508.0 -3.298729228120399 1
gene  1 10 15 -11.45695312920781 0 1112.0 -11.45695312920781 1
gene  3 10 87 -2.7230608964480156 0 1139.0 -2.7230608964480156 1
gene  1 2 10 -4.779596125821113 0 1143.0 -4.779596125821113 1
gene  1 1 250 -1.1733233709719464 0 1185.0 -1.1733233709719464 1
gene  1 250 23 2.2566812269856227 0 1186.0 2.2566812269856227 1
gene  1 15 262 1.9953440989091784 0 1224.0 1.9953440989091784 1
gene  1 262 8 -0.3972793462017371 0 1225.0 -0.3972793462017371 1
genomeend 26
/* Organism # 027 Fitness:  1,476 Error:  2,215                      */
genomestart  27
trait 1 0.1 0.9997662974900371 0.7103392541240491 0.3561706666122195 0.0 0.5679909084793242 0.0 0.0 
trait 2 0.125 0.0 0.0 0.0 0.38688653378423987 0.0 0.0 0.0 
trait 3 0.3 0.0 0.0 0.0 0.0 0.0 0.0 0.0 
node 1 2 1 1
node 2 1 1 1
node 3 1 1 3
node 4 1 0 2
node 8 1 0 0
node 10 1 0 0
node 15 2 0 0
node 23 1 0 0
node 87 2 0 0
node 107 1 0 0
node 250 1 0 0
node 262 1 0 0
gene  1 1 4 2.128354518621143 0 1.0 2.128354518621143 0
gene  2 2 4 -3.063557215723006 0 2.0 -3.063557215723006 1
gene  3 3 4 -14.402542766570237 0 3.0 -14.402542766570237 1
gene  1 1 8 -2.3515479220845514 0 10.0 -2.3515479220845514 1
gene  1 1 10 -4.548547191124455 0 14.0 -4.548547191124455 1
gene  1 10 4 -18.073229668056328 0 15.0 -18.073229668056328 1
gene  2 4 8 0.4513483868475613 0 25.0 0.4513483868475613 1
gene  1 3 10 -0.360447588393882 0 27.0 -0.360447588393882 1
gene  1 1 15 -3.9313682557114835 0 38.0 -3.9313682557114835 1
gene  1 15 8 -11.771931693686486 0 39.0 -11.771931693686486 0
gene  1 1 23 -3.0921497163176466 0 83.0 -3.0921497163176466 0
gene  1 23 4 6.440730260720044 0 84.0 6.440730260720044 1
gene  3 2 8 0.11365066874567575 0 106.0 0.11365066874567575 1
gene  2 10 23 -22.312804275033614 0 313.0 -22.312804275033614 1
gene  1 4 15 -5.270939416141557 0 329.0 -5.270939416141557 1
gene  1 1 87 -6.384031753992324 0 407.0 -6.384031753992324 1
gene  1 87 15 2.4454448446152375 0 408.0 2.4454448446152375 1
gene  1 87 107 0.4642231230434877 0 507.0 0.4642231230434877 1
gene  3 107 15 -3.8199436901317063 0 508.0 -3.8199436901317063 1
gene  1 10 15 -9.250283426801861 0 1112.0 -9.250283426801861 1
gene  3 10 87 -4.123315991068486 0 1139.0 -4.123315991068486 1
gene  1 2 10 -4.9101893790756765 0 1143.0 -4.9101893790756765 1
gene  1 1 250 -1.1733233709719464 0 1185.0 -1.1733233709719464 1
gene  1 250 23 4.336525219422372 0 1186.0 4.336525219422372 1
gene  1 15 262 1.3346018722379678 0 1224.0 1.3346018722379678 1
gene  1 262 8 1.5034663271672686 0 1225.0 1.5034663271672686 1
genomeend 27
/*-------------------------------------------------------------------*/
/* Species # 021         : (size= 005) (AvfFit= 3,400) (Age= 71,000)  */
/*-------------------------------------------------------------------*/
/* Organism # 028 Fitness:  4,000 Error:  3,000                      */
genomestart  28
trait 1 0.03762115470776864 0.624164331553303 0.0 0.772948367218532 0.0 0.0 0.0 0.0 
trait 2 0.0 0.9284811829687569 0.5716701421718631 0.3815879228455923 0.0 0.0 0.9575452167640388 0.0 
trait 3 0.3 0.0 0.0 0.0 0.0 0.5071639637989154 0.0 0.0 
node 1 3 1 1
node 2 1 1 1
node 3 3 1 3
node 4 2 0 2
node 8 1 0 0
node 10 1 0 0
node 22 1 0 0
node 146 1 0 0
node 266 1 0 0
gene  1 1 4 6.682282002440381 0 1.0 6.682282002440381 1
gene  2 2 4 -16.071923147806363 0 2.0 -16.071923147806363 1
gene  3 3 4 15.230673237761907 0 3.0 15.230673237761907 1
gene  2 1 8 -2.085158639527699 0 10.0 -2.085158639527699 1
gene  1 1 10 7.478851850131216 0 14.0 7.478851850131216 1
gene  1 10 4 2.1977773332332666 0 15.0 2.1977773332332666 1
gene  2 4 8 0.9245278498820932 0 25.0 0.9245278498820932 1
gene  1 3 10 1.1506116025866036 0 27.0 1.1506116025866036 1
gene  2 2 8 0.3540613659886324 0 30.0 0.3540613659886324 1
gene  2 3 8 -3.6598598309820036 0 41.0 -3.6598598309820036 1
gene  2 10 8 -0.5498451051972825 0 60.0 -0.5498451051972825 1
gene  2 2 22 -0.3963869191997546 0 80.0 -0.3963869191997546 1
gene  2 22 4 -1.9698269954869891 0 81.0 -1.9698269954869891 0
gene  3 10 22 1.0490608623316957 0 112.0 1.0490608623316957 1
gene  2 3 22 1.431535958245519 0 135.0 1.431535958245519 1
gene  2 22 8 5.3230846855534875 0 286.0 5.3230846855534875 0
gene  1 2 10 -1.6620421521531896 0 538.0 -1.6620421521531896 1
gene  2 22 146 -4.402142623717762 0 686.0 -4.402142623717762 1
gene  2 146 4 -2.8583433137401446 0 687.0 -2.8583433137401446 1
gene  1 146 8 -2.1578954943587023 0 953.0 -2.1578954943587023 1
gene  2 22 266 2.2544467227190594 0 1238.0 2.2544467227190594 1
gene  2 266 8 -0.18995018169689987 0 1239.0 -0.18995018169689987 1
gene  3 4 266 0.6605850531067808 0 1267.0 0.6605850531067808 1
genomeend 28
/* Organism # 029 Fitness:  4,000 Error:  3,000                      */
genomestart  29
trait 1 0.03762115470776864 0.624164331553303 0.0 0.772948367218532 0.0 0.0 0.0 0.0 
trait 2 0.0 0.9284811829687569 0.5716701421718631 0.3815879228455923 0.0 0.0 0.9575452167640388 0.0 
trait 3 0.3 0.0 0.0 0.0 0.0 0.5071639637989154 0.0 0.0 
node 1 3 1 1
node 2 1 1 1
node 3 3 1 3
node 4 2 0 2
node 8 1 0 0
node 10 1 0 0
node 22 1 0 0
node 146 1 0 0
node 266 1 0 0
gene  1 1 4 8.674487761330528 0 1.0 8.674487761330528 1
gene  2 2 4 -18.351293918657117 0 2.0 -18.351293918657117 1
gene  3 3 4 14.020670891284965 0 3.0 14.020670891284965 1
gene  2 1 8 -3.7022012970609293 0 10.0 -3.7022012970609293 1
gene  1 1 10 8.821081329620341 0 14.0 8.821081329620341 1
gene  1 10 4 0.11245989124792938 0 15.0 0.11245989124792938 1
gene  2 4 8 -13.75313146421324 0 25.0 -13.75313146421324 1
gene  1 3 10 0.08180358948035482 0 27.0 0.08180358948035482 1
gene  2 2 8 1.4560806416165266 0 30.0 1.4560806416165266 1
gene  2 3 8 -2.9163525198102374 0 41.0 -2.9163525198102374 1
gene  2 10 8 -1.4060054504231263 0 60.0 -1.4060054504231263 1
gene  2 2 22 -0.31769006942819433 0 80.0 -0.31769006942819433 1
gene  2 22 4 1.5637840391835685 0 81.0 1.5637840391835685 0
gene  3 10 22 1.2424769933771787 0 112.0 1.2424769933771787 1
gene  2 3 22 -1.3264893360209373 0 135.0 -1.3264893360209373 1
gene  2 22 8 4.686503553057108 0 286.0 4.686503553057108 0
gene  1 2 10 -2.677794590362581 0 538.0 -2.677794590362581 1
gene  2 22 146 -3.709296129456612 0 686.0 -3.709296129456612 1
gene  2 146 4 0.07134434233427944 0 687.0 0.07134434233427944 1
gene  1 146 8 0.3458998040229369 0 953.0 0.3458998040229369 1
gene  2 22 266 -2.2845463159582193 0 1238.0 -2.2845463159582193 1
gene  1 266 8 -0.2614264924369414 0 1239.0 -0.2614264924369414 1
gene  3 4 266 -12.892266856057214 0 1267.0 -12.892266856057214 1
genomeend 29
/* Organism # 030 Fitness:  1,000 Error:  2,000                      */
genomestart  30
trait 1 0.03762115470776864 0.624164331553303 0.0 0.772948367218532 0.0 0.0 0.0 0.0 
trait 2 0.0 0.9284811829687569 0.5716701421718631 0.3815879228455923 0.0 0.0 0.9575452167640388 0.0 
trait 3 0.3 0.0 0.0 0.0 0.0 0.5071639637989154 0.0 0.0 
node 1 3 1 1
node 2 1 1 1
node 3 3 1 3
node 4 2 0 2
node 8 1 0 0
node 10 1 0 0
node 22 1 0 0
node 146 1 0 0
node 266 1 0 0
gene  1 1 4 7.96411680829734 0 1.0 7.96411680829734 1
gene  2 2 4 -16.46070988951775 0 2.0 -16.46070988951775 1
gene  3 3 4 1.4289426399681118 0 3.0 1.4289426399681118 1
gene  2 1 8 -2.1278575628190297 0 10.0 -2.1278575628190297 1
gene  1 1 10 8.589846581305917 0 14.0 8.589846581305917 1
gene  1 10 4 2.4321187957765744 0 15.0 2.4321187957765744 1
gene  2 4 8 -11.421720871362433 0 25.0 -11.421720871362433 1
gene  1 3 10 3.076497115192584 0 27.0 3.076497115192584 1
gene  2 2 8 0.18457603415831414 0 30.0 0.18457603415831414 1
gene  2 3 8 -1.3198100113180125 0 41.0 -1.3198100113180125 1
gene  2 10 8 1.2735993429076706 0 60.0 1.2735993429076706 1
gene  2 2 22 1.3212795441501952 0 80.0 1.3212795441501952 1
gene  2 22 4 -0.6998055310850041 0 81.0 -0.6998055310850041 0
gene  3 10 22 5.940221022798128 0 112.0 5.940221022798128 1
gene  2 3 22 -2.7223870312212597 0 135.0 -2.7223870312212597 1
gene  2 22 8 -0.9445460374626049 0 286.0 -0.9445460374626049 0
gene  1 2 10 0.3103305205469924 0 538.0 0.3103305205469924 1
gene  2 22 146 -3.6224262741114353 0 686.0 -3.6224262741114353 1
gene  2 146 4 -4.527416205832054 0 687.0 -4.527416205832054 1
gene  1 146 8 -2.0665609224115036 0 953.0 -2.0665609224115036 1
gene  2 22 266 0.38719153312351096 0 1238.0 0.38719153312351096 1
gene  2 266 8 0.938339639958716 0 1239.0 0.938339639958716 1
gene  3 4 266 1.3299528734021668 0 1267.0 1.3299528734021668 1
genomeend 30
/* Organism # 031 Fitness:  4,000 Error:  3,000                      */
genomestart  31
trait 1 0.03762115470776864 0.624164331553303 0.0 0.772948367218532 0.0 0.0 0.0 0.0 
trait 2 0.0 0.9284811829687569 0.5716701421718631 0.3815879228455923 0.0 0.0 0.9575452167640388 0.0 
trait 3 0.3 0.0 0.0 0.0 0.0 0.5071639637989154 0.0 0.0 
node 1 3 1 1
node 2 1 1 1
node 3 3 1 3
node 4 2 0 2
node 8 1 0 0
node 10 1 0 0
node 22 1 0 0
node 146 1 0 0
node 266 1 0 0
gene  1 1 4 7.136887934928337 0 1.0 7.136887934928337 1
gene  2 2 4 -15.402724360423752 0 2.0 -15.402724360423752 1
gene  3 3 4 15.536847592283369 0 3.0 15.536847592283369 1
gene  2 1 8 -0.6371130119596622 0 10.0 -0.6371130119596622 1
gene  1 1 10 8.195954890499888 0 14.0 8.195954890499888 1
gene  1 10 4 2.42508859094073 0 15.0 2.42508859094073 1
gene  2 4 8 -10.43246193526536 0 25.0 -10.43246193526536 1
gene  1 3 10 3.472001966427724 0 27.0 3.472001966427724 1
gene  2 2 8 -1.3641396821257006 0 30.0 -1.3641396821257006 1
gene  2 3 8 -3.084514084109452 0 41.0 -3.084514084109452 1
gene  2 10 8 0.23669700046607323 0 60.0 0.23669700046607323 1
gene  3 2 22 1.8141331284846147 0 80.0 1.8141331284846147 1
gene  2 22 4 1.3707891333050402 0 81.0 1.3707891333050402 0
gene  3 10 22 2.0357340393277683 0 112.0 2.0357340393277683 1
gene  2 3 22 0.5827066205264306 0 135.0 0.5827066205264306 1
gene  2 22 8 3.9720996249231053 0 286.0 3.9720996249231053 0
gene  1 2 10 0.44831698195838987 0 538.0 0.44831698195838987 1
gene  2 22 146 -4.555471934616634 0 686.0 -4.555471934616634 1
gene  2 146 4 -1.0752068810817519 0 687.0 -1.0752068810817519 1
gene  1 146 8 1.785941655143599 0 953.0 1.785941655143599 1
gene  2 22 266 0.2116474650319159 0 1238.0 0.2116474650319159 1
gene  2 266 8 -0.10966838983519661 0 1239.0 -0.10966838983519661 1
gene  3 4 266 -11.84881875822587 0 1267.0 -11.84881875822587 1
genomeend 31
/* Organism # 032 Fitness:  4,000 Error:  3,000                      */
genomestart  32
trait 1 0.03762115470776864 0.624164331553303 0.0 0.772948367218532 0.0 0.0 0.0 0.0 
trait 2 0.0 0.9284811829687569 0.5716701421718631 0.3815879228455923 0.0 0.0 0.9575452167640388 0.0 
trait 3 0.3 0.0 0.0 0.0 0.0 0.5071639637989154 0.0 0.0 
node 1 3 1 1
node 2 1 1 1
node 3 3 1 3
node 4 2 0 2
node 8 1 0 0
node 10 1 0 0
node 22 1 0 0
node 146 1 0 0
node 266 1 0 0
gene  1 1 4 8.648798870330799 0 1.0 8.648798870330799 1
gene  2 2 4 -16.62169469487667 0 2.0 -16.62169469487667 1
gene  3 3 4 15.541207267679255 0 3.0 15.541207267679255 1
gene  2 1 8 -2.1278575628190297 0 10.0 -2.1278575628190297 1
gene  1 1 10 8.792911089559139 0 14.0 8.792911089559139 1
gene  1 10 4 0.08327408115240909 0 15.0 0.08327408115240909 1
gene  2 4 8 -11.552181832406768 0 25.0 -11.552181832406768 1
gene  1 3 10 1.1506116025866036 0 27.0 1.1506116025866036 1
gene  2 2 8 0.3540613659886324 0 30.0 0.3540613659886324 1
gene  2 3 8 -2.96504188451983 0 41.0 -2.96504188451983 1
gene  2 10 8 -0.5498451051972825 0 60.0 -0.5498451051972825 1
gene  2 2 22 1.3212795441501952 0 80.0 1.3212795441501952 1
gene  2 22 4 0.3878131493046585 0 81.0 0.3878131493046585 0
gene  3 10 22 3.544004171829433 0 112.0 3.544004171829433 1
gene  2 3 22 -1.0123324543749581 0 135.0 -1.0123324543749581 1
gene  2 22 8 5.3230846855534875 0 286.0 5.3230846855534875 0
gene  1 2 10 -1.6620421521531896 0 538.0 -1.6620421521531896 1
gene  2 22 146 -4.555471934616634 0 686.0 -4.555471934616634 1
gene  2 146 4 -2.1898467691673233 0 687.0 -2.1898467691673233 1
gene  1 146 8 -2.1578954943587023 0 953.0 -2.1578954943587023 1
gene  2 22 266 -0.15984080403190126 0 1238.0 -0.15984080403190126 1
gene  2 266 8 0.15428136044355528 0 1239.0 0.15428136044355528 1
gene  3 4 266 -12.892266856057214 0 1267.0 -12.892266856057214 1
gene  3 3 146 4.020674636703168 0 1488.0 4.020674636703168 1
genomeend 32
/*-------------------------------------------------------------------*/
/* Species # 023         : (size= 005) (AvfFit= 3,272) (Age= 70,000)  */
/*-------------------------------------------------------------------*/
/* Organism # 033 Fitness:  3,407 Error:  2,846                      */
genomestart  33
trait 1 0.1 0.9784167631189444 0.32703037430538917 0.0 0.0 0.9388522884059943 0.0 0.0 
trait 2 0.2 0.0 0.0 0.0 0.2607508042809853 0.0 0.0 0.0 
trait 3 0.3 0.0 0.0 0.0 0.0 0.0 0.0 0.0 
node 1 1 1 1
node 2 2 1 1
node 3 1 1 3
node 4 1 0 2
node 10 2 0 0
node 11 3 0 0
node 34 3 0 0
node 155 1 0 0
node 304 1 0 0
gene  3 1 4 -12.1083476974005 0 1.0 -12.1083476974005 0
gene  2 2 4 -15.91922482931244 0 2.0 -15.91922482931244 1
gene  1 3 4 22.615232953656566 0 3.0 22.615232953656566 1
gene  1 1 10 -4.268237202467194 0 14.0 -4.268237202467194 1
gene  1 10 4 7.364969431685266 0 15.0 7.364969431685266 1
gene  1 1 11 -5.737101050157575 0 19.0 -5.737101050157575 1
gene  1 11 10 -3.490926893180146 0 20.0 -3.490926893180146 1
gene  1 3 10 -3.996872059418532 0 27.0 -3.996872059418532 1
gene  3 2 11 -4.861175509246339 0 55.0 -4.861175509246339 1
gene  3 3 11 4.414176405395155 0 82.0 4.414176405395155 1
gene  2 2 10 4.640654833179098 0 100.0 4.640654833179098 1
gene  1 1 34 8.512452819300217 0 148.0 8.512452819300217 1
gene  1 34 4 11.328821887808497 0 149.0 11.328821887808497 1
gene  1 2 34 4.986119427191178 0 267.0 4.986119427191178 1
gene  3 34 11 -8.238543303206704 0 583.0 -8.238543303206704 1
gene  3 3 34 -6.022546678671736 0 706.0 -6.022546678671736 1
gene  1 1 155 -8.527077824383584 0 728.0 -8.527077824383584 1
gene  1 155 11 -5.60043129262892 0 729.0 -5.60043129262892 1
gene  2 155 10 5.682547154072289 0 796.0 5.682547154072289 1
gene  1 155 4 -0.08011078938480232 0 823.0 -0.08011078938480232 1
gene  2 155 34 -0.32274235115394356 0 957.0 -0.32274235115394356 1
gene  3 34 10 -2.7132851024634688 0 994.0 -2.7132851024634688 0
gene  2 11 4 2.098347912591893 0 1240.0 2.098347912591893 1
gene  2 3 155 2.2441643135622074 0 1268.0 2.2441643135622074 1
gene  1 2 155 -1.6855092483305176 0 1325.0 -1.6855092483305176 1
gene  3 34 304 -0.48920917797764674 0 1379.0 -0.48920917797764674 1
gene  3 304 10 -3.756795473164484 0 1380.0 -3.756795473164484 1
genomeend 33
/* Organism # 034 Fitness:  4,000 Error:  3,000                      */
genomestart  34
trait 1 0.1 0.9784167631189444 0.32703037430538917 0.0 0.0 0.9388522884059943 0.0 0.0 
trait 2 0.2 0.0 0.0 0.0 0.2607508042809853 0.0 0.0 0.0 
trait 3 0.3 0.0 0.0 0.0 0.0 0.0 0.0 0.0 
node 1 1 1 1
node 2 2 1 1
node 3 1 1 3
node 4 1 0 2
node 10 2 0 0
node 11 3 0 0
node 34 2 0 0
node 155 1 0 0
node 304 1 0 0
gene  3 1 4 -10.178404046969352 0 1.0 -10.178404046969352 0
gene  2 2 4 -18.04086497469532 0 2.0 -18.04086497469532 1
gene  1 3 4 20.99486693150024 0 3.0 20.99486693150024 1
gene  1 1 10 -6.22664935393263 0 14.0 -6.22664935393263 1
gene  1 10 4 5.347105815840764 0 15.0 5.347105815840764 1
gene  1 1 11 -4.867138652226863 0 19.0 -4.867138652226863 1
gene  1 11 10 -1.1473365217592126 0 20.0 -1.1473365217592126 1
gene  1 3 10 -1.6817894321561022 0 27.0 -1.6817894321561022 1
gene  3 2 11 -4.850094193222918 0 55.0 -4.850094193222918 1
gene  3 3 11 6.884222909963304 0 82.0 6.884222909963304 1
gene  2 2 10 3.0100514007419266 0 100.0 3.0100514007419266 1
gene  1 1 34 9.086363981583954 0 148.0 9.086363981583954 1
gene  1 34 4 10.197339544300322 0 149.0 10.197339544300322 1
gene  1 2 34 4.365233363803759 0 267.0 4.365233363803759 1
gene  3 34 11 -5.859235880487405 0 583.0 -5.859235880487405 1
gene  3 3 34 -4.886459402175438 0 706.0 -4.886459402175438 1
gene  1 1 155 -6.998986415527282 0 728.0 -6.998986415527282 1
gene  1 155 11 -5.7659869653793665 0 729.0 -5.7659869653793665 1
gene  2 155 10 4.874508154895087 0 796.0 4.874508154895087 1
gene  1 155 4 -2.2795806519635864 0 823.0 -2.2795806519635864 1
gene  2 155 34 -1.2442797463877968 0 957.0 -1.2442797463877968 1
gene  3 34 10 -3.8837919843812014 0 994.0 -3.8837919843812014 0
gene  2 11 4 2.098347912591893 0 1240.0 2.098347912591893 1
gene  1 3 155 -3.740197836430514 0 1268.0 -3.740197836430514 1
gene  1 2 155 0.6274065181097117 0 1325.0 0.6274065181097117 1
gene  3 34 304 -0.4155776170723755 0 1379.0 -0.4155776170723755 1
gene  3 304 10 -2.9129092738186793 0 1380.0 -2.9129092738186793 1
genomeend 34
/* Organism # 035 Fitness:  0,954 Error:  1,977                      */
genomestart  35
trait 1 0.1 0.9784167631189444 0.32703037430538917 0.0 0.0 0.9388522884059943 0.0 0.0 
trait 2 0.2 0.0 0.0 0.0 0.2607508042809853 0.0 0.0 0.0 
trait 3 0.3 0.0 0.0 0.0 0.0 0.0 0.0 0.0 
node 1 1 1 1
node 2 2 1 1
node 3 1 1 3
node 4 1 0 2
node 10 2 0 0
node 11 3 0 0
node 34 2 0 0
node 155 1 0 0
node 304 1 0 0
gene  3 1 4 -10.250901532779302 0 1.0 -10.250901532779302 0
gene  2 2 4 -1.6141940462034463 0 2.0 -1.6141940462034463 1
gene  1 3 4 20.043846005283733 0 3.0 20.043846005283733 1
gene  1 1 10 -6.3613873313562515 0 14.0 -6.3613873313562515 1
gene  1 10 4 5.096405009797 0 15.0 5.096405009797 1
gene  1 1 11 -4.867138652226863 0 19.0 -4.867138652226863 1
gene  1 11 10 0.4060349050552239 0 20.0 0.4060349050552239 1
gene  1 3 10 0.39195940495894765 0 27.0 0.39195940495894765 1
gene  3 2 11 -0.20234564209368588 0 55.0 -0.20234564209368588 1
gene  3 3 11 6.884222909963304 0 82.0 6.884222909963304 1
gene  2 2 10 5.423883521430204 0 100.0 5.423883521430204 1
gene  1 1 34 9.167585291653861 0 148.0 9.167585291653861 1
gene  1 34 4 1.4859356324696014 0 149.0 1.4859356324696014 1
gene  1 2 34 3.1806275779608493 0 267.0 3.1806275779608493 1
gene  3 34 11 -4.253892215485335 0 583.0 -4.253892215485335 1
gene  3 3 34 -3.2580456025975275 0 706.0 -3.2580456025975275 1
gene  1 1 155 0.5503809123162673 0 728.0 0.5503809123162673 1
gene  1 155 11 -5.6461248042987595 0 729.0 -5.6461248042987595 1
gene  2 155 10 2.6240208205553692 0 796.0 2.6240208205553692 1
gene  1 155 4 -0.7742481138440427 0 823.0 -0.7742481138440427 1
gene  2 155 34 -2.058363928463884 0 957.0 -2.058363928463884 1
gene  3 34 10 -4.7434298380299875 0 994.0 -4.7434298380299875 0
gene  2 11 4 1.5939580158685704 0 1240.0 1.5939580158685704 1
gene  1 3 155 -2.185047496150377 0 1268.0 -2.185047496150377 1
gene  1 2 155 -0.2209475202835251 0 1325.0 -0.2209475202835251 1
gene  3 34 304 0.11091134947307402 0 1379.0 0.11091134947307402 1
gene  3 304 10 -1.0096085767961527 0 1380.0 -1.0096085767961527 1
genomeend 35
/* Organism # 036 Fitness:  4,000 Error:  3,000                      */
genomestart  36
trait 1 0.1 0.9784167631189444 0.32703037430538917 0.0 0.0 0.9388522884059943 0.0 0.0 
trait 2 0.2 0.0 0.8152338584768947 0.0 0.2607508042809853 0.0 0.0 0.0 
trait 3 0.3 0.0 0.0 0.0 0.0 0.0 0.0 0.0 
node 1 1 1 1
node 2 2 1 1
node 3 1 1 3
node 4 1 0 2
node 10 2 0 0
node 11 3 0 0
node 34 2 0 0
node 155 1 0 0
node 304 1 0 0
gene  3 1 4 -11.2352951914577 0 1.0 -11.2352951914577 0
gene  2 2 4 -16.189606546353744 0 2.0 -16.189606546353744 1
gene  1 3 4 19.080772991757758 0 3.0 19.080772991757758 1
gene  1 1 10 -3.356563098859199 0 14.0 -3.356563098859199 1
gene  1 10 4 6.561537838244581 0 15.0 6.561537838244581 1
gene  1 1 11 1.2677348136615572 0 19.0 1.2677348136615572 1
gene  1 11 10 0.5202786691192518 0 20.0 0.5202786691192518 1
gene  1 3 10 -3.037228752540132 0 27.0 -3.037228752540132 1
gene  3 2 11 -5.287956728961095 0 55.0 -5.287956728961095 1
gene  3 3 11 5.592292557091993 0 82.0 5.592292557091993 1
gene  2 2 10 6.039064251033789 0 100.0 6.039064251033789 1
gene  1 1 34 7.891329740650169 0 148.0 7.891329740650169 1
gene  1 34 4 6.742140677546052 0 149.0 6.742140677546052 1
gene  1 2 34 0.3050263500535255 0 267.0 0.3050263500535255 1
gene  3 34 11 -3.334352699138532 0 583.0 -3.334352699138532 1
gene  3 3 34 -2.379118647849076 0 706.0 -2.379118647849076 1
gene  1 1 155 -5.065868937974233 0 728.0 -5.065868937974233 1
gene  1 155 11 -6.348290945185204 0 729.0 -6.348290945185204 1
gene  2 155 10 2.641667004758662 0 796.0 2.641667004758662 1
gene  1 155 4 1.0591059013252482 0 823.0 1.0591059013252482 1
gene  2 155 34 0.04531126734990565 0 957.0 0.04531126734990565 1
gene  3 34 10 -5.926295431772182 0 994.0 -5.926295431772182 0
gene  2 11 4 0.6605401926063244 0 1240.0 0.6605401926063244 1
gene  1 3 155 -4.971186977284144 0 1268.0 -4.971186977284144 1
gene  1 2 155 0.3638857610326358 0 1325.0 0.3638857610326358 1
gene  3 34 304 0.43038228191060596 0 1379.0 0.43038228191060596 1
gene  3 304 10 -2.1646650945094796 0 1380.0 -2.1646650945094796 1
genomeend 36
/* Organism # 037 Fitness:  4,000 Error:  3,000                      */
genomestart  37
trait 1 0.1 0.9784167631189444 0.32703037430538917 0.0 0.0 0.9388522884059943 0.0 0.0 
trait 2 0.2 0.0 0.0 0.0 0.2607508042809853 0.0 0.0 0.0 
trait 3 0.3 0.0 0.0 0.0 0.0 0.0 0.0 0.0 
node 1 1 1 1
node 2 2 1 1
node 3 1 1 3
node 4 1 0 2
node 10 2 0 0
node 11 3 0 0
node 34 2 0 0
node 155 1 0 0
node 304 1 0 0
gene  3 1 4 -8.207198697252615 0 1.0 -8.207198697252615 0
gene  2 2 4 -16.72829744125125 0 2.0 -16.72829744125125 1
gene  1 3 4 20.51670511093556 0 3.0 20.51670511093556 1
gene  1 1 10 -5.384758681479037 0 14.0 -5.384758681479037 1
gene  1 10 4 7.674694280922908 0 15.0 7.674694280922908 1
gene  1 1 11 -5.157754389325423 0 19.0 -5.157754389325423 1
gene  1 11 10 -0.2951712023034122 0 20.0 -0.2951712023034122 1
gene  1 3 10 0.27720161016410594 0 27.0 0.27720161016410594 1
gene  3 2 11 -6.088531496595036 0 55.0 -6.088531496595036 1
gene  3 3 11 5.757338392366974 0 82.0 5.757338392366974 1
gene  2 2 10 3.767280452863379 0 100.0 3.767280452863379 1
gene  1 1 34 8.708182571992335 0 148.0 8.708182571992335 1
gene  1 34 4 10.404590065130634 0 149.0 10.404590065130634 1
gene  1 2 34 6.221249058308091 0 267.0 6.221249058308091 1
gene  3 34 11 -6.215367303033009 0 583.0 -6.215367303033009 1
gene  3 3 34 -4.596053919855768 0 706.0 -4.596053919855768 1
gene  1 1 155 -5.611433676393604 0 728.0 -5.611433676393604 1
gene  1 155 11 -3.5350992032088566 0 729.0 -3.5350992032088566 1
gene  2 155 10 5.717336629233608 0 796.0 5.717336629233608 1
gene  1 155 4 -4.493464950930534 0 823.0 -4.493464950930534 1
gene  2 155 34 1.0345993214003981 0 957.0 1.0345993214003981 1
gene  3 34 10 -1.7348207083456972 0 994.0 -1.7348207083456972 0
gene  2 11 4 3.5454598786405787 0 1240.0 3.5454598786405787 1
gene  1 3 155 -3.740197836430514 0 1268.0 -3.740197836430514 1
gene  1 2 155 -1.1543112123848311 0 1325.0 -1.1543112123848311 1
gene  3 34 304 -0.4155776170723755 0 1379.0 -0.4155776170723755 1
gene  3 304 10 -2.9129092738186793 0 1380.0 -2.9129092738186793 1
genomeend 37
/*-------------------------------------------------------------------*/
/* Species # 025         : (size= 001) (AvfFit= 1,000) (Age= 67,000)  */
/*-------------------------------------------------------------------*/
/* Organism # 038 Fitness:  1,000 Error:  2,000                      */
genomestart  38
trait 1 0.3983597783097139 0.0 0.03893686641080085 0.5295773434419423 0.0 0.45485859528104367 0.0 0.9721535623294602 
trait 2 0.2 0.0 0.0 0.0 1.1077474324143624 0.0 0.0 0.0 
trait 3 0.3 0.0 0.0 0.0 0.0 0.0 0.0 0.0 
node 1 3 1 1
node 2 2 1 1
node 3 1 1 3
node 4 2 0 2
node 10 1 0 0
node 11 1 0 0
node 36 1 0 0
node 190 1 0 0
node 333 1 0 0
gene  1 1 4 -5.666038390507446 0 1.0 -5.666038390507446 1
gene  2 2 4 -1.5091579596462812 0 2.0 -1.5091579596462812 0
gene  2 3 4 -4.224466941557199 0 3.0 -4.224466941557199 1
gene  1 1 10 -0.18918741922027116 0 14.0 -0.18918741922027116 1
gene  1 10 4 -0.34835802642064373 0 15.0 -0.34835802642064373 1
gene  2 1 11 -1.7993077482227549 0 19.0 -1.7993077482227549 1
gene  1 11 10 6.297596835153249 0 20.0 6.297596835153249 1
gene  1 3 10 -6.290750818641801 0 27.0 -6.290750818641801 1
gene  3 2 11 2.931290068173145 0 55.0 2.931290068173145 1
gene  3 11 4 2.5350792599653795 0 128.0 2.5350792599653795 1
gene  1 1 36 -0.19143179711703695 0 159.0 -0.19143179711703695 1
gene  1 36 4 1.4444759209243532 0 160.0 1.4444759209243532 1
gene  2 2 36 -0.08406648767894476 0 259.0 -0.08406648767894476 0
gene  2 2 10 -0.1730551675047559 0 498.0 -0.1730551675047559 1
gene  3 10 36 -3.7602174698093416 0 591.0 -3.7602174698093416 1
gene  1 3 11 4.125766476068937 0 790.0 4.125766476068937 1
gene  3 11 36 2.791550930168528 0 813.0 2.791550930168528 1
gene  2 3 36 -2.5868572583194074 0 885.0 -2.5868572583194074 1
gene  2 2 190 -1.3119390478621384 0 904.0 -1.3119390478621384 1
gene  2 190 4 0.8455253362537203 0 905.0 0.8455253362537203 1
gene  1 190 10 4.4791007953233155 0 1116.0 4.4791007953233155 1
gene  2 2 333 1.0 0 1483.0 1.0 1
gene  2 333 36 -1.944155581113012 0 1484.0 -1.944155581113012 1
genomeend 38
/*-------------------------------------------------------------------*/
/* Species # 026         : (size= 002) (AvfFit= 1,000) (Age= 65,000)  */
/*-------------------------------------------------------------------*/
/* Organism # 039 Fitness:  1,000 Error:  2,000                      */
genomestart  39
trait 1 0.3955414678963499 0.0 0.9600996404455338 1.3575856710324092 0.5199545936831732 0.0 0.0 0.0 
trait 2 0.7345183633116604 0.7692668691330768 0.0 0.0 0.44341793274537944 0.0 0.33581384998578534 0.0 
trait 3 1.708867537307707 0.0 0.21510813535039064 1.1834425246719593 0.7831622405681419 0.0 1.3032731022003807 0.0 
node 1 1 1 1
node 2 1 1 1
node 3 1 1 3
node 4 3 0 2
node 8 3 0 0
node 10 1 0 0
node 28 3 0 0
node 39 1 0 0
node 79 1 0 0
node 86 1 0 0
node 157 1 0 0
node 294 1 0 0
gene  1 1 4 -4.1956936429139695 0 1.0 -4.1956936429139695 1
gene  2 2 4 2.0630982876161847 0 2.0 2.0630982876161847 0
gene  3 3 4 -7.051475772274749 0 3.0 -7.051475772274749 1
gene  1 1 8 -1.7273279721602577 0 10.0 -1.7273279721602577 1
gene  1 1 10 -5.934873146658571 0 14.0 -5.934873146658571 1
gene  3 10 4 6.285294717582946 0 15.0 6.285294717582946 1
gene  2 4 8 3.460435034126351 0 25.0 3.460435034126351 1
gene  1 3 10 -4.806300501890428 0 27.0 -4.806300501890428 1
gene  1 1 28 1.5396054665126906 0 115.0 1.5396054665126906 1
gene  3 28 10 1.9542915632399693 0 116.0 1.9542915632399693 1
gene  1 3 28 -3.2390617295171946 0 129.0 -3.2390617295171946 1
gene  3 28 8 3.6156322988317338 0 162.0 3.6156322988317338 1
gene  2 2 39 1.8313617850808561 0 180.0 1.8313617850808561 1
gene  2 39 4 1.706504888101228 0 181.0 1.706504888101228 1
gene  1 39 10 2.4240964163388927 0 260.0 2.4240964163388927 1
gene  1 10 79 3.5252754491742646 0 383.0 3.5252754491742646 1
gene  1 79 4 0.4066535586333049 0 384.0 0.4066535586333049 0
gene  3 28 86 8.957464066626192 0 404.0 8.957464066626192 1
gene  3 86 8 1.8393857936184745 0 405.0 1.8393857936184745 1
gene  1 1 157 -0.9363779167212802 0 739.0 -0.9363779167212802 1
gene  1 157 28 7.709610792263146 0 740.0 7.709610792263146 1
gene  2 39 8 4.732084030890126 0 807.0 4.732084030890126 1
gene  1 79 294 -0.43529796570682056 0 1347.0 -0.43529796570682056 1
gene  1 294 4 2.188489746950167 0 1348.0 2.188489746950167 1
genomeend 39
/* Organism # 040 Fitness:  1,000 Error:  2,000                      */
genomestart  40
trait 1 0.3955414678963499 0.0 0.9600996404455338 1.3575856710324092 0.5199545936831732 0.0 0.0 0.0 
trait 2 0.7345183633116604 0.7692668691330768 0.0 0.0 0.44341793274537944 0.0 0.33581384998578534 0.0 
trait 3 1.708867537307707 0.0 0.21510813535039064 1.1834425246719593 0.7831622405681419 0.0 1.3032731022003807 0.0 
node 1 1 1 1
node 2 1 1 1
node 3 1 1 3
node 4 3 0 2
node 8 3 0 0
node 10 1 0 0
node 28 3 0 0
node 39 1 0 0
node 79 1 0 0
node 86 1 0 0
node 157 1 0 0
node 294 1 0 0
gene  1 1 4 -4.1956936429139695 0 1.0 -4.1956936429139695 1
gene  2 2 4 2.0630982876161847 0 2.0 2.0630982876161847 0
gene  3 3 4 -7.051475772274749 0 3.0 -7.051475772274749 1
gene  1 1 8 -1.7273279721602577 0 10.0 -1.7273279721602577 1
gene  1 1 10 -5.934873146658571 0 14.0 -5.934873146658571 1
gene  3 10 4 6.285294717582946 0 15.0 6.285294717582946 1
gene  2 4 8 3.460435034126351 0 25.0 3.460435034126351 1
gene  1 3 10 -4.806300501890428 0 27.0 -4.806300501890428 1
gene  1 1 28 1.5396054665126906 0 115.0 1.5396054665126906 1
gene  3 28 10 1.9542915632399693 0 116.0 1.9542915632399693 1
gene  1 3 28 -3.2390617295171946 0 129.0 -3.2390617295171946 1
gene  3 28 8 3.6156322988317338 0 162.0 3.6156322988317338 1
gene  2 2 39 1.8313617850808561 0 180.0 1.8313617850808561 1
gene  2 39 4 1.706504888101228 0 181.0 1.706504888101228 1
gene  1 39 10 2.4240964163388927 0 260.0 2.4240964163388927 1
gene  1 10 79 3.5252754491742646 0 383.0 3.5252754491742646 1
gene  1 79 4 0.4066535586333049 0 384.0 0.4066535586333049 0
gene  3 28 86 8.957464066626192 0 404.0 8.957464066626192 1
gene  3 86 8 1.8393857936184745 0 405.0 1.8393857936184745 1
gene  1 1 157 -0.9363779167212802 0 739.0 -0.9363779167212802 1
gene  1 157 28 7.709610792263146 0 740.0 7.709610792263146 1
gene  2 39 8 4.732084030890126 0 807.0 4.732084030890126 1
gene  1 79 294 -0.43529796570682056 0 1347.0 -0.43529796570682056 1
gene  1 294 4 2.188489746950167 0 1348.0 2.188489746950167 1
gene  1 2 79 6.165998938440418 0 1506.0 6.165998938440418 1
genomeend 40
/*-------------------------------------------------------------------*/
/* Species # 029         : (size= 003) (AvfFit= 4,000) (Age= 63,000)  */
/*-------------------------------------------------------------------*/
/* Organism # 041 Fitness:  4,000 Error:  3,000                      */
genomestart  41
trait 1 1.0355328051732862 0.9636348218312873 0.0 0.0 0.0 0.0 0.7738001752226776 0.0 
trait 2 0.0 0.0 0.0 0.0 0.47028123158798035 0.0 0.18305389304684105 0.0 
trait 3 0.3819238733940432 0.0 0.4916221057465695 0.0 0.0 0.0 0.5199508695737355 0.0 
node 1 1 1 1
node 2 2 1 1
node 3 1 1 3
node 4 1 0 2
node 10 1 0 0
node 13 2 0 0
node 21 1 0 0
node 118 2 0 0
node 192 3 0 0
node 288 1 0 0
gene  1 1 4 -1.8439819540244393 0 1.0 -1.8439819540244393 0
gene  2 2 4 -12.08110983363855 0 2.0 -12.08110983363855 1
gene  3 3 4 28.073468880894723 0 3.0 28.073468880894723 1
gene  1 1 10 21.075136981661917 0 14.0 21.075136981661917 0
gene  1 10 4 10.210959500951665 0 15.0 10.210959500951665 0
gene  1 1 13 -5.879115902820697 0 28.0 -5.879115902820697 1
gene  1 13 10 -1.8834253558200702 0 29.0 -1.8834253558200702 1
gene  3 3 13 16.540963175169882 0 54.0 16.540963175169882 1
gene  1 10 21 3.1337954804839323 0 72.0 3.1337954804839323 1
gene  1 21 4 5.779177065574823 0 73.0 5.779177065574823 1
gene  3 3 10 3.387398048312538 0 157.0 3.387398048312538 1
gene  1 13 21 -0.30047414163499253 0 176.0 -0.30047414163499253 0
gene  1 13 4 3.413877613792183 0 214.0 3.413877613792183 1
gene  3 2 13 -1.2492522150928993 0 243.0 -1.2492522150928993 0
gene  2 2 21 -0.5423553135486257 0 453.0 -0.5423553135486257 1
gene  3 2 118 3.9013326326589857 0 557.0 3.9013326326589857 1
gene  3 118 13 -9.350399729629588E-4 0 558.0 -9.350399729629588E-4 1
gene  3 3 118 -0.40829111895972686 0 836.0 -0.40829111895972686 1
gene  2 2 10 2.0491714329896475 0 865.0 2.0491714329896475 1
gene  1 1 192 -3.352750828946198 0 908.0 -3.352750828946198 1
gene  1 192 10 -3.3348595049680325 0 909.0 -3.3348595049680325 1
gene  3 3 21 -4.088344743665679 0 1067.0 -4.088344743665679 1
gene  3 192 21 -2.4510866727743146 0 1200.0 -2.4510866727743146 1
gene  2 2 192 -0.31851384967056084 0 1217.0 -0.31851384967056084 1
gene  1 13 288 1.5086654957854972 0 1326.0 1.5086654957854972 1
gene  1 288 21 3.154069453995682 0 1327.0 3.154069453995682 1
genomeend 41
/* Organism # 042 Fitness:  4,000 Error:  3,000                      */
genomestart  42
trait 1 1.0355328051732862 0.9636348218312873 0.0 0.0 0.0 0.0 0.7738001752226776 0.0 
trait 2 0.0 0.0 0.0 0.0 0.22815695374586215 0.0 0.18305389304684105 0.0 
trait 3 0.3819238733940432 0.0 0.4916221057465695 0.0 0.0 0.0 0.5199508695737355 0.0 
node 1 1 1 1
node 2 2 1 1
node 3 1 1 3
node 4 1 0 2
node 10 1 0 0
node 13 2 0 0
node 21 1 0 0
node 118 2 0 0
node 192 3 0 0
node 288 1 0 0
gene  1 1 4 -2.195844241503012 0 1.0 -2.195844241503012 0
gene  2 2 4 -14.173377356565613 0 2.0 -14.173377356565613 1
gene  3 3 4 24.33727499246458 0 3.0 24.33727499246458 1
gene  1 1 10 18.591578932478594 0 14.0 18.591578932478594 0
gene  1 10 4 11.787547773209749 0 15.0 11.787547773209749 0
gene  1 1 13 0.6455989978229335 0 28.0 0.6455989978229335 1
gene  1 13 10 0.3751374528908018 0 29.0 0.3751374528908018 1
gene  3 3 13 14.151972242927709 0 54.0 14.151972242927709 1
gene  1 10 21 2.5529295495499227 0 72.0 2.5529295495499227 1
gene  1 21 4 3.475782765111758 0 73.0 3.475782765111758 1
gene  3 3 10 1.7453400786674806 0 157.0 1.7453400786674806 1
gene  1 13 21 0.3918621068577015 0 176.0 0.3918621068577015 0
gene  1 13 4 2.663739571819399 0 214.0 2.663739571819399 1
gene  3 2 13 1.6047485954670875 0 243.0 1.6047485954670875 0
gene  2 2 21 2.728133630403393 0 453.0 2.728133630403393 1
gene  3 2 118 4.61832334018603 0 557.0 4.61832334018603 1
gene  3 118 13 8.52984303399302 0 558.0 8.52984303399302 1
gene  3 3 118 -3.594268219966167 0 836.0 -3.594268219966167 1
gene  2 2 10 2.7413892769936115 0 865.0 2.7413892769936115 1
gene  1 1 192 0.519448152104629 0 908.0 0.519448152104629 1
gene  1 192 10 -2.430395782516768 0 909.0 -2.430395782516768 1
gene  3 3 21 -5.071594761322682 0 1067.0 -5.071594761322682 1
gene  3 192 21 -6.914512437643639 0 1200.0 -6.914512437643639 1
gene  2 2 192 0.8972896708212128 0 1217.0 0.8972896708212128 1
gene  1 13 288 -0.26403036753156306 0 1326.0 -0.26403036753156306 1
gene  1 288 21 2.249291778790285 0 1327.0 2.249291778790285 1
genomeend 42
/* Organism # 043 Fitness:  4,000 Error:  3,000                      */
genomestart  43
trait 1 1.0355328051732862 0.9636348218312873 0.0 0.0 0.0 0.0 0.7738001752226776 0.0 
trait 2 0.0 0.0 0.0 0.0 0.22815695374586215 0.0 0.18305389304684105 0.0 
trait 3 0.3819238733940432 0.0 0.4916221057465695 0.0 0.0 0.0 0.5199508695737355 0.0 
node 1 1 1 1
node 2 2 1 1
node 3 1 1 3
node 4 1 0 2
node 10 1 0 0
node 13 2 0 0
node 21 1 0 0
node 118 2 0 0
node 192 3 0 0
node 288 1 0 0
gene  1 1 4 -4.124342569063932 0 1.0 -4.124342569063932 0
gene  2 2 4 -12.385222632589338 0 2.0 -12.385222632589338 1
gene  3 3 4 26.308567182449995 0 3.0 26.308567182449995 1
gene  1 1 10 18.759818972664814 0 14.0 18.759818972664814 0
gene  1 10 4 9.784075783626921 0 15.0 9.784075783626921 0
gene  1 1 13 -3.6462565857237275 0 28.0 -3.6462565857237275 1
gene  1 13 10 -0.5826155861009226 0 29.0 -0.5826155861009226 1
gene  3 3 13 16.44528617013453 0 54.0 16.44528617013453 1
gene  1 10 21 1.4552827753339543 0 72.0 1.4552827753339543 1
gene  1 21 4 5.955567025493174 0 73.0 5.955567025493174 1
gene  3 3 10 3.387398048312538 0 157.0 3.387398048312538 1
gene  1 13 21 2.199328745752304 0 176.0 2.199328745752304 0
gene  1 13 4 2.4269886195254013 0 214.0 2.4269886195254013 1
gene  3 2 13 -0.4573413590999992 0 243.0 -0.4573413590999992 0
gene  2 2 21 1.2256224087294088 0 453.0 1.2256224087294088 1
gene  3 2 118 5.036891616556357 0 557.0 5.036891616556357 1
gene  3 118 13 6.554784109653736 0 558.0 6.554784109653736 1
gene  3 3 118 -4.953630446474998 0 836.0 -4.953630446474998 1
gene  2 2 10 2.1410798206958286 0 865.0 2.1410798206958286 1
gene  1 1 192 -1.380338452728025 0 908.0 -1.380338452728025 1
gene  1 192 10 -3.0839985502664558 0 909.0 -3.0839985502664558 1
gene  3 3 21 -5.159434881976436 0 1067.0 -5.159434881976436 1
gene  3 192 21 -8.05852790093313 0 1200.0 -8.05852790093313 1
gene  2 2 192 2.153150790680723 0 1217.0 2.153150790680723 1
gene  1 13 288 0.7255545610216771 0 1326.0 0.7255545610216771 1
gene  1 288 21 2.112953821454305 0 1327.0 2.112953821454305 1
gene  2 3 288 0.40432583668084887 0 1489.0 0.40432583668084887 1
genomeend 43
/*-------------------------------------------------------------------*/
/* Species # 030         : (size= 004) (AvfFit= 3,250) (Age= 63,000)  */
/*-------------------------------------------------------------------*/
/* Organism # 044 Fitness:  4,000 Error:  3,000                      */
genomestart  44
trait 1 1.0445123842842872 0.0 0.13714949752495487 0.0 0.0 0.0 0.26002006579890824 0.7353978084028735 
trait 2 0.18335598685224497 0.0 0.0 0.7851188292553765 0.5506132589072343 0.6866818511309982 0.0 0.0 
trait 3 0.15 0.0 0.23584969119582216 0.09108556364350612 0.35094049686152073 0.0 0.0 0.479131043181765 
node 1 1 1 1
node 2 3 1 1
node 3 3 1 3
node 4 1 0 2
node 10 2 0 0
node 13 1 0 0
node 170 1 0 0
gene  3 1 4 0.27195452299289297 0 1.0 0.27195452299289297 0
gene  2 2 4 -13.496103993307427 0 2.0 -13.496103993307427 1
gene  2 3 4 -3.688499171142585 0 3.0 -3.688499171142585 1
gene  2 1 10 14.699986216207694 0 14.0 14.699986216207694 1
gene  1 10 4 6.035864093976297 0 15.0 6.035864093976297 1
gene  2 2 10 -0.29012989610541107 0 26.0 -0.29012989610541107 1
gene  1 1 13 1.345616589914251 0 28.0 1.345616589914251 1
gene  1 13 10 0.16582441332965936 0 29.0 0.16582441332965936 1
gene  1 2 13 -2.206566115541103 0 130.0 -2.206566115541103 1
gene  3 13 4 15.085441888417371 0 422.0 15.085441888417371 1
gene  3 3 10 7.485018221809038 0 488.0 7.485018221809038 1
gene  3 3 13 15.781356518590819 0 676.0 15.781356518590819 1
gene  2 1 170 -2.136939967205287 0 801.0 -2.136939967205287 1
gene  2 170 10 3.4190542412029354 0 802.0 3.4190542412029354 1
gene  2 2 170 0.25608729693727356 0 1328.0 0.25608729693727356 1
genomeend 44
/* Organism # 045 Fitness:  4,000 Error:  3,000                      */
genomestart  45
trait 1 1.0445123842842872 0.0 0.13714949752495487 0.0 0.0 0.0 0.26002006579890824 0.7353978084028735 
trait 2 0.18335598685224497 0.0 0.0 0.7851188292553765 0.5506132589072343 0.6866818511309982 0.0 0.0 
trait 3 0.15 0.0 0.23584969119582216 0.09108556364350612 0.35094049686152073 0.0 0.0 0.479131043181765 
node 1 1 1 1
node 2 3 1 1
node 3 3 1 3
node 4 1 0 2
node 10 2 0 0
node 13 1 0 0
node 170 2 0 0
gene  3 1 4 7.218621241099136 0 1.0 7.218621241099136 0
gene  2 2 4 -12.501705292548895 0 2.0 -12.501705292548895 1
gene  2 3 4 -2.941931524959211 0 3.0 -2.941931524959211 1
gene  2 1 10 14.783890946909448 0 14.0 14.783890946909448 0
gene  1 10 4 5.222419913128396 0 15.0 5.222419913128396 1
gene  2 2 10 -4.401741821491583 0 26.0 -4.401741821491583 1
gene  1 1 13 3.6568394720774267 0 28.0 3.6568394720774267 1
gene  1 13 10 2.499826827982626 0 29.0 2.499826827982626 1
gene  1 2 13 -6.287137755826192 0 130.0 -6.287137755826192 1
gene  3 13 4 16.308203550755557 0 422.0 16.308203550755557 1
gene  3 3 10 6.497685495769079 0 488.0 6.497685495769079 1
gene  3 3 13 16.123043342969197 0 676.0 16.123043342969197 1
gene  2 1 170 -0.13436053407990234 0 801.0 -0.13436053407990234 1
gene  2 170 10 2.8907672373395195 0 802.0 2.8907672373395195 1
gene  2 2 170 1.2915420132700306 0 1328.0 1.2915420132700306 1
genomeend 45
/* Organism # 046 Fitness:  4,000 Error:  3,000                      */
genomestart  46
trait 1 1.0445123842842872 0.0 0.13714949752495487 0.0 0.0 0.0 0.26002006579890824 0.7353978084028735 
trait 2 0.18335598685224497 0.0 0.0 0.7851188292553765 0.5506132589072343 0.6866818511309982 0.0 0.0 
trait 3 0.15 0.0 0.23584969119582216 0.09108556364350612 0.35094049686152073 0.0 0.0 0.479131043181765 
node 1 1 1 1
node 2 3 1 1
node 3 3 1 3
node 4 1 0 2
node 10 3 0 0
node 13 1 0 0
node 170 2 0 0
gene  3 1 4 6.39762593584761 0 1.0 6.39762593584761 0
gene  2 2 4 -12.049373200233246 0 2.0 -12.049373200233246 1
gene  2 3 4 1.6438445542124094 0 3.0 1.6438445542124094 1
gene  2 1 10 16.42600739907528 0 14.0 16.42600739907528 0
gene  1 10 4 0.7444754464598116 0 15.0 0.7444754464598116 1
gene  2 2 10 1.9840890095156785 0 26.0 1.9840890095156785 1
gene  1 1 13 0.6131377648441882 0 28.0 0.6131377648441882 1
gene  1 13 10 2.839580396242569 0 29.0 2.839580396242569 1
gene  1 2 13 -0.4744603500460426 0 130.0 -0.4744603500460426 1
gene  3 13 4 12.58642174039826 0 422.0 12.58642174039826 1
gene  3 3 10 7.713188455380118 0 488.0 7.713188455380118 1
gene  3 3 13 16.343134982720862 0 676.0 16.343134982720862 1
gene  2 1 170 -2.0605914782204278 0 801.0 -2.0605914782204278 1
gene  2 170 10 0.19671312630842985 0 802.0 0.19671312630842985 1
gene  2 2 170 3.2924575999488845 0 1328.0 3.2924575999488845 1
genomeend 46
/* Organism # 047 Fitness:  1,000 Error:  2,000                      */
genomestart  47
trait 1 1.0445123842842872 0.0 0.13714949752495487 0.0 0.0 0.0 0.26002006579890824 0.7353978084028735 
trait 2 0.18335598685224497 0.0 0.0 0.7851188292553765 0.5506132589072343 0.6866818511309982 0.0 0.0 
trait 3 0.15 0.0 0.23584969119582216 0.09108556364350612 0.35094049686152073 0.0 0.0 0.479131043181765 
node 1 1 1 1
node 2 3 1 1
node 3 3 1 3
node 4 1 0 2
node 10 2 0 0
node 13 1 0 0
node 170 2 0 0
gene  3 1 4 6.940087828789576 0 1.0 6.940087828789576 0
gene  2 2 4 -15.225525106958628 0 2.0 -15.225525106958628 1
gene  2 3 4 0.12133342252584067 0 3.0 0.12133342252584067 1
gene  2 1 10 15.456623572032612 0 14.0 15.456623572032612 0
gene  1 10 4 6.983350435426074 0 15.0 6.983350435426074 1
gene  2 2 10 0.3236993522345921 0 26.0 0.3236993522345921 1
gene  1 1 13 5.799740314131718 0 28.0 5.799740314131718 1
gene  1 13 10 1.7081660397910778 0 29.0 1.7081660397910778 1
gene  1 2 13 1.168567992364037 0 130.0 1.168567992364037 1
gene  3 13 4 14.43577868547317 0 422.0 14.43577868547317 1
gene  3 3 10 5.514023180143201 0 488.0 5.514023180143201 1
gene  3 3 13 16.78149114973067 0 676.0 16.78149114973067 1
gene  2 1 170 -0.6657672769062334 0 801.0 -0.6657672769062334 1
gene  2 170 10 1.086705721186608 0 802.0 1.086705721186608 1
gene  2 2 170 -0.18527499297007832 0 1328.0 -0.18527499297007832 1
genomeend 47
/*-------------------------------------------------------------------*/
/* Species # 033         : (size= 004) (AvfFit= 3,250) (Age= 61,000)  */
/*-------------------------------------------------------------------*/
/* Organism # 048 Fitness:  4,000 Error:  3,000                      */
genomestart  48
trait 1 0.1 0.0075193906016581685 0.21206090999874327 0.0 0.0 0.0 0.7750089171312977 0.0 
trait 2 0.2 0.0 0.0 0.0 0.0 0.0 0.0 0.0 
trait 3 0.3 0.0 0.0 0.0 0.0 0.0 0.0 0.0 
node 1 2 1 1
node 2 3 1 1
node 3 2 1 3
node 4 1 0 2
node 47 3 0 0
gene  3 1 4 2.492163160703617 0 1.0 2.492163160703617 0
gene  2 2 4 -29.630757076641984 0 2.0 -29.630757076641984 1
gene  3 3 4 -23.81958758697037 0 3.0 -23.81958758697037 1
gene  1 1 47 3.320119299631804 0 232.0 3.320119299631804 1
gene  1 47 4 10.893989720356595 0 233.0 10.893989720356595 1
gene  3 3 47 2.4489964609055663 0 283.0 2.4489964609055663 1
gene  3 2 47 0.25179726803576763 0 665.0 0.25179726803576763 1
genomeend 48
/* Organism # 049 Fitness:  1,000 Error:  2,000                      */
genomestart  49
trait 1 0.1 0.0075193906016581685 0.21206090999874327 0.0 0.0 0.0 0.7750089171312977 0.0 
trait 2 0.3752004666443957 0.0 0.0 0.0 0.0 0.3622761733857196 0.0 0.38370135986253673 
trait 3 0.3 0.0 0.0 0.0 0.0 0.0 0.0 0.0 
node 1 2 1 1
node 2 3 1 1
node 3 2 1 3
node 4 1 0 2
node 47 2 0 0
gene  3 1 4 3.655543142674293 0 1.0 3.655543142674293 0
gene  2 2 4 -31.067557124001112 0 2.0 -31.067557124001112 1
gene  3 3 4 -2.1731202647123755 0 3.0 -2.1731202647123755 1
gene  1 1 47 5.492432644346723 0 232.0 5.492432644346723 1
gene  1 47 4 9.58023776391434 0 233.0 9.58023776391434 1
gene  3 3 47 0.7266211338091846 0 283.0 0.7266211338091846 1
gene  3 2 47 -0.7420272556436194 0 665.0 -0.7420272556436194 1
genomeend 49
/* Organism # 050 Fitness:  4,000 Error:  3,000                      */
genomestart  50
trait 1 0.1 0.0075193906016581685 0.21206090999874327 0.0 0.0 0.0 0.7750089171312977 0.0 
trait 2 0.2 0.0 0.0 0.0 0.0 0.0 0.0 0.0 
trait 3 0.3 0.0 0.0 0.0 0.0 0.0 0.0 0.0 
node 1 2 1 1
node 2 3 1 1
node 3 2 1 3
node 4 1 0 2
node 47 2 0 0
gene  3 1 4 1.6914241169008168 0 1.0 1.6914241169008168 0
gene  2 2 4 -30.24219947853964 0 2.0 -30.24219947853964 1
gene  3 3 4 -23.795417711944257 0 3.0 -23.795417711944257 1
gene  1 1 47 4.847239091531129 0 232.0 4.847239091531129 1
gene  1 47 4 13.058187727574683 0 233.0 13.058187727574683 1
gene  3 3 47 0.8114671562986026 0 283.0 0.8114671562986026 1
gene  3 2 47 2.3355926359620724 0 665.0 2.3355926359620724 1
genomeend 50
/* Organism # 051 Fitness:  4,000 Error:  3,000                      */
genomestart  51
trait 1 0.1 0.0075193906016581685 0.21206090999874327 0.0 0.0 0.0 0.7750089171312977 0.0 
trait 2 0.2 0.0 0.0 0.0 0.0 0.0 0.0 0.0 
trait 3 0.3 0.0 0.0 0.0 0.0 0.0 0.0 0.0 
node 1 2 1 1
node 2 3 1 1
node 3 2 1 3
node 4 1 0 2
node 47 2 0 0
gene  3 1 4 -2.113689884809226 0 1.0 -2.113689884809226 0
gene  2 2 4 -30.585686111033407 0 2.0 -30.585686111033407 1
gene  3 3 4 -26.079112541134503 0 3.0 -26.079112541134503 1
gene  1 1 47 5.296949625715039 0 232.0 5.296949625715039 1
gene  1 47 4 11.895553228863276 0 233.0 11.895553228863276 1
gene  3 3 47 1.4935042164246615 0 283.0 1.4935042164246615 1
gene  3 2 47 -0.9680803446398485 0 665.0 -0.9680803446398485 1
genomeend 51
/*-------------------------------------------------------------------*/
/* Species # 037         : (size= 002) (AvfFit= 3,803) (Age= 59,000)  */
/*-------------------------------------------------------------------*/
/* Organism # 052 Fitness:  4,000 Error:  3,000                      */
genomestart  52
trait 1 0.9414641036984972 0.2797739752889046 0.0 0.0 0.9203906154475042 0.0 0.5925846657541717 0.9066999027339855 
trait 2 0.12578125 0.0 0.0 0.7611872438544915 1.243621878555323 0.6467312226534785 1.6387952717723913 0.0 
trait 3 0.3 0.8677182120897328 0.6365446442543229 0.8530352622609446 0.0 0.34233355728424375 0.0 0.0 
node 1 1 1 1
node 2 2 1 1
node 3 1 1 3
node 4 1 0 2
node 8 1 0 0
node 10 1 0 0
node 15 1 0 0
node 23 3 0 0
node 52 2 0 0
node 111 1 0 0
node 134 1 0 0
node 153 3 0 0
gene  1 1 4 1.5917326770843674 0 1.0 1.5917326770843674 1
gene  2 2 4 -3.992399167204299 0 2.0 -3.992399167204299 1
gene  3 3 4 -8.082079249518873 0 3.0 -8.082079249518873 1
gene  1 1 8 5.941991826531332 0 10.0 5.941991826531332 1
gene  1 1 10 -0.21565191504401054 0 14.0 -0.21565191504401054 1
gene  1 10 4 1.0411809652300565 0 15.0 1.0411809652300565 1
gene  3 4 8 2.133827549572604 0 25.0 2.133827549572604 0
gene  1 3 10 9.96615190749731 0 27.0 9.96615190749731 1
gene  1 1 15 -2.670825184512677 0 38.0 -2.670825184512677 1
gene  1 15 8 4.448076117763178 0 39.0 4.448076117763178 1
gene  1 1 23 -12.062094248665318 0 83.0 -12.062094248665318 1
gene  1 23 4 -6.094606535531577 0 84.0 -6.094606535531577 1
gene  2 2 8 -0.5780874536541546 0 106.0 -0.5780874536541546 1
gene  1 23 15 -9.091168077223777 0 150.0 -9.091168077223777 1
gene  3 4 15 -1.3238500576589334 0 169.0 -1.3238500576589334 1
gene  2 2 10 -11.983766475662812 0 182.0 -11.983766475662812 1
gene  1 10 15 -0.5337897345961196 0 254.0 -0.5337897345961196 1
gene  2 4 52 2.6028232267029825 0 263.0 2.6028232267029825 1
gene  2 52 8 -1.9146371843878993 0 264.0 -1.9146371843878993 1
gene  2 4 111 4.910356012180972 0 527.0 4.910356012180972 1
gene  2 111 52 -4.160772776737597 0 528.0 -4.160772776737597 1
gene  2 23 134 -4.187334556747144 0 639.0 -4.187334556747144 1
gene  1 134 15 0.031704070309164556 0 640.0 0.031704070309164556 1
gene  1 23 153 -0.9986761598793974 0 722.0 -0.9986761598793974 1
gene  1 153 15 -2.0290257232995015 0 723.0 -2.0290257232995015 1
gene  3 10 153 6.284500661301332 0 1205.0 6.284500661301332 1
gene  3 153 134 -10.738472010169275 0 1307.0 -10.738472010169275 1
genomeend 52
/* Organism # 053 Fitness:  3,607 Error:  2,899                      */
genomestart  53
trait 1 0.9414641036984972 0.0 0.0 0.0 0.9203906154475042 0.0 0.3230174696839305 0.0 
trait 2 0.12578125 0.0 0.0 0.7611872438544915 1.243621878555323 0.6467312226534785 1.6387952717723913 0.0 
trait 3 0.3 0.8677182120897328 0.6365446442543229 0.8530352622609446 0.0 0.34233355728424375 0.0 0.0 
node 1 1 1 1
node 2 2 1 1
node 3 1 1 3
node 4 1 0 2
node 8 1 0 0
node 10 1 0 0
node 15 1 0 0
node 23 3 0 0
node 52 2 0 0
node 111 1 0 0
node 134 1 0 0
node 153 1 0 0
gene  1 1 4 0.4446591418754806 0 1.0 0.4446591418754806 1
gene  2 2 4 -2.909440994295341 0 2.0 -2.909440994295341 1
gene  3 3 4 -5.676019759117227 0 3.0 -5.676019759117227 1
gene  1 1 8 6.42768971965444 0 10.0 6.42768971965444 1
gene  1 1 10 -1.6390949875490723 0 14.0 -1.6390949875490723 1
gene  1 10 4 0.05000979850309739 0 15.0 0.05000979850309739 1
gene  3 4 8 1.086637249411113 0 25.0 1.086637249411113 0
gene  1 3 10 13.415748990307732 0 27.0 13.415748990307732 1
gene  1 1 15 1.812898548346 0 38.0 1.812898548346 1
gene  1 15 8 6.73056945346879 0 39.0 6.73056945346879 1
gene  1 1 23 -9.902658510659787 0 83.0 -9.902658510659787 1
gene  1 23 4 -7.273516146326754 0 84.0 -7.273516146326754 1
gene  2 2 8 0.0033678014829817138 0 106.0 0.0033678014829817138 1
gene  1 23 15 -6.027393720775692 0 150.0 -6.027393720775692 1
gene  3 4 15 -3.085659971420452 0 169.0 -3.085659971420452 1
gene  2 2 10 -10.414600428457316 0 182.0 -10.414600428457316 1
gene  1 10 15 -2.0393670428070703 0 254.0 -2.0393670428070703 1
gene  2 4 52 2.1685824503478637 0 263.0 2.1685824503478637 1
gene  2 52 8 -3.4453309372440537 0 264.0 -3.4453309372440537 1
gene  2 4 111 5.6402492803693125 0 527.0 5.6402492803693125 1
gene  2 111 52 -0.490401813778939 0 528.0 -0.490401813778939 1
gene  2 23 134 -2.102427192949727 0 639.0 -2.102427192949727 1
gene  1 134 15 2.7297148069233215 0 640.0 2.7297148069233215 1
gene  1 23 153 0.2678467145422345 0 722.0 0.2678467145422345 1
gene  1 153 15 -1.025614945156773 0 723.0 -1.025614945156773 1
gene  3 10 153 5.960832246294358 0 1205.0 5.960832246294358 1
gene  3 153 134 -10.738472010169275 0 1307.0 -10.738472010169275 1
genomeend 53
/*-------------------------------------------------------------------*/
/* Species # 040         : (size= 001) (AvfFit= 1,004) (Age= 52,000)  */
/*-------------------------------------------------------------------*/
/* Organism # 054 Fitness:  1,004 Error:  2,002                      */
genomestart  54
trait 1 0.7327488387930338 0.07025474256767683 0.0 0.0 1.6583133820393718 0.8870455118298632 0.0 0.910906204059945 
trait 2 0.0 0.04946430862416462 0.0 0.0 2.0626922354719066 0.0 0.0 0.13371135909704746 
trait 3 1.434123598349991 0.8153855060457199 0.2563371949027178 0.0 0.0 0.11096273532187917 0.0 0.0 
node 1 2 1 1
node 2 1 1 1
node 3 3 1 3
node 4 1 0 2
node 8 2 0 0
node 10 1 0 0
node 28 1 0 0
node 83 1 0 0
node 226 1 0 0
gene  1 1 4 -1.3268122408141552 0 1.0 -1.3268122408141552 1
gene  2 2 4 -1.9640753181292154 0 2.0 -1.9640753181292154 1
gene  3 3 4 2.2279429557480346 0 3.0 2.2279429557480346 1
gene  1 1 8 2.60521498526246 0 10.0 2.60521498526246 1
gene  1 1 10 0.9383026656052118 0 14.0 0.9383026656052118 1
gene  1 10 4 6.204123477914848 0 15.0 6.204123477914848 1
gene  2 4 8 4.513777572367321 0 25.0 4.513777572367321 1
gene  1 3 10 1.6218690876341522 0 27.0 1.6218690876341522 1
gene  1 1 28 -2.1846156375042045 0 115.0 -2.1846156375042045 1
gene  1 28 10 3.144301423106539 0 116.0 3.144301423106539 1
gene  1 3 28 1.3226041282016583 0 129.0 1.3226041282016583 1
gene  1 2 8 -3.023381010477196 0 215.0 -3.023381010477196 1
gene  3 2 10 -3.3310544323407663 0 284.0 -3.3310544323407663 1
gene  3 2 83 -2.375435701317281 0 392.0 -2.375435701317281 1
gene  2 83 4 -0.3995617114445066 0 393.0 -0.3995617114445066 1
gene  3 1 83 -0.26283195550582006 0 760.0 -0.26283195550582006 1
gene  2 28 4 -2.1997497636349395 0 786.0 -2.1997497636349395 1
gene  1 1 226 -0.1737886401653374 0 1061.0 -0.1737886401653374 1
gene  1 226 4 -1.4382942252980315 0 1062.0 -1.4382942252980315 1
gene  2 83 8 1.0828078110505635 0 1080.0 1.0828078110505635 1
gene  2 28 226 -5.194657963244495 0 1505.0 -5.194657963244495 1
genomeend 54
/*-------------------------------------------------------------------*/
/* Species # 045         : (size= 004) (AvfFit= 4,000) (Age= 49,000)  */
/*-------------------------------------------------------------------*/
/* Organism # 055 Fitness:  4,000 Error:  3,000                      */
genomestart  55
trait 1 0.4941309969256841 0.0075193906016581685 0.24632806753648584 0.26154994173926893 0.0 0.0 0.04640350553810324 0.6224094145848006 
trait 2 0.12795955749995525 0.0 0.0 0.0 0.9378783386067437 0.40894215466270023 0.0 0.0 
trait 3 0.627328438441439 0.0 2.3678856011085867 0.06455236155610489 0.0 0.0 0.16777878005809577 1.6457793200508934 
node 1 2 1 1
node 2 1 1 1
node 3 3 1 3
node 4 1 0 2
node 47 1 0 0
node 92 1 0 0
node 251 1 0 0
node 307 1 0 0
gene  1 1 4 8.626789786090024 0 1.0 8.626789786090024 0
gene  2 2 4 -3.3102154026393875 0 2.0 -3.3102154026393875 0
gene  3 3 4 -20.246271795188445 0 3.0 -20.246271795188445 1
gene  1 1 47 6.0553685379566415 0 232.0 6.0553685379566415 1
gene  1 47 4 -6.275091690794017 0 233.0 -6.275091690794017 0
gene  1 3 47 -1.9232471829008486 0 283.0 -1.9232471829008486 1
gene  1 47 92 9.36701015022554 0 431.0 9.36701015022554 1
gene  3 92 4 8.325440322793499 0 432.0 8.325440322793499 1
gene  3 2 92 -0.6827868749116013 0 651.0 -0.6827868749116013 1
gene  3 2 47 -14.031428565668401 0 665.0 -14.031428565668401 1
gene  2 3 92 3.508440145419075 0 795.0 3.508440145419075 1
gene  2 1 92 -1.3941127335778059 0 996.0 -1.3941127335778059 1
gene  1 1 251 4.011947331377431 0 1193.0 4.011947331377431 1
gene  1 251 4 0.10271829252091225 0 1194.0 0.10271829252091225 1
gene  2 2 307 1.9942096286253044 0 1395.0 1.9942096286253044 1
gene  2 307 4 -7.961969113912097 0 1396.0 -7.961969113912097 1
gene  3 47 307 -5.571142843517074 0 1470.0 -5.571142843517074 1
genomeend 55
/* Organism # 056 Fitness:  4,000 Error:  3,000                      */
genomestart  56
trait 1 0.4941309969256841 0.0075193906016581685 0.24632806753648584 0.26154994173926893 0.0 0.0 0.04640350553810324 0.6224094145848006 
trait 2 0.12795955749995525 0.0 0.0 0.0 0.9378783386067437 0.40894215466270023 0.0 0.0 
trait 3 0.627328438441439 0.0 2.3678856011085867 0.06455236155610489 0.0 0.0 0.16777878005809577 1.6457793200508934 
node 1 2 1 1
node 2 1 1 1
node 3 3 1 3
node 4 1 0 2
node 47 1 0 0
node 92 1 0 0
node 251 1 0 0
node 307 1 0 0
gene  1 1 4 6.5691365827425425 0 1.0 6.5691365827425425 0
gene  2 2 4 -0.5086636557697349 0 2.0 -0.5086636557697349 0
gene  3 3 4 -18.54086690123676 0 3.0 -18.54086690123676 1
gene  1 1 47 10.300580275481224 0 232.0 10.300580275481224 1
gene  1 47 4 -4.816130290681628 0 233.0 -4.816130290681628 0
gene  1 3 47 -3.8748544859577825 0 283.0 -3.8748544859577825 1
gene  1 47 92 11.926838557341394 0 431.0 11.926838557341394 1
gene  3 92 4 -0.18187047910764836 0 432.0 -0.18187047910764836 1
gene  3 2 92 -2.8713110539395155 0 651.0 -2.8713110539395155 1
gene  3 2 47 -14.358699178676885 0 665.0 -14.358699178676885 1
gene  2 3 92 2.5278611071908204 0 795.0 2.5278611071908204 1
gene  2 1 92 1.382260768818273 0 996.0 1.382260768818273 1
gene  1 1 251 3.755943827136634 0 1193.0 3.755943827136634 1
gene  1 251 4 2.1611139728130317 0 1194.0 2.1611139728130317 1
gene  2 2 307 2.2953272555788984 0 1395.0 2.2953272555788984 1
gene  2 307 4 -10.381250883806535 0 1396.0 -10.381250883806535 1
gene  3 47 307 -1.3960873195321293 0 1470.0 -1.3960873195321293 1
genomeend 56
/* Organism # 057 Fitness:  4,000 Error:  3,000                      */
genomestart  57
trait 1 0.4941309969256841 0.0075193906016581685 0.24632806753648584 0.26154994173926893 0.0 0.0 0.04640350553810324 0.6224094145848006 
trait 2 0.12795955749995525 0.0 0.0 0.0 0.9378783386067437 0.40894215466270023 0.0 0.0 
trait 3 0.627328438441439 0.0 2.3678856011085867 0.06455236155610489 0.0 0.0 0.16777878005809577 1.6457793200508934 
node 1 2 1 1
node 2 1 1 1
node 3 3 1 3
node 4 1 0 2
node 47 1 0 0
node 92 1 0 0
node 251 1 0 0
node 307 1 0 0
gene  1 1 4 6.5691365827425425 0 1.0 6.5691365827425425 0
gene  2 2 4 -5.4699000791031125 0 2.0 -5.4699000791031125 0
gene  3 3 4 -18.19942589979813 0 3.0 -18.19942589979813 1
gene  1 1 47 8.091930212567092 0 232.0 8.091930212567092 1
gene  1 47 4 -5.0607833021492326 0 233.0 -5.0607833021492326 0
gene  1 3 47 -3.022601139474108 0 283.0 -3.022601139474108 1
gene  1 47 92 9.924383912172628 0 431.0 9.924383912172628 1
gene  3 92 4 7.607070247968664 0 432.0 7.607070247968664 1
gene  3 2 92 -0.37662480279747595 0 651.0 -0.37662480279747595 1
gene  3 2 47 -15.28607807743845 0 665.0 -15.28607807743845 1
gene  2 3 92 3.6638499321387092 0 795.0 3.6638499321387092 1
gene  2 1 92 -0.7254604239805826 0 996.0 -0.7254604239805826 1
gene  1 1 251 2.9408809240656035 0 1193.0 2.9408809240656035 1
gene  1 251 4 1.1438869986909312 0 1194.0 1.1438869986909312 1
gene  2 2 307 1.9942096286253044 0 1395.0 1.9942096286253044 1
gene  2 307 4 -7.961969113912097 0 1396.0 -7.961969113912097 1
gene  3 47 307 -5.571142843517074 0 1470.0 -5.571142843517074 1
genomeend 57
/* Organism # 058 Fitness:  4,000 Error:  3,000                      */
genomestart  58
trait 1 0.4941309969256841 0.09374463132007947 0.24632806753648584 0.26154994173926893 0.0 0.8041711663220091 0.04640350553810324 1.4460623479066022 
trait 2 0.12795955749995525 0.0 0.0 0.0 0.9378783386067437 0.40894215466270023 0.0 0.0 
trait 3 0.627328438441439 0.0 2.3678856011085867 0.06455236155610489 0.0 0.0 0.16777878005809577 1.6457793200508934 
node 1 2 1 1
node 2 1 1 1
node 3 3 1 3
node 4 1 0 2
node 47 1 0 0
node 92 1 0 0
node 251 1 0 0
node 307 1 0 0
gene  1 1 4 7.814294009773407 0 1.0 7.814294009773407 0
gene  2 2 4 -6.166510068916837 0 2.0 -6.166510068916837 0
gene  3 3 4 -20.23575284943994 0 3.0 -20.23575284943994 1
gene  1 1 47 7.460957539154212 0 232.0 7.460957539154212 1
gene  1 47 4 -4.270019287405859 0 233.0 -4.270019287405859 0
gene  1 3 47 -3.610521477002675 0 283.0 -3.610521477002675 1
gene  1 47 92 11.20676641367219 0 431.0 11.20676641367219 1
gene  3 92 4 6.503266614756362 0 432.0 6.503266614756362 1
gene  3 2 92 -2.076302626620172 0 651.0 -2.076302626620172 1
gene  3 2 47 -16.892082039989532 0 665.0 -16.892082039989532 1
gene  2 3 92 2.9088689919642032 0 795.0 2.9088689919642032 1
gene  2 1 92 1.5867958382145253 0 996.0 1.5867958382145253 1
gene  1 1 251 3.7743888337064675 0 1193.0 3.7743888337064675 1
gene  1 251 4 0.08000490780411451 0 1194.0 0.08000490780411451 1
gene  2 2 307 2.1584952641658344 0 1395.0 2.1584952641658344 1
gene  2 307 4 -9.455216272939587 0 1396.0 -9.455216272939587 1
gene  3 47 307 -6.081899567760507 0 1470.0 -6.081899567760507 1
genomeend 58
/*-------------------------------------------------------------------*/
/* Species # 046         : (size= 004) (AvfFit= 3,250) (Age= 49,000)  */
/*-------------------------------------------------------------------*/
/* Organism # 059 Fitness:  4,000 Error:  3,000                      */
genomestart  59
trait 1 0.1 0.0075193906016581685 0.24632806753648584 0.0 0.0 0.0 0.47694877980636385 0.0 
trait 2 0.2 0.0 0.0 0.0 0.0 0.0 0.0 0.0 
