/* Species # 001         : (size= 005) (AvfFit= 7,000) (Age= 91,000)  */
/*-------------------------------------------------------------------*/
/* Organism # 000 Fitness:  4,000 Error:  2,000                      */
genomestart  0
trait 1 0.0 0.0 0.0 0.0 0.0 0.0 0.0 0.0 
trait 2 0.0 0.0 0.0 1.6042993186574135 0.0 0.1550046301932273 0.7682008103847215 0.0 
trait 3 0.11451302014212156 0.0 0.39448116603739247 0.0 0.0 0.0 0.0 0.0 
node 1 1 1 1
node 2 2 1 1
node 3 1 1 3
node 4 1 0 2
node 84 1 0 0
node 171 3 0 0
gene  3 1 4 -5.513462072869151 0 1.0 -5.513462072869151 1
gene  1 2 4 17.370791168881663 0 2.0 17.370791168881663 1
gene  2 3 4 0.4495370705333582 0 3.0 0.4495370705333582 1
gene  1 1 84 3.2396293882560525 0 381.0 3.2396293882560525 1
gene  2 84 4 -0.5342971226526707 0 382.0 -0.5342971226526707 1
gene  1 2 84 -2.203398867411235 0 538.0 -2.203398867411235 1
gene  3 3 84 -3.324616991110822 0 593.0 -3.324616991110822 1
gene  1 1 171 -7.325321345051808 0 825.0 -7.325321345051808 1
gene  1 171 84 -9.564759752724386 0 826.0 -9.564759752724386 1
gene  3 3 171 -2.8544868103737775 0 917.0 -2.8544868103737775 1
gene  1 2 171 -2.6520558116816693 0 1216.0 -2.6520558116816693 1
gene  1 171 4 -0.29657126794283917 0 1561.0 -0.29657126794283917 1
genomeend 0
/* Organism # 001 Fitness:  9,000 Error:  1,000                      */
genomestart  1
trait 1 0.0 0.0 0.0 0.0 0.0 0.0 0.0 0.0 
trait 2 0.0 0.0 0.0 1.6042993186574135 0.0 0.1550046301932273 0.7682008103847215 0.0 
trait 3 0.11451302014212156 0.0 0.39448116603739247 0.0 0.0 0.0 0.0 0.0 
node 1 1 1 1
node 2 2 1 1
node 3 1 1 3
node 4 1 0 2
node 84 1 0 0
node 171 3 0 0
gene  3 1 4 -4.670037086635292 0 1.0 -4.670037086635292 1
gene  1 2 4 17.114498406928035 0 2.0 17.114498406928035 1
gene  2 3 4 15.352494807871178 0 3.0 15.352494807871178 1
gene  1 1 84 2.263126281735843 0 381.0 2.263126281735843 1
gene  2 84 4 -1.6126786054758124 0 382.0 -1.6126786054758124 1
gene  1 2 84 -3.4898014253231935 0 538.0 -3.4898014253231935 1
gene  3 3 84 -4.228419601847007 0 593.0 -4.228419601847007 1
gene  1 1 171 -8.21667277094762 0 825.0 -8.21667277094762 1
gene  1 171 84 -9.210426024609045 0 826.0 -9.210426024609045 1
gene  3 3 171 -1.2306106027953063 0 917.0 -1.2306106027953063 1
gene  1 2 171 -5.294225191626733 0 1216.0 -5.294225191626733 1
gene  1 171 4 0.16918867205612353 0 1561.0 0.16918867205612353 1
genomeend 1
/* Organism # 002 Fitness:  9,000 Error:  1,000                      */
genomestart  2
trait 1 0.0 0.0 0.0 0.0 0.0 0.0 0.0 0.0 
trait 2 0.0 0.0 0.0 1.6042993186574135 0.0 0.1550046301932273 0.7682008103847215 0.0 
trait 3 0.11451302014212156 0.0 0.39448116603739247 0.0 0.0 0.0 0.0 0.0 
node 1 1 1 1
node 2 2 1 1
node 3 1 1 3
node 4 1 0 2
node 84 1 0 0
node 171 3 0 0
gene  3 1 4 -6.931535732334156 0 1.0 -6.931535732334156 1
gene  1 2 4 17.4552553435549 0 2.0 17.4552553435549 1
gene  2 3 4 15.160563184571116 0 3.0 15.160563184571116 1
gene  1 1 84 1.2666288932737073 0 381.0 1.2666288932737073 1
gene  2 84 4 -2.9359878325586317 0 382.0 -2.9359878325586317 1
gene  1 2 84 -3.7579592329909826 0 538.0 -3.7579592329909826 1
gene  3 3 84 -1.0511182196671265 0 593.0 -1.0511182196671265 1
gene  1 1 171 -5.156926372667655 0 825.0 -5.156926372667655 1
gene  1 171 84 -9.211472631121982 0 826.0 -9.211472631121982 1
gene  3 3 171 -4.321411611507932 0 917.0 -4.321411611507932 1
gene  1 2 171 -5.436828650005364 0 1216.0 -5.436828650005364 1
gene  1 171 4 -0.4603973571858122 0 1561.0 -0.4603973571858122 1
genomeend 2
/* Organism # 003 Fitness:  4,000 Error:  2,000                      */
genomestart  3
trait 1 0.0 0.0 0.0 0.0 0.0 0.0 0.0 0.0 
trait 2 0.0 0.0 0.0 1.6042993186574135 0.0 0.1550046301932273 0.7682008103847215 0.0 
trait 3 0.11451302014212156 0.0 0.39448116603739247 0.0 0.0 0.0 0.0 0.0 
node 1 1 1 1
node 2 2 1 1
node 3 1 1 3
node 4 1 0 2
node 84 1 0 0
node 171 3 0 0
gene  3 1 4 -6.111788730036209 0 1.0 -6.111788730036209 1
gene  1 2 4 19.66758513670313 0 2.0 19.66758513670313 1
gene  2 3 4 -2.0603437911390516 0 3.0 -2.0603437911390516 1
gene  1 1 84 3.723293843149154 0 381.0 3.723293843149154 1
gene  2 84 4 -1.9285337781213074 0 382.0 -1.9285337781213074 1
gene  1 2 84 -1.8537521414316682 0 538.0 -1.8537521414316682 1
gene  3 3 84 -0.13099077893686029 0 593.0 -0.13099077893686029 1
gene  1 1 171 -7.740476931541243 0 825.0 -7.740476931541243 1
gene  1 171 84 -8.925632637710669 0 826.0 -8.925632637710669 1
gene  3 3 171 -4.402426831061627 0 917.0 -4.402426831061627 1
gene  1 2 171 -5.927943999360396 0 1216.0 -5.927943999360396 1
gene  1 171 4 1.422279445498261 0 1561.0 1.422279445498261 1
genomeend 3
/* Organism # 004 Fitness:  9,000 Error:  1,000                      */
genomestart  4
trait 1 0.0 0.16474470730464064 0.43093538152244193 0.0 0.0 0.0 0.0 0.0 
trait 2 0.0 0.0 0.0 1.6042993186574135 0.0 0.1550046301932273 0.7682008103847215 0.0 
trait 3 0.11451302014212156 0.0 0.39448116603739247 0.0 0.0 0.0 0.0 0.0 
node 1 1 1 1
node 2 2 1 1
node 3 1 1 3
node 4 1 0 2
node 84 1 0 0
node 171 3 0 0
gene  3 1 4 -6.806158512137828 0 1.0 -6.806158512137828 1
gene  1 2 4 18.660758312806337 0 2.0 18.660758312806337 1
gene  2 3 4 15.3041751675557 0 3.0 15.3041751675557 1
gene  1 1 84 3.7162871171166776 0 381.0 3.7162871171166776 1
gene  2 84 4 -0.8078924877174692 0 382.0 -0.8078924877174692 1
gene  1 2 84 0.9674636526953213 0 538.0 0.9674636526953213 1
gene  3 3 84 -4.343146950749494 0 593.0 -4.343146950749494 1
gene  1 1 171 -7.444428798757718 0 825.0 -7.444428798757718 1
gene  1 171 84 -10.58964483868673 0 826.0 -10.58964483868673 1
gene  3 3 171 -2.9134166060162023 0 917.0 -2.9134166060162023 1
gene  1 2 171 -2.475976745328236 0 1216.0 -2.475976745328236 1
gene  1 171 4 -1.0515490406483796 0 1561.0 -1.0515490406483796 1
genomeend 4
/*-------------------------------------------------------------------*/
/* Species # 007         : (size= 005) (AvfFit= 7,000) (Age= 86,000)  */
/*-------------------------------------------------------------------*/
/* Organism # 005 Fitness:  9,000 Error:  1,000                      */
genomestart  5
trait 1 0.8852445140920412 0.4100005836106212 0.0 0.0 0.0 0.0 0.0 0.0 
trait 2 0.1 0.0 0.2745656836152613 0.8163729433678998 0.0 0.3301629726161752 0.4434326801698363 0.0 
trait 3 0.1770668262601972 0.0 1.1646136890459076 0.0 0.2879334855204876 0.0 0.305630474635493 0.0 
node 1 1 1 1
node 2 1 1 1
node 3 1 1 3
node 4 1 0 2
node 12 2 0 0
node 14 1 0 0
node 15 2 0 0
node 193 1 0 0
node 298 1 0 0
gene  1 1 4 -12.712768075853374 0 1.0 -12.712768075853374 0
gene  2 2 4 -17.986926342468443 0 2.0 -17.986926342468443 1
gene  1 3 4 15.832779098327215 0 3.0 15.832779098327215 1
gene  1 1 14 -0.760754401914423 0 35.0 -0.760754401914423 1
gene  2 14 4 -1.2343800623231715 0 36.0 -1.2343800623231715 1
gene  1 1 15 0.13987360282998917 0 40.0 0.13987360282998917 1
gene  2 15 12 2.3685074152303622 0 41.0 2.3685074152303622 1
gene  3 3 15 -0.21411813155429282 0 92.0 -0.21411813155429282 1
gene  3 2 15 0.7269389003838136 0 159.0 0.7269389003838136 1
gene  2 2 12 6.7183785854995985 0 208.0 6.7183785854995985 1
gene  1 14 15 6.413519752438007 0 399.0 6.413519752438007 1
gene  2 4 15 0.9813585522861581 0 639.0 0.9813585522861581 1
gene  2 3 12 -7.640982400052863 0 902.0 -7.640982400052863 1
gene  1 1 193 1.3527846876386231 0 946.0 1.3527846876386231 1
gene  1 193 4 -2.1613283275979116 0 947.0 -2.1613283275979116 1
gene  3 3 14 -1.1091835136019785 0 965.0 -1.1091835136019785 1
gene  1 3 193 7.3016032514011835 0 1134.0 7.3016032514011835 1
gene  3 193 15 -7.564932854065283 0 1158.0 -7.564932854065283 1
gene  3 2 193 0.9363685383440901 0 1200.0 0.9363685383440901 1
gene  1 1 298 -0.6727106714956643 0 1419.0 -0.6727106714956643 1
gene  3 298 15 0.0994610689605327 0 1420.0 0.0994610689605327 1
genomeend 5
/* Organism # 006 Fitness:  4,000 Error:  2,000                      */
genomestart  6
trait 1 0.8852445140920412 0.4100005836106212 0.0 0.0 0.0 0.0 0.0 0.0 
trait 2 0.1 0.0 0.2745656836152613 0.8163729433678998 0.0 0.3301629726161752 0.4434326801698363 0.0 
trait 3 0.1770668262601972 0.0 1.1646136890459076 0.0 0.2879334855204876 0.0 0.305630474635493 0.0 
node 1 1 1 1
node 2 1 1 1
node 3 1 1 3
node 4 1 0 2
node 12 2 0 0
node 14 1 0 0
node 15 2 0 0
node 193 1 0 0
node 298 1 0 0
gene  1 1 4 -13.251992410301272 0 1.0 -13.251992410301272 0
gene  2 2 4 1.3360489618308404 0 2.0 1.3360489618308404 1
gene  1 3 4 15.935390453879993 0 3.0 15.935390453879993 1
gene  1 1 14 1.8090667930086601 0 35.0 1.8090667930086601 1
gene  2 14 4 -5.714664485953585 0 36.0 -5.714664485953585 1
gene  1 1 15 -0.09073452797810022 0 40.0 -0.09073452797810022 1
gene  2 15 12 -6.994935447712525 0 41.0 -6.994935447712525 1
gene  3 3 15 3.7102121837519277 0 92.0 3.7102121837519277 1
gene  3 2 15 7.307577394854712 0 159.0 7.307577394854712 1
gene  2 2 12 5.727227264487901 0 208.0 5.727227264487901 1
gene  1 14 15 6.4875378392244585 0 399.0 6.4875378392244585 1
gene  2 4 15 -2.099360691339202 0 639.0 -2.099360691339202 1
gene  2 3 12 -5.400851689955055 0 902.0 -5.400851689955055 1
gene  1 1 193 -11.3351051065402 0 946.0 -11.3351051065402 1
gene  1 193 4 -4.271165052643542 0 947.0 -4.271165052643542 1
gene  3 3 14 -0.2671479985681724 0 965.0 -0.2671479985681724 1
gene  1 3 193 7.906020867527338 0 1134.0 7.906020867527338 1
gene  3 193 15 -6.539157549454966 0 1158.0 -6.539157549454966 1
gene  3 2 193 2.032150497926283 0 1200.0 2.032150497926283 1
gene  1 1 298 -1.8813277003071676 0 1419.0 -1.8813277003071676 1
gene  1 298 15 1.5292173732535894 0 1420.0 1.5292173732535894 1
genomeend 6
/* Organism # 007 Fitness:  9,000 Error:  1,000                      */
genomestart  7
trait 1 0.8852445140920412 0.4100005836106212 0.0 0.0 0.0 0.0 0.0 0.0 
trait 2 0.1 0.0 0.2745656836152613 0.8163729433678998 0.0 0.3301629726161752 0.4434326801698363 0.0 
trait 3 0.1770668262601972 0.0 1.1646136890459076 0.0 0.2879334855204876 0.0 0.305630474635493 0.0 
node 1 1 1 1
node 2 1 1 1
node 3 1 1 3
node 4 1 0 2
node 12 2 0 0
node 14 1 0 0
node 15 2 0 0
node 193 1 0 0
node 298 1 0 0
gene  1 1 4 -10.805257079217743 0 1.0 -10.805257079217743 1
gene  2 2 4 -17.535819279120986 0 2.0 -17.535819279120986 1
gene  1 3 4 13.036288341023809 0 3.0 13.036288341023809 1
gene  1 1 14 0.3341795812136239 0 35.0 0.3341795812136239 1
gene  2 14 4 -5.58027886802406 0 36.0 -5.58027886802406 1
gene  1 1 15 0.5765441898497103 0 40.0 0.5765441898497103 1
gene  2 15 12 -4.855413700263516 0 41.0 -4.855413700263516 1
gene  3 3 15 2.2006239269586527 0 92.0 2.2006239269586527 1
gene  3 2 15 3.960375572962575 0 159.0 3.960375572962575 1
gene  2 2 12 6.510886572499532 0 208.0 6.510886572499532 1
gene  1 14 15 6.191957842421304 0 399.0 6.191957842421304 1
gene  2 4 15 3.445856125900785 0 639.0 3.445856125900785 1
gene  2 3 12 -8.6267062759023 0 902.0 -8.6267062759023 1
gene  1 1 193 -10.931733624575013 0 946.0 -10.931733624575013 1
gene  1 193 4 -2.638041264950297 0 947.0 -2.638041264950297 1
gene  3 3 14 -2.4188816684900747 0 965.0 -2.4188816684900747 1
gene  1 3 193 6.379953385958579 0 1134.0 6.379953385958579 1
gene  3 193 15 -7.29356374275532 0 1158.0 -7.29356374275532 1
gene  3 2 193 0.9312144870232832 0 1200.0 0.9312144870232832 1
gene  1 1 298 -0.6727106714956643 0 1419.0 -0.6727106714956643 1
gene  1 298 15 0.8981243487240829 0 1420.0 0.8981243487240829 1
genomeend 7
/* Organism # 008 Fitness:  4,000 Error:  2,000                      */
genomestart  8
trait 1 0.8852445140920412 0.4100005836106212 0.0 0.0 0.0 0.0 0.0 0.0 
trait 2 0.1 0.0 0.2745656836152613 0.8163729433678998 0.0 0.3301629726161752 0.4434326801698363 0.0 
trait 3 0.1770668262601972 0.0 1.1646136890459076 0.0 0.2879334855204876 0.0 0.305630474635493 0.0 
node 1 1 1 1
node 2 1 1 1
node 3 1 1 3
node 4 1 0 2
node 12 2 0 0
node 14 1 0 0
node 15 2 0 0
node 193 1 0 0
node 298 1 0 0
gene  1 1 4 -13.286511442104626 0 1.0 -13.286511442104626 0
gene  1 2 4 -1.7045556664126167 0 2.0 -1.7045556664126167 1
gene  1 3 4 15.717072817386942 0 3.0 15.717072817386942 1
gene  1 1 14 1.3152677412230709 0 35.0 1.3152677412230709 1
gene  2 14 4 -7.213544272650534 0 36.0 -7.213544272650534 1
gene  1 1 15 -1.686046982587679 0 40.0 -1.686046982587679 1
gene  2 15 12 -4.0671141696939355 0 41.0 -4.0671141696939355 1
gene  3 3 15 4.334581182218377 0 92.0 4.334581182218377 1
gene  3 2 15 4.932791325829225 0 159.0 4.932791325829225 1
gene  2 2 12 6.90482368016416 0 208.0 6.90482368016416 1
gene  1 14 15 0.27088350519995724 0 399.0 0.27088350519995724 1
gene  2 4 15 -1.1300989298806892 0 639.0 -1.1300989298806892 1
gene  2 3 12 -7.3829142637032135 0 902.0 -7.3829142637032135 1
gene  1 1 193 1.0804609312185243 0 946.0 1.0804609312185243 1
gene  1 193 4 -1.3386597229241675 0 947.0 -1.3386597229241675 1
gene  3 3 14 -2.5035898322841916 0 965.0 -2.5035898322841916 1
gene  1 3 193 6.040341312219649 0 1134.0 6.040341312219649 1
gene  3 193 15 -0.22853676077725427 0 1158.0 -0.22853676077725427 1
gene  3 2 193 1.0513533000185138 0 1200.0 1.0513533000185138 1
gene  1 1 298 0.2841744223021856 0 1419.0 0.2841744223021856 1
gene  1 298 15 -2.1396734033132803 0 1420.0 -2.1396734033132803 1
genomeend 8
/* Organism # 009 Fitness:  9,000 Error:  1,000                      */
genomestart  9
trait 1 0.8852445140920412 0.4100005836106212 0.0 0.0 0.0 0.0 0.0 0.0 
trait 2 0.1 0.0 0.2745656836152613 0.8163729433678998 0.0 0.3301629726161752 0.4434326801698363 0.0 
trait 3 0.1770668262601972 0.0 1.1646136890459076 0.0 0.2879334855204876 0.0 0.305630474635493 0.0 
node 1 1 1 1
node 2 1 1 1
node 3 2 1 3
node 4 1 0 2
node 12 2 0 0
node 14 1 0 0
node 15 2 0 0
node 193 1 0 0
node 298 1 0 0
gene  1 1 4 -11.60659745215637 0 1.0 -11.60659745215637 0
gene  2 2 4 -17.00191210290425 0 2.0 -17.00191210290425 1
gene  1 3 4 13.257668345060111 0 3.0 13.257668345060111 1
gene  1 1 14 1.5432594632031653 0 35.0 1.5432594632031653 1
gene  2 14 4 -7.281729655458683 0 36.0 -7.281729655458683 1
gene  1 1 15 0.23192516661042317 0 40.0 0.23192516661042317 1
gene  2 15 12 -5.660956449450946 0 41.0 -5.660956449450946 1
gene  3 3 15 3.7439775288047437 0 92.0 3.7439775288047437 1
gene  3 2 15 4.968742958719234 0 159.0 4.968742958719234 1
gene  2 2 12 7.717924444192564 0 208.0 7.717924444192564 1
gene  1 14 15 5.440503275762716 0 399.0 5.440503275762716 1
gene  2 4 15 3.1141322247208323 0 639.0 3.1141322247208323 1
gene  2 3 12 -7.829208604698531 0 902.0 -7.829208604698531 1
gene  1 1 193 -11.944083699339192 0 946.0 -11.944083699339192 1
gene  1 193 4 -2.84781384985024 0 947.0 -2.84781384985024 1
gene  3 3 14 1.3418780179585872 0 965.0 1.3418780179585872 1
gene  1 3 193 6.960996330126344 0 1134.0 6.960996330126344 1
gene  3 193 15 -4.6009987658050795 0 1158.0 -4.6009987658050795 1
gene  3 2 193 0.256282480564187 0 1200.0 0.256282480564187 1
gene  1 1 298 -0.6727106714956643 0 1419.0 -0.6727106714956643 1
gene  1 298 15 -0.25769546176668934 0 1420.0 -0.25769546176668934 1
genomeend 9
/*-------------------------------------------------------------------*/
/* Species # 010         : (size= 004) (AvfFit= 7,735) (Age= 85,000)  */
/*-------------------------------------------------------------------*/
/* Organism # 010 Fitness:  9,000 Error:  1,000                      */
genomestart  10
trait 1 0.1 0.12337605011521194 0.0 0.0 0.0 0.03212569888679681 0.0 0.0223559206539692 
trait 2 0.2 0.7428131076073421 0.0 0.6194596212085887 0.0 0.0 0.0 0.0 
trait 3 0.0 0.0 0.49640954461309594 0.0 0.0 0.5634905550359267 0.802104184087284 0.0 
node 1 3 1 1
node 2 2 1 1
node 3 2 1 3
node 4 2 0 2
node 5 1 0 0
node 7 2 0 0
node 12 1 0 0
gene  1 1 4 -14.06543304410857 0 1.0 -14.06543304410857 1
gene  1 2 4 29.3107325184163 0 2.0 29.3107325184163 1
gene  3 3 4 -29.342477086203843 0 3.0 -29.342477086203843 1
gene  1 1 5 -0.6014931404432144 0 4.0 -0.6014931404432144 1
gene  1 5 4 -1.432406489350746 0 5.0 -1.432406489350746 1
gene  1 1 7 -2.4518364904109267 0 10.0 -2.4518364904109267 1
gene  1 7 4 1.8192685634885906 0 11.0 1.8192685634885906 1
gene  1 1 12 1.565546085584315 0 25.0 1.565546085584315 1
gene  1 12 4 3.8490921505439815 0 26.0 3.8490921505439815 1
gene  2 2 7 -1.856270151676508 0 577.0 -1.856270151676508 1
gene  2 5 7 -0.771776948136017 0 686.0 -0.771776948136017 1
gene  2 12 7 1.386575421779899 0 725.0 1.386575421779899 1
gene  1 3 7 -5.111491447141371 0 1045.0 -5.111491447141371 1
gene  3 5 12 -2.981016321384403 0 1249.0 -2.981016321384403 1
gene  2 3 5 0.35224665826331353 0 1379.0 0.35224665826331353 1
gene  3 3 12 0.969489691676312 0 1463.0 0.969489691676312 1
genomeend 10
/* Organism # 011 Fitness:  9,000 Error:  1,000                      */
genomestart  11
trait 1 0.1 0.12337605011521194 0.0 0.0 0.0 0.03212569888679681 0.0 0.0223559206539692 
trait 2 0.2 0.7428131076073421 0.0 0.6194596212085887 0.0 0.0 0.0 0.0 
trait 3 0.0 0.0 0.49640954461309594 0.0 0.0 0.5634905550359267 0.802104184087284 0.0 
node 1 2 1 1
node 2 2 1 1
node 3 1 1 3
node 4 2 0 2
node 5 1 0 0
node 7 2 0 0
node 12 1 0 0
gene  1 1 4 -15.970922067599457 0 1.0 -15.970922067599457 1
gene  1 2 4 30.567429109965342 0 2.0 30.567429109965342 1
gene  3 3 4 -26.099012955282042 0 3.0 -26.099012955282042 1
gene  1 1 5 2.390952832022216 0 4.0 2.390952832022216 1
gene  1 5 4 -1.173772565114006 0 5.0 -1.173772565114006 1
gene  1 1 7 -1.0113420171150556 0 10.0 -1.0113420171150556 1
gene  1 7 4 -4.30873963636534 0 11.0 -4.30873963636534 1
gene  1 1 12 -0.39623408948397687 0 25.0 -0.39623408948397687 1
gene  1 12 4 1.6537985788361795 0 26.0 1.6537985788361795 1
gene  2 2 7 2.3981344064412458 0 577.0 2.3981344064412458 1
gene  2 5 7 -1.5072739140643803 0 686.0 -1.5072739140643803 1
gene  2 12 7 0.21473999499692376 0 725.0 0.21473999499692376 1
gene  1 3 7 -0.7657838804488355 0 1045.0 -0.7657838804488355 1
gene  3 5 12 -1.0477971624138505 0 1249.0 -1.0477971624138505 1
gene  2 3 5 0.30592969011786764 0 1379.0 0.30592969011786764 1
gene  3 3 12 5.17677809786141 0 1463.0 5.17677809786141 1
genomeend 11
/* Organism # 012 Fitness:  8,938 Error:  1,010                      */
genomestart  12
trait 1 0.1 0.12337605011521194 0.0 0.0 0.0 0.03212569888679681 0.0 0.0223559206539692 
trait 2 0.2 0.7428131076073421 0.0 0.6194596212085887 0.0 0.0 0.0 0.0 
trait 3 0.0 0.0 0.49640954461309594 0.0 0.0 0.5634905550359267 0.802104184087284 0.0 
node 1 3 1 1
node 2 2 1 1
node 3 1 1 3
node 4 2 0 2
node 5 1 0 0
node 7 2 0 0
node 12 1 0 0
gene  1 1 4 -1.8147758506199398 0 1.0 -1.8147758506199398 1
gene  1 2 4 28.037579329149573 0 2.0 28.037579329149573 1
gene  3 3 4 -25.957959869683638 0 3.0 -25.957959869683638 1
gene  1 1 5 2.6584051492047482 0 4.0 2.6584051492047482 1
gene  1 5 4 -3.4631094178039765 0 5.0 -3.4631094178039765 1
gene  1 1 7 1.5429417755651973 0 10.0 1.5429417755651973 1
gene  1 7 4 -3.3068893043665746 0 11.0 -3.3068893043665746 1
gene  1 1 12 0.7985402801888558 0 25.0 0.7985402801888558 1
gene  1 12 4 2.2996367185483257 0 26.0 2.2996367185483257 1
gene  2 2 7 -2.00601061111678 0 577.0 -2.00601061111678 1
gene  2 5 7 3.07889064689397 0 686.0 3.07889064689397 1
gene  2 12 7 0.7792264934334527 0 725.0 0.7792264934334527 1
gene  1 3 7 -4.349656987326904 0 1045.0 -4.349656987326904 1
gene  3 5 12 -1.8637335755641056 0 1249.0 -1.8637335755641056 1
gene  2 3 5 -1.0719001197230427 0 1379.0 -1.0719001197230427 1
gene  3 3 12 5.312420443284287 0 1463.0 5.312420443284287 1
genomeend 12
/* Organism # 013 Fitness:  4,000 Error:  2,000                      */
genomestart  13
trait 1 0.1 0.12337605011521194 0.0 0.0 0.0 0.03212569888679681 0.0 0.0223559206539692 
trait 2 0.2 0.7428131076073421 0.0 0.6194596212085887 0.0 0.0 0.0 0.0 
trait 3 0.0 0.0 0.49640954461309594 0.0 0.0 0.5634905550359267 0.802104184087284 0.0 
node 1 3 1 1
node 2 2 1 1
node 3 1 1 3
node 4 2 0 2
node 5 1 0 0
node 7 2 0 0
node 12 2 0 0
gene  1 1 4 -2.2830964582328765 0 1.0 -2.2830964582328765 1
gene  1 2 4 28.77057781025186 0 2.0 28.77057781025186 1
gene  3 3 4 1.359130010734762 0 3.0 1.359130010734762 1
gene  1 1 5 1.3603352775530795 0 4.0 1.3603352775530795 1
gene  1 5 4 -4.736911717651347 0 5.0 -4.736911717651347 1
gene  1 1 7 -1.1614009444496598 0 10.0 -1.1614009444496598 1
gene  1 7 4 -0.4892952920670779 0 11.0 -0.4892952920670779 1
gene  1 1 12 1.0882200969474864 0 25.0 1.0882200969474864 1
gene  1 12 4 6.36924307622059 0 26.0 6.36924307622059 1
gene  2 2 7 -2.0511967877593653 0 577.0 -2.0511967877593653 1
gene  2 5 7 -0.27440507411808746 0 686.0 -0.27440507411808746 1
gene  2 12 7 -0.7111899752416644 0 725.0 -0.7111899752416644 1
gene  1 3 7 -1.2159180316948652 0 1045.0 -1.2159180316948652 1
gene  3 5 12 -3.76703758818742 0 1249.0 -3.76703758818742 1
gene  2 3 5 0.003728452101069979 0 1379.0 0.003728452101069979 1
gene  3 3 12 -2.434566786948047 0 1463.0 -2.434566786948047 1
genomeend 13
/*-------------------------------------------------------------------*/
/* Species # 012         : (size= 005) (AvfFit= 7,000) (Age= 84,000)  */
/*-------------------------------------------------------------------*/
/* Organism # 014 Fitness:  8,999 Error:  1,000                      */
genomestart  14
trait 1 0.1 0.0 0.0 0.0 0.0 0.0 0.0 0.0 
trait 2 0.0 0.8055508491466326 0.7934835419022715 1.5339215036435139 1.0214879539740775 0.0 0.0 0.0 
trait 3 0.2589673195230027 0.0 1.3907975922300342 0.0 0.0 0.9998401091906934 0.0 0.18046604288540402 
node 1 1 1 1
node 2 1 1 1
node 3 3 1 3
node 4 3 0 2
node 12 1 0 0
node 15 1 0 0
node 196 1 0 0
gene  1 1 4 0.6284308995920324 0 1.0 0.6284308995920324 0
gene  1 2 4 -21.97648435879929 0 2.0 -21.97648435879929 1
gene  3 3 4 21.563768105374717 0 3.0 21.563768105374717 1
gene  2 1 12 -0.5203127696423395 0 25.0 -0.5203127696423395 0
gene  1 12 4 -1.6622053054077948 0 26.0 -1.6622053054077948 1
gene  1 1 15 -0.025219299704937637 0 40.0 -0.025219299704937637 1
gene  3 15 12 2.2063509445184577 0 41.0 2.2063509445184577 1
gene  1 2 15 -2.3034898484988258 0 108.0 -2.3034898484988258 1
gene  2 15 4 -0.9308936458071757 0 351.0 -0.9308936458071757 1
gene  2 3 15 -4.969858067939224 0 378.0 -4.969858067939224 1
gene  1 1 196 -0.3570371963823784 0 957.0 -0.3570371963823784 1
gene  1 196 4 -0.6238868870767686 0 958.0 -0.6238868870767686 1
gene  2 15 196 2.0562372319334887 0 1318.0 2.0562372319334887 1
gene  2 3 196 2.006226175171334 0 1349.0 2.006226175171334 1
genomeend 14
/* Organism # 015 Fitness:  9,000 Error:  1,000                      */
genomestart  15
trait 1 0.1 0.0 0.0 0.0 0.0 0.0 0.0 0.0 
trait 2 0.0 0.8055508491466326 0.7934835419022715 1.5339215036435139 1.0214879539740775 0.0 0.0 0.0 
trait 3 0.2589673195230027 0.0 1.3907975922300342 0.0 0.0 0.9998401091906934 0.0 0.18046604288540402 
node 1 1 1 1
node 2 1 1 1
node 3 3 1 3
node 4 3 0 2
node 12 1 0 0
node 15 1 0 0
node 196 1 0 0
gene  1 1 4 2.814624924972057 0 1.0 2.814624924972057 0
gene  1 2 4 -21.994360107122084 0 2.0 -21.994360107122084 1
gene  3 3 4 19.579929610404566 0 3.0 19.579929610404566 1
gene  2 1 12 1.4066210201538627 0 25.0 1.4066210201538627 0
gene  1 12 4 -14.562052011545813 0 26.0 -14.562052011545813 1
gene  1 1 15 0.8816864705151888 0 40.0 0.8816864705151888 1
gene  3 15 12 4.717267992855404 0 41.0 4.717267992855404 1
gene  1 2 15 -1.696489639210578 0 108.0 -1.696489639210578 1
gene  2 15 4 -2.417493619075949 0 351.0 -2.417493619075949 1
gene  2 3 15 -4.290215277598945 0 378.0 -4.290215277598945 1
gene  1 1 196 -1.6706990091602867 0 957.0 -1.6706990091602867 1
gene  1 196 4 -0.9079099780124535 0 958.0 -0.9079099780124535 1
gene  2 15 196 -1.9711083922164543 0 1318.0 -1.9711083922164543 1
gene  2 3 196 -0.6345242838480387 0 1349.0 -0.6345242838480387 1
genomeend 15
/* Organism # 016 Fitness:  4,000 Error:  2,000                      */
genomestart  16
trait 1 0.1 0.0 0.0 0.0 0.0 0.0 0.0 0.0 
trait 2 0.0 0.8055508491466326 0.7934835419022715 1.5339215036435139 1.0214879539740775 0.0 0.0 0.0 
trait 3 0.2589673195230027 0.0 1.3907975922300342 0.0 0.0 0.9998401091906934 0.0 0.18046604288540402 
node 1 1 1 1
node 2 1 1 1
node 3 3 1 3
node 4 3 0 2
node 12 1 0 0
node 15 1 0 0
node 196 1 0 0
gene  1 1 4 1.036762728516011 0 1.0 1.036762728516011 0
gene  3 2 4 -19.96505228539717 0 2.0 -19.96505228539717 1
gene  3 3 4 0.3694283480515767 0 3.0 0.3694283480515767 1
gene  2 1 12 1.5711366970590863 0 25.0 1.5711366970590863 0
gene  1 12 4 -12.659812100431461 0 26.0 -12.659812100431461 1
gene  1 1 15 0.5335326043923702 0 40.0 0.5335326043923702 1
gene  3 15 12 -1.986909090320067 0 41.0 -1.986909090320067 1
gene  1 2 15 -4.6210526724464795 0 108.0 -4.6210526724464795 1
gene  2 15 4 -7.8095881125709266 0 351.0 -7.8095881125709266 1
gene  2 3 15 -4.887249005002182 0 378.0 -4.887249005002182 1
gene  1 1 196 1.2999101275797917 0 957.0 1.2999101275797917 1
gene  1 196 4 -1.4004111242676363 0 958.0 -1.4004111242676363 1
gene  2 15 196 0.2764446105025922 0 1318.0 0.2764446105025922 1
gene  2 3 196 -2.026295751625658 0 1349.0 -2.026295751625658 1
genomeend 16
/* Organism # 017 Fitness:  4,000 Error:  2,000                      */
genomestart  17
trait 1 0.1 0.0 0.0 0.0 0.0 0.0 0.0 0.0 
trait 2 0.0 0.8055508491466326 0.7934835419022715 1.5339215036435139 1.0214879539740775 0.0 0.0 0.0 
trait 3 0.2589673195230027 0.0 1.3907975922300342 0.0 0.0 0.9998401091906934 0.0 0.18046604288540402 
node 1 1 1 1
node 2 1 1 1
node 3 3 1 3
node 4 3 0 2
node 12 1 0 0
node 15 1 0 0
node 196 1 0 0
gene  1 1 4 0.694379792617275 0 1.0 0.694379792617275 0
gene  3 2 4 -0.31621478139350984 0 2.0 -0.31621478139350984 1
gene  3 3 4 -0.6752884993017327 0 3.0 -0.6752884993017327 1
gene  2 1 12 -1.7918173378867952 0 25.0 -1.7918173378867952 0
gene  1 12 4 -13.117878875283893 0 26.0 -13.117878875283893 1
gene  1 1 15 -0.37106961217232404 0 40.0 -0.37106961217232404 1
gene  3 15 12 -0.6053009443817985 0 41.0 -0.6053009443817985 1
gene  1 2 15 -6.342275932188214 0 108.0 -6.342275932188214 1
gene  2 15 4 -3.673859884190076 0 351.0 -3.673859884190076 1
gene  2 3 15 -3.6700303126622504 0 378.0 -3.6700303126622504 1
gene  1 1 196 -1.1241893567122416 0 957.0 -1.1241893567122416 1
gene  1 196 4 -1.5821886937677334 0 958.0 -1.5821886937677334 1
gene  2 15 196 -0.16052652594747113 0 1318.0 -0.16052652594747113 1
gene  2 3 196 -0.839387355763592 0 1349.0 -0.839387355763592 1
genomeend 17
/* Organism # 018 Fitness:  9,000 Error:  1,000                      */
genomestart  18
trait 1 0.1 0.0 0.0 0.0 0.0 0.0 0.0 0.0 
trait 2 0.0 0.8055508491466326 0.7934835419022715 1.5339215036435139 1.0214879539740775 0.0 0.0 0.0 
trait 3 0.2589673195230027 0.0 1.3907975922300342 0.0 0.0 0.9998401091906934 0.0 0.18046604288540402 
node 1 1 1 1
node 2 1 1 1
node 3 3 1 3
node 4 3 0 2
node 12 1 0 0
node 15 1 0 0
node 196 1 0 0
gene  1 1 4 -0.9574789944232838 0 1.0 -0.9574789944232838 0
gene  3 2 4 -22.457997757367714 0 2.0 -22.457997757367714 1
gene  3 3 4 18.91833318244576 0 3.0 18.91833318244576 1
gene  2 1 12 -2.0093365381324517 0 25.0 -2.0093365381324517 0
gene  1 12 4 -14.758002510368398 0 26.0 -14.758002510368398 1
gene  1 1 15 2.2549635374974244 0 40.0 2.2549635374974244 1
gene  3 15 12 -1.555588596562636 0 41.0 -1.555588596562636 1
gene  1 2 15 -4.801870834269003 0 108.0 -4.801870834269003 1
gene  2 15 4 -7.372912746377358 0 351.0 -7.372912746377358 1
gene  2 3 15 -3.1581500904453943 0 378.0 -3.1581500904453943 1
gene  1 1 196 0.1910899810150723 0 957.0 0.1910899810150723 1
gene  1 196 4 -1.2870571164738767 0 958.0 -1.2870571164738767 1
gene  2 15 196 -0.16052652594747113 0 1318.0 -0.16052652594747113 1
gene  2 3 196 -1.3266817516586802 0 1349.0 -1.3266817516586802 1
genomeend 18
/*-------------------------------------------------------------------*/
/* Species # 014         : (size= 004) (AvfFit= 6,177) (Age= 83,000)  */
/*-------------------------------------------------------------------*/
/* Organism # 019 Fitness:  4,000 Error:  2,000                      */
genomestart  19
trait 1 0.07500000000000001 0.0 0.22421226832731533 0.0 0.4915457193315329 0.0 0.714235516743662 0.0 
trait 2 0.2 0.0 0.0 0.0 0.0 0.8182079139734598 0.43673230340626557 0.7039107179756289 
trait 3 0.03654132057142967 0.0 0.5323273535837271 1.270685368024714 0.3825507836751918 0.0465019797845172 1.2238577013879322 2.0313543512891585 
node 1 1 1 1
node 2 1 1 1
node 3 3 1 3
node 4 1 0 2
node 12 1 0 0
node 14 1 0 0
node 15 3 0 0
node 19 3 0 0
node 26 3 0 0
node 39 1 0 0
node 234 1 0 0
node 277 1 0 0
node 350 1 0 0
gene  3 1 4 -0.5012335477612582 0 1.0 -0.5012335477612582 1
gene  2 2 4 2.174204038553975 0 2.0 2.174204038553975 1
gene  3 3 4 22.023474637828553 0 3.0 22.023474637828553 1
gene  1 1 14 -3.4562908174113116 0 35.0 -3.4562908174113116 1
gene  1 14 4 11.261334504724474 0 36.0 11.261334504724474 1
gene  3 1 15 1.8555629761600718 0 40.0 1.8555629761600718 0
gene  1 15 12 -0.5682062674070381 0 41.0 -0.5682062674070381 1
gene  2 2 19 1.759424070408965 0 60.0 1.759424070408965 1
gene  2 19 4 -20.21903080271937 0 61.0 -20.21903080271937 1
gene  1 1 26 -6.565353069552726 0 84.0 -6.565353069552726 1
gene  1 26 14 -1.9190102352414145 0 85.0 -1.9190102352414145 1
gene  1 15 39 -7.618297296301661 0 145.0 -7.618297296301661 0
gene  2 39 12 -0.9341667222194763 0 146.0 -0.9341667222194763 1
gene  1 2 26 7.558291369111896 0 459.0 7.558291369111896 1
gene  3 39 26 1.6211929146278636 0 1112.0 1.6211929146278636 1
gene  1 15 234 7.65313504433794 0 1129.0 7.65313504433794 1
gene  1 234 39 0.21571536425447485 0 1130.0 0.21571536425447485 1
gene  1 19 26 -1.5938481320009021 0 1166.0 -1.5938481320009021 1
gene  2 26 12 -0.12213681146092203 0 1214.0 -0.12213681146092203 1
gene  2 26 277 -3.7932950987878487 0 1309.0 -3.7932950987878487 1
gene  2 277 12 5.878647000384266 0 1310.0 5.878647000384266 1
gene  1 26 4 11.072142966715893 0 1421.0 11.072142966715893 1
gene  3 1 350 1.50967835510995 0 1616.0 1.50967835510995 1
gene  3 350 15 2.4365549294325284 0 1617.0 2.4365549294325284 1
genomeend 19
/* Organism # 020 Fitness:  2,707 Error:  2,355                      */
genomestart  20
trait 1 0.07500000000000001 0.0 0.22421226832731533 0.0 0.4915457193315329 0.0 0.714235516743662 0.0 
trait 2 0.2 0.0 0.0 0.0 0.0 0.8182079139734598 0.43673230340626557 0.7039107179756289 
trait 3 0.03654132057142967 0.0 0.5323273535837271 1.270685368024714 0.3825507836751918 0.0465019797845172 1.2238577013879322 2.0313543512891585 
node 1 1 1 1
node 2 1 1 1
node 3 3 1 3
node 4 1 0 2
node 12 1 0 0
node 14 1 0 0
node 15 3 0 0
node 19 3 0 0
node 26 3 0 0
node 39 1 0 0
node 234 1 0 0
node 277 1 0 0
node 350 1 0 0
gene  3 1 4 -0.23223342874095088 0 1.0 -0.23223342874095088 1
gene  2 2 4 -4.9814253072121755 0 2.0 -4.9814253072121755 1
gene  3 3 4 -2.4063640894943683 0 3.0 -2.4063640894943683 1
gene  1 1 14 2.178535001954924 0 35.0 2.178535001954924 1
gene  1 14 4 11.64430017247495 0 36.0 11.64430017247495 1
gene  3 1 15 -1.5121728904476166 0 40.0 -1.5121728904476166 0
gene  1 15 12 3.173212691861668 0 41.0 3.173212691861668 1
gene  2 2 19 2.478100231604807 0 60.0 2.478100231604807 1
gene  2 19 4 -17.76788803192309 0 61.0 -17.76788803192309 1
gene  1 1 26 -9.258330109948954 0 84.0 -9.258330109948954 1
gene  1 26 14 0.05978560181802495 0 85.0 0.05978560181802495 1
gene  1 15 39 1.509792199364939 0 145.0 1.509792199364939 0
gene  2 39 12 -1.2885069346323113 0 146.0 -1.2885069346323113 1
gene  1 2 26 4.638751170727269 0 459.0 4.638751170727269 1
gene  3 39 26 -1.1413086899711167 0 1112.0 -1.1413086899711167 1
gene  1 15 234 5.645554422286736 0 1129.0 5.645554422286736 1
gene  1 234 39 0.2955458344728856 0 1130.0 0.2955458344728856 1
gene  1 19 26 -2.3164132171281637 0 1166.0 -2.3164132171281637 1
gene  2 26 12 2.540276850407079 0 1214.0 2.540276850407079 1
gene  2 26 277 -3.634132170042479 0 1309.0 -3.634132170042479 1
gene  2 277 12 3.509590452253949 0 1310.0 3.509590452253949 1
gene  1 26 4 1.702561875723483 0 1421.0 1.702561875723483 1
gene  3 1 350 0.8560502351946353 0 1616.0 0.8560502351946353 1
gene  3 350 15 0.5634418687175036 0 1617.0 0.5634418687175036 1
genomeend 20
/* Organism # 021 Fitness:  9,000 Error:  1,000                      */
genomestart  21
trait 1 0.07500000000000001 0.0 0.22421226832731533 0.0 0.4915457193315329 0.0 0.714235516743662 0.0 
trait 2 0.2 0.0 0.0 0.0 0.0 0.8182079139734598 0.43673230340626557 0.7039107179756289 
trait 3 0.03654132057142967 0.0 0.5323273535837271 1.270685368024714 0.3825507836751918 0.0465019797845172 1.2238577013879322 2.0313543512891585 
node 1 1 1 1
node 2 1 1 1
node 3 3 1 3
node 4 1 0 2
node 12 1 0 0
node 14 1 0 0
node 15 3 0 0
node 19 3 0 0
node 26 3 0 0
node 39 1 0 0
node 234 1 0 0
node 277 1 0 0
node 350 1 0 0
gene  3 1 4 -2.9198443147201005 0 1.0 -2.9198443147201005 1
gene  2 2 4 -6.057738817198531 0 2.0 -6.057738817198531 1
gene  3 3 4 18.252167355434548 0 3.0 18.252167355434548 1
gene  1 1 14 -1.803571389418905 0 35.0 -1.803571389418905 1
gene  1 14 4 7.82079847167749 0 36.0 7.82079847167749 1
gene  3 1 15 -1.7000464912781106 0 40.0 -1.7000464912781106 0
gene  1 15 12 3.182909978437052 0 41.0 3.182909978437052 1
gene  2 2 19 0.941798540000192 0 60.0 0.941798540000192 1
gene  2 19 4 -19.249148658921005 0 61.0 -19.249148658921005 1
gene  1 1 26 -8.726876424059185 0 84.0 -8.726876424059185 1
gene  1 26 14 -1.0368082892780124 0 85.0 -1.0368082892780124 1
gene  1 15 39 -7.929261941941231 0 145.0 -7.929261941941231 0
gene  2 39 12 0.10914069689345118 0 146.0 0.10914069689345118 1
gene  1 2 26 5.578327404953933 0 459.0 5.578327404953933 1
gene  3 39 26 1.3619671987468818 0 1112.0 1.3619671987468818 1
gene  1 15 234 3.7470193500630025 0 1129.0 3.7470193500630025 1
gene  1 234 39 2.5963043441473896 0 1130.0 2.5963043441473896 1
gene  1 19 26 -3.845877985172772 0 1166.0 -3.845877985172772 1
gene  2 26 12 2.1098548983730816 0 1214.0 2.1098548983730816 1
gene  2 26 277 -1.1818427381068504 0 1309.0 -1.1818427381068504 1
gene  2 277 12 2.219064759437673 0 1310.0 2.219064759437673 1
gene  1 26 4 -0.749316419125228 0 1421.0 -0.749316419125228 1
gene  3 1 350 1.7662896332758455 0 1616.0 1.7662896332758455 1
gene  3 350 15 3.676590343055296 0 1617.0 3.676590343055296 1
genomeend 21
/* Organism # 022 Fitness:  9,000 Error:  1,000                      */
genomestart  22
trait 1 0.07500000000000001 0.0 0.22421226832731533 0.0 0.4915457193315329 0.0 0.714235516743662 0.0 
trait 2 0.2 0.0 0.0 0.0 0.0 0.8182079139734598 0.43673230340626557 0.7039107179756289 
trait 3 0.03654132057142967 0.0 0.5323273535837271 1.270685368024714 0.3825507836751918 0.0465019797845172 1.2238577013879322 2.0313543512891585 
node 1 1 1 1
node 2 1 1 1
node 3 3 1 3
node 4 1 0 2
node 12 1 0 0
node 14 1 0 0
node 15 3 0 0
node 19 3 0 0
node 26 3 0 0
node 39 1 0 0
node 234 1 0 0
node 277 1 0 0
node 350 1 0 0
gene  3 1 4 -3.620901194697337 0 1.0 -3.620901194697337 1
gene  2 2 4 -7.4412415212238345 0 2.0 -7.4412415212238345 1
gene  3 3 4 20.577926888987978 0 3.0 20.577926888987978 1
gene  1 1 14 -0.471336272473613 0 35.0 -0.471336272473613 1
gene  1 14 4 9.850990265933314 0 36.0 9.850990265933314 1
gene  3 1 15 1.0194829766862084 0 40.0 1.0194829766862084 0
gene  1 15 12 3.0723829715456707 0 41.0 3.0723829715456707 1
gene  2 2 19 1.3236383055450496 0 60.0 1.3236383055450496 1
gene  2 19 4 -21.479485669746232 0 61.0 -21.479485669746232 1
gene  1 1 26 -5.91047958139559 0 84.0 -5.91047958139559 1
gene  1 26 14 -3.3161712517850637 0 85.0 -3.3161712517850637 1
gene  1 15 39 -6.5772707799740004 0 145.0 -6.5772707799740004 0
gene  2 39 12 0.43469540241457083 0 146.0 0.43469540241457083 1
gene  1 2 26 6.364218659063495 0 459.0 6.364218659063495 1
gene  3 39 26 2.0028528205291574 0 1112.0 2.0028528205291574 1
gene  1 15 234 3.4643331961814017 0 1129.0 3.4643331961814017 1
gene  1 234 39 2.9691104007419966 0 1130.0 2.9691104007419966 1
gene  1 19 26 -3.3833670279745727 0 1166.0 -3.3833670279745727 1
gene  2 26 12 3.4523228550346596 0 1214.0 3.4523228550346596 1
gene  2 26 277 -0.7147102284369429 0 1309.0 -0.7147102284369429 1
gene  2 277 12 1.9058729124032483 0 1310.0 1.9058729124032483 1
gene  1 26 4 13.861864144160604 0 1421.0 13.861864144160604 1
gene  3 1 350 3.9321633435744876 0 1616.0 3.9321633435744876 1
gene  3 350 15 0.14562272072105115 0 1617.0 0.14562272072105115 1
genomeend 22
/*-------------------------------------------------------------------*/
/* Species # 015         : (size= 005) (AvfFit= 9,000) (Age= 82,000)  */
/*-------------------------------------------------------------------*/
/* Organism # 023 Fitness:  9,000 Error:  1,000                      */
genomestart  23
trait 1 0.0 0.2980083218285674 0.6146215069883705 0.0 0.48642945093834966 0.44555401132109973 0.0 0.0 
trait 2 0.0 1.1204007568616854 1.1172044103779508 0.0 0.0 0.0 0.6779028454363701 0.3632018802468182 
trait 3 0.3 0.2808502343399747 0.0 0.0 0.0 0.0 0.0 0.0 
node 1 1 1 1
node 2 2 1 1
node 3 1 1 3
node 4 2 0 2
node 12 1 0 0
node 14 1 0 0
node 22 2 0 0
node 190 1 0 0
gene  3 1 4 4.994390193280623 0 1.0 4.994390193280623 1
gene  2 2 4 -18.830470893768453 0 2.0 -18.830470893768453 1
gene  2 3 4 24.677280972838687 0 3.0 24.677280972838687 1
gene  1 1 12 -0.8568069855095597 0 25.0 -0.8568069855095597 1
gene  1 1 14 17.303576514680483 0 35.0 17.303576514680483 1
gene  1 14 4 -13.351259485691891 0 36.0 -13.351259485691891 1
gene  1 1 22 1.5131975557973707 0 74.0 1.5131975557973707 1
gene  1 22 12 -6.916824574627419 0 75.0 -6.916824574627419 1
gene  3 2 12 -0.11641642297695509 0 135.0 -0.11641642297695509 1
gene  1 4 12 6.948175719921505 0 784.0 6.948175719921505 1
gene  2 1 190 2.8563673927256374 0 924.0 2.8563673927256374 1
gene  1 190 14 15.577097801090185 0 925.0 15.577097801090185 1
gene  1 3 22 11.854652524198126 0 974.0 11.854652524198126 1
gene  1 190 22 -3.400695401436786 0 1021.0 -3.400695401436786 1
gene  3 2 22 1.0635347414602383 0 1148.0 1.0635347414602383 1
gene  1 190 12 -0.5974475579940643 0 1175.0 -0.5974475579940643 1
gene  1 22 14 -0.06818813390727363 0 1498.0 -0.06818813390727363 1
gene  3 3 14 2.1466424430168294 0 1526.0 2.1466424430168294 1
gene  2 2 14 -1.6188116962694188 0 1552.0 -1.6188116962694188 1
genomeend 23
/* Organism # 024 Fitness:  9,000 Error:  1,000                      */
genomestart  24
trait 1 0.0 0.2980083218285674 0.6146215069883705 0.0 0.48642945093834966 0.44555401132109973 0.0 0.0 
trait 2 0.0 1.1204007568616854 1.1172044103779508 0.0 0.0 0.0 0.6779028454363701 0.3632018802468182 
trait 3 0.3 0.2808502343399747 0.0 0.0 0.0 0.0 0.0 0.0 
node 1 1 1 1
node 2 2 1 1
node 3 1 1 3
node 4 2 0 2
node 12 1 0 0
node 14 1 0 0
node 22 2 0 0
node 190 1 0 0
gene  3 1 4 3.169517300951142 0 1.0 3.169517300951142 1
gene  2 2 4 -17.81094957863355 0 2.0 -17.81094957863355 1
gene  2 3 4 20.294677153444297 0 3.0 20.294677153444297 1
gene  1 1 12 -1.9351303100356474 0 25.0 -1.9351303100356474 1
gene  1 1 14 18.61024018812114 0 35.0 18.61024018812114 1
gene  1 14 4 -13.985811246825454 0 36.0 -13.985811246825454 1
gene  1 1 22 2.9069909588220835 0 74.0 2.9069909588220835 1
gene  1 22 12 -6.468835148689677 0 75.0 -6.468835148689677 1
gene  3 2 12 1.6569538060111024 0 135.0 1.6569538060111024 1
gene  1 4 12 6.705011674782183 0 784.0 6.705011674782183 1
gene  2 1 190 6.190893137460568 0 924.0 6.190893137460568 1
gene  1 190 14 15.774177688213014 0 925.0 15.774177688213014 1
gene  1 3 22 9.821437991120865 0 974.0 9.821437991120865 1
gene  1 190 22 -3.3445336993369494 0 1021.0 -3.3445336993369494 1
gene  3 2 22 1.570858548369538 0 1148.0 1.570858548369538 1
gene  1 190 12 0.054019943970690765 0 1175.0 0.054019943970690765 1
gene  1 22 14 3.098926626188767 0 1498.0 3.098926626188767 1
gene  3 3 14 -0.9309346782093303 0 1526.0 -0.9309346782093303 1
gene  2 2 14 -0.5466434843192458 0 1552.0 -0.5466434843192458 1
genomeend 24
/* Organism # 025 Fitness:  9,000 Error:  1,000                      */
genomestart  25
trait 1 0.0 0.2980083218285674 0.6146215069883705 0.0 0.48642945093834966 0.44555401132109973 0.0 0.0 
trait 2 0.0 1.1204007568616854 1.1172044103779508 0.0 0.0 0.0 0.6779028454363701 0.3632018802468182 
trait 3 0.3 0.2808502343399747 0.0 0.0 0.0 0.0 0.0 0.0 
node 1 1 1 1
node 2 2 1 1
node 3 1 1 3
node 4 2 0 2
node 12 1 0 0
node 14 1 0 0
node 22 2 0 0
node 190 1 0 0
gene  3 1 4 2.1609592196064176 0 1.0 2.1609592196064176 1
gene  2 2 4 -17.383881078625176 0 2.0 -17.383881078625176 1
gene  2 3 4 24.135802779089712 0 3.0 24.135802779089712 1
gene  1 1 12 -1.557450684991452 0 25.0 -1.557450684991452 1
gene  1 1 14 15.11882561082051 0 35.0 15.11882561082051 1
gene  1 14 4 -15.021932707505512 0 36.0 -15.021932707505512 1
gene  1 1 22 2.8234088230046797 0 74.0 2.8234088230046797 1
gene  1 22 12 -5.0313561070002315 0 75.0 -5.0313561070002315 1
gene  3 2 12 3.684254254751549 0 135.0 3.684254254751549 1
gene  1 4 12 3.636400272115968 0 784.0 3.636400272115968 1
gene  2 1 190 5.690078801292149 0 924.0 5.690078801292149 1
gene  1 190 14 11.53946584824859 0 925.0 11.53946584824859 1
gene  1 3 22 9.781168171960273 0 974.0 9.781168171960273 1
gene  1 190 22 -3.866862517925272 0 1021.0 -3.866862517925272 1
gene  3 2 22 1.0913268059662444 0 1148.0 1.0913268059662444 1
gene  1 190 12 3.225752556507706 0 1175.0 3.225752556507706 1
gene  1 22 14 2.8301611160170967 0 1498.0 2.8301611160170967 1
gene  3 3 14 -1.2444939802872157 0 1526.0 -1.2444939802872157 1
gene  2 2 14 -1.6188116962694188 0 1552.0 -1.6188116962694188 1
genomeend 25
/* Organism # 026 Fitness:  9,000 Error:  1,000                      */
genomestart  26
trait 1 0.0 0.2980083218285674 0.6146215069883705 0.0 0.48642945093834966 0.44555401132109973 0.0 0.0 
trait 2 0.0 1.1204007568616854 1.1172044103779508 0.0 0.0 0.0 0.6779028454363701 0.3632018802468182 
trait 3 0.3 0.2808502343399747 0.0 0.0 0.0 0.0 0.0 0.0 
node 1 1 1 1
node 2 2 1 1
node 3 1 1 3
node 4 2 0 2
node 12 1 0 0
node 14 1 0 0
node 22 2 0 0
node 190 1 0 0
gene  3 1 4 4.834497932287724 0 1.0 4.834497932287724 1
gene  2 2 4 -18.035165623893555 0 2.0 -18.035165623893555 1
gene  2 3 4 23.480769863496953 0 3.0 23.480769863496953 1
gene  1 1 12 -3.1100334908176674 0 25.0 -3.1100334908176674 1
gene  1 1 14 16.076690343743916 0 35.0 16.076690343743916 1
gene  1 14 4 -15.377910735573202 0 36.0 -15.377910735573202 1
gene  1 1 22 4.995025899355479 0 74.0 4.995025899355479 1
gene  1 22 12 -6.714106840279945 0 75.0 -6.714106840279945 1
gene  3 2 12 0.886968333092462 0 135.0 0.886968333092462 1
gene  1 4 12 4.894050204888437 0 784.0 4.894050204888437 1
gene  2 1 190 4.893214649061883 0 924.0 4.893214649061883 1
gene  1 190 14 15.572982927735858 0 925.0 15.572982927735858 1
gene  1 3 22 9.92377994088563 0 974.0 9.92377994088563 1
gene  1 190 22 -1.584281871022503 0 1021.0 -1.584281871022503 1
gene  3 2 22 0.3956906876950239 0 1148.0 0.3956906876950239 1
gene  1 190 12 0.957848444146457 0 1175.0 0.957848444146457 1
gene  1 22 14 1.410873965176491 0 1498.0 1.410873965176491 1
gene  3 3 14 -2.09920807353863 0 1526.0 -2.09920807353863 1
gene  2 2 14 -1.6188116962694188 0 1552.0 -1.6188116962694188 1
genomeend 26
/* Organism # 027 Fitness:  9,000 Error:  1,000                      */
genomestart  27
trait 1 0.0 0.2980083218285674 0.6146215069883705 0.0 0.48642945093834966 0.44555401132109973 0.0 0.0 
trait 2 0.0 1.1204007568616854 1.1172044103779508 0.0 0.0 0.0 0.6779028454363701 0.3632018802468182 
trait 3 0.3 0.2808502343399747 0.0 0.0 0.0 0.0 0.0 0.0 
node 1 2 1 1
node 2 2 1 1
node 3 1 1 3
node 4 2 0 2
node 12 1 0 0
node 14 1 0 0
node 22 2 0 0
node 190 1 0 0
gene  3 1 4 3.3596830902457038 0 1.0 3.3596830902457038 1
gene  2 2 4 -18.97230292957812 0 2.0 -18.97230292957812 1
gene  2 3 4 22.777196377258033 0 3.0 22.777196377258033 1
gene  1 1 12 -2.420269070543304 0 25.0 -2.420269070543304 1
gene  1 1 14 15.97683484256382 0 35.0 15.97683484256382 1
gene  1 14 4 -15.275228817935135 0 36.0 -15.275228817935135 1
gene  1 1 22 2.5360356337932766 0 74.0 2.5360356337932766 1
gene  1 22 12 -5.149210755596764 0 75.0 -5.149210755596764 1
gene  3 2 12 -0.3385090399736528 0 135.0 -0.3385090399736528 1
gene  1 4 12 4.657304599556644 0 784.0 4.657304599556644 1
gene  2 1 190 2.3870795961179163 0 924.0 2.3870795961179163 1
gene  1 190 14 15.691125144269947 0 925.0 15.691125144269947 1
gene  1 3 22 10.833319259502625 0 974.0 10.833319259502625 1
gene  1 190 22 -2.6314441765492056 0 1021.0 -2.6314441765492056 1
gene  3 2 22 1.7122820133155 0 1148.0 1.7122820133155 1
gene  1 190 12 0.715018317576629 0 1175.0 0.715018317576629 1
gene  1 22 14 1.410873965176491 0 1498.0 1.410873965176491 1
gene  3 3 14 0.936018030189506 0 1526.0 0.936018030189506 1
gene  2 2 14 -0.25296586047833663 0 1552.0 -0.25296586047833663 1
genomeend 27
/*-------------------------------------------------------------------*/
/* Species # 018         : (size= 005) (AvfFit= 9,000) (Age= 77,000)  */
/*-------------------------------------------------------------------*/
/* Organism # 028 Fitness:  9,000 Error:  1,000                      */
genomestart  28
trait 1 0.0 0.0 0.0 0.0 0.0 0.0 0.0 0.0 
trait 2 0.2 0.0 0.0 0.8767583579261666 0.0 0.2674280559566201 0.7022674847929224 0.9548943508089329 
trait 3 0.3 0.0 0.9053946977087478 0.0 0.0 0.0 0.4128931582109574 0.29423463743535494 
node 1 2 1 1
node 2 2 1 1
node 3 3 1 3
node 4 1 0 2
node 36 2 0 0
node 244 1 0 0
gene  2 1 4 -0.7850370177546968 0 1.0 -0.7850370177546968 1
gene  3 2 4 18.677786687866217 0 2.0 18.677786687866217 1
gene  3 3 4 32.05647112372555 0 3.0 32.05647112372555 1
gene  1 1 36 7.481084556184091 0 133.0 7.481084556184091 0
gene  1 36 4 -7.964960332752299 0 134.0 -7.964960332752299 1
gene  1 3 36 -0.2527239931969634 0 153.0 -0.2527239931969634 1
gene  2 2 36 2.241520040896756 0 201.0 2.241520040896756 1
gene  1 1 244 10.15652104658564 0 1176.0 10.15652104658564 1
gene  1 244 36 9.54733973767992 0 1177.0 9.54733973767992 1
gene  1 2 244 -3.6178180148843184 0 1403.0 -3.6178180148843184 1
gene  3 244 4 2.2309098526441944 0 1553.0 2.2309098526441944 1
genomeend 28
/* Organism # 029 Fitness:  9,000 Error:  1,000                      */
genomestart  29
trait 1 0.14682105716485538 0.6920684404657567 0.0 0.0 0.0 0.0 0.0 0.0 
trait 2 0.2 0.0 0.0 0.8767583579261666 0.0 0.2674280559566201 0.7022674847929224 0.9548943508089329 
trait 3 0.3 0.0 0.9053946977087478 0.0 0.0 0.0 0.4128931582109574 0.29423463743535494 
node 1 2 1 1
node 2 2 1 1
node 3 3 1 3
node 4 1 0 2
node 36 2 0 0
node 244 1 0 0
gene  2 1 4 -3.1927755778464766 0 1.0 -3.1927755778464766 1
gene  3 2 4 17.60920939184261 0 2.0 17.60920939184261 1
gene  3 3 4 29.970048138334757 0 3.0 29.970048138334757 1
gene  1 1 36 8.37111839434465 0 133.0 8.37111839434465 0
gene  2 36 4 -10.480507480062471 0 134.0 -10.480507480062471 1
gene  1 3 36 -0.21316505362220756 0 153.0 -0.21316505362220756 1
gene  2 2 36 3.28748485773237 0 201.0 3.28748485773237 1
gene  1 1 244 11.056036018477919 0 1176.0 11.056036018477919 1
gene  1 244 36 7.983701867302652 0 1177.0 7.983701867302652 1
gene  1 2 244 1.6532473489926278 0 1403.0 1.6532473489926278 1
gene  3 244 4 -0.02123550234684135 0 1553.0 -0.02123550234684135 1
genomeend 29
/* Organism # 030 Fitness:  9,000 Error:  1,000                      */
genomestart  30
trait 1 0.0 0.0 0.0 0.0 0.0 0.0 0.0 0.0 
trait 2 0.2 0.0 0.0 0.8767583579261666 0.0 0.2674280559566201 0.7022674847929224 0.9548943508089329 
trait 3 0.3 0.0 0.9053946977087478 0.0 0.0 0.0 0.4128931582109574 0.29423463743535494 
node 1 2 1 1
node 2 2 1 1
node 3 3 1 3
node 4 1 0 2
node 36 2 0 0
node 244 1 0 0
gene  2 1 4 -3.427621673440519 0 1.0 -3.427621673440519 1
gene  3 2 4 19.510062218483682 0 2.0 19.510062218483682 1
gene  3 3 4 28.801246830996224 0 3.0 28.801246830996224 1
gene  1 1 36 5.346835234204865 0 133.0 5.346835234204865 0
gene  1 36 4 -5.9959127228653575 0 134.0 -5.9959127228653575 1
gene  1 3 36 -1.7756718964674474 0 153.0 -1.7756718964674474 1
gene  2 2 36 3.855222970809939 0 201.0 3.855222970809939 1
gene  1 1 244 11.12051453383189 0 1176.0 11.12051453383189 1
gene  1 244 36 9.7655013269672 0 1177.0 9.7655013269672 1
gene  1 2 244 0.49893954207388486 0 1403.0 0.49893954207388486 1
gene  3 244 4 3.9557566079478272 0 1553.0 3.9557566079478272 1
genomeend 30
/* Organism # 031 Fitness:  9,000 Error:  1,000                      */
genomestart  31
trait 1 0.0 0.0 0.0 0.0 0.0 0.0 0.0 0.0 
trait 2 0.2 0.0 0.0 0.8767583579261666 0.0 0.2674280559566201 0.7022674847929224 0.9548943508089329 
trait 3 0.3 0.0 0.9053946977087478 0.0 0.0 0.0 0.4128931582109574 0.29423463743535494 
node 1 2 1 1
node 2 2 1 1
node 3 3 1 3
node 4 1 0 2
node 36 2 0 0
node 244 1 0 0
gene  2 1 4 1.1147865020427696 0 1.0 1.1147865020427696 1
gene  3 2 4 18.952185537133886 0 2.0 18.952185537133886 1
gene  3 3 4 31.06143771654817 0 3.0 31.06143771654817 1
gene  1 1 36 4.245858221033904 0 133.0 4.245858221033904 0
gene  1 36 4 -9.451920967790384 0 134.0 -9.451920967790384 1
gene  1 3 36 -0.22762280589681788 0 153.0 -0.22762280589681788 1
gene  2 2 36 4.403025029643631 0 201.0 4.403025029643631 1
gene  1 1 244 11.260916297086146 0 1176.0 11.260916297086146 1
gene  1 244 36 7.874776525709369 0 1177.0 7.874776525709369 1
gene  1 2 244 1.1556443120399205 0 1403.0 1.1556443120399205 1
gene  3 244 4 1.27433753214614 0 1553.0 1.27433753214614 1
genomeend 31
/* Organism # 032 Fitness:  9,000 Error:  1,000                      */
genomestart  32
trait 1 0.0 0.0 0.0 0.0 0.0 0.0 0.0 0.0 
trait 2 0.2 0.0 0.0 0.8767583579261666 0.0 0.2674280559566201 0.7022674847929224 0.9548943508089329 
trait 3 0.3 0.0 0.9053946977087478 0.0 0.0 0.0 0.4128931582109574 0.29423463743535494 
node 1 2 1 1
node 2 2 1 1
node 3 3 1 3
node 4 1 0 2
node 36 2 0 0
node 244 1 0 0
gene  2 1 4 -0.4240031764748273 0 1.0 -0.4240031764748273 1
gene  3 2 4 19.929570057058097 0 2.0 19.929570057058097 1
gene  3 3 4 30.635194114330226 0 3.0 30.635194114330226 1
gene  1 1 36 6.223895296868772 0 133.0 6.223895296868772 0
gene  1 36 4 -6.938813689539593 0 134.0 -6.938813689539593 1
gene  1 3 36 0.14189724477597404 0 153.0 0.14189724477597404 1
gene  2 2 36 0.42927388137792954 0 201.0 0.42927388137792954 1
gene  1 1 244 13.238188173850153 0 1176.0 13.238188173850153 1
gene  1 244 36 8.131943203440205 0 1177.0 8.131943203440205 1
gene  1 2 244 -5.607354606253001 0 1403.0 -5.607354606253001 1
gene  3 244 4 0.9296509646427 0 1553.0 0.9296509646427 1
genomeend 32
/*-------------------------------------------------------------------*/
/* Species # 020         : (size= 003) (AvfFit= 5,928) (Age= 75,000)  */
/*-------------------------------------------------------------------*/
/* Organism # 033 Fitness:  4,000 Error:  2,000                      */
genomestart  33
trait 1 0.053125000000000006 0.4047272515755067 0.0 0.9208890756846675 0.513019520848363 1.3301646237021116 0.0 0.0 
trait 2 0.8497951596015216 0.0 0.0 0.0 0.0 1.1261092808001494 0.0 0.0 
trait 3 0.16095373577986377 0.0 0.0 0.0 0.0 0.0 0.5268393200346156 0.0 
node 1 2 1 1
node 2 1 1 1
node 3 1 1 3
node 4 3 0 2
node 14 2 0 0
node 43 2 0 0
node 213 1 0 0
gene  1 1 4 -1.2058285049454813 0 1.0 -1.2058285049454813 0
gene  2 2 4 -1.4848913114394426 0 2.0 -1.4848913114394426 1
gene  3 3 4 -2.261254988916185 0 3.0 -2.261254988916185 1
gene  1 1 14 14.100516844660682 0 35.0 14.100516844660682 1
gene  1 14 4 -2.306562066134377 0 36.0 -2.306562066134377 1
gene  1 2 14 0.11543677106129313 0 149.0 0.11543677106129313 1
gene  1 1 43 -2.467406755668893 0 175.0 -2.467406755668893 1
gene  2 43 14 0.9805465351578729 0 176.0 0.9805465351578729 1
gene  1 3 43 -7.226437188287803 0 469.0 -7.226437188287803 1
gene  3 3 14 2.0468655791652854 0 689.0 2.0468655791652854 1
gene  2 43 4 -14.717735482707193 0 803.0 -14.717735482707193 1
gene  2 2 43 -10.384390165655741 0 900.0 -10.384390165655741 1
gene  3 1 213 -9.74482201471201 0 1030.0 -9.74482201471201 1
gene  1 213 4 2.6396316051397783 0 1031.0 2.6396316051397783 1
gene  2 43 213 4.870975051728245 0 1118.0 4.870975051728245 1
gene  1 3 213 -3.9237358339409107 0 1367.0 -3.9237358339409107 1
gene  3 14 213 9.234098445810844 0 1492.0 9.234098445810844 1
gene  2 2 213 -7.197710125104679 0 1522.0 -7.197710125104679 1
genomeend 33
/* Organism # 034 Fitness:  4,784 Error:  1,813                      */
genomestart  34
trait 1 0.053125000000000006 0.4047272515755067 0.0 0.9208890756846675 0.513019520848363 1.3301646237021116 0.0 0.0 
trait 2 0.8497951596015216 0.0 0.0 0.0 0.0 1.1261092808001494 0.0 0.0 
trait 3 0.16095373577986377 0.0 0.0 0.0 0.0 0.0 0.5268393200346156 0.0 
node 1 2 1 1
node 2 1 1 1
node 3 1 1 3
node 4 3 0 2
node 14 2 0 0
node 43 2 0 0
node 213 1 0 0
gene  1 1 4 1.743110170731644 0 1.0 1.743110170731644 0
gene  2 2 4 -0.11680581947133195 0 2.0 -0.11680581947133195 1
gene  3 3 4 -0.1455931812648663 0 3.0 -0.1455931812648663 1
gene  1 1 14 16.49140407743162 0 35.0 16.49140407743162 1
gene  1 14 4 3.1419002069593747 0 36.0 3.1419002069593747 1
gene  1 2 14 -1.1441632759568903 0 149.0 -1.1441632759568903 1
gene  1 1 43 -0.27656977845848496 0 175.0 -0.27656977845848496 1
gene  2 43 14 -3.3240616460941563 0 176.0 -3.3240616460941563 1
gene  1 3 43 -7.796872382822953 0 469.0 -7.796872382822953 1
gene  3 3 14 -0.5537924769172484 0 689.0 -0.5537924769172484 1
gene  2 43 4 -13.944757849834152 0 803.0 -13.944757849834152 1
gene  2 2 43 -8.78777081215655 0 900.0 -8.78777081215655 1
gene  1 1 213 -10.726587683424958 0 1030.0 -10.726587683424958 1
gene  1 213 4 5.928761872568179 0 1031.0 5.928761872568179 1
gene  2 43 213 2.416732340572749 0 1118.0 2.416732340572749 1
gene  1 3 213 -0.7946710429034202 0 1367.0 -0.7946710429034202 1
gene  3 14 213 7.432258565213329 0 1492.0 7.432258565213329 1
gene  2 2 213 -9.36662019730959 0 1522.0 -9.36662019730959 1
genomeend 34
/* Organism # 035 Fitness:  9,000 Error:  1,000                      */
genomestart  35
trait 1 0.053125000000000006 0.4047272515755067 0.0 0.9208890756846675 0.513019520848363 1.3301646237021116 0.0 0.0 
trait 2 0.8497951596015216 0.0 0.0 0.0 0.0 1.1261092808001494 0.0 0.0 
trait 3 0.16095373577986377 0.0 0.0 0.0 0.0 0.0 0.5268393200346156 0.0 
node 1 2 1 1
node 2 1 1 1
node 3 1 1 3
node 4 3 0 2
node 14 2 0 0
node 43 2 0 0
node 213 1 0 0
gene  1 1 4 -2.376296550752998 0 1.0 -2.376296550752998 0
gene  2 2 4 -0.765521904176967 0 2.0 -0.765521904176967 1
gene  3 3 4 0.5438915885281057 0 3.0 0.5438915885281057 1
gene  1 1 14 14.952500055495893 0 35.0 14.952500055495893 1
gene  1 14 4 4.336584598880173 0 36.0 4.336584598880173 1
gene  1 2 14 0.7781297144770203 0 149.0 0.7781297144770203 1
gene  1 1 43 0.6482006129341272 0 175.0 0.6482006129341272 1
gene  2 43 14 -4.220311862192055 0 176.0 -4.220311862192055 1
gene  1 3 43 -6.850708608292229 0 469.0 -6.850708608292229 1
gene  3 3 14 -0.5537924769172484 0 689.0 -0.5537924769172484 1
gene  2 43 4 -13.154582278829363 0 803.0 -13.154582278829363 1
gene  2 2 43 -10.443911385517401 0 900.0 -10.443911385517401 1
gene  1 1 213 -8.625858868692655 0 1030.0 -8.625858868692655 1
gene  1 213 4 3.5795575991482296 0 1031.0 3.5795575991482296 1
gene  2 43 213 2.3821615033692893 0 1118.0 2.3821615033692893 1
gene  1 3 213 -1.4796038494490114 0 1367.0 -1.4796038494490114 1
gene  3 14 213 7.410350614753476 0 1492.0 7.410350614753476 1
gene  2 2 213 -7.050196475537247 0 1522.0 -7.050196475537247 1
genomeend 35
/*-------------------------------------------------------------------*/
/* Species # 023         : (size= 005) (AvfFit= 6,999) (Age= 74,000)  */
/*-------------------------------------------------------------------*/
/* Organism # 036 Fitness:  4,000 Error:  2,000                      */
genomestart  36
trait 1 0.0 0.0 0.0 0.0 0.0 0.41117422329314635 0.4231433452503337 0.0 
trait 2 0.1 0.0 0.2745656836152613 0.0 0.0 0.0 0.4434326801698363 0.0 
trait 3 0.5555593564207726 0.8631788603424162 1.425861272003624 0.20013252963922956 0.27478525958130695 1.0225649362153018 0.15957214052931046 1.7095317092291733 
node 1 2 1 1
node 2 1 1 1
node 3 1 1 3
node 4 1 0 2
node 12 1 0 0
node 14 1 0 0
node 15 2 0 0
node 48 3 0 0
node 135 1 0 0
node 334 1 0 0
gene  2 1 4 -9.986490849528487 0 1.0 -9.986490849528487 1
gene  2 2 4 1.6907041930480193 0 2.0 1.6907041930480193 1
gene  3 3 4 22.851545625273147 0 3.0 22.851545625273147 1
gene  1 1 14 4.740376426966678 0 35.0 4.740376426966678 1
gene  1 14 4 -4.0039438970223955 0 36.0 -4.0039438970223955 1
gene  1 1 15 -0.7174468350781793 0 40.0 -0.7174468350781793 0
gene  2 15 12 -0.1268242148113896 0 41.0 -0.1268242148113896 1
gene  3 3 15 -2.019649649929502 0 92.0 -2.019649649929502 1
gene  1 12 14 2.0092104158206605 0 141.0 2.0092104158206605 1
gene  2 2 48 1.325693913086657 0 196.0 1.325693913086657 1
gene  2 48 4 0.3038072780135351 0 197.0 0.3038072780135351 1
gene  3 1 12 4.411542149867144 0 535.0 4.411542149867144 1
gene  2 48 12 1.5643685149322575 0 591.0 1.5643685149322575 1
gene  1 1 135 1.3956990178432855 0 630.0 1.3956990178432855 1
gene  1 135 14 -2.740099198270757 0 631.0 -2.740099198270757 1
gene  2 135 15 -1.7704730547668672 0 829.0 -1.7704730547668672 1
gene  3 135 48 -8.535728943390705 0 867.0 -8.535728943390705 1
gene  1 2 15 -6.846675439974495 0 963.0 -6.846675439974495 1
gene  3 2 14 -2.27431785558532 0 975.0 -2.27431785558532 1
gene  2 2 12 4.354645868972378 0 1237.0 4.354645868972378 1
gene  1 15 4 3.7331249347675017 0 1500.0 3.7331249347675017 1
gene  1 1 334 0.07554652899179048 0 1550.0 0.07554652899179048 1
gene  1 334 15 -1.4431307205650108 0 1551.0 -1.4431307205650108 1
gene  2 48 334 3.2969572833647347 0 1632.0 3.2969572833647347 1
genomeend 36
/* Organism # 037 Fitness:  9,000 Error:  1,000                      */
genomestart  37
trait 1 0.0 0.0 0.0 0.0 0.0 0.41117422329314635 0.4231433452503337 0.0 
trait 2 0.1 0.0 0.2745656836152613 0.0 0.0 0.0 0.4434326801698363 0.0 
trait 3 0.5555593564207726 0.8631788603424162 1.425861272003624 0.20013252963922956 0.27478525958130695 1.0225649362153018 0.15957214052931046 1.7095317092291733 
node 1 2 1 1
node 2 1 1 1
node 3 1 1 3
node 4 1 0 2
node 12 1 0 0
node 14 1 0 0
node 15 2 0 0
node 48 3 0 0
node 135 1 0 0
node 334 1 0 0
gene  2 1 4 -10.918446431704297 0 1.0 -10.918446431704297 1
gene  2 2 4 -37.91131357594499 0 2.0 -37.91131357594499 1
gene  3 3 4 21.23662082312015 0 3.0 21.23662082312015 1
gene  1 1 14 7.015719200712635 0 35.0 7.015719200712635 1
gene  1 14 4 -1.5183355209626175 0 36.0 -1.5183355209626175 1
gene  1 1 15 -3.2054533157032568 0 40.0 -3.2054533157032568 0
gene  2 15 12 0.16929514252782107 0 41.0 0.16929514252782107 1
gene  3 3 15 -3.387097488881558 0 92.0 -3.387097488881558 1
gene  1 12 14 -0.3184597958151657 0 141.0 -0.3184597958151657 1
gene  2 2 48 1.325693913086657 0 196.0 1.325693913086657 1
gene  2 48 4 -1.0724983743649261 0 197.0 -1.0724983743649261 1
gene  3 1 12 3.8872961611449286 0 535.0 3.8872961611449286 1
gene  2 48 12 1.9752848699398355 0 591.0 1.9752848699398355 1
gene  1 1 135 3.883211081089546 0 630.0 3.883211081089546 1
gene  1 135 14 -1.2620480350041543 0 631.0 -1.2620480350041543 1
gene  2 135 15 -3.3722119907710164 0 829.0 -3.3722119907710164 1
gene  3 135 48 -8.535728943390705 0 867.0 -8.535728943390705 1
gene  1 2 15 -5.65851477690069 0 963.0 -5.65851477690069 1
gene  3 2 14 -3.1574107539121794 0 975.0 -3.1574107539121794 1
gene  2 2 12 2.073188676283598 0 1237.0 2.073188676283598 1
gene  1 15 4 5.810548137191255 0 1500.0 5.810548137191255 1
gene  1 1 334 -1.8973766065541224 0 1550.0 -1.8973766065541224 1
gene  1 334 15 0.8953846500940208 0 1551.0 0.8953846500940208 1
gene  2 48 334 5.549384389220133 0 1632.0 5.549384389220133 1
gene  3 135 4 -1.619846170213376 0 1649.0 -1.619846170213376 1
genomeend 37
/* Organism # 038 Fitness:  8,995 Error:  1,001                      */
genomestart  38
trait 1 0.0 0.0 0.0 0.0 0.0 0.41117422329314635 0.4231433452503337 0.0 
trait 2 0.1 0.0 0.2745656836152613 0.0 0.0 0.0 0.4434326801698363 0.0 
trait 3 0.5555593564207726 0.8631788603424162 1.425861272003624 0.20013252963922956 0.27478525958130695 1.0225649362153018 0.15957214052931046 1.7095317092291733 
node 1 2 1 1
node 2 1 1 1
node 3 1 1 3
node 4 1 0 2
node 12 1 0 0
node 14 1 0 0
node 15 2 0 0
node 48 3 0 0
node 135 1 0 0
node 334 1 0 0
gene  2 1 4 1.2659646872128374 0 1.0 1.2659646872128374 1
gene  2 2 4 -39.01297002492584 0 2.0 -39.01297002492584 1
gene  3 3 4 18.741597178435338 0 3.0 18.741597178435338 1
gene  1 1 14 5.66710968518446 0 35.0 5.66710968518446 1
gene  1 14 4 -1.2759416712191878 0 36.0 -1.2759416712191878 1
gene  1 1 15 -4.7351685586575325 0 40.0 -4.7351685586575325 0
gene  2 15 12 0.48793752382957883 0 41.0 0.48793752382957883 1
gene  3 3 15 -2.700833279991853 0 92.0 -2.700833279991853 1
gene  1 12 14 2.4189884768167196 0 141.0 2.4189884768167196 1
gene  2 2 48 -0.8841237039984586 0 196.0 -0.8841237039984586 1
gene  2 48 4 -2.925431763629277 0 197.0 -2.925431763629277 1
gene  3 1 12 1.2162361735750915 0 535.0 1.2162361735750915 1
gene  2 48 12 1.9023597482116394 0 591.0 1.9023597482116394 1
gene  1 1 135 -2.661506513154544 0 630.0 -2.661506513154544 1
gene  1 135 14 -2.3472428562570564 0 631.0 -2.3472428562570564 1
gene  2 135 15 0.4587850930880424 0 829.0 0.4587850930880424 1
gene  3 135 48 -2.688311549019363 0 867.0 -2.688311549019363 1
gene  1 2 15 -3.776546361026285 0 963.0 -3.776546361026285 1
gene  3 2 14 -1.7632161602011325 0 975.0 -1.7632161602011325 1
gene  2 2 12 2.8592106552895773 0 1237.0 2.8592106552895773 1
gene  1 15 4 0.5722098682739257 0 1500.0 0.5722098682739257 1
gene  1 1 334 -0.05256659695526933 0 1550.0 -0.05256659695526933 1
gene  1 334 15 -1.0869508250617859 0 1551.0 -1.0869508250617859 1
genomeend 38
/* Organism # 039 Fitness:  4,000 Error:  2,000                      */
genomestart  39
trait 1 0.0 0.0 0.0 0.0 0.0 0.41117422329314635 0.4231433452503337 0.0 
trait 2 0.1 0.0 0.2745656836152613 0.0 0.0 0.0 0.4434326801698363 0.0 
trait 3 0.5555593564207726 0.8631788603424162 1.425861272003624 0.20013252963922956 0.27478525958130695 1.0225649362153018 0.15957214052931046 1.7095317092291733 
node 1 2 1 1
node 2 1 1 1
node 3 1 1 3
node 4 1 0 2
node 12 1 0 0
node 14 1 0 0
node 15 2 0 0
node 48 3 0 0
node 135 1 0 0
node 334 1 0 0
gene  2 1 4 0.8487656232871668 0 1.0 0.8487656232871668 1
gene  2 2 4 -38.392873079457345 0 2.0 -38.392873079457345 1
gene  3 3 4 1.229807143981473 0 3.0 1.229807143981473 1
gene  1 1 14 4.3015353200245245 0 35.0 4.3015353200245245 1
gene  1 14 4 0.9129391569861584 0 36.0 0.9129391569861584 1
gene  1 1 15 -5.040586882140175 0 40.0 -5.040586882140175 0
gene  2 15 12 1.6345156614358283 0 41.0 1.6345156614358283 1
gene  3 3 15 -2.6524322728163585 0 92.0 -2.6524322728163585 1
gene  1 12 14 -0.7586106787593722 0 141.0 -0.7586106787593722 1
gene  2 2 48 1.325693913086657 0 196.0 1.325693913086657 1
gene  2 48 4 2.098129835950741 0 197.0 2.098129835950741 1
gene  3 1 12 0.8383117878922108 0 535.0 0.8383117878922108 1
gene  2 48 12 1.5298185473587846 0 591.0 1.5298185473587846 1
gene  1 1 135 -1.0012892013154404 0 630.0 -1.0012892013154404 1
gene  1 135 14 -2.725610478046622 0 631.0 -2.725610478046622 1
gene  2 135 15 -0.06949764224822763 0 829.0 -0.06949764224822763 1
gene  3 135 48 0.35033783776987015 0 867.0 0.35033783776987015 1
gene  1 2 15 -6.221636624713037 0 963.0 -6.221636624713037 1
gene  3 2 14 -1.2805962472313301 0 975.0 -1.2805962472313301 1
gene  2 2 12 1.5169900128891918 0 1237.0 1.5169900128891918 1
gene  1 15 4 5.3412705825503775 0 1500.0 5.3412705825503775 1
gene  1 1 334 -0.9058425419703746 0 1550.0 -0.9058425419703746 1
gene  1 334 15 0.3534922713334274 0 1551.0 0.3534922713334274 1
genomeend 39
/* Organism # 040 Fitness:  9,000 Error:  1,000                      */
genomestart  40
trait 1 0.0 0.0 0.0 0.0 0.0 0.41117422329314635 0.4231433452503337 0.0 
trait 2 0.1 0.0 0.2745656836152613 0.0 0.0 0.0 0.4434326801698363 0.0 
trait 3 0.5555593564207726 0.8631788603424162 1.425861272003624 0.20013252963922956 0.27478525958130695 1.0225649362153018 0.15957214052931046 1.7095317092291733 
node 1 2 1 1
node 2 1 1 1
node 3 1 1 3
node 4 1 0 2
node 12 1 0 0
node 14 1 0 0
node 15 2 0 0
node 48 3 0 0
node 135 1 0 0
node 334 1 0 0
gene  2 1 4 -11.84908076804329 0 1.0 -11.84908076804329 1
gene  2 2 4 -35.71802792262966 0 2.0 -35.71802792262966 1
gene  3 3 4 20.18844878957784 0 3.0 20.18844878957784 1
gene  1 1 14 5.109663572009704 0 35.0 5.109663572009704 1
gene  1 14 4 -0.09408667075073907 0 36.0 -0.09408667075073907 1
gene  1 1 15 -7.124097376165762 0 40.0 -7.124097376165762 0
gene  2 15 12 -0.6402836632427528 0 41.0 -0.6402836632427528 1
gene  3 3 15 -4.646275477677188 0 92.0 -4.646275477677188 1
gene  1 12 14 -1.0427586085139833 0 141.0 -1.0427586085139833 1
gene  2 2 48 0.7751808675545964 0 196.0 0.7751808675545964 1
gene  2 48 4 0.6527731439941702 0 197.0 0.6527731439941702 1
gene  3 1 12 0.15037519317684866 0 535.0 0.15037519317684866 1
gene  2 48 12 1.458861952733428 0 591.0 1.458861952733428 1
gene  1 1 135 -0.3898594030033556 0 630.0 -0.3898594030033556 1
gene  1 135 14 -3.3228202400552256 0 631.0 -3.3228202400552256 1
gene  2 135 15 -1.9527892917777656 0 829.0 -1.9527892917777656 1
gene  3 135 48 -3.855603809103104 0 867.0 -3.855603809103104 1
gene  1 2 15 -6.4485284812681 0 963.0 -6.4485284812681 1
gene  3 2 14 -3.3403639635588656 0 975.0 -3.3403639635588656 1
gene  2 2 12 0.9745299030947328 0 1237.0 0.9745299030947328 1
gene  1 15 4 4.737918208925298 0 1500.0 4.737918208925298 1
gene  1 1 334 -1.891692042102905 0 1550.0 -1.891692042102905 1
gene  1 334 15 3.399350898946091 0 1551.0 3.399350898946091 1
genomeend 40
/*-------------------------------------------------------------------*/
/* Species # 025         : (size= 004) (AvfFit= 8,962) (Age= 73,000)  */
/*-------------------------------------------------------------------*/
/* Organism # 041 Fitness:  9,000 Error:  1,000                      */
genomestart  41
trait 1 1.0588996554011378 0.3356208514483948 0.0 0.0 0.01021803802828668 0.3549359367826768 0.0 0.0018338841161459108 
trait 2 0.2 0.0 0.0 0.0 0.0 0.0 0.0 0.0 
trait 3 0.0 0.440690988740321 0.0 0.01552558161925266 1.1307863304468155 0.0 0.0 0.0 
node 1 2 1 1
node 2 2 1 1
node 3 2 1 3
node 4 1 0 2
node 5 2 0 0
node 45 3 0 0
node 91 1 0 0
node 177 1 0 0
node 245 1 0 0
node 356 1 0 0
gene  1 1 4 -4.217332043601562 0 1.0 -4.217332043601562 1
gene  2 2 4 10.90700604824406 0 2.0 10.90700604824406 1
gene  2 3 4 -23.31171511908869 0 3.0 -23.31171511908869 1
gene  2 1 5 0.43875007764841456 0 4.0 0.43875007764841456 1
gene  2 5 4 4.345997792564349 0 5.0 4.345997792564349 1
gene  3 2 5 -9.189598950556972 0 8.0 -9.189598950556972 1
gene  1 3 5 12.14523650934845 0 152.0 12.14523650934845 1
gene  1 2 45 0.4245115046962321 0 180.0 0.4245115046962321 1
gene  2 45 4 -8.07658904093263 0 181.0 -8.07658904093263 1
gene  1 1 91 -1.9059841187500075 0 420.0 -1.9059841187500075 1
gene  1 91 5 3.3189832006465156 0 421.0 3.3189832006465156 0
gene  2 2 177 -3.695014484642458 0 854.0 -3.695014484642458 1
gene  2 177 4 -5.13182569718425 0 855.0 -5.13182569718425 1
gene  2 177 91 0.12978214584126557 0 904.0 0.12978214584126557 1
gene  3 177 45 -8.909423144615097 0 968.0 -8.909423144615097 0
gene  3 177 245 -0.8564172755427144 0 1178.0 -0.8564172755427144 1
gene  3 245 45 -3.349245354475097 0 1179.0 -3.349245354475097 1
gene  3 2 245 0.5825777807041741 0 1272.0 0.5825777807041741 1
gene  3 177 5 -2.1198213498932867 0 1392.0 -2.1198213498932867 1
gene  1 245 5 7.815718834041452 0 1436.0 7.815718834041452 1
gene  3 91 245 0.9032405451490519 0 1584.0 0.9032405451490519 1
gene  1 91 356 1.0 0 1639.0 1.0 1
gene  1 356 5 3.6370241242141343 0 1640.0 3.6370241242141343 1
genomeend 41
/* Organism # 042 Fitness:  9,000 Error:  1,000                      */
genomestart  42
trait 1 1.0588996554011378 0.3356208514483948 0.0 0.0 0.01021803802828668 0.3549359367826768 0.0 0.0018338841161459108 
trait 2 0.2 0.0 0.0 0.0 0.0 0.0 0.0 0.0 
trait 3 0.0 0.440690988740321 0.0 0.01552558161925266 1.1307863304468155 0.0 0.0 0.0 
node 1 2 1 1
node 2 2 1 1
node 3 2 1 3
node 4 1 0 2
node 5 2 0 0
node 45 3 0 0
node 91 1 0 0
node 177 1 0 0
node 245 1 0 0
node 356 1 0 0
gene  1 1 4 -3.4129531573181513 0 1.0 -3.4129531573181513 1
gene  2 2 4 6.749057045405526 0 2.0 6.749057045405526 1
gene  2 3 4 -22.520656097770527 0 3.0 -22.520656097770527 1
gene  2 1 5 -2.1768276946654717 0 4.0 -2.1768276946654717 1
gene  2 5 4 2.3053123177508867 0 5.0 2.3053123177508867 1
gene  3 2 5 -11.719908757019804 0 8.0 -11.719908757019804 1
gene  1 3 5 12.28807107560641 0 152.0 12.28807107560641 1
gene  1 2 45 0.309819061167078 0 180.0 0.309819061167078 1
gene  2 45 4 -5.605656484018175 0 181.0 -5.605656484018175 1
gene  1 1 91 -1.8523450183467842 0 420.0 -1.8523450183467842 1
gene  1 91 5 6.807805180023717 0 421.0 6.807805180023717 0
gene  2 2 177 -5.6167137648176855 0 854.0 -5.6167137648176855 1
gene  2 177 4 -6.405062207162744 0 855.0 -6.405062207162744 1
gene  2 177 91 -1.5077070174267282 0 904.0 -1.5077070174267282 1
gene  3 177 45 -10.015083916227237 0 968.0 -10.015083916227237 0
gene  3 177 245 0.02955640808065474 0 1178.0 0.02955640808065474 1
gene  3 245 45 -5.28294682137116 0 1179.0 -5.28294682137116 1
gene  3 2 245 1.6074751574599242 0 1272.0 1.6074751574599242 1
gene  3 177 5 -0.8793077330978498 0 1392.0 -0.8793077330978498 1
gene  1 245 5 -0.41667936460687865 0 1436.0 -0.41667936460687865 1
gene  3 91 245 -10.403483300394585 0 1584.0 -10.403483300394585 1
gene  1 91 356 0.8714681396710857 0 1639.0 0.8714681396710857 1
gene  1 356 5 -0.9675974107042364 0 1640.0 -0.9675974107042364 1
genomeend 42
/* Organism # 043 Fitness:  8,848 Error:  1,025                      */
genomestart  43
trait 1 1.0588996554011378 0.3356208514483948 0.0 0.0 0.01021803802828668 0.3549359367826768 0.0 0.0018338841161459108 
trait 2 0.2 0.0 0.0 0.0 0.0 0.0 0.0 0.0 
trait 3 0.0 0.440690988740321 0.0 0.01552558161925266 1.1307863304468155 0.0 0.0 0.0 
node 1 2 1 1
node 2 2 1 1
node 3 2 1 3
node 4 1 0 2
node 5 2 0 0
node 45 3 0 0
node 91 1 0 0
node 177 1 0 0
node 245 1 0 0
node 356 1 0 0
gene  1 1 4 -4.501641677794299 0 1.0 -4.501641677794299 1
gene  2 2 4 10.334921933684281 0 2.0 10.334921933684281 1
gene  2 3 4 -22.42383496025485 0 3.0 -22.42383496025485 1
gene  2 1 5 -3.4676325284232554 0 4.0 -3.4676325284232554 1
gene  2 5 4 2.9626907156363305 0 5.0 2.9626907156363305 1
gene  3 2 5 -13.031574618588198 0 8.0 -13.031574618588198 1
gene  1 3 5 0.2212357292840461 0 152.0 0.2212357292840461 1
gene  1 2 45 1.1776714826271446 0 180.0 1.1776714826271446 1
gene  2 45 4 -5.092403511104992 0 181.0 -5.092403511104992 1
gene  1 1 91 -2.591876318735114 0 420.0 -2.591876318735114 1
gene  1 91 5 7.1471685212159315 0 421.0 7.1471685212159315 0
gene  2 2 177 -5.647899332310859 0 854.0 -5.647899332310859 1
gene  2 177 4 -6.619778267152094 0 855.0 -6.619778267152094 1
gene  2 177 91 -1.9003537549271179 0 904.0 -1.9003537549271179 1
gene  3 177 45 -7.411210436992736 0 968.0 -7.411210436992736 0
gene  3 177 245 0.45401014930505257 0 1178.0 0.45401014930505257 1
gene  3 245 45 1.4920751989716383 0 1179.0 1.4920751989716383 1
gene  3 2 245 0.7615318737866428 0 1272.0 0.7615318737866428 1
gene  3 177 5 -2.968888324587493 0 1392.0 -2.968888324587493 1
gene  1 245 5 4.549828060313837 0 1436.0 4.549828060313837 1
gene  3 91 245 -12.632717918800076 0 1584.0 -12.632717918800076 1
gene  1 91 356 2.507852117497956 0 1639.0 2.507852117497956 1
gene  1 356 5 4.275926562704341 0 1640.0 4.275926562704341 1
genomeend 43
/* Organism # 044 Fitness:  9,000 Error:  1,000                      */
genomestart  44
trait 1 1.0588996554011378 0.3356208514483948 0.0 0.0 0.01021803802828668 0.3549359367826768 0.0 0.0018338841161459108 
trait 2 0.2 0.0 0.0 0.0 0.0 0.0 0.0 0.0 
trait 3 0.0 0.440690988740321 0.0 0.01552558161925266 1.1307863304468155 0.0 0.0 0.0 
node 1 2 1 1
node 2 2 1 1
node 3 2 1 3
node 4 1 0 2
node 5 2 0 0
node 45 3 0 0
node 91 1 0 0
node 177 1 0 0
node 245 1 0 0
node 356 1 0 0
gene  1 1 4 -4.135999397856858 0 1.0 -4.135999397856858 1
gene  2 2 4 10.088451346275196 0 2.0 10.088451346275196 1
gene  2 3 4 -23.55019261516563 0 3.0 -23.55019261516563 1
gene  2 1 5 -3.9046212450854916 0 4.0 -3.9046212450854916 1
gene  2 5 4 4.234765361886721 0 5.0 4.234765361886721 1
gene  3 2 5 -12.25863266239626 0 8.0 -12.25863266239626 1
gene  1 3 5 14.541123836340553 0 152.0 14.541123836340553 1
gene  1 2 45 0.048069642672694146 0 180.0 0.048069642672694146 1
gene  2 45 4 -6.3511857179301145 0 181.0 -6.3511857179301145 1
gene  1 1 91 -1.4522974174048868 0 420.0 -1.4522974174048868 1
gene  1 91 5 3.318024917996813 0 421.0 3.318024917996813 0
gene  2 2 177 -3.6724918241594606 0 854.0 -3.6724918241594606 1
gene  2 177 4 -7.267435124866424 0 855.0 -7.267435124866424 1
gene  2 177 91 -0.34696102691838404 0 904.0 -0.34696102691838404 1
gene  3 177 45 -8.324748715008496 0 968.0 -8.324748715008496 0
gene  3 177 245 0.5710135397207476 0 1178.0 0.5710135397207476 1
gene  3 245 45 -2.8975048186361523 0 1179.0 -2.8975048186361523 1
gene  3 2 245 -0.39062349598496526 0 1272.0 -0.39062349598496526 1
gene  3 177 5 -1.0538291370117816 0 1392.0 -1.0538291370117816 1
gene  1 245 5 -1.6595245077165752 0 1436.0 -1.6595245077165752 1
gene  3 91 245 -11.825285636042818 0 1584.0 -11.825285636042818 1
gene  1 91 356 -0.3660617644776287 0 1639.0 -0.3660617644776287 1
gene  1 356 5 5.330920901804117 0 1640.0 5.330920901804117 1
genomeend 44
/*-------------------------------------------------------------------*/
/* Species # 026         : (size= 004) (AvfFit= 7,800) (Age= 72,000)  */
/*-------------------------------------------------------------------*/
/* Organism # 045 Fitness:  9,000 Error:  1,000                      */
genomestart  45
trait 1 0.41721767885986527 0.0 0.13050862263275698 0.0 1.6387170269188807 0.0 0.0 0.0 
trait 2 0.2 0.0 0.0 0.0 0.0 0.0 0.0 0.0 
trait 3 0.7778424986849753 0.0 0.0 0.0 0.03096076790291158 0.7900056804653431 0.0 0.0 
node 1 1 1 1
node 2 3 1 1
node 3 2 1 3
node 4 1 0 2
node 14 1 0 0
node 86 1 0 0
node 230 1 0 0
gene  1 1 4 4.981149551885174 0 1.0 4.981149551885174 1
gene  3 2 4 13.404269668744268 0 2.0 13.404269668744268 0
gene  3 3 4 -0.18180625568650388 0 3.0 -0.18180625568650388 1
gene  1 1 14 -1.6221922610170514 0 35.0 -1.6221922610170514 0
gene  2 14 4 -37.5494557543285 0 36.0 -37.5494557543285 1
gene  1 2 14 -0.4089766944855273 0 210.0 -0.4089766944855273 1
gene  1 1 86 1.2434095509591179 0 388.0 1.2434095509591179 1
gene  1 86 14 4.953040481980576 0 389.0 4.953040481980576 1
gene  3 2 86 -8.11407878320952 0 660.0 -8.11407878320952 1
gene  2 3 86 -5.493215116386847 0 681.0 -5.493215116386847 1
gene  1 3 14 4.921861460957324 0 703.0 4.921861460957324 1
gene  2 86 4 -8.357186211020785 0 718.0 -8.357186211020785 1
gene  3 2 230 3.2812820833942156 0 1108.0 3.2812820833942156 1
gene  3 230 4 -0.3605501027141207 0 1109.0 -0.3605501027141207 1
gene  3 86 230 1.9257845370434494 0 1285.0 1.9257845370434494 1
gene  3 230 14 -2.401134864151392 0 1477.0 -2.401134864151392 1
genomeend 45
/* Organism # 046 Fitness:  4,200 Error:  1,951                      */
genomestart  46
trait 1 0.41721767885986527 0.0 0.13050862263275698 0.0 1.6387170269188807 0.0 0.0 0.0 
trait 2 0.2 0.0 0.0 0.0 0.0 0.0 0.0 0.0 
trait 3 0.7778424986849753 0.0 0.0 0.0 0.03096076790291158 0.7900056804653431 0.0 0.0 
node 1 1 1 1
node 2 3 1 1
node 3 2 1 3
node 4 1 0 2
node 14 1 0 0
node 86 1 0 0
node 230 1 0 0
gene  1 1 4 1.564483165231154 0 1.0 1.564483165231154 1
gene  3 2 4 14.847273060028472 0 2.0 14.847273060028472 0
gene  3 3 4 0.6918523696835688 0 3.0 0.6918523696835688 1
gene  1 1 14 1.8111224899708536 0 35.0 1.8111224899708536 0
gene  2 14 4 -1.6072209081465327 0 36.0 -1.6072209081465327 1
gene  1 2 14 2.0411285726275112 0 210.0 2.0411285726275112 1
gene  1 1 86 3.346817781440424 0 388.0 3.346817781440424 1
gene  1 86 14 2.9078111258010155 0 389.0 2.9078111258010155 1
gene  3 2 86 -7.305314102449152 0 660.0 -7.305314102449152 1
gene  2 3 86 -2.151265408614291 0 681.0 -2.151265408614291 1
gene  1 3 14 6.248235052618322 0 703.0 6.248235052618322 1
gene  2 86 4 -8.901220464434209 0 718.0 -8.901220464434209 1
gene  3 2 230 1.4714521627436097 0 1108.0 1.4714521627436097 1
gene  3 230 4 -2.115988005910338 0 1109.0 -2.115988005910338 1
gene  3 86 230 0.4301139711610738 0 1285.0 0.4301139711610738 1
gene  3 230 14 -2.7521568853965834 0 1477.0 -2.7521568853965834 1
genomeend 46
/* Organism # 047 Fitness:  9,000 Error:  1,000                      */
genomestart  47
trait 1 0.41721767885986527 0.0 0.13050862263275698 0.0 1.6387170269188807 0.0 0.0 0.0 
trait 2 0.2 0.0 0.0 0.0 0.0 0.0 0.0 0.0 
trait 3 0.7778424986849753 0.0 0.0 0.0 0.03096076790291158 0.7900056804653431 0.0 0.0 
node 1 1 1 1
node 2 3 1 1
node 3 2 1 3
node 4 1 0 2
node 14 3 0 0
node 86 1 0 0
node 230 1 0 0
gene  1 1 4 2.3160894461104826 0 1.0 2.3160894461104826 1
gene  3 2 4 -1.0918379264183977 0 2.0 -1.0918379264183977 0
gene  3 3 4 3.5870045333058083 0 3.0 3.5870045333058083 1
gene  1 1 14 -2.4757213334915815 0 35.0 -2.4757213334915815 0
gene  2 14 4 -35.7657914470377 0 36.0 -35.7657914470377 1
gene  1 2 14 -0.9528551051239105 0 210.0 -0.9528551051239105 1
gene  1 1 86 -1.1907266371395249 0 388.0 -1.1907266371395249 1
gene  1 86 14 2.4815646770382465 0 389.0 2.4815646770382465 1
gene  3 2 86 -6.720096725995338 0 660.0 -6.720096725995338 1
gene  2 3 86 -2.9264689685373106 0 681.0 -2.9264689685373106 1
gene  1 3 14 1.3432311197941984 0 703.0 1.3432311197941984 1
gene  2 86 4 -8.453684352784324 0 718.0 -8.453684352784324 1
gene  3 2 230 -1.8237540464569233 0 1108.0 -1.8237540464569233 1
gene  3 230 4 -0.4532106245652137 0 1109.0 -0.4532106245652137 1
gene  3 86 230 -0.4412195046805223 0 1285.0 -0.4412195046805223 1
gene  3 230 14 0.8940514992817141 0 1477.0 0.8940514992817141 1
genomeend 47
/* Organism # 048 Fitness:  9,000 Error:  1,000                      */
genomestart  48
trait 1 0.41721767885986527 0.0 0.13050862263275698 0.0 1.6387170269188807 0.0 0.0 0.0 
trait 2 0.2 0.0 0.0 0.0 0.0 0.0 0.0 0.0 
trait 3 0.7778424986849753 0.0 0.0 0.0 0.03096076790291158 0.7900056804653431 0.0 0.0 
node 1 1 1 1
node 2 3 1 1
node 3 2 1 3
node 4 1 0 2
node 14 3 0 0
node 86 1 0 0
node 230 1 0 0
gene  1 1 4 2.3160894461104826 0 1.0 2.3160894461104826 1
gene  3 2 4 12.455310922206955 0 2.0 12.455310922206955 0
gene  3 3 4 1.2973141553011946 0 3.0 1.2973141553011946 1
gene  1 1 14 -1.0075253484712576 0 35.0 -1.0075253484712576 0
gene  2 14 4 -35.396193868367696 0 36.0 -35.396193868367696 1
gene  1 2 14 -0.698179799800082 0 210.0 -0.698179799800082 1
gene  1 1 86 1.6905010525572308 0 388.0 1.6905010525572308 1
gene  1 86 14 2.1502503218084157 0 389.0 2.1502503218084157 1
gene  3 2 86 -7.850155833127258 0 660.0 -7.850155833127258 1
gene  2 3 86 -2.9264689685373106 0 681.0 -2.9264689685373106 1
gene  1 3 14 5.576037659105927 0 703.0 5.576037659105927 1
gene  2 86 4 -8.111681922976736 0 718.0 -8.111681922976736 1
gene  3 2 230 -0.06203738058540603 0 1108.0 -0.06203738058540603 1
gene  3 230 4 -0.5867076161984613 0 1109.0 -0.5867076161984613 1
gene  3 86 230 -1.5148842288095357 0 1285.0 -1.5148842288095357 1
gene  3 230 14 -3.8077907300467686 0 1477.0 -3.8077907300467686 1
genomeend 48
/*-------------------------------------------------------------------*/
/* Species # 029         : (size= 003) (AvfFit= 8,970) (Age= 70,000)  */
/*-------------------------------------------------------------------*/
/* Organism # 049 Fitness:  15,980 Error:  0,003                      */
/*  $  This organism is WINNER with genome_id  049 Species # 029 $   */
genomestart  49
trait 1 0.9208127455428833 0.38671442279471413 0.0 0.07987668535116343 0.12456274929720906 0.0 0.0 0.0223559206539692 
trait 2 0.20738193200696514 0.7428131076073421 0.5773563903809437 0.4752533357200238 0.0 0.0 0.0 0.0 
trait 3 0.3 0.0 0.26970397889731224 0.0 0.0 0.0 0.0 0.0 
node 1 1 1 1
node 2 1 1 1
node 3 1 1 3
node 4 1 0 2
node 5 3 0 0
node 7 1 0 0
node 12 1 0 0
node 60 3 0 0
node 247 1 0 0
gene  1 1 4 0.4424315180107743 0 1.0 0.4424315180107743 1
gene  2 2 4 12.840737506674845 0 2.0 12.840737506674845 1
gene  3 3 4 -2.7899096448797747 0 3.0 -2.7899096448797747 1
gene  1 1 5 12.970812931066105 0 4.0 12.970812931066105 1
gene  1 5 4 -18.52486704472464 0 5.0 -18.52486704472464 1
gene  1 1 7 1.1418587993887441 0 10.0 1.1418587993887441 1
gene  1 7 4 3.9268784760449815 0 11.0 3.9268784760449815 1
gene  1 1 12 1.677485326590399 0 25.0 1.677485326590399 1
gene  2 12 4 -4.57897207917337 0 26.0 -4.57897207917337 1
gene  2 2 5 -1.4394651133598058 0 245.0 -1.4394651133598058 1
gene  1 1 60 0.9950171527454379 0 264.0 0.9950171527454379 1
gene  3 60 5 8.766573302538733 0 265.0 8.766573302538733 1
gene  3 3 7 0.013002970061320562 0 307.0 0.013002970061320562 1
gene  1 2 60 5.022011141999773 0 380.0 5.022011141999773 1
gene  3 3 5 -16.15402027905649 0 496.0 -16.15402027905649 1
gene  3 60 4 2.7245518833855327 0 507.0 2.7245518833855327 1
gene  1 3 12 -3.5801614786685785 0 582.0 -3.5801614786685785 1
gene  2 7 5 -1.3624153303737863 0 909.0 -1.3624153303737863 1
gene  1 12 60 2.316809790187861 0 1025.0 2.316809790187861 1
gene  1 2 247 -6.582456105382254 0 1184.0 -6.582456105382254 1
gene  1 247 60 3.8353337436872743 0 1185.0 3.8353337436872743 1
gene  1 7 12 -4.9743660187464736 0 1351.0 -4.9743660187464736 1
gene  3 247 5 0.4354924697997298 0 1364.0 0.4354924697997298 1
gene  2 7 60 -4.557390041995433 0 1480.0 -4.557390041995433 1
gene  1 12 247 -5.872233622900289 0 1645.0 -5.872233622900289 1
genomeend 49
/* Organism # 050 Fitness:  1,966 Error:  2,598                      */
genomestart  50
trait 1 0.9208127455428833 0.38671442279471413 0.0 0.07987668535116343 0.12456274929720906 0.0 0.0 0.0223559206539692 
trait 2 0.20738193200696514 0.7428131076073421 0.5773563903809437 0.4752533357200238 0.0 0.0 0.0 0.0 
trait 3 0.3 0.0 0.26970397889731224 0.0 0.0 0.0 0.0 0.0 
node 1 1 1 1
node 2 1 1 1
node 3 1 1 3
node 4 1 0 2
node 5 3 0 0
node 7 1 0 0
node 12 1 0 0
node 60 3 0 0
node 247 1 0 0
gene  1 1 4 2.2753062444652232 0 1.0 2.2753062444652232 1
gene  2 2 4 14.87106522572938 0 2.0 14.87106522572938 1
gene  3 3 4 -0.8273464054078872 0 3.0 -0.8273464054078872 1
gene  1 1 5 13.056083234859553 0 4.0 13.056083234859553 1
gene  1 5 4 -20.48496622444364 0 5.0 -20.48496622444364 1
gene  1 1 7 -1.7757233962137167 0 10.0 -1.7757233962137167 1
gene  1 7 4 3.770714612749673 0 11.0 3.770714612749673 1
gene  1 1 12 -1.3841786638155762 0 25.0 -1.3841786638155762 1
gene  2 12 4 -5.876572908903228 0 26.0 -5.876572908903228 1
gene  2 2 5 -1.9241084533324693 0 245.0 -1.9241084533324693 1
gene  1 1 60 1.0878320889952169 0 264.0 1.0878320889952169 1
gene  3 60 5 7.54022728523023 0 265.0 7.54022728523023 1
gene  3 3 7 -0.6069155500315984 0 307.0 -0.6069155500315984 1
gene  1 2 60 3.2452185253289834 0 380.0 3.2452185253289834 1
gene  3 3 5 -19.414098484861498 0 496.0 -19.414098484861498 1
gene  3 60 4 3.26398291097818 0 507.0 3.26398291097818 1
gene  1 3 12 -2.7753926785431666 0 582.0 -2.7753926785431666 1
gene  2 7 5 -0.9156144152628685 0 909.0 -0.9156144152628685 1
gene  1 12 60 -2.217095623903559 0 1025.0 -2.217095623903559 1
gene  1 2 247 -8.23940582191505 0 1184.0 -8.23940582191505 1
gene  1 247 60 8.147444925266043 0 1185.0 8.147444925266043 1
gene  1 7 12 -3.4374202503190414 0 1351.0 -3.4374202503190414 1
gene  3 247 5 -2.0064162927196616 0 1364.0 -2.0064162927196616 1
gene  2 7 60 -2.212010938088798 0 1480.0 -2.212010938088798 1
gene  1 12 247 -0.052027151887491796 0 1645.0 -0.052027151887491796 1
genomeend 50
/* Organism # 051 Fitness:  8,965 Error:  1,006                      */
genomestart  51
trait 1 0.9208127455428833 0.38671442279471413 0.0 0.07987668535116343 0.12456274929720906 0.0 0.0 0.0223559206539692 
trait 2 0.20738193200696514 0.7428131076073421 0.5773563903809437 0.4752533357200238 0.0 0.0 0.0 0.0 
trait 3 0.3 0.0 0.26970397889731224 0.0 0.0 0.0 0.0 0.0 
node 1 1 1 1
node 2 1 1 1
node 3 1 1 3
node 4 1 0 2
node 5 3 0 0
node 7 1 0 0
node 12 1 0 0
node 60 3 0 0
node 247 1 0 0
gene  1 1 4 0.4765640137569118 0 1.0 0.4765640137569118 1
gene  2 2 4 14.53321984538542 0 2.0 14.53321984538542 1
gene  3 3 4 -1.0332363041026558 0 3.0 -1.0332363041026558 1
gene  1 1 5 10.911142801673154 0 4.0 10.911142801673154 1
gene  1 5 4 -17.26950090355567 0 5.0 -17.26950090355567 1
gene  1 1 7 -1.208337729856496 0 10.0 -1.208337729856496 1
gene  1 7 4 0.867115241164234 0 11.0 0.867115241164234 1
gene  1 1 12 -1.5254780353353161 0 25.0 -1.5254780353353161 1
gene  2 12 4 -2.4993389926435676 0 26.0 -2.4993389926435676 1
gene  2 2 5 -2.4951205152059925 0 245.0 -2.4951205152059925 1
gene  1 1 60 2.7145296474916227 0 264.0 2.7145296474916227 1
gene  3 60 5 6.630235105772995 0 265.0 6.630235105772995 1
gene  3 3 7 2.2444452948368876 0 307.0 2.2444452948368876 1
gene  1 2 60 3.086385168722476 0 380.0 3.086385168722476 1
gene  3 3 5 -18.064202726017378 0 496.0 -18.064202726017378 1
gene  3 60 4 3.3004608380934233 0 507.0 3.3004608380934233 1
gene  1 3 12 -4.996008057906014 0 582.0 -4.996008057906014 1
gene  2 7 5 -1.0203424273997694 0 909.0 -1.0203424273997694 1
gene  1 12 60 -1.9123112753000655 0 1025.0 -1.9123112753000655 1
gene  1 2 247 -6.980013870223861 0 1184.0 -6.980013870223861 1
gene  1 247 60 7.574547795297373 0 1185.0 7.574547795297373 1
gene  1 7 12 -3.4374202503190414 0 1351.0 -3.4374202503190414 1
gene  3 247 5 -2.506673564441664 0 1364.0 -2.506673564441664 1
gene  2 7 60 -3.5594061823836753 0 1480.0 -3.5594061823836753 1
gene  1 12 247 -6.001908166310162 0 1645.0 -6.001908166310162 1
genomeend 51
/*-------------------------------------------------------------------*/
/* Species # 030         : (size= 004) (AvfFit= 5,702) (Age= 69,000)  */
/*-------------------------------------------------------------------*/
/* Organism # 052 Fitness:  8,813 Error:  1,031                      */
genomestart  52
trait 1 0.24065012538159075 0.15036456107791457 0.40976602941731965 0.0594094503700963 0.6751227059609091 0.07082942154753001 0.0 0.0 
trait 2 0.0895784151568591 0.0 0.45696991777887563 0.0 0.0 0.0 0.0 0.0 
trait 3 0.0 0.0 0.37677259993549284 0.0 0.0 0.0 0.0 0.0 
node 1 1 1 1
node 2 1 1 1
node 3 2 1 3
node 4 1 0 2
node 5 1 0 0
node 7 1 0 0
node 11 3 0 0
node 54 1 0 0
node 326 1 0 0
node 359 1 0 0
gene  1 1 4 -5.718519949149631 0 1.0 -5.718519949149631 0
gene  2 2 4 -3.072071442005474 0 2.0 -3.072071442005474 1
gene  3 3 4 -3.1314821026536683 0 3.0 -3.1314821026536683 1
gene  3 1 5 2.616863797595034 0 4.0 2.616863797595034 1
gene  2 5 4 3.131464261749228 0 5.0 3.131464261749228 1
gene  1 2 5 0.6792077344380397 0 9.0 0.6792077344380397 1
gene  1 1 7 5.569646433291922 0 10.0 5.569646433291922 1
gene  2 7 4 6.440850206972348 0 11.0 6.440850206972348 1
gene  2 2 11 -1.0359174664807556 0 23.0 -1.0359174664807556 1
gene  2 11 4 0.12354652542592515 0 24.0 0.12354652542592515 1
gene  2 11 7 -1.0962947206237081 0 83.0 -1.0962947206237081 1
gene  3 1 54 1.4654516629455128 0 226.0 1.4654516629455128 1
gene  2 54 7 2.164435722698008 0 227.0 2.164435722698008 1
gene  2 54 11 -3.0745081515138892 0 454.0 -3.0745081515138892 1
gene  1 1 11 2.882439988108848 0 649.0 2.882439988108848 1
gene  2 5 7 1.301532936790136 0 931.0 1.301532936790136 1
gene  1 5 54 -0.11084574903508837 0 1296.0 -0.11084574903508837 1
gene  3 1 326 -0.07951024584482741 0 1518.0 -0.07951024584482741 1
gene  3 326 5 -1.8873847401651909 0 1519.0 -1.8873847401651909 1
gene  1 1 359 0.8753983278078346 0 1646.0 0.8753983278078346 1
gene  1 359 4 -5.722769805628583 0 1647.0 -5.722769805628583 1
genomeend 52
/* Organism # 053 Fitness:  1,000 Error:  3,000                      */
genomestart  53
trait 1 0.24065012538159075 0.15036456107791457 0.40976602941731965 0.0594094503700963 0.6751227059609091 0.07082942154753001 0.0 0.0 
trait 2 0.0895784151568591 0.0 0.45696991777887563 0.0 0.0 0.0 0.0 0.0 
trait 3 0.0 0.0 0.37677259993549284 0.0 0.0 0.0 0.0 0.0 
node 1 1 1 1
node 2 1 1 1
node 3 2 1 3
node 4 1 0 2
node 5 1 0 0
node 7 1 0 0
node 11 3 0 0
node 54 1 0 0
node 326 1 0 0
node 359 1 0 0
gene  1 1 4 -5.722769805628583 0 1.0 -5.722769805628583 0
gene  2 2 4 -5.028508010281088 0 2.0 -5.028508010281088 1
gene  3 3 4 -5.208996171007598 0 3.0 -5.208996171007598 1
gene  3 1 5 0.006791951306014954 0 4.0 0.006791951306014954 1
gene  2 5 4 0.7649471030049133 0 5.0 0.7649471030049133 1
gene  1 2 5 -1.1520567563617699 0 9.0 -1.1520567563617699 1
gene  1 1 7 5.643604642021588 0 10.0 5.643604642021588 1
gene  2 7 4 2.0786495726999696 0 11.0 2.0786495726999696 1
gene  2 2 11 0.39094969727343276 0 23.0 0.39094969727343276 1
gene  2 11 4 2.320648353889395 0 24.0 2.320648353889395 1
gene  2 11 7 -1.2158891284600597 0 83.0 -1.2158891284600597 1
gene  3 1 54 4.273736879213963 0 226.0 4.273736879213963 1
gene  2 54 7 -1.3027888251014008 0 227.0 -1.3027888251014008 1
gene  2 54 11 -3.0117787272248884 0 454.0 -3.0117787272248884 1
gene  1 1 11 2.2023974712792764 0 649.0 2.2023974712792764 1
gene  2 5 7 3.691866769117662 0 931.0 3.691866769117662 1
gene  1 5 54 -0.03973118816939758 0 1296.0 -0.03973118816939758 1
gene  3 1 326 0.8840066984552462 0 1518.0 0.8840066984552462 1
gene  3 326 5 -4.138929548925206 0 1519.0 -4.138929548925206 1
gene  1 1 359 3.210877573699065 0 1646.0 3.210877573699065 1
gene  1 359 4 0.7370477454541458 0 1647.0 0.7370477454541458 1
genomeend 53
/* Organism # 054 Fitness:  4,000 Error:  2,000                      */
genomestart  54
trait 1 0.24065012538159075 0.15036456107791457 0.40976602941731965 0.0594094503700963 0.6751227059609091 0.07082942154753001 0.0 0.0 
trait 2 0.0895784151568591 0.0 0.45696991777887563 0.0 0.0 0.0 0.0 0.0 
trait 3 0.0 0.0 0.37677259993549284 0.0 0.0 0.0 0.0 0.0 
node 1 1 1 1
node 2 1 1 1
node 3 2 1 3
node 4 1 0 2
node 5 1 0 0
node 7 1 0 0
node 11 3 0 0
node 54 1 0 0
node 326 1 0 0
node 359 1 0 0
gene  1 1 4 -5.594842760040066 0 1.0 -5.594842760040066 0
gene  2 2 4 -3.9281271297551554 0 2.0 -3.9281271297551554 1
gene  3 3 4 -0.33190500172523896 0 3.0 -0.33190500172523896 1
gene  3 1 5 5.111938732011193 0 4.0 5.111938732011193 1
gene  2 5 4 2.9854577245774685 0 5.0 2.9854577245774685 1
gene  1 2 5 0.2272712701572155 0 9.0 0.2272712701572155 1
gene  1 1 7 6.137901319899767 0 10.0 6.137901319899767 1
gene  2 7 4 6.817638708063754 0 11.0 6.817638708063754 1
gene  2 2 11 -1.6393684448940444 0 23.0 -1.6393684448940444 1
gene  2 11 4 -0.651202312469118 0 24.0 -0.651202312469118 1
gene  2 11 7 -0.9197686253290247 0 83.0 -0.9197686253290247 1
gene  3 1 54 4.286845993158827 0 226.0 4.286845993158827 1
gene  2 54 7 0.864806975179514 0 227.0 0.864806975179514 1
gene  2 54 11 -1.531381301317631 0 454.0 -1.531381301317631 1
gene  1 1 11 2.896370473828802 0 649.0 2.896370473828802 1
gene  2 5 7 3.5542104717461367 0 931.0 3.5542104717461367 1
gene  1 5 54 0.7600261684370246 0 1296.0 0.7600261684370246 1
gene  3 1 326 -2.5557474711395396 0 1518.0 -2.5557474711395396 1
gene  3 326 5 -2.096843974001972 0 1519.0 -2.096843974001972 1
gene  1 1 359 1.5503585999198202 0 1646.0 1.5503585999198202 1
gene  1 359 4 0.7510106398545274 0 1647.0 0.7510106398545274 1
genomeend 54
/* Organism # 055 Fitness:  8,997 Error:  1,001                      */
genomestart  55
trait 1 0.24065012538159075 0.15036456107791457 0.40976602941731965 0.0594094503700963 0.6751227059609091 0.07082942154753001 0.0 0.0 
trait 2 0.0895784151568591 0.0 0.45696991777887563 0.0 0.0 0.0 0.0 0.0 
trait 3 0.0 0.0 0.37677259993549284 0.0 0.0 0.0 0.0 0.0 
node 1 1 1 1
node 2 1 1 1
node 3 2 1 3
node 4 1 0 2
node 5 1 0 0
node 7 1 0 0
node 11 3 0 0
node 54 1 0 0
node 326 1 0 0
node 359 1 0 0
gene  1 1 4 -6.319294476453649 0 1.0 -6.319294476453649 0
gene  2 2 4 -4.975000584444217 0 2.0 -4.975000584444217 1
gene  3 3 4 -7.422819382825572 0 3.0 -7.422819382825572 1
gene  3 1 5 5.111938732011193 0 4.0 5.111938732011193 1
gene  2 5 4 -0.5170056911279186 0 5.0 -0.5170056911279186 1
gene  1 2 5 1.596213702977182 0 9.0 1.596213702977182 1
gene  1 1 7 2.779824902789797 0 10.0 2.779824902789797 1
gene  2 7 4 7.878555886647985 0 11.0 7.878555886647985 1
gene  2 2 11 -0.2348789980223348 0 23.0 -0.2348789980223348 1
gene  2 11 4 4.371517748493934 0 24.0 4.371517748493934 1
gene  2 11 7 -0.8668019869522599 0 83.0 -0.8668019869522599 1
gene  3 1 54 2.4242475574175804 0 226.0 2.4242475574175804 1
gene  2 54 7 2.5256750909643806 0 227.0 2.5256750909643806 1
gene  2 54 11 -1.5377317807662938 0 454.0 -1.5377317807662938 1
gene  1 1 11 1.8870038896445633 0 649.0 1.8870038896445633 1
gene  2 5 7 2.6163967563286477 0 931.0 2.6163967563286477 1
gene  1 5 54 -2.2363894512769535 0 1296.0 -2.2363894512769535 1
gene  3 1 326 0.9891707173968234 0 1518.0 0.9891707173968234 1
gene  3 326 5 -4.028177104512352 0 1519.0 -4.028177104512352 1
gene  1 1 359 -0.4799347317681099 0 1646.0 -0.4799347317681099 1
gene  1 359 4 -6.811445014674775 0 1647.0 -6.811445014674775 1
genomeend 55
/*-------------------------------------------------------------------*/
/* Species # 032         : (size= 004) (AvfFit= 8,311) (Age= 68,000)  */
/*-------------------------------------------------------------------*/
/* Organism # 056 Fitness:  9,000 Error:  1,000                      */
genomestart  56
trait 1 0.0 0.0 0.0 0.0 0.25026946476608636 0.0 0.0 0.0 
trait 2 0.2 0.0 0.0 0.0 0.0 0.0 0.0 0.0 
trait 3 0.0 0.18943956236972637 0.0 0.0013603363882406239 0.0 0.03164597716859208 0.9928906283687635 0.0 
node 1 3 1 1
node 2 3 1 1
node 3 1 1 3
node 4 1 0 2
node 80 3 0 0
node 324 1 0 0
node 330 2 0 0
gene  3 1 4 -8.324463279604439 0 1.0 -8.324463279604439 0
gene  2 2 4 6.791813561702338 0 2.0 6.791813561702338 1
gene  3 3 4 10.036744151310973 0 3.0 10.036744151310973 1
gene  1 1 80 1.6246255344467744 0 362.0 1.6246255344467744 1
gene  1 80 4 -0.16805511311529275 0 363.0 -0.16805511311529275 1
gene  2 3 80 -6.209576474970184 0 474.0 -6.209576474970184 1
gene  2 2 80 -0.3711469220671544 0 521.0 -0.3711469220671544 1
gene  3 1 324 2.167476215871969 0 1513.0 2.167476215871969 1
gene  3 324 4 -2.3031880838156504 0 1514.0 -2.3031880838156504 1
gene  1 1 330 3.673520574945363 0 1535.0 3.673520574945363 1
gene  1 330 80 -5.012704634292368 0 1536.0 -5.012704634292368 1
genomeend 56
/* Organism # 057 Fitness:  9,000 Error:  1,000                      */
genomestart  57
trait 1 0.0 0.0 0.0 0.0 0.25026946476608636 0.0 0.0 0.0 
trait 2 0.2 0.0 0.0 0.0 0.0 0.0 0.0 0.0 
trait 3 0.0 0.18943956236972637 0.0 0.0013603363882406239 0.0 0.03164597716859208 0.9928906283687635 0.0 
node 1 3 1 1
node 2 3 1 1
node 3 3 1 3
node 4 1 0 2
node 80 1 0 0
node 324 1 0 0
node 330 2 0 0
gene  3 1 4 3.0727723912457843 0 1.0 3.0727723912457843 0
gene  2 2 4 16.29496871557353 0 2.0 16.29496871557353 1
gene  3 3 4 8.161212511937375 0 3.0 8.161212511937375 1
gene  1 1 80 -2.0419880864107185 0 362.0 -2.0419880864107185 0
gene  1 80 4 -4.78371829619369 0 363.0 -4.78371829619369 1
gene  2 3 80 -0.45214701542936164 0 474.0 -0.45214701542936164 1
gene  2 2 80 -0.4090863847221382 0 521.0 -0.4090863847221382 1
gene  3 1 324 2.787808658962623 0 1513.0 2.787808658962623 1
gene  3 324 4 -4.09489899118869 0 1514.0 -4.09489899118869 1
gene  1 1 330 -0.6268920200711916 0 1535.0 -0.6268920200711916 1
gene  1 330 80 -1.0887441362566257 0 1536.0 -1.0887441362566257 1
genomeend 57
/* Organism # 058 Fitness:  6,244 Error:  1,501                      */
genomestart  58
trait 1 0.0 0.0 0.0 0.0 0.25026946476608636 0.0 0.0 0.0 
trait 2 0.2 0.0 0.0 0.0 0.0 0.0 0.0 0.0 
trait 3 0.0 0.18943956236972637 0.0 0.0013603363882406239 0.0 0.03164597716859208 0.9928906283687635 0.0 
node 1 3 1 1
node 2 3 1 1
node 3 1 1 3
node 4 1 0 2
node 80 1 0 0
node 324 1 0 0
node 330 2 0 0
gene  3 1 4 -4.946523674709391 0 1.0 -4.946523674709391 0
gene  2 2 4 10.108249163020847 0 2.0 10.108249163020847 1
gene  3 3 4 5.983877798739538 0 3.0 5.983877798739538 1
gene  1 1 80 -0.6453396212450552 0 362.0 -0.6453396212450552 1
gene  1 80 4 0.765732198158551 0 363.0 0.765732198158551 1
gene  2 3 80 1.4335280605939653 0 474.0 1.4335280605939653 1
gene  2 2 80 -0.25963215155606734 0 521.0 -0.25963215155606734 1
gene  3 1 324 -2.002989327401968 0 1513.0 -2.002989327401968 1
gene  3 324 4 -0.7966787959982811 0 1514.0 -0.7966787959982811 1
gene  1 1 330 3.544249085971992 0 1535.0 3.544249085971992 1
gene  1 330 80 -0.6875253089830502 0 1536.0 -0.6875253089830502 1
genomeend 58
/* Organism # 059 Fitness:  9,000 Error:  1,000                      */
genomestart  59
trait 1 0.0 0.0 0.0 0.0 0.25026946476608636 0.0 0.0 0.0 
trait 2 0.2 0.0 0.0 0.0 0.0 0.0 0.0 0.0 
trait 3 0.0 0.18943956236972637 0.0 0.0013603363882406239 0.0 0.03164597716859208 0.9928906283687635 0.0 
node 1 3 1 1
node 2 3 1 1
node 3 3 1 3
node 4 1 0 2
node 80 1 0 0
node 324 1 0 0
node 330 2 0 0
gene  3 1 4 -0.7752057999041024 0 1.0 -0.7752057999041024 0
gene  2 2 4 13.250068610491041 0 2.0 13.250068610491041 1
gene  3 3 4 8.036962216963357 0 3.0 8.036962216963357 1
gene  1 1 80 -1.4599295970090163 0 362.0 -1.4599295970090163 0
gene  1 80 4 -0.5990489359009765 0 363.0 -0.5990489359009765 1
gene  2 3 80 -2.4534255032118764 0 474.0 -2.4534255032118764 1
gene  2 2 80 -0.11835929335475837 0 521.0 -0.11835929335475837 1
gene  3 1 324 5.1753766570437225 0 1513.0 5.1753766570437225 1
gene  3 324 4 -5.9572548739144064 0 1514.0 -5.9572548739144064 1
gene  1 1 330 -0.09104565837798617 0 1535.0 -0.09104565837798617 1
gene  1 330 80 -3.540754414748005 0 1536.0 -3.540754414748005 1
genomeend 59
/*-------------------------------------------------------------------*/
/* Species # 033         : (size= 004) (AvfFit= 7,750) (Age= 68,000)  */
/*-------------------------------------------------------------------*/
/* Organism # 060 Fitness:  4,000 Error:  2,000                      */
genomestart  60
trait 1 0.5024726620418294 0.4823780392212365 0.0 0.0 0.0 0.002988254706022848 0.0 0.0020794935959868813 
trait 2 0.0 0.4777667938049285 0.2343737308292766 0.3057730085894761 0.04606477703652567 0.0 1.8984618199414205 0.4706756283249418 
trait 3 0.508629191444272 0.11207242762510328 0.3142085595512333 0.02370639599583833 0.0643733083283938 0.28758208364855997 0.0 0.011749223863684176 
node 1 1 1 1
node 2 1 1 1
node 3 2 1 3
node 4 1 0 2
node 5 2 0 0
node 62 1 0 0
node 223 1 0 0
node 260 1 0 0
gene  1 1 4 -2.117414605735826 0 1.0 -2.117414605735826 1
gene  2 2 4 26.915948198157775 0 2.0 26.915948198157775 1
gene  3 3 4 -2.446548205479135 0 3.0 -2.446548205479135 1
gene  1 1 5 -0.39795235258753475 0 4.0 -0.39795235258753475 1
gene  1 5 4 -5.616043408292489 0 5.0 -5.616043408292489 1
gene  2 2 5 0.8842097239902735 0 8.0 0.8842097239902735 1
gene  1 5 62 -2.2272475503643876 0 274.0 -2.2272475503643876 1
gene  3 62 4 -0.0482380464484336 0 275.0 -0.0482380464484336 1
gene  1 1 62 5.683885746485874 0 291.0 5.683885746485874 1
gene  3 3 62 -1.7760325296150183 0 677.0 -1.7760325296150183 1
gene  2 3 5 4.890163693209363 0 734.0 4.890163693209363 1
gene  1 2 62 1.1369364840689342 0 828.0 1.1369364840689342 1
gene  2 1 223 1.6939958411222025 0 1076.0 1.6939958411222025 1
gene  2 223 4 -7.137821266946899 0 1077.0 -7.137821266946899 1
gene  1 5 223 0.672430314962545 0 1115.0 0.672430314962545 0
gene  3 223 62 -0.44852944535837463 0 1206.0 -0.44852944535837463 1
gene  2 5 260 0.7428341576298567 0 1251.0 0.7428341576298567 1
gene  2 260 223 -3.1099814335288567 0 1252.0 -3.1099814335288567 1
genomeend 60
/* Organism # 061 Fitness:  9,000 Error:  1,000                      */
genomestart  61
trait 1 0.5024726620418294 0.4823780392212365 0.0 0.0 0.0 0.002988254706022848 0.0 0.0020794935959868813 
trait 2 0.0 0.4777667938049285 0.2343737308292766 0.3057730085894761 0.04606477703652567 0.0 1.8984618199414205 0.4706756283249418 
trait 3 0.508629191444272 0.11207242762510328 0.3142085595512333 0.02370639599583833 0.0643733083283938 0.28758208364855997 0.0 0.011749223863684176 
node 1 1 1 1
node 2 1 1 1
node 3 2 1 3
node 4 1 0 2
node 5 2 0 0
node 62 1 0 0
node 223 1 0 0
node 260 1 0 0
gene  1 1 4 -4.53704877209932 0 1.0 -4.53704877209932 1
gene  2 2 4 27.37918471903825 0 2.0 27.37918471903825 1
gene  3 3 4 -27.560253003103792 0 3.0 -27.560253003103792 1
gene  1 1 5 -14.604144583784832 0 4.0 -14.604144583784832 1
gene  1 5 4 -2.7624813939597184 0 5.0 -2.7624813939597184 1
gene  2 2 5 -0.4524797313150313 0 8.0 -0.4524797313150313 1
gene  1 5 62 -2.6929586824194347 0 274.0 -2.6929586824194347 1
gene  3 62 4 -0.2738600080630374 0 275.0 -0.2738600080630374 1
gene  1 1 62 4.907488038221898 0 291.0 4.907488038221898 1
