/* Species # 001         : (size= 004) (AvfFit= 9,000) (Age= 53,000)  */
/*-------------------------------------------------------------------*/
/* Organism # 000 Fitness:  9,000 Error:  1,000                      */
genomestart  0
trait 1 0.0 0.0 0.0 0.0 0.0 0.0 0.0 0.0 
trait 2 0.0 0.12164882254541409 0.0 0.16000971012070053 0.0 0.6105478423543726 0.0 0.0 
trait 3 0.3 0.0 0.0 0.0 0.0 0.0 0.0 0.0 
node 1 1 1 1
node 2 2 1 1
node 3 1 1 3
node 4 1 0 2
node 84 1 0 0
gene  1 1 4 -7.531741931454663 0 1.0 -7.531741931454663 0
gene  1 2 4 12.307852835870433 0 2.0 12.307852835870433 1
gene  2 3 4 14.846120554914298 0 3.0 14.846120554914298 1
gene  1 1 84 2.0904848698037486 0 381.0 2.0904848698037486 1
gene  1 84 4 -9.134928085032806 0 382.0 -9.134928085032806 1
gene  1 2 84 -5.570391542088193 0 538.0 -5.570391542088193 1
gene  3 3 84 -3.5817362291209642 0 593.0 -3.5817362291209642 1
genomeend 0
/* Organism # 001 Fitness:  9,000 Error:  1,000                      */
genomestart  1
trait 1 0.0 0.0 0.0 0.0 0.0 0.0 0.0 0.0 
trait 2 0.0 0.12164882254541409 0.0 0.16000971012070053 0.0 0.6105478423543726 0.0 0.0 
trait 3 0.3 0.0 0.0 0.0 0.0 0.0 0.0 0.0 
node 1 1 1 1
node 2 2 1 1
node 3 1 1 3
node 4 1 0 2
node 84 1 0 0
gene  1 1 4 -7.472911964217531 0 1.0 -7.472911964217531 0
gene  1 2 4 12.398128976785388 0 2.0 12.398128976785388 1
gene  2 3 4 12.880273575760121 0 3.0 12.880273575760121 1
gene  1 1 84 0.4743398898894338 0 381.0 0.4743398898894338 1
gene  1 84 4 -9.642050922013274 0 382.0 -9.642050922013274 1
gene  1 2 84 -5.79520240517138 0 538.0 -5.79520240517138 1
gene  3 3 84 -3.5941363805488216 0 593.0 -3.5941363805488216 1
genomeend 1
/* Organism # 002 Fitness:  9,000 Error:  1,000                      */
genomestart  2
trait 1 0.0 0.0 0.0 0.0 0.0 0.0 0.0 0.0 
trait 2 0.0 0.12164882254541409 0.0 0.16000971012070053 0.0 0.6105478423543726 0.0 0.0 
trait 3 0.3 0.0 0.0 0.0 0.0 0.0 0.0 0.0 
node 1 1 1 1
node 2 2 1 1
node 3 1 1 3
node 4 1 0 2
node 84 1 0 0
gene  1 1 4 -6.706429007461783 0 1.0 -6.706429007461783 0
gene  1 2 4 11.268649360457996 0 2.0 11.268649360457996 1
gene  2 3 4 13.702911564253897 0 3.0 13.702911564253897 1
gene  1 1 84 1.319126880667562 0 381.0 1.319126880667562 1
gene  1 84 4 -9.876933236188439 0 382.0 -9.876933236188439 1
gene  1 2 84 -5.699140951488045 0 538.0 -5.699140951488045 1
gene  3 3 84 -1.4443574941917448 0 593.0 -1.4443574941917448 1
genomeend 2
/* Organism # 003 Fitness:  9,000 Error:  1,000                      */
genomestart  3
trait 1 0.0 0.0 0.0 0.0 0.0 0.0 0.0 0.0 
trait 2 0.0 0.12164882254541409 0.0 0.16000971012070053 0.0 0.6105478423543726 0.0 0.0 
trait 3 0.3 0.0 0.0 0.0 0.0 0.0 0.0 0.0 
node 1 1 1 1
node 2 2 1 1
node 3 1 1 3
node 4 1 0 2
node 84 1 0 0
gene  1 1 4 -6.706429007461783 0 1.0 -6.706429007461783 0
gene  1 2 4 9.24068258326881 0 2.0 9.24068258326881 1
gene  2 3 4 14.84378290132884 0 3.0 14.84378290132884 1
gene  1 1 84 1.319126880667562 0 381.0 1.319126880667562 1
gene  1 84 4 -12.140758416582306 0 382.0 -12.140758416582306 1
gene  1 2 84 -6.972257213336115 0 538.0 -6.972257213336115 1
gene  3 3 84 -2.346409169004115 0 593.0 -2.346409169004115 1
genomeend 3
/*-------------------------------------------------------------------*/
/* Species # 002         : (size= 005) (AvfFit= 6,166) (Age= 51,000)  */
/*-------------------------------------------------------------------*/
/* Organism # 004 Fitness:  9,000 Error:  1,000                      */
genomestart  4
trait 1 0.1 0.011385778062390165 0.0 0.0 0.011495292781822517 0.002964725141408495 0.0 0.00206311963066415 
trait 2 0.42000616145913794 0.31707582415339564 0.0 0.0 0.0 0.0 0.0 0.0 
trait 3 0.3 0.11212634648669709 0.005759404633646656 0.023685799648318052 0.009735323139203025 0.0 0.0 0.011754876500900707 
node 1 1 1 1
node 2 1 1 1
node 3 1 1 3
node 4 1 0 2
node 5 2 0 0
node 121 3 0 0
gene  3 1 4 4.610963602203786 0 1.0 4.610963602203786 0
gene  2 2 4 18.78456147816875 0 2.0 18.78456147816875 1
gene  3 3 4 -15.42030802558371 0 3.0 -15.42030802558371 1
gene  1 1 5 -0.3753754366279083 0 4.0 -0.3753754366279083 1
gene  1 5 4 -10.376467803387204 0 5.0 -10.376467803387204 1
gene  2 2 5 -2.401953139679126 0 8.0 -2.401953139679126 1
gene  1 3 5 -0.6150970129976041 0 332.0 -0.6150970129976041 1
gene  1 1 121 0.15660357288015891 0 556.0 0.15660357288015891 1
gene  1 121 5 7.032318718186525 0 557.0 7.032318718186525 1
gene  1 2 121 0.7780068311194815 0 654.0 0.7780068311194815 1
gene  2 3 121 0.7135615619309326 0 673.0 0.7135615619309326 1
genomeend 4
/* Organism # 005 Fitness:  4,000 Error:  2,000                      */
genomestart  5
trait 1 0.1 0.011385778062390165 0.0 0.0 0.011495292781822517 0.002964725141408495 0.0 0.00206311963066415 
trait 2 0.42000616145913794 0.31707582415339564 0.0 0.0 0.0 0.0 0.0 0.0 
trait 3 0.3 0.11212634648669709 0.005759404633646656 0.023685799648318052 0.009735323139203025 0.0 0.0 0.011754876500900707 
node 1 1 1 1
node 2 1 1 1
node 3 1 1 3
node 4 1 0 2
node 5 2 0 0
node 121 1 0 0
gene  3 1 4 5.417626008053848 0 1.0 5.417626008053848 0
gene  2 2 4 19.43833106640262 0 2.0 19.43833106640262 1
gene  3 3 4 1.6292767495850602 0 3.0 1.6292767495850602 1
gene  1 1 5 0.3350590982331225 0 4.0 0.3350590982331225 1
gene  1 5 4 -9.165088152738807 0 5.0 -9.165088152738807 1
gene  2 2 5 -0.5424742828831319 0 8.0 -0.5424742828831319 1
gene  1 3 5 1.8660617154349048 0 332.0 1.8660617154349048 1
gene  1 1 121 -0.14165037659604085 0 556.0 -0.14165037659604085 1
gene  1 121 5 4.898271495169549 0 557.0 4.898271495169549 1
gene  1 2 121 1.8229118373648907 0 654.0 1.8229118373648907 1
gene  2 3 121 -0.021832532131644267 0 673.0 -0.021832532131644267 1
genomeend 5
/* Organism # 006 Fitness:  3,631 Error:  2,094                      */
genomestart  6
trait 1 0.1 0.011385778062390165 0.0 0.0 0.011495292781822517 0.002964725141408495 0.0 0.00206311963066415 
trait 2 0.42000616145913794 0.31707582415339564 0.0 0.0 0.0 0.0 0.0 0.0 
trait 3 0.3 0.11212634648669709 0.005759404633646656 0.023685799648318052 0.009735323139203025 0.0 0.0 0.011754876500900707 
node 1 1 1 1
node 2 1 1 1
node 3 1 1 3
node 4 1 0 2
node 5 2 0 0
node 121 1 0 0
gene  3 1 4 8.712543299777096 0 1.0 8.712543299777096 0
gene  2 2 4 -0.9240108159561491 0 2.0 -0.9240108159561491 1
gene  3 3 4 -16.055261592597127 0 3.0 -16.055261592597127 1
gene  1 1 5 0.9900311183302726 0 4.0 0.9900311183302726 1
gene  1 5 4 1.3806556898382583 0 5.0 1.3806556898382583 1
gene  2 2 5 -0.5672049535391092 0 8.0 -0.5672049535391092 1
gene  1 3 5 0.48201723781766836 0 332.0 0.48201723781766836 1
gene  1 1 121 0.3112596798029763 0 556.0 0.3112596798029763 1
gene  1 121 5 5.145164096136157 0 557.0 5.145164096136157 1
gene  1 2 121 3.2012929904263796 0 654.0 3.2012929904263796 1
gene  2 3 121 -2.025496650907087 0 673.0 -2.025496650907087 1
genomeend 6
/* Organism # 007 Fitness:  9,000 Error:  1,000                      */
genomestart  7
trait 1 0.1 0.011385778062390165 0.0 0.0 0.011495292781822517 0.002964725141408495 0.0 0.00206311963066415 
trait 2 0.42000616145913794 0.31707582415339564 0.0 0.0 0.0 0.0 0.0 0.0 
trait 3 0.3 0.11212634648669709 0.005759404633646656 0.023685799648318052 0.009735323139203025 0.0 0.0 0.011754876500900707 
node 1 1 1 1
node 2 1 1 1
node 3 1 1 3
node 4 1 0 2
node 5 2 0 0
node 121 1 0 0
gene  3 1 4 8.16912515669195 0 1.0 8.16912515669195 0
gene  2 2 4 19.52582163468729 0 2.0 19.52582163468729 1
gene  3 3 4 -18.89421067597091 0 3.0 -18.89421067597091 1
gene  1 1 5 0.3195347309588559 0 4.0 0.3195347309588559 1
gene  1 5 4 -9.914585139074441 0 5.0 -9.914585139074441 1
gene  3 2 5 -3.135150513918169 0 8.0 -3.135150513918169 1
gene  1 3 5 -0.6335431993607321 0 332.0 -0.6335431993607321 1
gene  1 1 121 1.8597963582949966 0 556.0 1.8597963582949966 1
gene  1 121 5 4.099128819878814 0 557.0 4.099128819878814 1
gene  1 2 121 1.0116635037080777 0 654.0 1.0116635037080777 1
gene  2 3 121 -1.0830782458078776 0 673.0 -1.0830782458078776 1
genomeend 7
/* Organism # 008 Fitness:  5,200 Error:  1,720                      */
genomestart  8
trait 1 0.1 0.011385778062390165 0.0 0.0 0.011495292781822517 0.002964725141408495 0.0 0.00206311963066415 
trait 2 0.42000616145913794 0.31707582415339564 0.0 0.0 0.0 0.0 0.0 0.0 
trait 3 0.3 0.11212634648669709 0.005759404633646656 0.023685799648318052 0.009735323139203025 0.0 0.0 0.011754876500900707 
node 1 1 1 1
node 2 1 1 1
node 3 1 1 3
node 4 1 0 2
node 5 2 0 0
node 121 1 0 0
gene  3 1 4 7.013667060208548 0 1.0 7.013667060208548 0
gene  2 2 4 17.77808186094148 0 2.0 17.77808186094148 1
gene  3 3 4 -17.366719165782406 0 3.0 -17.366719165782406 1
gene  1 1 5 -0.09204210765253046 0 4.0 -0.09204210765253046 1
gene  1 5 4 -9.165088152738807 0 5.0 -9.165088152738807 1
gene  2 2 5 -1.5545421065907559 0 8.0 -1.5545421065907559 1
gene  1 3 5 0.48201723781766836 0 332.0 0.48201723781766836 1
gene  1 1 121 1.4174345715012744 0 556.0 1.4174345715012744 1
gene  1 121 5 6.494043893830602 0 557.0 6.494043893830602 1
gene  1 2 121 0.7780068311194815 0 654.0 0.7780068311194815 1
gene  2 3 121 0.2286784844087888 0 673.0 0.2286784844087888 1
gene  3 121 4 -8.804677027719656 0 776.0 -8.804677027719656 1
genomeend 8
/*-------------------------------------------------------------------*/
/* Species # 003         : (size= 004) (AvfFit= 8,781) (Age= 50,000)  */
/*-------------------------------------------------------------------*/
/* Organism # 009 Fitness:  9,000 Error:  1,000                      */
genomestart  9
trait 1 0.4677569475917177 0.0 0.0 0.0 0.0 0.0 0.0 0.5248418478491693 
trait 2 0.2 0.0 0.3874568854737884 0.0 0.8742722211053654 0.8234257335086601 0.0 0.0 
trait 3 0.10653868622867413 0.0 0.0 0.04273968451844101 0.0 0.0 0.5591637474897992 0.9586955729685762 
node 1 1 1 1
node 2 1 1 1
node 3 1 1 3
node 4 1 0 2
node 5 1 0 0
node 7 1 0 0
node 116 1 0 0
gene  1 1 4 1.388445935643006 0 1.0 1.388445935643006 0
gene  1 2 4 -16.259037931290784 0 2.0 -16.259037931290784 1
gene  2 3 4 21.759826835155053 0 3.0 21.759826835155053 1
gene  1 1 5 1.3067103308194685 0 4.0 1.3067103308194685 0
gene  1 5 4 -9.756091688466404 0 5.0 -9.756091688466404 1
gene  1 1 7 16.174675530521935 0 10.0 16.174675530521935 1
gene  1 7 4 -6.220505897486198 0 11.0 -6.220505897486198 1
gene  3 5 7 -11.543854062328528 0 122.0 -11.543854062328528 1
gene  2 2 5 6.44540957583976 0 154.0 6.44540957583976 1
gene  3 2 7 -2.184299720432393 0 247.0 -2.184299720432393 1
gene  3 3 7 -0.36336512039446056 0 406.0 -0.36336512039446056 1
gene  1 1 116 5.261626396048873 0 529.0 5.261626396048873 1
gene  1 116 5 1.5417882304508856 0 530.0 1.5417882304508856 1
gene  1 2 116 2.3128355114431813 0 606.0 2.3128355114431813 1
gene  3 116 7 -0.5730469792316895 0 699.0 -0.5730469792316895 1
genomeend 9
/* Organism # 010 Fitness:  8,133 Error:  1,148                      */
genomestart  10
trait 1 0.4677569475917177 0.0 0.0 0.0 0.0 0.0 0.0 0.5248418478491693 
trait 2 0.2 0.0 0.3874568854737884 0.0 0.8742722211053654 0.8234257335086601 0.0 0.0 
trait 3 0.10653868622867413 0.0 0.0 0.04273968451844101 0.0 0.0 0.5591637474897992 0.9586955729685762 
node 1 1 1 1
node 2 1 1 1
node 3 1 1 3
node 4 1 0 2
node 5 1 0 0
node 7 1 0 0
node 116 1 0 0
gene  1 1 4 -1.4404094985397478 0 1.0 -1.4404094985397478 0
gene  1 2 4 -14.282491603120912 0 2.0 -14.282491603120912 1
gene  2 3 4 1.1038399918256236 0 3.0 1.1038399918256236 1
gene  1 1 5 3.157910343523547 0 4.0 3.157910343523547 0
gene  1 5 4 -10.969732570092702 0 5.0 -10.969732570092702 1
gene  1 1 7 17.903849757750088 0 10.0 17.903849757750088 1
gene  1 7 4 -0.40173490685994656 0 11.0 -0.40173490685994656 1
gene  3 5 7 -9.650994283145149 0 122.0 -9.650994283145149 1
gene  2 2 5 -0.07981725488506286 0 154.0 -0.07981725488506286 1
gene  3 2 7 2.3592171226899246 0 247.0 2.3592171226899246 1
gene  3 3 7 1.0482873579140386 0 406.0 1.0482873579140386 1
gene  1 1 116 6.353126018026349 0 529.0 6.353126018026349 1
gene  1 116 5 -0.7324431300539163 0 530.0 -0.7324431300539163 1
gene  1 2 116 2.3128355114431813 0 606.0 2.3128355114431813 1
gene  3 116 7 0.9543031862937286 0 699.0 0.9543031862937286 1
genomeend 10
/* Organism # 011 Fitness:  9,000 Error:  1,000                      */
genomestart  11
trait 1 0.4677569475917177 0.0 0.0 0.0 0.0 0.0 0.0 0.5248418478491693 
trait 2 0.2 0.0 0.3874568854737884 0.0 0.8742722211053654 0.8234257335086601 0.0 0.0 
trait 3 0.10653868622867413 0.0 0.0 0.04273968451844101 0.0 0.0 0.5591637474897992 0.9586955729685762 
node 1 1 1 1
node 2 1 1 1
node 3 1 1 3
node 4 2 0 2
node 5 1 0 0
node 7 1 0 0
node 116 1 0 0
gene  1 1 4 -0.6528486781249156 0 1.0 -0.6528486781249156 0
gene  1 2 4 -12.558540351887356 0 2.0 -12.558540351887356 1
gene  2 3 4 22.098382738855687 0 3.0 22.098382738855687 1
gene  1 1 5 0.9300763138456557 0 4.0 0.9300763138456557 0
gene  1 5 4 -11.292990148757792 0 5.0 -11.292990148757792 1
gene  1 1 7 18.697410333046896 0 10.0 18.697410333046896 1
gene  1 7 4 -6.802717185692745 0 11.0 -6.802717185692745 1
gene  3 5 7 -12.600983640703678 0 122.0 -12.600983640703678 1
gene  2 2 5 9.862956870875061 0 154.0 9.862956870875061 1
gene  3 2 7 1.757553440593187 0 247.0 1.757553440593187 1
gene  3 3 7 -0.7465729389706839 0 406.0 -0.7465729389706839 1
gene  1 1 116 6.5877828872303175 0 529.0 6.5877828872303175 1
gene  1 116 5 1.7608798710304996 0 530.0 1.7608798710304996 1
gene  1 2 116 1.9458986787753165 0 606.0 1.9458986787753165 1
gene  3 116 7 0.6580326263177378 0 699.0 0.6580326263177378 1
genomeend 11
/* Organism # 012 Fitness:  8,992 Error:  1,001                      */
genomestart  12
trait 1 0.4677569475917177 0.0 0.0 0.0 0.0 0.0 0.0 0.5248418478491693 
trait 2 0.2 0.0 0.3874568854737884 0.0 0.8742722211053654 0.8234257335086601 0.0 0.0 
trait 3 0.10653868622867413 0.0 0.0 0.04273968451844101 0.0 0.0 0.5591637474897992 0.9586955729685762 
node 1 1 1 1
node 2 1 1 1
node 3 1 1 3
node 4 1 0 2
node 5 1 0 0
node 7 1 0 0
node 116 1 0 0
gene  1 1 4 -0.5113380015586353 0 1.0 -0.5113380015586353 0
gene  1 2 4 -1.8523093880389616 0 2.0 -1.8523093880389616 1
gene  2 3 4 18.51921193593605 0 3.0 18.51921193593605 1
gene  1 1 5 3.330755209981467 0 4.0 3.330755209981467 0
gene  1 5 4 -11.083827647124968 0 5.0 -11.083827647124968 1
gene  1 1 7 17.229376932787083 0 10.0 17.229376932787083 1
gene  1 7 4 -6.93828642252201 0 11.0 -6.93828642252201 1
gene  3 5 7 -12.392274549846682 0 122.0 -12.392274549846682 1
gene  2 2 5 8.376676733462247 0 154.0 8.376676733462247 1
gene  3 2 7 -1.574138949033728 0 247.0 -1.574138949033728 1
gene  3 3 7 1.460955702541999 0 406.0 1.460955702541999 1
gene  1 1 116 5.626872533246634 0 529.0 5.626872533246634 1
gene  1 116 5 -1.4694505375794487 0 530.0 -1.4694505375794487 1
gene  1 2 116 3.328554774374038 0 606.0 3.328554774374038 1
gene  3 116 7 1.8778604176907432 0 699.0 1.8778604176907432 1
genomeend 12
/*-------------------------------------------------------------------*/
/* Species # 004         : (size= 005) (AvfFit= 9,000) (Age= 49,000)  */
/*-------------------------------------------------------------------*/
/* Organism # 013 Fitness:  9,000 Error:  1,000                      */
genomestart  13
trait 1 0.0 0.0 0.0 0.11515979884592453 0.10820001854691197 0.6782844712534337 0.49826864144017213 0.0 
trait 2 0.2 0.0 0.0 0.0 0.0 0.0 0.0 0.0 
trait 3 0.3 0.0 0.0 0.0 0.0 0.0 0.0 0.0 
node 1 1 1 1
node 2 1 1 1
node 3 1 1 3
node 4 3 0 2
node 14 1 0 0
node 146 1 0 0
gene  1 1 4 0.15166689104357767 0 1.0 0.15166689104357767 0
gene  2 2 4 -4.421371310138053 0 2.0 -4.421371310138053 0
gene  3 3 4 10.483693454367087 0 3.0 10.483693454367087 1
gene  1 1 14 0.6276649355806749 0 35.0 0.6276649355806749 1
gene  1 14 4 -7.745260128628811 0 36.0 -7.745260128628811 1
gene  1 2 14 13.932011884102234 0 242.0 13.932011884102234 1
gene  2 3 14 -8.155083591932712 0 254.0 -8.155083591932712 1
gene  2 2 146 1.9177616171807266 0 700.0 1.9177616171807266 1
gene  2 146 4 -8.164422837374373 0 701.0 -8.164422837374373 1
genomeend 13
/* Organism # 014 Fitness:  9,000 Error:  1,000                      */
genomestart  14
trait 1 0.0 0.0 0.0 0.11515979884592453 0.10820001854691197 0.6782844712534337 0.49826864144017213 0.0 
trait 2 0.2 0.0 0.0 0.0 0.0 0.0 0.0 0.0 
trait 3 0.3 0.0 0.0 0.0 0.0 0.0 0.0 0.0 
node 1 1 1 1
node 2 1 1 1
node 3 1 1 3
node 4 3 0 2
node 14 1 0 0
node 146 1 0 0
node 163 1 0 0
gene  1 1 4 -1.2397787161929168 0 1.0 -1.2397787161929168 0
gene  2 2 4 -6.630243033472768 0 2.0 -6.630243033472768 0
gene  3 3 4 10.40858440758342 0 3.0 10.40858440758342 1
gene  1 1 14 3.05185911350977 0 35.0 3.05185911350977 0
gene  1 14 4 -10.008532162909741 0 36.0 -10.008532162909741 1
gene  1 2 14 12.506632959123603 0 242.0 12.506632959123603 1
gene  2 3 14 -10.339584551767164 0 254.0 -10.339584551767164 1
gene  2 2 146 1.9177616171807266 0 700.0 1.9177616171807266 1
gene  2 146 4 -8.880164911996067 0 701.0 -8.880164911996067 1
gene  1 1 163 1.0 0 785.0 0.0 1
gene  1 163 14 3.05185911350977 0 786.0 0.0 1
genomeend 14
/* Organism # 015 Fitness:  9,000 Error:  1,000                      */
genomestart  15
trait 1 0.0 0.0 0.0 0.11515979884592453 0.10820001854691197 0.6782844712534337 0.49826864144017213 0.0 
trait 2 0.2 0.0 0.0 0.0 0.0 0.0 0.0 0.0 
trait 3 0.3 0.0 0.0 0.0 0.0 0.0 0.0 0.0 
node 1 1 1 1
node 2 1 1 1
node 3 1 1 3
node 4 3 0 2
node 14 1 0 0
node 146 1 0 0
gene  1 1 4 0.7699472186875078 0 1.0 0.7699472186875078 1
gene  2 2 4 -5.861902754977565 0 2.0 -5.861902754977565 0
gene  3 3 4 8.109513547238187 0 3.0 8.109513547238187 1
gene  1 1 14 3.2593483638206817 0 35.0 3.2593483638206817 1
gene  1 14 4 -8.910335572918738 0 36.0 -8.910335572918738 1
gene  1 2 14 14.370532824742984 0 242.0 14.370532824742984 1
gene  2 3 14 -9.4381405710656 0 254.0 -9.4381405710656 1
gene  2 2 146 2.502323378825341 0 700.0 2.502323378825341 1
gene  2 146 4 -9.935586896276078 0 701.0 -9.935586896276078 1
genomeend 15
/* Organism # 016 Fitness:  9,000 Error:  1,000                      */
genomestart  16
trait 1 0.0 0.0 0.0 0.11515979884592453 0.10820001854691197 0.6782844712534337 0.49826864144017213 0.0 
trait 2 0.2 0.0 0.0 0.0 0.0 0.0 0.0 0.0 
trait 3 0.3 0.0 0.0 0.0 0.0 0.0 0.0 0.0 
node 1 1 1 1
node 2 1 1 1
node 3 1 1 3
node 4 3 0 2
node 14 1 0 0
node 146 1 0 0
gene  1 1 4 -3.6883212212821466 0 1.0 -3.6883212212821466 0
gene  2 2 4 -5.751009293918061 0 2.0 -5.751009293918061 0
gene  3 3 4 9.545906076608727 0 3.0 9.545906076608727 1
gene  1 1 14 3.488773418337038 0 35.0 3.488773418337038 1
gene  1 14 4 -9.840056653992477 0 36.0 -9.840056653992477 1
gene  1 2 14 11.484640128535084 0 242.0 11.484640128535084 1
gene  2 3 14 -8.564130878761754 0 254.0 -8.564130878761754 1
gene  2 2 146 4.205054564843615 0 700.0 4.205054564843615 1
gene  2 146 4 -7.7759324594659285 0 701.0 -7.7759324594659285 1
genomeend 16
/* Organism # 017 Fitness:  9,000 Error:  1,000                      */
genomestart  17
trait 1 0.0 0.0 0.0 0.11515979884592453 0.10820001854691197 0.6782844712534337 0.49826864144017213 0.0 
trait 2 0.2 0.0 0.0 0.0 0.0 0.0 0.0 0.0 
trait 3 0.3 0.0 0.0 0.0 0.0 0.0 0.0 0.0 
node 1 1 1 1
node 2 2 1 1
node 3 1 1 3
node 4 3 0 2
node 14 1 0 0
node 146 1 0 0
gene  1 1 4 -1.2397787161929168 0 1.0 -1.2397787161929168 0
gene  2 2 4 -7.483804501516874 0 2.0 -7.483804501516874 0
gene  3 3 4 8.515406023537587 0 3.0 8.515406023537587 1
gene  1 1 14 -0.3571072172176862 0 35.0 -0.3571072172176862 1
gene  1 14 4 -10.004818464812352 0 36.0 -10.004818464812352 1
gene  1 2 14 14.268524906545316 0 242.0 14.268524906545316 1
gene  2 3 14 -1.5374107734419595 0 254.0 -1.5374107734419595 1
gene  2 2 146 3.5020541348583203 0 700.0 3.5020541348583203 1
gene  2 146 4 -9.122154926031312 0 701.0 -9.122154926031312 1
genomeend 17
/*-------------------------------------------------------------------*/
/* Species # 005         : (size= 005) (AvfFit= 8,919) (Age= 49,000)  */
/*-------------------------------------------------------------------*/
/* Organism # 018 Fitness:  8,596 Error:  1,068                      */
genomestart  18
trait 1 0.025 0.5448851764810688 0.0 0.0 0.0 0.3244007105419121 0.0 0.0 
trait 2 0.2 0.0 0.0 0.0 0.0 0.0 0.0 0.0 
trait 3 0.3190884541009838 0.0 0.0 0.0 0.1066469058176206 0.0 0.0 0.0 
node 1 1 1 1
node 2 1 1 1
node 3 1 1 3
node 4 2 0 2
node 6 1 0 0
node 10 1 0 0
gene  1 1 4 -1.598175178499335 0 1.0 -1.598175178499335 0
gene  2 2 4 0.531364547938876 0 2.0 0.531364547938876 1
gene  3 3 4 12.107151036717982 0 3.0 12.107151036717982 1
gene  1 1 6 -2.0339067863906357 0 6.0 -2.0339067863906357 0
gene  1 6 4 -11.913438343817509 0 7.0 -11.913438343817509 1
gene  1 1 10 3.926224823974392 0 17.0 3.926224823974392 1
gene  1 10 6 -0.21220143525699176 0 18.0 -0.21220143525699176 1
gene  1 3 6 -11.790015069066877 0 167.0 -11.790015069066877 1
gene  3 2 10 3.4050798346568674 0 182.0 3.4050798346568674 1
gene  1 2 6 -7.336347788423107 0 271.0 -7.336347788423107 1
gene  1 3 10 -1.1674417188512385 0 626.0 -1.1674417188512385 1
genomeend 18
/* Organism # 019 Fitness:  9,000 Error:  1,000                      */
genomestart  19
trait 1 0.025 0.5448851764810688 0.0 0.0 0.0 0.3244007105419121 0.0 0.0 
trait 2 0.2 0.0 0.0 0.0 0.0 0.0 0.0 0.0 
trait 3 0.3190884541009838 0.0 0.0 0.0 0.1066469058176206 0.0 0.0 0.0 
node 1 1 1 1
node 2 1 1 1
node 3 1 1 3
node 4 2 0 2
node 6 1 0 0
node 10 1 0 0
gene  1 1 4 6.10532744797324 0 1.0 6.10532744797324 0
gene  2 2 4 15.618029057237433 0 2.0 15.618029057237433 1
gene  3 3 4 15.972795307358021 0 3.0 15.972795307358021 1
gene  1 1 6 -0.37626712354306013 0 6.0 -0.37626712354306013 0
gene  1 6 4 -13.566567589004439 0 7.0 -13.566567589004439 1
gene  1 1 10 0.8857913852430908 0 17.0 0.8857913852430908 1
gene  1 10 6 2.818061389405218 0 18.0 2.818061389405218 1
gene  1 3 6 -11.977951016122898 0 167.0 -11.977951016122898 1
gene  3 2 10 0.6499404739044103 0 182.0 0.6499404739044103 1
gene  1 2 6 -9.509758002113031 0 271.0 -9.509758002113031 1
gene  1 3 10 -0.8288435670308736 0 626.0 -0.8288435670308736 1
genomeend 19
/* Organism # 020 Fitness:  9,000 Error:  1,000                      */
genomestart  20
trait 1 0.025 0.5448851764810688 0.0 0.0 0.0 0.3244007105419121 0.0 0.0 
trait 2 0.2 0.0 0.0 0.0 0.0 0.0 0.0 0.0 
trait 3 0.3190884541009838 0.0 0.0 0.0 0.1066469058176206 0.0 0.0 0.0 
node 1 1 1 1
node 2 1 1 1
node 3 1 1 3
node 4 2 0 2
node 6 1 0 0
node 10 1 0 0
gene  1 1 4 5.419125909422623 0 1.0 5.419125909422623 0
gene  2 2 4 13.23929581281107 0 2.0 13.23929581281107 1
gene  3 3 4 15.674013171373657 0 3.0 15.674013171373657 1
gene  1 1 6 -0.5170549830147684 0 6.0 -0.5170549830147684 0
gene  1 6 4 -13.59892855991132 0 7.0 -13.59892855991132 1
gene  1 1 10 0.35102515549837143 0 17.0 0.35102515549837143 1
gene  1 10 6 3.5294477397280826 0 18.0 3.5294477397280826 1
gene  1 3 6 -11.786257930201872 0 167.0 -11.786257930201872 1
gene  3 2 10 4.1487519287525965 0 182.0 4.1487519287525965 1
gene  1 2 6 -11.531457938283243 0 271.0 -11.531457938283243 1
gene  1 3 10 -1.7038637258371578 0 626.0 -1.7038637258371578 1
genomeend 20
/* Organism # 021 Fitness:  9,000 Error:  1,000                      */
genomestart  21
trait 1 0.025 0.5448851764810688 0.0 0.0 0.0 0.3244007105419121 0.0 0.0 
trait 2 0.2 0.0 0.0 0.0 0.0 0.0 0.0 0.0 
trait 3 0.3190884541009838 0.0 0.08418681035920061 0.0 0.1066469058176206 0.0 0.17279956238618355 0.6990299527401851 
node 1 1 1 1
node 2 1 1 1
node 3 1 1 3
node 4 2 0 2
node 6 1 0 0
node 10 1 0 0
gene  1 1 4 0.4996367429838007 0 1.0 0.4996367429838007 0
gene  2 2 4 9.183504868862654 0 2.0 9.183504868862654 1
gene  3 3 4 15.320349184198026 0 3.0 15.320349184198026 1
gene  1 1 6 -0.9321913079695907 0 6.0 -0.9321913079695907 0
gene  1 6 4 -14.841763861555554 0 7.0 -14.841763861555554 1
gene  1 1 10 4.805807786501053 0 17.0 4.805807786501053 1
gene  1 10 6 0.7200332592733669 0 18.0 0.7200332592733669 1
gene  1 3 6 -7.486435892432542 0 167.0 -7.486435892432542 1
gene  3 2 10 1.5815400565598017 0 182.0 1.5815400565598017 1
gene  1 2 6 -11.260389572439959 0 271.0 -11.260389572439959 1
gene  1 3 10 0.2943054555742708 0 626.0 0.2943054555742708 1
genomeend 21
/* Organism # 022 Fitness:  9,000 Error:  1,000                      */
genomestart  22
trait 1 0.025 0.5448851764810688 0.0 0.0 0.0 0.3244007105419121 0.0 0.0 
trait 2 0.2 0.0 0.0 0.0 0.0 0.0 0.0 0.0 
trait 3 0.3190884541009838 0.0 0.0 0.0 0.1066469058176206 0.0 0.0 0.0 
node 1 1 1 1
node 2 1 1 1
node 3 1 1 3
node 4 2 0 2
node 6 1 0 0
node 10 1 0 0
gene  1 1 4 2.3398543601188764 0 1.0 2.3398543601188764 0
gene  2 2 4 14.944154685170735 0 2.0 14.944154685170735 1
gene  3 3 4 12.92172089343535 0 3.0 12.92172089343535 1
gene  1 1 6 -0.8310730113444853 0 6.0 -0.8310730113444853 0
gene  1 6 4 -14.550652231740617 0 7.0 -14.550652231740617 1
gene  1 1 10 0.5845525866133803 0 17.0 0.5845525866133803 1
gene  1 10 6 3.282788510011944 0 18.0 3.282788510011944 1
gene  1 3 6 -12.933415031084259 0 167.0 -12.933415031084259 1
gene  3 2 10 2.655363774137178 0 182.0 2.655363774137178 1
gene  1 2 6 -9.617704210527748 0 271.0 -9.617704210527748 1
gene  1 3 10 1.205719832756957 0 626.0 1.205719832756957 1
genomeend 22
/*-------------------------------------------------------------------*/
/* Species # 006         : (size= 004) (AvfFit= 7,745) (Age= 48,000)  */
/*-------------------------------------------------------------------*/
/* Organism # 023 Fitness:  4,051 Error:  1,987                      */
genomestart  23
trait 1 0.1 0.0 0.0 0.0 0.0 0.0 0.0 0.0 
trait 2 0.0 0.0 0.0 0.0 0.0 0.7890145533368912 0.0 0.0 
trait 3 0.3 0.0 0.0 0.0 0.0 0.0 0.0 0.0 
node 1 1 1 1
node 2 1 1 1
node 3 1 1 3
node 4 1 0 2
node 5 2 0 0
node 11 1 0 0
node 139 1 0 0
node 145 1 0 0
gene  1 1 4 -4.345991065602442 0 1.0 -4.345991065602442 0
gene  2 2 4 4.989184813307052 0 2.0 4.989184813307052 1
gene  3 3 4 15.632135159021873 0 3.0 15.632135159021873 1
gene  1 1 5 4.232215756289495 0 4.0 4.232215756289495 1
gene  1 5 4 -1.000712674214674 0 5.0 -1.000712674214674 1
gene  3 2 5 1.4711297273528667 0 9.0 1.4711297273528667 1
gene  2 3 5 2.0528912157871595 0 19.0 2.0528912157871595 1
gene  2 2 11 3.2985010075447994 0 23.0 3.2985010075447994 1
gene  2 11 4 0.2786125335562059 0 24.0 0.2786125335562059 1
gene  2 5 11 8.612524559826307 0 127.0 8.612524559826307 1
gene  1 3 11 -0.885322469038635 0 231.0 -0.885322469038635 1
gene  2 1 11 -2.2842489997343502 0 612.0 -2.2842489997343502 1
gene  1 5 139 4.104911238288218 0 646.0 4.104911238288218 1
gene  1 139 4 1.6073378806326974 0 647.0 1.6073378806326974 1
gene  2 2 139 -2.4145924436911153 0 680.0 -2.4145924436911153 0
gene  2 2 145 -1.907040059957433 0 695.0 -1.907040059957433 1
gene  2 145 139 7.46912299671694 0 696.0 7.46912299671694 1
genomeend 23
/* Organism # 024 Fitness:  8,947 Error:  1,009                      */
genomestart  24
trait 1 0.1 0.0 0.0 0.0 0.0 0.0 0.0 0.0 
trait 2 0.0 0.0 0.0 0.0 0.0 0.7890145533368912 0.0 0.0 
trait 3 0.3 0.0 0.0 0.0 0.0 0.0 0.0 0.0 
node 1 1 1 1
node 2 1 1 1
node 3 1 1 3
node 4 1 0 2
node 5 2 0 0
node 11 1 0 0
node 139 1 0 0
node 145 1 0 0
gene  1 1 4 -7.077053081663065 0 1.0 -7.077053081663065 0
gene  2 2 4 8.64814958126321 0 2.0 8.64814958126321 1
gene  3 3 4 15.887645714707373 0 3.0 15.887645714707373 1
gene  1 1 5 1.8246750738703919 0 4.0 1.8246750738703919 1
gene  1 5 4 -4.331256122683533 0 5.0 -4.331256122683533 1
gene  3 2 5 3.6740026556530574 0 9.0 3.6740026556530574 1
gene  2 3 5 1.1808941593847169 0 19.0 1.1808941593847169 1
gene  2 2 11 1.8813272761712212 0 23.0 1.8813272761712212 1
gene  2 11 4 2.185774473490118 0 24.0 2.185774473490118 1
gene  2 5 11 6.338400882764742 0 127.0 6.338400882764742 1
gene  1 3 11 -1.538567341012052 0 231.0 -1.538567341012052 1
gene  2 1 11 -2.244919717174955 0 612.0 -2.244919717174955 1
gene  1 5 139 4.5542392537412155 0 646.0 4.5542392537412155 1
gene  1 139 4 1.1882999427423853 0 647.0 1.1882999427423853 1
gene  2 2 139 7.207773643320552 0 680.0 7.207773643320552 0
gene  2 2 145 -1.8901854453486542 0 695.0 -1.8901854453486542 1
gene  2 145 139 6.740557955070296 0 696.0 6.740557955070296 1
genomeend 24
/* Organism # 025 Fitness:  9,000 Error:  1,000                      */
genomestart  25
trait 1 0.1 0.0 0.0 0.0 0.0 0.0 0.0 0.0 
trait 2 0.0 0.0 0.0 0.0 0.0 0.7890145533368912 0.0 0.0 
trait 3 0.3 0.0 0.0 0.0 0.0 0.0 0.0 0.0 
node 1 1 1 1
node 2 1 1 1
node 3 1 1 3
node 4 1 0 2
node 5 2 0 0
node 11 1 0 0
node 139 1 0 0
node 145 1 0 0
gene  1 1 4 -6.709735388837861 0 1.0 -6.709735388837861 0
gene  2 2 4 8.563191021433184 0 2.0 8.563191021433184 1
gene  3 3 4 16.31240848418183 0 3.0 16.31240848418183 1
gene  1 1 5 0.9222160095790075 0 4.0 0.9222160095790075 1
gene  1 5 4 -2.3891751567592903 0 5.0 -2.3891751567592903 1
gene  3 2 5 5.713017523651818 0 9.0 5.713017523651818 1
gene  2 3 5 1.8986199413969809 0 19.0 1.8986199413969809 1
gene  2 2 11 3.8766325965208437 0 23.0 3.8766325965208437 1
gene  2 11 4 -1.425560665063485 0 24.0 -1.425560665063485 1
gene  2 5 11 6.774896323271701 0 127.0 6.774896323271701 1
gene  1 3 11 -0.7628280635575331 0 231.0 -0.7628280635575331 1
gene  2 1 11 -1.8518827727022515 0 612.0 -1.8518827727022515 1
gene  1 5 139 4.495495010983474 0 646.0 4.495495010983474 1
gene  1 139 4 -1.3954844752834452 0 647.0 -1.3954844752834452 1
gene  2 2 139 6.0424406045521595 0 680.0 6.0424406045521595 0
gene  2 2 145 -3.139759211157515 0 695.0 -3.139759211157515 1
gene  2 145 139 8.36905133710522 0 696.0 8.36905133710522 1
genomeend 25
/* Organism # 026 Fitness:  8,985 Error:  1,003                      */
genomestart  26
trait 1 0.425295007126933 0.8949664498831688 0.0 0.9534313266374166 0.0 0.0 0.14223692632069274 0.0 
trait 2 0.0 0.0 0.0 0.0 0.0 0.7890145533368912 0.0 0.0 
trait 3 0.3 0.0 0.0 0.0 0.0 0.0 0.0 0.0 
node 1 1 1 1
node 2 1 1 1
node 3 1 1 3
node 4 1 0 2
node 5 2 0 0
node 11 1 0 0
node 139 1 0 0
node 145 1 0 0
gene  1 1 4 -5.151401248626845 0 1.0 -5.151401248626845 0
gene  2 2 4 6.247924748050648 0 2.0 6.247924748050648 1
gene  3 3 4 14.376145243542823 0 3.0 14.376145243542823 1
gene  1 1 5 2.3412714469428164 0 4.0 2.3412714469428164 1
gene  1 5 4 -2.985954333031211 0 5.0 -2.985954333031211 1
gene  3 2 5 3.1614748762846503 0 9.0 3.1614748762846503 1
gene  2 3 5 2.6661335951999985 0 19.0 2.6661335951999985 1
gene  2 2 11 4.881096875742763 0 23.0 4.881096875742763 1
gene  2 11 4 -1.095514017396439 0 24.0 -1.095514017396439 1
gene  2 5 11 4.690373815197178 0 127.0 4.690373815197178 1
gene  1 3 11 1.9511962114111165 0 231.0 1.9511962114111165 1
gene  2 1 11 -2.6166744742775263 0 612.0 -2.6166744742775263 1
gene  1 5 139 2.630683077946668 0 646.0 2.630683077946668 1
gene  1 139 4 -0.9541311458441593 0 647.0 -0.9541311458441593 1
gene  2 2 139 -1.9109379095412191 0 680.0 -1.9109379095412191 0
gene  2 2 145 -1.8901854453486542 0 695.0 -1.8901854453486542 1
gene  2 145 139 0.917894463258774 0 696.0 0.917894463258774 1
genomeend 26
/*-------------------------------------------------------------------*/
/* Species # 007         : (size= 003) (AvfFit= 7,251) (Age= 48,000)  */
/*-------------------------------------------------------------------*/
/* Organism # 027 Fitness:  3,754 Error:  2,062                      */
genomestart  27
trait 1 0.8852445140920412 0.4100005836106212 0.0 0.0 0.0 0.0 0.0 0.0 
trait 2 0.1 0.0 0.2745656836152613 0.8163729433678998 0.0 0.3301629726161752 0.4434326801698363 0.0 
trait 3 0.3 0.0 0.0 0.0 0.0 0.0 0.0 0.0 
node 1 1 1 1
node 2 1 1 1
node 3 1 1 3
node 4 1 0 2
node 12 1 0 0
node 14 1 0 0
node 15 2 0 0
gene  1 1 4 1.8064834391493803 0 1.0 1.8064834391493803 1
gene  2 2 4 -6.810620024755161 0 2.0 -6.810620024755161 1
gene  3 3 4 13.447020767596518 0 3.0 13.447020767596518 1
gene  1 1 14 2.641681346744039 0 35.0 2.641681346744039 1
gene  1 14 4 -2.356885072198682 0 36.0 -2.356885072198682 1
gene  1 1 15 1.2891313735685772 0 40.0 1.2891313735685772 1
gene  1 15 12 -10.2180714407973 0 41.0 -10.2180714407973 1
gene  3 3 15 3.2106259040474674 0 92.0 3.2106259040474674 1
gene  3 2 15 -0.08784742276488372 0 159.0 -0.08784742276488372 1
gene  3 2 12 -2.2847825086653804 0 208.0 -2.2847825086653804 1
gene  1 14 15 0.2421907307429425 0 399.0 0.2421907307429425 1
gene  2 4 15 2.0629790960533114 0 639.0 2.0629790960533114 1
genomeend 27
/* Organism # 028 Fitness:  9,000 Error:  1,000                      */
genomestart  28
trait 1 0.8852445140920412 0.4100005836106212 0.0 0.0 0.0 0.0 0.0 0.0 
trait 2 0.1 0.0 0.2745656836152613 0.8163729433678998 0.0 0.3301629726161752 0.4434326801698363 0.0 
trait 3 0.3 0.0 0.0 0.0 0.0 0.0 0.0 0.0 
node 1 1 1 1
node 2 1 1 1
node 3 1 1 3
node 4 1 0 2
node 12 1 0 0
node 14 1 0 0
node 15 2 0 0
gene  1 1 4 -3.4551109423533224 0 1.0 -3.4551109423533224 1
gene  2 2 4 -8.980266198430071 0 2.0 -8.980266198430071 1
gene  3 3 4 12.736738523543988 0 3.0 12.736738523543988 1
gene  1 1 14 4.053671181368722 0 35.0 4.053671181368722 1
gene  1 14 4 -5.091811692837978 0 36.0 -5.091811692837978 1
gene  1 1 15 0.8956772782020147 0 40.0 0.8956772782020147 1
gene  1 15 12 1.914441837934099 0 41.0 1.914441837934099 1
gene  3 3 15 -0.557831917719487 0 92.0 -0.557831917719487 1
gene  3 2 15 1.375652884539752 0 159.0 1.375652884539752 1
gene  3 2 12 0.7227850650596063 0 208.0 0.7227850650596063 1
gene  1 14 15 -1.4976552059272144 0 399.0 -1.4976552059272144 1
gene  2 4 15 0.5777757308318057 0 639.0 0.5777757308318057 1
genomeend 28
/* Organism # 029 Fitness:  9,000 Error:  1,000                      */
genomestart  29
trait 1 0.8852445140920412 0.4100005836106212 0.0 0.0 0.0 0.0 0.0 0.0 
trait 2 0.1 0.0 0.2745656836152613 0.8163729433678998 0.0 0.3301629726161752 0.4434326801698363 0.0 
trait 3 0.3 0.0 0.0 0.0 0.0 0.0 0.0 0.0 
node 1 1 1 1
node 2 1 1 1
node 3 1 1 3
node 4 1 0 2
node 12 1 0 0
node 14 1 0 0
node 15 2 0 0
gene  1 1 4 -5.347307729847998 0 1.0 -5.347307729847998 1
gene  2 2 4 -8.02407970621053 0 2.0 -8.02407970621053 1
gene  3 3 4 12.312932919739074 0 3.0 12.312932919739074 1
gene  1 1 14 3.6616316529328685 0 35.0 3.6616316529328685 1
gene  1 14 4 -5.032266736744483 0 36.0 -5.032266736744483 1
gene  1 1 15 -0.32880842307934066 0 40.0 -0.32880842307934066 1
gene  1 15 12 -11.538550028433912 0 41.0 -11.538550028433912 1
gene  3 3 15 6.238639284605766 0 92.0 6.238639284605766 1
gene  3 2 15 -2.6304138370165764 0 159.0 -2.6304138370165764 1
gene  3 2 12 -4.33776289867034 0 208.0 -4.33776289867034 1
gene  1 14 15 -2.0524861569449304 0 399.0 -2.0524861569449304 1
gene  2 4 15 -1.515384682694752 0 639.0 -1.515384682694752 1
genomeend 29
/*-------------------------------------------------------------------*/
/* Species # 008         : (size= 005) (AvfFit= 7,988) (Age= 48,000)  */
/*-------------------------------------------------------------------*/
/* Organism # 030 Fitness:  9,000 Error:  1,000                      */
genomestart  30
trait 1 0.24065012538159075 0.15036456107791457 0.4671000768679908 0.0594094503700963 0.25417881566220435 0.07082942154753001 0.0 0.06928844706069931 
trait 2 0.2 0.4593718097531386 0.0 0.0 0.0 0.0 0.9634715117673269 0.5072397795116275 
trait 3 0.0 0.0 0.0 0.49013225173947217 0.0 0.1608150986896274 0.0 0.0 
node 1 1 1 1
node 2 1 1 1
node 3 3 1 3
node 4 2 0 2
node 5 1 0 0
node 7 1 0 0
node 11 1 0 0
node 128 1 0 0
gene  1 1 4 14.685500963928792 0 1.0 14.685500963928792 1
gene  1 2 4 -6.606007359629976 0 2.0 -6.606007359629976 0
gene  3 3 4 19.669760229166506 0 3.0 19.669760229166506 1
gene  2 1 5 2.340117404569205 0 4.0 2.340117404569205 1
gene  1 5 4 -11.815035932790373 0 5.0 -11.815035932790373 1
gene  1 2 5 -13.894414841506078 0 9.0 -13.894414841506078 1
gene  1 1 7 2.3644578735699304 0 10.0 2.3644578735699304 1
gene  1 7 4 -9.80416969164701 0 11.0 -9.80416969164701 1
gene  2 2 11 11.756844784551369 0 23.0 11.756844784551369 1
gene  2 11 4 -0.5461126857996645 0 24.0 -0.5461126857996645 1
gene  2 11 7 0.8585553897376221 0 83.0 0.8585553897376221 1
gene  1 3 5 -4.7982382222381 0 500.0 -4.7982382222381 1
gene  1 1 128 2.450090725334411 0 589.0 2.450090725334411 1
gene  1 128 7 0.36013414342913663 0 590.0 0.36013414342913663 1
genomeend 30
/* Organism # 031 Fitness:  9,000 Error:  1,000                      */
genomestart  31
trait 1 0.24065012538159075 0.15036456107791457 0.4671000768679908 0.0594094503700963 0.25417881566220435 0.07082942154753001 0.0 0.06928844706069931 
trait 2 0.2 0.4593718097531386 0.0 0.0 0.0 0.0 0.9634715117673269 0.5072397795116275 
trait 3 0.0 0.0 0.0 0.49013225173947217 0.0 0.1608150986896274 0.0 0.0 
node 1 1 1 1
node 2 1 1 1
node 3 3 1 3
node 4 2 0 2
node 5 1 0 0
node 7 1 0 0
node 11 1 0 0
node 128 1 0 0
gene  1 1 4 15.019554672182606 0 1.0 15.019554672182606 1
gene  1 2 4 1.8260402768724835 0 2.0 1.8260402768724835 0
gene  3 3 4 20.617264372835585 0 3.0 20.617264372835585 1
gene  2 1 5 6.778794903412882 0 4.0 6.778794903412882 1
gene  1 5 4 -11.279292446749045 0 5.0 -11.279292446749045 1
gene  1 2 5 -10.658518671526478 0 9.0 -10.658518671526478 1
gene  1 1 7 3.169835821689774 0 10.0 3.169835821689774 1
gene  1 7 4 -8.750480316406032 0 11.0 -8.750480316406032 1
gene  2 2 11 0.3257864726265103 0 23.0 0.3257864726265103 1
gene  2 11 4 4.687491530677101 0 24.0 4.687491530677101 1
gene  2 11 7 1.6247441903924653 0 83.0 1.6247441903924653 1
gene  1 3 5 -3.5962868008413396 0 500.0 -3.5962868008413396 1
gene  1 1 128 -0.24872676138871364 0 589.0 -0.24872676138871364 1
gene  1 128 7 -1.3536862649445474 0 590.0 -1.3536862649445474 1
genomeend 31
/* Organism # 032 Fitness:  4,001 Error:  2,000                      */
genomestart  32
trait 1 0.24065012538159075 0.15036456107791457 0.4671000768679908 0.0594094503700963 0.25417881566220435 0.07082942154753001 0.0 0.06928844706069931 
trait 2 0.2 0.4593718097531386 0.0 0.0 0.0 0.0 0.9634715117673269 0.5072397795116275 
trait 3 0.0 0.0 0.0 0.49013225173947217 0.0 0.1608150986896274 0.0 0.0 
node 1 1 1 1
node 2 1 1 1
node 3 3 1 3
node 4 2 0 2
node 5 1 0 0
node 7 1 0 0
node 11 1 0 0
node 128 1 0 0
gene  1 1 4 11.733442379876232 0 1.0 11.733442379876232 1
gene  1 2 4 -1.5477616507675256 0 2.0 -1.5477616507675256 0
gene  3 3 4 22.186682301405177 0 3.0 22.186682301405177 1
gene  2 1 5 4.521436509669433 0 4.0 4.521436509669433 1
gene  1 5 4 -12.704610023721461 0 5.0 -12.704610023721461 1
gene  1 2 5 -1.2442877325061985 0 9.0 -1.2442877325061985 1
gene  1 1 7 0.19721487671030075 0 10.0 0.19721487671030075 1
gene  1 7 4 -6.627765837603233 0 11.0 -6.627765837603233 1
gene  2 2 11 11.842626757427144 0 23.0 11.842626757427144 1
gene  2 11 4 5.24981074478802 0 24.0 5.24981074478802 1
gene  2 11 7 -1.9775380608498951 0 83.0 -1.9775380608498951 1
gene  1 3 5 -3.70415954217689 0 500.0 -3.70415954217689 1
gene  1 1 128 0.8103867852300506 0 589.0 0.8103867852300506 1
gene  1 128 7 -2.2472205246441774 0 590.0 -2.2472205246441774 1
genomeend 32
/* Organism # 033 Fitness:  8,936 Error:  1,011                      */
genomestart  33
trait 1 0.24065012538159075 0.15036456107791457 0.4671000768679908 0.0594094503700963 0.25417881566220435 0.07082942154753001 0.0 0.06928844706069931 
trait 2 0.2 0.4593718097531386 0.0 0.0 0.0 0.0 0.9634715117673269 0.5072397795116275 
trait 3 0.0 0.0 0.0 0.49013225173947217 0.0 0.1608150986896274 0.0 0.0 
node 1 1 1 1
node 2 1 1 1
node 3 3 1 3
node 4 2 0 2
node 5 1 0 0
node 7 1 0 0
node 11 1 0 0
node 128 1 0 0
gene  1 1 4 14.720135161123892 0 1.0 14.720135161123892 1
gene  1 2 4 -5.779389110766971 0 2.0 -5.779389110766971 0
gene  3 3 4 23.796733073813364 0 3.0 23.796733073813364 1
gene  2 1 5 5.645097320792086 0 4.0 5.645097320792086 1
gene  1 5 4 -9.340284038553897 0 5.0 -9.340284038553897 1
gene  1 2 5 -12.500541343131617 0 9.0 -12.500541343131617 1
gene  1 1 7 2.098379345124318 0 10.0 2.098379345124318 1
gene  1 7 4 -7.309443861764886 0 11.0 -7.309443861764886 1
gene  2 2 11 13.223804060548268 0 23.0 13.223804060548268 1
gene  2 11 4 2.0166665918276885 0 24.0 2.0166665918276885 1
gene  2 11 7 -0.24968360341811335 0 83.0 -0.24968360341811335 1
gene  1 3 5 -4.510466289732367 0 500.0 -4.510466289732367 1
gene  1 1 128 -0.24872676138871364 0 589.0 -0.24872676138871364 1
gene  1 128 7 0.36013414342913663 0 590.0 0.36013414342913663 1
genomeend 33
/* Organism # 034 Fitness:  9,000 Error:  1,000                      */
genomestart  34
trait 1 0.24065012538159075 0.15036456107791457 0.4671000768679908 0.0594094503700963 0.25417881566220435 0.07082942154753001 0.0 0.06928844706069931 
trait 2 0.2 0.4593718097531386 0.0 0.0 0.0 0.0 0.9634715117673269 0.5072397795116275 
trait 3 0.0 0.0 0.0 0.49013225173947217 0.0 0.1608150986896274 0.0 0.0 
node 1 1 1 1
node 2 1 1 1
node 3 3 1 3
node 4 2 0 2
node 5 1 0 0
node 7 1 0 0
node 11 1 0 0
node 128 1 0 0
gene  1 1 4 13.586768578118772 0 1.0 13.586768578118772 1
gene  1 2 4 -5.648278110189461 0 2.0 -5.648278110189461 0
gene  3 3 4 21.969101572547718 0 3.0 21.969101572547718 1
gene  2 1 5 4.521436509669433 0 4.0 4.521436509669433 1
gene  1 5 4 -11.390514993054285 0 5.0 -11.390514993054285 1
gene  1 2 5 -12.459417652804394 0 9.0 -12.459417652804394 1
gene  1 1 7 4.042893177397339 0 10.0 4.042893177397339 1
gene  1 7 4 -8.423590725764756 0 11.0 -8.423590725764756 1
gene  2 2 11 12.737745056497962 0 23.0 12.737745056497962 1
gene  2 11 4 4.135514337975682 0 24.0 4.135514337975682 1
gene  2 11 7 -0.7654706200377408 0 83.0 -0.7654706200377408 1
gene  1 3 5 -4.975439875866412 0 500.0 -4.975439875866412 1
gene  1 1 128 -0.24872676138871364 0 589.0 -0.24872676138871364 1
gene  1 128 7 0.36013414342913663 0 590.0 0.36013414342913663 1
gene  1 2 7 0.5173021329294669 0 787.0 0.5173021329294669 1
genomeend 34
/*-------------------------------------------------------------------*/
/* Species # 009         : (size= 005) (AvfFit= 9,000) (Age= 47,000)  */
/*-------------------------------------------------------------------*/
/* Organism # 035 Fitness:  9,000 Error:  1,000                      */
genomestart  35
trait 1 0.5993285321064178 0.37325862713536245 0.3470699875744914 0.0 0.0 0.0 0.21626607936537567 0.2434966697139031 
trait 2 0.2 0.0 0.0 0.0 0.0 0.0 0.0 0.0 
trait 3 0.0 0.4794974256484471 0.06240878671803361 0.42377416547017843 0.0 0.8446322349347548 0.0 0.9033580189877816 
node 1 1 1 1
node 2 1 1 1
node 3 1 1 3
node 4 2 0 2
node 5 3 0 0
node 56 3 0 0
gene  1 1 4 0.015734079343913798 0 1.0 0.015734079343913798 1
gene  2 2 4 16.60988896106276 0 2.0 16.60988896106276 1
gene  1 3 4 17.945785141244325 0 3.0 17.945785141244325 1
gene  1 1 5 1.1537702604843727 0 4.0 1.1537702604843727 1
gene  1 5 4 -9.514773661983972 0 5.0 -9.514773661983972 1
gene  1 2 5 -2.661246014728711 0 9.0 -2.661246014728711 1
gene  1 3 5 -6.70290628574979 0 14.0 -6.70290628574979 1
gene  1 1 56 -3.271345850736794 0 236.0 -3.271345850736794 1
gene  1 56 4 1.3291949304883734 0 237.0 1.3291949304883734 1
gene  3 2 56 1.8061988105796434 0 250.0 1.8061988105796434 1
gene  1 5 56 1.8396755998567926 0 757.0 1.8396755998567926 1
gene  1 3 56 6.7987680627167215 0 777.0 6.7987680627167215 1
genomeend 35
/* Organism # 036 Fitness:  9,000 Error:  1,000                      */
genomestart  36
trait 1 0.5993285321064178 0.37325862713536245 0.3470699875744914 0.0 0.0 0.0 0.21626607936537567 0.2434966697139031 
trait 2 0.2 0.0 0.0 0.0 0.0 0.0 0.0 0.0 
trait 3 0.0 0.4794974256484471 0.06240878671803361 0.42377416547017843 0.0 0.8446322349347548 0.0 0.9033580189877816 
node 1 1 1 1
node 2 1 1 1
node 3 1 1 3
node 4 2 0 2
node 5 3 0 0
node 56 3 0 0
gene  1 1 4 -1.1303806205893 0 1.0 -1.1303806205893 1
gene  2 2 4 15.151042777037796 0 2.0 15.151042777037796 1
gene  1 3 4 18.77656286612313 0 3.0 18.77656286612313 1
gene  1 1 5 2.395975849242852 0 4.0 2.395975849242852 1
gene  1 5 4 -10.689099334751319 0 5.0 -10.689099334751319 1
gene  1 2 5 -2.5733398905898315 0 9.0 -2.5733398905898315 1
gene  1 3 5 -4.678951202843146 0 14.0 -4.678951202843146 1
gene  1 1 56 -2.8083136487298384 0 236.0 -2.8083136487298384 1
gene  1 56 4 2.114357383504447 0 237.0 2.114357383504447 1
gene  3 2 56 0.8300428790509373 0 250.0 0.8300428790509373 1
gene  1 5 56 1.8396755998567926 0 757.0 1.8396755998567926 1
genomeend 36
/* Organism # 037 Fitness:  9,000 Error:  1,000                      */
genomestart  37
trait 1 0.5993285321064178 0.37325862713536245 0.3470699875744914 0.0 0.0 0.0 0.21626607936537567 0.2434966697139031 
trait 2 0.2 0.0 0.0 0.0 0.0 0.0 0.0 0.0 
trait 3 0.0 0.4794974256484471 0.06240878671803361 0.42377416547017843 0.0 0.8446322349347548 0.0 0.9033580189877816 
node 1 1 1 1
node 2 1 1 1
node 3 1 1 3
node 4 2 0 2
node 5 3 0 0
node 56 3 0 0
gene  1 1 4 0.015734079343913798 0 1.0 0.015734079343913798 1
gene  2 2 4 16.60988896106276 0 2.0 16.60988896106276 1
gene  1 3 4 17.945785141244325 0 3.0 17.945785141244325 1
gene  1 1 5 1.1537702604843727 0 4.0 1.1537702604843727 1
gene  1 5 4 -9.514773661983972 0 5.0 -9.514773661983972 1
gene  1 2 5 -2.661246014728711 0 9.0 -2.661246014728711 1
gene  1 3 5 -6.70290628574979 0 14.0 -6.70290628574979 1
gene  1 1 56 -3.271345850736794 0 236.0 -3.271345850736794 1
gene  1 56 4 1.3291949304883734 0 237.0 1.3291949304883734 1
gene  3 2 56 1.8061988105796434 0 250.0 1.8061988105796434 1
gene  1 5 56 1.8396755998567926 0 757.0 1.8396755998567926 1
gene  1 3 56 6.7987680627167215 0 777.0 0.0 1
genomeend 37
/* Organism # 038 Fitness:  9,000 Error:  1,000                      */
genomestart  38
trait 1 0.5993285321064178 0.37325862713536245 0.3470699875744914 0.0 0.0 0.0 0.21626607936537567 0.2434966697139031 
trait 2 0.2 0.0 0.0 0.0 0.0 0.0 0.0 0.0 
trait 3 0.0 0.4794974256484471 0.06240878671803361 0.42377416547017843 0.0 0.8446322349347548 0.0 0.9033580189877816 
node 1 1 1 1
node 2 1 1 1
node 3 1 1 3
node 4 2 0 2
node 5 3 0 0
node 56 3 0 0
gene  1 1 4 0.939824610060689 0 1.0 0.939824610060689 1
gene  2 2 4 17.364440042473387 0 2.0 17.364440042473387 1
gene  1 3 4 18.064015487928426 0 3.0 18.064015487928426 1
gene  1 1 5 1.1205330036733778 0 4.0 1.1205330036733778 1
gene  1 5 4 -8.511960751727788 0 5.0 -8.511960751727788 1
gene  1 2 5 -2.661246014728711 0 9.0 -2.661246014728711 1
gene  1 3 5 -5.82514897630794 0 14.0 -5.82514897630794 1
gene  1 1 56 -4.260136822584909 0 236.0 -4.260136822584909 1
gene  1 56 4 -0.9707428980384762 0 237.0 -0.9707428980384762 1
gene  3 2 56 0.28372077647926125 0 250.0 0.28372077647926125 1
gene  1 5 56 2.047926018993777 0 757.0 2.047926018993777 1
genomeend 38
/* Organism # 039 Fitness:  9,000 Error:  1,000                      */
genomestart  39
trait 1 0.5993285321064178 0.37325862713536245 0.3470699875744914 0.0 0.0 0.0 0.21626607936537567 0.2434966697139031 
trait 2 0.2 0.0 0.0 0.0 0.0 0.0 0.0 0.0 
trait 3 0.0 0.4794974256484471 0.06240878671803361 0.42377416547017843 0.0 0.8446322349347548 0.0 0.9033580189877816 
node 1 1 1 1
node 2 1 1 1
node 3 1 1 3
node 4 2 0 2
node 5 3 0 0
node 56 3 0 0
gene  1 1 4 -1.292064363663325 0 1.0 -1.292064363663325 1
gene  2 2 4 14.123337455138735 0 2.0 14.123337455138735 1
gene  1 3 4 16.0844355185683 0 3.0 16.0844355185683 1
gene  1 1 5 0.950930670798393 0 4.0 0.950930670798393 1
gene  1 5 4 -11.447287989192493 0 5.0 -11.447287989192493 1
gene  1 2 5 -4.771064191391367 0 9.0 -4.771064191391367 1
gene  1 3 5 -5.203371522856239 0 14.0 -5.203371522856239 1
gene  1 1 56 -4.640849047969821 0 236.0 -4.640849047969821 1
gene  1 56 4 1.9284651553053955 0 237.0 1.9284651553053955 1
gene  3 2 56 4.148931379402549 0 250.0 4.148931379402549 1
gene  1 5 56 1.8396755998567926 0 757.0 1.8396755998567926 1
genomeend 39
/*-------------------------------------------------------------------*/
/* Species # 010         : (size= 004) (AvfFit= 9,000) (Age= 47,000)  */
/*-------------------------------------------------------------------*/
/* Organism # 040 Fitness:  9,000 Error:  1,000                      */
genomestart  40
trait 1 0.1 0.12337605011521194 0.0 0.0 0.12456274929720906 0.03212569888679681 0.0 0.0223559206539692 
trait 2 0.2 0.7428131076073421 0.0 0.6194596212085887 0.0 0.0 0.0 0.0 
trait 3 0.0 0.0 0.49640954461309594 0.0 0.0 0.5634905550359267 0.802104184087284 0.0 
node 1 1 1 1
node 2 1 1 1
node 3 1 1 3
node 4 2 0 2
node 5 1 0 0
node 7 1 0 0
node 12 1 0 0
gene  1 1 4 -0.011448717388149343 0 1.0 -0.011448717388149343 0
gene  1 2 4 18.25344269484527 0 2.0 18.25344269484527 1
gene  3 3 4 -14.518711702592867 0 3.0 -14.518711702592867 1
gene  1 1 5 -1.6024642367346453 0 4.0 -1.6024642367346453 1
gene  1 5 4 0.7299139064484703 0 5.0 0.7299139064484703 1
gene  1 1 7 2.8819987374686455 0 10.0 2.8819987374686455 1
gene  1 7 4 3.1940780182011705 0 11.0 3.1940780182011705 1
gene  1 1 12 4.41935746023586 0 25.0 4.41935746023586 1
gene  1 12 4 -10.018381889110765 0 26.0 -10.018381889110765 1
gene  3 2 7 -1.6297078519584858 0 577.0 -1.6297078519584858 1
gene  2 5 7 3.281522874784041 0 686.0 3.281522874784041 1
gene  2 12 7 -2.151511999241835 0 725.0 -2.151511999241835 1
genomeend 40
/* Organism # 041 Fitness:  9,000 Error:  1,000                      */
genomestart  41
trait 1 0.1 0.12337605011521194 0.0 0.0 0.12456274929720906 0.03212569888679681 0.0 0.0223559206539692 
trait 2 0.2 0.7428131076073421 0.0 0.6194596212085887 0.0 0.0 0.0 0.0 
trait 3 0.0 0.0 0.49640954461309594 0.0 0.0 0.5634905550359267 0.802104184087284 0.0 
node 1 1 1 1
node 2 1 1 1
node 3 1 1 3
node 4 2 0 2
node 5 1 0 0
node 7 1 0 0
node 12 1 0 0
gene  1 1 4 -0.6383561104750917 0 1.0 -0.6383561104750917 0
gene  1 2 4 15.182451440689015 0 2.0 15.182451440689015 1
gene  3 3 4 -13.254370968959096 0 3.0 -13.254370968959096 1
gene  1 1 5 2.435275871598828 0 4.0 2.435275871598828 1
gene  1 5 4 0.3873728571552111 0 5.0 0.3873728571552111 1
gene  1 1 7 3.8597766442735617 0 10.0 3.8597766442735617 1
gene  1 7 4 3.1830419309186886 0 11.0 3.1830419309186886 1
gene  1 1 12 4.082915651226809 0 25.0 4.082915651226809 1
gene  1 12 4 -10.271235431917706 0 26.0 -10.271235431917706 1
gene  3 2 7 -1.669063421362007 0 577.0 -1.669063421362007 1
gene  2 5 7 -1.2899481649730338 0 686.0 -1.2899481649730338 1
gene  2 12 7 2.243736169415432 0 725.0 2.243736169415432 1
genomeend 41
/* Organism # 042 Fitness:  9,000 Error:  1,000                      */
genomestart  42
trait 1 0.1 0.12337605011521194 0.0 0.0 0.12456274929720906 0.03212569888679681 0.0 0.0223559206539692 
trait 2 0.2 0.7428131076073421 0.0 0.6194596212085887 0.0 0.0 0.0 0.0 
trait 3 0.0 0.0 0.49640954461309594 0.0 0.0 0.5634905550359267 0.802104184087284 0.0 
node 1 1 1 1
node 2 1 1 1
node 3 1 1 3
node 4 2 0 2
node 5 1 0 0
node 7 1 0 0
node 12 1 0 0
gene  1 1 4 0.7196055276593051 0 1.0 0.7196055276593051 0
gene  1 2 4 17.680639485496044 0 2.0 17.680639485496044 1
gene  3 3 4 -15.584683288969167 0 3.0 -15.584683288969167 1
gene  1 1 5 2.0584302010456073 0 4.0 2.0584302010456073 1
gene  1 5 4 -0.29641646174532177 0 5.0 -0.29641646174532177 1
gene  1 1 7 3.441897472364642 0 10.0 3.441897472364642 1
gene  1 7 4 2.4544272676459102 0 11.0 2.4544272676459102 1
gene  1 1 12 1.3936892367252491 0 25.0 1.3936892367252491 1
gene  1 12 4 -11.74858708875366 0 26.0 -11.74858708875366 1
gene  3 2 7 -4.385653711913596 0 577.0 -4.385653711913596 1
gene  2 5 7 -0.9730352543606108 0 686.0 -0.9730352543606108 1
gene  2 12 7 -1.1462115479979471 0 725.0 -1.1462115479979471 1
genomeend 42
/* Organism # 043 Fitness:  9,000 Error:  1,000                      */
genomestart  43
trait 1 0.1 0.12337605011521194 0.0 0.0 0.12456274929720906 0.03212569888679681 0.0 0.0223559206539692 
trait 2 0.2 0.7428131076073421 0.0 0.6194596212085887 0.0 0.0 0.0 0.0 
trait 3 0.0 0.0 0.49640954461309594 0.0 0.0 0.5634905550359267 0.802104184087284 0.0 
node 1 1 1 1
node 2 1 1 1
node 3 1 1 3
node 4 2 0 2
node 5 1 0 0
node 7 1 0 0
node 12 1 0 0
gene  1 1 4 0.10859042755117354 0 1.0 0.10859042755117354 0
gene  1 2 4 15.875893093744844 0 2.0 15.875893093744844 1
gene  3 3 4 -16.91252373832932 0 3.0 -16.91252373832932 1
gene  1 1 5 -0.07859937800899108 0 4.0 -0.07859937800899108 1
gene  1 5 4 1.3828535475214516 0 5.0 1.3828535475214516 1
gene  1 1 7 1.5254262528077405 0 10.0 1.5254262528077405 1
gene  1 7 4 1.2701767416333425 0 11.0 1.2701767416333425 1
gene  1 1 12 2.075197720662256 0 25.0 2.075197720662256 1
gene  1 12 4 -10.61632299761475 0 26.0 -10.61632299761475 1
gene  2 2 7 -2.0869464163041576 0 577.0 -2.0869464163041576 1
gene  2 5 7 3.4068061539890144 0 686.0 3.4068061539890144 1
gene  2 12 7 0.17458798335466819 0 725.0 0.17458798335466819 1
genomeend 43
/*-------------------------------------------------------------------*/
/* Species # 012         : (size= 003) (AvfFit= 5,979) (Age= 46,000)  */
/*-------------------------------------------------------------------*/
/* Organism # 044 Fitness:  4,000 Error:  2,000                      */
genomestart  44
trait 1 0.1 0.0 0.0 0.0 0.0 0.0 0.0 0.0 
trait 2 0.2 0.0 0.0 0.0 0.0 0.0 0.0 0.0 
trait 3 0.2589673195230027 0.3891801959983823 1.4814992320211124 0.0 0.41250424352754567 0.0 0.0 0.0 
node 1 1 1 1
node 2 1 1 1
node 3 1 1 3
node 4 1 0 2
node 12 1 0 0
node 15 1 0 0
gene  1 1 4 -3.465324656955686 0 1.0 -3.465324656955686 1
gene  2 2 4 0.3259542739178406 0 2.0 0.3259542739178406 1
gene  3 3 4 14.905078655518663 0 3.0 14.905078655518663 1
gene  2 1 12 -5.9571905028081975 0 25.0 -5.9571905028081975 0
gene  1 12 4 -13.499050328551977 0 26.0 -13.499050328551977 1
gene  1 1 15 -6.950237019624023 0 40.0 -6.950237019624023 1
gene  1 15 12 0.4596855298076985 0 41.0 0.4596855298076985 1
gene  1 2 15 -2.972043985451003 0 108.0 -2.972043985451003 1
gene  2 15 4 3.494386307164446 0 351.0 3.494386307164446 1
gene  2 3 15 -5.370113563833769 0 378.0 -5.370113563833769 1
genomeend 44
/* Organism # 045 Fitness:  4,936 Error:  1,778                      */
genomestart  45
trait 1 0.1 0.0 0.0 0.0 0.0 0.0 0.0 0.0 
trait 2 0.2 0.0 0.0 0.0 0.0 0.0 0.0 0.0 
trait 3 0.2589673195230027 0.3891801959983823 1.4814992320211124 0.0 0.41250424352754567 0.0 0.0 0.0 
node 1 1 1 1
node 2 1 1 1
node 3 1 1 3
node 4 1 0 2
node 12 1 0 0
node 15 1 0 0
gene  1 1 4 -0.8289290279874633 0 1.0 -0.8289290279874633 1
gene  2 2 4 -15.06883898026724 0 2.0 -15.06883898026724 1
gene  3 3 4 14.295366775715891 0 3.0 14.295366775715891 1
gene  2 1 12 -8.847106053332686 0 25.0 -8.847106053332686 0
gene  1 12 4 2.0483982830801115 0 26.0 2.0483982830801115 1
gene  1 1 15 -3.274898832729653 0 40.0 -3.274898832729653 1
gene  1 15 12 -1.6296313616176148 0 41.0 -1.6296313616176148 1
gene  1 2 15 -2.244178356018927 0 108.0 -2.244178356018927 1
gene  2 15 4 3.0031059498994175 0 351.0 3.0031059498994175 1
gene  2 3 15 -5.653554554564074 0 378.0 -5.653554554564074 1
genomeend 45
/* Organism # 046 Fitness:  9,000 Error:  1,000                      */
genomestart  46
trait 1 0.1 0.0 0.0 0.0 0.0 0.0 0.0 0.0 
trait 2 0.2 0.0 0.0 0.0 0.0 0.0 0.0 0.0 
trait 3 0.2589673195230027 0.3891801959983823 1.4814992320211124 0.0 0.41250424352754567 0.0 0.0 0.0 
node 1 1 1 1
node 2 1 1 1
node 3 1 1 3
node 4 1 0 2
node 12 1 0 0
node 15 1 0 0
gene  1 1 4 -2.492515062987658 0 1.0 -2.492515062987658 1
gene  2 2 4 -13.955618811447353 0 2.0 -13.955618811447353 1
gene  3 3 4 16.14309364615292 0 3.0 16.14309364615292 1
gene  2 1 12 -6.031899871346274 0 25.0 -6.031899871346274 0
gene  1 12 4 -14.244856817074611 0 26.0 -14.244856817074611 1
gene  1 1 15 -2.0942616471969484 0 40.0 -2.0942616471969484 1
gene  1 15 12 1.6905731941565798 0 41.0 1.6905731941565798 1
gene  1 2 15 2.8894685682780152 0 108.0 2.8894685682780152 1
gene  2 15 4 -9.194831420503034 0 351.0 -9.194831420503034 1
gene  2 3 15 -1.7167820837442629 0 378.0 -1.7167820837442629 1
genomeend 46
/*-------------------------------------------------------------------*/
/* Species # 013         : (size= 002) (AvfFit= 4,001) (Age= 46,000)  */
/*-------------------------------------------------------------------*/
/* Organism # 047 Fitness:  4,002 Error:  2,000                      */
genomestart  47
trait 1 0.1 0.45272406683450983 0.0 0.0 0.5159692809141584 0.0 0.0 0.41364988158325133 
trait 2 0.44349432773446346 0.0 0.0 0.0 0.0 0.0 0.0 0.0 
trait 3 1.0488435596478576 0.2400608743524843 0.0 0.4203521171963492 1.2458746619020131 1.3169659827890707 0.8850765105369446 0.0 
node 1 1 1 1
node 2 1 1 1
node 3 1 1 3
node 4 1 0 2
node 9 1 0 0
node 71 2 0 0
node 157 1 0 0
gene  1 1 4 1.592684716908574 0 1.0 1.592684716908574 0
gene  2 2 4 -0.5854224361077014 0 2.0 -0.5854224361077014 1
gene  3 3 4 -0.8486631727719762 0 3.0 -0.8486631727719762 1
gene  2 2 9 -5.38855787426371 0 15.0 -5.38855787426371 1
gene  2 9 4 0.9178032573873955 0 16.0 0.9178032573873955 1
gene  3 1 9 10.305626541451671 0 205.0 10.305626541451671 1
gene  2 2 71 1.2470493642508154 0 324.0 1.2470493642508154 1
gene  1 71 9 1.4154678836232795 0 325.0 1.4154678836232795 1
gene  3 3 9 -7.390284090147857 0 337.0 -7.390284090147857 1
gene  1 1 157 2.06371156988517 0 763.0 2.06371156988517 1
gene  1 157 4 2.972837865789675 0 764.0 2.972837865789675 1
genomeend 47
/* Organism # 048 Fitness:  4,000 Error:  2,000                      */
genomestart  48
trait 1 0.1 0.45272406683450983 0.0 0.0 0.5159692809141584 0.0 0.0 0.41364988158325133 
trait 2 0.44349432773446346 0.0 0.0 0.0 0.0 0.0 0.0 0.0 
trait 3 1.0488435596478576 0.2400608743524843 0.0 0.4203521171963492 1.2458746619020131 1.3169659827890707 0.8850765105369446 0.0 
node 1 1 1 1
node 2 1 1 1
node 3 1 1 3
node 4 1 0 2
node 9 1 0 0
node 71 2 0 0
node 157 1 0 0
gene  1 1 4 2.3357484034098306 0 1.0 2.3357484034098306 0
gene  2 2 4 -2.385217408802209 0 2.0 -2.385217408802209 1
gene  3 3 4 -0.06844179316533872 0 3.0 -0.06844179316533872 1
gene  2 2 9 -2.9065443534819355 0 15.0 -2.9065443534819355 1
gene  2 9 4 0.8649298167578798 0 16.0 0.8649298167578798 1
gene  3 1 9 10.43675926221551 0 205.0 10.43675926221551 1
gene  2 2 71 1.4995030479702276 0 324.0 1.4995030479702276 1
gene  1 71 9 0.6055603076204417 0 325.0 0.6055603076204417 1
gene  3 3 9 -5.203996809154173 0 337.0 -5.203996809154173 1
gene  1 1 157 2.998401480722992 0 763.0 2.998401480722992 1
gene  1 157 4 3.860885598215501 0 764.0 3.860885598215501 1
genomeend 48
/*-------------------------------------------------------------------*/
/* Species # 014         : (size= 005) (AvfFit= 8,038) (Age= 45,000)  */
/*-------------------------------------------------------------------*/
/* Organism # 049 Fitness:  9,000 Error:  1,000                      */
genomestart  49
trait 1 0.07500000000000001 0.0 0.0 0.0 0.0 0.0 0.0 0.0 
trait 2 0.2 0.0 0.5190469864233626 0.24645029783808747 0.0 0.8836334253204547 0.0 0.7039107179756289 
trait 3 0.0 0.0 0.8884812695476085 0.4700542223514843 0.0 0.8894371636002683 0.9864521557579792 0.11233246437105315 
node 1 1 1 1
node 2 1 1 1
node 3 3 1 3
node 4 1 0 2
node 12 1 0 0
node 14 1 0 0
node 15 1 0 0
node 19 3 0 0
node 26 3 0 0
node 39 2 0 0
gene  1 1 4 0.10712073165643976 0 1.0 0.10712073165643976 0
gene  2 2 4 -12.810230724859698 0 2.0 -12.810230724859698 1
gene  3 3 4 16.976728766712686 0 3.0 16.976728766712686 1
gene  1 1 14 -0.9559389634998883 0 35.0 -0.9559389634998883 0
gene  1 14 4 -4.08771228718504 0 36.0 -4.08771228718504 1
gene  3 1 15 -3.1072974152359425 0 40.0 -3.1072974152359425 1
gene  1 15 12 2.475358683679655 0 41.0 2.475358683679655 1
gene  2 2 19 -0.2920743675906568 0 60.0 -0.2920743675906568 1
gene  2 19 4 -13.00302998461086 0 61.0 -13.00302998461086 1
gene  1 1 26 4.651045802788547 0 84.0 4.651045802788547 1
gene  1 26 14 0.9471921823777938 0 85.0 0.9471921823777938 1
gene  1 15 39 1.873619215076945 0 145.0 1.873619215076945 1
gene  2 39 12 -5.201471829436764 0 146.0 -5.201471829436764 1
gene  1 2 26 2.09887203470375 0 459.0 2.09887203470375 1
genomeend 49
/* Organism # 050 Fitness:  9,000 Error:  1,000                      */
genomestart  50
trait 1 0.07500000000000001 0.0 0.0 0.0 0.0 0.0 0.0 0.0 
trait 2 0.2 0.0 0.5190469864233626 0.24645029783808747 0.0 0.8836334253204547 0.0 0.7039107179756289 
trait 3 0.0 0.0 0.8884812695476085 0.4700542223514843 0.0 0.8894371636002683 0.9864521557579792 0.11233246437105315 
node 1 1 1 1
node 2 1 1 1
node 3 3 1 3
node 4 1 0 2
node 12 1 0 0
node 14 1 0 0
node 15 1 0 0
node 19 3 0 0
node 26 3 0 0
node 39 2 0 0
gene  1 1 4 -0.5135490066884103 0 1.0 -0.5135490066884103 0
gene  2 2 4 -9.835511951876791 0 2.0 -9.835511951876791 1
gene  3 3 4 17.25729891174294 0 3.0 17.25729891174294 1
gene  1 1 14 -0.5368137938944937 0 35.0 -0.5368137938944937 0
gene  1 14 4 -1.4450743713876584 0 36.0 -1.4450743713876584 1
gene  3 1 15 -1.7923033374567687 0 40.0 -1.7923033374567687 1
gene  1 15 12 1.8741719621122674 0 41.0 1.8741719621122674 1
gene  2 2 19 0.39463996028593123 0 60.0 0.39463996028593123 1
gene  2 19 4 -12.252390652681704 0 61.0 -12.252390652681704 1
gene  1 1 26 5.362750719554247 0 84.0 5.362750719554247 1
gene  1 26 14 -1.3734111421828212 0 85.0 -1.3734111421828212 1
gene  1 15 39 0.9321874377060457 0 145.0 0.9321874377060457 1
gene  2 39 12 -7.390300474515509 0 146.0 -7.390300474515509 1
gene  1 2 26 -3.1378597738592546 0 459.0 -3.1378597738592546 1
genomeend 50
/* Organism # 051 Fitness:  9,000 Error:  1,000                      */
genomestart  51
trait 1 0.07500000000000001 0.0 0.0 0.0 0.0 0.0 0.0 0.0 
trait 2 0.2 0.0 0.5190469864233626 0.24645029783808747 0.0 0.8836334253204547 0.0 0.7039107179756289 
trait 3 0.0 0.0 0.8884812695476085 0.4700542223514843 0.0 0.8894371636002683 0.9864521557579792 0.11233246437105315 
node 1 1 1 1
node 2 1 1 1
node 3 3 1 3
node 4 1 0 2
node 12 1 0 0
node 14 1 0 0
node 15 1 0 0
node 19 3 0 0
node 26 3 0 0
node 39 2 0 0
gene  1 1 4 -0.8381211822786074 0 1.0 -0.8381211822786074 0
gene  2 2 4 -13.027444873415423 0 2.0 -13.027444873415423 1
gene  3 3 4 16.853210363893897 0 3.0 16.853210363893897 1
gene  1 1 14 0.9308729176298978 0 35.0 0.9308729176298978 0
gene  1 14 4 -2.281475380994234 0 36.0 -2.281475380994234 1
gene  3 1 15 1.2727751441406938 0 40.0 1.2727751441406938 1
gene  1 15 12 1.8741719621122674 0 41.0 1.8741719621122674 1
gene  2 2 19 0.7262379285567593 0 60.0 0.7262379285567593 1
gene  2 19 4 -13.69491113617764 0 61.0 -13.69491113617764 1
gene  1 1 26 -0.745992008296309 0 84.0 -0.745992008296309 1
gene  1 26 14 0.9309752473345176 0 85.0 0.9309752473345176 1
gene  1 15 39 3.835469885886214 0 145.0 3.835469885886214 1
gene  2 39 12 -2.198722436958654 0 146.0 -2.198722436958654 1
gene  1 2 26 -3.2865914782557946 0 459.0 -3.2865914782557946 1
genomeend 51
/* Organism # 052 Fitness:  9,000 Error:  1,000                      */
genomestart  52
trait 1 0.07500000000000001 0.0 0.0 0.0 0.0 0.0 0.0 0.0 
trait 2 0.2 0.0 0.5190469864233626 0.24645029783808747 0.0 0.8836334253204547 0.0 0.7039107179756289 
trait 3 0.0 0.0 0.8884812695476085 0.4700542223514843 0.0 0.8894371636002683 0.9864521557579792 0.11233246437105315 
node 1 1 1 1
node 2 1 1 1
node 3 3 1 3
node 4 1 0 2
node 12 1 0 0
node 14 1 0 0
node 15 1 0 0
node 19 3 0 0
node 26 3 0 0
node 39 2 0 0
gene  1 1 4 0.307033246169641 0 1.0 0.307033246169641 1
gene  2 2 4 -10.145336910933652 0 2.0 -10.145336910933652 1
gene  3 3 4 15.697606195056277 0 3.0 15.697606195056277 1
gene  1 1 14 0.49236185568560265 0 35.0 0.49236185568560265 0
gene  1 14 4 1.6935676380497284 0 36.0 1.6935676380497284 1
gene  3 1 15 -4.725275848884875 0 40.0 -4.725275848884875 1
gene  1 15 12 1.7003740924581108 0 41.0 1.7003740924581108 1
gene  2 2 19 2.6769197265243934 0 60.0 2.6769197265243934 1
gene  2 19 4 -15.55922054018314 0 61.0 -15.55922054018314 1
gene  1 1 26 5.355772839420217 0 84.0 5.355772839420217 1
gene  1 26 14 3.4922862115241475 0 85.0 3.4922862115241475 1
gene  1 15 39 1.9852827231384305 0 145.0 1.9852827231384305 1
gene  2 39 12 -4.134292999257001 0 146.0 -4.134292999257001 1
gene  1 2 26 0.42382504559234113 0 459.0 0.42382504559234113 1
genomeend 52
/* Organism # 053 Fitness:  4,192 Error:  1,953                      */
genomestart  53
trait 1 0.07500000000000001 0.0 0.0 0.0 0.0 0.0 0.0 0.0 
trait 2 0.2 0.0 0.5190469864233626 0.24645029783808747 0.0 0.8836334253204547 0.0 0.7039107179756289 
trait 3 0.0 0.0 0.8884812695476085 0.4700542223514843 0.0 0.8894371636002683 0.9864521557579792 0.11233246437105315 
node 1 1 1 1
node 2 1 1 1
node 3 3 1 3
node 4 1 0 2
node 12 1 0 0
node 14 1 0 0
node 15 1 0 0
node 19 3 0 0
node 26 3 0 0
node 39 2 0 0
gene  1 1 4 -0.8967108236504266 0 1.0 -0.8967108236504266 0
gene  2 2 4 0.9042244031161042 0 2.0 0.9042244031161042 1
gene  3 3 4 18.158066275363932 0 3.0 18.158066275363932 1
gene  1 1 14 0.15773507489860894 0 35.0 0.15773507489860894 0
gene  1 14 4 -2.008496387035966 0 36.0 -2.008496387035966 1
gene  3 1 15 -2.9197890371266326 0 40.0 -2.9197890371266326 1
gene  1 15 12 1.8741719621122674 0 41.0 1.8741719621122674 1
gene  2 2 19 1.1638006138449652 0 60.0 1.1638006138449652 1
gene  2 19 4 0.49695778915223643 0 61.0 0.49695778915223643 1
gene  1 1 26 4.423218244902264 0 84.0 4.423218244902264 1
gene  1 26 14 1.9342807949795802 0 85.0 1.9342807949795802 1
gene  1 15 39 4.102130532451461 0 145.0 4.102130532451461 1
gene  2 39 12 -6.967786167869287 0 146.0 -6.967786167869287 1
gene  1 2 26 -2.474405788483604 0 459.0 -2.474405788483604 1
genomeend 53
/*-------------------------------------------------------------------*/
/* Species # 015         : (size= 005) (AvfFit= 8,000) (Age= 44,000)  */
/*-------------------------------------------------------------------*/
/* Organism # 054 Fitness:  9,000 Error:  1,000                      */
genomestart  54
trait 1 0.0 0.2980083218285674 0.6146215069883705 0.0 0.48642945093834966 0.44555401132109973 0.0 0.0 
trait 2 0.0 0.1338131837282759 0.5525458085823759 0.0 0.0 0.0 0.0 0.3632018802468182 
trait 3 0.3 0.2808502343399747 0.0 0.0 0.0 0.0 0.0 0.0 
node 1 1 1 1
node 2 2 1 1
node 3 1 1 3
node 4 2 0 2
node 12 1 0 0
node 14 1 0 0
node 22 1 0 0
gene  3 1 4 -10.008356969955187 0 1.0 -10.008356969955187 0
gene  2 2 4 -14.167645046006532 0 2.0 -14.167645046006532 1
gene  2 3 4 13.163305622817312 0 3.0 13.163305622817312 1
gene  1 1 12 0.5525101172165984 0 25.0 0.5525101172165984 0
gene  1 1 14 12.770459963725088 0 35.0 12.770459963725088 1
gene  1 14 4 -6.473486287350083 0 36.0 -6.473486287350083 1
gene  1 1 22 0.41012040589809406 0 74.0 0.41012040589809406 1
gene  1 22 12 5.362649174039903 0 75.0 5.362649174039903 1
gene  3 2 12 -2.077989583464886 0 135.0 -2.077989583464886 1
genomeend 54
/* Organism # 055 Fitness:  9,000 Error:  1,000                      */
genomestart  55
trait 1 0.0 0.2980083218285674 0.6146215069883705 0.0 0.48642945093834966 0.44555401132109973 0.0 0.0 
trait 2 0.0 0.1338131837282759 0.5525458085823759 0.0 0.0 0.0 0.0 0.3632018802468182 
trait 3 0.3 0.2808502343399747 0.0 0.0 0.0 0.0 0.0 0.0 
node 1 1 1 1
node 2 2 1 1
node 3 1 1 3
node 4 2 0 2
node 12 1 0 0
node 14 1 0 0
node 22 1 0 0
gene  3 1 4 0.18034638948004766 0 1.0 0.18034638948004766 0
gene  2 2 4 -13.931222799351985 0 2.0 -13.931222799351985 1
gene  2 3 4 13.153369086090727 0 3.0 13.153369086090727 1
gene  1 1 12 0.40299147068459096 0 25.0 0.40299147068459096 0
gene  1 1 14 11.667370230095363 0 35.0 11.667370230095363 1
gene  1 14 4 -5.2801758624612205 0 36.0 -5.2801758624612205 1
gene  1 1 22 -0.12424592488072395 0 74.0 -0.12424592488072395 1
gene  1 22 12 2.4806729254330864 0 75.0 2.4806729254330864 1
gene  3 2 12 -2.7348527068280366 0 135.0 -2.7348527068280366 1
genomeend 55
/* Organism # 056 Fitness:  9,000 Error:  1,000                      */
genomestart  56
trait 1 0.0 0.2980083218285674 0.6146215069883705 0.0 0.48642945093834966 0.44555401132109973 0.0 0.0 
trait 2 0.0 0.1338131837282759 0.5525458085823759 0.0 0.0 0.0 0.0 0.3632018802468182 
trait 3 0.3 0.2808502343399747 0.0 0.0 0.0 0.0 0.0 0.0 
node 1 1 1 1
node 2 2 1 1
node 3 1 1 3
node 4 2 0 2
node 12 1 0 0
node 14 1 0 0
node 22 1 0 0
gene  3 1 4 -10.008356969955187 0 1.0 -10.008356969955187 0
gene  2 2 4 -14.167645046006532 0 2.0 -14.167645046006532 1
gene  2 3 4 13.163305622817312 0 3.0 13.163305622817312 1
gene  1 1 12 0.5525101172165984 0 25.0 0.5525101172165984 0
gene  1 1 14 12.770459963725088 0 35.0 12.770459963725088 1
gene  1 14 4 -6.473486287350083 0 36.0 -6.473486287350083 1
gene  1 1 22 0.41012040589809406 0 74.0 0.41012040589809406 1
gene  1 22 12 5.362649174039903 0 75.0 5.362649174039903 1
gene  3 2 12 -2.077989583464886 0 135.0 -2.077989583464886 1
gene  1 4 12 -1.266568195515122 0 784.0 -1.266568195515122 1
genomeend 56
/* Organism # 057 Fitness:  9,000 Error:  1,000                      */
genomestart  57
trait 1 0.0 0.2980083218285674 0.6146215069883705 0.0 0.48642945093834966 0.44555401132109973 0.0 0.0 
trait 2 0.0 0.1338131837282759 0.5525458085823759 0.0 0.0 0.0 0.0 0.3632018802468182 
trait 3 0.3 0.2808502343399747 0.0 0.0 0.0 0.0 0.0 0.0 
node 1 1 1 1
node 2 2 1 1
node 3 1 1 3
node 4 2 0 2
node 12 1 0 0
node 14 1 0 0
node 22 1 0 0
gene  3 1 4 -10.120197583821675 0 1.0 -10.120197583821675 0
gene  2 2 4 -14.999103246916405 0 2.0 -14.999103246916405 1
gene  2 3 4 14.69972339724336 0 3.0 14.69972339724336 1
gene  1 1 12 -0.03454645482144858 0 25.0 -0.03454645482144858 0
gene  1 1 14 13.744717830858848 0 35.0 13.744717830858848 1
gene  1 14 4 -8.836957924871278 0 36.0 -8.836957924871278 1
gene  1 1 22 -1.1659521141988074 0 74.0 -1.1659521141988074 1
gene  1 22 12 7.093057314822312 0 75.0 7.093057314822312 1
gene  3 2 12 -3.719167858310157 0 135.0 -3.719167858310157 1
genomeend 57
/* Organism # 058 Fitness:  4,000 Error:  2,000                      */
genomestart  58
trait 1 0.0 0.2980083218285674 0.6146215069883705 0.0 0.48642945093834966 0.44555401132109973 0.0 0.0 
trait 2 0.0 0.1338131837282759 0.5525458085823759 0.0 0.0 0.0 0.0 0.3632018802468182 
trait 3 0.3 0.2808502343399747 0.0 0.0 0.0 0.0 0.0 0.0 
node 1 1 1 1
node 2 2 1 1
node 3 1 1 3
node 4 2 0 2
node 12 1 0 0
node 14 1 0 0
node 22 1 0 0
gene  3 1 4 -12.270927657169242 0 1.0 -12.270927657169242 0
gene  2 2 4 -0.7610102377697312 0 2.0 -0.7610102377697312 1
gene  2 3 4 10.849897722202103 0 3.0 10.849897722202103 1
gene  1 1 12 -0.38295356760577104 0 25.0 -0.38295356760577104 0
gene  1 1 14 10.472095787851412 0 35.0 10.472095787851412 1
gene  1 14 4 -6.544215368879564 0 36.0 -6.544215368879564 1
gene  1 1 22 -0.9927582403402408 0 74.0 -0.9927582403402408 1
gene  1 22 12 3.660780098488081 0 75.0 3.660780098488081 1
gene  3 2 12 -3.623509508642265 0 135.0 -3.623509508642265 1
genomeend 58
/*-------------------------------------------------------------------*/
/* Species # 017         : (size= 002) (AvfFit= 4,388) (Age= 41,000)  */
/*-------------------------------------------------------------------*/
/* Organism # 059 Fitness:  4,000 Error:  2,000                      */
genomestart  59
trait 1 0.7500883549232766 0.0 0.0 0.0 0.0 0.8280560738004444 0.8098624965295711 0.9757652513031895 
trait 2 0.2 0.0 0.0 0.08080764749679303 0.0 0.02529213551812548 0.0 0.8822091776111235 
trait 3 0.3068565455467368 0.0 0.02743951904101366 0.0 0.0 0.0 0.0 0.12397142264148128 
node 1 1 1 1
node 2 1 1 1
node 3 1 1 3
node 4 3 0 2
node 5 2 0 0
node 7 1 0 0
gene  1 1 4 0.7329625971056084 0 1.0 0.7329625971056084 0
gene  2 2 4 2.9870642610023888 0 2.0 2.9870642610023888 1
gene  3 3 4 4.863107953884031 0 3.0 4.863107953884031 1
gene  1 1 5 4.894257459960356 0 4.0 4.894257459960356 1
gene  1 5 4 1.9727141668153885 0 5.0 1.9727141668153885 1
gene  1 1 7 -0.4974836846112396 0 10.0 -0.4974836846112396 1
gene  3 7 4 -2.187289095999379 0 11.0 -2.187289095999379 1
gene  1 5 7 -4.131095808105049 0 95.0 -4.131095808105049 1
gene  3 3 5 -4.758722606125789 0 110.0 -4.758722606125789 1
gene  3 2 5 0.8636723432038135 0 121.0 0.8636723432038135 1
gene  2 3 7 -3.8501472457793526 0 147.0 -3.8501472457793526 1
gene  2 2 7 2.7643454018050706 0 551.0 2.7643454018050706 1
genomeend 59
/* Organism # 060 Fitness:  4,776 Error:  1,815                      */
genomestart  60
trait 1 0.7500883549232766 0.0 0.0 0.0 0.0 0.8280560738004444 0.8098624965295711 0.9757652513031895 
trait 2 0.2 0.0 0.0 0.08080764749679303 0.0 0.02529213551812548 0.0 0.8822091776111235 
trait 3 0.3068565455467368 0.0 0.02743951904101366 0.0 0.0 0.0 0.0 0.12397142264148128 
node 1 1 1 1
node 2 1 1 1
node 3 1 1 3
node 4 3 0 2
node 5 2 0 0
node 7 1 0 0
gene  1 1 4 -3.984079684810861 0 1.0 -3.984079684810861 0
gene  2 2 4 4.805801826621383 0 2.0 4.805801826621383 1
gene  3 3 4 4.863107953884031 0 3.0 4.863107953884031 1
gene  1 1 5 8.435987981701912 0 4.0 8.435987981701912 1
gene  1 5 4 -4.834537090981231 0 5.0 -4.834537090981231 1
gene  1 1 7 -0.2145711452676382 0 10.0 -0.2145711452676382 1
gene  3 7 4 0.15242150089247652 0 11.0 0.15242150089247652 1
gene  1 5 7 1.9193244062033203 0 95.0 1.9193244062033203 1
gene  3 3 5 -6.85495189490219 0 110.0 -6.85495189490219 1
gene  3 2 5 -0.7857786828865224 0 121.0 -0.7857786828865224 1
gene  2 3 7 -4.149544310307991 0 147.0 -4.149544310307991 1
gene  2 2 7 4.366492993617586 0 551.0 4.366492993617586 1
genomeend 60
/*-------------------------------------------------------------------*/
/* Species # 018         : (size= 005) (AvfFit= 7,000) (Age= 39,000)  */
/*-------------------------------------------------------------------*/
/* Organism # 061 Fitness:  9,000 Error:  1,000                      */
genomestart  61
trait 1 0.0 0.0 0.0 0.0 0.0 0.0 0.0 0.0 
trait 2 0.2 0.0 0.0 0.0 0.0 0.0 0.0 0.0 
trait 3 0.3 0.0 0.0 0.0 0.0 0.0 0.0 0.0 
node 1 2 1 1
node 2 1 1 1
node 3 2 1 3
node 4 1 0 2
node 36 2 0 0
gene  2 1 4 2.4317525336179817 0 1.0 2.4317525336179817 0
gene  2 2 4 17.729936998970317 0 2.0 17.729936998970317 1
gene  2 3 4 17.134479863011784 0 3.0 17.134479863011784 1
gene  1 1 36 2.952943775158304 0 133.0 2.952943775158304 1
gene  1 36 4 -7.120286459993068 0 134.0 -7.120286459993068 1
gene  1 3 36 -3.738937233204765 0 153.0 -3.738937233204765 1
gene  1 2 36 10.644452608323554 0 201.0 10.644452608323554 1
genomeend 61
/* Organism # 062 Fitness:  9,000 Error:  1,000                      */
genomestart  62
trait 1 0.0 0.0 0.0 0.0 0.0 0.0 0.0 0.0 
trait 2 0.2 0.0 0.0 0.0 0.0 0.0 0.0 0.0 
trait 3 0.3 0.0 0.0 0.0 0.0 0.0 0.0 0.0 
node 1 2 1 1
node 2 1 1 1
node 3 2 1 3
node 4 1 0 2
node 36 2 0 0
gene  2 1 4 -0.3805321767433243 0 1.0 -0.3805321767433243 0
gene  2 2 4 19.96949078206564 0 2.0 19.96949078206564 1
gene  3 3 4 20.900259690666356 0 3.0 20.900259690666356 1
gene  1 1 36 5.080128290102964 0 133.0 5.080128290102964 1
gene  1 36 4 -12.731354257811155 0 134.0 -12.731354257811155 1
gene  1 3 36 -1.2757981827411 0 153.0 -1.2757981827411 1
gene  1 2 36 12.994361003298728 0 201.0 12.994361003298728 1
genomeend 62
/* Organism # 063 Fitness:  4,000 Error:  2,000                      */
genomestart  63
trait 1 0.0 0.0 0.0 0.0 0.0 0.0 0.0 0.0 
trait 2 0.2 0.0 0.0 0.0 0.0 0.0 0.0 0.0 
trait 3 0.3 0.0 0.0 0.0 0.0 0.0 0.0 0.0 
node 1 2 1 1
node 2 1 1 1
node 3 2 1 3
node 4 1 0 2
node 36 3 0 0
gene  2 1 4 3.0036682546750817 0 1.0 3.0036682546750817 0
gene  2 2 4 19.692388998093044 0 2.0 19.692388998093044 1
gene  3 3 4 -1.4918418110303608 0 3.0 -1.4918418110303608 1
gene  1 1 36 5.730552976209685 0 133.0 5.730552976209685 1
gene  1 36 4 -8.304091576821119 0 134.0 -8.304091576821119 1
gene  1 3 36 -0.7367254000660703 0 153.0 -0.7367254000660703 1
gene  1 2 36 9.8489156654379 0 201.0 9.8489156654379 1
genomeend 63
/* Organism # 064 Fitness:  9,000 Error:  1,000                      */
genomestart  64
trait 1 0.0 0.0 0.0 0.0 0.0 0.0 0.0 0.0 
trait 2 0.2 0.0 0.0 0.0 0.0 0.0 0.0 0.0 
trait 3 0.3 0.0 0.0 0.0 0.0 0.0 0.0 0.0 
node 1 2 1 1
node 2 1 1 1
node 3 2 1 3
node 4 1 0 2
node 36 2 0 0
gene  2 1 4 5.066565338040073 0 1.0 5.066565338040073 0
gene  2 2 4 20.15881691314898 0 2.0 20.15881691314898 1
gene  3 3 4 18.46687065557892 0 3.0 18.46687065557892 1
gene  1 1 36 6.376237715799428 0 133.0 6.376237715799428 1
gene  1 36 4 -9.734341532137368 0 134.0 -9.734341532137368 1
gene  1 3 36 -0.3454266537289983 0 153.0 -0.3454266537289983 1
gene  1 2 36 7.727559503848372 0 201.0 7.727559503848372 1
genomeend 64
/* Organism # 065 Fitness:  4,000 Error:  2,000                      */
genomestart  65
trait 1 0.0 0.0 0.0 0.0 0.0 0.0 0.0 0.0 
trait 2 0.2 0.0 0.0 0.0 0.0 0.0 0.0 0.0 
trait 3 0.3 0.0 0.0 0.0 0.0 0.0 0.0 0.0 
node 1 2 1 1
node 2 1 1 1
node 3 2 1 3
node 4 1 0 2
node 36 2 0 0
gene  2 1 4 2.2097671678831885 0 1.0 2.2097671678831885 0
gene  2 2 4 22.003616720118295 0 2.0 22.003616720118295 1
gene  3 3 4 -1.3971247952392822 0 3.0 -1.3971247952392822 1
gene  1 1 36 3.992871285663087 0 133.0 3.992871285663087 1
gene  1 36 4 -13.077666458078491 0 134.0 -13.077666458078491 1
gene  1 3 36 -1.6291423174257837 0 153.0 -1.6291423174257837 1
gene  1 2 36 8.99411958552767 0 201.0 8.99411958552767 1
genomeend 65
/*-------------------------------------------------------------------*/
/* Species # 019         : (size= 004) (AvfFit= 7,749) (Age= 39,000)  */
/*-------------------------------------------------------------------*/
/* Organism # 066 Fitness:  9,000 Error:  1,000                      */
genomestart  66
trait 1 0.7949372350370381 0.5372534671267148 0.5965851801701454 0.0 0.18994372007981997 0.0 0.07387542383354972 0.8746802787318567 
trait 2 0.8643473711171628 0.0 0.0 0.0 0.5553874975635208 0.0 0.0 0.8755823480863029 
trait 3 0.0 0.0 1.732308625683137 0.0 0.08903532127729352 1.7647622189055854 0.0 0.0 
node 1 2 1 1
node 2 3 1 1
node 3 1 1 3
node 4 1 0 2
node 12 1 0 0
node 14 1 0 0
node 15 1 0 0
node 19 3 0 0
node 26 2 0 0
node 40 1 0 0
node 76 1 0 0
gene  1 1 4 -1.3630193768260415 0 1.0 -1.3630193768260415 0
gene  2 2 4 -0.6706259808248252 0 2.0 -0.6706259808248252 0
gene  3 3 4 9.688769839481381 0 3.0 9.688769839481381 1
gene  1 1 14 -6.7251628279771385 0 35.0 -6.7251628279771385 1
gene  1 14 4 -2.1019523920486938 0 36.0 -2.1019523920486938 1
gene  1 1 15 0.8587030358379601 0 40.0 0.8587030358379601 1
gene  1 15 12 -1.495008192274816 0 41.0 -1.495008192274816 1
gene  2 2 19 4.023080871739733 0 60.0 4.023080871739733 1
gene  2 19 4 3.990103702857187 0 61.0 3.990103702857187 1
gene  1 1 26 -2.5622111868638635 0 84.0 -2.5622111868638635 1
gene  1 26 14 -3.010867551799385 0 85.0 -3.010867551799385 1
gene  2 3 14 0.13133777653462525 0 143.0 0.13133777653462525 1
gene  2 2 40 -1.9785446792279944 0 150.0 -1.9785446792279944 1
gene  2 40 4 -9.764926390678069 0 151.0 -9.764926390678069 1
gene  1 1 76 -0.00568647264481853 0 348.0 -0.00568647264481853 1
gene  1 76 14 4.715109904092758 0 349.0 4.715109904092758 1
gene  1 3 19 -0.9404115774985224 0 477.0 -0.9404115774985224 1
gene  2 4 15 0.6946390705402723 0 494.0 0.6946390705402723 1
gene  3 40 15 0.4475231112999547 0 642.0 0.4475231112999547 1
gene  3 3 76 -9.522852618574175 0 789.0 -9.522852618574175 1
genomeend 66
/* Organism # 067 Fitness:  8,996 Error:  1,001                      */
genomestart  67
trait 1 0.7949372350370381 0.5372534671267148 0.5965851801701454 0.0 0.18994372007981997 0.0 0.07387542383354972 0.8746802787318567 
trait 2 0.8643473711171628 0.0 0.0 0.0 0.5553874975635208 0.0 0.0 0.8755823480863029 
trait 3 0.0 0.0 1.732308625683137 0.0 0.08903532127729352 1.7647622189055854 0.0 0.0 
node 1 2 1 1
node 2 3 1 1
node 3 1 1 3
node 4 1 0 2
node 12 1 0 0
node 14 1 0 0
node 15 1 0 0
node 19 3 0 0
node 26 2 0 0
node 40 1 0 0
node 76 1 0 0
gene  1 1 4 -1.6496974981286343 0 1.0 -1.6496974981286343 0
gene  2 2 4 -1.52166959613348 0 2.0 -1.52166959613348 0
gene  3 3 4 10.539614952228284 0 3.0 10.539614952228284 1
gene  1 1 14 -7.935065880316278 0 35.0 -7.935065880316278 1
gene  1 14 4 -3.997486284105883 0 36.0 -3.997486284105883 1
gene  1 1 15 -1.025891272785547 0 40.0 -1.025891272785547 1
gene  1 15 12 -2.9767721718269997 0 41.0 -2.9767721718269997 1
gene  2 2 19 2.0482315626109298 0 60.0 2.0482315626109298 1
gene  2 19 4 4.618717984218067 0 61.0 4.618717984218067 1
gene  1 1 26 -1.4460641636694236 0 84.0 -1.4460641636694236 1
gene  1 26 14 -4.7388998418176 0 85.0 -4.7388998418176 1
gene  2 3 14 -1.72849544022771 0 143.0 -1.72849544022771 1
gene  2 2 40 -2.6942399817456035 0 150.0 -2.6942399817456035 1
gene  2 40 4 -7.569313771938273 0 151.0 -7.569313771938273 1
gene  1 1 76 -2.3890563220176797 0 348.0 -2.3890563220176797 1
gene  1 76 14 2.4966224167718924 0 349.0 2.4966224167718924 1
gene  1 3 19 -1.9674583798967173 0 477.0 -1.9674583798967173 1
gene  2 4 15 -1.0772292759559514 0 494.0 -1.0772292759559514 1
gene  3 40 15 -1.8424075478671829 0 642.0 -1.8424075478671829 1
genomeend 67
/* Organism # 068 Fitness:  4,000 Error:  2,000                      */
genomestart  68
trait 1 0.7949372350370381 0.5372534671267148 0.5965851801701454 0.0 0.18994372007981997 0.0 0.07387542383354972 0.8746802787318567 
trait 2 0.8643473711171628 0.0 0.0 0.0 0.5553874975635208 0.0 0.0 0.8755823480863029 
trait 3 0.0 0.0 1.732308625683137 0.0 0.08903532127729352 1.7647622189055854 0.0 0.0 
node 1 2 1 1
node 2 3 1 1
node 3 1 1 3
node 4 1 0 2
node 12 1 0 0
node 14 1 0 0
node 15 1 0 0
node 19 3 0 0
node 26 2 0 0
node 40 1 0 0
node 76 1 0 0
gene  1 1 4 -0.3159429742453866 0 1.0 -0.3159429742453866 0
gene  2 2 4 -5.336602716226197 0 2.0 -5.336602716226197 0
gene  3 3 4 0.1268549999386137 0 3.0 0.1268549999386137 1
gene  1 1 14 2.00743228841782 0 35.0 2.00743228841782 1
gene  1 14 4 -1.5074944646912636 0 36.0 -1.5074944646912636 1
gene  3 1 15 3.245006079307619 0 40.0 3.245006079307619 1
gene  1 15 12 -0.2629588400729703 0 41.0 -0.2629588400729703 1
gene  2 2 19 -0.007385915958042721 0 60.0 -0.007385915958042721 1
gene  2 19 4 2.5162597927952652 0 61.0 2.5162597927952652 1
gene  1 1 26 -0.39826403518976655 0 84.0 -0.39826403518976655 1
gene  1 26 14 -1.3611985822723007 0 85.0 -1.3611985822723007 1
gene  2 3 14 1.1319262043301304 0 143.0 1.1319262043301304 1
gene  2 2 40 0.2594408517842779 0 150.0 0.2594408517842779 1
gene  2 40 4 -9.529032910824215 0 151.0 -9.529032910824215 1
gene  1 1 76 0.4609097829575035 0 348.0 0.4609097829575035 1
gene  1 76 14 4.0048287870822845 0 349.0 4.0048287870822845 1
gene  1 3 19 -2.6580140562500247 0 477.0 -2.6580140562500247 1
gene  2 4 15 -0.6092852082625309 0 494.0 -0.6092852082625309 1
gene  3 40 15 -1.1433230495521451 0 642.0 -1.1433230495521451 1
gene  1 2 12 -1.1792242757992453 0 765.0 -1.1792242757992453 1
genomeend 68
/* Organism # 069 Fitness:  9,000 Error:  1,000                      */
genomestart  69
trait 1 0.7949372350370381 0.5372534671267148 0.5965851801701454 0.0 0.18994372007981997 0.0 0.07387542383354972 0.8746802787318567 
trait 2 0.8643473711171628 0.0 0.0 0.0 0.5553874975635208 0.0 0.0 0.8755823480863029 
trait 3 0.0 0.0 1.732308625683137 0.0 0.08903532127729352 1.7647622189055854 0.0 0.0 
node 1 2 1 1
node 2 3 1 1
node 3 1 1 3
node 4 1 0 2
node 12 1 0 0
node 14 1 0 0
node 15 1 0 0
node 19 3 0 0
node 26 2 0 0
node 40 1 0 0
node 76 1 0 0
gene  1 1 4 -1.3630193768260415 0 1.0 -1.3630193768260415 0
gene  2 2 4 -0.6706259808248252 0 2.0 -0.6706259808248252 0
gene  3 3 4 9.606296128677835 0 3.0 9.606296128677835 1
gene  1 1 14 -8.42251712807834 0 35.0 -8.42251712807834 1
gene  1 14 4 -3.118100960982278 0 36.0 -3.118100960982278 1
gene  1 1 15 3.1431700590363727 0 40.0 3.1431700590363727 1
gene  1 15 12 -1.5013081663905683 0 41.0 -1.5013081663905683 1
gene  2 2 19 2.220937506355453 0 60.0 2.220937506355453 1
gene  2 19 4 4.21253909506994 0 61.0 4.21253909506994 1
gene  1 1 26 -2.3045057310761887 0 84.0 -2.3045057310761887 1
gene  1 26 14 -2.4666022118361903 0 85.0 -2.4666022118361903 1
gene  2 3 14 1.5214357402819787 0 143.0 1.5214357402819787 1
gene  2 2 40 -1.4851638797682734 0 150.0 -1.4851638797682734 1
gene  2 40 4 -10.15423632569795 0 151.0 -10.15423632569795 1
gene  1 1 76 -2.193884080797804 0 348.0 -2.193884080797804 1
gene  1 76 14 2.906725331049594 0 349.0 2.906725331049594 1
gene  1 3 19 2.373710245494174 0 477.0 2.373710245494174 1
gene  2 4 15 -1.32109223978083 0 494.0 -1.32109223978083 1
gene  3 40 15 0.4475231112999547 0 642.0 0.4475231112999547 1
genomeend 69
/*-------------------------------------------------------------------*/
/* Species # 020         : (size= 004) (AvfFit= 7,750) (Age= 37,000)  */
/*-------------------------------------------------------------------*/
/* Organism # 070 Fitness:  9,000 Error:  1,000                      */
genomestart  70
trait 1 0.053125000000000006 0.0 0.0 0.0 0.0 0.0 0.0 0.0 
trait 2 0.2 0.0 0.0 0.0 0.0 0.0 0.0 0.0 
trait 3 0.3 0.0 0.0 0.0 0.0 0.0 0.0 0.0 
node 1 2 1 1
node 2 1 1 1
node 3 1 1 3
node 4 3 0 2
node 14 1 0 0
node 43 1 0 0
gene  1 1 4 -1.2954539162261192 0 1.0 -1.2954539162261192 0
gene  2 2 4 -13.04960512716847 0 2.0 -13.04960512716847 1
gene  3 3 4 17.11843150763831 0 3.0 17.11843150763831 1
gene  1 1 14 -1.1102671433805475 0 35.0 -1.1102671433805475 1
gene  1 14 4 -11.272117272085499 0 36.0 -11.272117272085499 1
gene  1 2 14 5.300245195920386 0 149.0 5.300245195920386 1
gene  1 1 43 11.241189285690199 0 175.0 11.241189285690199 1
gene  2 43 14 1.0453739261382176 0 176.0 1.0453739261382176 1
gene  1 3 43 -3.5604830362716875 0 469.0 -3.5604830362716875 1
gene  3 3 14 0.022041642278271434 0 689.0 0.022041642278271434 1
genomeend 70
/* Organism # 071 Fitness:  9,000 Error:  1,000                      */
genomestart  71
trait 1 0.053125000000000006 0.0 0.0 0.0 0.0 0.0 0.0 0.0 
trait 2 0.2 0.0 0.0 0.0 0.0 0.0 0.0 0.0 
trait 3 0.3 0.0 0.0 0.0 0.0 0.0 0.0 0.0 
node 1 2 1 1
node 2 1 1 1
node 3 1 1 3
node 4 3 0 2
node 14 1 0 0
node 43 1 0 0
gene  1 1 4 -3.113224337986265 0 1.0 -3.113224337986265 0
gene  2 2 4 -15.239694223785929 0 2.0 -15.239694223785929 1
gene  3 3 4 15.106975510741934 0 3.0 15.106975510741934 1
gene  1 1 14 -4.037441072478782 0 35.0 -4.037441072478782 1
gene  1 14 4 -10.908260205041527 0 36.0 -10.908260205041527 1
gene  1 2 14 2.8456581261754463 0 149.0 2.8456581261754463 1
gene  1 1 43 9.368297782864817 0 175.0 9.368297782864817 1
gene  2 43 14 4.831692456945793 0 176.0 4.831692456945793 1
gene  1 3 43 -3.0513056753277175 0 469.0 -3.0513056753277175 1
gene  3 3 14 -1.772257931446965 0 689.0 -1.772257931446965 1
genomeend 71
/* Organism # 072 Fitness:  4,000 Error:  2,000                      */
genomestart  72
trait 1 0.053125000000000006 0.0 0.0 0.0 0.0 0.0 0.0 0.0 
trait 2 0.2 0.0 0.0 0.0 0.0 0.0 0.0 0.0 
trait 3 0.3 0.0 0.0 0.0 0.0 0.0 0.0 0.0 
node 1 2 1 1
node 2 1 1 1
node 3 1 1 3
node 4 3 0 2
node 14 1 0 0
node 43 1 0 0
gene  1 1 4 -4.851074871411206 0 1.0 -4.851074871411206 0
gene  2 2 4 -1.0947062402993972 0 2.0 -1.0947062402993972 1
gene  3 3 4 15.106975510741934 0 3.0 15.106975510741934 1
gene  1 1 14 -3.4012373200752144 0 35.0 -3.4012373200752144 1
gene  1 14 4 -10.399634958507566 0 36.0 -10.399634958507566 1
gene  1 2 14 0.8186332944579705 0 149.0 0.8186332944579705 1
gene  1 1 43 2.08978814479723 0 175.0 2.08978814479723 1
gene  2 43 14 4.3829736745011045 0 176.0 4.3829736745011045 1
gene  1 3 43 -3.9472863494185635 0 469.0 -3.9472863494185635 1
gene  3 3 14 -2.5942819146211615 0 689.0 -2.5942819146211615 1
genomeend 72
/* Organism # 073 Fitness:  9,000 Error:  1,000                      */
genomestart  73
trait 1 0.053125000000000006 0.0 0.0 0.0 0.0 0.0 0.0 0.0 
trait 2 0.2 0.0 0.0 0.0 0.0 0.0 0.0 0.0 
trait 3 0.3 0.0 0.0 0.0 0.0 0.0 0.0 0.0 
node 1 2 1 1
node 2 1 1 1
node 3 1 1 3
node 4 3 0 2
node 14 1 0 0
node 43 1 0 0
gene  1 1 4 -1.49788252401185 0 1.0 -1.49788252401185 1
gene  2 2 4 -15.536464369486499 0 2.0 -15.536464369486499 1
gene  3 3 4 16.92682990357495 0 3.0 16.92682990357495 1
gene  1 1 14 -2.40679425559476 0 35.0 -2.40679425559476 1
gene  1 14 4 -10.390337923323973 0 36.0 -10.390337923323973 1
gene  1 2 14 3.5228821411671967 0 149.0 3.5228821411671967 1
gene  1 1 43 10.632283291113566 0 175.0 10.632283291113566 1
gene  2 43 14 3.180631443044492 0 176.0 3.180631443044492 1
gene  1 3 43 -5.4921141329594585 0 469.0 -5.4921141329594585 1
gene  3 3 14 -2.920354682821945 0 689.0 -2.920354682821945 1
genomeend 73
/*-------------------------------------------------------------------*/
/* Species # 021         : (size= 003) (AvfFit= 7,141) (Age= 37,000)  */
/*-------------------------------------------------------------------*/
/* Organism # 074 Fitness:  8,840 Error:  1,027                      */
genomestart  74
trait 1 0.3943518152472121 0.6091503535315591 0.498704435481923 0.0 0.01021803802828668 0.0 0.0 0.0018338841161459108 
trait 2 0.2 0.0 0.0 0.0 0.0 0.0 0.0 0.0 
trait 3 0.0 0.11288121054901043 0.9277318827308184 0.0 0.009616806161856204 0.0 0.0 0.0 
node 1 1 1 1
node 2 1 1 1
node 3 1 1 3
node 4 1 0 2
node 5 2 0 0
node 48 1 0 0
node 109 2 0 0
node 159 1 0 0
gene  1 1 4 -0.36808861396270753 0 1.0 -0.36808861396270753 0
gene  2 2 4 2.3342825951357065 0 2.0 2.3342825951357065 1
gene  3 3 4 5.527459456976565 0 3.0 5.527459456976565 1
gene  1 1 5 0.16507951343775495 0 4.0 0.16507951343775495 1
gene  1 5 4 -1.0767778482454664 0 5.0 -1.0767778482454664 1
gene  2 2 5 1.2104295648751722 0 8.0 1.2104295648751722 1
gene  1 3 5 -2.1068931050545205 0 152.0 -2.1068931050545205 1
gene  2 2 48 -2.405443510784661 0 196.0 -2.405443510784661 0
gene  2 48 4 -0.8977594167949874 0 197.0 -0.8977594167949874 1
gene  1 3 48 1.2621996977201864 0 281.0 1.2621996977201864 1
gene  2 2 109 -4.734950298804539 0 498.0 -4.734950298804539 1
gene  2 109 48 -3.029627770253144 0 499.0 -3.029627770253144 1
gene  3 3 109 3.8421616490476316 0 549.0 3.8421616490476316 1
gene  2 5 109 2.438202649076903 0 568.0 2.438202649076903 1
gene  1 5 48 -1.3170793685102007 0 587.0 -1.3170793685102007 0
gene  1 5 159 1.1451565953615868 0 770.0 1.1451565953615868 1
gene  1 159 48 -1.245251989782249 0 771.0 -1.245251989782249 1
genomeend 74
/* Organism # 075 Fitness:  3,640 Error:  2,092                      */
genomestart  75
trait 1 0.3943518152472121 0.6091503535315591 0.498704435481923 0.0 0.01021803802828668 0.0 0.0 0.0018338841161459108 
trait 2 0.2 0.0 0.0 0.0 0.0 0.0 0.0 0.0 
trait 3 0.0 0.11288121054901043 0.9277318827308184 0.0 0.009616806161856204 0.0 0.0 0.0 
node 1 1 1 1
node 2 1 1 1
node 3 1 1 3
node 4 1 0 2
node 5 2 0 0
node 48 1 0 0
node 109 2 0 0
node 159 1 0 0
gene  1 1 4 1.1080963189884552 0 1.0 1.1080963189884552 0
gene  2 2 4 -1.9383460305599873 0 2.0 -1.9383460305599873 1
gene  3 3 4 -0.7756211299294513 0 3.0 -0.7756211299294513 1
gene  1 1 5 -0.35523045194983144 0 4.0 -0.35523045194983144 1
gene  1 5 4 -2.819762749975737 0 5.0 -2.819762749975737 1
gene  2 2 5 -2.432009531727996 0 8.0 -2.432009531727996 1
gene  1 3 5 -1.854832127557394 0 152.0 -1.854832127557394 1
gene  2 2 48 0.8923266762542652 0 196.0 0.8923266762542652 0
gene  2 48 4 -0.08289434577001958 0 197.0 -0.08289434577001958 1
gene  1 3 48 5.079844066241189 0 281.0 5.079844066241189 1
gene  2 2 109 0.064634007692288 0 498.0 0.064634007692288 1
gene  2 109 48 -5.473328454440088 0 499.0 -5.473328454440088 1
gene  3 3 109 0.302287449528005 0 549.0 0.302287449528005 1
gene  2 5 109 0.8826568053028855 0 568.0 0.8826568053028855 1
gene  1 5 48 -1.245251989782249 0 587.0 -1.245251989782249 0
gene  1 5 159 1.8662754502506498 0 770.0 1.8662754502506498 1
gene  1 159 48 -2.4862221799096176 0 771.0 -2.4862221799096176 1
genomeend 75
/* Organism # 076 Fitness:  8,942 Error:  1,010                      */
genomestart  76
trait 1 0.3943518152472121 0.6091503535315591 0.498704435481923 0.0 0.01021803802828668 0.0 0.0 0.0018338841161459108 
trait 2 0.2 0.0 0.0 0.0 0.0 0.0 0.0 0.0 
trait 3 0.0 0.11288121054901043 0.9277318827308184 0.0 0.009616806161856204 0.0 0.0 0.0 
node 1 1 1 1
node 2 1 1 1
node 3 1 1 3
node 4 1 0 2
node 5 2 0 0
node 48 1 0 0
node 109 2 0 0
node 159 1 0 0
gene  1 1 4 -1.0654792945104896 0 1.0 -1.0654792945104896 0
gene  2 2 4 -4.833557946662448 0 2.0 -4.833557946662448 1
gene  3 3 4 4.626813845655489 0 3.0 4.626813845655489 1
gene  1 1 5 1.7855092562148762 0 4.0 1.7855092562148762 1
gene  1 5 4 -1.0033320333272642 0 5.0 -1.0033320333272642 1
gene  2 2 5 0.586714937147369 0 8.0 0.586714937147369 1
gene  1 3 5 1.8675013271930676 0 152.0 1.8675013271930676 1
gene  2 2 48 -1.7954409884712197 0 196.0 -1.7954409884712197 0
gene  2 48 4 1.4533422663695288 0 197.0 1.4533422663695288 1
gene  1 3 48 1.9467256611656578 0 281.0 1.9467256611656578 1
gene  2 2 109 -5.518955874519892 0 498.0 -5.518955874519892 1
gene  2 109 48 -4.176315387634707 0 499.0 -4.176315387634707 1
gene  3 3 109 3.982874070320688 0 549.0 3.982874070320688 1
gene  2 5 109 3.2028880195687672 0 568.0 3.2028880195687672 1
gene  1 5 48 0.3677640108716571 0 587.0 0.3677640108716571 0
gene  2 5 159 3.130883617907174 0 770.0 3.130883617907174 1
gene  1 159 48 -1.7414032075523522 0 771.0 -1.7414032075523522 1
genomeend 76
/*-------------------------------------------------------------------*/
/* Species # 022         : (size= 004) (AvfFit= 8,984) (Age= 36,000)  */
/*-------------------------------------------------------------------*/
/* Organism # 077 Fitness:  9,000 Error:  1,000                      */
genomestart  77
trait 1 0.9251473407130391 1.4461169616591305 0.0 0.0 1.7878207442493188 0.01844750209648538 0.0 0.0 
trait 2 0.2 0.0 0.0 0.0 0.0 0.0 0.0 0.0 
trait 3 0.3 0.0 0.0 0.0 0.0 0.0 0.0 0.0 
node 1 1 1 1
node 2 2 1 1
node 3 1 1 3
node 4 1 0 2
node 46 1 0 0
node 137 1 0 0
gene  1 1 4 -1.7530527893002241 0 1.0 -1.7530527893002241 1
gene  3 2 4 -17.964156359210907 0 2.0 -17.964156359210907 1
gene  3 3 4 12.607689724705558 0 3.0 12.607689724705558 1
gene  2 1 46 4.382137070985618 0 183.0 4.382137070985618 1
gene  1 46 4 -0.534574717665578 0 184.0 -0.534574717665578 1
gene  1 3 46 0.6813029800443346 0 217.0 0.6813029800443346 1
gene  2 2 46 -8.103266723829767 0 246.0 -8.103266723829767 1
gene  1 1 137 3.3022896400194215 0 637.0 3.3022896400194215 1
gene  1 137 4 -0.7038583946066499 0 638.0 -0.7038583946066499 1
genomeend 77
/* Organism # 078 Fitness:  9,000 Error:  1,000                      */
genomestart  78
trait 1 0.9251473407130391 1.4461169616591305 0.0 0.0 1.7878207442493188 0.01844750209648538 0.0 0.0 
trait 2 0.2 0.0 0.0 0.0 0.0 0.0 0.0 0.0 
trait 3 0.3 0.0 0.0 0.0 0.0 0.0 0.0 0.0 
node 1 1 1 1
node 2 2 1 1
node 3 1 1 3
node 4 1 0 2
node 46 1 0 0
node 137 1 0 0
gene  1 1 4 1.4591748684858612 0 1.0 1.4591748684858612 0
gene  2 2 4 -20.453346924668843 0 2.0 -20.453346924668843 1
gene  3 3 4 11.922003537615094 0 3.0 11.922003537615094 1
gene  2 1 46 4.267236789338659 0 183.0 4.267236789338659 1
gene  1 46 4 -1.7232389017127925 0 184.0 -1.7232389017127925 1
gene  1 3 46 0.43358622989988405 0 217.0 0.43358622989988405 1
gene  2 2 46 -5.47225318053021 0 246.0 -5.47225318053021 1
gene  1 1 137 6.234871078654786 0 637.0 6.234871078654786 1
gene  1 137 4 -3.2877445604625772 0 638.0 -3.2877445604625772 1
genomeend 78
/* Organism # 079 Fitness:  9,000 Error:  1,000                      */
genomestart  79
trait 1 1.623695351788339 1.4461169616591305 0.39973395545287516 0.0 1.2809928225269127 0.01844750209648538 0.9557639410613493 0.0 
trait 2 0.2 0.0 0.0 0.0 0.0 0.0 0.0 0.0 
trait 3 0.3 0.0 0.0 0.0 0.0 0.0 0.0 0.0 
node 1 1 1 1
node 2 2 1 1
node 3 1 1 3
node 4 1 0 2
node 46 1 0 0
node 137 1 0 0
gene  1 1 4 -0.452534881314548 0 1.0 -0.452534881314548 0
gene  2 2 4 -22.785993675115964 0 2.0 -22.785993675115964 1
gene  3 3 4 10.090992617774406 0 3.0 10.090992617774406 1
gene  2 1 46 0.1793317307245368 0 183.0 0.1793317307245368 1
gene  1 46 4 -1.7891037023148149 0 184.0 -1.7891037023148149 1
gene  1 3 46 -3.4252054034521544 0 217.0 -3.4252054034521544 1
gene  2 2 46 -5.422710090525447 0 246.0 -5.422710090525447 1
gene  1 1 137 3.5368520699344694 0 637.0 3.5368520699344694 1
gene  1 137 4 -2.487049513773035 0 638.0 -2.487049513773035 1
genomeend 79
/* Organism # 080 Fitness:  8,938 Error:  1,010                      */
genomestart  80
trait 1 0.9251473407130391 1.4461169616591305 0.0 0.0 1.7878207442493188 0.01844750209648538 0.0 0.0 
trait 2 0.2 0.0 0.0 0.0 0.0 0.0 0.0 0.0 
trait 3 0.3 0.0 0.0 0.0 0.0 0.0 0.0 0.0 
node 1 1 1 1
node 2 2 1 1
node 3 1 1 3
node 4 1 0 2
node 46 1 0 0
node 137 1 0 0
gene  1 1 4 1.909304198375123 0 1.0 1.909304198375123 0
gene  2 2 4 -20.453346924668843 0 2.0 -20.453346924668843 1
gene  3 3 4 11.987825659172808 0 3.0 11.987825659172808 1
gene  2 1 46 2.4527202107948294 0 183.0 2.4527202107948294 1
gene  1 46 4 -0.9247998419861991 0 184.0 -0.9247998419861991 1
gene  1 3 46 -1.2204016537930173 0 217.0 -1.2204016537930173 1
gene  2 2 46 -6.467158995327643 0 246.0 -6.467158995327643 1
gene  1 1 137 3.7878219340974515 0 637.0 3.7878219340974515 1
gene  1 137 4 -2.987649192936181 0 638.0 -2.987649192936181 1
gene  2 46 137 -5.846320905198149 0 788.0 -5.846320905198149 1
genomeend 80
/*-------------------------------------------------------------------*/
/* Species # 023         : (size= 004) (AvfFit= 8,983) (Age= 36,000)  */
/*-------------------------------------------------------------------*/
/* Organism # 081 Fitness:  9,000 Error:  1,000                      */
genomestart  81
trait 1 0.0 0.0 0.0 0.0 0.0 0.41117422329314635 0.4231433452503337 0.0 
trait 2 0.1 0.0 0.2745656836152613 0.0 0.0 0.0 0.4434326801698363 0.0 
trait 3 0.34979933430019633 0.8631788603424162 1.425861272003624 0.20013252963922956 0.27478525958130695 1.0225649362153018 0.17316938897765422 0.9456193402941695 
node 1 1 1 1
node 2 1 1 1
node 3 1 1 3
node 4 1 0 2
node 12 1 0 0
node 14 1 0 0
node 15 2 0 0
node 48 3 0 0
node 135 1 0 0
gene  2 1 4 2.514287141674698 0 1.0 2.514287141674698 0
gene  2 2 4 -24.239860026331467 0 2.0 -24.239860026331467 1
gene  3 3 4 14.880776828173108 0 3.0 14.880776828173108 1
gene  1 1 14 -1.956674225406789 0 35.0 -1.956674225406789 0
gene  1 14 4 2.2726547661938685 0 36.0 2.2726547661938685 1
gene  1 1 15 -3.6142393336029612 0 40.0 -3.6142393336029612 1
gene  2 15 12 2.5849392016864363 0 41.0 2.5849392016864363 1
gene  3 3 15 5.371473455076794 0 92.0 5.371473455076794 1
gene  1 12 14 -1.9654626969021196 0 141.0 -1.9654626969021196 1
gene  2 2 48 0.3063830460510286 0 196.0 0.3063830460510286 1
gene  2 48 4 -17.796645489600497 0 197.0 -17.796645489600497 1
gene  3 1 12 8.03126563286651 0 535.0 8.03126563286651 1
gene  2 48 12 -3.771625697177506 0 591.0 -3.771625697177506 1
gene  1 1 135 0.7350202038821854 0 630.0 0.7350202038821854 1
gene  1 135 14 1.8264103457892338 0 631.0 1.8264103457892338 1
genomeend 81
/* Organism # 082 Fitness:  8,933 Error:  1,011                      */
genomestart  82
trait 1 0.0 0.0 0.0 0.0 0.0 0.41117422329314635 0.4231433452503337 0.0 
trait 2 0.1 0.0 0.2745656836152613 0.0 0.0 0.0 0.4434326801698363 0.0 
trait 3 0.34979933430019633 0.8631788603424162 1.425861272003624 0.20013252963922956 0.27478525958130695 1.0225649362153018 0.17316938897765422 0.9456193402941695 
node 1 1 1 1
node 2 1 1 1
node 3 1 1 3
node 4 1 0 2
node 12 1 0 0
node 14 1 0 0
node 15 2 0 0
node 48 3 0 0
node 135 3 0 0
gene  2 1 4 4.224708519454511 0 1.0 4.224708519454511 0
gene  2 2 4 2.067489016842235 0 2.0 2.067489016842235 1
gene  3 3 4 12.742937249458498 0 3.0 12.742937249458498 1
gene  1 1 14 -3.5121019501327684 0 35.0 -3.5121019501327684 0
gene  1 14 4 3.119574831441887 0 36.0 3.119574831441887 1
gene  1 1 15 -3.6188113957098507 0 40.0 -3.6188113957098507 1
gene  2 15 12 1.3854532138360736 0 41.0 1.3854532138360736 1
gene  3 3 15 -2.132985574288315 0 92.0 -2.132985574288315 1
gene  1 12 14 -3.3656922321649994 0 141.0 -3.3656922321649994 1
gene  2 2 48 1.9425107834633337 0 196.0 1.9425107834633337 1
gene  2 48 4 -15.743089703023324 0 197.0 -15.743089703023324 1
gene  3 1 12 8.03126563286651 0 535.0 8.03126563286651 1
gene  2 48 12 -4.231409798146441 0 591.0 -4.231409798146441 1
gene  1 1 135 0.7350202038821854 0 630.0 0.7350202038821854 1
gene  1 135 14 2.4117940632329784 0 631.0 2.4117940632329784 1
genomeend 82
/* Organism # 083 Fitness:  9,000 Error:  1,000                      */
genomestart  83
trait 1 0.0 0.0 0.0 0.0 0.0 0.41117422329314635 0.4231433452503337 0.0 
trait 2 0.1 0.0 0.2745656836152613 0.0 0.0 0.0 0.4434326801698363 0.0 
trait 3 0.34979933430019633 0.8631788603424162 1.425861272003624 0.20013252963922956 0.27478525958130695 1.0225649362153018 0.17316938897765422 0.9456193402941695 
node 1 1 1 1
node 2 1 1 1
node 3 1 1 3
node 4 1 0 2
node 12 1 0 0
node 14 1 0 0
node 15 2 0 0
node 48 3 0 0
node 135 1 0 0
gene  2 1 4 3.5795839379089234 0 1.0 3.5795839379089234 0
gene  2 2 4 -25.550971681991804 0 2.0 -25.550971681991804 1
gene  3 3 4 12.57792113209277 0 3.0 12.57792113209277 1
gene  1 1 14 -3.51136539223005 0 35.0 -3.51136539223005 1
gene  1 14 4 1.5726442368598001 0 36.0 1.5726442368598001 1
gene  1 1 15 -0.8028097081870716 0 40.0 -0.8028097081870716 1
gene  2 15 12 3.2880310632412364 0 41.0 3.2880310632412364 1
