/* Species # 001         : (size= 200) (AvfFit= 2,835) (Age= 2,000)  */
/*-------------------------------------------------------------------*/
/* Organism # 000 Fitness:  5,172 Error:  3,274                      */
genomestart  0
trait 1 0.1 0.0 0.0 0.0 0.0 0.0 0.0 0.0 
trait 2 0.2 0.0 0.0 0.0 0.0 0.0 0.0 0.0 
trait 3 0.3 0.0 0.0 0.0 0.0 0.0 0.0 0.0 
node 1 0 1 1
node 2 0 1 1
node 3 0 1 3
node 4 0 0 2
gene  1 1 4 0.8992434451881794 0 1.0 0.8992434451881794 1
gene  2 2 4 -0.6173124177183692 0 2.0 -0.6173124177183692 1
gene  3 3 4 -0.8679474362299201 0 3.0 -0.8679474362299201 1
genomeend 0
/* Organism # 001 Fitness:  0,000 Error:  1,001                      */
genomestart  1
trait 1 0.1 0.0 0.0 0.0 0.0 0.0 0.0 0.0 
trait 2 0.2 0.0 0.0 0.0 0.0 0.0 0.0 0.0 
trait 3 0.3 0.0 0.0 0.0 0.0 0.0 0.0 0.0 
node 1 1 1 1
node 2 1 1 1
node 3 1 1 3
node 4 1 0 2
gene  1 1 4 -1.5232602759890206 0 1.0 -1.5232602759890206 1
gene  2 2 4 -1.0088017185277272 0 2.0 -1.0088017185277272 1
gene  3 3 4 -1.1500600273099149 0 3.0 -1.1500600273099149 1
genomeend 1
/* Organism # 002 Fitness:  4,919 Error:  3,218                      */
genomestart  2
trait 1 0.1 0.0 0.0 0.0 0.0 0.0 0.0 0.0 
trait 2 0.2 0.0 0.0 0.0 0.0 0.0 0.0 0.0 
trait 3 0.3 0.0 0.0 0.0 0.0 0.0 0.0 0.0 
node 1 1 1 1
node 2 1 1 1
node 3 1 1 3
node 4 1 0 2
gene  1 1 4 0.8167892809234834 0 1.0 0.8167892809234834 1
gene  2 2 4 -0.4663143676295066 0 2.0 -0.4663143676295066 1
gene  3 3 4 -0.8428514950647016 0 3.0 -0.8428514950647016 1
genomeend 2
/* Organism # 003 Fitness:  0,390 Error:  1,624                      */
genomestart  3
trait 1 0.1 0.0 0.0 0.0 0.0 0.0 0.0 0.0 
trait 2 0.2 0.0 0.0 0.0 0.0 0.0 0.0 0.0 
trait 3 0.3 0.0 0.0 0.0 0.0 0.0 0.0 0.0 
node 1 0 1 1
node 2 0 1 1
node 3 0 1 3
node 4 0 0 2
gene  1 1 4 -0.1701785793274161 0 1.0 -0.1701785793274161 1
gene  2 2 4 -0.3985467944925629 0 2.0 -0.3985467944925629 1
gene  3 3 4 0.02582386809915893 0 3.0 0.02582386809915893 1
genomeend 3
/* Organism # 004 Fitness:  3,959 Error:  2,990                      */
genomestart  4
trait 1 0.1 0.0 0.0 0.0 0.0 0.0 0.0 0.0 
trait 2 0.2 0.0 0.0 0.0 0.0 0.0 0.0 0.0 
trait 3 0.3 0.0 0.0 0.0 0.0 0.0 0.0 0.0 
node 1 0 1 1
node 2 0 1 1
node 3 0 1 3
node 4 0 0 2
gene  1 1 4 0.9422551635778793 0 1.0 0.9422551635778793 1
gene  2 2 4 0.6470259156648653 0 2.0 0.6470259156648653 1
gene  3 3 4 0.7851066667236768 0 3.0 0.7851066667236768 1
genomeend 4
/* Organism # 005 Fitness:  2,730 Error:  2,652                      */
genomestart  5
trait 1 0.1 0.0 0.0 0.0 0.0 0.0 0.0 0.0 
trait 2 0.2 0.0 0.0 0.0 0.0 0.0 0.0 0.0 
trait 3 0.3 0.0 0.0 0.0 0.0 0.0 0.0 0.0 
node 1 1 1 1
node 2 1 1 1
node 3 1 1 3
node 4 1 0 2
gene  1 1 4 0.20567066130784772 0 1.0 0.20567066130784772 1
gene  2 2 4 0.31670271127515637 0 2.0 0.31670271127515637 1
gene  3 3 4 -1.3986283810655622 0 3.0 -1.3986283810655622 1
genomeend 5
/* Organism # 006 Fitness:  4,000 Error:  3,000                      */
genomestart  6
trait 1 0.1 0.0 0.0 0.0 0.0 0.0 0.0 0.0 
trait 2 0.2 0.0 0.0 0.0 0.0 0.0 0.0 0.0 
trait 3 0.3 0.0 0.0 0.0 0.0 0.0 0.0 0.0 
node 1 1 1 1
node 2 1 1 1
node 3 1 1 3
node 4 1 0 2
gene  1 1 4 2.19997597403014 0 1.0 2.19997597403014 1
gene  2 2 4 0.4453687737082146 0 2.0 0.4453687737082146 1
gene  3 3 4 0.8039703976674701 0 3.0 0.8039703976674701 1
genomeend 6
/* Organism # 007 Fitness:  3,827 Error:  2,956                      */
genomestart  7
trait 1 0.1 0.0 0.0 0.0 0.0 0.0 0.0 0.0 
trait 2 0.2 0.0 0.0 0.0 0.0 0.0 0.0 0.0 
trait 3 0.3 0.0 0.0 0.0 0.0 0.0 0.0 0.0 
node 1 1 1 1
node 2 1 1 1
node 3 1 1 3
node 4 1 0 2
node 5 1 0 0
gene  1 1 4 0.9159214901862247 0 1.0 0.9159214901862247 1
gene  2 2 4 -0.19451880009358335 0 2.0 -0.19451880009358335 0
gene  3 3 4 0.42091788936151764 0 3.0 0.42091788936151764 1
gene  2 2 5 1.0 0 4.0 0.0 1
gene  2 5 4 -0.19451880009358335 0 5.0 0.0 1
genomeend 7
/* Organism # 008 Fitness:  0,316 Error:  1,562                      */
genomestart  8
trait 1 0.1 0.0 0.0 0.0 0.0 0.0 0.0 0.0 
trait 2 0.2 0.0 0.0 0.0 0.0 0.0 0.0 0.0 
trait 3 0.3 0.0 0.0 0.0 0.0 0.0 0.0 0.0 
node 1 1 1 1
node 2 1 1 1
node 3 1 1 3
node 4 1 0 2
gene  1 1 4 -1.5242526670460212 0 1.0 -1.5242526670460212 1
gene  2 2 4 -0.8351723169371881 0 2.0 -0.8351723169371881 1
gene  3 3 4 2.290222887382755 0 3.0 2.290222887382755 1
genomeend 8
/* Organism # 009 Fitness:  4,000 Error:  3,000                      */
genomestart  9
trait 1 0.1 0.0 0.0 0.0 0.0 0.0 0.0 0.0 
trait 2 0.2 0.0 0.0 0.0 0.0 0.0 0.0 0.0 
trait 3 0.3 0.0 0.0 0.0 0.0 0.0 0.0 0.0 
node 1 1 1 1
node 2 1 1 1
node 3 1 1 3
node 4 1 0 2
gene  1 1 4 2.938905805091878 0 1.0 2.938905805091878 1
gene  2 2 4 1.6602568298411602 0 2.0 1.6602568298411602 1
gene  3 3 4 0.8885709663166435 0 3.0 0.8885709663166435 1
genomeend 9
/* Organism # 010 Fitness:  0,641 Error:  1,800                      */
genomestart  10
trait 1 0.1 0.0 0.0 0.0 0.0 0.0 0.0 0.0 
trait 2 0.2 0.0 0.0 0.0 0.0 0.0 0.0 0.0 
trait 3 0.3 0.0 0.0 0.0 0.0 0.0 0.0 0.0 
node 1 1 1 1
node 2 1 1 1
node 3 1 1 3
node 4 1 0 2
gene  1 1 4 -0.30964559244105794 0 1.0 -0.30964559244105794 1
gene  2 2 4 0.4105192226491938 0 2.0 0.4105192226491938 1
gene  3 3 4 2.316052968727943 0 3.0 2.316052968727943 1
genomeend 10
/* Organism # 011 Fitness:  3,674 Error:  2,917                      */
genomestart  11
trait 1 0.1 0.0 0.0 0.0 0.0 0.0 0.0 0.0 
trait 2 0.2 0.0 0.0 0.0 0.0 0.0 0.0 0.0 
trait 3 0.3 0.0 0.0 0.0 0.0 0.0 0.0 0.0 
node 1 1 1 1
node 2 1 1 1
node 3 1 1 3
node 4 1 0 2
gene  1 1 4 1.9791143618954372 0 1.0 1.9791143618954372 1
gene  2 2 4 0.8201491868341761 0 2.0 0.8201491868341761 1
gene  3 3 4 -1.4960226613166867 0 3.0 -1.4960226613166867 1
genomeend 11
/* Organism # 012 Fitness:  3,656 Error:  2,912                      */
genomestart  12
trait 1 0.1 0.0 0.0 0.0 0.0 0.0 0.0 0.0 
trait 2 0.2 0.0 0.0 0.0 0.0 0.0 0.0 0.0 
trait 3 0.3 0.0 0.0 0.0 0.0 0.0 0.0 0.0 
node 1 0 1 1
node 2 0 1 1
node 3 0 1 3
node 4 0 0 2
gene  1 1 4 1.0339625310524287 0 1.0 1.0339625310524287 1
gene  2 2 4 -0.7884058836885086 0 2.0 -0.7884058836885086 1
gene  3 3 4 0.10397644472219814 0 3.0 0.10397644472219814 1
genomeend 12
/* Organism # 013 Fitness:  4,000 Error:  3,000                      */
genomestart  13
trait 1 0.1 0.0 0.0 0.0 0.0 0.0 0.0 0.0 
trait 2 0.2 0.0 0.0 0.0 0.0 0.0 0.0 0.0 
trait 3 0.3 0.0 0.0 0.0 0.0 0.0 0.0 0.0 
node 1 1 1 1
node 2 1 1 1
node 3 1 1 3
node 4 1 0 2
gene  1 1 4 2.155518600171018 0 1.0 2.155518600171018 1
gene  2 2 4 0.7619310882453345 0 2.0 0.7619310882453345 1
gene  3 3 4 1.7169634175894615 0 3.0 1.7169634175894615 1
genomeend 13
/* Organism # 014 Fitness:  3,811 Error:  2,952                      */
genomestart  14
trait 1 0.1 0.0 0.0 0.0 0.0 0.0 0.0 0.0 
trait 2 0.2 0.0 0.0 0.0 0.0 0.0 0.0 0.0 
trait 3 0.3 0.0 0.0 0.0 0.0 0.0 0.0 0.0 
node 1 1 1 1
node 2 1 1 1
node 3 1 1 3
node 4 1 0 2
gene  1 1 4 0.7198621607943309 0 1.0 0.7198621607943309 1
gene  2 2 4 0.22253945496251776 0 2.0 0.22253945496251776 1
gene  3 3 4 0.12232266235010686 0 3.0 0.12232266235010686 1
genomeend 14
/* Organism # 015 Fitness:  2,778 Error:  2,667                      */
genomestart  15
trait 1 0.1 0.0 0.0 0.0 0.0 0.0 0.0 0.0 
trait 2 0.2 0.0 0.0 0.0 0.0 0.0 0.0 0.0 
trait 3 0.3 0.0 0.0 0.0 0.0 0.0 0.0 0.0 
node 1 1 1 1
node 2 1 1 1
node 3 1 1 3
node 4 1 0 2
gene  1 1 4 1.3273004921137286 0 1.0 1.3273004921137286 1
gene  2 2 4 0.771472311912101 0 2.0 0.771472311912101 1
gene  3 3 4 -2.2303113912170462 0 3.0 -2.2303113912170462 1
genomeend 15
/* Organism # 016 Fitness:  3,994 Error:  2,999                      */
genomestart  16
trait 1 0.1 0.0 0.0 0.0 0.0 0.0 0.0 0.0 
trait 2 0.2 0.0 0.0 0.0 0.0 0.0 0.0 0.0 
trait 3 0.3 0.0 0.0 0.0 0.0 0.0 0.0 0.0 
node 1 1 1 1
node 2 1 1 1
node 3 1 1 3
node 4 1 0 2
gene  1 1 4 1.325669040295326 0 1.0 1.325669040295326 1
gene  2 2 4 1.0828535073741183 0 2.0 1.0828535073741183 1
gene  3 3 4 1.2429835111585161 0 3.0 1.2429835111585161 1
genomeend 16
/* Organism # 017 Fitness:  0,030 Error:  0,825                      */
genomestart  17
trait 1 0.1 0.0 0.0 0.0 0.0 0.0 0.0 0.0 
trait 2 0.2 0.0 0.0 0.0 0.0 0.0 0.0 0.0 
trait 3 0.3 0.0 0.0 0.0 0.0 0.0 0.0 0.0 
node 1 1 1 1
node 2 1 1 1
node 3 1 1 3
node 4 1 0 2
gene  1 1 4 -1.3373025604233453 0 1.0 -1.3373025604233453 1
gene  2 2 4 0.37582913996454037 0 2.0 0.37582913996454037 1
gene  3 3 4 0.715388945631084 0 3.0 0.715388945631084 1
genomeend 17
/* Organism # 018 Fitness:  3,699 Error:  2,923                      */
genomestart  18
trait 1 0.1 0.0 0.0 0.0 0.0 0.0 0.0 0.0 
trait 2 0.2 0.0 0.0 0.0 0.0 0.0 0.0 0.0 
trait 3 0.3 0.0 0.0 0.0 0.0 0.0 0.0 0.0 
node 1 0 1 1
node 2 0 1 1
node 3 0 1 3
node 4 0 0 2
gene  1 1 4 0.6514398952700007 0 1.0 0.6514398952700007 1
gene  2 2 4 2.5255510602286586 0 2.0 2.5255510602286586 1
gene  1 3 4 0.005004740260808271 0 3.0 0.005004740260808271 1
genomeend 18
/* Organism # 019 Fitness:  4,782 Error:  3,187                      */
genomestart  19
trait 1 0.1 0.0 0.0 0.0 0.0 0.0 0.0 0.0 
trait 2 0.2 0.0 0.0 0.0 0.0 0.0 0.0 0.0 
trait 3 0.3 0.0 0.0 0.0 0.0 0.0 0.0 0.0 
node 1 1 1 1
node 2 1 1 1
node 3 1 1 3
node 4 1 0 2
gene  1 1 4 0.6849512361278565 0 1.0 0.6849512361278565 1
gene  2 2 4 -0.32265341800542174 0 2.0 -0.32265341800542174 1
gene  3 3 4 -0.43873367525035306 0 3.0 -0.43873367525035306 1
genomeend 19
/* Organism # 020 Fitness:  3,865 Error:  2,966                      */
genomestart  20
trait 1 0.1 0.0 0.0 0.0 0.0 0.0 0.0 0.0 
trait 2 0.2 0.0 0.0 0.0 0.0 0.0 0.0 0.0 
trait 3 0.3 0.0 0.0 0.0 0.0 0.0 0.0 0.0 
node 1 0 1 1
node 2 1 1 1
node 3 0 1 3
node 4 0 0 2
gene  1 1 4 0.8241458379257892 0 1.0 0.8241458379257892 1
gene  2 2 4 0.0 0 2.0 0.0 1
gene  3 3 4 -0.9632234303097452 0 3.0 -0.9632234303097452 1
genomeend 20
/* Organism # 021 Fitness:  4,246 Error:  3,061                      */
genomestart  21
trait 1 0.1 0.0 0.0 0.0 0.0 0.0 0.0 0.0 
trait 2 0.2 0.0 0.0 0.0 0.0 0.0 0.0 0.0 
trait 3 0.3 0.0 0.0 0.0 0.0 0.0 0.0 0.0 
node 1 1 1 1
node 2 1 1 1
node 3 1 1 3
node 4 1 0 2
gene  1 1 4 0.6710737252026339 0 1.0 0.6710737252026339 1
gene  2 2 4 -0.6173124177183692 0 2.0 -0.6173124177183692 1
gene  3 3 4 -0.13291652096054507 0 3.0 -0.13291652096054507 1
genomeend 21
/* Organism # 022 Fitness:  0,023 Error:  1,153                      */
genomestart  22
trait 1 0.1 0.0 0.0 0.0 0.0 0.0 0.0 0.0 
trait 2 0.2 0.0 0.0 0.0 0.0 0.0 0.0 0.0 
trait 3 0.3 0.41032299079430756 0.3206581982492763 0.0 0.0 0.12433780792053994 0.0 0.0 
node 1 1 1 1
node 2 1 1 1
node 3 1 1 3
node 4 1 0 2
gene  1 1 4 -1.1811391990986866 0 1.0 -1.1811391990986866 1
gene  2 2 4 0.8291504952136393 0 2.0 0.8291504952136393 1
gene  3 3 4 -1.1615802912404196 0 3.0 -1.1615802912404196 1
genomeend 22
/* Organism # 023 Fitness:  4,063 Error:  3,016                      */
genomestart  23
trait 1 0.1 0.0 0.0 0.0 0.0 0.0 0.0 0.0 
trait 2 0.2 0.0 0.0 0.0 0.0 0.0 0.0 0.0 
trait 3 0.3 0.0 0.0 0.0 0.0 0.0 0.0 0.0 
node 1 1 1 1
node 2 1 1 1
node 3 1 1 3
node 4 1 0 2
gene  1 1 4 0.8134491891361121 0 1.0 0.8134491891361121 1
gene  2 2 4 -0.19249333871276342 0 2.0 -0.19249333871276342 1
gene  3 3 4 -0.24545842183566136 0 3.0 -0.24545842183566136 1
genomeend 23
/* Organism # 024 Fitness:  0,863 Error:  1,929                      */
genomestart  24
trait 1 0.1 0.0 0.0 0.0 0.0 0.0 0.0 0.0 
trait 2 0.2 0.0 0.0 0.0 0.0 0.0 0.0 0.0 
trait 3 0.3 0.0 0.0 0.0 0.0 0.0 0.0 0.0 
node 1 1 1 1
node 2 1 1 1
node 3 1 1 3
node 4 1 0 2
gene  1 1 4 -1.4734470456792441 0 1.0 -1.4734470456792441 1
gene  2 2 4 -1.581432796714146 0 2.0 -1.581432796714146 1
gene  3 3 4 2.516179389493424 0 3.0 2.516179389493424 1
genomeend 24
/* Organism # 025 Fitness:  4,462 Error:  3,112                      */
genomestart  25
trait 1 0.1 0.0 0.0 0.0 0.0 0.0 0.0 0.0 
trait 2 0.2 0.0 0.0 0.0 0.0 0.0 0.0 0.0 
trait 3 0.3 0.0 0.0 0.0 0.0 0.0 0.0 0.0 
node 1 1 1 1
node 2 1 1 1
node 3 1 1 3
node 4 1 0 2
gene  1 1 4 0.7249544417965528 0 1.0 0.7249544417965528 1
gene  2 2 4 -0.4812671355098598 0 2.0 -0.4812671355098598 1
gene  3 3 4 -0.7742101878829216 0 3.0 -0.7742101878829216 1
genomeend 25
/* Organism # 026 Fitness:  6,512 Error:  3,552                      */
genomestart  26
trait 1 0.1 0.0 0.0 0.0 0.0 0.0 0.0 0.0 
trait 2 0.2 0.599721906415335 0.0 0.0 0.0 0.0 0.0 0.0 
trait 3 0.3 0.0 0.0 0.0 0.0 0.0 0.0 0.0 
node 1 1 1 1
node 2 1 1 1
node 3 1 1 3
node 4 1 0 2
gene  1 1 4 1.9752460837201449 0 1.0 1.9752460837201449 1
gene  2 2 4 -1.2816954779967507 0 2.0 -1.2816954779967507 1
gene  3 3 4 -0.7643155538748085 0 3.0 -0.7643155538748085 1
genomeend 26
/* Organism # 027 Fitness:  3,999 Error:  3,000                      */
genomestart  27
trait 1 0.1 0.0 0.0 0.0 0.0 0.0 0.0 0.0 
trait 2 0.38127073474765577 0.0 0.0 0.20235277466877222 0.0 0.0 0.9777698573466916 0.0 
trait 3 0.3 0.0 0.0 0.0 0.0 0.0 0.0 0.0 
node 1 1 1 1
node 2 1 1 1
node 3 1 1 3
node 4 1 0 2
gene  1 1 4 2.4779814324477356 0 1.0 2.4779814324477356 1
gene  2 2 4 2.3835233909444447 0 2.0 2.3835233909444447 1
gene  3 3 4 -0.8011721062116521 0 3.0 -0.8011721062116521 1
genomeend 27
/* Organism # 028 Fitness:  3,995 Error:  2,999                      */
genomestart  28
trait 1 0.1 0.0 0.0 0.0 0.0 0.0 0.0 0.0 
trait 2 0.2 0.0 0.0 0.0 0.0 0.0 0.0 0.0 
trait 3 0.3 0.0 0.0 0.0 0.0 0.0 0.0 0.0 
node 1 1 1 1
node 2 0 1 1
node 3 0 1 3
node 4 0 0 2
gene  1 1 4 1.4512935244979785 0 1.0 1.4512935244979785 1
gene  2 2 4 0.07084207746763271 0 2.0 0.07084207746763271 1
gene  3 3 4 1.124897290343469 0 3.0 1.124897290343469 1
genomeend 28
/* Organism # 029 Fitness:  3,971 Error:  2,993                      */
genomestart  29
trait 1 0.1 0.0 0.0 0.0 0.0 0.0 0.0 0.0 
trait 2 0.2 0.0 0.0 0.0 0.0 0.0 0.0 0.0 
trait 3 0.3 0.0 0.0 0.0 0.0 0.0 0.0 0.0 
node 1 1 1 1
node 2 1 1 1
node 3 1 1 3
node 4 1 0 2
gene  1 1 4 3.0177621305210627 0 1.0 3.0177621305210627 1
gene  2 2 4 -2.0191129093810654 0 2.0 -2.0191129093810654 1
gene  3 3 4 2.434460058590717 0 3.0 2.434460058590717 1
genomeend 29
/* Organism # 030 Fitness:  3,461 Error:  2,860                      */
genomestart  30
trait 1 0.1 0.0 0.0 0.0 0.0 0.0 0.0 0.0 
trait 2 0.2 0.0 0.0 0.0 0.0 0.0 0.0 0.0 
trait 3 0.3 0.0 0.0 0.0 0.0 0.0 0.0 0.0 
node 1 0 1 1
node 2 0 1 1
node 3 0 1 3
node 4 0 0 2
gene  1 1 4 0.992067949919842 0 1.0 0.992067949919842 1
gene  2 2 4 -0.613937033330802 0 2.0 -0.613937033330802 1
gene  3 3 4 0.8491385414985124 0 3.0 0.8491385414985124 1
genomeend 30
/* Organism # 031 Fitness:  3,344 Error:  2,829                      */
genomestart  31
trait 1 0.1 0.0 0.0 0.0 0.0 0.2925372125991904 0.0 0.49230817457005405 
trait 2 0.2 0.0 0.0 0.0 0.0 0.0 0.0 0.0 
trait 3 0.3 0.0 0.0 0.0 0.0 0.0 0.0 0.0 
node 1 1 1 1
node 2 1 1 1
node 3 1 1 3
node 4 1 0 2
gene  1 1 4 0.5145461728568086 0 1.0 0.5145461728568086 1
gene  2 2 4 0.034757868975561546 0 2.0 0.034757868975561546 1
gene  3 3 4 -0.7169059794484699 0 3.0 -0.7169059794484699 1
genomeend 31
/* Organism # 032 Fitness:  2,995 Error:  2,730                      */
genomestart  32
trait 1 0.1 0.0 0.0 0.0 0.0 0.0 0.0 0.0 
trait 2 0.2 0.0 0.0 0.0 0.0 0.0 0.0 0.0 
trait 3 0.3 0.0 0.0 0.0 0.0 0.0 0.0 0.0 
node 1 1 1 1
node 2 1 1 1
node 3 1 1 3
node 4 1 0 2
gene  1 1 4 0.8134491891361121 0 1.0 0.8134491891361121 1
gene  2 2 4 -0.6010959482939082 0 2.0 -0.6010959482939082 1
gene  3 3 4 -1.7712421808732353 0 3.0 -1.7712421808732353 1
genomeend 32
/* Organism # 033 Fitness:  0,000 Error:  1,001                      */
genomestart  33
trait 1 0.1 0.0 0.0 0.0 0.0 0.0 0.0 0.0 
trait 2 0.2 0.0 0.0 0.0 0.0 0.0 0.0 0.0 
trait 3 0.3 0.0 0.0 0.0 0.0 0.0 0.0 0.0 
node 1 1 1 1
node 2 1 1 1
node 3 1 1 3
node 4 1 0 2
gene  1 1 4 -1.833323882538962 0 1.0 -1.833323882538962 1
gene  2 2 4 0.4568154735492583 0 2.0 0.4568154735492583 1
gene  3 3 4 -2.6289223372688153 0 3.0 -2.6289223372688153 1
genomeend 33
/* Organism # 034 Fitness:  3,673 Error:  2,916                      */
genomestart  34
trait 1 0.1 0.0 0.0 0.0 0.0 0.0 0.0 0.0 
trait 2 0.2 0.0 0.0 0.0 0.0 0.0 0.0 0.0 
trait 3 0.3 0.0 0.0 0.0 0.0 0.0 0.0 0.0 
node 1 1 1 1
node 2 1 1 1
node 3 1 1 3
node 4 1 0 2
gene  1 1 4 0.9516187225437303 0 1.0 0.9516187225437303 1
gene  2 2 4 0.11879995782235836 0 2.0 0.11879995782235836 1
gene  3 3 4 -0.6368552505965905 0 3.0 -0.6368552505965905 1
genomeend 34
/* Organism # 035 Fitness:  0,611 Error:  1,781                      */
genomestart  35
trait 1 0.1 0.0 0.0 0.0 0.0 0.0 0.0 0.0 
trait 2 0.2 0.0 0.0 0.0 0.0 0.0 0.0 0.0 
trait 3 0.3 0.0 0.0 0.0 0.0 0.0 0.0 0.0 
node 1 1 1 1
node 2 1 1 1
node 3 1 1 3
node 4 1 0 2
gene  1 1 4 -0.6913204379866211 0 1.0 -0.6913204379866211 1
gene  2 2 4 0.9142113914639418 0 2.0 0.9142113914639418 1
gene  3 3 4 2.197128155042407 0 3.0 2.197128155042407 1
genomeend 35
/* Organism # 036 Fitness:  3,991 Error:  2,998                      */
genomestart  36
trait 1 0.1 0.0 0.0 0.0 0.0 0.0 0.0 0.0 
trait 2 0.2 0.0 0.0 0.0 0.0 0.0 0.0 0.0 
trait 3 0.3 0.0 0.0 0.0 0.0 0.0 0.0 0.0 
node 1 0 1 1
node 2 0 1 1
node 3 0 1 3
node 4 0 0 2
gene  1 1 4 1.5344388751382652 0 1.0 1.5344388751382652 1
gene  2 2 4 0.38007428630869633 0 2.0 0.38007428630869633 1
gene  3 3 4 -3.189707596211349 0 3.0 -3.189707596211349 1
genomeend 36
/* Organism # 037 Fitness:  3,690 Error:  2,921                      */
genomestart  37
trait 1 0.1 0.0 0.0 0.0 0.0 0.0 0.0 0.0 
trait 2 0.2 0.0 0.0 0.0 0.0 0.0 0.0 0.0 
trait 3 0.3 0.0 0.0 0.0 0.0 0.0 0.0 0.0 
node 1 1 1 1
node 2 1 1 1
node 3 1 1 3
node 4 1 0 2
gene  1 1 4 0.5661513295572143 0 1.0 0.5661513295572143 1
gene  2 2 4 1.2601324159540717 0 2.0 1.2601324159540717 1
gene  3 3 4 0.21503226249251894 0 3.0 0.21503226249251894 1
genomeend 37
/* Organism # 038 Fitness:  4,000 Error:  3,000                      */
genomestart  38
trait 1 0.1 0.0 0.0 0.0 0.0 0.0 0.0 0.0 
trait 2 0.2 0.0 0.0 0.0 0.0 0.0 0.0 0.0 
trait 3 0.3 0.0 0.0 0.0 0.0 0.0 0.0 0.0 
node 1 0 1 1
node 2 0 1 1
node 3 0 1 3
node 4 0 0 2
gene  1 1 4 2.9089673500213724 0 1.0 2.9089673500213724 1
gene  2 2 4 0.968349499120433 0 2.0 0.968349499120433 1
gene  3 3 4 -0.6887836180751199 0 3.0 -0.6887836180751199 1
genomeend 38
/* Organism # 039 Fitness:  3,340 Error:  2,828                      */
genomestart  39
trait 1 0.1 0.0 0.0 0.0 0.0 0.0 0.0 0.0 
trait 2 0.2 0.0 0.0 0.0 0.0 0.0 0.0 0.0 
trait 3 0.3 0.0 0.0 0.0 0.0 0.0 0.0 0.0 
node 1 1 1 1
node 2 1 1 1
node 3 1 1 3
node 4 1 0 2
gene  1 1 4 1.9371953428065205 0 1.0 1.9371953428065205 1
gene  2 2 4 -1.6187380328004823 0 2.0 -1.6187380328004823 1
gene  3 3 4 1.5868381043147632 0 3.0 1.5868381043147632 1
genomeend 39
/* Organism # 040 Fitness:  0,000 Error:  1,008                      */
genomestart  40
trait 1 0.1 0.0 0.0 0.0 0.0 0.0 0.0 0.0 
trait 2 0.2 0.0 0.0 0.0 0.0 0.0 0.0 0.0 
trait 3 0.3 0.0 0.0 0.0 0.0 0.0 0.0 0.0 
node 1 1 1 1
node 2 1 1 1
node 3 1 1 3
node 4 1 0 2
gene  1 1 4 -1.0559200347124174 0 1.0 -1.0559200347124174 1
gene  2 2 4 -0.9775722408281459 0 2.0 -0.9775722408281459 1
gene  3 3 4 -0.19382884636290143 0 3.0 -0.19382884636290143 1
genomeend 40
/* Organism # 041 Fitness:  0,860 Error:  1,928                      */
genomestart  41
trait 1 0.1 0.0 0.0 0.0 0.0 0.0 0.0 0.0 
trait 2 0.2 0.0 0.0 0.0 0.0 0.0 0.0 0.0 
trait 3 0.3 0.0 0.0 0.0 0.0 0.0 0.0 0.0 
node 1 1 1 1
node 2 1 1 1
node 3 1 1 3
node 4 1 0 2
gene  1 1 4 -0.47596899026419026 0 1.0 -0.47596899026419026 1
gene  2 2 4 1.2682208649710036 0 2.0 1.2682208649710036 1
gene  3 3 4 -1.1599662251797977 0 3.0 -1.1599662251797977 1
genomeend 41
/* Organism # 042 Fitness:  3,073 Error:  2,753                      */
genomestart  42
trait 1 0.35463312432061145 0.0 0.0 0.0 0.1934173011933077 0.0 0.0 0.0 
trait 2 0.2 0.0 0.0 0.0 0.0 0.0 0.0 0.0 
trait 3 0.3 0.0 0.0 0.0 0.0 0.0 0.0 0.0 
node 1 1 1 1
node 2 1 1 1
node 3 1 1 3
node 4 1 0 2
gene  1 1 4 0.4606392172082887 0 1.0 0.4606392172082887 1
gene  2 2 4 0.13843563778314677 0 2.0 0.13843563778314677 1
gene  3 3 4 -0.8297070084440238 0 3.0 -0.8297070084440238 1
genomeend 42
/* Organism # 043 Fitness:  3,995 Error:  2,999                      */
genomestart  43
trait 1 0.1 0.0 0.0 0.0 0.0 0.0 0.0 0.0 
trait 2 0.2 0.0 0.0 0.0 0.0 0.0 0.0 0.0 
trait 3 0.3 0.0 0.0 0.0 0.0 0.0 0.0 0.0 
node 1 1 1 1
node 2 1 1 1
node 3 1 1 3
node 4 1 0 2
gene  2 1 4 2.0969514753478196 0 1.0 2.0969514753478196 1
gene  2 2 4 -0.7154968417163656 0 2.0 -0.7154968417163656 1
gene  3 3 4 1.7290134324820055 0 3.0 1.7290134324820055 1
genomeend 43
/* Organism # 044 Fitness:  3,433 Error:  2,853                      */
genomestart  44
trait 1 0.1 0.0 0.0 0.0 0.0 0.0 0.0 0.0 
trait 2 0.2 0.0 0.0 0.0 0.0 0.0 0.0 0.0 
trait 3 0.3 0.0 0.0 0.0 0.0 0.0 0.0 0.0 
node 1 1 1 1
node 2 1 1 1
node 3 1 1 3
node 4 1 0 2
gene  2 1 4 0.992067949919842 0 1.0 0.992067949919842 1
gene  2 2 4 -0.6230763938144999 0 2.0 -0.6230763938144999 1
gene  3 3 4 1.7570810434777568 0 3.0 1.7570810434777568 1
genomeend 44
/* Organism # 045 Fitness:  1,126 Error:  2,061                      */
genomestart  45
trait 1 0.1 0.0 0.0 0.0 0.0 0.0 0.0 0.0 
trait 2 0.2 0.0 0.0 0.0 0.0 0.0 0.0 0.0 
trait 3 0.3 0.0 0.0 0.0 0.0 0.0 0.0 0.0 
node 1 1 1 1
node 2 1 1 1
node 3 1 1 3
node 4 1 0 2
gene  1 1 4 0.7813947365083836 0 1.0 0.7813947365083836 1
gene  2 2 4 1.492634737532491 0 2.0 1.492634737532491 1
gene  3 3 4 -1.2942918001558554 0 3.0 -1.2942918001558554 1
genomeend 45
/* Organism # 046 Fitness:  2,837 Error:  2,684                      */
genomestart  46
trait 1 0.1 0.0 0.0 0.0 0.0 0.0 0.0 0.0 
trait 2 0.2 0.0 0.0 0.0 0.0 0.0 0.0 0.0 
trait 3 0.3 0.0 0.0 0.0 0.0 0.0 0.0 0.0 
node 1 0 1 1
node 2 0 1 1
node 3 0 1 3
node 4 0 0 2
gene  1 1 4 2.1640407442357974 0 1.0 2.1640407442357974 1
gene  2 2 4 -2.0083112464427093 0 2.0 -2.0083112464427093 1
gene  3 3 4 1.165241963150468 0 3.0 1.165241963150468 1
genomeend 46
/* Organism # 047 Fitness:  1,975 Error:  2,406                      */
genomestart  47
trait 1 0.1 0.0 0.0 0.0 0.0 0.0 0.0 0.0 
trait 2 0.2 0.0 0.0 0.0 0.0 0.0 0.0 0.0 
trait 3 0.3 0.0 0.0 0.0 0.0 0.0 0.0 0.0 
node 1 1 1 1
node 2 1 1 1
node 3 1 1 3
node 4 1 0 2
gene  1 1 4 0.8483095024800409 0 1.0 0.8483095024800409 1
gene  2 2 4 -2.223036508713873 0 2.0 -2.223036508713873 1
gene  1 3 4 -0.9142943742055266 0 3.0 -0.9142943742055266 1
genomeend 47
/* Organism # 048 Fitness:  0,648 Error:  1,805                      */
genomestart  48
trait 1 0.1 0.0 0.0 0.0 0.0 0.0 0.0 0.0 
trait 2 0.2 0.0 0.0 0.0 0.0 0.0 0.0 0.0 
trait 3 0.3 0.0 0.0 0.0 0.0 0.0 0.0 0.0 
node 1 1 1 1
node 2 1 1 1
node 3 1 1 3
node 4 1 0 2
gene  1 1 4 0.14148691567131488 0 1.0 0.14148691567131488 1
gene  2 2 4 -1.583538685076256 0 2.0 -1.583538685076256 1
gene  3 3 4 -0.5152155093274193 0 3.0 -0.5152155093274193 1
genomeend 48
/* Organism # 049 Fitness:  3,628 Error:  2,905                      */
genomestart  49
trait 1 0.1 0.0 0.0 0.0 0.0 0.0 0.0 0.0 
trait 2 0.2 0.0 0.0 0.0 0.0 0.0 0.0 0.0 
trait 3 0.3 0.0 0.0 0.0 0.0 0.0 0.0 0.0 
node 1 1 1 1
node 2 1 1 1
node 3 1 1 3
node 4 1 0 2
gene  1 1 4 0.6081730994506978 0 1.0 0.6081730994506978 1
gene  2 2 4 0.40399104909452765 0 2.0 0.40399104909452765 1
gene  3 3 4 0.0 0 3.0 0.0 1
genomeend 49
/* Organism # 050 Fitness:  3,534 Error:  2,880                      */
genomestart  50
trait 1 0.1 0.0 0.0 0.0 0.0 0.0 0.0 0.0 
trait 2 0.2 0.0 0.0 0.0 0.0 0.0 0.0 0.0 
trait 3 0.3 0.0 0.0 0.0 0.0 0.0 0.0 0.0 
node 1 0 1 1
node 2 0 1 1
node 3 0 1 3
node 4 0 0 2
node 6 1 0 0
gene  1 1 4 0.6380868073704843 0 1.0 0.6380868073704843 0
gene  2 2 4 0.4510949471620137 0 2.0 0.4510949471620137 1
gene  3 3 4 -0.14472090932091186 0 3.0 -0.14472090932091186 1
gene  1 1 6 1.0 0 6.0 0.0 1
gene  1 6 4 0.6380868073704843 0 7.0 0.0 1
genomeend 50
/* Organism # 051 Fitness:  3,874 Error:  2,968                      */
genomestart  51
trait 1 0.1 0.0 0.0 0.0 0.0 0.0 0.0 0.0 
trait 2 0.2 0.0 0.0 0.0 0.0 0.0 0.0 0.0 
trait 3 0.3 0.0 0.0 0.0 0.0 0.0 0.0 0.0 
node 1 0 1 1
node 2 0 1 1
node 3 0 1 3
node 4 0 0 2
gene  1 1 4 0.8397750304526075 0 1.0 0.8397750304526075 1
gene  2 2 4 0.22489943314363525 0 2.0 0.22489943314363525 1
gene  3 3 4 -0.007302762775477145 0 3.0 -0.007302762775477145 1
genomeend 51
/* Organism # 052 Fitness:  4,000 Error:  3,000                      */
genomestart  52
trait 1 0.1 0.0 0.0 0.0 0.0 0.0 0.0 0.0 
trait 2 0.2 0.0 0.0 0.0 0.0 0.0 0.0 0.0 
trait 3 0.3 0.0 0.0 0.0 0.0 0.0 0.0 0.0 
node 1 1 1 1
node 2 1 1 1
node 3 1 1 3
node 4 1 0 2
gene  1 1 4 3.1483441137101535 0 1.0 3.1483441137101535 1
gene  2 2 4 0.5321545448054844 0 2.0 0.5321545448054844 1
gene  3 3 4 1.608128467776856 0 3.0 1.608128467776856 1
genomeend 52
/* Organism # 053 Fitness:  3,879 Error:  2,970                      */
genomestart  53
trait 1 0.1 0.0 0.0 0.0 0.0 0.0 0.0 0.0 
trait 2 0.2 0.0 0.0 0.0 0.0 0.0 0.0 0.0 
trait 3 0.3 0.0 0.0 0.0 0.0 0.0 0.0 0.0 
node 1 1 1 1
node 2 1 1 1
node 3 1 1 3
node 4 1 0 2
gene  1 1 4 1.983175125049618 0 1.0 1.983175125049618 1
gene  2 2 4 1.7562109388009288 0 2.0 1.7562109388009288 1
gene  3 3 4 -1.2797326242735052 0 3.0 -1.2797326242735052 1
genomeend 53
/* Organism # 054 Fitness:  0,557 Error:  1,747                      */
genomestart  54
trait 1 0.1 0.0 0.0 0.0 0.0 0.0 0.0 0.0 
trait 2 0.2 0.0 0.0 0.0 0.0 0.0 0.0 0.0 
trait 3 0.3 0.0 0.0 0.0 0.0 0.0 0.0 0.0 
node 1 0 1 1
node 2 0 1 1
node 3 0 1 3
node 4 0 0 2
gene  1 1 4 -0.20534127968199412 0 1.0 -0.20534127968199412 1
gene  2 2 4 0.18896081634170947 0 2.0 0.18896081634170947 1
gene  3 3 4 -2.155706328941119 0 3.0 -2.155706328941119 1
genomeend 54
/* Organism # 055 Fitness:  1,666 Error:  2,291                      */
genomestart  55
trait 1 0.1 0.0 0.0 0.0 0.0 0.0 0.0 0.0 
trait 2 0.2 0.0 0.0 0.0 0.0 0.0 0.0 0.0 
trait 3 0.3 0.0 0.0 0.0 0.0 0.0 0.0 0.0 
node 1 1 1 1
node 2 1 1 1
node 3 1 1 3
node 4 1 0 2
gene  1 1 4 0.2583981644947613 0 1.0 0.2583981644947613 1
gene  2 2 4 -2.2863196412590074 0 2.0 -2.2863196412590074 1
gene  3 3 4 -0.2506932374685738 0 3.0 -0.2506932374685738 1
genomeend 55
/* Organism # 056 Fitness:  0,000 Error:  1,016                      */
genomestart  56
trait 1 0.1 0.0 0.0 0.0 0.0 0.0 0.0 0.0 
trait 2 0.2 0.0 0.0 0.0 0.0 0.0 0.0 0.0 
trait 3 0.3 0.0 0.0 0.0 0.0 0.0 0.0 0.0 
node 1 1 1 1
node 2 1 1 1
node 3 1 1 3
node 4 1 0 2
gene  3 1 4 -1.8567502196361616 0 1.0 -1.8567502196361616 1
gene  2 2 4 1.0148901437240472 0 2.0 1.0148901437240472 1
gene  3 3 4 -1.7492024600825902 0 3.0 -1.7492024600825902 1
genomeend 56
/* Organism # 057 Fitness:  3,999 Error:  3,000                      */
genomestart  57
trait 1 0.1 0.0 0.94690299402565 0.0 0.0 0.7781869177935953 0.8373455244676248 0.3562037970028731 
trait 2 0.2 0.0 0.0 0.0 0.0 0.0 0.0 0.0 
trait 3 0.3 0.0 0.0 0.0 0.0 0.0 0.0 0.0 
node 1 3 1 1
node 2 0 1 1
node 3 0 1 3
node 4 0 0 2
gene  1 1 4 2.020820617117435 0 1.0 2.020820617117435 1
gene  2 2 4 0.07032051263912759 0 2.0 0.07032051263912759 1
gene  3 3 4 -0.275776519336829 0 3.0 -0.275776519336829 1
genomeend 57
/* Organism # 058 Fitness:  3,496 Error:  2,870                      */
genomestart  58
trait 1 0.1 0.0 0.0 0.0 0.0 0.0 0.0 0.0 
trait 2 0.2 0.0 0.0 0.0 0.0 0.0 0.0 0.0 
trait 3 0.3 0.0 0.0 0.0 0.0 0.0 0.0 0.0 
node 1 0 1 1
node 2 0 1 1
node 3 0 1 3
node 4 0 0 2
gene  1 1 4 1.570373953202973 0 1.0 1.570373953202973 1
gene  2 2 4 -1.184457489102945 0 2.0 -1.184457489102945 1
gene  3 3 4 1.3862187043161949 0 3.0 1.3862187043161949 1
genomeend 58
/* Organism # 059 Fitness:  3,970 Error:  2,992                      */
genomestart  59
trait 1 0.1 0.0 0.0 0.0 0.0 0.0 0.0 0.0 
trait 2 0.2 0.0 0.0 0.0 0.0 0.0 0.0 0.0 
trait 3 0.3 0.0 0.0 0.0 0.0 0.0 0.0 0.0 
node 1 1 1 1
node 2 1 1 1
node 3 1 1 3
node 4 1 0 2
gene  1 1 4 1.6634427271434735 0 1.0 1.6634427271434735 1
gene  1 2 4 1.5894750633489811 0 2.0 1.5894750633489811 1
gene  3 3 4 -0.667445079546251 0 3.0 -0.667445079546251 1
genomeend 59
/* Organism # 060 Fitness:  2,462 Error:  2,569                      */
genomestart  60
trait 1 0.1 0.0 0.0 0.0 0.25062861347162857 0.43494252546270973 0.7633076668801801 0.0 
trait 2 0.2 0.0 0.0 0.0 0.0 0.0 0.0 0.0 
trait 3 0.3 0.0 0.0 0.0 0.0 0.0 0.0 0.0 
node 1 1 1 1
node 2 1 1 1
node 3 1 1 3
node 4 1 0 2
gene  1 1 4 0.47072148606411846 0 1.0 0.47072148606411846 1
gene  2 2 4 1.057917744060898 0 2.0 1.057917744060898 1
gene  3 3 4 -0.3392405758227316 0 3.0 -0.3392405758227316 1
genomeend 60
/* Organism # 061 Fitness:  3,962 Error:  2,990                      */
genomestart  61
trait 1 0.1 0.0 0.0 0.0 0.0 0.0 0.0 0.0 
trait 2 0.2 0.0 0.0 0.0 0.0 0.0 0.0 0.0 
trait 3 0.3 0.0 0.0 0.0 0.0 0.0 0.0 0.0 
node 1 1 1 1
node 2 1 1 1
node 3 1 1 3
node 4 1 0 2
gene  1 1 4 0.9628576890337861 0 1.0 0.9628576890337861 1
gene  2 2 4 0.7799972183226634 0 2.0 0.7799972183226634 1
gene  3 3 4 0.4921333455315675 0 3.0 0.4921333455315675 1
genomeend 61
/* Organism # 062 Fitness:  2,965 Error:  2,722                      */
genomestart  62
trait 1 0.1 0.0 0.0 0.0 0.0 0.0 0.0 0.0 
trait 2 0.2 0.0 0.0 0.0 0.0 0.0 0.0 0.0 
trait 3 0.0 0.6459334269903425 0.7790389428836629 0.0 0.0 0.0 0.44870421218313317 0.0 
node 1 1 1 1
node 2 1 1 1
node 3 1 1 3
node 4 1 0 2
gene  1 1 4 1.6596199992572984 0 1.0 1.6596199992572984 1
gene  2 2 4 -1.4668197664912372 0 2.0 -1.4668197664912372 1
gene  3 3 4 1.1927727550133636 0 3.0 1.1927727550133636 1
genomeend 62
/* Organism # 063 Fitness:  0,022 Error:  1,147                      */
genomestart  63
trait 1 0.1 0.0 0.0 0.0 0.0 0.0 0.0 0.0 
trait 2 0.2 0.0 0.0 0.0 0.0 0.0 0.0 0.0 
trait 3 0.3 0.0 0.0 0.0 0.0 0.0 0.0 0.0 
node 1 1 1 1
node 2 1 1 1
node 3 1 1 3
node 4 1 0 2
gene  1 1 4 -0.3595234303452638 0 1.0 -0.3595234303452638 1
gene  2 2 4 -1.9629426395135983 0 2.0 -1.9629426395135983 1
gene  1 3 4 -1.0152731509087916 0 3.0 -1.0152731509087916 1
genomeend 63
/* Organism # 064 Fitness:  0,036 Error:  1,189                      */
genomestart  64
trait 1 0.1 0.0 0.0 0.0 0.0 0.0 0.0 0.0 
trait 2 0.2 0.0 0.0 0.0 0.0 0.0 0.0 0.0 
trait 3 0.3 0.0 0.0 0.0 0.0 0.0 0.0 0.0 
node 1 0 1 1
node 2 0 1 1
node 3 0 1 3
node 4 0 0 2
gene  1 1 4 -0.7056055996154867 0 1.0 -0.7056055996154867 1
gene  2 2 4 -0.6340282867959421 0 2.0 -0.6340282867959421 1
gene  3 3 4 1.6677438661668003 0 3.0 1.6677438661668003 1
genomeend 64
/* Organism # 065 Fitness:  4,313 Error:  3,077                      */
genomestart  65
trait 1 0.1 0.0 0.0 0.0 0.0 0.0 0.0 0.0 
trait 2 0.2 0.0 0.0 0.0 0.0 0.0 0.0 0.0 
trait 3 0.3 0.0 0.0 0.0 0.0 0.0 0.0 0.0 
node 1 1 1 1
node 2 1 1 1
node 3 1 1 3
node 4 1 0 2
gene  1 1 4 0.6999184013844035 0 1.0 0.6999184013844035 1
gene  2 2 4 -0.8187366303371966 0 2.0 -0.8187366303371966 1
gene  3 3 4 -0.20179447667011652 0 3.0 -0.20179447667011652 1
genomeend 65
/* Organism # 066 Fitness:  1,137 Error:  2,066                      */
genomestart  66
trait 1 0.1 0.0 0.0 0.0 0.0 0.0 0.0 0.0 
trait 2 0.2 0.0 0.0 0.0 0.0 0.0 0.0 0.0 
trait 3 0.3 0.0 0.0 0.0 0.0 0.0 0.0 0.0 
node 1 1 1 1
node 2 1 1 1
node 3 1 1 3
node 4 1 0 2
gene  1 1 4 1.8301540223571273 0 1.0 1.8301540223571273 1
gene  2 2 4 -2.3774338389372724 0 2.0 -2.3774338389372724 1
gene  3 3 4 -2.994717557062388 0 3.0 -2.994717557062388 1
genomeend 66
/* Organism # 067 Fitness:  2,528 Error:  2,590                      */
genomestart  67
trait 1 0.1 0.0 0.0 0.0 0.0 0.0 0.0 0.0 
trait 2 0.2 0.0 0.0 0.0 0.0 0.0 0.0 0.0 
trait 3 0.3 0.0 0.0 0.0 0.0 0.0 0.0 0.0 
node 1 1 1 1
node 2 1 1 1
node 3 1 1 3
node 4 1 0 2
gene  1 1 4 0.18552357680468445 0 1.0 0.18552357680468445 1
gene  2 2 4 0.21580395860959917 0 2.0 0.21580395860959917 1
gene  3 3 4 -1.5691818889927909 0 3.0 -1.5691818889927909 1
genomeend 67
/* Organism # 068 Fitness:  1,820 Error:  2,349                      */
genomestart  68
trait 1 0.1 0.0 0.0 0.0 0.0 0.0 0.0 0.0 
trait 2 0.2 0.0 0.0 0.0 0.0 0.0 0.0 0.0 
trait 3 0.3 0.0 0.0 0.0 0.0 0.0 0.0 0.0 
node 1 0 1 1
node 2 0 1 1
node 3 0 1 3
node 4 0 0 2
gene  1 1 4 1.2464746990310152 0 1.0 1.2464746990310152 1
gene  2 2 4 1.2797907010072296 0 2.0 1.2797907010072296 1
gene  3 3 4 -2.3987260703145523 0 3.0 -2.3987260703145523 1
genomeend 68
/* Organism # 069 Fitness:  4,000 Error:  3,000                      */
genomestart  69
trait 1 0.1 0.0 0.0 0.0 0.0 0.0 0.0 0.0 
trait 2 0.2 0.0 0.0 0.0 0.0 0.0 0.0 0.0 
trait 3 0.3 0.0 0.0 0.0 0.0 0.0 0.0 0.0 
node 1 1 1 1
node 2 1 1 1
node 3 1 1 3
node 4 1 0 2
gene  1 1 4 2.223480980808495 0 1.0 2.223480980808495 1
gene  2 2 4 2.5478162519540826 0 2.0 2.5478162519540826 1
gene  3 3 4 0.3611661369392597 0 3.0 0.3611661369392597 1
genomeend 69
/* Organism # 070 Fitness:  3,559 Error:  2,887                      */
genomestart  70
trait 1 0.1 0.0 0.0 0.0 0.0 0.0 0.0 0.0 
trait 2 0.2 0.0 0.0 0.0 0.0 0.0 0.0 0.0 
trait 3 0.3 0.0 0.0 0.0 0.0 0.0 0.0 0.0 
node 1 1 1 1
node 2 1 1 1
node 3 1 1 3
node 4 1 0 2
gene  1 1 4 0.5503883651364214 0 1.0 0.5503883651364214 1
gene  2 2 4 0.358923123504295 0 2.0 0.358923123504295 1
gene  3 3 4 0.05465949249678087 0 3.0 0.05465949249678087 1
genomeend 70
/* Organism # 071 Fitness:  1,039 Error:  2,019                      */
genomestart  71
trait 1 0.1 0.0 0.0 0.0 0.0 0.0 0.0 0.0 
trait 2 0.2 0.0 0.0 0.0 0.0 0.0 0.0 0.0 
trait 3 0.3 0.0 0.0 0.0 0.0 0.0 0.0 0.0 
node 1 1 1 1
node 2 1 1 1
node 3 1 1 3
node 4 1 0 2
gene  1 1 4 1.4531012690809022 0 1.0 1.4531012690809022 1
gene  2 2 4 -2.25571380265391 0 2.0 -2.25571380265391 1
gene  3 3 4 2.134042880474229 0 3.0 2.134042880474229 1
genomeend 71
/* Organism # 072 Fitness:  4,512 Error:  3,124                      */
genomestart  72
trait 1 0.1 0.0 0.0 0.0 0.0 0.0 0.0 0.0 
trait 2 0.2 0.0 0.0 0.0 0.0 0.0 0.0 0.0 
trait 3 0.3 0.0 0.0 0.0 0.0 0.0 0.0 0.0 
node 1 1 1 1
node 2 1 1 1
node 3 1 1 3
node 4 1 0 2
gene  1 1 4 0.7574291802275419 0 1.0 0.7574291802275419 1
gene  2 2 4 -0.5016109435423606 0 2.0 -0.5016109435423606 1
gene  3 3 4 -0.8161297576258828 0 3.0 -0.8161297576258828 1
genomeend 72
/* Organism # 073 Fitness:  4,992 Error:  3,234                      */
genomestart  73
trait 1 0.1 0.0 0.0 0.0 0.0 0.0 0.0 0.0 
trait 2 0.2 0.0 0.0 0.0 0.0 0.0 0.0 0.0 
trait 3 0.3 0.0 0.0 0.0 0.0 0.0 0.0 0.0 
node 1 1 1 1
node 2 1 1 1
node 3 1 1 3
node 4 1 0 2
gene  1 1 4 1.0497181392455437 0 1.0 1.0497181392455437 1
gene  2 2 4 -0.819174415578392 0 2.0 -0.819174415578392 1
gene  3 3 4 -1.049165404140366 0 3.0 -1.049165404140366 1
genomeend 73
/* Organism # 074 Fitness:  3,497 Error:  2,870                      */
genomestart  74
trait 1 0.1 0.0 0.0 0.0 0.0 0.0 0.0 0.0 
trait 2 0.2 0.0 0.0 0.0 0.0 0.0 0.0 0.0 
trait 3 0.3 0.0 0.0 0.0 0.0 0.0 0.0 0.0 
node 1 1 1 1
node 2 1 1 1
node 3 1 1 3
node 4 1 0 2
gene  1 1 4 0.541510221486883 0 1.0 0.541510221486883 1
gene  2 2 4 0.0 0 2.0 0.0 1
gene  3 3 4 -0.7295197547502629 0 3.0 -0.7295197547502629 1
genomeend 74
/* Organism # 075 Fitness:  0,005 Error:  0,927                      */
genomestart  75
trait 1 0.1 0.0 0.0 0.0 0.0 0.0 0.0 0.0 
trait 2 0.2 0.0 0.0 0.0 0.0 0.0 0.0 0.0 
trait 3 0.3 0.0 0.0 0.0 0.0 0.0 0.0 0.0 
node 1 0 1 1
node 2 0 1 1
node 3 0 1 3
node 4 0 0 2
gene  1 1 4 -1.7999717959601713 0 1.0 -1.7999717959601713 1
gene  2 2 4 0.20513606164802073 0 2.0 0.20513606164802073 1
gene  3 3 4 2.201753847312615 0 3.0 2.201753847312615 1
genomeend 75
/* Organism # 076 Fitness:  4,000 Error:  3,000                      */
genomestart  76
trait 1 0.1 0.0 0.0 0.0 0.0 0.0 0.0 0.0 
trait 2 0.2 0.0 0.0 0.0 0.0 0.0 0.0 0.0 
trait 3 0.3 0.0 0.0 0.0 0.0 0.0 0.0 0.0 
node 1 0 1 1
node 2 0 1 1
node 3 0 1 3
node 4 0 0 2
gene  1 1 4 1.8464052481964068 0 1.0 1.8464052481964068 1
gene  2 2 4 2.4323655895405762 0 2.0 2.4323655895405762 1
gene  3 3 4 0.6070945614163463 0 3.0 0.6070945614163463 1
genomeend 76
/* Organism # 077 Fitness:  0,938 Error:  1,968                      */
genomestart  77
trait 1 0.1 0.0 0.0 0.0 0.0 0.0 0.0 0.0 
trait 2 0.2 0.0 0.0 0.0 0.0 0.0 0.0 0.0 
trait 3 0.3 0.0 0.0 0.0 0.0 0.0 0.0 0.0 
node 1 1 1 1
node 2 1 1 1
node 3 1 1 3
node 4 1 0 2
gene  1 1 4 -0.20246504870141557 0 1.0 -0.20246504870141557 1
gene  2 2 4 0.3736669098469824 0 2.0 0.3736669098469824 1
gene  3 3 4 1.911639890158667 0 3.0 1.911639890158667 1
genomeend 77
/* Organism # 078 Fitness:  4,022 Error:  3,006                      */
genomestart  78
trait 1 0.1 0.0 0.0 0.0 0.0 0.0 0.0 0.0 
trait 2 0.2 0.0 0.0 0.0 0.0 0.0 0.0 0.0 
trait 3 0.3 0.0 0.0 0.0 0.0 0.0 0.0 0.0 
node 1 1 1 1
node 2 1 1 1
node 3 1 1 3
node 4 1 0 2
gene  1 1 4 3.4216807749757727 0 1.0 3.4216807749757727 1
gene  2 2 4 -2.284781290709143 0 2.0 -2.284781290709143 1
gene  3 3 4 -0.1873358838173108 0 3.0 -0.1873358838173108 1
genomeend 78
/* Organism # 079 Fitness:  3,762 Error:  2,940                      */
genomestart  79
trait 1 0.1 0.0 0.0 0.0 0.0 0.0 0.0 0.0 
trait 2 0.2 0.0 0.0 0.0 0.0 0.0 0.0 0.0 
trait 3 0.3 0.0 0.0 0.0 0.0 0.0 0.0 0.0 
node 1 1 1 1
node 2 1 1 1
node 3 1 1 3
node 4 1 0 2
gene  1 1 4 0.6086352839338275 0 1.0 0.6086352839338275 1
gene  2 2 4 0.6004213696532841 0 2.0 0.6004213696532841 1
gene  3 3 4 0.30763354128116327 0 3.0 0.30763354128116327 1
genomeend 79
/* Organism # 080 Fitness:  0,339 Error:  1,582                      */
genomestart  80
trait 1 0.1 0.0 0.0 0.0 0.0 0.0 0.0 0.0 
trait 2 0.2 0.0 0.0 0.0 0.0 0.0 0.0 0.0 
trait 3 0.3 0.0 0.0 0.0 0.0 0.0 0.0 0.0 
node 1 0 1 1
node 2 0 1 1
node 3 0 1 3
node 4 0 0 2
gene  1 1 4 -0.09304521576573144 0 1.0 -0.09304521576573144 1
gene  2 2 4 -0.1961053976911225 0 2.0 -0.1961053976911225 1
gene  3 3 4 1.627787366095123 0 3.0 1.627787366095123 1
genomeend 80
/* Organism # 081 Fitness:  0,000 Error:  1,006                      */
genomestart  81
trait 1 0.1 0.0 0.0 0.0 0.0 0.0 0.0 0.0 
trait 2 0.2 0.0 0.0 0.0 0.0 0.0 0.0 0.0 
trait 3 0.3 0.0 0.0 0.0 0.0 0.0 0.0 0.0 
node 1 0 1 1
node 2 0 1 1
node 3 0 1 3
node 4 0 0 2
gene  1 1 4 -1.062608750028224 0 1.0 -1.062608750028224 1
gene  2 2 4 -0.40761448336463385 0 2.0 -0.40761448336463385 1
gene  3 3 4 -0.8461170374084854 0 3.0 -0.8461170374084854 1
genomeend 81
/* Organism # 082 Fitness:  3,532 Error:  2,879                      */
genomestart  82
trait 1 0.1 0.0 0.0 0.0 0.0 0.0 0.0 0.0 
trait 2 0.2 0.0 0.0 0.0 0.0 0.0 0.0 0.0 
trait 3 0.3 0.0 0.0 0.0 0.0 0.0 0.0 0.0 
node 1 1 1 1
node 2 1 1 1
node 3 1 1 3
node 4 1 0 2
gene  1 1 4 0.40349434146488444 0 1.0 0.40349434146488444 1
gene  2 2 4 1.4689237781902227 0 2.0 1.4689237781902227 1
gene  3 3 4 2.46317673154862 0 3.0 2.46317673154862 1
genomeend 82
/* Organism # 083 Fitness:  3,431 Error:  2,852                      */
genomestart  83
trait 1 0.1 0.0 0.0 0.0 0.0 0.0 0.0 0.0 
trait 2 0.2 0.0 0.0 0.0 0.0 0.0 0.0 0.0 
trait 3 0.3 0.0 0.0 0.0 0.0 0.0 0.0 0.0 
node 1 1 1 1
node 2 1 1 1
node 3 1 1 3
node 4 1 0 2
gene  1 1 4 0.506432465183515 0 1.0 0.506432465183515 1
gene  2 2 4 0.14673619671544402 0 2.0 0.14673619671544402 1
gene  3 3 4 0.03194476621480935 0 3.0 0.03194476621480935 1
genomeend 83
/* Organism # 084 Fitness:  3,741 Error:  2,934                      */
genomestart  84
trait 1 0.1 0.0 0.0 0.0 0.0 0.0 0.0 0.0 
trait 2 0.2 0.0 0.0 0.0 0.0 0.0 0.0 0.0 
trait 3 0.3 0.0 0.0 0.0 0.0 0.0 0.0 0.0 
node 1 1 1 1
node 2 1 1 1
node 3 1 1 3
node 4 1 0 2
gene  1 1 4 0.9152218835129715 0 1.0 0.9152218835129715 1
gene  2 2 4 -0.3826916218083669 0 2.0 -0.3826916218083669 1
gene  3 3 4 0.3165565807547195 0 3.0 0.3165565807547195 1
genomeend 84
/* Organism # 085 Fitness:  0,003 Error:  1,058                      */
genomestart  85
trait 1 0.1 0.0 0.0 0.0 0.0 0.0 0.0 0.0 
trait 2 0.2 0.0 0.0 0.0 0.0 0.0 0.0 0.0 
trait 3 0.3 0.0 0.0 0.0 0.0 0.0 0.0 0.0 
node 1 1 1 1
node 2 1 1 1
node 3 1 1 3
node 4 1 0 2
gene  1 1 4 -1.2035868049940381 0 1.0 -1.2035868049940381 1
gene  2 2 4 0.6272717106353018 0 2.0 0.6272717106353018 1
gene  3 3 4 -2.1943284978102353 0 3.0 -2.1943284978102353 1
genomeend 85
/* Organism # 086 Fitness:  3,649 Error:  2,910                      */
genomestart  86
trait 1 0.1 0.0 0.0 0.0 0.0 0.0 0.0 0.0 
trait 2 0.2 0.0 0.0 0.0 0.0 0.0 0.0 0.0 
trait 3 0.3 0.0 0.0 0.0 0.0 0.0 0.0 0.0 
node 1 1 1 1
node 2 1 1 1
node 3 1 1 3
node 4 1 0 2
gene  1 1 4 0.768684449564089 0 1.0 0.768684449564089 1
gene  2 2 4 0.26119280015792345 0 2.0 0.26119280015792345 1
gene  3 3 4 -0.2913084260347182 0 3.0 -0.2913084260347182 1
genomeend 86
/* Organism # 087 Fitness:  0,977 Error:  1,989                      */
genomestart  87
trait 1 0.1 0.0 0.0 0.0 0.0 0.0 0.0 0.0 
trait 2 0.2 0.0 0.0 0.0 0.0 0.0 0.0 0.0 
trait 3 0.3 0.0 0.0 0.0 0.0 0.0 0.0 0.0 
node 1 1 1 1
node 2 1 1 1
node 3 1 1 3
node 4 1 0 2
gene  1 1 4 0.8613119640658632 0 1.0 0.8613119640658632 1
gene  2 2 4 -2.0759986741318217 0 2.0 -2.0759986741318217 1
gene  3 3 4 2.962924902005115 0 3.0 2.962924902005115 1
genomeend 87
/* Organism # 088 Fitness:  0,034 Error:  1,185                      */
genomestart  88
trait 1 0.1 0.0 0.0 0.0 0.0 0.0 0.0 0.0 
trait 2 0.2 0.0 0.0 0.0 0.0 0.0 0.0 0.0 
trait 3 0.3 0.0 0.0 0.0 0.0 0.0 0.0 0.0 
node 1 0 1 1
node 2 0 1 1
node 3 0 1 3
node 4 0 0 2
gene  1 1 4 -0.7800188834449532 0 1.0 -0.7800188834449532 1
gene  2 2 4 2.0586684486405824 0 2.0 2.0586684486405824 1
gene  3 3 4 -0.9500445892145832 0 3.0 -0.9500445892145832 1
genomeend 88
/* Organism # 089 Fitness:  3,885 Error:  2,971                      */
genomestart  89
trait 1 0.1 0.0 0.0 0.0 0.0 0.0 0.0 0.0 
trait 2 0.2 0.0 0.0 0.0 0.0 0.0 0.0 0.0 
trait 3 0.3 0.0 0.0 0.0 0.0 0.0 0.0 0.0 
node 1 0 1 1
node 2 0 1 1
node 3 0 1 3
node 4 0 0 2
gene  1 1 4 0.9650633213052832 0 1.0 0.9650633213052832 1
gene  2 2 4 -0.29578035362083666 0 2.0 -0.29578035362083666 1
gene  3 3 4 0.11935119466502986 0 3.0 0.11935119466502986 1
genomeend 89
/* Organism # 090 Fitness:  4,000 Error:  3,000                      */
genomestart  90
trait 1 0.1 0.0 0.0 0.0 0.0 0.0 0.0 0.0 
trait 2 0.2 0.0 0.0 0.0 0.0 0.0 0.0 0.0 
trait 3 0.3 0.0 0.0 0.0 0.0 0.0 0.0 0.0 
node 1 1 1 1
node 2 1 1 1
node 3 1 1 3
node 4 1 0 2
gene  1 1 4 3.0217021706871945 0 1.0 3.0217021706871945 1
gene  2 2 4 -1.0939437067772348 0 2.0 -1.0939437067772348 1
gene  3 3 4 2.1606732269591005 0 3.0 2.1606732269591005 1
genomeend 90
/* Organism # 091 Fitness:  3,489 Error:  2,868                      */
genomestart  91
trait 1 0.1 0.0 0.0 0.0 0.0 0.0 0.0 0.0 
trait 2 0.2 0.0 0.0 0.0 0.0 0.0 0.0 0.0 
trait 3 0.3 0.0 0.0 0.0 0.0 0.0 0.0 0.0 
node 1 0 1 1
node 2 0 1 1
node 3 0 1 3
node 4 0 0 2
gene  1 1 4 0.40558290165435884 0 1.0 0.40558290165435884 1
gene  2 2 4 1.4952211277283751 0 2.0 1.4952211277283751 1
gene  3 3 4 0.4814380745039338 0 3.0 0.4814380745039338 1
genomeend 91
/* Organism # 092 Fitness:  4,919 Error:  3,218                      */
genomestart  92
trait 1 0.1 0.0 0.0 0.0 0.0 0.0 0.0 0.0 
trait 2 0.2 0.0 0.0 0.0 0.0 0.0 0.0 0.0 
trait 3 0.3 0.0 0.0 0.0 0.0 0.0 0.0 0.0 
node 1 1 1 1
node 2 1 1 1
node 3 1 1 3
node 4 1 0 2
gene  1 1 4 0.8167892809234834 0 1.0 0.8167892809234834 1
gene  2 2 4 -0.4663143676295066 0 2.0 -0.4663143676295066 1
gene  3 3 4 -0.8428514950647016 0 3.0 -0.8428514950647016 1
genomeend 92
/* Organism # 093 Fitness:  0,026 Error:  1,160                      */
genomestart  93
trait 1 0.1 0.0 0.0 0.0 0.0 0.0 0.0 0.0 
trait 2 0.2 0.0 0.0 0.0 0.0 0.0 0.0 0.0 
trait 3 0.3 0.0 0.0 0.0 0.0 0.0 0.0 0.0 
node 1 1 1 1
node 2 1 1 1
node 3 1 1 3
node 4 1 0 2
gene  1 1 4 -1.047356178685171 0 1.0 -1.047356178685171 1
gene  2 2 4 0.9429766437385143 0 2.0 0.9429766437385143 1
gene  3 3 4 -0.14906044619543013 0 3.0 -0.14906044619543013 1
genomeend 93
/* Organism # 094 Fitness:  0,001 Error:  1,029                      */
genomestart  94
trait 1 0.1 0.0 0.0 0.0 0.0 0.0 0.0 0.0 
trait 2 0.2 0.0 0.0 0.0 0.0 0.0 0.0 0.0 
trait 3 0.3 0.0 0.0 0.0 0.0 0.0 0.0 0.0 
node 1 1 1 1
node 2 1 1 1
node 3 1 1 3
node 4 1 0 2
gene  1 1 4 -0.6311652089882204 0 1.0 -0.6311652089882204 1
gene  2 2 4 0.09408000814269979 0 2.0 0.09408000814269979 1
gene  3 3 4 0.3317057087218799 0 3.0 0.3317057087218799 1
genomeend 94
/* Organism # 095 Fitness:  4,487 Error:  3,118                      */
genomestart  95
trait 1 0.1 0.0 0.0 0.0 0.0 0.0 0.0 0.0 
trait 2 0.2 0.0 0.0 0.0 0.0 0.0 0.0 0.0 
trait 3 0.3 0.0 0.0 0.0 0.0 0.0 0.0 0.0 
node 1 1 1 1
node 2 1 1 1
node 3 1 1 3
node 4 1 0 2
gene  1 1 4 0.6451579108454939 0 1.0 0.6451579108454939 1
gene  2 2 4 -0.2637058235551957 0 2.0 -0.2637058235551957 1
gene  3 3 4 -0.3953711713684601 0 3.0 -0.3953711713684601 1
genomeend 95
/* Organism # 096 Fitness:  3,378 Error:  2,838                      */
genomestart  96
trait 1 0.1 0.0 0.0 0.0 0.0 0.0 0.0 0.0 
trait 2 0.2 0.0 0.0 0.0 0.0 0.0 0.0 0.0 
trait 3 0.3 0.0 0.0 0.0 0.0 0.0 0.0 0.0 
node 1 0 1 1
node 2 0 1 1
node 3 0 1 3
node 4 0 0 2
gene  1 1 4 0.43197181353996356 0 1.0 0.43197181353996356 1
gene  2 2 4 -1.4470031403265584 0 2.0 -1.4470031403265584 1
gene  3 3 4 0.3993739047803746 0 3.0 0.3993739047803746 1
genomeend 96
/* Organism # 097 Fitness:  0,003 Error:  1,050                      */
genomestart  97
trait 1 0.1 0.0 0.0 0.0 0.0 0.0 0.0 0.0 
trait 2 0.2 0.0 0.0 0.0 0.0 0.0 0.0 0.0 
trait 3 0.3 0.0 0.0 0.0 0.0 0.0 0.0 0.0 
node 1 1 1 1
node 2 1 1 1
node 3 1 1 3
node 4 1 0 2
gene  1 1 4 -1.8442139875756887 0 1.0 -1.8442139875756887 1
gene  2 2 4 -1.6196704962926105 0 2.0 -1.6196704962926105 1
gene  3 3 4 1.2469811826933603 0 3.0 1.2469811826933603 1
genomeend 97
/* Organism # 098 Fitness:  3,998 Error:  3,000                      */
genomestart  98
trait 1 0.1 0.0 0.0 0.0 0.0 0.0 0.0 0.0 
trait 2 0.2 0.0 0.0 0.0 0.0 0.0 0.0 0.0 
trait 3 0.3 0.0 0.0 0.0 0.0 0.0 0.0 0.0 
node 1 1 1 1
node 2 1 1 1
node 3 1 1 3
node 4 1 0 2
gene  1 1 4 1.5539865634263539 0 1.0 1.5539865634263539 1
gene  2 2 4 1.5928752048889345 0 2.0 1.5928752048889345 1
gene  3 3 4 1.5244590154300848 0 3.0 1.5244590154300848 1
genomeend 98
/* Organism # 099 Fitness:  7,631 Error:  3,762                      */
genomestart  99
trait 1 0.1 0.0 0.0 0.0 0.0 0.0 0.0 0.0 
trait 2 0.2 0.0 0.0 0.0 0.0 0.0 0.0 0.0 
trait 3 0.3 0.0 0.0 0.0 0.0 0.0 0.0 0.0 
node 1 1 1 1
node 2 1 1 1
node 3 1 1 3
node 4 1 0 2
gene  1 1 4 2.5928931112833804 0 1.0 2.5928931112833804 1
gene  2 2 4 -1.0784297388813648 0 2.0 -1.0784297388813648 1
gene  3 3 4 -2.3355530724617943 0 3.0 -2.3355530724617943 1
genomeend 99
/* Organism # 100 Fitness:  3,247 Error:  2,802                      */
genomestart  100
trait 1 0.1 0.0 0.0 0.0 0.0 0.0 0.0 0.0 
trait 2 0.2 0.0 0.0 0.0 0.0 0.0 0.0 0.0 
trait 3 0.3 0.4181607407041694 0.0 0.0 0.0 0.0 0.6452382824810781 0.0 
node 1 1 1 1
node 2 1 1 1
node 3 1 1 3
node 4 1 0 2
gene  1 1 4 0.9081068939228156 0 1.0 0.9081068939228156 1
gene  2 2 4 -0.613937033330802 0 2.0 -0.613937033330802 1
gene  3 3 4 0.8491385414985124 0 3.0 0.8491385414985124 1
genomeend 100
/* Organism # 101 Fitness:  3,873 Error:  2,968                      */
genomestart  101
trait 1 0.1 0.0 0.0 0.0 0.0 0.0 0.0 0.0 
trait 2 0.2 0.0 0.0 0.0 0.0 0.0 0.0 0.0 
trait 3 0.3 0.0 0.0 0.0 0.0 0.0 0.0 0.0 
node 1 1 1 1
node 2 1 1 1
node 3 1 1 3
node 4 1 0 2
gene  1 1 4 0.7056156701726433 0 1.0 0.7056156701726433 1
gene  2 2 4 0.7239256495375577 0 2.0 0.7239256495375577 1
gene  3 3 4 0.6992423721301448 0 3.0 0.6992423721301448 1
genomeend 101
/* Organism # 102 Fitness:  0,020 Error:  1,142                      */
genomestart  102
trait 1 0.1 0.0 0.0 0.0 0.0 0.0 0.0 0.0 
trait 2 0.2 0.0 0.0 0.0 0.0 0.0 0.0 0.0 
trait 3 0.3 0.0 0.0 0.0 0.0 0.0 0.0 0.0 
node 1 1 1 1
node 2 1 1 1
node 3 1 1 3
node 4 1 0 2
gene  1 1 4 -0.3860717183851988 0 1.0 -0.3860717183851988 1
gene  2 2 4 -0.5027268979026702 0 2.0 -0.5027268979026702 1
gene  3 3 4 -3.095853080633991 0 3.0 -3.095853080633991 1
genomeend 102
/* Organism # 103 Fitness:  5,130 Error:  3,265                      */
genomestart  103
trait 1 0.1 0.0 0.0 0.0 0.0 0.0 0.0 0.0 
trait 2 0.2 0.0 0.0 0.0 0.0 0.0 0.0 0.0 
trait 3 0.3 0.0 0.0 0.0 0.0 0.0 0.0 0.0 
node 1 1 1 1
node 2 1 1 1
node 3 1 1 3
node 4 1 0 2
gene  1 1 4 0.8755579176029774 0 1.0 0.8755579176029774 1
gene  2 2 4 -0.30889927430751196 0 2.0 -0.30889927430751196 1
gene  3 3 4 -0.8428514950647016 0 3.0 -0.8428514950647016 1
genomeend 103
/* Organism # 104 Fitness:  3,565 Error:  2,888                      */
genomestart  104
trait 1 0.1 0.0 0.0 0.0 0.0 0.0 0.0 0.0 
trait 2 0.2 0.0 0.0 0.0 0.0 0.0 0.0 0.0 
trait 3 0.3 0.0 0.0 0.0 0.0 0.0 0.0 0.0 
node 1 1 1 1
node 2 1 1 1
node 3 1 1 3
node 4 1 0 2
gene  1 1 4 1.0044372692246515 0 1.0 1.0044372692246515 1
gene  2 2 4 -0.5689435867467413 0 2.0 -0.5689435867467413 1
gene  3 3 4 1.3589920647282216 0 3.0 1.3589920647282216 1
genomeend 104
/* Organism # 105 Fitness:  3,987 Error:  2,997                      */
genomestart  105
trait 1 0.1 0.0 0.0 0.0 0.0 0.0 0.0 0.0 
trait 2 0.2 0.0 0.0 0.0 0.0 0.0 0.0 0.0 
trait 3 0.3 0.0 0.0 0.0 0.0 0.0 0.0 0.0 
node 1 1 1 1
node 2 1 1 1
node 3 1 1 3
node 4 1 0 2
gene  1 1 4 2.727126382513701 0 1.0 2.727126382513701 1
gene  2 2 4 -1.5660612400765244 0 2.0 -1.5660612400765244 1
gene  3 3 4 0.7083708598791276 0 3.0 0.7083708598791276 1
genomeend 105
/* Organism # 106 Fitness:  7,767 Error:  3,787                      */
genomestart  106
trait 1 0.1 0.0 0.0 0.0 0.0 0.0 0.0 0.0 
trait 2 0.2 0.0 0.0 0.0 0.0 0.0 0.0 0.0 
trait 3 0.3 0.0 0.0 0.0 0.0 0.0 0.0 0.0 
node 1 1 1 1
node 2 1 1 1
node 3 1 1 3
node 4 1 0 2
gene  1 1 4 2.1815028223284343 0 1.0 2.1815028223284343 1
gene  2 2 4 -1.851200486002218 0 2.0 -1.851200486002218 1
gene  3 3 4 -0.9435256304773174 0 3.0 -0.9435256304773174 1
genomeend 106
/* Organism # 107 Fitness:  3,920 Error:  2,980                      */
genomestart  107
trait 1 0.1 0.0 0.0 0.0 0.0 0.0 0.0 0.0 
trait 2 0.2 0.0 0.0 0.0 0.0 0.0 0.0 0.0 
trait 3 0.3 0.0 0.0 0.0 0.0 0.0 0.0 0.0 
node 1 1 1 1
node 2 1 1 1
node 3 1 1 3
node 4 1 0 2
gene  1 1 4 0.8992820917576937 0 1.0 0.8992820917576937 1
gene  2 2 4 0.0712906531538332 0 2.0 0.0712906531538332 1
gene  3 3 4 0.7807955118780886 0 3.0 0.7807955118780886 1
genomeend 107
/* Organism # 108 Fitness:  3,862 Error:  2,965                      */
genomestart  108
trait 1 0.1 0.0 0.0 0.0 0.0 0.0 0.0 0.0 
trait 2 0.2 0.0 0.0 0.0 0.0 0.0 0.0 0.0 
trait 3 0.3 0.0 0.0 0.0 0.0 0.0 0.0 0.0 
node 1 1 1 1
node 2 1 1 1
node 3 1 1 3
node 4 1 0 2
gene  1 1 4 0.8073298746325319 0 1.0 0.8073298746325319 1
gene  2 2 4 -0.3107416772155445 0 2.0 -0.3107416772155445 1
gene  3 3 4 -0.007302762775477145 0 3.0 -0.007302762775477145 1
genomeend 108
/* Organism # 109 Fitness:  4,056 Error:  3,014                      */
genomestart  109
trait 1 0.1 0.0 0.0 0.0 0.0 0.0 0.0 0.0 
trait 2 0.2 0.0 0.0 0.0 0.0 0.0 0.0 0.0 
trait 3 0.3 0.0 0.0 0.0 0.0 0.0 0.0 0.0 
node 1 1 1 1
node 2 1 1 1
node 3 1 1 3
node 4 1 0 2
gene  1 1 4 0.771972222209961 0 1.0 0.771972222209961 1
gene  2 2 4 -0.07574209049275865 0 2.0 -0.07574209049275865 1
gene  3 3 4 -0.49626470377355314 0 3.0 -0.49626470377355314 1
genomeend 109
/* Organism # 110 Fitness:  3,921 Error:  2,980                      */
genomestart  110
trait 1 0.1 0.0 0.0 0.0 0.0 0.0 0.0 0.0 
trait 2 0.2 0.0 0.0 0.0 0.0 0.0 0.0 0.0 
trait 3 0.3 0.0 0.0 0.0 0.0 0.0 0.0 0.0 
node 1 1 1 1
node 2 1 1 1
node 3 1 1 3
node 4 1 0 2
node 6 1 0 0
gene  1 1 4 0.9422551635778793 0 1.0 0.9422551635778793 0
gene  2 2 4 -0.1514841809855173 0 2.0 -0.1514841809855173 1
gene  3 3 4 0.0 0 3.0 0.0 1
gene  1 1 6 1.0 0 6.0 0.0 1
gene  1 6 4 0.9422551635778793 0 7.0 0.0 1
genomeend 110
/* Organism # 111 Fitness:  5,009 Error:  3,238                      */
genomestart  111
trait 1 0.1 0.0 0.0 0.0 0.0 0.0 0.0 0.0 
trait 2 0.2 0.0 0.0 0.0 0.0 0.0 0.0 0.0 
trait 3 0.3 0.0 0.0 0.0 0.0 0.0 0.0 0.0 
node 1 1 1 1
node 2 1 1 1
node 3 1 1 3
node 4 1 0 2
gene  1 1 4 0.8123311100450797 0 1.0 0.8123311100450797 1
gene  2 2 4 -0.2738985024014418 0 2.0 -0.2738985024014418 1
gene  3 3 4 -0.7169059794484699 0 3.0 -0.7169059794484699 1
genomeend 111
/* Organism # 112 Fitness:  0,917 Error:  1,958                      */
genomestart  112
trait 1 0.1 0.0 0.0 0.0 0.0 0.0 0.0 0.0 
trait 2 0.2 0.0 0.0 0.0 0.6906211509365336 0.0 0.0 0.0 
trait 3 0.3 0.0 0.0 0.0 0.0 0.0 0.0 0.0 
node 1 1 1 1
node 2 1 1 1
node 3 1 1 3
node 4 1 0 2
gene  1 1 4 -0.5991390226281523 0 1.0 -0.5991390226281523 1
gene  2 2 4 -1.3093253070274726 0 2.0 -1.3093253070274726 1
gene  3 3 4 1.1175375554813853 0 3.0 1.1175375554813853 1
genomeend 112
/* Organism # 113 Fitness:  3,926 Error:  2,981                      */
genomestart  113
trait 1 0.1 0.0 0.0 0.0 0.0 0.0 0.0 0.0 
trait 2 0.2 0.0 0.0 0.0 0.0 0.0 0.0 0.0 
trait 3 0.3 0.0 0.0 0.0 0.0 0.0 0.0 0.0 
node 1 1 1 1
node 2 1 1 1
node 3 1 1 3
node 4 1 0 2
gene  1 1 4 0.9290402816282914 0 1.0 0.9290402816282914 1
gene  2 2 4 0.04491429343315362 0 2.0 0.04491429343315362 1
gene  3 3 4 0.5284274033933278 0 3.0 0.5284274033933278 1
genomeend 113
/* Organism # 114 Fitness:  0,870 Error:  1,933                      */
genomestart  114
trait 1 0.1 0.0 0.0 0.0 0.0 0.0 0.0 0.0 
trait 2 0.2 0.0 0.0 0.0 0.0 0.0 0.0 0.0 
trait 3 0.3 0.0 0.0 0.0 0.0 0.0 0.0 0.0 
node 1 0 1 1
node 2 0 1 1
node 3 0 1 3
node 4 0 0 2
gene  1 1 4 -0.12559559454767666 0 1.0 -0.12559559454767666 1
gene  2 2 4 -0.6033280688028597 0 2.0 -0.6033280688028597 1
gene  3 3 4 0.6131844914180341 0 3.0 0.6131844914180341 1
genomeend 114
/* Organism # 115 Fitness:  3,837 Error:  2,959                      */
genomestart  115
trait 1 0.1 0.0 0.0 0.0 0.0 0.0 0.0 0.0 
trait 2 0.2 0.0 0.0 0.0 0.0 0.0 0.0 0.0 
trait 3 0.3 0.0 0.0 0.0 0.0 0.0 0.0 0.0 
node 1 1 1 1
node 2 1 1 1
node 3 1 1 3
node 4 1 0 2
gene  1 1 4 0.8886487938730256 0 1.0 0.8886487938730256 1
gene  2 2 4 -2.2827638688266316 0 2.0 -2.2827638688266316 1
gene  3 3 4 0.6833064106622534 0 3.0 0.6833064106622534 1
genomeend 115
/* Organism # 116 Fitness:  3,760 Error:  2,939                      */
genomestart  116
trait 1 0.1 0.0 0.0 0.0 0.0 0.0 0.0 0.0 
trait 2 0.2 0.0 0.0 0.0 0.0 0.0 0.0 0.0 
trait 3 0.3 0.0 0.0 0.0 0.0 0.0 0.0 0.0 
node 1 1 1 1
node 2 1 1 1
node 3 1 1 3
node 4 1 0 2
gene  1 1 4 1.9993161666826726 0 1.0 1.9993161666826726 1
gene  2 2 4 0.07496997494932411 0 2.0 0.07496997494932411 1
gene  3 3 4 -1.7659987129051722 0 3.0 -1.7659987129051722 1
genomeend 116
/* Organism # 117 Fitness:  6,142 Error:  3,478                      */
genomestart  117
trait 1 0.1 0.0 0.0 0.0 0.0 0.0 0.0 0.0 
trait 2 0.2 0.0 0.0 0.0 0.0 0.0 0.0 0.0 
trait 3 0.3 0.0 0.0 0.0 0.0 0.0 0.0 0.0 
node 1 1 1 1
node 2 1 1 1
node 3 1 1 3
node 4 1 0 2
gene  1 1 4 0.9859764970864918 0 1.0 0.9859764970864918 1
gene  2 2 4 -0.5556290110647402 0 2.0 -0.5556290110647402 1
gene  3 3 4 -0.6900943808199698 0 3.0 -0.6900943808199698 1
genomeend 117
/* Organism # 118 Fitness:  0,406 Error:  0,363                      */
genomestart  118
trait 1 0.1 0.0 0.0 0.0 0.0 0.0 0.0 0.0 
trait 2 0.2 0.0 0.0 0.0 0.0 0.0 0.0 0.0 
trait 3 0.3 0.0 0.0 0.0 0.0 0.0 0.0 0.0 
node 1 0 1 1
node 2 0 1 1
node 3 0 1 3
node 4 0 0 2
gene  1 1 4 -1.2645314212078473 0 1.0 -1.2645314212078473 1
gene  2 2 4 0.9723344659160588 0 2.0 0.9723344659160588 1
gene  3 3 4 0.8115588140137269 0 3.0 0.8115588140137269 1
genomeend 118
/* Organism # 119 Fitness:  3,877 Error:  2,969                      */
genomestart  119
trait 1 0.1 0.0 0.0 0.0 0.0 0.0 0.0 0.0 
trait 2 0.2 0.0 0.0 0.0 0.0 0.0 0.0 0.0 
trait 3 0.3 0.0 0.0 0.0 0.0 0.0 0.0 0.0 
node 1 1 1 1
node 2 1 1 1
node 3 1 1 3
node 4 1 0 2
gene  1 1 4 0.8445534107134585 0 1.0 0.8445534107134585 1
gene  2 2 4 -0.001390933675012862 0 2.0 -0.001390933675012862 1
gene  3 3 4 0.9737269590344496 0 3.0 0.9737269590344496 1
genomeend 119
/* Organism # 120 Fitness:  4,000 Error:  3,000                      */
genomestart  120
trait 1 0.1 0.0 0.0 0.0 0.0 0.0 0.0 0.0 
trait 2 0.2 0.0 0.0 0.0 0.0 0.0 0.0 0.0 
trait 3 0.3 0.0 0.0 0.0 0.0 0.0 0.0 0.0 
node 1 1 1 1
node 2 1 1 1
node 3 1 1 3
node 4 1 0 2
gene  1 1 4 2.544407670018274 0 1.0 2.544407670018274 1
gene  2 2 4 -0.4416611944045634 0 2.0 -0.4416611944045634 1
gene  3 3 4 2.0024649171079316 0 3.0 2.0024649171079316 1
genomeend 120
/* Organism # 121 Fitness:  3,997 Error:  2,999                      */
genomestart  121
trait 1 0.1 0.0 0.0 0.0 0.0 0.0 0.0 0.0 
trait 2 0.2 0.0 0.0 0.0 0.0 0.0 0.0 0.0 
trait 3 0.3 0.0 0.0 0.0 0.0 0.0 0.0 0.0 
node 1 0 1 1
node 2 0 1 1
node 3 0 1 3
node 4 0 0 2
gene  1 1 4 1.4791173399351383 0 1.0 1.4791173399351383 1
gene  2 2 4 0.6501048823690592 0 2.0 0.6501048823690592 1
gene  3 3 4 0.6042030724164816 0 3.0 0.6042030724164816 1
genomeend 121
/* Organism # 122 Fitness:  1,014 Error:  2,007                      */
genomestart  122
trait 1 0.1 0.0 0.0 0.0 0.0 0.0 0.0 0.0 
trait 2 0.2 0.0 0.0 0.0 0.0 0.0 0.0 0.0 
trait 3 0.3 0.0 0.0 0.0 0.0 0.0 0.0 0.0 
node 1 1 1 1
node 2 1 1 1
node 3 1 1 3
node 4 1 0 2
gene  1 1 4 1.4189357429603584 0 1.0 1.4189357429603584 1
gene  2 2 4 -2.584581378245855 0 2.0 -2.584581378245855 1
gene  3 3 4 -2.496603806556643 0 3.0 -2.496603806556643 1
genomeend 122
/* Organism # 123 Fitness:  1,279 Error:  2,131                      */
genomestart  123
trait 1 0.1 0.0 0.0 0.0 0.0 0.0 0.0 0.0 
trait 2 0.2 0.0 0.0 0.0 0.0 0.0 0.0 0.0 
trait 3 0.3 0.0 0.0 0.0 0.0 0.0 0.0 0.0 
node 1 1 1 1
node 2 1 1 1
node 3 1 1 3
node 4 1 0 2
gene  1 1 4 0.543911740176472 0 1.0 0.543911740176472 1
gene  2 2 4 -2.357493582457226 0 2.0 -2.357493582457226 1
gene  3 3 4 2.101362337370584 0 3.0 2.101362337370584 1
genomeend 123
/* Organism # 124 Fitness:  0,005 Error:  1,067                      */
genomestart  124
trait 1 0.1 0.0 0.0 0.0 0.0 0.0 0.0 0.0 
trait 2 0.2 0.0 0.0 0.0 0.0 0.0 0.0 0.0 
trait 3 0.3 0.0 0.0 0.0 0.0 0.0 0.0 0.0 
node 1 1 1 1
node 2 1 1 1
node 3 1 1 3
node 4 1 0 2
gene  1 1 4 -1.2357432549211222 0 1.0 -1.2357432549211222 1
gene  2 2 4 0.7230172780028578 0 2.0 0.7230172780028578 1
gene  3 3 4 -0.4308134443846909 0 3.0 -0.4308134443846909 1
genomeend 124
/* Organism # 125 Fitness:  3,748 Error:  2,936                      */
genomestart  125
trait 1 0.1 0.0 0.0 0.0 0.0 0.0 0.0 0.0 
trait 2 0.2 0.0 0.0 0.0 0.0 0.0 0.0 0.0 
trait 3 0.3 0.0 0.0 0.0 0.0 0.0 0.0 0.0 
node 1 1 1 1
node 2 1 1 1
node 3 1 1 3
node 4 1 0 2
gene  1 1 4 0.6382798131338212 0 1.0 0.6382798131338212 1
gene  2 2 4 0.40399104909452765 0 2.0 0.40399104909452765 1
gene  3 3 4 0.15588303317634522 0 3.0 0.15588303317634522 1
genomeend 125
/* Organism # 126 Fitness:  4,000 Error:  3,000                      */
genomestart  126
trait 1 0.1 0.0 0.0 0.0 0.0 0.0 0.0 0.0 
trait 2 0.2 0.0 0.0 0.0 0.0 0.0 0.0 0.0 
trait 3 0.3 0.0 0.0 0.0 0.0 0.0 0.0 0.0 
node 1 0 1 1
node 2 1 1 1
node 3 0 1 3
node 4 0 0 2
gene  1 1 4 2.3002691543463523 0 1.0 2.3002691543463523 1
gene  2 2 4 0.705259380791081 0 2.0 0.705259380791081 1
gene  3 3 4 0.8140753117355909 0 3.0 0.8140753117355909 1
genomeend 126
/* Organism # 127 Fitness:  2,343 Error:  2,531                      */
genomestart  127
trait 1 0.1 0.0 0.0 0.0 0.0 0.0 0.0 0.0 
trait 2 0.2 0.0 0.0 0.0 0.0 0.0 0.0 0.0 
trait 3 0.3 0.0 0.0 0.0 0.0 0.0 0.0 0.0 
node 1 1 1 1
node 2 1 1 1
node 3 1 1 3
node 4 1 0 2
gene  1 1 4 0.05841000232143312 0 1.0 0.05841000232143312 1
gene  2 2 4 2.1747696085588704 0 2.0 2.1747696085588704 1
gene  3 3 4 0.5835382515925867 0 3.0 0.5835382515925867 1
genomeend 127
/* Organism # 128 Fitness:  3,952 Error:  2,988                      */
genomestart  128
trait 1 0.1 0.0 0.0 0.0 0.0 0.0 0.0 0.0 
trait 2 0.2 0.0 0.0 0.0 0.0 0.0 0.0 0.0 
trait 3 0.3 0.0 0.0 0.0 0.0 0.0 0.0 0.0 
node 1 1 1 1
node 2 1 1 1
node 3 1 1 3
node 4 1 0 2
gene  1 1 4 1.3941186775955563 0 1.0 1.3941186775955563 1
gene  2 2 4 -0.5064460007516495 0 2.0 -0.5064460007516495 1
gene  3 3 4 -2.6841317020384343 0 3.0 -2.6841317020384343 1
genomeend 128
/* Organism # 129 Fitness:  0,000 Error:  1,000                      */
genomestart  129
trait 1 0.1 0.0 0.0 0.0 0.0 0.0 0.0 0.0 
trait 2 0.2 0.0 0.0 0.0 0.0 0.0 0.0 0.0 
trait 3 0.3 0.0 0.0 0.0 0.0 0.0 0.0 0.0 
node 1 1 1 1
node 2 1 1 1
node 3 1 1 3
node 4 1 0 2
gene  1 1 4 -2.2930062899359998 0 1.0 -2.2930062899359998 1
gene  2 2 4 -0.3537629222188149 0 2.0 -0.3537629222188149 1
gene  3 3 4 -0.5899745098580738 0 3.0 -0.5899745098580738 1
genomeend 129
/* Organism # 130 Fitness:  1,615 Error:  2,271                      */
genomestart  130
trait 1 0.1 0.0 0.0 0.0 0.0 0.0 0.0 0.0 
trait 2 0.2 0.0 0.0 0.0 0.0 0.0 0.0 0.0 
trait 3 0.3 0.0 0.0 0.0 0.0 0.0 0.0 0.0 
node 1 0 1 1
node 2 0 1 1
node 3 0 1 3
node 4 0 0 2
gene  1 1 4 0.8780272152535696 0 1.0 0.8780272152535696 1
gene  2 2 4 -1.144809415966688 0 2.0 -1.144809415966688 1
gene  3 3 4 0.7851066667236768 0 3.0 0.7851066667236768 1
genomeend 130
/* Organism # 131 Fitness:  3,859 Error:  2,964                      */
genomestart  131
trait 1 0.1 0.0 0.0 0.0 0.0 0.0 0.0 0.0 
trait 2 0.2 0.0 0.0 0.0 0.0 0.0 0.0 0.0 
trait 3 0.3 0.0 0.0 0.0 0.0 0.0 0.0 0.0 
node 1 0 1 1
node 2 0 1 1
node 3 0 1 3
node 4 0 0 2
gene  1 1 4 2.224549019179612 0 1.0 2.224549019179612 1
gene  2 2 4 2.904580547845202 0 2.0 2.904580547845202 1
gene  3 3 4 -1.5545555255378511 0 3.0 -1.5545555255378511 1
genomeend 131
/* Organism # 132 Fitness:  2,001 Error:  2,414                      */
genomestart  132
trait 1 0.1 0.0 0.0 0.0 0.0 0.0 0.0 0.0 
trait 2 0.2 0.0 0.0 0.0 0.0 0.0 0.0 0.0 
trait 3 0.3 0.0 0.0 0.0 0.0 0.0 0.0 0.0 
node 1 1 1 1
node 2 1 1 1
node 3 1 1 3
node 4 1 0 2
gene  1 1 4 0.005806427945066472 0 1.0 0.005806427945066472 1
gene  2 2 4 0.6795260745607996 0 2.0 0.6795260745607996 1
gene  3 3 4 0.5461372492348071 0 3.0 0.5461372492348071 1
genomeend 132
/* Organism # 133 Fitness:  1,638 Error:  2,280                      */
genomestart  133
trait 1 0.1 0.0 0.0 0.0 0.0 0.0 0.0 0.0 
trait 2 0.2 0.0 0.0 0.0 0.0 0.0 0.0 0.0 
trait 3 0.3 0.0 0.0 0.0 0.0 0.0 0.0 0.0 
node 1 0 1 1
node 2 0 1 1
node 3 0 1 3
node 4 0 0 2
gene  1 1 4 0.808679330608311 0 1.0 0.808679330608311 1
gene  2 2 4 -1.739622870406957 0 2.0 -1.739622870406957 1
gene  3 3 4 -0.9925294075471063 0 3.0 -0.9925294075471063 1
genomeend 133
/* Organism # 134 Fitness:  1,362 Error:  2,167                      */
genomestart  134
trait 1 0.1 0.0 0.0 0.0 0.0 0.0 0.0 0.0 
trait 2 0.2 0.0 0.0 0.0 0.0 0.0 0.0 0.0 
trait 3 0.3 0.0 0.0 0.0 0.0 0.0 0.0 0.0 
node 1 1 1 1
node 2 1 1 1
node 3 1 1 3
node 4 1 0 2
gene  1 1 4 1.6479616039555758 0 1.0 1.6479616039555758 1
gene  2 2 4 -2.0243344324078754 0 2.0 -2.0243344324078754 1
gene  3 3 4 1.0686694651864703 0 3.0 1.0686694651864703 1
genomeend 134
/* Organism # 135 Fitness:  4,800 Error:  3,191                      */
genomestart  135
trait 1 0.1 0.0 0.0 0.0 0.0 0.0 0.0 0.0 
trait 2 0.2 0.0 0.0 0.0 0.0 0.0 0.0 0.0 
trait 3 0.3 0.0 0.0 0.0 0.0 0.0 0.0 0.0 
node 1 1 1 1
node 2 1 1 1
node 3 1 1 3
node 4 1 0 2
gene  1 1 4 0.8483095024800409 0 1.0 0.8483095024800409 1
gene  2 2 4 -0.613405290874879 0 2.0 -0.613405290874879 1
gene  3 3 4 -0.22679834361102946 0 3.0 -0.22679834361102946 1
genomeend 135
/* Organism # 136 Fitness:  3,912 Error:  2,978                      */
genomestart  136
trait 1 0.1 0.0 0.0 0.0 0.0 0.0 0.0 0.0 
trait 2 0.2 0.0 0.0 0.0 0.0 0.0 0.0 0.0 
trait 3 0.3 0.0 0.0 0.0 0.0 0.0 0.0 0.0 
node 1 0 1 1
node 2 0 1 1
node 3 0 1 3
node 4 0 0 2
gene  1 1 4 1.6082578632187987 0 1.0 1.6082578632187987 1
gene  2 2 4 0.5418657867218442 0 2.0 0.5418657867218442 1
gene  3 3 4 -0.8505491085352862 0 3.0 -0.8505491085352862 1
genomeend 136
/* Organism # 137 Fitness:  0,102 Error:  1,319                      */
genomestart  137
trait 1 0.1 0.0 0.0 0.0 0.0 0.0 0.0 0.0 
trait 2 0.2 0.0 0.0 0.0 0.0 0.0 0.0 0.0 
trait 3 0.3 0.0 0.0 0.0 0.0 0.0 0.0 0.0 
node 1 0 1 1
node 2 2 1 1
node 3 0 1 3
node 4 0 0 2
gene  1 1 4 -0.156869071091431 0 1.0 -0.156869071091431 1
gene  2 2 4 -1.5221408947514703 0 2.0 -1.5221408947514703 1
gene  3 3 4 -1.0520653354128278 0 3.0 -1.0520653354128278 1
genomeend 137
/* Organism # 138 Fitness:  3,793 Error:  2,948                      */
genomestart  138
trait 1 0.1 0.0 0.0 0.0 0.0 0.0 0.0 0.0 
trait 2 0.2 0.0 0.0 0.0 0.0 0.0 0.0 0.0 
trait 3 0.3 0.0 0.0 0.0 0.0 0.0 0.0 0.0 
node 1 1 1 1
node 2 1 1 1
node 3 1 1 3
node 4 1 0 2
gene  1 1 4 0.7034425568097754 0 1.0 0.7034425568097754 1
gene  2 2 4 0.08268898577520484 0 2.0 0.08268898577520484 1
gene  3 3 4 0.3669000089500421 0 3.0 0.3669000089500421 1
genomeend 138
/* Organism # 139 Fitness:  4,363 Error:  3,089                      */
genomestart  139
trait 1 0.1 0.0 0.0 0.0 0.0 0.0 0.0 0.0 
trait 2 0.2 0.0 0.0 0.0 0.0 0.0 0.0 0.0 
trait 3 0.3 0.0 0.0 0.0 0.0 0.0 0.0 0.0 
node 1 1 1 1
node 2 1 1 1
node 3 1 1 3
node 4 1 0 2
gene  1 1 4 0.6999184013844035 0 1.0 0.6999184013844035 1
gene  2 2 4 -0.8187366303371966 0 2.0 -0.8187366303371966 1
gene  3 3 4 -0.33030658444323713 0 3.0 -0.33030658444323713 1
genomeend 139
/* Organism # 140 Fitness:  4,830 Error:  3,198                      */
genomestart  140
trait 1 0.1 0.0 0.0 0.0 0.0 0.0 0.0 0.0 
trait 2 0.2 0.0 0.0 0.0 0.0 0.0 0.0 0.0 
trait 3 0.3 0.0 0.0 0.0 0.0 0.0 0.0 0.0 
node 1 1 1 1
node 2 1 1 1
node 3 1 1 3
node 4 1 0 2
gene  1 1 4 0.8413222418827484 0 1.0 0.8413222418827484 1
gene  2 2 4 -0.5825548737784452 0 2.0 -0.5825548737784452 1
gene  3 3 4 -0.855899448875851 0 3.0 -0.855899448875851 1
genomeend 140
/* Organism # 141 Fitness:  3,388 Error:  2,841                      */
genomestart  141
trait 1 0.1 0.0 0.0 0.0 0.0 0.0 0.0 0.0 
trait 2 0.2 0.0 0.0 0.0 0.0 0.0 0.0 0.0 
trait 3 0.3 0.0 0.0 0.0 0.0 0.0 0.0 0.0 
node 1 1 1 1
node 2 1 1 1
node 3 1 1 3
node 4 1 0 2
gene  1 1 4 0.5369093414672068 0 1.0 0.5369093414672068 1
gene  2 2 4 0.034757868975561546 0 2.0 0.034757868975561546 1
gene  3 3 4 -0.7169059794484699 0 3.0 -0.7169059794484699 1
genomeend 141
/* Organism # 142 Fitness:  0,731 Error:  0,145                      */
/*  $  This organism is WINNER with genome_id  142 Species # 001 $   */
genomestart  142
trait 1 0.1 0.0 0.0 0.0 0.0 0.0 0.0 0.0 
trait 2 0.2 0.0 0.0 0.0 0.0 0.0 0.0 0.0 
trait 3 0.3 0.0 0.0 0.0 0.0 0.0 0.0 0.0 
node 1 1 1 1
node 2 1 1 1
node 3 1 1 3
node 4 1 0 2
gene  1 1 4 -1.8353133646146138 0 1.0 -1.8353133646146138 1
gene  2 2 4 1.2163390090601174 0 2.0 1.2163390090601174 1
gene  3 3 4 1.2946360735409501 0 3.0 1.2946360735409501 1
genomeend 142
/* Organism # 143 Fitness:  5,436 Error:  3,331                      */
genomestart  143
trait 1 0.1 0.0 0.0 0.0 0.0 0.0 0.0 0.0 
trait 2 0.2 0.0 0.0 0.0 0.0 0.0 0.0 0.0 
trait 3 0.3 0.0 0.0 0.0 0.0 0.0 0.0 0.0 
node 1 1 1 1
node 2 1 1 1
node 3 1 1 3
node 4 1 0 2
gene  1 1 4 2.2939029299735028 0 1.0 2.2939029299735028 1
gene  2 2 4 -1.4153752379335809 0 2.0 -1.4153752379335809 1
gene  3 3 4 -2.424113703816301 0 3.0 -2.424113703816301 1
genomeend 143
/* Organism # 144 Fitness:  0,000 Error:  1,012                      */
genomestart  144
trait 1 0.1 0.0 0.0 0.0 0.0 0.0 0.0 0.0 
trait 2 0.2 0.0 0.0 0.0 0.0 0.0 0.0 0.0 
trait 3 0.3 0.0 0.0 0.0 0.0 0.0 0.0 0.0 
node 1 1 1 1
node 2 1 1 1
node 3 1 1 3
node 4 1 0 2
gene  1 1 4 -1.3878347700667992 0 1.0 -1.3878347700667992 1
gene  2 2 4 -1.4580502283276755 0 2.0 -1.4580502283276755 1
gene  3 3 4 0.47289842016805 0 3.0 0.47289842016805 1
genomeend 144
/* Organism # 145 Fitness:  3,431 Error:  2,852                      */
genomestart  145
trait 1 0.1 0.0 0.0 0.0 0.0 0.0 0.0 0.0 
trait 2 0.2 0.0 0.0 0.0 0.0 0.0 0.0 0.0 
trait 3 0.3 0.0 0.0 0.0 0.0 0.0 0.0 0.0 
node 1 1 1 1
node 2 1 1 1
node 3 1 1 3
node 4 1 0 2
gene  1 1 4 1.0595875056684287 0 1.0 1.0595875056684287 1
gene  2 2 4 2.1702692696886094 0 2.0 2.1702692696886094 1
gene  3 3 4 -0.694807610734983 0 3.0 -0.694807610734983 1
genomeend 145
/* Organism # 146 Fitness:  0,000 Error:  1,000                      */
genomestart  146
trait 1 0.1 0.0 0.0 0.0 0.0 0.0 0.0 0.0 
trait 2 0.2 0.0 0.0 0.0 0.0 0.0 0.0 0.0 
trait 3 0.3 0.0 0.0 0.0 0.0 0.0 0.0 0.0 
node 1 0 1 1
node 2 0 1 1
node 3 0 1 3
node 4 0 0 2
gene  1 1 4 -2.111671316787815 0 1.0 -2.111671316787815 1
gene  2 2 4 0.18935545453810354 0 2.0 0.18935545453810354 1
gene  3 3 4 -1.7184637048638534 0 3.0 -1.7184637048638534 1
genomeend 146
/* Organism # 147 Fitness:  0,000 Error:  1,001                      */
genomestart  147
trait 1 0.1 0.0 0.0 0.0 0.0 0.0 0.0 0.0 
trait 2 0.2 0.0 0.0 0.0 0.0 0.0 0.0 0.0 
trait 3 0.3 0.0 0.0 0.0 0.0 0.0 0.0 0.0 
node 1 1 1 1
node 2 1 1 1
node 3 1 1 3
node 4 1 0 2
gene  1 1 4 -1.4524303358010204 0 1.0 -1.4524303358010204 1
gene  2 2 4 -3.00099672579342 0 2.0 -3.00099672579342 1
gene  3 3 4 -0.34703646963232626 0 3.0 -0.34703646963232626 1
genomeend 147
/* Organism # 148 Fitness:  1,510 Error:  2,229                      */
genomestart  148
trait 1 0.1 0.0 0.0 0.0 0.0 0.0 0.0 0.0 
trait 2 0.2 0.0 0.0 0.0 0.0 0.0 0.0 0.0 
trait 3 0.3 0.0 0.0 0.0 0.0 0.0 0.0 0.0 
node 1 1 1 1
node 2 1 1 1
node 3 1 1 3
node 4 1 0 2
gene  1 1 4 1.1404705186513624 0 1.0 1.1404705186513624 1
gene  2 2 4 -1.6870604373617168 0 2.0 -1.6870604373617168 1
gene  3 3 4 0.8700906348190294 0 3.0 0.8700906348190294 1
genomeend 148
/* Organism # 149 Fitness:  0,831 Error:  1,912                      */
genomestart  149
trait 1 0.1 0.0 0.0 0.0 0.0 0.0 0.0 0.0 
trait 2 0.2 0.0 0.0 0.0 0.0 0.0 0.0 0.0 
trait 3 0.3 0.0 0.0 0.0 0.0 0.0 0.0 0.0 
node 1 0 1 1
node 2 0 1 1
node 3 0 1 3
node 4 3 0 2
gene  1 1 4 -2.416753819641917 0 1.0 -2.416753819641917 1
gene  2 2 4 2.929502821956193 0 2.0 2.929502821956193 1
gene  3 3 4 -1.37486055647341 0 3.0 -1.37486055647341 1
genomeend 149
/* Organism # 150 Fitness:  3,701 Error:  2,924                      */
genomestart  150
trait 1 0.1 0.0 0.0 0.0 0.0 0.0 0.0 0.0 
trait 2 0.2 0.0 0.0 0.0 0.0 0.0 0.0 0.0 
trait 3 0.3 0.0 0.0 0.0 0.0 0.0 0.0 0.0 
node 1 1 1 1
node 2 1 1 1
node 3 1 1 3
node 4 1 0 2
gene  1 1 4 0.7568304598477571 0 1.0 0.7568304598477571 1
gene  2 2 4 -0.3229192892333832 0 2.0 -0.3229192892333832 1
gene  3 3 4 0.09923476730441788 0 3.0 0.09923476730441788 1
genomeend 150
/* Organism # 151 Fitness:  3,991 Error:  2,998                      */
genomestart  151
trait 1 0.1 0.0 0.0 0.0 0.0 0.0 0.0 0.0 
trait 2 0.2 0.0 0.0 0.0 0.0 0.0 0.0 0.0 
trait 3 0.3 0.0 0.0 0.0 0.0 0.0 0.0 0.0 
node 1 1 1 1
node 2 1 1 1
node 3 1 1 3
node 4 1 0 2
gene  1 1 4 1.2407804463117909 0 1.0 1.2407804463117909 1
gene  2 2 4 2.0956466074682796 0 2.0 2.0956466074682796 1
gene  3 3 4 1.8729685928949116 0 3.0 1.8729685928949116 1
genomeend 151
/* Organism # 152 Fitness:  0,010 Error:  0,898                      */
genomestart  152
trait 1 0.1 0.0 0.0 0.0 0.0 0.0 0.0 0.0 
trait 2 0.2 0.0 0.0 0.0 0.0 0.0 0.0 0.0 
trait 3 0.3 0.0 0.0 0.0 0.0 0.0 0.0 0.0 
node 1 0 1 1
node 2 0 1 1
node 3 0 1 3
node 4 0 0 2
gene  1 1 4 -1.7638237057955788 0 1.0 -1.7638237057955788 1
gene  2 2 4 0.6056415378466 0 2.0 0.6056415378466 1
gene  3 3 4 2.184273814419298 0 3.0 2.184273814419298 1
genomeend 152
/* Organism # 153 Fitness:  3,867 Error:  2,967                      */
genomestart  153
trait 1 0.1 0.0 0.0 0.0 0.0 0.0 0.0 0.0 
trait 2 0.2 0.0 0.0 0.0 0.0 0.0 0.0 0.0 
trait 3 0.3 0.0 0.0 0.0 0.0 0.0 0.0 0.0 
node 1 1 1 1
node 2 1 1 1
node 3 1 1 3
node 4 1 0 2
gene  1 1 4 0.5091884270208793 0 1.0 0.5091884270208793 1
gene  2 2 4 -0.16745915419881396 0 2.0 -0.16745915419881396 1
gene  3 3 4 -0.48850388779080833 0 3.0 -0.48850388779080833 1
genomeend 153
/* Organism # 154 Fitness:  1,476 Error:  2,215                      */
genomestart  154
trait 1 0.1 0.0 0.0 0.0 0.0 0.0 0.0 0.0 
trait 2 0.2 0.0 0.0 0.0 0.0 0.0 0.0 0.0 
trait 3 0.3 0.0 0.0 0.0 0.0 0.0 0.0 0.0 
node 1 1 1 1
node 2 1 1 1
node 3 1 1 3
node 4 1 0 2
gene  1 1 4 -0.22355616132074607 0 1.0 -0.22355616132074607 1
gene  2 2 4 -2.848121876903882 0 2.0 -2.848121876903882 1
gene  3 3 4 0.900090700220058 0 3.0 0.900090700220058 1
genomeend 154
/* Organism # 155 Fitness:  0,023 Error:  1,152                      */
genomestart  155
trait 1 0.1 0.0 0.0 0.0 0.0 0.0 0.0 0.0 
trait 2 0.2 0.0 0.0 0.0 0.0 0.0 0.0 0.0 
trait 3 0.3 0.0 0.0 0.0 0.0 0.0 0.0 0.0 
node 1 0 1 1
node 2 0 1 1
node 3 0 1 3
node 4 0 0 2
gene  1 1 4 -0.5764787986714591 0 1.0 -0.5764787986714591 1
gene  2 2 4 0.12644585672179548 0 2.0 0.12644585672179548 1
gene  3 3 4 -0.7260631596170638 0 3.0 -0.7260631596170638 1
genomeend 155
/* Organism # 156 Fitness:  3,910 Error:  2,977                      */
genomestart  156
trait 1 0.1 0.0 0.0 0.0 0.0 0.0 0.0 0.0 
trait 2 0.2 0.0 0.0 0.0 0.0 0.0 0.0 0.0 
trait 3 0.3 0.0 0.0 0.0 0.0 0.0 0.0 0.0 
node 1 1 1 1
node 2 1 1 1
node 3 1 1 3
node 4 1 0 2
node 5 1 0 0
gene  1 1 4 0.6683865268169445 0 1.0 0.6683865268169445 1
gene  2 2 4 0.40399104909452765 0 2.0 0.40399104909452765 0
gene  3 3 4 0.15588303317634522 0 3.0 0.15588303317634522 1
gene  2 2 5 1.0 0 4.0 0.0 1
gene  2 5 4 0.40399104909452765 0 5.0 0.0 1
genomeend 156
/* Organism # 157 Fitness:  3,788 Error:  2,946                      */
genomestart  157
trait 1 0.1 0.0 0.0 0.0 0.0 0.0 0.0 0.0 
trait 2 0.2 0.0 0.0 0.0 0.0 0.0 0.0 0.0 
trait 3 0.3 0.0 0.0 0.0 0.0 0.0 0.0 0.0 
node 1 1 1 1
node 2 1 1 1
node 3 1 1 3
node 4 1 0 2
gene  1 1 4 3.2175325586861234 0 1.0 3.2175325586861234 1
gene  2 2 4 -2.6400119419331585 0 2.0 -2.6400119419331585 1
gene  3 3 4 0.7837760939940448 0 3.0 0.7837760939940448 1
genomeend 157
/* Organism # 158 Fitness:  3,698 Error:  2,923                      */
genomestart  158
trait 1 0.1 0.0 0.0 0.0 0.0 0.0 0.0 0.0 
trait 2 0.2 0.0 0.0 0.0 0.0 0.0 0.0 0.0 
trait 3 0.3 0.0 0.0 0.0 0.0 0.0 0.0 0.0 
node 1 1 1 1
node 2 1 1 1
node 3 1 1 3
node 4 1 0 2
gene  1 1 4 0.6495386855038896 0 1.0 0.6495386855038896 1
gene  2 2 4 0.016683467650274342 0 2.0 0.016683467650274342 1
gene  3 3 4 0.12841048979298986 0 3.0 0.12841048979298986 1
genomeend 158
/* Organism # 159 Fitness:  3,960 Error:  2,990                      */
genomestart  159
trait 1 0.1 0.0 0.0 0.0 0.0 0.0 0.0 0.0 
trait 2 0.2 0.0 0.0 0.0 0.0 0.0 0.0 0.0 
trait 3 0.3 0.0 0.0 0.0 0.0 0.0 0.0 0.0 
node 1 1 1 1
node 2 1 1 1
node 3 1 1 3
node 4 1 0 2
gene  1 1 4 1.4824218047232889 0 1.0 1.4824218047232889 1
gene  2 2 4 -0.5330111462295721 0 2.0 -0.5330111462295721 1
gene  3 3 4 2.1855804610401086 0 3.0 2.1855804610401086 1
genomeend 159
/* Organism # 160 Fitness:  3,949 Error:  2,987                      */
genomestart  160
trait 1 0.1 0.0 0.0 0.0 0.0 0.0 0.0 0.0 
trait 2 0.2 0.0 0.0 0.0 0.0 0.0 0.0 0.0 
trait 3 0.3 0.0 0.0 0.0 0.0 0.0 0.0 0.0 
node 1 0 1 1
node 2 0 1 1
node 3 0 1 3
node 4 0 0 2
node 5 1 0 0
gene  1 1 4 0.566068182036413 0 1.0 0.566068182036413 1
gene  2 2 4 0.9173262401664961 0 2.0 0.9173262401664961 0
gene  3 3 4 0.0 0 3.0 0.0 1
gene  2 2 5 1.0 0 4.0 0.0 1
gene  2 5 4 0.9173262401664961 0 5.0 0.0 1
genomeend 160
/* Organism # 161 Fitness:  3,112 Error:  2,764                      */
genomestart  161
trait 1 0.6947322937678999 0.0 0.0 0.0 0.7921517201222018 0.0 0.0 0.0 
trait 2 0.2 0.0 0.0 0.0 0.0 0.0 0.0 0.0 
trait 3 0.3 0.0 0.0 0.0 0.0 0.0 0.0 0.0 
node 1 1 1 1
node 2 1 1 1
node 3 3 1 3
node 4 1 0 2
gene  1 1 4 0.8525051636358505 0 1.0 0.8525051636358505 1
gene  2 2 4 -0.5982459535546236 0 2.0 -0.5982459535546236 1
gene  3 3 4 -2.2087519880125397 0 3.0 -2.2087519880125397 1
genomeend 161
/* Organism # 162 Fitness:  0,002 Error:  1,046                      */
genomestart  162
trait 1 0.1 0.0 0.0 0.0 0.0 0.0 0.0 0.0 
trait 2 0.2 0.0 0.0 0.0 0.0 0.0 0.0 0.0 
trait 3 0.3 0.0 0.0 0.0 0.0 0.0 0.0 0.0 
node 1 0 1 1
node 2 3 1 1
node 3 0 1 3
node 4 0 0 2
gene  1 1 4 -0.7408981235291873 0 1.0 -0.7408981235291873 1
gene  2 2 4 -0.2021793007126219 0 2.0 -0.2021793007126219 1
gene  3 3 4 1.754597511972293 0 3.0 1.754597511972293 1
genomeend 162
/* Organism # 163 Fitness:  4,128 Error:  3,032                      */
genomestart  163
trait 1 0.1 0.0 0.0 0.0 0.0 0.0 0.0 0.0 
trait 2 0.2 0.0 0.0 0.0 0.0 0.0 0.0 0.0 
trait 3 0.3 0.0 0.0 0.0 0.0 0.0 0.0 0.0 
node 1 0 1 1
node 2 0 1 1
node 3 0 1 3
node 4 0 0 2
node 6 1 0 0
gene  1 1 4 0.6722222827452159 0 1.0 0.6722222827452159 0
gene  2 2 4 -0.19415537116610238 0 2.0 -0.19415537116610238 1
gene  3 3 4 -0.2964369536486936 0 3.0 -0.2964369536486936 1
gene  1 1 6 1.0 0 6.0 0.0 1
gene  1 6 4 0.6722222827452159 0 7.0 0.0 1
genomeend 163
/* Organism # 164 Fitness:  1,845 Error:  2,358                      */
genomestart  164
trait 1 0.1 0.0 0.0 0.0 0.0 0.0 0.0 0.0 
trait 2 0.2 0.0 0.0 0.0 0.0 0.0 0.0 0.0 
trait 3 0.3 0.4958269715470097 0.0 0.0 0.7531667419017164 0.0 0.0 0.0 
node 1 0 1 1
node 2 0 1 1
node 3 0 1 3
node 4 1 0 2
gene  1 1 4 0.5447208442571034 0 1.0 0.5447208442571034 1
gene  2 2 4 1.1238264981531612 0 2.0 1.1238264981531612 1
gene  3 3 4 -0.6127879669725823 0 3.0 -0.6127879669725823 1
genomeend 164
/* Organism # 165 Fitness:  4,919 Error:  3,218                      */
genomestart  165
trait 1 0.1 0.0 0.0 0.0 0.0 0.0 0.0 0.0 
trait 2 0.2 0.0 0.0 0.0 0.0 0.0 0.0 0.0 
trait 3 0.3 0.0 0.0 0.0 0.0 0.0 0.0 0.0 
node 1 0 1 1
node 2 0 1 1
node 3 0 1 3
node 4 0 0 2
gene  1 1 4 0.8167892809234834 0 1.0 0.8167892809234834 1
gene  2 2 4 -0.4663143676295066 0 2.0 -0.4663143676295066 1
gene  3 3 4 -0.8428514950647016 0 3.0 -0.8428514950647016 1
genomeend 165
/* Organism # 166 Fitness:  1,167 Error:  2,080                      */
genomestart  166
trait 1 0.1 0.0 0.0 0.0 0.0 0.0 0.0 0.0 
trait 2 0.2 0.0 0.0 0.0 0.0 0.0 0.0 0.0 
trait 3 0.3 0.0 0.0 0.0 0.0 0.0 0.0 0.0 
node 1 1 1 1
node 2 1 1 1
node 3 1 1 3
node 4 1 0 2
gene  1 1 4 -0.460815673903167 0 1.0 -0.460815673903167 1
gene  2 2 4 -2.233876406039271 0 2.0 -2.233876406039271 1
gene  1 3 4 1.3514939688074983 0 3.0 1.3514939688074983 1
genomeend 166
/* Organism # 167 Fitness:  1,407 Error:  2,186                      */
genomestart  167
trait 1 0.1 0.0 0.0 0.0 0.0 0.0 0.0 0.0 
trait 2 0.2 0.0 0.0 0.0 0.0 0.0 0.0 0.0 
trait 3 0.3 0.0 0.0 0.0 0.0 0.0 0.0 0.0 
node 1 3 1 1
node 2 1 1 1
node 3 1 1 3
node 4 1 0 2
gene  1 1 4 -0.2804572659366086 0 1.0 -0.2804572659366086 1
gene  2 2 4 2.290213011181036 0 2.0 2.290213011181036 1
gene  3 3 4 1.1327015782239205 0 3.0 1.1327015782239205 1
genomeend 167
/* Organism # 168 Fitness:  3,892 Error:  2,973                      */
genomestart  168
trait 1 0.1 0.0 0.0 0.0 0.0 0.0 0.0 0.0 
trait 2 0.2 0.0 0.0 0.0 0.0 0.0 0.0 0.0 
trait 3 0.3 0.0 0.0 0.0 0.0 0.0 0.0 0.0 
node 1 1 1 1
node 2 1 1 1
node 3 1 1 3
node 4 1 0 2
gene  1 1 4 0.6722222827452159 0 1.0 0.6722222827452159 1
gene  2 2 4 -0.09707768558305119 0 2.0 -0.09707768558305119 1
gene  3 3 4 -0.9632234303097452 0 3.0 -0.9632234303097452 1
genomeend 168
/* Organism # 169 Fitness:  0,391 Error:  1,625                      */
genomestart  169
trait 1 0.1 0.0 0.0 0.0 0.0 0.0 0.0 0.0 
trait 2 0.2 0.0 0.0 0.0 0.0 0.0 0.0 0.0 
trait 3 0.3 0.0 0.0 0.0 0.0 0.0 0.0 0.0 
node 1 1 1 1
node 2 1 1 1
node 3 1 1 3
node 4 1 0 2
gene  1 1 4 0.05343497078876358 0 1.0 0.05343497078876358 1
gene  2 2 4 -1.878325088941304 0 2.0 -1.878325088941304 1
gene  3 3 4 -0.6124081854522745 0 3.0 -0.6124081854522745 1
genomeend 169
/* Organism # 170 Fitness:  3,998 Error:  2,999                      */
genomestart  170
trait 1 0.1 0.0 0.0 0.0 0.0 0.0 0.0 0.0 
trait 2 0.2 0.0 0.0 0.0 0.0 0.0 0.0 0.0 
trait 3 0.3 0.0 0.0 0.0 0.0 0.0 0.0 0.0 
node 1 1 1 1
node 2 1 1 1
node 3 1 1 3
node 4 1 0 2
gene  1 1 4 2.017536094552185 0 1.0 2.017536094552185 1
gene  2 2 4 0.6047259526145293 0 2.0 0.6047259526145293 1
gene  3 3 4 -0.48131176470228443 0 3.0 -0.48131176470228443 1
genomeend 170
/* Organism # 171 Fitness:  4,000 Error:  3,000                      */
genomestart  171
trait 1 0.1 0.0 0.0 0.0 0.0 0.0 0.0 0.0 
trait 2 0.2 0.0 0.0 0.0 0.0 0.0 0.0 0.0 
trait 3 0.3 0.0 0.0 0.0 0.0 0.0 0.0 0.0 
node 1 0 1 1
node 2 0 1 1
node 3 0 1 3
node 4 0 0 2
gene  1 1 4 2.7450090941201566 0 1.0 2.7450090941201566 1
gene  2 2 4 -0.017845170029275936 0 2.0 -0.017845170029275936 1
gene  3 3 4 1.5814495763668313 0 3.0 1.5814495763668313 1
genomeend 171
/* Organism # 172 Fitness:  0,000 Error:  1,001                      */
genomestart  172
trait 1 0.1 0.0 0.0 0.0 0.0 0.0 0.0 0.0 
trait 2 0.2 0.0 0.0 0.0 0.0 0.0 0.0 0.0 
trait 3 0.3 0.0 0.0 0.0 0.0 0.0 0.0 0.0 
node 1 1 1 1
node 2 1 1 1
node 3 1 1 3
node 4 1 0 2
gene  1 1 4 -1.4935210132029382 0 1.0 -1.4935210132029382 1
gene  2 2 4 -2.386574305805256 0 2.0 -2.386574305805256 1
gene  3 3 4 -1.7800617288921128 0 3.0 -1.7800617288921128 1
genomeend 172
/* Organism # 173 Fitness:  3,857 Error:  2,964                      */
genomestart  173
trait 1 0.1 0.0 0.0 0.0 0.0 0.0 0.0 0.0 
trait 2 0.2 0.0 0.8660262925034699 0.0 0.0 0.0 0.0 0.0 
trait 3 0.3 0.0 0.0 0.0 0.0 0.0 0.0 0.0 
node 1 1 1 1
node 2 1 1 1
node 3 1 1 3
node 4 1 0 2
gene  1 1 4 0.9644041663285726 0 1.0 0.9644041663285726 1
gene  2 2 4 2.836303789324907 0 2.0 2.836303789324907 1
gene  3 3 4 -0.24015938694150207 0 3.0 -0.24015938694150207 1
genomeend 173
/* Organism # 174 Fitness:  4,783 Error:  3,187                      */
genomestart  174
trait 1 0.1 0.0 0.0 0.0 0.0 0.0 0.0 0.0 
trait 2 0.2 0.0 0.0 0.0 0.0 0.0 0.0 0.0 
trait 3 0.3 0.0 0.0 0.0 0.0 0.0 0.0 0.0 
node 1 1 1 1
node 2 1 1 1
node 3 1 1 3
node 4 1 0 2
gene  1 1 4 0.7203347843734047 0 1.0 0.7203347843734047 1
gene  2 2 4 -0.28367971849204615 0 2.0 -0.28367971849204615 1
gene  3 3 4 -0.4816117151548726 0 3.0 -0.4816117151548726 1
genomeend 174
/* Organism # 175 Fitness:  0,001 Error:  1,023                      */
genomestart  175
trait 1 0.1 0.0 0.0 0.0 0.0 0.0 0.0 0.0 
trait 2 0.2 0.0 0.0 0.0 0.0 0.0 0.0 0.0 
trait 3 0.3 0.0 0.0 0.0 0.0 0.0 0.0 0.0 
node 1 1 1 1
node 2 1 1 1
node 3 1 1 3
node 4 1 0 2
gene  1 1 4 -1.3023899929564609 0 1.0 -1.3023899929564609 1
gene  2 2 4 0.5299528930460886 0 2.0 0.5299528930460886 1
gene  3 3 4 -0.712381043079741 0 3.0 -0.712381043079741 1
genomeend 175
/* Organism # 176 Fitness:  2,815 Error:  2,678                      */
genomestart  176
trait 1 0.1 0.0 0.0 0.0 0.0 0.0 0.0 0.0 
trait 2 0.2 0.0 0.0 0.0 0.0 0.0 0.0 0.0 
trait 3 0.3 0.0 0.0 0.0 0.0 0.0 0.0 0.0 
node 1 0 1 1
node 2 0 1 1
node 3 0 1 3
node 4 0 0 2
gene  1 1 4 1.0982529161128154 0 1.0 1.0982529161128154 1
gene  2 2 4 -2.523053515013702 0 2.0 -2.523053515013702 1
gene  3 3 4 -0.9439783938554456 0 3.0 -0.9439783938554456 1
genomeend 176
/* Organism # 177 Fitness:  3,829 Error:  2,957                      */
genomestart  177
trait 1 0.1 0.0 0.0 0.0 0.0 0.0 0.0 0.0 
trait 2 0.2 0.0 0.0 0.0 0.0 0.0 0.0 0.0 
trait 3 0.3 0.0 0.0 0.0 0.0 0.0 0.0 0.0 
node 1 1 1 1
node 2 1 1 1
node 3 1 1 3
node 4 1 0 2
gene  1 1 4 0.6630177091731042 0 1.0 0.6630177091731042 1
gene  2 2 4 0.3741784292347708 0 2.0 0.3741784292347708 1
gene  3 3 4 0.8668574754588441 0 3.0 0.8668574754588441 1
genomeend 177
/* Organism # 178 Fitness:  3,924 Error:  2,981                      */
genomestart  178
trait 1 0.1 0.0 0.0 0.0 0.0 0.0 0.0 0.0 
trait 2 0.2 0.0 0.0 0.0 0.0 0.0 0.0 0.0 
trait 3 0.3 0.0 0.0 0.0 0.0 0.0 0.0 0.0 
node 1 1 1 1
node 2 1 1 1
node 3 1 1 3
node 4 1 0 2
gene  1 1 4 0.93106989039574 0 1.0 0.93106989039574 1
gene  2 2 4 0.4256439357382483 0 2.0 0.4256439357382483 1
gene  3 3 4 0.027118701391521505 0 3.0 0.027118701391521505 1
genomeend 178
/* Organism # 179 Fitness:  0,970 Error:  1,985                      */
genomestart  179
trait 1 0.1 0.0 0.0 0.0 0.0 0.0 0.0 0.0 
trait 2 0.2 0.0 0.0 0.0 0.0 0.0 0.0 0.0 
trait 3 0.0 0.0 0.0 0.0 0.0 0.0 0.0 0.0 
node 1 0 1 1
node 2 0 1 1
node 3 0 1 3
node 4 0 0 2
gene  1 1 4 0.3491529561928409 0 1.0 0.3491529561928409 1
gene  2 2 4 -1.0885320113505266 0 2.0 -1.0885320113505266 1
gene  3 3 4 -0.769879399003125 0 3.0 -0.769879399003125 1
genomeend 179
/* Organism # 180 Fitness:  3,893 Error:  2,973                      */
genomestart  180
trait 1 0.1 0.0 0.0 0.0 0.0 0.0 0.0 0.0 
trait 2 0.2 0.0 0.0 0.0 0.0 0.0 0.0 0.0 
trait 3 0.3 0.0 0.0 0.0 0.0 0.0 0.0 0.0 
node 1 0 1 1
node 2 0 1 1
node 3 0 1 3
node 4 0 0 2
gene  1 1 4 1.46070664432664 0 1.0 1.46070664432664 1
gene  2 2 4 -0.7270263595164822 0 2.0 -0.7270263595164822 1
gene  3 3 4 2.1706581843374995 0 3.0 2.1706581843374995 1
genomeend 180
/* Organism # 181 Fitness:  0,144 Error:  1,379                      */
genomestart  181
trait 1 0.1 0.0 0.0 0.0 0.0 0.0 0.0 0.0 
trait 2 0.2 0.0 0.0 0.0 0.0 0.0 0.0 0.0 
trait 3 0.3 0.0 0.0 0.0 0.0 0.0 0.0 0.0 
node 1 1 1 1
node 2 1 1 1
node 3 1 1 3
node 4 1 0 2
gene  1 1 4 -1.4414280452615 0 1.0 -1.4414280452615 1
gene  2 2 4 -1.4702049969511561 0 2.0 -1.4702049969511561 1
gene  3 3 4 1.340674530931428 0 3.0 1.340674530931428 1
genomeend 181
/* Organism # 182 Fitness:  0,000 Error:  1,012                      */
genomestart  182
trait 1 0.1 0.0 0.0 0.0 0.0 0.0 0.0 0.0 
trait 2 0.2 0.0 0.0 0.0 0.0 0.0 0.0 0.0 
trait 3 0.3 0.0 0.0 0.0 0.0 0.0 0.0 0.0 
node 1 1 1 1
node 2 1 1 1
node 3 1 1 3
node 4 1 0 2
gene  1 1 4 -1.183652850685863 0 1.0 -1.183652850685863 1
gene  2 2 4 0.2381405440031169 0 2.0 0.2381405440031169 1
gene  3 3 4 2.7064379149848667 0 3.0 2.7064379149848667 1
genomeend 182
/* Organism # 183 Fitness:  5,921 Error:  3,433                      */
genomestart  183
trait 1 0.1 0.0 0.0 0.0 0.0 0.0 0.0 0.0 
trait 2 0.2 0.0 0.0 0.0 0.0 0.0 0.0 0.0 
trait 3 0.3 0.0 0.0 0.0 0.0 0.0 0.0 0.0 
node 1 1 1 1
node 2 1 1 1
node 3 1 1 3
node 4 1 0 2
gene  1 1 4 2.5237103414125412 0 1.0 2.5237103414125412 1
gene  2 2 4 -1.5799037577384778 0 2.0 -1.5799037577384778 1
gene  3 3 4 -2.5700615442426407 0 3.0 -2.5700615442426407 1
genomeend 183
/* Organism # 184 Fitness:  1,494 Error:  2,222                      */
genomestart  184
trait 1 0.1 0.0 0.0 0.0 0.0 0.0 0.0 0.0 
trait 2 0.2 0.0 0.0 0.0 0.0 0.0 0.0 0.0 
trait 3 0.3 0.0 0.0 0.0 0.0 0.0 0.0 0.0 
node 1 0 1 1
node 2 0 1 1
node 3 0 1 3
node 4 3 0 2
gene  1 1 4 0.5947310054672265 0 1.0 0.5947310054672265 1
gene  2 2 4 0.7600360570866973 0 2.0 0.7600360570866973 1
gene  3 3 4 -0.9143858987723582 0 3.0 -0.9143858987723582 1
genomeend 184
/* Organism # 185 Fitness:  3,839 Error:  2,959                      */
genomestart  185
trait 1 0.1 0.0 0.0 0.0 0.0 0.0 0.0 0.0 
trait 2 0.2 0.0 0.0 0.0 0.0 0.0 0.0 0.0 
trait 3 0.3 0.0 0.0 0.0 0.0 0.0 0.0 0.0 
node 1 1 1 1
node 2 1 1 1
node 3 1 1 3
node 4 1 0 2
gene  1 1 4 0.7655657516708481 0 1.0 0.7655657516708481 1
gene  2 2 4 0.3107729432728297 0 2.0 0.3107729432728297 1
gene  3 3 4 0.05967559733251493 0 3.0 0.05967559733251493 1
genomeend 185
/* Organism # 186 Fitness:  4,000 Error:  3,000                      */
genomestart  186
trait 1 0.1 0.0 0.0 0.0 0.0 0.0 0.0 0.0 
trait 2 0.2 0.0 0.0 0.0 0.0 0.0 0.0 0.0 
trait 3 0.3 0.0 0.0 0.0 0.0 0.0 0.0 0.0 
node 1 2 1 1
node 2 1 1 1
node 3 1 1 3
node 4 1 0 2
gene  1 1 4 3.096313839054283 0 1.0 3.096313839054283 1
gene  2 2 4 -0.034911436723522316 0 2.0 -0.034911436723522316 1
gene  3 3 4 -0.9874118047834365 0 3.0 -0.9874118047834365 1
genomeend 186
/* Organism # 187 Fitness:  4,000 Error:  3,000                      */
genomestart  187
trait 1 0.1 0.0 0.0 0.0 0.0 0.0 0.0 0.0 
trait 2 0.2 0.0 0.0 0.0 0.0 0.0 0.0 0.0 
trait 3 0.3 0.0 0.0 0.0 0.0 0.0 0.0 0.0 
node 1 0 1 1
node 2 0 1 1
node 3 0 1 3
node 4 0 0 2
gene  1 1 4 2.2383098197245643 0 1.0 2.2383098197245643 1
gene  2 2 4 0.2636867613776056 0 2.0 0.2636867613776056 1
gene  3 3 4 1.7993547939612395 0 3.0 1.7993547939612395 1
genomeend 187
/* Organism # 188 Fitness:  4,588 Error:  3,142                      */
genomestart  188
trait 1 0.1 0.0 0.0 0.0 0.0 0.0 0.0 0.0 
trait 2 0.2 0.0 0.0 0.0 0.0 0.0 0.0 0.0 
trait 3 0.3 0.0 0.0 0.0 0.0 0.0 0.0 0.0 
node 1 1 1 1
node 2 1 1 1
node 3 1 1 3
node 4 1 0 2
gene  1 1 4 0.8128901495905959 0 1.0 0.8128901495905959 1
gene  2 2 4 -0.5825548737784452 0 2.0 -0.5825548737784452 1
gene  3 3 4 -0.855899448875851 0 3.0 -0.855899448875851 1
genomeend 188
/* Organism # 189 Fitness:  3,549 Error:  2,884                      */
genomestart  189
trait 1 0.1 0.0 0.0 0.0 0.0 0.0 0.0 0.0 
trait 2 0.2 0.0 0.0 0.0 0.0 0.0 0.0 0.0 
trait 3 0.3 0.0 0.0 0.0 0.0 0.0 0.0 0.0 
node 1 1 1 1
node 2 1 1 1
node 3 1 1 3
node 4 1 0 2
gene  1 1 4 0.566068182036413 0 1.0 0.566068182036413 1
gene  2 2 4 0.0 0 2.0 0.0 1
gene  3 3 4 0.0 0 3.0 0.0 1
genomeend 189
/* Organism # 190 Fitness:  3,250 Error:  2,803                      */
genomestart  190
trait 1 0.1 0.0 0.0 0.0 0.0 0.0 0.0 0.0 
trait 2 0.2 0.0 0.0 0.0 0.0 0.0 0.0 0.0 
trait 3 0.3 0.0 0.0 0.0 0.7248771144182918 0.0 0.0 0.0 
node 1 1 1 1
node 2 1 1 1
node 3 1 1 3
node 4 1 0 2
gene  1 1 4 2.3070622737439423 0 1.0 2.3070622737439423 1
gene  2 2 4 -2.022268129747566 0 2.0 -2.022268129747566 1
gene  3 3 4 1.5532236817269867 0 3.0 1.5532236817269867 1
genomeend 190
/* Organism # 191 Fitness:  3,705 Error:  2,925                      */
genomestart  191
trait 1 0.1 0.0 0.0 0.0 0.0 0.0 0.0 0.0 
trait 2 0.2 0.0 0.0 0.0 0.0 0.0 0.0 0.0 
trait 3 0.3 0.0 0.0 0.0 0.0 0.0 0.0 0.0 
node 1 1 1 1
node 2 1 1 1
node 3 1 1 3
node 4 1 0 2
gene  1 1 4 0.7857521872514548 0 1.0 0.7857521872514548 1
gene  2 2 4 0.0712906531538332 0 2.0 0.0712906531538332 1
gene  3 3 4 -0.4378959427485245 0 3.0 -0.4378959427485245 1
genomeend 191
/* Organism # 192 Fitness:  3,817 Error:  2,954                      */
genomestart  192
trait 1 0.1 0.0 0.0 0.0 0.0 0.0 0.0 0.0 
trait 2 0.2 0.0 0.0 0.0 0.0 0.0 0.0 0.0 
trait 3 0.3 0.0 0.0 0.0 0.0 0.0 0.0 0.0 
node 1 1 1 1
node 2 1 1 1
node 3 1 1 3
node 4 1 0 2
gene  1 1 4 0.7472404383683104 0 1.0 0.7472404383683104 1
gene  2 2 4 0.34089189232021344 0 2.0 0.34089189232021344 1
gene  3 3 4 0.03410034363760345 0 3.0 0.03410034363760345 1
genomeend 192
/* Organism # 193 Fitness:  3,497 Error:  2,870                      */
genomestart  193
trait 1 0.1 0.0 0.0 0.0 0.0 0.0 0.0 0.0 
trait 2 0.2 0.0 0.0 0.0 0.0 0.0 0.0 0.0 
trait 3 0.3 0.0 0.0 0.0 0.0 0.0 0.0 0.0 
node 1 1 1 1
node 2 1 1 1
node 3 1 1 3
node 4 1 0 2
gene  1 1 4 2.382875001182393 0 1.0 2.382875001182393 1
gene  2 2 4 0.3736019307669513 0 2.0 0.3736019307669513 1
gene  3 3 4 -2.0447986145660773 0 3.0 -2.0447986145660773 1
genomeend 193
/* Organism # 194 Fitness:  3,810 Error:  2,952                      */
genomestart  194
trait 1 0.1 0.0 0.0 0.0 0.0 0.0 0.0 0.0 
trait 2 0.2 0.0 0.0 0.0 0.0 0.0 0.0 0.0 
trait 3 0.3 0.0 0.0 0.0 0.0 0.0 0.0 0.0 
node 1 1 1 1
node 2 1 1 1
node 3 1 1 3
node 4 1 0 2
gene  1 1 4 0.6545802662865591 0 1.0 0.6545802662865591 1
gene  2 2 4 -2.4689707543723944 0 2.0 -2.4689707543723944 1
gene  3 3 4 0.2897629315180598 0 3.0 0.2897629315180598 1
genomeend 194
/* Organism # 195 Fitness:  0,289 Error:  1,538                      */
genomestart  195
trait 1 0.1 0.0 0.0 0.0 0.0 0.0 0.0 0.0 
trait 2 0.2 0.0 0.0 0.0 0.0 0.0 0.0 0.0 
trait 3 0.3 0.0 0.0 0.0 0.0 0.0 0.0 0.0 
node 1 0 1 1
node 2 0 1 1
node 3 0 1 3
node 4 0 0 2
gene  1 1 4 -0.045439721043188164 0 1.0 -0.045439721043188164 1
gene  2 2 4 -0.4169066093337445 0 2.0 -0.4169066093337445 1
gene  3 3 4 -1.6234110952090999 0 3.0 -1.6234110952090999 1
genomeend 195
/* Organism # 196 Fitness:  3,870 Error:  2,967                      */
genomestart  196
trait 1 0.1 0.0 0.0 0.0 0.0 0.0 0.0 0.0 
trait 2 0.2 0.0 0.0 0.0 0.0 0.0 0.0 0.0 
trait 3 0.3 0.0 0.0 0.0 0.0 0.0 0.0 0.0 
node 1 1 1 1
node 2 1 1 1
node 3 1 1 3
node 4 1 0 2
gene  1 1 4 0.7117484531210374 0 1.0 0.7117484531210374 1
gene  2 2 4 0.519355871388995 0 2.0 0.519355871388995 1
gene  3 3 4 0.636464428704828 0 3.0 0.636464428704828 1
genomeend 196
/* Organism # 197 Fitness:  0,069 Error:  1,262                      */
genomestart  197
trait 1 0.1 0.0 0.0 0.0 0.0 0.0 0.0 0.0 
trait 2 0.2 0.0 0.0 0.0 0.0 0.0 0.0 0.0 
trait 3 0.3 0.0 0.0 0.0 0.0 0.0 0.0 0.0 
node 1 1 1 1
node 2 1 1 1
node 3 1 1 3
node 4 1 0 2
gene  1 1 4 -1.366831136196345 0 1.0 -1.366831136196345 1
gene  2 2 4 1.9056120412405333 0 2.0 1.9056120412405333 1
gene  3 3 4 -0.3914764056986384 0 3.0 -0.3914764056986384 1
genomeend 197
/* Organism # 198 Fitness:  2,874 Error:  2,695                      */
genomestart  198
trait 1 0.1 0.0 0.0 0.0 0.0 0.0 0.0 0.0 
trait 2 0.2 0.0 0.0 0.0 0.0 0.0 0.0 0.0 
trait 3 0.3 0.0 0.0 0.0 0.0 0.0 0.0 0.0 
node 1 1 1 1
node 2 1 1 1
node 3 1 1 3
node 4 1 0 2
gene  1 1 4 0.23111271399629796 0 1.0 0.23111271399629796 1
gene  2 2 4 0.3287827228275404 0 2.0 0.3287827228275404 1
gene  3 3 4 -1.7534865238013817 0 3.0 -1.7534865238013817 1
genomeend 198
/* Organism # 199 Fitness:  3,892 Error:  2,973                      */
genomestart  199
trait 1 0.1 0.0 0.0 0.0 0.0 0.0 0.0 0.0 
trait 2 0.2 0.0 0.0 0.0 0.0 0.0 0.0 0.0 
trait 3 0.3 0.0 0.0 0.0 0.0 0.0 0.0 0.0 
node 1 1 1 1
node 2 1 1 1
node 3 1 1 3
node 4 1 0 2
gene  1 1 4 0.8703133737204171 0 1.0 0.8703133737204171 1
gene  2 2 4 0.0 0 2.0 0.0 1
gene  3 3 4 0.5194557535069793 0 3.0 0.5194557535069793 1
genomeend 199
/*-------------------------------------------------------------------*/
