/* Species # 001         : (size= 004) (AvfFit= 7,756) (Age= 86,000)  */
/*-------------------------------------------------------------------*/
/* Organism # 000 Fitness:  9,000 Error:  1,000                      */
genomestart  0
trait 1 0.0 0.0 0.0 0.0 0.0 0.0 0.0 0.0 
trait 2 0.0 0.12164882254541409 0.0 0.16000971012070053 0.0 0.6105478423543726 0.0 0.0 
trait 3 0.11451302014212156 0.0 0.39448116603739247 0.0 0.0 0.0 0.0 0.0 
node 1 1 1 1
node 2 2 1 1
node 3 1 1 3
node 4 1 0 2
node 84 1 0 0
node 171 3 0 0
gene  3 1 4 -5.6190204629608935 0 1.0 -5.6190204629608935 1
gene  1 2 4 18.223817254730655 0 2.0 18.223817254730655 1
gene  2 3 4 13.850387584416813 0 3.0 13.850387584416813 1
gene  1 1 84 4.558027455429713 0 381.0 4.558027455429713 1
gene  2 84 4 -0.8700288387493216 0 382.0 -0.8700288387493216 1
gene  1 2 84 -4.3963683813333985 0 538.0 -4.3963683813333985 1
gene  3 3 84 -0.9810948178624377 0 593.0 -0.9810948178624377 1
gene  1 1 171 -5.762062315543155 0 825.0 -5.762062315543155 1
gene  1 171 84 -7.597831104670115 0 826.0 -7.597831104670115 1
gene  3 3 171 -0.27288949649611344 0 917.0 -0.27288949649611344 1
gene  1 2 171 -4.905588433928875 0 1216.0 -4.905588433928875 1
gene  1 171 4 -2.2378299664189205 0 1561.0 -2.2378299664189205 1
genomeend 0
/* Organism # 001 Fitness:  9,000 Error:  1,000                      */
genomestart  1
trait 1 0.0 0.0 0.0 0.0 0.0 0.0 0.0 0.0 
trait 2 0.0 0.12164882254541409 0.0 0.16000971012070053 0.0 0.6105478423543726 0.0 0.0 
trait 3 0.11451302014212156 0.0 0.39448116603739247 0.0 0.0 0.0 0.0 0.0 
node 1 1 1 1
node 2 2 1 1
node 3 1 1 3
node 4 1 0 2
node 84 1 0 0
node 171 3 0 0
gene  3 1 4 -7.979057857465998 0 1.0 -7.979057857465998 1
gene  1 2 4 19.509693829923584 0 2.0 19.509693829923584 1
gene  2 3 4 12.538196454883504 0 3.0 12.538196454883504 1
gene  1 1 84 3.3971879147720117 0 381.0 3.3971879147720117 1
gene  2 84 4 -2.3397433565384 0 382.0 -2.3397433565384 1
gene  1 2 84 -5.613399461668388 0 538.0 -5.613399461668388 1
gene  3 3 84 -1.2196850675110738 0 593.0 -1.2196850675110738 1
gene  1 1 171 -7.17309228052692 0 825.0 -7.17309228052692 1
gene  1 171 84 -5.517447964624359 0 826.0 -5.517447964624359 1
gene  3 3 171 0.08999612378247451 0 917.0 0.08999612378247451 1
gene  1 2 171 -4.254678825833012 0 1216.0 -4.254678825833012 1
genomeend 1
/* Organism # 002 Fitness:  9,000 Error:  1,000                      */
genomestart  2
trait 1 0.0 0.0 0.0 0.0 0.0 0.0 0.0 0.0 
trait 2 0.0 0.12164882254541409 0.0 0.16000971012070053 0.0 0.6105478423543726 0.0 0.0 
trait 3 0.11451302014212156 0.0 0.39448116603739247 0.0 0.0 0.0 0.0 0.0 
node 1 1 1 1
node 2 2 1 1
node 3 1 1 3
node 4 1 0 2
node 84 1 0 0
node 171 3 0 0
gene  3 1 4 -3.920289313748955 0 1.0 -3.920289313748955 1
gene  1 2 4 17.354860662673364 0 2.0 17.354860662673364 1
gene  2 3 4 13.850387584416813 0 3.0 13.850387584416813 1
gene  1 1 84 4.08882522089153 0 381.0 4.08882522089153 1
gene  2 84 4 -2.200301452570665 0 382.0 -2.200301452570665 1
gene  1 2 84 -3.856934554866055 0 538.0 -3.856934554866055 1
gene  3 3 84 -1.8031101267329397 0 593.0 -1.8031101267329397 1
gene  1 1 171 -7.616721180197407 0 825.0 -7.616721180197407 1
gene  1 171 84 -5.316648195134136 0 826.0 -5.316648195134136 1
gene  3 3 171 1.9177987690852503 0 917.0 1.9177987690852503 1
gene  1 2 171 -3.495716101175989 0 1216.0 -3.495716101175989 1
genomeend 2
/* Organism # 003 Fitness:  4,022 Error:  1,994                      */
genomestart  3
trait 1 0.0 0.0 0.0 0.0 0.0 0.0 0.0 0.0 
trait 2 0.0 0.12164882254541409 0.0 0.16000971012070053 0.0 0.6105478423543726 0.0 0.0 
trait 3 0.11451302014212156 0.0 0.39448116603739247 0.0 0.0 0.0 0.0 0.0 
node 1 1 1 1
node 2 2 1 1
node 3 1 1 3
node 4 1 0 2
node 84 1 0 0
node 171 3 0 0
gene  3 1 4 -5.6190204629608935 0 1.0 -5.6190204629608935 1
gene  1 2 4 2.260672386775804 0 2.0 2.260672386775804 1
gene  2 3 4 15.183862269153293 0 3.0 15.183862269153293 1
gene  1 1 84 5.663977825038094 0 381.0 5.663977825038094 1
gene  2 84 4 2.306973161466324 0 382.0 2.306973161466324 1
gene  1 2 84 -2.1098910320692723 0 538.0 -2.1098910320692723 1
gene  3 3 84 -0.46882377774457396 0 593.0 -0.46882377774457396 1
gene  1 1 171 -5.762062315543155 0 825.0 -5.762062315543155 1
gene  1 171 84 -1.7801869093696703 0 826.0 -1.7801869093696703 1
gene  3 3 171 0.8190427809893126 0 917.0 0.8190427809893126 1
gene  1 2 171 -5.322941867892338 0 1216.0 -5.322941867892338 1
genomeend 3
/*-------------------------------------------------------------------*/
/* Species # 002         : (size= 002) (AvfFit= 6,716) (Age= 84,000)  */
/*-------------------------------------------------------------------*/
/* Organism # 004 Fitness:  9,000 Error:  1,000                      */
genomestart  4
trait 1 0.1 0.0 0.0 0.0 0.011495292781822517 0.0 0.9190332317374801 0.0 
trait 2 0.42000616145913794 0.31707582415339564 0.0 0.0 0.0 0.0 0.0 0.0 
trait 3 0.3 0.0 0.005759404633646656 0.023685799648318052 0.009735323139203025 0.8152900615263758 0.0 0.011754876500900707 
node 1 3 1 1
node 2 1 1 1
node 3 1 1 3
node 4 1 0 2
node 5 2 0 0
node 121 1 0 0
gene  3 1 4 11.986796699044332 0 1.0 11.986796699044332 1
gene  2 2 4 4.688925522578416 0 2.0 4.688925522578416 1
gene  3 3 4 -18.171068169530734 0 3.0 -18.171068169530734 1
gene  1 1 5 1.5988189089349678 0 4.0 1.5988189089349678 1
gene  1 5 4 -16.281637684902133 0 5.0 -16.281637684902133 1
gene  3 2 5 2.5857799252780165 0 8.0 2.5857799252780165 1
gene  2 3 5 -1.5361688693952131 0 332.0 -1.5361688693952131 1
gene  1 1 121 2.2805360601308466 0 556.0 2.2805360601308466 1
gene  1 121 5 11.231704325603818 0 557.0 11.231704325603818 1
gene  1 2 121 -1.3381459894048666 0 654.0 -1.3381459894048666 1
gene  3 3 121 0.030265078823050018 0 673.0 0.030265078823050018 1
gene  3 121 4 1.8522348857615822 0 863.0 1.8522348857615822 1
genomeend 4
/* Organism # 005 Fitness:  4,432 Error:  1,895                      */
genomestart  5
trait 1 0.1 0.0 0.0 0.0 0.011495292781822517 0.0 0.9190332317374801 0.0 
trait 2 0.42000616145913794 0.31707582415339564 0.0 0.0 0.0 0.0 0.0 0.0 
trait 3 0.3 0.0 0.005759404633646656 0.023685799648318052 0.009735323139203025 0.8152900615263758 0.0 0.011754876500900707 
node 1 3 1 1
node 2 1 1 1
node 3 1 1 3
node 4 1 0 2
node 5 2 0 0
node 121 1 0 0
gene  3 1 4 15.83934043836587 0 1.0 15.83934043836587 1
gene  2 2 4 4.380684356152653 0 2.0 4.380684356152653 1
gene  3 3 4 -20.495844246044488 0 3.0 -20.495844246044488 1
gene  1 1 5 3.4476991255508445 0 4.0 3.4476991255508445 1
gene  1 5 4 -18.798560148582645 0 5.0 -18.798560148582645 1
gene  3 2 5 1.6101468223908393 0 8.0 1.6101468223908393 1
gene  2 3 5 -0.9867511997896674 0 332.0 -0.9867511997896674 1
gene  1 1 121 3.2853123782844307 0 556.0 3.2853123782844307 1
gene  1 121 5 10.52214231765309 0 557.0 10.52214231765309 1
gene  1 2 121 -0.746025002758403 0 654.0 -0.746025002758403 1
gene  3 3 121 -1.4539630866412472 0 673.0 -1.4539630866412472 1
gene  3 121 4 3.393908334060903 0 863.0 3.393908334060903 1
genomeend 5
/*-------------------------------------------------------------------*/
/* Species # 004         : (size= 004) (AvfFit= 8,428) (Age= 82,000)  */
/*-------------------------------------------------------------------*/
/* Organism # 006 Fitness:  8,947 Error:  1,009                      */
genomestart  6
trait 1 0.11424366741304581 0.2627941260745945 0.0 0.11515979884592453 0.0 0.6782844712534337 1.2134248743448577 0.0 
trait 2 0.2 0.0 0.6523591025854797 0.6155992316454156 0.0 0.0 0.0 0.0 
trait 3 0.4962279769096369 0.8502529274642209 0.0 0.0 0.0 0.1979837198087172 0.0 0.0 
node 1 1 1 1
node 2 1 1 1
node 3 1 1 3
node 4 3 0 2
node 14 3 0 0
node 146 1 0 0
node 163 2 0 0
node 233 1 0 0
node 254 1 0 0
gene  1 1 4 -0.3695704210045794 0 1.0 -0.3695704210045794 1
gene  2 2 4 1.4144314216911789 0 2.0 1.4144314216911789 1
gene  2 3 4 10.037590868134194 0 3.0 10.037590868134194 1
gene  2 1 14 -2.7537826263148464 0 35.0 -2.7537826263148464 1
gene  1 14 4 -2.1384615739867034 0 36.0 -2.1384615739867034 1
gene  1 2 14 1.4270311880616395 0 242.0 1.4270311880616395 1
gene  2 3 14 -6.535424678861245 0 254.0 -6.535424678861245 1
gene  2 2 146 -2.1295643153260766 0 700.0 -2.1295643153260766 1
gene  2 146 4 -12.550227331448319 0 701.0 -12.550227331448319 1
gene  1 1 163 5.993453525243828 0 785.0 5.993453525243828 1
gene  1 163 14 0.6838286417147992 0 786.0 0.6838286417147992 1
gene  2 146 163 -4.450688646931011 0 930.0 -4.450688646931011 0
gene  2 1 233 -3.5711179954817656 0 1126.0 -3.5711179954817656 1
gene  2 233 14 5.210083926192785 0 1127.0 5.210083926192785 1
gene  2 2 163 2.4398211165345307 0 1147.0 2.4398211165345307 1
gene  2 146 254 -8.937160653970182 0 1212.0 -8.937160653970182 1
gene  2 254 163 0.7505969598699185 0 1213.0 0.7505969598699185 1
gene  1 233 146 -0.20684668056418776 0 1242.0 -0.20684668056418776 1
gene  1 3 146 -3.6038554074902462 0 1417.0 -3.6038554074902462 1
genomeend 6
/* Organism # 007 Fitness:  9,000 Error:  1,000                      */
genomestart  7
trait 1 0.11424366741304581 0.2627941260745945 0.0 0.11515979884592453 0.0 0.6782844712534337 1.2134248743448577 0.0 
trait 2 0.2 0.0 0.6523591025854797 0.6155992316454156 0.0 0.0 0.0 0.0 
trait 3 0.4962279769096369 0.8502529274642209 0.0 0.0 0.0 0.1979837198087172 0.0 0.0 
node 1 1 1 1
node 2 1 1 1
node 3 1 1 3
node 4 3 0 2
node 14 3 0 0
node 146 1 0 0
node 163 2 0 0
node 233 1 0 0
node 254 1 0 0
gene  1 1 4 -0.7730744766509727 0 1.0 -0.7730744766509727 1
gene  2 2 4 0.4346607281731778 0 2.0 0.4346607281731778 1
gene  2 3 4 8.277816002857083 0 3.0 8.277816002857083 1
gene  2 1 14 0.658019004337542 0 35.0 0.658019004337542 1
gene  1 14 4 -2.8512246953535927 0 36.0 -2.8512246953535927 1
gene  1 2 14 12.720896138264989 0 242.0 12.720896138264989 1
gene  2 3 14 -4.775575738963274 0 254.0 -4.775575738963274 1
gene  2 2 146 14.172833020102438 0 700.0 14.172833020102438 1
gene  2 146 4 -13.369505040603554 0 701.0 -13.369505040603554 1
gene  1 1 163 5.285212159734888 0 785.0 5.285212159734888 1
gene  1 163 14 0.2996057191142883 0 786.0 0.2996057191142883 1
gene  2 146 163 -4.092249374625853 0 930.0 -4.092249374625853 0
gene  2 1 233 -5.61701971062095 0 1126.0 -5.61701971062095 1
gene  2 233 14 9.491226454920882 0 1127.0 9.491226454920882 1
gene  2 2 163 -0.3273181632599234 0 1147.0 -0.3273181632599234 1
gene  2 146 254 -7.1958011270426825 0 1212.0 -7.1958011270426825 1
gene  2 254 163 -1.1849515919065454 0 1213.0 -1.1849515919065454 1
gene  1 233 146 2.140350292160758 0 1242.0 2.140350292160758 1
gene  1 3 146 -8.00285862826309 0 1417.0 -8.00285862826309 1
genomeend 7
/* Organism # 008 Fitness:  6,767 Error:  1,399                      */
genomestart  8
trait 1 0.11424366741304581 0.2627941260745945 0.0 0.11515979884592453 0.0 0.6782844712534337 1.2134248743448577 0.0 
trait 2 0.2 0.0 0.6523591025854797 0.6155992316454156 0.0 0.0 0.0 0.0 
trait 3 0.4962279769096369 0.8502529274642209 0.0 0.0 0.0 0.1979837198087172 0.0 0.0 
node 1 1 1 1
node 2 1 1 1
node 3 1 1 3
node 4 3 0 2
node 14 3 0 0
node 146 1 0 0
node 163 2 0 0
node 233 1 0 0
node 254 1 0 0
gene  1 1 4 0.2147406903229141 0 1.0 0.2147406903229141 1
gene  2 2 4 2.55966293038285 0 2.0 2.55966293038285 1
gene  2 3 4 0.8951180561133965 0 3.0 0.8951180561133965 1
gene  2 1 14 1.5228240342340684 0 35.0 1.5228240342340684 1
gene  1 14 4 -2.9951274559545458 0 36.0 -2.9951274559545458 1
gene  1 2 14 11.773128598363868 0 242.0 11.773128598363868 1
gene  2 3 14 -2.694744278518054 0 254.0 -2.694744278518054 1
gene  2 2 146 15.871961011530182 0 700.0 15.871961011530182 1
gene  2 146 4 -9.844904074362645 0 701.0 -9.844904074362645 1
gene  1 1 163 2.316870455377465 0 785.0 2.316870455377465 1
gene  1 163 14 -1.0001198290245297 0 786.0 -1.0001198290245297 1
gene  2 146 163 -1.9116769019849422 0 930.0 -1.9116769019849422 0
gene  2 1 233 0.6551623625676826 0 1126.0 0.6551623625676826 1
gene  2 233 14 -1.4117649098061766 0 1127.0 -1.4117649098061766 1
gene  2 2 163 0.9944571474712514 0 1147.0 0.9944571474712514 1
gene  2 146 254 -10.983423948131584 0 1212.0 -10.983423948131584 1
gene  2 254 163 -1.4390426049655023 0 1213.0 -1.4390426049655023 1
gene  1 233 146 -0.7668488391351338 0 1242.0 -0.7668488391351338 1
gene  1 3 146 -0.5914235408763863 0 1417.0 -0.5914235408763863 1
genomeend 8
/* Organism # 009 Fitness:  9,000 Error:  1,000                      */
genomestart  9
trait 1 0.11424366741304581 0.2627941260745945 0.0 0.11515979884592453 0.0 0.6782844712534337 1.2134248743448577 0.0 
trait 2 0.2 0.0 0.6523591025854797 0.6155992316454156 0.0 0.0 0.0 0.0 
trait 3 0.4962279769096369 0.8502529274642209 0.0 0.0 0.0 0.1979837198087172 0.0 0.0 
node 1 1 1 1
node 2 1 1 1
node 3 1 1 3
node 4 3 0 2
node 14 3 0 0
node 146 1 0 0
node 163 2 0 0
node 233 1 0 0
node 254 1 0 0
node 340 1 0 0
gene  1 1 4 -0.3695704210045794 0 1.0 -0.3695704210045794 1
gene  2 2 4 0.3292893171127991 0 2.0 0.3292893171127991 1
gene  2 3 4 10.037590868134194 0 3.0 10.037590868134194 1
gene  2 1 14 -0.9175572034573642 0 35.0 -0.9175572034573642 1
gene  1 14 4 -2.9951274559545458 0 36.0 -2.9951274559545458 1
gene  1 2 14 13.716857895381269 0 242.0 13.716857895381269 1
gene  2 3 14 -5.167442398310576 0 254.0 -5.167442398310576 1
gene  2 2 146 15.485305580360176 0 700.0 15.485305580360176 1
gene  2 146 4 -12.095345570346705 0 701.0 -12.095345570346705 1
gene  1 1 163 4.451935580380842 0 785.0 4.451935580380842 1
gene  1 163 14 0.6838286417147992 0 786.0 0.6838286417147992 1
gene  2 146 163 -3.516358214064002 0 930.0 -3.516358214064002 0
gene  2 1 233 -3.5711179954817656 0 1126.0 -3.5711179954817656 1
gene  2 233 14 7.416301189409621 0 1127.0 7.416301189409621 0
gene  2 2 163 0.0016287168605536029 0 1147.0 0.0016287168605536029 1
gene  2 146 254 -8.937160653970182 0 1212.0 -8.937160653970182 1
gene  2 254 163 -1.1849515919065454 0 1213.0 -1.1849515919065454 1
gene  1 233 146 0.901423581305236 0 1242.0 0.901423581305236 1
gene  1 3 146 -5.769830894746125 0 1417.0 -5.769830894746125 1
gene  2 233 340 1.0 0 1569.0 0.0 1
gene  2 340 14 7.416301189409621 0 1570.0 0.0 1
genomeend 9
/*-------------------------------------------------------------------*/
/* Species # 007         : (size= 004) (AvfFit= 9,000) (Age= 81,000)  */
/*-------------------------------------------------------------------*/
/* Organism # 010 Fitness:  9,000 Error:  1,000                      */
genomestart  10
trait 1 0.8852445140920412 0.4100005836106212 0.0 0.0 0.0 0.0 0.0 0.0 
trait 2 0.1 0.0 0.2745656836152613 0.8163729433678998 0.0 0.3301629726161752 0.4434326801698363 0.0 
trait 3 0.1770668262601972 0.0 1.1646136890459076 0.0 0.2879334855204876 0.0 0.305630474635493 0.0 
node 1 1 1 1
node 2 1 1 1
node 3 1 1 3
node 4 1 0 2
node 12 2 0 0
node 14 1 0 0
node 15 2 0 0
node 193 1 0 0
node 298 1 0 0
gene  1 1 4 -14.453206834986233 0 1.0 -14.453206834986233 0
gene  2 2 4 -22.94981414475398 0 2.0 -22.94981414475398 1
gene  1 3 4 18.72265635355226 0 3.0 18.72265635355226 1
gene  1 1 14 1.5471100470099293 0 35.0 1.5471100470099293 1
gene  2 14 4 -12.50226156783842 0 36.0 -12.50226156783842 1
gene  1 1 15 -0.7439621170162326 0 40.0 -0.7439621170162326 1
gene  2 15 12 -2.427061400492807 0 41.0 -2.427061400492807 1
gene  3 3 15 -0.011641841576914391 0 92.0 -0.011641841576914391 1
gene  3 2 15 2.9037523081767844 0 159.0 2.9037523081767844 1
gene  2 2 12 2.08364929634811 0 208.0 2.08364929634811 1
gene  1 14 15 10.012036120404264 0 399.0 10.012036120404264 1
gene  2 4 15 -0.2625065986931425 0 639.0 -0.2625065986931425 1
gene  2 3 12 -5.150779418575177 0 902.0 -5.150779418575177 1
gene  1 1 193 -9.262996719239037 0 946.0 -9.262996719239037 1
gene  1 193 4 -1.0799075480188955 0 947.0 -1.0799075480188955 1
gene  3 3 14 0.431624848830203 0 965.0 0.431624848830203 1
gene  1 3 193 5.318474224261916 0 1134.0 5.318474224261916 1
gene  3 193 15 -5.197152333182682 0 1158.0 -5.197152333182682 1
gene  3 2 193 9.607666496265663 0 1200.0 9.607666496265663 1
gene  1 1 298 1.2307202884876762 0 1419.0 1.2307202884876762 1
gene  1 298 15 1.1960269328073951 0 1420.0 1.1960269328073951 1
genomeend 10
/* Organism # 011 Fitness:  9,000 Error:  1,000                      */
genomestart  11
trait 1 0.8852445140920412 0.4100005836106212 0.0 0.0 0.0 0.0 0.0 0.0 
trait 2 0.0 0.0 0.2745656836152613 0.0 0.0596584850938382 0.29758729215697666 0.4434326801698363 0.0 
trait 3 0.1770668262601972 0.0 1.1646136890459076 0.0 0.2879334855204876 0.0 0.305630474635493 0.0 
node 1 1 1 1
node 2 1 1 1
node 3 1 1 3
node 4 1 0 2
node 12 2 0 0
node 14 1 0 0
node 15 2 0 0
node 193 1 0 0
node 298 1 0 0
gene  1 1 4 -16.080194285028035 0 1.0 -16.080194285028035 0
gene  2 2 4 -22.429234861827027 0 2.0 -22.429234861827027 1
gene  1 3 4 17.057446614544762 0 3.0 17.057446614544762 1
gene  1 1 14 2.504127061267009 0 35.0 2.504127061267009 1
gene  2 14 4 -9.576710256782311 0 36.0 -9.576710256782311 1
gene  1 1 15 -1.9103092923981484 0 40.0 -1.9103092923981484 1
gene  2 15 12 2.1093453006763934 0 41.0 2.1093453006763934 1
gene  3 3 15 -1.9195754489700358 0 92.0 -1.9195754489700358 1
gene  3 2 15 -0.6384556274147468 0 159.0 -0.6384556274147468 1
gene  2 2 12 4.828794910954542 0 208.0 4.828794910954542 1
gene  1 14 15 9.21844462724162 0 399.0 9.21844462724162 1
gene  2 4 15 -3.797601776744184 0 639.0 -3.797601776744184 1
gene  2 3 12 -6.448971641334504 0 902.0 -6.448971641334504 1
gene  1 1 193 -8.494522722935502 0 946.0 -8.494522722935502 1
gene  1 193 4 -0.10459760661926687 0 947.0 -0.10459760661926687 1
gene  3 3 14 -3.3747439495048797 0 965.0 -3.3747439495048797 1
gene  1 3 193 7.045521666125576 0 1134.0 7.045521666125576 1
gene  3 193 15 0.5306404108192961 0 1158.0 0.5306404108192961 1
gene  3 2 193 8.577043567499286 0 1200.0 8.577043567499286 1
gene  1 1 298 3.3667066974957383 0 1419.0 3.3667066974957383 1
gene  1 298 15 -4.882625563660566 0 1420.0 -4.882625563660566 1
genomeend 11
/* Organism # 012 Fitness:  9,000 Error:  1,000                      */
genomestart  12
trait 1 0.8852445140920412 0.4100005836106212 0.0 0.0 0.0 0.0 0.0 0.0 
trait 2 0.1 0.0 0.2745656836152613 0.8163729433678998 0.0 0.3301629726161752 0.4434326801698363 0.0 
trait 3 0.1770668262601972 0.0 1.1646136890459076 0.0 0.2879334855204876 0.0 0.305630474635493 0.0 
node 1 1 1 1
node 2 1 1 1
node 3 1 1 3
node 4 1 0 2
node 12 2 0 0
node 14 1 0 0
node 15 2 0 0
node 193 1 0 0
node 298 1 0 0
gene  1 1 4 -15.952369292401038 0 1.0 -15.952369292401038 0
gene  2 2 4 -18.515406206338085 0 2.0 -18.515406206338085 1
gene  1 3 4 19.151084827252884 0 3.0 19.151084827252884 1
gene  1 1 14 2.3757595224698234 0 35.0 2.3757595224698234 1
gene  2 14 4 -9.371455208995066 0 36.0 -9.371455208995066 1
gene  1 1 15 -1.6140135782611504 0 40.0 -1.6140135782611504 1
gene  2 15 12 -1.9566821071191398 0 41.0 -1.9566821071191398 1
gene  3 3 15 -0.603264266136539 0 92.0 -0.603264266136539 1
gene  3 2 15 3.465081130760626 0 159.0 3.465081130760626 1
gene  2 2 12 5.5891812860255765 0 208.0 5.5891812860255765 1
gene  1 14 15 5.538007985775157 0 399.0 5.538007985775157 1
gene  2 4 15 -4.606033817464452 0 639.0 -4.606033817464452 1
gene  2 3 12 -9.407643321565374 0 902.0 -9.407643321565374 1
gene  1 1 193 -10.734937765089247 0 946.0 -10.734937765089247 1
gene  1 193 4 -2.174804189599533 0 947.0 -2.174804189599533 1
gene  3 3 14 -0.9549764433772847 0 965.0 -0.9549764433772847 1
gene  1 3 193 7.021766274549163 0 1134.0 7.021766274549163 1
gene  3 193 15 -6.541739503777749 0 1158.0 -6.541739503777749 1
gene  3 2 193 1.978982058965184 0 1200.0 1.978982058965184 1
gene  1 1 298 0.3839359802794548 0 1419.0 0.3839359802794548 1
gene  1 298 15 -1.9183573369929894 0 1420.0 -1.9183573369929894 1
genomeend 12
/* Organism # 013 Fitness:  9,000 Error:  1,000                      */
genomestart  13
trait 1 0.8852445140920412 0.4100005836106212 0.0 0.0 0.0 0.0 0.0 0.0 
trait 2 0.1 0.0 0.2745656836152613 0.8163729433678998 0.0 0.3301629726161752 0.4434326801698363 0.0 
trait 3 0.1770668262601972 0.0 1.1646136890459076 0.0 0.2879334855204876 0.0 0.305630474635493 0.0 
node 1 1 1 1
node 2 1 1 1
node 3 1 1 3
node 4 1 0 2
node 12 2 0 0
node 14 1 0 0
node 15 2 0 0
node 193 1 0 0
node 298 1 0 0
gene  1 1 4 -16.638852306194078 0 1.0 -16.638852306194078 0
gene  2 2 4 -22.822533766901113 0 2.0 -22.822533766901113 1
gene  1 3 4 19.52083453360436 0 3.0 19.52083453360436 1
gene  1 1 14 0.1004432886381954 0 35.0 0.1004432886381954 1
gene  2 14 4 -9.818351299770406 0 36.0 -9.818351299770406 1
gene  1 1 15 -0.5847583778248719 0 40.0 -0.5847583778248719 1
gene  2 15 12 -1.7611950180832687 0 41.0 -1.7611950180832687 1
gene  3 3 15 -0.608137513163836 0 92.0 -0.608137513163836 1
gene  3 2 15 0.3847208705730405 0 159.0 0.3847208705730405 1
gene  2 2 12 4.778525407198315 0 208.0 4.778525407198315 1
gene  1 14 15 10.163417605772926 0 399.0 10.163417605772926 1
gene  2 4 15 -2.8497073641023314 0 639.0 -2.8497073641023314 1
gene  2 3 12 -8.59547591080675 0 902.0 -8.59547591080675 1
gene  1 1 193 -6.507917239653581 0 946.0 -6.507917239653581 1
gene  1 193 4 -4.342240301138926 0 947.0 -4.342240301138926 1
gene  3 3 14 0.5927026754493827 0 965.0 0.5927026754493827 1
gene  1 3 193 6.404533820888264 0 1134.0 6.404533820888264 1
gene  3 193 15 1.2872357241402077 0 1158.0 1.2872357241402077 1
gene  3 2 193 8.094712658145111 0 1200.0 8.094712658145111 1
gene  1 1 298 2.3661162444791217 0 1419.0 2.3661162444791217 1
gene  1 298 15 -2.541360826279832 0 1420.0 -2.541360826279832 1
genomeend 13
/*-------------------------------------------------------------------*/
/* Species # 008         : (size= 004) (AvfFit= 5,250) (Age= 81,000)  */
/*-------------------------------------------------------------------*/
/* Organism # 014 Fitness:  4,000 Error:  2,000                      */
genomestart  14
trait 1 0.24065012538159075 0.15036456107791457 0.4671000768679908 0.0594094503700963 0.25417881566220435 0.07082942154753001 0.0 0.06928844706069931 
trait 2 0.2 0.0 0.0 0.7487491463443907 0.0 0.0 0.9634715117673269 0.7605341668328263 
trait 3 0.0 0.8312315010259594 0.6832395693760575 1.1076980566392902 0.0 0.0 0.7669643444852611 0.0 
node 1 1 1 1
node 2 1 1 1
node 3 3 1 3
node 4 2 0 2
node 5 1 0 0
node 7 3 0 0
node 11 1 0 0
node 128 1 0 0
node 167 1 0 0
node 257 1 0 0
node 285 1 0 0
gene  1 1 4 6.336627602110488 0 1.0 6.336627602110488 1
gene  1 2 4 2.366305057411603 0 2.0 2.366305057411603 1
gene  1 3 4 19.808519272418536 0 3.0 19.808519272418536 1
gene  3 1 5 1.090635609089212 0 4.0 1.090635609089212 1
gene  1 5 4 0.8938749798939685 0 5.0 0.8938749798939685 1
gene  1 2 5 -25.06220969302737 0 9.0 -25.06220969302737 1
gene  1 1 7 -2.5521467884663007 0 10.0 -2.5521467884663007 1
gene  1 7 4 3.1371899136683763 0 11.0 3.1371899136683763 1
gene  2 2 11 -9.284428739647336 0 23.0 -9.284428739647336 1
gene  3 11 4 -1.1254546644037728 0 24.0 -1.1254546644037728 1
gene  2 11 7 1.462300975880554 0 83.0 1.462300975880554 1
gene  1 3 5 1.4534345897160201 0 500.0 1.4534345897160201 1
gene  1 1 128 -0.3818762955308666 0 589.0 -0.3818762955308666 1
gene  1 128 7 -1.4766514083211602 0 590.0 -1.4766514083211602 1
gene  1 2 7 -6.980703982514761 0 787.0 -6.980703982514761 0
gene  1 2 167 5.267550160056618 0 808.0 5.267550160056618 1
gene  1 167 7 -0.6780426250078389 0 809.0 -0.6780426250078389 1
gene  3 128 5 0.648002037212021 0 893.0 0.648002037212021 1
gene  3 2 128 -3.7743044376719466 0 923.0 -3.7743044376719466 1
gene  1 128 11 -4.86658468712494 0 1097.0 -4.86658468712494 1
gene  1 5 7 2.4430373130577063 0 1160.0 2.4430373130577063 1
gene  2 11 257 1.3650616074013517 0 1229.0 1.3650616074013517 1
gene  2 257 7 2.4314051886489203 0 1230.0 2.4314051886489203 1
gene  3 2 285 0.7083239168357096 0 1343.0 0.7083239168357096 1
gene  3 285 128 -0.12472772160115747 0 1344.0 -0.12472772160115747 1
gene  3 11 5 13.219359239915079 0 1432.0 13.219359239915079 1
genomeend 14
/* Organism # 015 Fitness:  4,000 Error:  2,000                      */
genomestart  15
trait 1 0.24065012538159075 0.15036456107791457 0.4671000768679908 0.0594094503700963 0.25417881566220435 0.07082942154753001 0.0 0.06928844706069931 
trait 2 0.2 0.0 0.0 0.7487491463443907 0.0 0.0 0.9634715117673269 0.7605341668328263 
trait 3 0.0 0.0 0.6832395693760575 1.1076980566392902 0.0 0.0 0.6785933347238949 0.7020846682151001 
node 1 1 1 1
node 2 1 1 1
node 3 3 1 3
node 4 2 0 2
node 5 1 0 0
node 7 3 0 0
node 11 1 0 0
node 128 1 0 0
node 167 1 0 0
node 257 1 0 0
node 285 1 0 0
gene  1 1 4 4.230362001917702 0 1.0 4.230362001917702 1
gene  1 2 4 0.36464939973601673 0 2.0 0.36464939973601673 1
gene  1 3 4 -0.023633948414744643 0 3.0 -0.023633948414744643 1
gene  3 1 5 1.516160782973595 0 4.0 1.516160782973595 1
gene  1 5 4 -15.80649089455946 0 5.0 -15.80649089455946 1
gene  1 2 5 -24.91996254565669 0 9.0 -24.91996254565669 1
gene  1 1 7 -0.6077858687097675 0 10.0 -0.6077858687097675 1
gene  1 7 4 4.687485025028542 0 11.0 4.687485025028542 1
gene  2 2 11 -11.483391989581566 0 23.0 -11.483391989581566 1
gene  3 11 4 0.5736817703490011 0 24.0 0.5736817703490011 1
gene  2 11 7 1.309746532177833 0 83.0 1.309746532177833 0
gene  1 3 5 0.5914749939953906 0 500.0 0.5914749939953906 1
gene  1 1 128 0.9115679597636048 0 589.0 0.9115679597636048 1
gene  1 128 7 -1.829847306161835 0 590.0 -1.829847306161835 1
gene  1 2 7 -8.320964164782037 0 787.0 -8.320964164782037 0
gene  1 2 167 3.893330584875782 0 808.0 3.893330584875782 1
gene  1 167 7 -1.5580630666638076 0 809.0 -1.5580630666638076 1
gene  3 128 5 0.32390038593962855 0 893.0 0.32390038593962855 1
gene  3 2 128 -6.1933655580529665 0 923.0 -6.1933655580529665 0
gene  1 128 11 -3.647368410668527 0 1097.0 -3.647368410668527 1
gene  1 5 7 2.0020818300125818 0 1160.0 2.0020818300125818 1
gene  2 11 257 0.9135843206928355 0 1229.0 0.9135843206928355 1
gene  2 257 7 0.9404444932165443 0 1230.0 0.9404444932165443 1
gene  3 2 285 0.02639208480274391 0 1343.0 0.02639208480274391 1
gene  3 285 128 -1.4584291977491577 0 1344.0 -1.4584291977491577 1
gene  3 11 5 1.330310441399131 0 1432.0 1.330310441399131 1
genomeend 15
/* Organism # 016 Fitness:  9,000 Error:  1,000                      */
genomestart  16
trait 1 0.24065012538159075 0.15036456107791457 0.4671000768679908 0.0594094503700963 0.25417881566220435 0.07082942154753001 0.0 0.06928844706069931 
trait 2 0.2 0.0 0.0 0.7487491463443907 0.0 0.0 0.9634715117673269 0.7605341668328263 
trait 3 0.0 0.8312315010259594 0.6832395693760575 1.1076980566392902 0.0 0.0 0.7669643444852611 0.0 
node 1 1 1 1
node 2 1 1 1
node 3 3 1 3
node 4 2 0 2
node 5 1 0 0
node 7 3 0 0
node 11 1 0 0
node 128 1 0 0
node 167 1 0 0
node 257 1 0 0
node 285 1 0 0
gene  1 1 4 4.06442610648173 0 1.0 4.06442610648173 1
gene  1 2 4 0.6631100863725418 0 2.0 0.6631100863725418 1
gene  1 3 4 17.19498513243199 0 3.0 17.19498513243199 1
gene  3 1 5 12.290035661265193 0 4.0 12.290035661265193 1
gene  1 5 4 -16.581364144173396 0 5.0 -16.581364144173396 1
gene  1 2 5 -24.219911328097744 0 9.0 -24.219911328097744 1
gene  1 1 7 -2.4238391779797865 0 10.0 -2.4238391779797865 1
gene  1 7 4 4.449684387169235 0 11.0 4.449684387169235 1
gene  2 2 11 -9.52782715061715 0 23.0 -9.52782715061715 1
gene  3 11 4 -1.405184909381997 0 24.0 -1.405184909381997 1
gene  2 11 7 0.2515464853431665 0 83.0 0.2515464853431665 0
gene  1 3 5 2.378206030182913 0 500.0 2.378206030182913 1
gene  1 1 128 1.416265528238173 0 589.0 1.416265528238173 1
gene  1 128 7 -1.6714740779326052 0 590.0 -1.6714740779326052 1
gene  1 2 7 -9.339051401664415 0 787.0 -9.339051401664415 0
gene  1 2 167 6.723775749742641 0 808.0 6.723775749742641 1
gene  1 167 7 -1.9663623969994284 0 809.0 -1.9663623969994284 1
gene  3 128 5 3.083955269091738 0 893.0 3.083955269091738 1
gene  3 2 128 -4.783929564072019 0 923.0 -4.783929564072019 0
gene  1 128 11 -4.782262572318748 0 1097.0 -4.782262572318748 1
gene  1 5 7 1.036944456945839 0 1160.0 1.036944456945839 1
gene  2 11 257 0.9135843206928355 0 1229.0 0.9135843206928355 1
gene  2 257 7 2.2326082033062775 0 1230.0 2.2326082033062775 1
gene  3 2 285 0.8211919833012093 0 1343.0 0.8211919833012093 1
gene  3 285 128 -3.903540095662366 0 1344.0 -3.903540095662366 1
gene  3 11 5 14.73748435894542 0 1432.0 14.73748435894542 1
genomeend 16
/* Organism # 017 Fitness:  4,000 Error:  2,000                      */
genomestart  17
trait 1 0.24065012538159075 0.15036456107791457 0.4671000768679908 0.0594094503700963 0.25417881566220435 0.07082942154753001 0.0 0.06928844706069931 
trait 2 0.2 0.0 0.0 0.7487491463443907 0.0 0.0 0.9634715117673269 0.7605341668328263 
trait 3 0.0 0.8312315010259594 0.6832395693760575 1.1076980566392902 0.0 0.0 0.7669643444852611 0.0 
node 1 1 1 1
node 2 1 1 1
node 3 3 1 3
node 4 2 0 2
node 5 1 0 0
node 7 3 0 0
node 11 1 0 0
node 128 1 0 0
node 167 1 0 0
node 257 1 0 0
node 285 1 0 0
gene  1 1 4 -1.299360440086066 0 1.0 -1.299360440086066 1
gene  1 2 4 1.6553856268200937 0 2.0 1.6553856268200937 1
gene  1 3 4 19.523159395264027 0 3.0 19.523159395264027 1
gene  3 1 5 11.744289898844107 0 4.0 11.744289898844107 1
gene  1 5 4 -12.497131372150463 0 5.0 -12.497131372150463 1
gene  1 2 5 -0.9536112237404235 0 9.0 -0.9536112237404235 1
gene  1 1 7 -1.3342330014259616 0 10.0 -1.3342330014259616 1
gene  1 7 4 5.115986785971657 0 11.0 5.115986785971657 1
gene  2 2 11 -9.372869188130947 0 23.0 -9.372869188130947 1
gene  3 11 4 2.4245588424992075 0 24.0 2.4245588424992075 1
gene  2 11 7 0.6028659390990653 0 83.0 0.6028659390990653 0
gene  1 3 5 1.4534345897160201 0 500.0 1.4534345897160201 1
gene  1 1 128 4.440724533705815 0 589.0 4.440724533705815 1
gene  1 128 7 -1.4628339791083245 0 590.0 -1.4628339791083245 1
gene  1 2 7 -7.259123760929969 0 787.0 -7.259123760929969 0
gene  1 2 167 3.0747266026204 0 808.0 3.0747266026204 1
gene  1 167 7 -0.522443188585785 0 809.0 -0.522443188585785 1
gene  3 128 5 0.29926414445940575 0 893.0 0.29926414445940575 1
gene  3 2 128 -5.355148026849129 0 923.0 -5.355148026849129 0
gene  1 128 11 -4.845595205450943 0 1097.0 -4.845595205450943 1
gene  1 5 7 3.9457214195829913 0 1160.0 3.9457214195829913 1
gene  2 11 257 0.6500881734009711 0 1229.0 0.6500881734009711 1
gene  2 257 7 -2.1112600080413757 0 1230.0 -2.1112600080413757 1
gene  3 2 285 -3.2402879798643536 0 1343.0 -3.2402879798643536 1
gene  3 285 128 -5.596391584227408 0 1344.0 -5.596391584227408 1
gene  3 11 5 11.059999686188075 0 1432.0 11.059999686188075 1
genomeend 17
/*-------------------------------------------------------------------*/
/* Species # 010         : (size= 004) (AvfFit= 9,000) (Age= 80,000)  */
/*-------------------------------------------------------------------*/
/* Organism # 018 Fitness:  9,000 Error:  1,000                      */
genomestart  18
trait 1 0.1 0.12337605011521194 0.0 0.0 0.0 0.03212569888679681 0.0 0.0223559206539692 
trait 2 0.2 0.7428131076073421 0.0 0.6194596212085887 0.0 0.0 0.0 0.0 
trait 3 0.0 0.0 0.49640954461309594 0.0 0.0 0.5634905550359267 0.802104184087284 0.0 
node 1 3 1 1
node 2 3 1 1
node 3 1 1 3
node 4 3 0 2
node 5 1 0 0
node 7 2 0 0
node 12 1 0 0
gene  1 1 4 -14.989677746098051 0 1.0 -14.989677746098051 1
gene  1 2 4 26.921175671073094 0 2.0 26.921175671073094 1
gene  3 3 4 -26.127741281564916 0 3.0 -26.127741281564916 1
gene  1 1 5 -6.733983785502122 0 4.0 -6.733983785502122 1
gene  1 5 4 3.481938826835125 0 5.0 3.481938826835125 1
gene  1 1 7 -2.8016035466374634 0 10.0 -2.8016035466374634 1
gene  1 7 4 -7.578690122113324 0 11.0 -7.578690122113324 1
gene  1 1 12 -2.539161807227474 0 25.0 -2.539161807227474 1
gene  1 12 4 1.8288350010987058 0 26.0 1.8288350010987058 1
gene  2 2 7 -7.982266300757706 0 577.0 -7.982266300757706 1
gene  2 5 7 -3.1721936095370333 0 686.0 -3.1721936095370333 1
gene  2 12 7 -1.4984145753414881 0 725.0 -1.4984145753414881 1
gene  1 3 7 0.846127742619704 0 1045.0 0.846127742619704 1
gene  3 5 12 -2.153109324101254 0 1249.0 -2.153109324101254 1
gene  2 3 5 8.335250250695166 0 1379.0 8.335250250695166 1
gene  3 3 12 5.635559248529205 0 1463.0 5.635559248529205 1
genomeend 18
/* Organism # 019 Fitness:  9,000 Error:  1,000                      */
genomestart  19
trait 1 0.1 0.12337605011521194 0.0 0.0 0.0 0.03212569888679681 0.0 0.0223559206539692 
trait 2 0.2 0.7428131076073421 0.0 0.6194596212085887 0.0 0.0 0.0 0.0 
trait 3 0.0 0.0 0.49640954461309594 0.0 0.0 0.5634905550359267 0.802104184087284 0.0 
node 1 3 1 1
node 2 3 1 1
node 3 1 1 3
node 4 3 0 2
node 5 1 0 0
node 7 2 0 0
node 12 1 0 0
gene  1 1 4 -14.058592939637386 0 1.0 -14.058592939637386 1
gene  1 2 4 27.106730498793052 0 2.0 27.106730498793052 1
gene  3 3 4 -25.660078764786263 0 3.0 -25.660078764786263 1
gene  1 1 5 -1.900077050446428 0 4.0 -1.900077050446428 1
gene  1 5 4 1.1791930242264084 0 5.0 1.1791930242264084 1
gene  1 1 7 -0.5046070375971392 0 10.0 -0.5046070375971392 1
gene  1 7 4 -7.653657481500196 0 11.0 -7.653657481500196 1
gene  1 1 12 -3.4290414040920734 0 25.0 -3.4290414040920734 1
gene  1 12 4 -0.26103828378668603 0 26.0 -0.26103828378668603 1
gene  2 2 7 -5.606517132804167 0 577.0 -5.606517132804167 1
gene  2 5 7 -0.04346982136082367 0 686.0 -0.04346982136082367 1
gene  2 12 7 -1.2249451358381365 0 725.0 -1.2249451358381365 1
gene  1 3 7 1.295736674287584 0 1045.0 1.295736674287584 1
gene  3 5 12 -2.153109324101254 0 1249.0 -2.153109324101254 1
gene  2 3 5 7.625083955819862 0 1379.0 7.625083955819862 1
gene  3 3 12 5.635559248529205 0 1463.0 5.635559248529205 1
genomeend 19
/* Organism # 020 Fitness:  9,000 Error:  1,000                      */
genomestart  20
trait 1 0.1 0.12337605011521194 0.0 0.0 0.0 0.03212569888679681 0.0 0.0223559206539692 
trait 2 0.2 0.7428131076073421 0.0 0.6194596212085887 0.0 0.0 0.0 0.0 
trait 3 0.0 0.0 0.49640954461309594 0.0 0.0 0.5634905550359267 0.802104184087284 0.0 
node 1 3 1 1
node 2 3 1 1
node 3 1 1 3
node 4 3 0 2
node 5 1 0 0
node 7 2 0 0
node 12 1 0 0
gene  1 1 4 -15.135380246885394 0 1.0 -15.135380246885394 1
gene  1 2 4 24.853084651031427 0 2.0 24.853084651031427 1
gene  3 3 4 -25.650283966193324 0 3.0 -25.650283966193324 1
gene  1 1 5 -5.281607303739785 0 4.0 -5.281607303739785 1
gene  1 5 4 2.3095956567173204 0 5.0 2.3095956567173204 1
gene  1 1 7 -1.49022483000785 0 10.0 -1.49022483000785 1
gene  1 7 4 -9.63770375050897 0 11.0 -9.63770375050897 1
gene  1 1 12 -1.8429840500730696 0 25.0 -1.8429840500730696 1
gene  1 12 4 1.0931560730052692 0 26.0 1.0931560730052692 1
gene  2 2 7 -5.606517132804167 0 577.0 -5.606517132804167 1
gene  2 5 7 -3.707742666756138 0 686.0 -3.707742666756138 1
gene  2 12 7 -0.13186057077235414 0 725.0 -0.13186057077235414 1
gene  1 3 7 2.101690613647622 0 1045.0 2.101690613647622 1
gene  3 5 12 -2.153109324101254 0 1249.0 -2.153109324101254 1
gene  2 3 5 8.335250250695166 0 1379.0 8.335250250695166 1
gene  1 3 12 5.635559248529205 0 1463.0 5.635559248529205 1
genomeend 20
/* Organism # 021 Fitness:  9,000 Error:  1,000                      */
genomestart  21
trait 1 0.1 0.12337605011521194 0.0 0.0 0.0 0.03212569888679681 0.0 0.0223559206539692 
trait 2 0.2 0.7428131076073421 0.0 0.6194596212085887 0.0 0.0 0.0 0.0 
trait 3 0.0 0.0 0.49640954461309594 0.0 0.0 0.5634905550359267 0.802104184087284 0.0 
node 1 3 1 1
node 2 3 1 1
node 3 1 1 3
node 4 3 0 2
node 5 1 0 0
node 7 2 0 0
node 12 3 0 0
gene  1 1 4 -13.04205184308749 0 1.0 -13.04205184308749 1
gene  1 2 4 25.015751632434394 0 2.0 25.015751632434394 1
gene  3 3 4 -24.321588802164555 0 3.0 -24.321588802164555 1
gene  1 1 5 -7.201260183877233 0 4.0 -7.201260183877233 1
gene  1 5 4 1.9017611887425057 0 5.0 1.9017611887425057 1
gene  1 1 7 -0.2275276974809357 0 10.0 -0.2275276974809357 1
gene  1 7 4 -7.8680292630646775 0 11.0 -7.8680292630646775 1
gene  1 1 12 -0.5989159089066329 0 25.0 -0.5989159089066329 1
gene  1 12 4 3.173102397870755 0 26.0 3.173102397870755 1
gene  2 2 7 -3.550623495207163 0 577.0 -3.550623495207163 1
gene  2 5 7 -1.9190306315471433 0 686.0 -1.9190306315471433 1
gene  2 12 7 -1.275474184619483 0 725.0 -1.275474184619483 1
gene  1 3 7 0.7472206150082443 0 1045.0 0.7472206150082443 1
gene  3 5 12 -4.004920134309383 0 1249.0 -4.004920134309383 1
gene  2 3 5 7.70830977733923 0 1379.0 7.70830977733923 1
gene  3 3 12 5.554081463524871 0 1463.0 5.554081463524871 1
genomeend 21
/*-------------------------------------------------------------------*/
/* Species # 012         : (size= 005) (AvfFit= 9,000) (Age= 79,000)  */
/*-------------------------------------------------------------------*/
/* Organism # 022 Fitness:  9,000 Error:  1,000                      */
genomestart  22
trait 1 0.1 0.0 0.0 0.0 0.0 0.0 0.0 0.0 
trait 2 0.2 0.0 0.7934835419022715 0.0 0.0 0.0 0.0 0.0 
trait 3 0.2589673195230027 0.0 1.3907975922300342 0.0 0.0 0.9998401091906934 0.0 0.18046604288540402 
node 1 1 1 1
node 2 1 1 1
node 3 3 1 3
node 4 3 0 2
node 12 2 0 0
node 15 1 0 0
node 196 1 0 0
gene  1 1 4 -1.2799114176803472 0 1.0 -1.2799114176803472 0
gene  3 2 4 -17.416308337379665 0 2.0 -17.416308337379665 1
gene  3 3 4 18.479732501183843 0 3.0 18.479732501183843 1
gene  2 1 12 -0.5759032994897941 0 25.0 -0.5759032994897941 0
gene  1 12 4 -17.686202247343086 0 26.0 -17.686202247343086 1
gene  1 1 15 -2.925039250903537 0 40.0 -2.925039250903537 1
gene  3 15 12 3.9754487640301663 0 41.0 3.9754487640301663 1
gene  1 2 15 0.6562562596740447 0 108.0 0.6562562596740447 1
gene  2 15 4 -2.2750108698737934 0 351.0 -2.2750108698737934 1
gene  2 3 15 -10.306240485425912 0 378.0 -10.306240485425912 1
gene  1 1 196 -2.2761595788676123 0 957.0 -2.2761595788676123 1
gene  1 196 4 -0.9950877051811607 0 958.0 -0.9950877051811607 1
gene  2 15 196 -13.917049509991914 0 1318.0 -13.917049509991914 1
gene  2 3 196 -0.8820138762650581 0 1349.0 -0.8820138762650581 1
gene  3 12 196 -6.216593751808147 0 1548.0 -6.216593751808147 1
genomeend 22
/* Organism # 023 Fitness:  9,000 Error:  1,000                      */
genomestart  23
trait 1 0.1 0.0 0.0 0.0 0.0 0.0 0.0 0.0 
trait 2 0.2 0.0 0.7934835419022715 0.0 0.0 0.0 0.0 0.0 
trait 3 0.2589673195230027 0.0 1.3907975922300342 0.0 0.0 0.9998401091906934 0.0 0.18046604288540402 
node 1 1 1 1
node 2 1 1 1
node 3 3 1 3
node 4 3 0 2
node 12 2 0 0
node 15 1 0 0
node 196 1 0 0
gene  1 1 4 -1.158229985008312 0 1.0 -1.158229985008312 0
gene  3 2 4 -19.264498850436244 0 2.0 -19.264498850436244 1
gene  3 3 4 16.234169479967377 0 3.0 16.234169479967377 1
gene  2 1 12 -2.4311764355848062 0 25.0 -2.4311764355848062 0
gene  1 12 4 -18.241625618613416 0 26.0 -18.241625618613416 1
gene  1 1 15 -3.352600710006199 0 40.0 -3.352600710006199 1
gene  3 15 12 4.309431821183233 0 41.0 4.309431821183233 1
gene  1 2 15 -0.6923888123734174 0 108.0 -0.6923888123734174 1
gene  2 15 4 -3.7114388592966443 0 351.0 -3.7114388592966443 1
gene  2 3 15 -12.232980837720643 0 378.0 -12.232980837720643 1
gene  1 1 196 -2.6890830590938775 0 957.0 -2.6890830590938775 1
gene  1 196 4 -2.3739001236985846 0 958.0 -2.3739001236985846 1
gene  2 15 196 -13.917049509991914 0 1318.0 -13.917049509991914 1
gene  2 3 196 -0.025802892283384504 0 1349.0 -0.025802892283384504 1
genomeend 23
/* Organism # 024 Fitness:  9,000 Error:  1,000                      */
genomestart  24
trait 1 0.1 0.0 0.0 0.0 0.0 0.0 0.0 0.0 
trait 2 0.0 0.8055508491466326 0.7934835419022715 1.5339215036435139 1.0214879539740775 0.0 0.0 0.0 
trait 3 0.2589673195230027 0.0 1.3907975922300342 0.0 0.0 0.9998401091906934 0.0 0.18046604288540402 
node 1 1 1 1
node 2 1 1 1
node 3 3 1 3
node 4 3 0 2
node 12 2 0 0
node 15 1 0 0
node 196 1 0 0
gene  1 1 4 2.957525189420488 0 1.0 2.957525189420488 0
gene  3 2 4 -21.17786632551904 0 2.0 -21.17786632551904 1
gene  3 3 4 18.308906600856226 0 3.0 18.308906600856226 1
gene  2 1 12 1.4241160768778551 0 25.0 1.4241160768778551 0
gene  1 12 4 -16.136107592319977 0 26.0 -16.136107592319977 1
gene  1 1 15 -4.997964853113002 0 40.0 -4.997964853113002 1
gene  3 15 12 0.8161480182062069 0 41.0 0.8161480182062069 1
gene  1 2 15 -2.3530367487498536 0 108.0 -2.3530367487498536 1
gene  2 15 4 -6.052999856858168 0 351.0 -6.052999856858168 1
gene  2 3 15 -6.007229103074667 0 378.0 -6.007229103074667 1
gene  1 1 196 1.338001767130912 0 957.0 1.338001767130912 1
gene  1 196 4 -1.7364841340482562 0 958.0 -1.7364841340482562 1
gene  2 15 196 -14.171329509218884 0 1318.0 -14.171329509218884 1
gene  2 3 196 0.20677916620037567 0 1349.0 0.20677916620037567 1
genomeend 24
/* Organism # 025 Fitness:  9,000 Error:  1,000                      */
genomestart  25
trait 1 0.1 0.0 0.0 0.0 0.0 0.0 0.0 0.0 
trait 2 0.0 0.0 0.7934835419022715 0.0 0.055312083464761685 0.0 0.0 0.0 
trait 3 0.2589673195230027 0.0 1.3907975922300342 0.0 0.0 0.9998401091906934 0.0 0.18046604288540402 
node 1 1 1 1
node 2 1 1 1
node 3 3 1 3
node 4 3 0 2
node 12 2 0 0
node 15 1 0 0
node 196 1 0 0
gene  1 1 4 -0.14725300711831957 0 1.0 -0.14725300711831957 0
gene  3 2 4 -18.04474939541653 0 2.0 -18.04474939541653 1
gene  3 3 4 16.22886563594758 0 3.0 16.22886563594758 1
gene  2 1 12 -2.1428880125942866 0 25.0 -2.1428880125942866 0
gene  1 12 4 -15.987039472046021 0 26.0 -15.987039472046021 1
gene  1 1 15 -4.226484878311735 0 40.0 -4.226484878311735 1
gene  3 15 12 4.362630794159312 0 41.0 4.362630794159312 1
gene  1 2 15 0.3337516771004507 0 108.0 0.3337516771004507 1
gene  2 15 4 -4.350566704457227 0 351.0 -4.350566704457227 1
gene  2 3 15 -11.16367044443602 0 378.0 -11.16367044443602 1
gene  1 1 196 -3.745512862711631 0 957.0 -3.745512862711631 1
gene  1 196 4 1.4950665328914114 0 958.0 1.4950665328914114 1
gene  2 15 196 0.58464879487509 0 1318.0 0.58464879487509 1
gene  2 3 196 -2.420224136324221 0 1349.0 -2.420224136324221 1
genomeend 25
/* Organism # 026 Fitness:  9,000 Error:  1,000                      */
genomestart  26
trait 1 0.1 0.0 0.0 0.0 0.0 0.0 0.0 0.0 
trait 2 0.2 0.0 0.7934835419022715 0.0 0.0 0.0 0.0 0.0 
trait 3 0.2589673195230027 0.0 1.3907975922300342 0.0 0.0 0.9998401091906934 0.0 0.18046604288540402 
node 1 1 1 1
node 2 1 1 1
node 3 3 1 3
node 4 3 0 2
node 12 2 0 0
node 15 1 0 0
node 196 1 0 0
gene  1 1 4 0.9296419777103251 0 1.0 0.9296419777103251 0
gene  3 2 4 -19.04672355380689 0 2.0 -19.04672355380689 1
gene  3 3 4 20.856911601275204 0 3.0 20.856911601275204 1
gene  2 1 12 -0.5542502479581309 0 25.0 -0.5542502479581309 0
gene  1 12 4 -19.657029246618514 0 26.0 -19.657029246618514 1
gene  1 1 15 -1.1001426963493133 0 40.0 -1.1001426963493133 1
gene  3 15 12 6.216045892553048 0 41.0 6.216045892553048 1
gene  1 2 15 1.9403238110795875 0 108.0 1.9403238110795875 1
gene  2 15 4 -0.7052453886160388 0 351.0 -0.7052453886160388 1
gene  2 3 15 -9.511647837724169 0 378.0 -9.511647837724169 1
gene  1 1 196 0.07094528850000925 0 957.0 0.07094528850000925 1
gene  1 196 4 -1.8661070415581142 0 958.0 -1.8661070415581142 1
gene  2 15 196 -13.917049509991914 0 1318.0 -13.917049509991914 1
gene  2 3 196 -0.8820138762650581 0 1349.0 -0.8820138762650581 1
genomeend 26
/*-------------------------------------------------------------------*/
/* Species # 014         : (size= 004) (AvfFit= 6,500) (Age= 78,000)  */
/*-------------------------------------------------------------------*/
/* Organism # 027 Fitness:  4,000 Error:  2,000                      */
genomestart  27
trait 1 0.07500000000000001 0.0 0.22421226832731533 0.0 0.4915457193315329 0.0 0.714235516743662 0.0 
trait 2 0.2 0.0 0.0 0.0 0.0 0.8182079139734598 0.43673230340626557 0.7039107179756289 
trait 3 0.03654132057142967 0.0 0.5323273535837271 1.270685368024714 0.3825507836751918 0.0465019797845172 1.2238577013879322 2.0313543512891585 
node 1 1 1 1
node 2 1 1 1
node 3 3 1 3
node 4 1 0 2
node 12 1 0 0
node 14 1 0 0
node 15 1 0 0
node 19 3 0 0
node 26 3 0 0
node 39 1 0 0
node 234 1 0 0
node 277 1 0 0
gene  3 1 4 -5.331203600448518 0 1.0 -5.331203600448518 1
gene  2 2 4 -5.968957487946192 0 2.0 -5.968957487946192 1
gene  3 3 4 18.07656348743526 0 3.0 18.07656348743526 1
gene  1 1 14 2.0260368552441532 0 35.0 2.0260368552441532 1
gene  1 14 4 -1.953640895245623 0 36.0 -1.953640895245623 1
gene  3 1 15 -0.9641876108361871 0 40.0 -0.9641876108361871 1
gene  1 15 12 2.434123141253072 0 41.0 2.434123141253072 1
gene  2 2 19 7.099224208716743 0 60.0 7.099224208716743 1
gene  2 19 4 -0.4585083195346365 0 61.0 -0.4585083195346365 1
gene  1 1 26 -2.8661876750148405 0 84.0 -2.8661876750148405 1
gene  1 26 14 3.8940206497246113 0 85.0 3.8940206497246113 1
gene  1 15 39 -5.737586105016627 0 145.0 -5.737586105016627 0
gene  2 39 12 1.2681669595116707 0 146.0 1.2681669595116707 1
gene  1 2 26 1.2781193849396761 0 459.0 1.2781193849396761 1
gene  3 39 26 -2.9690547803365392 0 1112.0 -2.9690547803365392 1
gene  1 15 234 4.585711963800821 0 1129.0 4.585711963800821 1
gene  1 234 39 2.3345429000646285 0 1130.0 2.3345429000646285 1
gene  1 19 26 1.9048258326309653 0 1166.0 1.9048258326309653 1
gene  2 26 12 1.242843800507464 0 1214.0 1.242843800507464 1
gene  2 26 277 -4.718260458447481 0 1309.0 -4.718260458447481 1
gene  2 277 12 4.115708096193593 0 1310.0 4.115708096193593 1
gene  1 26 4 13.495496433635642 0 1421.0 13.495496433635642 1
gene  1 277 4 -1.375078684451969 0 1523.0 -1.375078684451969 1
genomeend 27
/* Organism # 028 Fitness:  9,000 Error:  1,000                      */
genomestart  28
trait 1 0.07500000000000001 0.0 0.22421226832731533 0.0 0.4915457193315329 0.0 0.714235516743662 0.0 
trait 2 0.2 0.0 0.0 0.0 0.0 0.8182079139734598 0.43673230340626557 0.7039107179756289 
trait 3 0.03654132057142967 0.0 0.5323273535837271 1.270685368024714 0.3825507836751918 0.0465019797845172 1.2238577013879322 2.0313543512891585 
node 1 1 1 1
node 2 1 1 1
node 3 3 1 3
node 4 1 0 2
node 12 1 0 0
node 14 1 0 0
node 15 1 0 0
node 19 3 0 0
node 26 3 0 0
node 39 1 0 0
node 234 1 0 0
node 277 1 0 0
gene  3 1 4 -2.83325380288831 0 1.0 -2.83325380288831 1
gene  2 2 4 -6.586222793900051 0 2.0 -6.586222793900051 1
gene  3 3 4 16.145643608120604 0 3.0 16.145643608120604 1
gene  1 1 14 0.542364001525391 0 35.0 0.542364001525391 1
gene  1 14 4 4.748914256369266 0 36.0 4.748914256369266 1
gene  3 1 15 0.3731948761917374 0 40.0 0.3731948761917374 1
gene  1 15 12 0.10125853838598631 0 41.0 0.10125853838598631 1
gene  2 2 19 6.7895713673834726 0 60.0 6.7895713673834726 1
gene  2 19 4 -20.94301851417177 0 61.0 -20.94301851417177 1
gene  1 1 26 -2.9695349400989195 0 84.0 -2.9695349400989195 1
gene  1 26 14 3.8627915180792938 0 85.0 3.8627915180792938 1
gene  1 15 39 -5.737586105016627 0 145.0 -5.737586105016627 0
gene  2 39 12 1.2294429111930083 0 146.0 1.2294429111930083 1
gene  1 2 26 -0.7628753496003646 0 459.0 -0.7628753496003646 1
gene  3 39 26 -4.832548958266385 0 1112.0 -4.832548958266385 1
gene  1 15 234 3.3948358700928285 0 1129.0 3.3948358700928285 1
gene  1 234 39 2.4465091822993714 0 1130.0 2.4465091822993714 1
gene  1 19 26 -0.44514241300263135 0 1166.0 -0.44514241300263135 1
gene  2 26 12 1.242843800507464 0 1214.0 1.242843800507464 1
gene  2 26 277 -2.937133850796372 0 1309.0 -2.937133850796372 1
gene  2 277 12 3.888914114710968 0 1310.0 3.888914114710968 1
gene  1 26 4 11.916294238869003 0 1421.0 11.916294238869003 1
gene  1 277 4 0.23396581695231733 0 1523.0 0.23396581695231733 1
gene  2 3 14 -2.2735172504731835 0 1549.0 -2.2735172504731835 1
genomeend 28
/* Organism # 029 Fitness:  4,000 Error:  2,000                      */
genomestart  29
trait 1 0.07500000000000001 0.0 0.22421226832731533 0.0 0.4915457193315329 0.0 0.714235516743662 0.0 
trait 2 0.2 0.0 0.0 0.0 0.0 0.8182079139734598 0.43673230340626557 0.7039107179756289 
trait 3 0.03654132057142967 0.0 0.5323273535837271 1.270685368024714 0.3825507836751918 0.0465019797845172 1.2238577013879322 2.0313543512891585 
node 1 1 1 1
node 2 1 1 1
node 3 3 1 3
node 4 1 0 2
node 12 1 0 0
node 14 1 0 0
node 15 3 0 0
node 19 3 0 0
node 26 3 0 0
node 39 1 0 0
node 234 1 0 0
node 277 1 0 0
gene  3 1 4 -2.148214716619285 0 1.0 -2.148214716619285 1
gene  2 2 4 -7.049051556877744 0 2.0 -7.049051556877744 1
gene  3 3 4 1.7696024366305192 0 3.0 1.7696024366305192 1
gene  1 1 14 2.1594024388851425 0 35.0 2.1594024388851425 1
gene  1 14 4 0.4646221904894457 0 36.0 0.4646221904894457 1
gene  3 1 15 -1.3994348416878886 0 40.0 -1.3994348416878886 1
gene  1 15 12 -3.436488684407456 0 41.0 -3.436488684407456 1
gene  2 2 19 5.529108567358458 0 60.0 5.529108567358458 1
gene  2 19 4 -23.220120175469322 0 61.0 -23.220120175469322 1
gene  1 1 26 -7.045444698236394 0 84.0 -7.045444698236394 1
gene  1 26 14 5.8918832853097225 0 85.0 5.8918832853097225 1
gene  1 15 39 -5.12773878597494 0 145.0 -5.12773878597494 0
gene  2 39 12 -1.0074866027638556 0 146.0 -1.0074866027638556 1
gene  1 2 26 3.668745268632393 0 459.0 3.668745268632393 1
gene  3 39 26 -6.843241215424728 0 1112.0 -6.843241215424728 1
gene  1 15 234 3.4664614499617263 0 1129.0 3.4664614499617263 1
gene  1 234 39 1.7605963826626454 0 1130.0 1.7605963826626454 1
gene  1 19 26 -0.5129067066084438 0 1166.0 -0.5129067066084438 1
gene  2 26 12 1.0217486516146543 0 1214.0 1.0217486516146543 1
gene  2 26 277 0.13665927649151838 0 1309.0 0.13665927649151838 1
gene  2 277 12 3.9081877375911795 0 1310.0 3.9081877375911795 1
gene  1 26 4 13.878092944277531 0 1421.0 13.878092944277531 1
genomeend 29
/* Organism # 030 Fitness:  9,000 Error:  1,000                      */
genomestart  30
trait 1 0.07500000000000001 0.0 0.22421226832731533 0.0 0.4915457193315329 0.0 0.714235516743662 0.0 
trait 2 0.2 0.0 0.0 0.0 0.0 0.8182079139734598 0.43673230340626557 0.7039107179756289 
trait 3 0.03654132057142967 0.0 0.5323273535837271 1.270685368024714 0.3825507836751918 0.0465019797845172 1.2238577013879322 2.0313543512891585 
node 1 1 1 1
node 2 1 1 1
node 3 3 1 3
node 4 1 0 2
node 12 1 0 0
node 14 1 0 0
node 15 3 0 0
node 19 3 0 0
node 26 3 0 0
node 39 1 0 0
node 234 1 0 0
node 277 1 0 0
gene  3 1 4 -4.785683455811688 0 1.0 -4.785683455811688 1
gene  2 2 4 -6.578146413025629 0 2.0 -6.578146413025629 1
gene  3 3 4 18.51610409226129 0 3.0 18.51610409226129 1
gene  1 1 14 -2.3282880206955525 0 35.0 -2.3282880206955525 1
gene  1 14 4 7.196970309556457 0 36.0 7.196970309556457 1
gene  3 1 15 1.8637170830809968 0 40.0 1.8637170830809968 1
gene  1 15 12 -2.519854463801737 0 41.0 -2.519854463801737 1
gene  2 2 19 6.2890639283682575 0 60.0 6.2890639283682575 1
gene  2 19 4 -20.29361899232221 0 61.0 -20.29361899232221 1
gene  1 1 26 -2.972740343423763 0 84.0 -2.972740343423763 1
gene  1 26 14 5.6091862223900835 0 85.0 5.6091862223900835 1
gene  1 15 39 -4.731765687597941 0 145.0 -4.731765687597941 0
gene  2 39 12 0.21318180056548464 0 146.0 0.21318180056548464 1
gene  1 2 26 3.4467772944975312 0 459.0 3.4467772944975312 1
gene  3 39 26 -5.71367347503238 0 1112.0 -5.71367347503238 1
gene  1 15 234 6.5395217005434 0 1129.0 6.5395217005434 1
gene  1 234 39 5.018331787559054 0 1130.0 5.018331787559054 1
gene  1 19 26 1.717086779226877 0 1166.0 1.717086779226877 1
gene  2 26 12 1.2465137078730444 0 1214.0 1.2465137078730444 1
gene  2 26 277 0.13665927649151838 0 1309.0 0.13665927649151838 1
gene  2 277 12 3.888914114710968 0 1310.0 3.888914114710968 1
gene  1 26 4 12.717414536375712 0 1421.0 12.717414536375712 1
genomeend 30
/*-------------------------------------------------------------------*/
/* Species # 015         : (size= 004) (AvfFit= 7,750) (Age= 77,000)  */
/*-------------------------------------------------------------------*/
/* Organism # 031 Fitness:  4,000 Error:  2,000                      */
genomestart  31
trait 1 0.0 0.2980083218285674 0.6146215069883705 0.0 0.48642945093834966 0.44555401132109973 0.0 0.0 
trait 2 0.0 1.1204007568616854 1.1172044103779508 0.0 0.0 0.0 0.6779028454363701 0.3632018802468182 
trait 3 0.3 0.2808502343399747 0.0 0.0 0.0 0.0 0.0 0.0 
node 1 1 1 1
node 2 2 1 1
node 3 1 1 3
node 4 2 0 2
node 12 1 0 0
node 14 1 0 0
node 22 1 0 0
node 190 1 0 0
gene  3 1 4 0.9061382046772732 0 1.0 0.9061382046772732 1
gene  2 2 4 -2.4898130757294012 0 2.0 -2.4898130757294012 1
gene  2 3 4 20.756654614616373 0 3.0 20.756654614616373 1
gene  1 1 12 0.782680687625829 0 25.0 0.782680687625829 1
gene  1 1 14 13.042431976417777 0 35.0 13.042431976417777 1
gene  1 14 4 -14.77390708190548 0 36.0 -14.77390708190548 1
gene  1 1 22 1.9854161130038754 0 74.0 1.9854161130038754 1
gene  1 22 12 1.722561055787909 0 75.0 1.722561055787909 1
gene  3 2 12 -7.029291901871559 0 135.0 -7.029291901871559 1
gene  1 4 12 5.2364606050895794 0 784.0 5.2364606050895794 1
gene  2 1 190 1.0662778032602538 0 924.0 1.0662778032602538 1
gene  1 190 14 0.2010258648059826 0 925.0 0.2010258648059826 1
gene  1 3 22 11.62253162248271 0 974.0 11.62253162248271 1
gene  1 190 22 3.522413771852242 0 1021.0 3.522413771852242 1
gene  3 2 22 1.8801860703681768 0 1148.0 1.8801860703681768 1
gene  1 190 12 -0.695807351695144 0 1175.0 -0.695807351695144 1
gene  1 22 14 -3.7241605069972277 0 1498.0 -3.7241605069972277 1
gene  3 3 14 -0.31338509026240163 0 1526.0 -0.31338509026240163 1
genomeend 31
/* Organism # 032 Fitness:  9,000 Error:  1,000                      */
genomestart  32
trait 1 0.0 0.2980083218285674 0.6146215069883705 0.0 0.48642945093834966 0.44555401132109973 0.0 0.0 
trait 2 0.0 1.1204007568616854 1.1172044103779508 0.0 0.0 0.0 0.6779028454363701 0.3632018802468182 
trait 3 0.3 0.2808502343399747 0.0 0.0 0.0 0.0 0.0 0.0 
node 1 1 1 1
node 2 2 1 1
node 3 1 1 3
node 4 2 0 2
node 12 1 0 0
node 14 1 0 0
node 22 1 0 0
node 190 1 0 0
gene  3 1 4 0.4169755809740745 0 1.0 0.4169755809740745 1
gene  2 2 4 -14.07156049832233 0 2.0 -14.07156049832233 1
gene  2 3 4 20.4906265109688 0 3.0 20.4906265109688 1
gene  1 1 12 2.5146582305834193 0 25.0 2.5146582305834193 1
gene  1 1 14 13.519274700624205 0 35.0 13.519274700624205 1
gene  1 14 4 -11.169501163604368 0 36.0 -11.169501163604368 1
gene  1 1 22 0.35500463462980886 0 74.0 0.35500463462980886 1
gene  1 22 12 -3.7984667764839672 0 75.0 -3.7984667764839672 1
gene  3 2 12 -9.41624621089355 0 135.0 -9.41624621089355 1
gene  1 4 12 6.259743985864551 0 784.0 6.259743985864551 1
gene  2 1 190 3.7211912491950674 0 924.0 3.7211912491950674 1
gene  1 190 14 15.366468198942885 0 925.0 15.366468198942885 1
gene  1 3 22 7.370037858945556 0 974.0 7.370037858945556 1
gene  1 190 22 3.4522565868778803 0 1021.0 3.4522565868778803 1
gene  3 2 22 -0.27532310590152287 0 1148.0 -0.27532310590152287 1
gene  1 190 12 -0.2579465274177399 0 1175.0 -0.2579465274177399 1
gene  1 22 14 -3.1655816675710544 0 1498.0 -3.1655816675710544 1
gene  3 3 14 -2.6587088052487164 0 1526.0 -2.6587088052487164 1
genomeend 32
/* Organism # 033 Fitness:  9,000 Error:  1,000                      */
genomestart  33
trait 1 0.0 0.2980083218285674 0.6146215069883705 0.0 0.48642945093834966 0.44555401132109973 0.0 0.0 
trait 2 0.0 1.1204007568616854 1.1172044103779508 0.0 0.0 0.0 0.6779028454363701 0.3632018802468182 
trait 3 0.3 0.2808502343399747 0.0 0.0 0.0 0.0 0.0 0.0 
node 1 1 1 1
node 2 2 1 1
node 3 1 1 3
node 4 2 0 2
node 12 1 0 0
node 14 2 0 0
node 22 1 0 0
node 190 1 0 0
gene  3 1 4 1.602053918199709 0 1.0 1.602053918199709 1
gene  2 2 4 -15.326206761183498 0 2.0 -15.326206761183498 1
gene  2 3 4 19.212502234438855 0 3.0 19.212502234438855 1
gene  1 1 12 1.7994442155334085 0 25.0 1.7994442155334085 1
gene  1 1 14 11.567511574651931 0 35.0 11.567511574651931 1
gene  1 14 4 -15.219228836269638 0 36.0 -15.219228836269638 1
gene  1 1 22 4.240629515829548 0 74.0 4.240629515829548 1
gene  1 22 12 -5.461058795431208 0 75.0 -5.461058795431208 1
gene  3 2 12 -9.154901733646236 0 135.0 -9.154901733646236 1
gene  1 4 12 2.6555933412515733 0 784.0 2.6555933412515733 1
gene  2 1 190 3.9350767185865374 0 924.0 3.9350767185865374 1
gene  1 190 14 15.955496355922207 0 925.0 15.955496355922207 1
gene  1 3 22 1.7759812535005959 0 974.0 1.7759812535005959 1
gene  1 190 22 1.860340150163347 0 1021.0 1.860340150163347 1
gene  3 2 22 0.30487027900212804 0 1148.0 0.30487027900212804 1
gene  1 190 12 -0.35339856533942016 0 1175.0 -0.35339856533942016 1
gene  1 22 14 -2.4550621701569773 0 1498.0 -2.4550621701569773 1
gene  3 3 14 -5.262962119623298 0 1526.0 -5.262962119623298 1
genomeend 33
/* Organism # 034 Fitness:  9,000 Error:  1,000                      */
genomestart  34
trait 1 0.0 0.2980083218285674 0.6146215069883705 0.0 0.48642945093834966 0.44555401132109973 0.0 0.0 
trait 2 0.0 1.1204007568616854 1.1172044103779508 0.0 0.0 0.0 0.6779028454363701 0.3632018802468182 
trait 3 0.3 0.2808502343399747 0.0 0.0 0.0 0.0 0.0 0.0 
node 1 1 1 1
node 2 2 1 1
node 3 1 1 3
node 4 2 0 2
node 12 1 0 0
node 14 1 0 0
node 22 1 0 0
node 190 1 0 0
gene  3 1 4 2.9107504458599895 0 1.0 2.9107504458599895 1
gene  2 2 4 -16.56061014277505 0 2.0 -16.56061014277505 1
gene  2 3 4 19.212502234438855 0 3.0 19.212502234438855 1
gene  1 1 12 0.782680687625829 0 25.0 0.782680687625829 1
gene  1 1 14 13.838483626234222 0 35.0 13.838483626234222 1
gene  1 14 4 -13.016769899504606 0 36.0 -13.016769899504606 1
gene  1 1 22 4.240629515829548 0 74.0 4.240629515829548 1
gene  1 22 12 -5.492329763672721 0 75.0 -5.492329763672721 1
gene  3 2 12 -7.890323768683176 0 135.0 -7.890323768683176 1
gene  1 4 12 5.136517671336324 0 784.0 5.136517671336324 1
gene  2 1 190 3.4688636093380647 0 924.0 3.4688636093380647 1
gene  1 190 14 16.640486142086424 0 925.0 16.640486142086424 1
gene  1 3 22 9.84011048144595 0 974.0 9.84011048144595 1
gene  1 190 22 2.4570021431566342 0 1021.0 2.4570021431566342 1
gene  3 2 22 1.8801860703681768 0 1148.0 1.8801860703681768 1
gene  1 190 12 -0.2579465274177399 0 1175.0 -0.2579465274177399 1
gene  1 22 14 -2.9046015493897706 0 1498.0 -2.9046015493897706 1
gene  3 3 14 -3.812749408659987 0 1526.0 -3.812749408659987 1
gene  2 2 14 -0.3576351643465392 0 1552.0 -0.3576351643465392 1
genomeend 34
/*-------------------------------------------------------------------*/
/* Species # 018         : (size= 004) (AvfFit= 9,000) (Age= 72,000)  */
/*-------------------------------------------------------------------*/
/* Organism # 035 Fitness:  9,000 Error:  1,000                      */
genomestart  35
trait 1 0.0 0.0 0.0 0.0 0.0 0.0 0.0 0.0 
trait 2 0.2 0.0 0.0 0.8767583579261666 0.0 0.2674280559566201 0.7022674847929224 0.9548943508089329 
trait 3 0.3 0.0 0.9053946977087478 0.0 0.0 0.0 0.4128931582109574 0.29423463743535494 
node 1 2 1 1
node 2 2 1 1
node 3 3 1 3
node 4 1 0 2
node 36 2 0 0
node 244 1 0 0
gene  2 1 4 0.24723378238557248 0 1.0 0.24723378238557248 1
gene  3 2 4 18.886134583352117 0 2.0 18.886134583352117 1
gene  3 3 4 23.17297715652587 0 3.0 23.17297715652587 1
gene  1 1 36 10.62210950867496 0 133.0 10.62210950867496 0
gene  1 36 4 -9.960931327502792 0 134.0 -9.960931327502792 1
gene  1 3 36 1.3242036250188618 0 153.0 1.3242036250188618 1
gene  2 2 36 5.916961487699901 0 201.0 5.916961487699901 1
gene  1 1 244 9.786448307121677 0 1176.0 9.786448307121677 1
gene  1 244 36 6.700487406320816 0 1177.0 6.700487406320816 1
gene  1 2 244 -2.583145461352689 0 1403.0 -2.583145461352689 1
gene  3 244 4 -0.9257146368399571 0 1553.0 -0.9257146368399571 1
genomeend 35
/* Organism # 036 Fitness:  9,000 Error:  1,000                      */
genomestart  36
trait 1 0.0 0.0 0.0 0.0 0.0 0.0 0.0 0.0 
trait 2 0.2 0.0 0.0 0.8767583579261666 0.0 0.2674280559566201 0.7022674847929224 0.9548943508089329 
trait 3 0.3 0.0 0.9053946977087478 0.0 0.0 0.0 0.4128931582109574 0.29423463743535494 
node 1 2 1 1
node 2 2 1 1
node 3 3 1 3
node 4 1 0 2
node 36 2 0 0
node 244 1 0 0
node 335 1 0 0
gene  2 1 4 0.24723378238557248 0 1.0 0.24723378238557248 0
gene  3 2 4 18.886134583352117 0 2.0 18.886134583352117 1
gene  3 3 4 23.17297715652587 0 3.0 23.17297715652587 1
gene  1 1 36 10.62210950867496 0 133.0 10.62210950867496 0
gene  1 36 4 -9.960931327502792 0 134.0 -9.960931327502792 1
gene  1 3 36 1.3242036250188618 0 153.0 1.3242036250188618 1
gene  2 2 36 5.916961487699901 0 201.0 5.916961487699901 1
gene  1 1 244 9.786448307121677 0 1176.0 9.786448307121677 1
gene  1 244 36 6.700487406320816 0 1177.0 6.700487406320816 1
gene  1 2 244 -2.583145461352689 0 1403.0 -2.583145461352689 1
gene  2 1 335 1.0 0 1554.0 0.0 1
gene  2 335 4 0.24723378238557248 0 1555.0 0.0 1
genomeend 36
/* Organism # 037 Fitness:  9,000 Error:  1,000                      */
genomestart  37
trait 1 0.0 0.0 0.0 0.0 0.0 0.0 0.0 0.0 
trait 2 0.2 0.0 0.0 0.8767583579261666 0.0 0.2674280559566201 0.7022674847929224 0.9548943508089329 
trait 3 0.3 0.0 0.9053946977087478 0.0 0.0 0.0 0.4128931582109574 0.29423463743535494 
node 1 2 1 1
node 2 2 1 1
node 3 3 1 3
node 4 1 0 2
node 36 2 0 0
node 244 1 0 0
gene  2 1 4 2.036591956497556 0 1.0 2.036591956497556 1
gene  3 2 4 19.075559114261075 0 2.0 19.075559114261075 1
gene  3 3 4 24.342337450938082 0 3.0 24.342337450938082 1
gene  1 1 36 9.785506373490108 0 133.0 9.785506373490108 0
gene  1 36 4 -10.438783147658548 0 134.0 -10.438783147658548 1
gene  1 3 36 3.7935042453418846 0 153.0 3.7935042453418846 1
gene  2 2 36 7.507630214901984 0 201.0 7.507630214901984 1
gene  1 1 244 8.369809628502454 0 1176.0 8.369809628502454 1
gene  1 244 36 8.60566980347197 0 1177.0 8.60566980347197 1
gene  1 2 244 -2.583145461352689 0 1403.0 -2.583145461352689 1
genomeend 37
/* Organism # 038 Fitness:  9,000 Error:  1,000                      */
genomestart  38
trait 1 0.0 0.0 0.0 0.0 0.0 0.0 0.0 0.0 
trait 2 0.2 0.0 0.0 0.8767583579261666 0.0 0.2674280559566201 0.7022674847929224 0.9548943508089329 
trait 3 0.3 0.0 0.9053946977087478 0.0 0.0 0.0 0.4128931582109574 0.29423463743535494 
node 1 2 1 1
node 2 2 1 1
node 3 3 1 3
node 4 1 0 2
node 36 2 0 0
node 244 1 0 0
gene  2 1 4 0.24723378238557248 0 1.0 0.24723378238557248 1
gene  3 2 4 18.886134583352117 0 2.0 18.886134583352117 1
gene  3 3 4 23.17297715652587 0 3.0 23.17297715652587 1
gene  1 1 36 10.62210950867496 0 133.0 10.62210950867496 0
gene  1 36 4 -9.960931327502792 0 134.0 -9.960931327502792 1
gene  1 3 36 1.3242036250188618 0 153.0 1.3242036250188618 1
gene  2 2 36 5.916961487699901 0 201.0 5.916961487699901 1
gene  1 1 244 9.786448307121677 0 1176.0 9.786448307121677 1
gene  1 244 36 6.700487406320816 0 1177.0 6.700487406320816 1
gene  1 2 244 -2.583145461352689 0 1403.0 -2.583145461352689 1
gene  3 244 4 -0.9257146368399571 0 1553.0 0.0 1
genomeend 38
/*-------------------------------------------------------------------*/
/* Species # 020         : (size= 003) (AvfFit= 6,607) (Age= 70,000)  */
/*-------------------------------------------------------------------*/
/* Organism # 039 Fitness:  3,937 Error:  2,016                      */
genomestart  39
trait 1 0.053125000000000006 0.4047272515755067 0.0 0.9208890756846675 0.513019520848363 1.3301646237021116 0.0 0.0 
trait 2 0.2 0.0 0.0 0.0 0.0 0.0 0.0 0.0 
trait 3 0.16095373577986377 0.0 0.0 0.0 0.0 0.0 0.5268393200346156 0.0 
node 1 2 1 1
node 2 1 1 1
node 3 1 1 3
node 4 3 0 2
node 14 2 0 0
node 43 2 0 0
node 213 1 0 0
gene  1 1 4 2.4769851976281827 0 1.0 2.4769851976281827 0
gene  2 2 4 -1.3803722075790352 0 2.0 -1.3803722075790352 1
gene  3 3 4 0.5709116167915518 0 3.0 0.5709116167915518 1
gene  1 1 14 0.07058414991785084 0 35.0 0.07058414991785084 1
gene  1 14 4 3.415152470113291 0 36.0 3.415152470113291 1
gene  1 2 14 -0.9084799990597298 0 149.0 -0.9084799990597298 1
gene  1 1 43 8.059660602416262 0 175.0 8.059660602416262 1
gene  2 43 14 -6.268106914148804 0 176.0 -6.268106914148804 1
gene  1 3 43 -6.369924715204254 0 469.0 -6.369924715204254 1
gene  3 3 14 -1.160441929692321 0 689.0 -1.160441929692321 1
gene  2 43 4 -1.9822155433602882 0 803.0 -1.9822155433602882 1
gene  2 2 43 -12.479880061360944 0 900.0 -12.479880061360944 1
gene  1 1 213 -6.980366232749138 0 1030.0 -6.980366232749138 1
gene  1 213 4 -1.6902059173236743 0 1031.0 -1.6902059173236743 1
gene  2 43 213 0.550875983476539 0 1118.0 0.550875983476539 1
gene  1 3 213 -1.2005070336965649 0 1367.0 -1.2005070336965649 1
gene  3 14 213 0.7010556158494446 0 1492.0 0.7010556158494446 1
genomeend 39
/* Organism # 040 Fitness:  11,885 Error:  0,553                      */
genomestart  40
trait 1 0.053125000000000006 0.4047272515755067 0.0 0.9208890756846675 0.513019520848363 1.3301646237021116 0.0 0.0 
trait 2 0.2 0.0 0.0 0.0 0.0 0.0 0.0 0.0 
trait 3 0.16095373577986377 0.0 0.0 0.0 0.0 0.0 0.5268393200346156 0.0 
node 1 2 1 1
node 2 1 1 1
node 3 1 1 3
node 4 3 0 2
node 14 2 0 0
node 43 2 0 0
node 213 1 0 0
gene  1 1 4 -3.30229899549779 0 1.0 -3.30229899549779 0
gene  2 2 4 -1.3320732024335868 0 2.0 -1.3320732024335868 1
gene  3 3 4 -2.084468017412735 0 3.0 -2.084468017412735 1
gene  1 1 14 12.72177099842064 0 35.0 12.72177099842064 1
gene  1 14 4 3.4593606853848784 0 36.0 3.4593606853848784 1
gene  1 2 14 -0.4677823336123557 0 149.0 -0.4677823336123557 1
gene  1 1 43 2.7435298027740744 0 175.0 2.7435298027740744 1
gene  2 43 14 -4.286535360311919 0 176.0 -4.286535360311919 1
gene  1 3 43 -6.850708608292229 0 469.0 -6.850708608292229 1
gene  3 3 14 -0.11551606884936061 0 689.0 -0.11551606884936061 1
gene  2 43 4 -13.178171720902789 0 803.0 -13.178171720902789 1
gene  2 2 43 -10.443911385517401 0 900.0 -10.443911385517401 1
gene  1 1 213 -6.229443865452399 0 1030.0 -6.229443865452399 1
gene  1 213 4 1.8173778179685296 0 1031.0 1.8173778179685296 1
gene  2 43 213 3.7815206154734713 0 1118.0 3.7815206154734713 1
gene  1 3 213 4.833770779748412 0 1367.0 4.833770779748412 1
gene  3 14 213 5.791945775285762 0 1492.0 5.791945775285762 1
gene  2 2 213 -7.050196475537247 0 1522.0 -7.050196475537247 1
genomeend 40
/* Organism # 041 Fitness:  4,000 Error:  2,000                      */
genomestart  41
trait 1 0.053125000000000006 0.4047272515755067 0.0 0.9208890756846675 0.513019520848363 1.3301646237021116 0.0 0.0 
trait 2 0.2 0.0 0.0 0.0 0.0 0.0 0.0 0.0 
trait 3 0.16095373577986377 0.0 0.0 0.0 0.0 0.0 0.5268393200346156 0.0 
node 1 2 1 1
node 2 1 1 1
node 3 1 1 3
node 4 3 0 2
node 14 2 0 0
node 43 2 0 0
node 213 1 0 0
gene  1 1 4 1.9710605737512892 0 1.0 1.9710605737512892 0
gene  2 2 4 -5.55320478353135 0 2.0 -5.55320478353135 1
gene  3 3 4 0.017572763327794283 0 3.0 0.017572763327794283 1
gene  1 1 14 9.357492252235897 0 35.0 9.357492252235897 1
gene  1 14 4 2.9786205446420797 0 36.0 2.9786205446420797 1
gene  1 2 14 -2.7515681319473853 0 149.0 -2.7515681319473853 1
gene  1 1 43 6.303225434949411 0 175.0 6.303225434949411 1
gene  2 43 14 -5.004316076536355 0 176.0 -5.004316076536355 1
gene  1 3 43 1.1169668766465897 0 469.0 1.1169668766465897 1
gene  3 3 14 -2.0062339537995073 0 689.0 -2.0062339537995073 1
gene  2 43 4 -13.048618329784237 0 803.0 -13.048618329784237 1
gene  2 2 43 -13.111908658250135 0 900.0 -13.111908658250135 1
gene  1 1 213 -8.20885204517751 0 1030.0 -8.20885204517751 1
gene  1 213 4 -0.15205469631587704 0 1031.0 -0.15205469631587704 1
gene  2 43 213 0.9773795146236992 0 1118.0 0.9773795146236992 1
gene  1 3 213 1.477724044416496 0 1367.0 1.477724044416496 1
gene  3 14 213 7.114345364774833 0 1492.0 7.114345364774833 1
genomeend 41
/*-------------------------------------------------------------------*/
/* Species # 021         : (size= 002) (AvfFit= 3,988) (Age= 70,000)  */
/*-------------------------------------------------------------------*/
/* Organism # 042 Fitness:  3,976 Error:  2,006                      */
genomestart  42
trait 1 0.3943518152472121 0.6091503535315591 0.498704435481923 0.0 0.01021803802828668 0.0 0.0 0.0018338841161459108 
trait 2 0.0 0.0 1.2213904221528333 1.00284371452278 0.0 0.053905945621628315 0.0 0.0266024266482342 
trait 3 0.0 0.11288121054901043 0.9277318827308184 0.0 0.009616806161856204 0.0 0.0 0.0 
node 1 1 1 1
node 2 1 1 1
node 3 1 1 3
node 4 2 0 2
node 5 2 0 0
node 48 1 0 0
node 109 2 0 0
node 159 1 0 0
node 275 1 0 0
node 317 1 0 0
gene  1 1 4 5.753089149272761 0 1.0 5.753089149272761 1
gene  2 2 4 2.2726905799604356 0 2.0 2.2726905799604356 1
gene  3 3 4 -4.669536291522758 0 3.0 -4.669536291522758 1
gene  1 1 5 5.560121095897262 0 4.0 5.560121095897262 1
gene  1 5 4 0.4972442927822232 0 5.0 0.4972442927822232 1
gene  2 2 5 -1.2626247907904367 0 8.0 -1.2626247907904367 1
gene  1 3 5 0.2150341699421804 0 152.0 0.2150341699421804 1
gene  2 2 48 -1.8909575267502263 0 196.0 -1.8909575267502263 1
gene  2 48 4 -0.653008827559638 0 197.0 -0.653008827559638 1
gene  1 3 48 0.7166250574102959 0 281.0 0.7166250574102959 1
gene  2 2 109 -5.741689284102516 0 498.0 -5.741689284102516 1
gene  2 109 48 8.203908314481888 0 499.0 8.203908314481888 1
gene  3 3 109 -3.5490675157105054 0 549.0 -3.5490675157105054 1
gene  2 5 109 -2.2564221146305248 0 568.0 -2.2564221146305248 1
gene  1 5 48 -4.939162168093255 0 587.0 -4.939162168093255 0
gene  2 5 159 -1.1696322272961273 0 770.0 -1.1696322272961273 1
gene  1 159 48 5.689353022819926 0 771.0 5.689353022819926 1
gene  3 109 4 4.644948607819288 0 1170.0 4.644948607819288 0
gene  1 1 275 -2.3514956537134903 0 1305.0 -2.3514956537134903 1
gene  1 275 5 -2.4662210098086215 0 1306.0 -2.4662210098086215 1
gene  2 275 109 -6.0532259553242564 0 1359.0 -6.0532259553242564 1
gene  3 109 317 4.806764464878339 0 1489.0 4.806764464878339 1
gene  3 317 4 0.1850300029486751 0 1490.0 0.1850300029486751 1
genomeend 42
/* Organism # 043 Fitness:  4,000 Error:  2,000                      */
genomestart  43
trait 1 0.3943518152472121 0.6091503535315591 0.498704435481923 0.0 0.01021803802828668 0.0 0.0 0.0018338841161459108 
trait 2 0.0 0.0 1.2213904221528333 1.3432137752804738 0.0 0.6631344137362203 0.29741399219410136 0.0266024266482342 
trait 3 0.0 0.11288121054901043 0.9277318827308184 0.0 0.009616806161856204 0.0 0.0 0.0 
node 1 1 1 1
node 2 1 1 1
node 3 1 1 3
node 4 2 0 2
node 5 2 0 0
node 48 1 0 0
node 109 2 0 0
node 159 3 0 0
node 275 1 0 0
node 317 1 0 0
gene  1 1 4 8.161155862899307 0 1.0 8.161155862899307 1
gene  2 2 4 -1.2264529122788892 0 2.0 -1.2264529122788892 1
gene  3 3 4 -2.243576088098875 0 3.0 -2.243576088098875 1
gene  1 1 5 6.608240480004986 0 4.0 6.608240480004986 1
gene  1 5 4 -1.0627191157165448 0 5.0 -1.0627191157165448 1
gene  2 2 5 7.722737959504079 0 8.0 7.722737959504079 1
gene  1 3 5 -4.75897122650512 0 152.0 -4.75897122650512 1
gene  2 2 48 2.2901673471375688 0 196.0 2.2901673471375688 1
gene  2 48 4 -2.2797237809212882 0 197.0 -2.2797237809212882 1
gene  1 3 48 -1.4571706746266953 0 281.0 -1.4571706746266953 1
gene  2 2 109 -6.9883445900029155 0 498.0 -6.9883445900029155 1
gene  2 109 48 8.203908314481888 0 499.0 8.203908314481888 1
gene  3 3 109 -4.597597306039625 0 549.0 -4.597597306039625 1
gene  2 5 109 3.1330614264365177 0 568.0 3.1330614264365177 1
gene  1 5 48 -3.8637462914984804 0 587.0 -3.8637462914984804 0
gene  2 5 159 -0.8098740382532426 0 770.0 -0.8098740382532426 1
gene  1 159 48 6.984179351085019 0 771.0 6.984179351085019 1
gene  3 109 4 3.4932881453571527 0 1170.0 3.4932881453571527 0
gene  1 1 275 -1.2262300071110668 0 1305.0 -1.2262300071110668 1
gene  1 275 5 -0.432178543277131 0 1306.0 -0.432178543277131 1
gene  2 275 109 -3.6399017234114464 0 1359.0 -3.6399017234114464 1
gene  3 109 317 2.347498057724425 0 1489.0 2.347498057724425 1
gene  3 317 4 2.8724344439535363 0 1490.0 2.8724344439535363 1
genomeend 43
/*-------------------------------------------------------------------*/
/* Species # 022         : (size= 005) (AvfFit= 7,003) (Age= 69,000)  */
/*-------------------------------------------------------------------*/
/* Organism # 044 Fitness:  9,000 Error:  1,000                      */
genomestart  44
trait 1 0.9251473407130391 1.4461169616591305 0.0 0.0 1.7878207442493188 0.01844750209648538 0.0 0.0 
trait 2 0.2 0.0 0.0 0.0 0.0 0.0 0.0 0.0 
trait 3 0.29729152111869434 0.0 0.0 0.0 0.0 0.0 0.0 0.24606594673300763 
node 1 1 1 1
node 2 2 1 1
node 3 1 1 3
node 4 1 0 2
node 46 1 0 0
node 137 1 0 0
node 206 3 0 0
gene  1 1 4 -0.0658066918777922 0 1.0 -0.0658066918777922 1
gene  3 2 4 -22.316244545510035 0 2.0 -22.316244545510035 1
gene  3 3 4 12.280334963843828 0 3.0 12.280334963843828 1
gene  2 1 46 1.3714273750348962 0 183.0 1.3714273750348962 1
gene  1 46 4 -7.499493653222591 0 184.0 -7.499493653222591 1
gene  2 3 46 -15.044024716288565 0 217.0 -15.044024716288565 1
gene  2 2 46 2.763564527491708 0 246.0 2.763564527491708 1
gene  1 1 137 -3.574164335438326 0 637.0 -3.574164335438326 1
gene  1 137 4 0.490620784142882 0 638.0 0.490620784142882 1
gene  2 2 137 -8.905787027702283 0 913.0 -8.905787027702283 1
gene  1 1 206 -6.958159181412417 0 1002.0 -6.958159181412417 1
gene  1 206 4 2.5657094252654815 0 1003.0 2.5657094252654815 1
gene  1 206 137 -1.732664202973729 0 1047.0 -1.732664202973729 1
gene  2 46 206 -0.14430723710687487 0 1131.0 -0.14430723710687487 1
gene  1 2 206 -0.47395641601519634 0 1235.0 -0.47395641601519634 1
genomeend 44
/* Organism # 045 Fitness:  4,013 Error:  1,997                      */
genomestart  45
trait 1 0.9251473407130391 1.4461169616591305 0.0 0.0 1.7878207442493188 0.01844750209648538 0.0 0.0 
trait 2 0.2 0.0 0.0 0.0 0.0 0.0 0.0 0.0 
trait 3 0.29729152111869434 0.0 0.0 0.0 0.0 0.2933181773727206 0.0 0.24606594673300763 
node 1 1 1 1
node 2 2 1 1
node 3 1 1 3
node 4 1 0 2
node 46 1 0 0
node 137 1 0 0
node 206 3 0 0
gene  1 1 4 1.0530024382509902 0 1.0 1.0530024382509902 1
gene  3 2 4 -22.6376142343589 0 2.0 -22.6376142343589 1
gene  3 3 4 -2.2197031269600984 0 3.0 -2.2197031269600984 1
gene  2 1 46 0.49922906771470377 0 183.0 0.49922906771470377 1
gene  1 46 4 -8.372001760581096 0 184.0 -8.372001760581096 1
gene  2 3 46 -10.535809275227379 0 217.0 -10.535809275227379 1
gene  2 2 46 3.5756716583327846 0 246.0 3.5756716583327846 1
gene  1 1 137 -4.413744540974602 0 637.0 -4.413744540974602 1
gene  1 137 4 1.5606311746312946 0 638.0 1.5606311746312946 1
gene  2 2 137 2.3660440614721527 0 913.0 2.3660440614721527 1
gene  1 1 206 -7.111742145588063 0 1002.0 -7.111742145588063 1
gene  1 206 4 2.632227172352633 0 1003.0 2.632227172352633 1
gene  1 206 137 0.8666697925358741 0 1047.0 0.8666697925358741 1
gene  2 46 206 0.6856129365571378 0 1131.0 0.6856129365571378 1
gene  1 2 206 -1.4748857655494234 0 1235.0 -1.4748857655494234 1
genomeend 45
/* Organism # 046 Fitness:  9,000 Error:  1,000                      */
genomestart  46
trait 1 0.9251473407130391 1.4461169616591305 0.0 0.0 1.7878207442493188 0.01844750209648538 0.0 0.0 
trait 2 0.2 0.0 0.0 0.0 0.0 0.0 0.0 0.0 
trait 3 0.29729152111869434 0.0 0.0 0.0 0.0 0.0 0.0 0.24606594673300763 
node 1 1 1 1
node 2 2 1 1
node 3 1 1 3
node 4 1 0 2
node 46 1 0 0
node 137 1 0 0
node 206 3 0 0
gene  1 1 4 -0.9168180723278005 0 1.0 -0.9168180723278005 1
gene  3 2 4 -24.450247292970445 0 2.0 -24.450247292970445 1
gene  3 3 4 11.615861494600457 0 3.0 11.615861494600457 1
gene  2 1 46 1.990676086311972 0 183.0 1.990676086311972 1
gene  1 46 4 -9.659175420280325 0 184.0 -9.659175420280325 1
gene  2 3 46 -13.304850102573123 0 217.0 -13.304850102573123 1
gene  2 2 46 1.324398072847885 0 246.0 1.324398072847885 1
gene  1 1 137 -5.852468768963218 0 637.0 -5.852468768963218 1
gene  1 137 4 1.0502341706471807 0 638.0 1.0502341706471807 1
gene  2 2 137 -7.594036811314716 0 913.0 -7.594036811314716 1
gene  1 1 206 -6.926154372769883 0 1002.0 -6.926154372769883 1
gene  1 206 4 1.3526776608072688 0 1003.0 1.3526776608072688 1
gene  1 206 137 -0.6494531377720871 0 1047.0 -0.6494531377720871 1
gene  2 46 206 -0.2826922331582937 0 1131.0 -0.2826922331582937 1
gene  1 2 206 -0.9180603579480182 0 1235.0 -0.9180603579480182 1
genomeend 46
/* Organism # 047 Fitness:  4,000 Error:  2,000                      */
genomestart  47
trait 1 0.9251473407130391 1.4461169616591305 0.0 0.0 1.7878207442493188 0.01844750209648538 0.0 0.0 
trait 2 0.2 0.0 0.0 0.0 0.0 0.0 0.0 0.0 
trait 3 1.294475229455117 0.0 0.0 0.0 0.0 0.8192183218684286 0.0 0.24606594673300763 
node 1 1 1 1
node 2 2 1 1
node 3 1 1 3
node 4 1 0 2
node 46 1 0 0
node 137 1 0 0
node 206 3 0 0
gene  1 1 4 -0.3227678815990123 0 1.0 -0.3227678815990123 1
gene  3 2 4 0.7958449079879157 0 2.0 0.7958449079879157 1
gene  3 3 4 11.86538326844435 0 3.0 11.86538326844435 1
gene  2 1 46 1.1473778820508305 0 183.0 1.1473778820508305 1
gene  1 46 4 -6.781746722419552 0 184.0 -6.781746722419552 1
gene  2 3 46 -9.844765210259531 0 217.0 -9.844765210259531 1
gene  2 2 46 3.761624126957261 0 246.0 3.761624126957261 1
gene  1 1 137 -6.286131560881328 0 637.0 -6.286131560881328 1
gene  1 137 4 1.0228495741526562 0 638.0 1.0228495741526562 1
gene  2 2 137 -11.223432674203432 0 913.0 -11.223432674203432 1
gene  1 1 206 -5.347506791751937 0 1002.0 -5.347506791751937 1
gene  1 206 4 -1.7775164711521365 0 1003.0 -1.7775164711521365 1
gene  1 206 137 -0.041080002754854406 0 1047.0 -0.041080002754854406 1
gene  2 46 206 1.1022589956261475 0 1131.0 1.1022589956261475 1
gene  1 2 206 -1.8168419423515276 0 1235.0 -1.8168419423515276 1
genomeend 47
/* Organism # 048 Fitness:  9,000 Error:  1,000                      */
genomestart  48
trait 1 0.9251473407130391 1.4461169616591305 0.0 0.0 1.7878207442493188 0.01844750209648538 0.0 0.0 
trait 2 0.2 0.0 0.0 0.0 0.0 0.0 0.0 0.0 
trait 3 0.29729152111869434 0.0 0.0 0.0 0.0 0.0 0.0 0.24606594673300763 
node 1 1 1 1
node 2 2 1 1
node 3 1 1 3
node 4 1 0 2
node 46 1 0 0
node 137 1 0 0
node 206 3 0 0
gene  1 1 4 0.6802343510664755 0 1.0 0.6802343510664755 1
gene  3 2 4 -24.450247292970445 0 2.0 -24.450247292970445 1
gene  3 3 4 10.910004445023032 0 3.0 10.910004445023032 1
gene  2 1 46 1.3536104234847195 0 183.0 1.3536104234847195 1
gene  1 46 4 -9.17757555615749 0 184.0 -9.17757555615749 1
gene  2 3 46 1.2480700521633372 0 217.0 1.2480700521633372 1
gene  2 2 46 0.8123597632021631 0 246.0 0.8123597632021631 1
gene  1 1 137 -6.044906885184166 0 637.0 -6.044906885184166 1
gene  1 137 4 1.7766686033393841 0 638.0 1.7766686033393841 1
gene  2 2 137 -0.2481307969907462 0 913.0 -0.2481307969907462 1
gene  1 1 206 -6.854538399955241 0 1002.0 -6.854538399955241 1
gene  1 206 4 -0.21980517268858746 0 1003.0 -0.21980517268858746 1
gene  1 206 137 0.39245353028966856 0 1047.0 0.39245353028966856 1
gene  2 46 206 1.6521961294858434 0 1131.0 1.6521961294858434 1
gene  1 2 206 -2.1961900500497027 0 1235.0 -2.1961900500497027 1
genomeend 48
/*-------------------------------------------------------------------*/
/* Species # 023         : (size= 005) (AvfFit= 8,000) (Age= 69,000)  */
/*-------------------------------------------------------------------*/
/* Organism # 049 Fitness:  9,000 Error:  1,000                      */
genomestart  49
trait 1 0.0 0.0 0.0 0.0 0.0 0.41117422329314635 0.4231433452503337 0.0 
trait 2 0.1 0.0 0.2745656836152613 0.0 0.0 0.0 0.4434326801698363 0.0 
trait 3 0.5555593564207726 0.8631788603424162 1.425861272003624 0.20013252963922956 0.27478525958130695 1.0225649362153018 0.15957214052931046 1.7095317092291733 
node 1 2 1 1
node 2 1 1 1
node 3 1 1 3
node 4 1 0 2
node 12 1 0 0
node 14 1 0 0
node 15 2 0 0
node 48 3 0 0
node 135 1 0 0
gene  2 1 4 -11.702869809627847 0 1.0 -11.702869809627847 1
gene  2 2 4 -35.30104363180916 0 2.0 -35.30104363180916 1
gene  3 3 4 23.039363069294968 0 3.0 23.039363069294968 1
gene  1 1 14 -1.5232672357517185 0 35.0 -1.5232672357517185 1
gene  1 14 4 0.19928870472817217 0 36.0 0.19928870472817217 1
gene  1 1 15 -2.7592759888440996 0 40.0 -2.7592759888440996 1
gene  2 15 12 -2.250354926509864 0 41.0 -2.250354926509864 1
gene  3 3 15 -4.1911273079928755 0 92.0 -4.1911273079928755 1
gene  1 12 14 -0.6546955191356005 0 141.0 -0.6546955191356005 1
gene  2 2 48 1.8000281700500098 0 196.0 1.8000281700500098 1
gene  2 48 4 -2.8404158026615995 0 197.0 -2.8404158026615995 1
gene  3 1 12 5.134064453896722 0 535.0 5.134064453896722 1
gene  2 48 12 4.566335989511694 0 591.0 4.566335989511694 1
gene  1 1 135 2.841588405720005 0 630.0 2.841588405720005 1
gene  1 135 14 -0.7090608789520279 0 631.0 -0.7090608789520279 1
gene  2 135 15 -1.3876769630320824 0 829.0 -1.3876769630320824 1
gene  3 135 48 -8.542474730376584 0 867.0 -8.542474730376584 1
gene  1 2 15 -2.8316745558497285 0 963.0 -2.8316745558497285 1
gene  3 2 14 -1.4301308857713138 0 975.0 -1.4301308857713138 1
gene  2 2 12 -1.070146192316042 0 1237.0 -1.070146192316042 1
gene  1 15 4 4.7485056970428 0 1500.0 4.7485056970428 1
genomeend 49
/* Organism # 050 Fitness:  9,000 Error:  1,000                      */
genomestart  50
trait 1 0.0 0.0 0.0 0.0 0.0 0.41117422329314635 0.4231433452503337 0.0 
trait 2 0.1 0.0 0.2745656836152613 0.0 0.0 0.0 0.4434326801698363 0.0 
trait 3 0.5555593564207726 0.8631788603424162 1.425861272003624 0.20013252963922956 0.27478525958130695 1.0225649362153018 0.15957214052931046 1.7095317092291733 
node 1 2 1 1
node 2 1 1 1
node 3 1 1 3
node 4 1 0 2
node 12 1 0 0
node 14 1 0 0
node 15 2 0 0
node 48 3 0 0
node 135 1 0 0
node 334 1 0 0
gene  2 1 4 -10.84319852763498 0 1.0 -10.84319852763498 1
gene  2 2 4 -37.04400326722755 0 2.0 -37.04400326722755 1
gene  3 3 4 22.550964910913674 0 3.0 22.550964910913674 1
gene  1 1 14 3.4082812536531346 0 35.0 3.4082812536531346 1
gene  1 14 4 1.2636789937135788 0 36.0 1.2636789937135788 1
gene  1 1 15 -1.9831833140491733 0 40.0 -1.9831833140491733 0
gene  2 15 12 -1.2961533950678044 0 41.0 -1.2961533950678044 1
gene  3 3 15 -4.1911273079928755 0 92.0 -4.1911273079928755 1
gene  1 12 14 -1.6162518302058548 0 141.0 -1.6162518302058548 1
gene  2 2 48 4.275661798556218 0 196.0 4.275661798556218 1
gene  2 48 4 -1.4789532663694827 0 197.0 -1.4789532663694827 1
gene  3 1 12 4.524636834754167 0 535.0 4.524636834754167 1
gene  2 48 12 2.7332500408448315 0 591.0 2.7332500408448315 1
gene  1 1 135 2.841588405720005 0 630.0 2.841588405720005 1
gene  1 135 14 -1.7640891898568662 0 631.0 -1.7640891898568662 1
gene  2 135 15 -2.5540918266848434 0 829.0 -2.5540918266848434 1
gene  3 135 48 -7.227108977005622 0 867.0 -7.227108977005622 1
gene  1 2 15 -1.2800673016153548 0 963.0 -1.2800673016153548 1
gene  3 2 14 -1.8443722144789203 0 975.0 -1.8443722144789203 1
gene  2 2 12 -0.2797361346229503 0 1237.0 -0.2797361346229503 1
gene  1 15 4 4.329005701650299 0 1500.0 4.329005701650299 1
gene  1 1 334 1.0 0 1550.0 0.0 1
gene  1 334 15 -1.9831833140491733 0 1551.0 0.0 1
genomeend 50
/* Organism # 051 Fitness:  9,000 Error:  1,000                      */
genomestart  51
trait 1 0.0 0.0 0.0 0.0 0.0 0.41117422329314635 0.4231433452503337 0.0 
trait 2 0.1 0.0 0.2745656836152613 0.0 0.0 0.0 0.4434326801698363 0.0 
trait 3 0.5555593564207726 0.8631788603424162 1.425861272003624 0.20013252963922956 0.27478525958130695 1.0225649362153018 0.15957214052931046 1.7095317092291733 
node 1 2 1 1
node 2 1 1 1
node 3 1 1 3
node 4 1 0 2
node 12 1 0 0
node 14 1 0 0
node 15 2 0 0
node 48 3 0 0
node 135 1 0 0
gene  2 1 4 -10.84319852763498 0 1.0 -10.84319852763498 1
gene  2 2 4 -37.04400326722755 0 2.0 -37.04400326722755 1
gene  3 3 4 22.550964910913674 0 3.0 22.550964910913674 1
gene  1 1 14 3.4082812536531346 0 35.0 3.4082812536531346 1
gene  1 14 4 1.2636789937135788 0 36.0 1.2636789937135788 1
gene  1 1 15 -1.9831833140491733 0 40.0 -1.9831833140491733 1
gene  2 15 12 -1.2961533950678044 0 41.0 -1.2961533950678044 1
gene  3 3 15 -4.1911273079928755 0 92.0 -4.1911273079928755 1
gene  1 12 14 -1.6162518302058548 0 141.0 -1.6162518302058548 1
gene  2 2 48 4.275661798556218 0 196.0 4.275661798556218 1
gene  2 48 4 -1.4789532663694827 0 197.0 -1.4789532663694827 1
gene  3 1 12 4.524636834754167 0 535.0 4.524636834754167 1
gene  2 48 12 2.7332500408448315 0 591.0 2.7332500408448315 1
gene  1 1 135 2.841588405720005 0 630.0 2.841588405720005 1
gene  1 135 14 -1.7640891898568662 0 631.0 -1.7640891898568662 1
gene  2 135 15 -2.5540918266848434 0 829.0 -2.5540918266848434 1
gene  3 135 48 -7.227108977005622 0 867.0 -7.227108977005622 1
gene  1 2 15 -1.2800673016153548 0 963.0 -1.2800673016153548 1
gene  3 2 14 -1.8443722144789203 0 975.0 -1.8443722144789203 1
gene  2 2 12 -0.2797361346229503 0 1237.0 -0.2797361346229503 1
gene  1 15 4 4.329005701650299 0 1500.0 4.329005701650299 1
gene  1 2 135 8.205935953358384 0 1556.0 8.205935953358384 1
genomeend 51
/* Organism # 052 Fitness:  9,000 Error:  1,000                      */
genomestart  52
trait 1 0.0 0.0 0.0 0.0 0.0 0.41117422329314635 0.4231433452503337 0.0 
trait 2 0.1 0.0 0.2745656836152613 0.0 0.0 0.0 0.4434326801698363 0.0 
trait 3 0.5555593564207726 0.8631788603424162 1.425861272003624 0.20013252963922956 0.27478525958130695 1.0225649362153018 0.15957214052931046 1.7095317092291733 
node 1 2 1 1
node 2 1 1 1
node 3 1 1 3
node 4 1 0 2
node 12 1 0 0
node 14 1 0 0
node 15 2 0 0
node 48 3 0 0
node 135 1 0 0
gene  2 1 4 -9.761504338652507 0 1.0 -9.761504338652507 1
gene  2 2 4 -35.909156026746345 0 2.0 -35.909156026746345 1
gene  3 3 4 22.975122269437726 0 3.0 22.975122269437726 1
gene  1 1 14 5.906563669790083 0 35.0 5.906563669790083 1
gene  1 14 4 2.637618137531513 0 36.0 2.637618137531513 1
gene  1 1 15 0.22525241216906267 0 40.0 0.22525241216906267 1
gene  2 15 12 0.8365198926993493 0 41.0 0.8365198926993493 1
gene  3 3 15 -3.9996323277341688 0 92.0 -3.9996323277341688 1
gene  1 12 14 0.08417099686197305 0 141.0 0.08417099686197305 1
gene  2 2 48 6.7347533148032195 0 196.0 6.7347533148032195 1
gene  2 48 4 -2.8511578549502588 0 197.0 -2.8511578549502588 1
gene  3 1 12 3.948454428473392 0 535.0 3.948454428473392 1
gene  2 48 12 4.179716533513619 0 591.0 4.179716533513619 1
gene  1 1 135 0.7066851683443809 0 630.0 0.7066851683443809 1
gene  1 135 14 -3.2454969509853946 0 631.0 -3.2454969509853946 1
gene  2 135 15 -3.85703855127892 0 829.0 -3.85703855127892 1
gene  3 135 48 -6.847039436300124 0 867.0 -6.847039436300124 1
gene  1 2 15 -2.733148144945757 0 963.0 -2.733148144945757 1
gene  3 2 14 2.049400068318972 0 975.0 2.049400068318972 1
gene  2 2 12 -0.2797361346229503 0 1237.0 -0.2797361346229503 1
gene  1 15 4 4.329005701650299 0 1500.0 4.329005701650299 1
genomeend 52
/* Organism # 053 Fitness:  4,000 Error:  2,000                      */
genomestart  53
trait 1 0.0 0.0 0.0 0.0 0.0 0.41117422329314635 0.4231433452503337 0.0 
trait 2 0.1 0.0 0.2745656836152613 0.0 0.0 0.0 0.4434326801698363 0.0 
trait 3 0.5555593564207726 0.8631788603424162 1.425861272003624 0.20013252963922956 0.27478525958130695 1.0225649362153018 0.15957214052931046 1.7095317092291733 
node 1 2 1 1
node 2 1 1 1
node 3 1 1 3
node 4 1 0 2
node 12 1 0 0
node 14 1 0 0
node 15 2 0 0
node 48 3 0 0
node 135 1 0 0
gene  2 1 4 -9.837998506135659 0 1.0 -9.837998506135659 1
gene  2 2 4 1.4766262260725227 0 2.0 1.4766262260725227 1
gene  3 3 4 20.85424581455252 0 3.0 20.85424581455252 1
gene  1 1 14 1.42067399243914 0 35.0 1.42067399243914 1
gene  1 14 4 2.1352565161558372 0 36.0 2.1352565161558372 1
gene  1 1 15 -0.06515630669037292 0 40.0 -0.06515630669037292 1
gene  2 15 12 -0.10187478119117199 0 41.0 -0.10187478119117199 1
gene  3 3 15 -4.1911273079928755 0 92.0 -4.1911273079928755 1
gene  1 12 14 -2.921007581912124 0 141.0 -2.921007581912124 1
gene  2 2 48 3.4239532191088005 0 196.0 3.4239532191088005 1
gene  2 48 4 0.16691848753281469 0 197.0 0.16691848753281469 1
gene  3 1 12 5.746857576865094 0 535.0 5.746857576865094 1
gene  2 48 12 1.5599763897127468 0 591.0 1.5599763897127468 1
gene  1 1 135 4.26040824116437 0 630.0 4.26040824116437 1
gene  1 135 14 0.13971933725176355 0 631.0 0.13971933725176355 1
gene  2 135 15 -0.1401859642495551 0 829.0 -0.1401859642495551 1
gene  3 135 48 -0.09571900181774923 0 867.0 -0.09571900181774923 1
gene  1 2 15 0.5382560140018777 0 963.0 0.5382560140018777 1
gene  3 2 14 0.5122753409936096 0 975.0 0.5122753409936096 1
gene  2 2 12 1.6802410547910127 0 1237.0 1.6802410547910127 1
gene  1 15 4 5.583655632982161 0 1500.0 5.583655632982161 1
genomeend 53
/*-------------------------------------------------------------------*/
/* Species # 025         : (size= 004) (AvfFit= 9,000) (Age= 68,000)  */
/*-------------------------------------------------------------------*/
/* Organism # 054 Fitness:  9,000 Error:  1,000                      */
genomestart  54
trait 1 1.0588996554011378 0.3356208514483948 0.0 0.0 0.01021803802828668 0.3549359367826768 0.0 0.0018338841161459108 
trait 2 0.2 0.0 0.0 0.0 0.0 0.0 0.0 0.0 
trait 3 0.0 0.440690988740321 0.0 0.01552558161925266 1.1307863304468155 0.0 0.0 0.0 
node 1 2 1 1
node 2 2 1 1
node 3 2 1 3
node 4 1 0 2
node 5 2 0 0
node 45 3 0 0
node 91 1 0 0
node 177 1 0 0
node 245 1 0 0
gene  1 1 4 -0.6892141576619002 0 1.0 -0.6892141576619002 1
gene  2 2 4 6.40376594431988 0 2.0 6.40376594431988 1
gene  2 3 4 -21.973731926115924 0 3.0 -21.973731926115924 1
gene  2 1 5 -2.3905603313693895 0 4.0 -2.3905603313693895 1
gene  2 5 4 -1.9862808770615517 0 5.0 -1.9862808770615517 1
gene  3 2 5 -9.722728961532775 0 8.0 -9.722728961532775 1
gene  1 3 5 13.144515643406478 0 152.0 13.144515643406478 1
gene  1 2 45 -1.6874911242250166 0 180.0 -1.6874911242250166 1
gene  2 45 4 -3.746122943254758 0 181.0 -3.746122943254758 1
gene  1 1 91 -3.639174674237762 0 420.0 -3.639174674237762 1
gene  1 91 5 1.8251667357649266 0 421.0 1.8251667357649266 1
gene  2 2 177 -1.9861239147696104 0 854.0 -1.9861239147696104 1
gene  2 177 4 -5.312904287510928 0 855.0 -5.312904287510928 1
gene  2 177 91 -0.2315820253751411 0 904.0 -0.2315820253751411 1
gene  3 177 45 -6.052171109784436 0 968.0 -6.052171109784436 0
gene  3 177 245 -2.6866243087655657 0 1178.0 -2.6866243087655657 1
gene  3 245 45 -7.4262791426468695 0 1179.0 -7.4262791426468695 1
gene  3 2 245 -3.011720661477573 0 1272.0 -3.011720661477573 1
gene  3 177 5 -0.41992106771001736 0 1392.0 -0.41992106771001736 1
gene  1 245 5 4.803547570279964 0 1436.0 4.803547570279964 1
genomeend 54
/* Organism # 055 Fitness:  9,000 Error:  1,000                      */
genomestart  55
trait 1 1.0588996554011378 0.0 0.0 0.40644195251205784 0.01021803802828668 0.17210478831614978 0.0 0.0018338841161459108 
trait 2 0.2 0.0 0.0 0.0 0.0 0.0 0.0 0.0 
trait 3 0.0 0.440690988740321 0.0 0.01552558161925266 1.1307863304468155 0.0 0.0 0.0 
node 1 2 1 1
node 2 2 1 1
node 3 2 1 3
node 4 1 0 2
node 5 2 0 0
node 45 3 0 0
node 91 1 0 0
node 177 1 0 0
node 245 1 0 0
gene  1 1 4 -0.6892141576619002 0 1.0 -0.6892141576619002 1
gene  2 2 4 6.40376594431988 0 2.0 6.40376594431988 1
gene  2 3 4 -21.973731926115924 0 3.0 -21.973731926115924 1
gene  2 1 5 -2.3905603313693895 0 4.0 -2.3905603313693895 1
gene  2 5 4 -1.9862808770615517 0 5.0 -1.9862808770615517 1
gene  3 2 5 -9.722728961532775 0 8.0 -9.722728961532775 1
gene  1 3 5 13.144515643406478 0 152.0 13.144515643406478 1
gene  1 2 45 -1.6874911242250166 0 180.0 -1.6874911242250166 1
gene  2 45 4 -3.746122943254758 0 181.0 -3.746122943254758 1
gene  1 1 91 -3.639174674237762 0 420.0 -3.639174674237762 1
gene  1 91 5 1.8251667357649266 0 421.0 1.8251667357649266 1
gene  2 2 177 -1.9861239147696104 0 854.0 -1.9861239147696104 1
gene  2 177 4 -5.312904287510928 0 855.0 -5.312904287510928 1
gene  2 177 91 -0.2315820253751411 0 904.0 -0.2315820253751411 1
gene  3 177 45 -6.052171109784436 0 968.0 -6.052171109784436 0
gene  3 177 245 -2.6866243087655657 0 1178.0 -2.6866243087655657 1
gene  3 245 45 -7.4262791426468695 0 1179.0 -7.4262791426468695 1
gene  3 2 245 -3.011720661477573 0 1272.0 -3.011720661477573 1
gene  3 177 5 -0.41992106771001736 0 1392.0 -0.41992106771001736 1
gene  1 245 5 4.803547570279964 0 1436.0 4.803547570279964 1
genomeend 55
/* Organism # 056 Fitness:  9,000 Error:  1,000                      */
genomestart  56
trait 1 1.0588996554011378 0.3356208514483948 0.0 0.0 0.01021803802828668 0.3549359367826768 0.0 0.0018338841161459108 
trait 2 0.2 0.0 0.0 0.0 0.0 0.0 0.0 0.0 
trait 3 0.0 0.440690988740321 0.0 0.01552558161925266 1.1307863304468155 0.0 0.0 0.0 
node 1 2 1 1
node 2 2 1 1
node 3 2 1 3
node 4 1 0 2
node 5 2 0 0
node 45 3 0 0
node 91 1 0 0
node 177 1 0 0
node 245 1 0 0
gene  1 1 4 -2.974169322926749 0 1.0 -2.974169322926749 1
gene  2 2 4 8.636622714133981 0 2.0 8.636622714133981 1
gene  2 3 4 -24.309680288443243 0 3.0 -24.309680288443243 1
gene  2 1 5 -2.766634379128942 0 4.0 -2.766634379128942 1
gene  2 5 4 0.05861842701615538 0 5.0 0.05861842701615538 1
gene  3 2 5 -10.846309122391524 0 8.0 -10.846309122391524 1
gene  1 3 5 14.285449297790834 0 152.0 14.285449297790834 1
gene  1 2 45 -1.7339525281732886 0 180.0 -1.7339525281732886 1
gene  2 45 4 -4.966226327438511 0 181.0 -4.966226327438511 1
gene  1 1 91 -2.5219314673563296 0 420.0 -2.5219314673563296 1
gene  1 91 5 3.24280408118357 0 421.0 3.24280408118357 1
gene  2 2 177 -4.259553611478238 0 854.0 -4.259553611478238 1
gene  2 177 4 -5.565679714642736 0 855.0 -5.565679714642736 1
gene  2 177 91 0.6948526995310333 0 904.0 0.6948526995310333 1
gene  3 177 45 -6.43506981227039 0 968.0 -6.43506981227039 0
gene  3 177 245 -1.3397446252575826 0 1178.0 -1.3397446252575826 1
gene  3 245 45 -5.60461409596175 0 1179.0 -5.60461409596175 1
gene  3 2 245 -2.1153313041546373 0 1272.0 -2.1153313041546373 1
gene  3 177 5 -0.3808018859864326 0 1392.0 -0.3808018859864326 1
gene  1 245 5 4.803547570279964 0 1436.0 4.803547570279964 1
genomeend 56
/* Organism # 057 Fitness:  9,000 Error:  1,000                      */
genomestart  57
trait 1 1.0588996554011378 0.3356208514483948 0.0 0.0 0.01021803802828668 0.3549359367826768 0.0 0.0018338841161459108 
trait 2 0.2 0.0 0.0 0.0 0.0 0.0 0.0 0.0 
trait 3 0.0 0.440690988740321 0.0 0.01552558161925266 1.1307863304468155 0.0 0.0 0.0 
node 1 2 1 1
node 2 2 1 1
node 3 2 1 3
node 4 1 0 2
node 5 2 0 0
node 45 3 0 0
node 91 1 0 0
node 177 1 0 0
node 245 1 0 0
gene  1 1 4 1.7481805140478808 0 1.0 1.7481805140478808 1
gene  2 2 4 8.763471945927645 0 2.0 8.763471945927645 1
gene  2 3 4 -23.98022875534527 0 3.0 -23.98022875534527 1
gene  2 1 5 -1.6282705283369179 0 4.0 -1.6282705283369179 1
gene  2 5 4 -1.9458271114863042 0 5.0 -1.9458271114863042 1
gene  3 2 5 -9.579694926835193 0 8.0 -9.579694926835193 1
gene  1 3 5 14.739180804692927 0 152.0 14.739180804692927 1
gene  1 2 45 -1.9289325983655403 0 180.0 -1.9289325983655403 1
gene  2 45 4 -2.288318832745733 0 181.0 -2.288318832745733 1
gene  1 1 91 -2.035117230662707 0 420.0 -2.035117230662707 1
gene  1 91 5 -0.4977842666556942 0 421.0 -0.4977842666556942 1
gene  2 2 177 -3.6766861150909835 0 854.0 -3.6766861150909835 1
gene  2 177 4 -5.9996075733369105 0 855.0 -5.9996075733369105 1
gene  2 177 91 2.0140676680148175 0 904.0 2.0140676680148175 1
gene  3 177 45 -4.606800424811227 0 968.0 -4.606800424811227 0
gene  3 177 245 -3.562392318802007 0 1178.0 -3.562392318802007 1
gene  3 245 45 -9.860018131688108 0 1179.0 -9.860018131688108 1
gene  3 2 245 -3.011720661477573 0 1272.0 -3.011720661477573 1
gene  3 177 5 -0.15188633930310613 0 1392.0 -0.15188633930310613 1
gene  1 245 5 4.803547570279964 0 1436.0 4.803547570279964 1
genomeend 57
/*-------------------------------------------------------------------*/
/* Species # 026         : (size= 003) (AvfFit= 4,000) (Age= 67,000)  */
/*-------------------------------------------------------------------*/
/* Organism # 058 Fitness:  4,000 Error:  2,000                      */
genomestart  58
trait 1 0.41721767885986527 0.0 0.0 0.0 0.9603992799563611 0.12192624051088441 0.0 0.0 
trait 2 0.2 0.0 0.0 0.0 0.0 0.0 0.0 0.0 
trait 3 0.7778424986849753 0.0 0.0 0.0 0.03096076790291158 0.7900056804653431 0.0 0.0 
node 1 1 1 1
node 2 3 1 1
node 3 2 1 3
node 4 1 0 2
node 14 1 0 0
node 86 1 0 0
node 230 1 0 0
gene  1 1 4 7.2260485166267365 0 1.0 7.2260485166267365 1
gene  3 2 4 8.175850901496377 0 2.0 8.175850901496377 0
gene  3 3 4 0.14615259791621038 0 3.0 0.14615259791621038 1
gene  1 1 14 16.39054719848081 0 35.0 16.39054719848081 0
gene  2 14 4 -2.2880985441916826 0 36.0 -2.2880985441916826 1
gene  1 2 14 1.283278172366529 0 210.0 1.283278172366529 1
gene  1 1 86 2.1424348188336015 0 388.0 2.1424348188336015 1
gene  1 86 14 1.6385324791820732 0 389.0 1.6385324791820732 1
gene  3 2 86 -1.3997304868801126 0 660.0 -1.3997304868801126 1
gene  2 3 86 5.8796214735195935 0 681.0 5.8796214735195935 1
gene  1 3 14 1.179563865234317 0 703.0 1.179563865234317 1
gene  2 86 4 0.015901643554949996 0 718.0 0.015901643554949996 1
gene  3 2 230 0.5783945321041362 0 1108.0 0.5783945321041362 1
gene  3 230 4 1.1644929658032797 0 1109.0 1.1644929658032797 1
gene  3 86 230 2.310895697295325 0 1285.0 2.310895697295325 1
gene  3 230 14 0.47183549900952054 0 1477.0 0.47183549900952054 1
genomeend 58
/* Organism # 059 Fitness:  4,000 Error:  2,000                      */
genomestart  59
trait 1 0.41721767885986527 0.0 0.0 0.0 0.9603992799563611 0.12192624051088441 0.0 0.0 
trait 2 0.2 0.0 0.0 0.0 0.0 0.0 0.0 0.0 
trait 3 0.7778424986849753 0.0 0.0 0.0 0.03096076790291158 0.7900056804653431 0.0 0.0 
node 1 1 1 1
node 2 3 1 1
node 3 2 1 3
node 4 1 0 2
node 14 1 0 0
node 86 1 0 0
node 230 1 0 0
gene  1 1 4 -0.9018781254974182 0 1.0 -0.9018781254974182 1
gene  3 2 4 9.891252892134089 0 2.0 9.891252892134089 0
gene  3 3 4 0.24150228221636316 0 3.0 0.24150228221636316 1
gene  1 1 14 -2.1201000223478244 0 35.0 -2.1201000223478244 0
gene  2 14 4 -33.785958447390236 0 36.0 -33.785958447390236 1
gene  1 2 14 0.0933806443836383 0 210.0 0.0933806443836383 1
gene  1 1 86 3.298265934754804 0 388.0 3.298265934754804 1
gene  1 86 14 2.23189415674377 0 389.0 2.23189415674377 1
gene  3 2 86 -9.327672364530429 0 660.0 -9.327672364530429 1
gene  2 3 86 1.597504451624139 0 681.0 1.597504451624139 1
gene  1 3 14 3.7157051889487094 0 703.0 3.7157051889487094 1
gene  2 86 4 -6.6157909955856855 0 718.0 -6.6157909955856855 1
gene  3 2 230 1.2917638179087005 0 1108.0 1.2917638179087005 1
gene  3 230 4 -2.1075796778282014 0 1109.0 -2.1075796778282014 1
gene  3 86 230 0.745831856738694 0 1285.0 0.745831856738694 1
gene  3 230 14 -1.4996052071702013 0 1477.0 -1.4996052071702013 1
genomeend 59
/* Organism # 060 Fitness:  4,000 Error:  2,000                      */
genomestart  60
trait 1 0.41721767885986527 0.0 0.0 0.0 0.9603992799563611 0.12192624051088441 0.0 0.0 
trait 2 0.2 0.0 0.0 0.0 0.0 0.0 0.0 0.0 
trait 3 0.7778424986849753 0.0 0.0 0.0 0.03096076790291158 0.7900056804653431 0.0 0.0 
node 1 1 1 1
node 2 3 1 1
node 3 2 1 3
node 4 1 0 2
node 14 1 0 0
node 86 1 0 0
node 230 1 0 0
gene  1 1 4 9.68424035088661 0 1.0 9.68424035088661 1
gene  3 2 4 9.300191895885076 0 2.0 9.300191895885076 0
gene  3 3 4 -0.019902105533395886 0 3.0 -0.019902105533395886 1
gene  1 1 14 18.179873319577936 0 35.0 18.179873319577936 1
gene  2 14 4 -32.34576759947059 0 36.0 -32.34576759947059 1
gene  1 2 14 -0.5926162817429006 0 210.0 -0.5926162817429006 1
gene  1 1 86 4.1987335218737085 0 388.0 4.1987335218737085 1
gene  1 86 14 3.1026180918633672 0 389.0 3.1026180918633672 1
gene  3 2 86 -10.29717259775515 0 660.0 -10.29717259775515 1
gene  2 3 86 3.313215193900018 0 681.0 3.313215193900018 1
gene  1 3 14 5.000039891130514 0 703.0 5.000039891130514 1
gene  2 86 4 -5.993671100260711 0 718.0 -5.993671100260711 1
gene  3 2 230 0.1773345611588948 0 1108.0 0.1773345611588948 1
gene  3 230 4 1.438200549148886 0 1109.0 1.438200549148886 1
gene  3 86 230 2.2100917059755796 0 1285.0 2.2100917059755796 1
gene  3 230 14 2.9559430044665405 0 1477.0 2.9559430044665405 1
genomeend 60
/*-------------------------------------------------------------------*/
/* Species # 029         : (size= 005) (AvfFit= 6,261) (Age= 65,000)  */
/*-------------------------------------------------------------------*/
/* Organism # 061 Fitness:  9,000 Error:  1,000                      */
genomestart  61
trait 1 0.9208127455428833 0.38671442279471413 0.0 0.07987668535116343 0.12456274929720906 0.0 0.0 0.0223559206539692 
trait 2 0.20738193200696514 0.7428131076073421 0.5773563903809437 0.4752533357200238 0.0 0.0 0.0 0.0 
trait 3 0.3 0.0 0.26970397889731224 0.0 0.0 0.0 0.0 0.0 
node 1 1 1 1
node 2 1 1 1
node 3 1 1 3
node 4 1 0 2
node 5 3 0 0
node 7 1 0 0
node 12 1 0 0
node 60 3 0 0
node 247 1 0 0
node 339 1 0 0
gene  1 1 4 6.328748535590197 0 1.0 6.328748535590197 1
gene  2 2 4 12.791114911049952 0 2.0 12.791114911049952 1
gene  3 3 4 0.4782506777727838 0 3.0 0.4782506777727838 1
gene  1 1 5 10.54367014842367 0 4.0 10.54367014842367 1
gene  1 5 4 -13.989228803541435 0 5.0 -13.989228803541435 1
gene  1 1 7 -1.2144917538994657 0 10.0 -1.2144917538994657 1
gene  1 7 4 0.8470273371623427 0 11.0 0.8470273371623427 1
gene  1 1 12 -2.110088782341478 0 25.0 -2.110088782341478 1
gene  2 12 4 -4.023652387583004 0 26.0 -4.023652387583004 1
gene  2 2 5 0.7195392919511228 0 245.0 0.7195392919511228 1
