/* Species # 001         : (size= 004) (AvfFit= 7,723) (Age= 52,000)  */
/*-------------------------------------------------------------------*/
/* Organism # 000 Fitness:  8,891 Error:  1,018                      */
genomestart  0
trait 1 0.0 0.0 0.0 0.0 0.0 0.0 0.0 0.0 
trait 2 0.0 0.12164882254541409 0.0 0.16000971012070053 0.0 0.6105478423543726 0.0 0.0 
trait 3 0.3 0.0 0.0 0.0 0.0 0.0 0.0 0.0 
node 1 1 1 1
node 2 2 1 1
node 3 1 1 3
node 4 1 0 2
node 84 1 0 0
gene  1 1 4 0.7642411798555726 0 1.0 0.7642411798555726 0
gene  1 2 4 8.9010993779208 0 2.0 8.9010993779208 1
gene  2 3 4 11.488075531018055 0 3.0 11.488075531018055 1
gene  1 1 84 1.319126880667562 0 381.0 1.319126880667562 1
gene  1 84 4 -10.755420423608935 0 382.0 -10.755420423608935 1
gene  1 2 84 -5.440060427758753 0 538.0 -5.440060427758753 1
gene  3 3 84 -0.3184781436432298 0 593.0 -0.3184781436432298 1
genomeend 0
/* Organism # 001 Fitness:  4,000 Error:  2,000                      */
genomestart  1
trait 1 0.0 0.0 0.0 0.0 0.0 0.0 0.0 0.0 
trait 2 0.0 0.12164882254541409 0.0 0.16000971012070053 0.0 0.6105478423543726 0.0 0.0 
trait 3 0.3 0.0 0.0 0.0 0.0 0.0 0.0 0.0 
node 1 1 1 1
node 2 2 1 1
node 3 1 1 3
node 4 1 0 2
node 84 1 0 0
gene  1 1 4 -6.922925064040477 0 1.0 -6.922925064040477 1
gene  1 2 4 11.938526265596598 0 2.0 11.938526265596598 1
gene  2 3 4 13.413856807099908 0 3.0 13.413856807099908 1
gene  1 1 84 3.0175199731543163 0 381.0 3.0175199731543163 1
gene  1 84 4 -12.217172829943788 0 382.0 -12.217172829943788 1
gene  1 2 84 -3.902214042269149 0 538.0 -3.902214042269149 1
gene  3 3 84 0.8713251539877274 0 593.0 0.8713251539877274 1
genomeend 1
/* Organism # 002 Fitness:  9,000 Error:  1,000                      */
genomestart  2
trait 1 0.0 0.0 0.0 0.0 0.0 0.0 0.0 0.0 
trait 2 0.0 0.12164882254541409 0.0 0.16000971012070053 0.0 0.6105478423543726 0.0 0.0 
trait 3 0.3 0.0 0.0 0.0 0.0 0.0 0.0 0.0 
node 1 1 1 1
node 2 2 1 1
node 3 1 1 3
node 4 1 0 2
node 84 1 0 0
gene  1 1 4 -6.706429007461783 0 1.0 -6.706429007461783 0
gene  1 2 4 11.268649360457996 0 2.0 11.268649360457996 1
gene  2 3 4 13.702911564253897 0 3.0 13.702911564253897 1
gene  1 1 84 1.319126880667562 0 381.0 1.319126880667562 1
gene  1 84 4 -9.876933236188439 0 382.0 -9.876933236188439 1
gene  1 2 84 -5.699140951488045 0 538.0 -5.699140951488045 1
gene  3 3 84 -1.4443574941917448 0 593.0 -1.4443574941917448 1
genomeend 2
/* Organism # 003 Fitness:  9,000 Error:  1,000                      */
genomestart  3
trait 1 0.0 0.0 0.0 0.0 0.0 0.0 0.0 0.0 
trait 2 0.0 0.12164882254541409 0.0 0.16000971012070053 0.0 0.6105478423543726 0.0 0.0 
trait 3 0.3 0.0 0.0 0.0 0.0 0.0 0.0 0.0 
node 1 1 1 1
node 2 2 1 1
node 3 1 1 3
node 4 1 0 2
node 84 1 0 0
gene  1 1 4 -6.180880234398234 0 1.0 -6.180880234398234 0
gene  1 2 4 11.822762763772198 0 2.0 11.822762763772198 1
gene  2 3 4 13.828264308849116 0 3.0 13.828264308849116 1
gene  1 1 84 1.319126880667562 0 381.0 1.319126880667562 1
gene  1 84 4 -8.594561778579763 0 382.0 -8.594561778579763 1
gene  1 2 84 -4.1744245335314 0 538.0 -4.1744245335314 1
gene  3 3 84 -1.2231631858277512 0 593.0 -1.2231631858277512 1
genomeend 3
/*-------------------------------------------------------------------*/
/* Species # 002         : (size= 004) (AvfFit= 8,967) (Age= 50,000)  */
/*-------------------------------------------------------------------*/
/* Organism # 004 Fitness:  9,000 Error:  1,000                      */
genomestart  4
trait 1 0.1 0.011385778062390165 0.0 0.0 0.011495292781822517 0.002964725141408495 0.0 0.00206311963066415 
trait 2 0.42000616145913794 0.31707582415339564 0.0 0.0 0.0 0.0 0.0 0.0 
trait 3 0.3 0.11212634648669709 0.005759404633646656 0.023685799648318052 0.009735323139203025 0.0 0.0 0.011754876500900707 
node 1 1 1 1
node 2 1 1 1
node 3 1 1 3
node 4 1 0 2
node 5 2 0 0
node 121 1 0 0
gene  3 1 4 7.666950419495403 0 1.0 7.666950419495403 0
gene  2 2 4 16.285152422603378 0 2.0 16.285152422603378 1
gene  3 3 4 -15.020725261665117 0 3.0 -15.020725261665117 1
gene  2 1 5 0.5644294051329011 0 4.0 0.5644294051329011 1
gene  1 5 4 -7.244444951335085 0 5.0 -7.244444951335085 1
gene  2 2 5 4.8212587007026455 0 8.0 4.8212587007026455 1
gene  1 3 5 0.33868350765952426 0 332.0 0.33868350765952426 1
gene  1 1 121 0.034948787504829215 0 556.0 0.034948787504829215 1
gene  1 121 5 2.966864426965696 0 557.0 2.966864426965696 1
gene  1 2 121 -2.3403865105663852 0 654.0 -2.3403865105663852 1
gene  2 3 121 1.1163635999372037 0 673.0 1.1163635999372037 1
genomeend 4
/* Organism # 005 Fitness:  9,000 Error:  1,000                      */
genomestart  5
trait 1 0.1 0.011385778062390165 0.0 0.0 0.011495292781822517 0.002964725141408495 0.0 0.00206311963066415 
trait 2 0.42000616145913794 0.31707582415339564 0.0 0.0 0.0 0.0 0.0 0.0 
trait 3 0.3 0.11212634648669709 0.005759404633646656 0.023685799648318052 0.009735323139203025 0.0 0.0 0.011754876500900707 
node 1 1 1 1
node 2 1 1 1
node 3 1 1 3
node 4 1 0 2
node 5 2 0 0
node 121 1 0 0
gene  3 1 4 7.013667060208548 0 1.0 7.013667060208548 0
gene  2 2 4 17.77808186094148 0 2.0 17.77808186094148 1
gene  3 3 4 -17.366719165782406 0 3.0 -17.366719165782406 1
gene  1 1 5 -0.09204210765253046 0 4.0 -0.09204210765253046 1
gene  1 5 4 -9.165088152738807 0 5.0 -9.165088152738807 1
gene  2 2 5 -1.5545421065907559 0 8.0 -1.5545421065907559 1
gene  1 3 5 0.48201723781766836 0 332.0 0.48201723781766836 1
gene  1 1 121 1.4174345715012744 0 556.0 1.4174345715012744 1
gene  1 121 5 6.494043893830602 0 557.0 6.494043893830602 1
gene  1 2 121 0.7780068311194815 0 654.0 0.7780068311194815 1
gene  2 3 121 0.2286784844087888 0 673.0 0.2286784844087888 1
genomeend 5
/* Organism # 006 Fitness:  8,868 Error:  1,022                      */
genomestart  6
trait 1 0.1 0.011385778062390165 0.0 0.0 0.011495292781822517 0.002964725141408495 0.0 0.00206311963066415 
trait 2 0.42000616145913794 0.31707582415339564 0.0 0.0 0.0 0.0 0.0 0.0 
trait 3 0.3 0.11212634648669709 0.005759404633646656 0.023685799648318052 0.009735323139203025 0.0 0.0 0.011754876500900707 
node 1 1 1 1
node 2 1 1 1
node 3 1 1 3
node 4 1 0 2
node 5 2 0 0
node 121 1 0 0
gene  3 1 4 6.432074607125826 0 1.0 6.432074607125826 0
gene  2 2 4 18.330181383240067 0 2.0 18.330181383240067 1
gene  3 3 4 -17.46937466610712 0 3.0 -17.46937466610712 1
gene  1 1 5 3.5688542187902894 0 4.0 3.5688542187902894 1
gene  1 5 4 -1.63336777037251 0 5.0 -1.63336777037251 1
gene  2 2 5 6.039237472150393 0 8.0 6.039237472150393 1
gene  1 3 5 3.380531316966386 0 332.0 3.380531316966386 1
gene  1 1 121 -0.9743760994329133 0 556.0 -0.9743760994329133 1
gene  1 121 5 4.510299508257947 0 557.0 4.510299508257947 1
gene  1 2 121 0.17544190835180218 0 654.0 0.17544190835180218 1
gene  2 3 121 4.129675627968828 0 673.0 4.129675627968828 1
genomeend 6
/* Organism # 007 Fitness:  9,000 Error:  1,000                      */
genomestart  7
trait 1 0.1 0.011385778062390165 0.0 0.0 0.011495292781822517 0.002964725141408495 0.0 0.00206311963066415 
trait 2 0.42000616145913794 0.31707582415339564 0.0 0.0 0.0 0.0 0.0 0.0 
trait 3 0.3 0.11212634648669709 0.005759404633646656 0.023685799648318052 0.009735323139203025 0.0 0.0 0.011754876500900707 
node 1 1 1 1
node 2 1 1 1
node 3 1 1 3
node 4 1 0 2
node 5 2 0 0
node 121 1 0 0
gene  3 1 4 5.324351552517064 0 1.0 5.324351552517064 0
gene  2 2 4 17.908241047425797 0 2.0 17.908241047425797 1
gene  3 3 4 -14.917589527168259 0 3.0 -14.917589527168259 1
gene  1 1 5 1.6510575820062878 0 4.0 1.6510575820062878 1
gene  1 5 4 -9.686622340177944 0 5.0 -9.686622340177944 1
gene  2 2 5 4.77963352017272 0 8.0 4.77963352017272 1
gene  1 3 5 2.168523580777725 0 332.0 2.168523580777725 1
gene  1 1 121 -1.9617797392228415 0 556.0 -1.9617797392228415 1
gene  1 121 5 2.2620627515712974 0 557.0 2.2620627515712974 1
gene  1 2 121 -0.3997684522659428 0 654.0 -0.3997684522659428 1
gene  2 3 121 0.6269296603408838 0 673.0 0.6269296603408838 1
genomeend 7
/*-------------------------------------------------------------------*/
/* Species # 003         : (size= 004) (AvfFit= 8,392) (Age= 49,000)  */
/*-------------------------------------------------------------------*/
/* Organism # 008 Fitness:  6,569 Error:  1,437                      */
genomestart  8
trait 1 0.4677569475917177 0.0 0.0 0.0 0.0 0.0 0.0 0.5248418478491693 
trait 2 0.2 0.0 0.0 0.0 0.0 0.0 0.0 0.0 
trait 3 0.10653868622867413 0.0 0.0 0.04273968451844101 0.0 0.0 0.5591637474897992 0.9586955729685762 
node 1 1 1 1
node 2 1 1 1
node 3 1 1 3
node 4 1 0 2
node 5 1 0 0
node 7 1 0 0
node 116 1 0 0
gene  1 1 4 -1.6352865976100421 0 1.0 -1.6352865976100421 0
gene  1 2 4 -14.35207106707076 0 2.0 -14.35207106707076 1
gene  2 3 4 21.800352859925198 0 3.0 21.800352859925198 1
gene  1 1 5 -0.6461385070281596 0 4.0 -0.6461385070281596 0
gene  1 5 4 -11.738158533800874 0 5.0 -11.738158533800874 1
gene  1 1 7 19.762544421769732 0 10.0 19.762544421769732 1
gene  1 7 4 -10.28534724001448 0 11.0 -10.28534724001448 1
gene  3 5 7 -8.217111936511952 0 122.0 -8.217111936511952 1
gene  2 2 5 9.075821223186722 0 154.0 9.075821223186722 1
gene  3 2 7 -2.639523688414586 0 247.0 -2.639523688414586 1
gene  3 3 7 -0.8876982005026651 0 406.0 -0.8876982005026651 1
gene  1 1 116 1.8344878312288007 0 529.0 1.8344878312288007 1
gene  1 116 5 0.7578284791652867 0 530.0 0.7578284791652867 1
gene  1 2 116 -0.45257842505124213 0 606.0 -0.45257842505124213 1
gene  3 116 7 1.552907603706716 0 699.0 1.552907603706716 1
genomeend 8
/* Organism # 009 Fitness:  9,000 Error:  1,000                      */
genomestart  9
trait 1 0.4677569475917177 0.0 0.0 0.0 0.0 0.0 0.0 0.5248418478491693 
trait 2 0.2 0.0 0.3874568854737884 0.0 0.8742722211053654 0.8234257335086601 0.0 0.0 
trait 3 0.10653868622867413 0.0 0.0 0.04273968451844101 0.0 0.0 0.5591637474897992 0.9586955729685762 
node 1 1 1 1
node 2 1 1 1
node 3 1 1 3
node 4 1 0 2
node 5 1 0 0
node 7 1 0 0
node 116 1 0 0
gene  1 1 4 0.7208582174933897 0 1.0 0.7208582174933897 0
gene  1 2 4 -14.282491603120912 0 2.0 -14.282491603120912 1
gene  2 3 4 20.313702146612805 0 3.0 20.313702146612805 1
gene  1 1 5 1.8768155009050118 0 4.0 1.8768155009050118 0
gene  1 5 4 -8.819075449624387 0 5.0 -8.819075449624387 1
gene  1 1 7 17.229376932787083 0 10.0 17.229376932787083 1
gene  1 7 4 -8.471712180496016 0 11.0 -8.471712180496016 1
gene  3 5 7 -10.452238260191633 0 122.0 -10.452238260191633 1
gene  2 2 5 8.453346538309917 0 154.0 8.453346538309917 1
gene  3 2 7 0.011308081598777608 0 247.0 0.011308081598777608 1
gene  3 3 7 1.2435848259923505 0 406.0 1.2435848259923505 1
gene  1 1 116 4.091293291197479 0 529.0 4.091293291197479 1
gene  1 116 5 -0.7324431300539163 0 530.0 -0.7324431300539163 1
gene  1 2 116 2.3128355114431813 0 606.0 2.3128355114431813 1
gene  3 116 7 -0.5730469792316895 0 699.0 -0.5730469792316895 1
genomeend 9
/* Organism # 010 Fitness:  9,000 Error:  1,000                      */
genomestart  10
trait 1 0.4677569475917177 0.0 0.0 0.0 0.0 0.0 0.0 0.5248418478491693 
trait 2 0.2 0.0 0.0 0.0 0.0 0.0 0.0 0.0 
trait 3 0.10653868622867413 0.0 0.0 0.04273968451844101 0.0 0.0 0.5591637474897992 0.9586955729685762 
node 1 1 1 1
node 2 1 1 1
node 3 1 1 3
node 4 1 0 2
node 5 1 0 0
node 7 1 0 0
node 116 1 0 0
gene  1 1 4 0.36092673916327356 0 1.0 0.36092673916327356 0
gene  1 2 4 -14.575429622352026 0 2.0 -14.575429622352026 1
gene  2 3 4 18.28094871332954 0 3.0 18.28094871332954 1
gene  1 1 5 -1.2823801884143224 0 4.0 -1.2823801884143224 0
gene  1 5 4 -7.323072615916237 0 5.0 -7.323072615916237 1
gene  1 1 7 19.653420442257513 0 10.0 19.653420442257513 1
gene  1 7 4 -7.656457668601234 0 11.0 -7.656457668601234 1
gene  3 5 7 -9.905885485349959 0 122.0 -9.905885485349959 1
gene  2 2 5 10.801558609961615 0 154.0 10.801558609961615 1
gene  3 2 7 -2.0858531537551337 0 247.0 -2.0858531537551337 1
gene  3 3 7 -1.6805272385403514 0 406.0 -1.6805272385403514 1
gene  1 1 116 4.632015307208637 0 529.0 4.632015307208637 1
gene  1 116 5 -2.572446390550021 0 530.0 -2.572446390550021 1
gene  1 2 116 -1.6344989125219875 0 606.0 -1.6344989125219875 1
gene  3 116 7 -0.19605236971635742 0 699.0 -0.19605236971635742 1
genomeend 10
/* Organism # 011 Fitness:  9,000 Error:  1,000                      */
genomestart  11
trait 1 0.4677569475917177 0.0 0.0 0.0 0.0 0.0 0.0 0.5248418478491693 
trait 2 0.2 0.0 0.0 0.0 0.0 0.0 0.0 0.0 
trait 3 0.10653868622867413 0.0 0.0 0.04273968451844101 0.0 0.0 0.5591637474897992 0.9586955729685762 
node 1 1 1 1
node 2 1 1 1
node 3 1 1 3
node 4 1 0 2
node 5 1 0 0
node 7 1 0 0
node 116 1 0 0
gene  1 1 4 1.2679826399859724 0 1.0 1.2679826399859724 0
gene  1 2 4 -16.71221027679598 0 2.0 -16.71221027679598 1
gene  2 3 4 16.89232632594306 0 3.0 16.89232632594306 1
gene  1 1 5 1.508656111020728 0 4.0 1.508656111020728 0
gene  1 5 4 -8.387407300778294 0 5.0 -8.387407300778294 1
gene  1 1 7 18.291573880283458 0 10.0 18.291573880283458 1
gene  1 7 4 -6.997513066048899 0 11.0 -6.997513066048899 1
gene  3 5 7 -8.143993882723358 0 122.0 -8.143993882723358 1
gene  2 2 5 9.672514455947045 0 154.0 9.672514455947045 1
gene  3 2 7 1.4812055236689088 0 247.0 1.4812055236689088 1
gene  3 3 7 -1.0729199279132782 0 406.0 -1.0729199279132782 1
gene  1 1 116 4.568629508152162 0 529.0 4.568629508152162 1
gene  1 116 5 -3.2218930418801763 0 530.0 -3.2218930418801763 1
gene  1 2 116 -2.3439745910261007 0 606.0 -2.3439745910261007 1
gene  3 116 7 -0.5730469792316895 0 699.0 -0.5730469792316895 1
genomeend 11
/*-------------------------------------------------------------------*/
/* Species # 004         : (size= 004) (AvfFit= 7,745) (Age= 48,000)  */
/*-------------------------------------------------------------------*/
/* Organism # 012 Fitness:  8,981 Error:  1,003                      */
genomestart  12
trait 1 0.0 0.0 0.0 0.11515979884592453 0.10820001854691197 0.6782844712534337 0.49826864144017213 0.0 
trait 2 0.2 0.0 0.0 0.0 0.0 0.0 0.0 0.0 
trait 3 0.3 0.0 0.0 0.0 0.0 0.0 0.0 0.0 
node 1 1 1 1
node 2 1 1 1
node 3 1 1 3
node 4 3 0 2
node 14 1 0 0
node 146 1 0 0
gene  1 1 4 -1.0689335287181976 0 1.0 -1.0689335287181976 0
gene  2 2 4 -8.983929106043163 0 2.0 -8.983929106043163 0
gene  3 3 4 10.147426292675005 0 3.0 10.147426292675005 1
gene  1 1 14 2.0425242919904147 0 35.0 2.0425242919904147 1
gene  1 14 4 -10.960083965895663 0 36.0 -10.960083965895663 1
gene  1 2 14 10.251997145820459 0 242.0 10.251997145820459 1
gene  2 3 14 -10.746557780542174 0 254.0 -10.746557780542174 1
gene  2 2 146 1.0 0 700.0 0.0 1
gene  2 146 4 -8.983929106043163 0 701.0 0.0 1
gene  1 3 146 2.975761674425217 0 760.0 2.975761674425217 1
genomeend 12
/* Organism # 013 Fitness:  9,000 Error:  1,000                      */
genomestart  13
trait 1 0.0 0.0 0.0 0.11515979884592453 0.10820001854691197 0.6782844712534337 0.49826864144017213 0.0 
trait 2 0.2 0.0 0.0 0.0 0.0 0.0 0.0 0.0 
trait 3 0.3 0.0 0.0 0.0 0.0 0.0 0.0 0.0 
node 1 1 1 1
node 2 1 1 1
node 3 1 1 3
node 4 3 0 2
node 14 1 0 0
node 146 1 0 0
gene  1 1 4 -1.2397787161929168 0 1.0 -1.2397787161929168 0
gene  2 2 4 -6.630243033472768 0 2.0 -6.630243033472768 0
gene  3 3 4 10.40858440758342 0 3.0 10.40858440758342 1
gene  1 1 14 3.05185911350977 0 35.0 3.05185911350977 1
gene  1 14 4 -10.008532162909741 0 36.0 -10.008532162909741 1
gene  1 2 14 12.506632959123603 0 242.0 12.506632959123603 1
gene  2 3 14 -10.339584551767164 0 254.0 -10.339584551767164 1
gene  2 2 146 1.9177616171807266 0 700.0 1.9177616171807266 1
gene  2 146 4 -8.880164911996067 0 701.0 -8.880164911996067 1
genomeend 13
/* Organism # 014 Fitness:  4,000 Error:  2,000                      */
genomestart  14
trait 1 0.053125000000000006 0.0 0.0 0.0 0.0 0.0 0.0 0.0 
trait 2 0.2 0.0 0.0 0.0 0.0 0.0 0.0 0.0 
trait 3 0.3 0.0 0.0 0.0 0.0 0.0 0.0 0.0 
node 1 2 1 1
node 2 1 1 1
node 3 1 1 3
node 4 3 0 2
node 14 1 0 0
node 146 1 0 0
gene  3 1 4 0.671874894570632 0 1.0 0.671874894570632 0
gene  2 2 4 -1.3991520365250003 0 2.0 -1.3991520365250003 0
gene  3 3 4 9.700807698971703 0 3.0 9.700807698971703 1
gene  1 1 14 -0.33255940222523817 0 35.0 -0.33255940222523817 1
gene  1 14 4 -12.142045865202869 0 36.0 -12.142045865202869 1
gene  1 2 14 6.90881187001864 0 242.0 6.90881187001864 1
gene  2 3 14 -12.478939665435737 0 254.0 -12.478939665435737 1
gene  2 2 146 -1.225062406543414 0 700.0 -1.225062406543414 1
gene  2 146 4 -6.723594817043606 0 701.0 -6.723594817043606 1
genomeend 14
/* Organism # 015 Fitness:  9,000 Error:  1,000                      */
genomestart  15
trait 1 0.053125000000000006 0.0 0.0 0.0 0.0 0.0 0.0 0.0 
trait 2 0.2 0.0 0.0 0.0 0.0 0.0 0.0 0.0 
trait 3 0.3 0.0 0.0 0.0 0.0 0.0 0.0 0.0 
node 1 1 1 1
node 2 2 1 1
node 3 1 1 3
node 4 3 0 2
node 14 1 0 0
node 146 1 0 0
gene  1 1 4 -2.379502046234562 0 1.0 -2.379502046234562 0
gene  2 2 4 -9.891806132065938 0 2.0 -9.891806132065938 0
gene  3 3 4 9.580173750164738 0 3.0 9.580173750164738 1
gene  1 1 14 4.30359287312082 0 35.0 4.30359287312082 1
gene  1 14 4 -13.059396433267986 0 36.0 -13.059396433267986 1
gene  1 2 14 8.470303070408647 0 242.0 8.470303070408647 1
gene  2 3 14 -9.257597966502102 0 254.0 -9.257597966502102 1
gene  2 2 146 -0.6381861312460788 0 700.0 -0.6381861312460788 1
gene  2 146 4 -10.460643929223972 0 701.0 -10.460643929223972 1
genomeend 15
/*-------------------------------------------------------------------*/
/* Species # 005         : (size= 005) (AvfFit= 8,957) (Age= 48,000)  */
/*-------------------------------------------------------------------*/
/* Organism # 016 Fitness:  8,999 Error:  1,000                      */
genomestart  16
trait 1 0.025 0.5448851764810688 0.0 0.0 0.0 0.3244007105419121 0.0 0.0 
trait 2 0.2 0.0 0.0 0.0 0.0 0.0 0.0 0.0 
trait 3 0.3190884541009838 0.0 0.08418681035920061 0.0 0.1066469058176206 0.0 0.17279956238618355 0.6990299527401851 
node 1 1 1 1
node 2 1 1 1
node 3 1 1 3
node 4 2 0 2
node 6 1 0 0
node 10 1 0 0
gene  1 1 4 -0.7928030073067652 0 1.0 -0.7928030073067652 0
gene  2 2 4 12.775944626372448 0 2.0 12.775944626372448 1
gene  3 3 4 1.7902800567294541 0 3.0 1.7902800567294541 1
gene  1 1 6 -1.1314911427435117 0 6.0 -1.1314911427435117 0
gene  1 6 4 -15.407336709602312 0 7.0 -15.407336709602312 1
gene  1 1 10 -1.4990746509845594 0 17.0 -1.4990746509845594 1
gene  1 10 6 -0.7658411287342008 0 18.0 -0.7658411287342008 1
gene  1 3 6 -11.117851399084953 0 167.0 -11.117851399084953 1
gene  3 2 10 2.7293907116848244 0 182.0 2.7293907116848244 1
gene  1 2 6 -11.522167819395017 0 271.0 -11.522167819395017 1
gene  1 3 10 -0.11833818184919381 0 626.0 -0.11833818184919381 1
genomeend 16
/* Organism # 017 Fitness:  9,000 Error:  1,000                      */
genomestart  17
trait 1 0.025 0.5448851764810688 0.0 0.0 0.0 0.3244007105419121 0.0 0.0 
trait 2 0.2 0.0 0.0 0.0 0.0 0.0 0.0 0.0 
trait 3 0.3190884541009838 0.0 0.08418681035920061 0.0 0.1066469058176206 0.0 0.17279956238618355 0.6990299527401851 
node 1 1 1 1
node 2 1 1 1
node 3 1 1 3
node 4 2 0 2
node 6 1 0 0
node 10 1 0 0
gene  1 1 4 -1.271655119719378 0 1.0 -1.271655119719378 0
gene  2 2 4 11.186306703616635 0 2.0 11.186306703616635 1
gene  3 3 4 14.420874191256523 0 3.0 14.420874191256523 1
gene  1 1 6 -1.1314911427435117 0 6.0 -1.1314911427435117 0
gene  1 6 4 -13.751925351944768 0 7.0 -13.751925351944768 1
gene  1 1 10 5.753978373332403 0 17.0 5.753978373332403 1
gene  1 10 6 0.7826229874509611 0 18.0 0.7826229874509611 1
gene  1 3 6 -10.666020075755858 0 167.0 -10.666020075755858 1
gene  3 2 10 2.223797956242812 0 182.0 2.223797956242812 1
gene  1 2 6 -9.1050656740112 0 271.0 -9.1050656740112 1
gene  1 3 10 -1.1769835943547866 0 626.0 -1.1769835943547866 1
gene  1 10 4 6.590239968206086 0 756.0 6.590239968206086 1
genomeend 17
/* Organism # 018 Fitness:  9,000 Error:  1,000                      */
genomestart  18
trait 1 0.025 0.5448851764810688 0.0 0.0 0.0 0.3244007105419121 0.0 0.0 
trait 2 0.2 0.0 0.0 0.0 0.0 0.0 0.0 0.0 
trait 3 0.3190884541009838 0.0 0.0 0.0 0.1066469058176206 0.0 0.0 0.0 
node 1 1 1 1
node 2 1 1 1
node 3 1 1 3
node 4 2 0 2
node 6 1 0 0
node 10 1 0 0
gene  1 1 4 4.574197291578127 0 1.0 4.574197291578127 0
gene  2 2 4 13.23929581281107 0 2.0 13.23929581281107 1
gene  3 3 4 13.551065660722362 0 3.0 13.551065660722362 1
gene  1 1 6 -0.1644414540932302 0 6.0 -0.1644414540932302 0
gene  1 6 4 -13.16331738367921 0 7.0 -13.16331738367921 1
gene  1 1 10 2.0744142975675706 0 17.0 2.0744142975675706 1
gene  1 10 6 2.9082191447272496 0 18.0 2.9082191447272496 1
gene  1 3 6 -13.394705170024196 0 167.0 -13.394705170024196 1
gene  3 2 10 2.5977872406147675 0 182.0 2.5977872406147675 1
gene  1 2 6 -9.509758002113031 0 271.0 -9.509758002113031 1
gene  1 3 10 0.5509389731888186 0 626.0 0.5509389731888186 1
genomeend 18
/* Organism # 019 Fitness:  9,000 Error:  1,000                      */
genomestart  19
trait 1 0.025 0.5448851764810688 0.0 0.0 0.0 0.3244007105419121 0.0 0.0 
trait 2 0.2 0.0 0.0 0.0 0.0 0.0 0.0 0.0 
trait 3 0.3190884541009838 0.0 0.08418681035920061 0.0 0.1066469058176206 0.0 0.17279956238618355 0.6990299527401851 
node 1 1 1 1
node 2 1 1 1
node 3 1 1 3
node 4 2 0 2
node 6 1 0 0
node 10 1 0 0
gene  1 1 4 -1.2895992415575284 0 1.0 -1.2895992415575284 0
gene  2 2 4 11.572333678575713 0 2.0 11.572333678575713 1
gene  3 3 4 15.653773774951974 0 3.0 15.653773774951974 1
gene  1 1 6 0.6979479980087713 0 6.0 0.6979479980087713 0
gene  1 6 4 -15.233550702140743 0 7.0 -15.233550702140743 1
gene  1 1 10 6.619952860312564 0 17.0 6.619952860312564 1
gene  1 10 6 1.4073455951152698 0 18.0 1.4073455951152698 1
gene  1 3 6 -8.434987389700138 0 167.0 -8.434987389700138 1
gene  3 2 10 2.4720090169813167 0 182.0 2.4720090169813167 1
gene  1 2 6 -10.834284314914123 0 271.0 -10.834284314914123 1
gene  1 3 10 -1.1769835943547866 0 626.0 -1.1769835943547866 1
genomeend 19
/* Organism # 020 Fitness:  8,785 Error:  1,036                      */
genomestart  20
trait 1 0.025 0.5448851764810688 0.0 0.0 0.0 0.3244007105419121 0.0 0.0 
trait 2 0.2 0.0 0.0 0.0 0.0 0.0 0.0 0.0 
trait 3 0.3190884541009838 0.0 0.08418681035920061 0.0 0.1066469058176206 0.0 0.17279956238618355 0.6990299527401851 
node 1 1 1 1
node 2 1 1 1
node 3 1 1 3
node 4 2 0 2
node 6 1 0 0
node 10 1 0 0
gene  1 1 4 -3.490884423558861 0 1.0 -3.490884423558861 0
gene  2 2 4 2.2115071939156086 0 2.0 2.2115071939156086 1
gene  3 3 4 1.7751856947938243 0 3.0 1.7751856947938243 1
gene  1 1 6 -2.0522232884793343 0 6.0 -2.0522232884793343 0
gene  1 6 4 -15.136208891982843 0 7.0 -15.136208891982843 1
gene  1 1 10 6.710877980999266 0 17.0 6.710877980999266 1
gene  1 10 6 -0.6243016327877957 0 18.0 -0.6243016327877957 1
gene  1 3 6 -10.666020075755858 0 167.0 -10.666020075755858 1
gene  3 2 10 3.1874749512457887 0 182.0 3.1874749512457887 1
gene  1 2 6 -1.2882878517044056 0 271.0 -1.2882878517044056 1
gene  1 3 10 -3.28018433019282 0 626.0 -3.28018433019282 1
genomeend 20
/*-------------------------------------------------------------------*/
/* Species # 006         : (size= 005) (AvfFit= 7,000) (Age= 47,000)  */
/*-------------------------------------------------------------------*/
/* Organism # 021 Fitness:  8,999 Error:  1,000                      */
genomestart  21
trait 1 0.1 0.0 0.0 0.0 0.0 0.0 0.0 0.0 
trait 2 0.0 0.0 0.0 0.0 0.0 0.7890145533368912 0.0 0.0 
trait 3 0.3 0.0 0.0 0.0 0.0 0.0 0.0 0.0 
node 1 1 1 1
node 2 2 1 1
node 3 1 1 3
node 4 1 0 2
node 5 2 0 0
node 11 1 0 0
node 139 1 0 0
node 145 1 0 0
gene  1 1 4 -2.5350369731234714 0 1.0 -2.5350369731234714 0
gene  2 2 4 6.861039824433319 0 2.0 6.861039824433319 1
gene  3 3 4 16.340672707300598 0 3.0 16.340672707300598 1
gene  1 1 5 0.2802947906665687 0 4.0 0.2802947906665687 1
gene  1 5 4 -0.8078178507882734 0 5.0 -0.8078178507882734 1
gene  3 2 5 1.7902062634032627 0 9.0 1.7902062634032627 1
gene  2 3 5 -1.730188478054873 0 19.0 -1.730188478054873 1
gene  2 2 11 2.1910281706071704 0 23.0 2.1910281706071704 1
gene  2 11 4 1.5879938272616454 0 24.0 1.5879938272616454 1
gene  2 5 11 5.523894913036283 0 127.0 5.523894913036283 1
gene  1 3 11 0.5481859846385797 0 231.0 0.5481859846385797 1
gene  2 1 11 -1.2224426127179815 0 612.0 -1.2224426127179815 1
gene  1 5 139 2.4712575760195734 0 646.0 2.4712575760195734 1
gene  1 139 4 -2.661685848782718 0 647.0 -2.661685848782718 1
gene  2 2 139 6.976557125052187 0 680.0 6.976557125052187 0
gene  2 2 145 1.8805823565134232 0 695.0 1.8805823565134232 1
gene  2 145 139 6.5707640113807475 0 696.0 6.5707640113807475 1
genomeend 21
/* Organism # 022 Fitness:  9,000 Error:  1,000                      */
genomestart  22
trait 1 0.1 0.0 0.0 0.0 0.0 0.0 0.0 0.0 
trait 2 0.0 0.0 0.0 0.0 0.0 0.7890145533368912 0.0 0.0 
trait 3 0.3 0.0 0.0 0.0 0.0 0.0 0.0 0.0 
node 1 1 1 1
node 2 1 1 1
node 3 1 1 3
node 4 1 0 2
node 5 2 0 0
node 11 1 0 0
node 139 1 0 0
node 145 1 0 0
gene  1 1 4 -2.3153589607767913 0 1.0 -2.3153589607767913 0
gene  2 2 4 9.97606132838048 0 2.0 9.97606132838048 1
gene  3 3 4 14.078607675588948 0 3.0 14.078607675588948 1
gene  1 1 5 1.8958006029639125 0 4.0 1.8958006029639125 1
gene  1 5 4 -2.5123526876006537 0 5.0 -2.5123526876006537 1
gene  3 2 5 1.9968061259632144 0 9.0 1.9968061259632144 1
gene  2 3 5 -0.004612353695328808 0 19.0 -0.004612353695328808 1
gene  2 2 11 4.8576123539087375 0 23.0 4.8576123539087375 1
gene  2 11 4 -0.971857758775412 0 24.0 -0.971857758775412 1
gene  2 5 11 6.324516583011521 0 127.0 6.324516583011521 1
gene  1 3 11 4.2867671517897765 0 231.0 4.2867671517897765 1
gene  2 1 11 -4.849968007182378 0 612.0 -4.849968007182378 1
gene  1 5 139 3.284046282640087 0 646.0 3.284046282640087 1
gene  1 139 4 -1.7788481436453785 0 647.0 -1.7788481436453785 1
gene  2 2 139 4.9002297768165946 0 680.0 4.9002297768165946 0
gene  2 2 145 1.8805823565134232 0 695.0 1.8805823565134232 1
gene  2 145 139 7.362227031807812 0 696.0 7.362227031807812 1
genomeend 22
/* Organism # 023 Fitness:  4,000 Error:  2,000                      */
genomestart  23
trait 1 0.1 0.0 0.0 0.0 0.0 0.0 0.0 0.0 
trait 2 0.0 0.0 0.0 0.0 0.0 0.7890145533368912 0.0 0.0 
trait 3 0.0 0.0 0.0 0.31162694246748845 0.0 0.0 0.0 0.0 
node 1 1 1 1
node 2 1 1 1
node 3 1 1 3
node 4 1 0 2
node 5 2 0 0
node 11 1 0 0
node 139 1 0 0
node 145 1 0 0
gene  1 1 4 -5.715383365827521 0 1.0 -5.715383365827521 0
gene  2 2 4 -1.1849295253883487 0 2.0 -1.1849295253883487 1
gene  3 3 4 12.793061182715212 0 3.0 12.793061182715212 1
gene  1 1 5 2.4765171989901824 0 4.0 2.4765171989901824 1
gene  1 5 4 -2.407965340256709 0 5.0 -2.407965340256709 1
gene  3 2 5 -1.5022247185358373 0 9.0 -1.5022247185358373 1
gene  2 3 5 -0.7005594046256606 0 19.0 -0.7005594046256606 1
gene  2 2 11 2.1662676564405334 0 23.0 2.1662676564405334 1
gene  2 11 4 -0.8570752828423239 0 24.0 -0.8570752828423239 1
gene  2 5 11 7.884498870754239 0 127.0 7.884498870754239 1
gene  1 3 11 4.2191803911421415 0 231.0 4.2191803911421415 1
gene  2 1 11 -2.051208391927981 0 612.0 -2.051208391927981 1
gene  1 5 139 3.3312963592695284 0 646.0 3.3312963592695284 1
gene  1 139 4 0.6351741149315152 0 647.0 0.6351741149315152 1
gene  2 2 139 7.8461579163077735 0 680.0 7.8461579163077735 0
gene  2 2 145 2.70835529663069 0 695.0 2.70835529663069 1
gene  2 145 139 -2.2941933793724383 0 696.0 -2.2941933793724383 1
genomeend 23
/* Organism # 024 Fitness:  4,000 Error:  2,000                      */
genomestart  24
trait 1 0.1 0.0 0.0 0.0 0.0 0.0 0.0 0.0 
trait 2 0.0 0.0 0.0 0.0 0.0 0.6665769707189415 0.0 0.2534099881981434 
trait 3 0.3 0.0 0.0 0.0 0.0 0.0 0.0 0.0 
node 1 1 1 1
node 2 1 1 1
node 3 1 1 3
node 4 1 0 2
node 5 2 0 0
node 11 1 0 0
node 139 1 0 0
node 145 1 0 0
gene  1 1 4 -0.1949790748118982 0 1.0 -0.1949790748118982 0
gene  2 2 4 -0.2651601909158535 0 2.0 -0.2651601909158535 1
gene  3 3 4 11.798485554276471 0 3.0 11.798485554276471 1
gene  1 1 5 -1.3478503635015273 0 4.0 -1.3478503635015273 1
gene  1 5 4 -0.4293141174531785 0 5.0 -0.4293141174531785 1
gene  3 2 5 2.454252172741459 0 9.0 2.454252172741459 1
gene  2 3 5 -2.0704144456524984 0 19.0 -2.0704144456524984 1
gene  2 2 11 5.237396857262064 0 23.0 5.237396857262064 1
gene  2 11 4 -0.8570752828423239 0 24.0 -0.8570752828423239 1
gene  2 5 11 4.645506815518966 0 127.0 4.645506815518966 1
gene  1 3 11 -0.11943703010382417 0 231.0 -0.11943703010382417 1
gene  2 1 11 -1.9328642415411983 0 612.0 -1.9328642415411983 1
gene  1 5 139 3.20731818155108 0 646.0 3.20731818155108 1
gene  1 139 4 -2.597886942208778 0 647.0 -2.597886942208778 1
gene  2 2 139 8.233194227911026 0 680.0 8.233194227911026 0
gene  2 2 145 1.6385526336944354 0 695.0 1.6385526336944354 1
gene  2 145 139 8.82838707498158 0 696.0 8.82838707498158 1
genomeend 24
/* Organism # 025 Fitness:  9,000 Error:  1,000                      */
genomestart  25
trait 1 0.1 0.0 0.0 0.0 0.0 0.0 0.0 0.0 
trait 2 0.0 0.0 0.0 0.0 0.0 0.7890145533368912 0.0 0.0 
trait 3 0.3 0.0 0.0 0.0 0.0 0.0 0.0 0.0 
node 1 1 1 1
node 2 1 1 1
node 3 1 1 3
node 4 1 0 2
node 5 2 0 0
node 11 1 0 0
node 139 1 0 0
node 145 1 0 0
gene  1 1 4 -4.601520183350128 0 1.0 -4.601520183350128 0
gene  2 2 4 7.230311095899115 0 2.0 7.230311095899115 1
gene  3 3 4 14.90378233659394 0 3.0 14.90378233659394 1
gene  1 1 5 1.7878160346970624 0 4.0 1.7878160346970624 1
gene  1 5 4 -3.3743526075668426 0 5.0 -3.3743526075668426 1
gene  3 2 5 3.4097073643055253 0 9.0 3.4097073643055253 1
gene  2 3 5 1.0132309698572062 0 19.0 1.0132309698572062 1
gene  2 2 11 2.6592512371493777 0 23.0 2.6592512371493777 1
gene  2 11 4 0.49030851889438176 0 24.0 0.49030851889438176 1
gene  2 5 11 6.338400882764742 0 127.0 6.338400882764742 1
gene  1 3 11 0.4431954035261292 0 231.0 0.4431954035261292 1
gene  2 1 11 -2.853348699523877 0 612.0 -2.853348699523877 1
gene  1 5 139 2.5854129216767876 0 646.0 2.5854129216767876 1
gene  1 139 4 -0.8036234620211657 0 647.0 -0.8036234620211657 1
gene  2 2 139 6.976557125052187 0 680.0 6.976557125052187 0
gene  2 2 145 -1.8901854453486542 0 695.0 -1.8901854453486542 1
gene  2 145 139 8.36905133710522 0 696.0 8.36905133710522 1
genomeend 25
/*-------------------------------------------------------------------*/
/* Species # 007         : (size= 004) (AvfFit= 6,731) (Age= 47,000)  */
/*-------------------------------------------------------------------*/
/* Organism # 026 Fitness:  9,000 Error:  1,000                      */
genomestart  26
trait 1 0.8852445140920412 0.4100005836106212 0.0 0.0 0.0 0.0 0.0 0.0 
trait 2 0.1 0.0 0.2745656836152613 0.8163729433678998 0.0 0.3301629726161752 0.4434326801698363 0.0 
trait 3 0.3 0.0 0.0 0.0 0.0 0.0 0.0 0.0 
node 1 1 1 1
node 2 1 1 1
node 3 1 1 3
node 4 1 0 2
node 12 1 0 0
node 14 1 0 0
node 15 2 0 0
gene  1 1 4 -5.780119679377119 0 1.0 -5.780119679377119 1
gene  2 2 4 -7.8670665870918155 0 2.0 -7.8670665870918155 1
gene  3 3 4 13.447020767596518 0 3.0 13.447020767596518 1
gene  1 1 14 4.053671181368722 0 35.0 4.053671181368722 1
gene  1 14 4 -4.069366464833575 0 36.0 -4.069366464833575 1
gene  1 1 15 -0.8113523769368617 0 40.0 -0.8113523769368617 1
gene  1 15 12 -11.353712747173972 0 41.0 -11.353712747173972 1
gene  3 3 15 3.987903136716835 0 92.0 3.987903136716835 1
gene  3 2 15 -3.0890364889470368 0 159.0 -3.0890364889470368 1
gene  3 2 12 -2.637196891216827 0 208.0 -2.637196891216827 1
gene  1 14 15 -2.0524861569449304 0 399.0 -2.0524861569449304 1
gene  2 4 15 0.43474924541780746 0 639.0 0.43474924541780746 1
genomeend 26
/* Organism # 027 Fitness:  4,000 Error:  2,000                      */
genomestart  27
trait 1 0.8852445140920412 0.4100005836106212 0.0 0.0 0.0 0.0 0.0 0.0 
trait 2 0.1 0.0 0.2745656836152613 0.8163729433678998 0.0 0.3301629726161752 0.4434326801698363 0.0 
trait 3 0.3 0.0 0.0 0.0 0.0 0.0 0.0 0.0 
node 1 1 1 1
node 2 1 1 1
node 3 1 1 3
node 4 1 0 2
node 12 1 0 0
node 14 1 0 0
node 15 2 0 0
gene  1 1 4 -6.665569633610412 0 1.0 -6.665569633610412 1
gene  2 2 4 -11.246513241408838 0 2.0 -11.246513241408838 1
gene  3 3 4 0.1313607926681848 0 3.0 0.1313607926681848 1
gene  1 1 14 4.668988812338895 0 35.0 4.668988812338895 1
gene  1 14 4 1.1299536172752709 0 36.0 1.1299536172752709 1
gene  1 1 15 -3.0739873575978542 0 40.0 -3.0739873575978542 1
gene  1 15 12 -0.6577680164325381 0 41.0 -0.6577680164325381 1
gene  3 3 15 -1.9993965290647633 0 92.0 -1.9993965290647633 1
gene  3 2 15 -3.2721486885805957 0 159.0 -3.2721486885805957 1
gene  3 2 12 -5.949650863240931 0 208.0 -5.949650863240931 1
gene  1 14 15 -3.655066892659751 0 399.0 -3.655066892659751 1
gene  2 4 15 3.4979359574824995 0 639.0 3.4979359574824995 1
genomeend 27
/* Organism # 028 Fitness:  4,924 Error:  1,781                      */
genomestart  28
trait 1 0.8852445140920412 0.4100005836106212 0.0 0.0 0.0 0.0 0.0 0.0 
trait 2 0.1 0.0 0.2745656836152613 0.8163729433678998 0.0 0.3301629726161752 0.4434326801698363 0.0 
trait 3 0.3 0.0 0.0 0.0 0.0 0.0 0.0 0.0 
node 1 1 1 1
node 2 1 1 1
node 3 1 1 3
node 4 1 0 2
node 12 1 0 0
node 14 1 0 0
node 15 2 0 0
gene  1 1 4 -4.031089206477969 0 1.0 -4.031089206477969 1
gene  2 2 4 -9.154321595069202 0 2.0 -9.154321595069202 1
gene  3 3 4 8.988582107645355 0 3.0 8.988582107645355 1
gene  1 1 14 1.3029897269155413 0 35.0 1.3029897269155413 1
gene  1 14 4 -5.224332020528857 0 36.0 -5.224332020528857 1
gene  1 1 15 0.05326721542798918 0 40.0 0.05326721542798918 1
gene  1 15 12 -8.904040485494459 0 41.0 -8.904040485494459 1
gene  3 3 15 5.609331055717917 0 92.0 5.609331055717917 1
gene  3 2 15 -2.2446270058888462 0 159.0 -2.2446270058888462 1
gene  3 2 12 -5.276143503133793 0 208.0 -5.276143503133793 1
gene  1 14 15 2.4700205574400487 0 399.0 2.4700205574400487 1
gene  2 4 15 -2.310498887316662 0 639.0 -2.310498887316662 1
genomeend 28
/* Organism # 029 Fitness:  9,000 Error:  1,000                      */
genomestart  29
trait 1 0.8852445140920412 0.4100005836106212 0.0 0.0 0.0 0.0 0.0 0.0 
trait 2 0.1 0.0 0.2745656836152613 0.8163729433678998 0.0 0.3301629726161752 0.4434326801698363 0.0 
trait 3 0.3 0.0 0.0 0.0 0.0 0.0 0.0 0.0 
node 1 1 1 1
node 2 1 1 1
node 3 1 1 3
node 4 1 0 2
node 12 1 0 0
node 14 1 0 0
node 15 2 0 0
gene  1 1 4 -5.742827572330812 0 1.0 -5.742827572330812 1
gene  2 2 4 -8.631495582898816 0 2.0 -8.631495582898816 1
gene  3 3 4 12.842841960067597 0 3.0 12.842841960067597 1
gene  1 1 14 2.350614234743249 0 35.0 2.350614234743249 1
gene  1 14 4 -4.908432701978581 0 36.0 -4.908432701978581 1
gene  1 1 15 -0.15278965662746113 0 40.0 -0.15278965662746113 1
gene  1 15 12 -11.365009162679119 0 41.0 -11.365009162679119 1
gene  3 3 15 4.275998308320446 0 92.0 4.275998308320446 1
gene  3 2 15 -1.1496329556060538 0 159.0 -1.1496329556060538 1
gene  3 2 12 -3.3484908704886385 0 208.0 -3.3484908704886385 1
gene  1 14 15 -0.37159701184567184 0 399.0 -0.37159701184567184 1
gene  2 4 15 3.023469328298351 0 639.0 3.023469328298351 1
genomeend 29
/*-------------------------------------------------------------------*/
/* Species # 008         : (size= 003) (AvfFit= 7,333) (Age= 47,000)  */
/*-------------------------------------------------------------------*/
/* Organism # 030 Fitness:  9,000 Error:  1,000                      */
genomestart  30
trait 1 0.24065012538159075 0.15036456107791457 0.4671000768679908 0.0594094503700963 0.25417881566220435 0.07082942154753001 0.0 0.06928844706069931 
trait 2 0.2 0.0 0.0 0.0 0.0 0.0 0.0 0.0 
trait 3 0.0 0.0 0.0 0.49013225173947217 0.0 0.1608150986896274 0.0 0.0 
node 1 1 1 1
node 2 1 1 1
node 3 3 1 3
node 4 2 0 2
node 5 1 0 0
node 7 1 0 0
node 11 1 0 0
node 128 1 0 0
gene  1 1 4 0.45996603716230766 0 1.0 0.45996603716230766 1
gene  1 2 4 -1.5028619946350004 0 2.0 -1.5028619946350004 0
gene  3 3 4 24.56025982527321 0 3.0 24.56025982527321 1
gene  2 1 5 0.36839453903260155 0 4.0 0.36839453903260155 1
gene  1 5 4 2.1267004336200612 0 5.0 2.1267004336200612 1
gene  1 2 5 -9.735449811385646 0 9.0 -9.735449811385646 1
gene  1 1 7 1.8497698914099656 0 10.0 1.8497698914099656 1
gene  1 7 4 -9.897520186232903 0 11.0 -9.897520186232903 1
gene  2 2 11 16.347826896278022 0 23.0 16.347826896278022 1
gene  2 11 4 6.702391186337884 0 24.0 6.702391186337884 1
gene  2 11 7 -2.5018338055399854 0 83.0 -2.5018338055399854 1
gene  1 3 5 -4.620155519013801 0 500.0 -4.620155519013801 1
gene  1 1 128 -1.3045184169206316 0 589.0 -1.3045184169206316 1
gene  1 128 7 3.789908321814274 0 590.0 3.789908321814274 1
genomeend 30
/* Organism # 031 Fitness:  4,000 Error:  2,000                      */
genomestart  31
trait 1 0.24065012538159075 0.15036456107791457 0.4671000768679908 0.0594094503700963 0.25417881566220435 0.07082942154753001 0.0 0.06928844706069931 
trait 2 0.2 0.4593718097531386 0.0 0.0 0.0 0.0 0.9634715117673269 0.5072397795116275 
trait 3 0.0 0.0 0.0 0.49013225173947217 0.0 0.1608150986896274 0.0 0.0 
node 1 1 1 1
node 2 1 1 1
node 3 3 1 3
node 4 2 0 2
node 5 1 0 0
node 7 1 0 0
node 11 1 0 0
node 128 1 0 0
gene  1 1 4 15.89787255579191 0 1.0 15.89787255579191 1
gene  1 2 4 -7.565593396431423 0 2.0 -7.565593396431423 0
gene  3 3 4 -0.4102034098385998 0 3.0 -0.4102034098385998 1
gene  2 1 5 5.277504798651841 0 4.0 5.277504798651841 1
gene  1 5 4 2.2980404615174415 0 5.0 2.2980404615174415 1
gene  1 2 5 -10.378199426730019 0 9.0 -10.378199426730019 1
gene  1 1 7 2.687959268634974 0 10.0 2.687959268634974 1
gene  1 7 4 -0.5368183305517527 0 11.0 -0.5368183305517527 1
gene  2 2 11 14.086398042227849 0 23.0 14.086398042227849 1
gene  2 11 4 6.314996003388568 0 24.0 6.314996003388568 1
gene  2 11 7 -0.3956606749251797 0 83.0 -0.3956606749251797 1
gene  1 3 5 -7.1174066628785955 0 500.0 -7.1174066628785955 1
gene  1 1 128 0.5579254344657192 0 589.0 0.5579254344657192 1
gene  1 128 7 1.1263154541205267 0 590.0 1.1263154541205267 1
genomeend 31
/* Organism # 032 Fitness:  9,000 Error:  1,000                      */
genomestart  32
trait 1 0.24065012538159075 0.15036456107791457 0.4671000768679908 0.0594094503700963 0.25417881566220435 0.07082942154753001 0.0 0.06928844706069931 
trait 2 0.2 0.4593718097531386 0.0 0.0 0.0 0.0 0.9634715117673269 0.5072397795116275 
trait 3 0.0 0.0 0.0 0.49013225173947217 0.0 0.1608150986896274 0.0 0.0 
node 1 1 1 1
node 2 1 1 1
node 3 3 1 3
node 4 2 0 2
node 5 1 0 0
node 7 1 0 0
node 11 1 0 0
node 128 1 0 0
gene  1 1 4 13.586768578118772 0 1.0 13.586768578118772 1
gene  1 2 4 -5.648278110189461 0 2.0 -5.648278110189461 0
gene  3 3 4 21.969101572547718 0 3.0 21.969101572547718 1
gene  2 1 5 4.521436509669433 0 4.0 4.521436509669433 1
gene  1 5 4 -11.390514993054285 0 5.0 -11.390514993054285 1
gene  1 2 5 -12.459417652804394 0 9.0 -12.459417652804394 1
gene  1 1 7 4.042893177397339 0 10.0 4.042893177397339 1
gene  1 7 4 -8.423590725764756 0 11.0 -8.423590725764756 1
gene  2 2 11 12.737745056497962 0 23.0 12.737745056497962 1
gene  2 11 4 4.135514337975682 0 24.0 4.135514337975682 1
gene  2 11 7 -0.7654706200377408 0 83.0 -0.7654706200377408 1
gene  1 3 5 -4.975439875866412 0 500.0 -4.975439875866412 1
gene  1 1 128 -0.24872676138871364 0 589.0 -0.24872676138871364 1
gene  1 128 7 0.36013414342913663 0 590.0 0.36013414342913663 1
genomeend 32
/*-------------------------------------------------------------------*/
/* Species # 009         : (size= 003) (AvfFit= 9,000) (Age= 46,000)  */
/*-------------------------------------------------------------------*/
/* Organism # 033 Fitness:  9,000 Error:  1,000                      */
genomestart  33
trait 1 0.5993285321064178 0.37325862713536245 0.3470699875744914 0.0 0.0 0.0 0.21626607936537567 0.2434966697139031 
trait 2 0.2 0.0 0.0 0.3424619130347235 0.0 0.6032426361525953 0.0 0.2555780378655028 
trait 3 0.0 0.4794974256484471 0.06240878671803361 0.42377416547017843 0.0 0.8446322349347548 0.0 0.9033580189877816 
node 1 1 1 1
node 2 1 1 1
node 3 1 1 3
node 4 2 0 2
node 5 3 0 0
node 56 3 0 0
gene  1 1 4 0.46679055124095714 0 1.0 0.46679055124095714 1
gene  3 2 4 17.77370518018379 0 2.0 17.77370518018379 1
gene  1 3 4 16.10820805766195 0 3.0 16.10820805766195 1
gene  1 1 5 2.8169579308580395 0 4.0 2.8169579308580395 1
gene  1 5 4 -7.323675822173954 0 5.0 -7.323675822173954 1
gene  1 2 5 -4.566232161258993 0 9.0 -4.566232161258993 1
gene  1 3 5 -9.133755801066624 0 14.0 -9.133755801066624 1
gene  1 1 56 -1.9510886487851247 0 236.0 -1.9510886487851247 1
gene  1 56 4 -0.2216306062855622 0 237.0 -0.2216306062855622 1
gene  3 2 56 1.8061988105796434 0 250.0 1.8061988105796434 1
genomeend 33
/* Organism # 034 Fitness:  9,000 Error:  1,000                      */
genomestart  34
trait 1 0.5993285321064178 0.37325862713536245 0.3470699875744914 0.0 0.0 0.0 0.21626607936537567 0.2434966697139031 
trait 2 0.2 0.0 0.0 0.0 0.0 0.0 0.0 0.0 
trait 3 0.0 0.4794974256484471 0.06240878671803361 0.42377416547017843 0.0 0.8446322349347548 0.0 0.9033580189877816 
node 1 1 1 1
node 2 1 1 1
node 3 1 1 3
node 4 2 0 2
node 5 3 0 0
node 56 3 0 0
gene  1 1 4 1.0293889106630911 0 1.0 1.0293889106630911 1
gene  2 2 4 14.934528868261197 0 2.0 14.934528868261197 1
gene  1 3 4 17.241544013120055 0 3.0 17.241544013120055 1
gene  1 1 5 3.2526426100999526 0 4.0 3.2526426100999526 1
gene  1 5 4 -9.555981620170353 0 5.0 -9.555981620170353 1
gene  1 2 5 -0.8911874099318489 0 9.0 -0.8911874099318489 1
gene  1 3 5 -8.879552633078177 0 14.0 -8.879552633078177 1
gene  1 1 56 -5.371536029637921 0 236.0 -5.371536029637921 1
gene  1 56 4 0.6927616936315106 0 237.0 0.6927616936315106 1
gene  3 2 56 0.08264007070216084 0 250.0 0.08264007070216084 1
genomeend 34
/* Organism # 035 Fitness:  9,000 Error:  1,000                      */
genomestart  35
trait 1 0.5993285321064178 0.37325862713536245 0.3470699875744914 0.0 0.0 0.0 0.21626607936537567 0.2434966697139031 
trait 2 0.2 0.0 0.0 0.0 0.0 0.0 0.0 0.0 
trait 3 0.0 0.4794974256484471 0.06240878671803361 0.42377416547017843 0.0 0.8446322349347548 0.0 0.9033580189877816 
node 1 1 1 1
node 2 1 1 1
node 3 1 1 3
node 4 2 0 2
node 5 3 0 0
node 56 3 0 0
gene  1 1 4 0.015734079343913798 0 1.0 0.015734079343913798 1
gene  2 2 4 16.60988896106276 0 2.0 16.60988896106276 1
gene  1 3 4 17.945785141244325 0 3.0 17.945785141244325 1
gene  1 1 5 1.1537702604843727 0 4.0 1.1537702604843727 1
gene  1 5 4 -9.514773661983972 0 5.0 -9.514773661983972 1
gene  1 2 5 -2.661246014728711 0 9.0 -2.661246014728711 1
gene  1 3 5 -6.70290628574979 0 14.0 -6.70290628574979 1
gene  1 1 56 -3.271345850736794 0 236.0 -3.271345850736794 1
gene  1 56 4 1.3291949304883734 0 237.0 1.3291949304883734 1
gene  3 2 56 1.8061988105796434 0 250.0 1.8061988105796434 1
gene  1 5 56 1.8396755998567926 0 757.0 1.8396755998567926 1
genomeend 35
/*-------------------------------------------------------------------*/
/* Species # 010         : (size= 005) (AvfFit= 7,405) (Age= 46,000)  */
/*-------------------------------------------------------------------*/
/* Organism # 036 Fitness:  9,000 Error:  1,000                      */
genomestart  36
trait 1 0.1 0.12337605011521194 0.0 0.0 0.12456274929720906 0.03212569888679681 0.0 0.0223559206539692 
trait 2 0.2 0.7428131076073421 0.0 0.6194596212085887 0.0 0.0 0.0 0.0 
trait 3 0.0 0.0 0.49640954461309594 0.0 0.0 0.5634905550359267 0.802104184087284 0.0 
node 1 1 1 1
node 2 1 1 1
node 3 1 1 3
node 4 2 0 2
node 5 1 0 0
node 7 1 0 0
node 12 3 0 0
gene  1 1 4 -2.192996109587831 0 1.0 -2.192996109587831 0
gene  1 2 4 17.90897631046007 0 2.0 17.90897631046007 1
gene  3 3 4 -14.744530724916126 0 3.0 -14.744530724916126 1
gene  1 1 5 0.3628852290076251 0 4.0 0.3628852290076251 1
gene  1 5 4 -1.0828950218184148 0 5.0 -1.0828950218184148 1
gene  1 1 7 -0.05857407565428807 0 10.0 -0.05857407565428807 1
gene  1 7 4 -0.8538422096411451 0 11.0 -0.8538422096411451 1
gene  1 1 12 1.4959723336322308 0 25.0 1.4959723336322308 1
gene  1 12 4 -13.001315287989938 0 26.0 -13.001315287989938 1
gene  3 2 7 -3.522428292615724 0 577.0 -3.522428292615724 1
gene  2 5 7 3.2120616854159376 0 686.0 3.2120616854159376 1
gene  2 12 7 0.026027285795176547 0 725.0 0.026027285795176547 1
genomeend 36
/* Organism # 037 Fitness:  8,910 Error:  1,015                      */
genomestart  37
trait 1 0.1 0.12337605011521194 0.0 0.0 0.12456274929720906 0.03212569888679681 0.0 0.0223559206539692 
trait 2 0.2 0.7428131076073421 0.0 0.6194596212085887 0.0 0.0 0.0 0.0 
trait 3 0.0 0.0 0.49640954461309594 0.0 0.0 0.5634905550359267 0.802104184087284 0.0 
node 1 1 1 1
node 2 1 1 1
node 3 1 1 3
node 4 2 0 2
node 5 1 0 0
node 7 1 0 0
node 12 1 0 0
node 156 1 0 0
gene  1 1 4 0.10859042755117354 0 1.0 0.10859042755117354 0
gene  1 2 4 15.875893093744844 0 2.0 15.875893093744844 0
gene  3 3 4 -16.91252373832932 0 3.0 -16.91252373832932 1
gene  1 1 5 -0.07859937800899108 0 4.0 -0.07859937800899108 1
gene  1 5 4 1.3828535475214516 0 5.0 1.3828535475214516 1
gene  1 1 7 1.5254262528077405 0 10.0 1.5254262528077405 1
gene  1 7 4 1.2701767416333425 0 11.0 1.2701767416333425 1
gene  1 1 12 2.075197720662256 0 25.0 2.075197720662256 1
gene  1 12 4 -10.61632299761475 0 26.0 -10.61632299761475 1
gene  3 2 7 -2.0869464163041576 0 577.0 -2.0869464163041576 1
gene  2 5 7 3.4068061539890144 0 686.0 3.4068061539890144 1
gene  2 12 7 0.17458798335466819 0 725.0 0.17458798335466819 1
gene  1 2 156 1.0 0 758.0 0.0 1
gene  1 156 4 15.875893093744844 0 759.0 0.0 1
genomeend 37
/* Organism # 038 Fitness:  9,000 Error:  1,000                      */
genomestart  38
trait 1 0.1 0.12337605011521194 0.0 0.0 0.12456274929720906 0.03212569888679681 0.0 0.0223559206539692 
trait 2 0.2 0.7428131076073421 0.0 0.6194596212085887 0.0 0.0 0.0 0.0 
trait 3 0.0 0.0 0.49640954461309594 0.0 0.0 0.5634905550359267 0.802104184087284 0.0 
node 1 1 1 1
node 2 1 1 1
node 3 1 1 3
node 4 2 0 2
node 5 1 0 0
node 7 1 0 0
node 12 1 0 0
gene  1 1 4 0.10859042755117354 0 1.0 0.10859042755117354 0
gene  1 2 4 15.875893093744844 0 2.0 15.875893093744844 1
gene  3 3 4 -16.91252373832932 0 3.0 -16.91252373832932 1
gene  1 1 5 -0.07859937800899108 0 4.0 -0.07859937800899108 1
gene  1 5 4 1.3828535475214516 0 5.0 1.3828535475214516 1
gene  1 1 7 1.5254262528077405 0 10.0 1.5254262528077405 1
gene  1 7 4 1.2701767416333425 0 11.0 1.2701767416333425 1
gene  1 1 12 2.075197720662256 0 25.0 2.075197720662256 1
gene  1 12 4 -10.61632299761475 0 26.0 -10.61632299761475 1
gene  3 2 7 -2.0869464163041576 0 577.0 -2.0869464163041576 1
gene  2 5 7 3.4068061539890144 0 686.0 3.4068061539890144 1
gene  2 12 7 0.17458798335466819 0 725.0 0.17458798335466819 1
genomeend 38
/* Organism # 039 Fitness:  1,116 Error:  2,944                      */
genomestart  39
trait 1 0.1 0.12337605011521194 0.0 0.0 0.12456274929720906 0.03212569888679681 0.0 0.0223559206539692 
trait 2 0.2 0.7428131076073421 0.0 0.6194596212085887 0.0 0.0 0.0 0.0 
trait 3 0.0 0.0 0.49640954461309594 0.0 0.0 0.5634905550359267 0.802104184087284 0.0 
node 1 1 1 1
node 2 1 1 1
node 3 1 1 3
node 4 2 0 2
node 5 1 0 0
node 7 1 0 0
node 12 1 0 0
gene  1 1 4 2.3806522577182085 0 1.0 2.3806522577182085 0
gene  1 2 4 17.14435115357596 0 2.0 17.14435115357596 1
gene  3 3 4 -16.91252373832932 0 3.0 -16.91252373832932 1
gene  1 1 5 -1.9166453790691065 0 4.0 -1.9166453790691065 1
gene  1 5 4 2.4612860664618355 0 5.0 2.4612860664618355 1
gene  1 1 7 -1.4931915369560422 0 10.0 -1.4931915369560422 1
gene  1 7 4 -0.5040605929733859 0 11.0 -0.5040605929733859 1
gene  1 1 12 0.36975721933565353 0 25.0 0.36975721933565353 1
gene  1 12 4 1.2184918065027242 0 26.0 1.2184918065027242 1
gene  3 2 7 -0.3836753689223318 0 577.0 -0.3836753689223318 1
gene  2 5 7 3.4068061539890144 0 686.0 3.4068061539890144 1
gene  2 12 7 2.225891682667351 0 725.0 2.225891682667351 1
genomeend 39
/* Organism # 040 Fitness:  9,000 Error:  1,000                      */
genomestart  40
trait 1 0.1 0.12337605011521194 0.0 0.0 0.12456274929720906 0.03212569888679681 0.0 0.0223559206539692 
trait 2 0.2 0.7428131076073421 0.0 0.6194596212085887 0.0 0.0 0.0 0.0 
trait 3 0.0 0.0 0.49640954461309594 0.0 0.0 0.5634905550359267 0.802104184087284 0.0 
node 1 1 1 1
node 2 1 1 1
node 3 1 1 3
node 4 2 0 2
node 5 1 0 0
node 7 1 0 0
node 12 1 0 0
gene  1 1 4 0.04431949814882108 0 1.0 0.04431949814882108 0
gene  1 2 4 15.660138454546459 0 2.0 15.660138454546459 1
gene  3 3 4 -15.082032705843353 0 3.0 -15.082032705843353 1
gene  1 1 5 -1.5658659476658077 0 4.0 -1.5658659476658077 1
gene  1 5 4 0.3873728571552111 0 5.0 0.3873728571552111 1
gene  1 1 7 2.747986671346587 0 10.0 2.747986671346587 1
gene  1 7 4 3.0830862360376425 0 11.0 3.0830862360376425 1
gene  1 1 12 4.082915651226809 0 25.0 4.082915651226809 1
gene  1 12 4 -9.169053890654217 0 26.0 -9.169053890654217 1
gene  3 2 7 -2.5660515161264077 0 577.0 -2.5660515161264077 1
gene  2 5 7 0.26940782293828874 0 686.0 0.26940782293828874 1
gene  2 12 7 -1.954861098248787 0 725.0 -1.954861098248787 1
genomeend 40
/*-------------------------------------------------------------------*/
/* Species # 012         : (size= 005) (AvfFit= 5,401) (Age= 45,000)  */
/*-------------------------------------------------------------------*/
/* Organism # 041 Fitness:  9,000 Error:  1,000                      */
genomestart  41
trait 1 0.1 0.0 0.0 0.0 0.0 0.0 0.0 0.0 
trait 2 0.2 0.0 0.0 0.0 0.0 0.0 0.0 0.0 
trait 3 0.2589673195230027 0.3891801959983823 1.4814992320211124 0.0 0.41250424352754567 0.0 0.0 0.0 
node 1 1 1 1
node 2 1 1 1
node 3 1 1 3
node 4 1 0 2
node 12 1 0 0
node 15 1 0 0
gene  1 1 4 -3.5088239922125806 0 1.0 -3.5088239922125806 1
gene  2 2 4 -13.955618811447353 0 2.0 -13.955618811447353 1
gene  3 3 4 16.14309364615292 0 3.0 16.14309364615292 1
gene  2 1 12 -3.664976622898484 0 25.0 -3.664976622898484 0
gene  1 12 4 -12.47623400158206 0 26.0 -12.47623400158206 1
gene  1 1 15 -4.322470600309852 0 40.0 -4.322470600309852 1
gene  1 15 12 0.6993019298281282 0 41.0 0.6993019298281282 1
gene  1 2 15 0.6291087465336269 0 108.0 0.6291087465336269 1
gene  2 15 4 -11.489687026013108 0 351.0 -11.489687026013108 1
gene  2 3 15 -1.41457712578356 0 378.0 -1.41457712578356 1
genomeend 41
/* Organism # 042 Fitness:  1,007 Error:  2,997                      */
genomestart  42
trait 1 0.1 0.0 0.0 0.0 0.0 0.0 0.0 0.0 
trait 2 0.2 0.0 0.0 0.0 0.0 0.0 0.0 0.0 
trait 3 0.2589673195230027 0.3891801959983823 1.4814992320211124 0.0 0.41250424352754567 0.0 0.0 0.0 
node 1 1 1 1
node 2 1 1 1
node 3 1 1 3
node 4 1 0 2
node 12 1 0 0
node 15 1 0 0
gene  1 1 4 -1.0191576213327784 0 1.0 -1.0191576213327784 1
gene  2 2 4 -13.882501249549902 0 2.0 -13.882501249549902 1
gene  3 3 4 15.11148152122449 0 3.0 15.11148152122449 1
gene  2 1 12 -6.35288866549323 0 25.0 -6.35288866549323 0
gene  1 12 4 2.4064559460489074 0 26.0 2.4064559460489074 1
gene  1 1 15 1.281169361456669 0 40.0 1.281169361456669 1
gene  1 15 12 -1.0086857183008753 0 41.0 -1.0086857183008753 1
gene  1 2 15 -0.6045943207064791 0 108.0 -0.6045943207064791 1
gene  2 15 4 2.242459070007296 0 351.0 2.242459070007296 1
gene  2 3 15 -1.2122804222841514 0 378.0 -1.2122804222841514 1
genomeend 42
/* Organism # 043 Fitness:  4,000 Error:  2,000                      */
genomestart  43
trait 1 0.1 0.0 0.0 0.0 0.0 0.0 0.0 0.0 
trait 2 0.2 0.0 0.0 0.0 0.0 0.0 0.0 0.0 
trait 3 0.2589673195230027 0.3891801959983823 1.4814992320211124 0.0 0.41250424352754567 0.0 0.0 0.0 
node 1 1 1 1
node 2 1 1 1
node 3 1 1 3
node 4 1 0 2
node 12 1 0 0
node 15 1 0 0
gene  1 1 4 -0.7220094546665223 0 1.0 -0.7220094546665223 1
gene  2 2 4 1.5236479226430497 0 2.0 1.5236479226430497 1
gene  3 3 4 13.735491849784577 0 3.0 13.735491849784577 1
gene  2 1 12 -7.245348453778705 0 25.0 -7.245348453778705 0
gene  1 12 4 -14.817081690782752 0 26.0 -14.817081690782752 1
gene  1 1 15 -4.458817947646434 0 40.0 -4.458817947646434 1
gene  1 15 12 -3.626821680827256 0 41.0 -3.626821680827256 1
gene  1 2 15 -2.436840400967563 0 108.0 -2.436840400967563 1
gene  2 15 4 3.070107030832988 0 351.0 3.070107030832988 1
gene  2 3 15 -1.6658077935839466 0 378.0 -1.6658077935839466 1
genomeend 43
/* Organism # 044 Fitness:  4,000 Error:  2,000                      */
genomestart  44
trait 1 0.1 0.0 0.0 0.0 0.0 0.0 0.0 0.0 
trait 2 0.2 0.0 0.0 0.0 0.0 0.0 0.0 0.0 
trait 3 0.2589673195230027 0.3891801959983823 1.4814992320211124 0.0 0.41250424352754567 0.0 0.0 0.0 
node 1 1 1 1
node 2 1 1 1
node 3 1 1 3
node 4 1 0 2
node 12 1 0 0
node 15 1 0 0
gene  1 1 4 -2.2008346420171754 0 1.0 -2.2008346420171754 1
gene  2 2 4 -15.088949776033095 0 2.0 -15.088949776033095 1
gene  3 3 4 -1.5991622936632166 0 3.0 -1.5991622936632166 1
gene  2 1 12 -6.257484537278546 0 25.0 -6.257484537278546 0
gene  1 12 4 -15.425915315811544 0 26.0 -15.425915315811544 1
gene  1 1 15 -4.824640909121626 0 40.0 -4.824640909121626 1
gene  1 15 12 -1.2427121067732092 0 41.0 -1.2427121067732092 1
gene  1 2 15 -0.07507296350308135 0 108.0 -0.07507296350308135 1
gene  2 15 4 1.760974709514155 0 351.0 1.760974709514155 1
gene  2 3 15 -5.711061779390457 0 378.0 -5.711061779390457 1
genomeend 44
/* Organism # 045 Fitness:  9,000 Error:  1,000                      */
genomestart  45
trait 1 0.1 0.0 0.0 0.0 0.0 0.0 0.0 0.0 
trait 2 0.2 0.0 0.0 0.0 0.0 0.0 0.0 0.0 
trait 3 0.2589673195230027 0.3891801959983823 1.4814992320211124 0.0 0.41250424352754567 0.0 0.0 0.0 
node 1 1 1 1
node 2 1 1 1
node 3 1 1 3
node 4 1 0 2
node 12 1 0 0
node 15 1 0 0
gene  1 1 4 -1.960391797899395 0 1.0 -1.960391797899395 1
gene  2 2 4 -13.67766828482712 0 2.0 -13.67766828482712 1
gene  3 3 4 15.806800448370176 0 3.0 15.806800448370176 1
gene  2 1 12 -6.972187547195679 0 25.0 -6.972187547195679 0
gene  1 12 4 -13.499050328551977 0 26.0 -13.499050328551977 1
gene  1 1 15 -4.74448266703792 0 40.0 -4.74448266703792 1
gene  1 15 12 0.4596855298076985 0 41.0 0.4596855298076985 1
gene  1 2 15 -0.6665364756365555 0 108.0 -0.6665364756365555 1
gene  2 15 4 3.494386307164446 0 351.0 3.494386307164446 1
gene  2 3 15 -3.5353637664623196 0 378.0 -3.5353637664623196 1
genomeend 45
/*-------------------------------------------------------------------*/
/* Species # 013         : (size= 003) (AvfFit= 3,224) (Age= 45,000)  */
/*-------------------------------------------------------------------*/
/* Organism # 046 Fitness:  3,996 Error:  2,001                      */
genomestart  46
trait 1 0.1 0.45272406683450983 0.0 0.0 0.5159692809141584 0.0 0.0 0.41364988158325133 
trait 2 0.44349432773446346 0.0 0.0 0.0 0.0 0.0 0.0 0.0 
trait 3 1.0488435596478576 0.2400608743524843 0.0 0.4203521171963492 1.2458746619020131 1.3169659827890707 0.8850765105369446 0.0 
node 1 1 1 1
node 2 1 1 1
node 3 1 1 3
node 4 1 0 2
node 9 1 0 0
node 71 2 0 0
gene  1 1 4 3.7844715505845015 0 1.0 3.7844715505845015 1
gene  2 2 4 1.7833704806388877 0 2.0 1.7833704806388877 1
gene  3 3 4 -0.3701575323769406 0 3.0 -0.3701575323769406 1
gene  2 2 9 -3.7357658309619364 0 15.0 -3.7357658309619364 1
gene  2 9 4 -2.025815532629651 0 16.0 -2.025815532629651 1
gene  3 1 9 9.887242858119372 0 205.0 9.887242858119372 1
gene  2 2 71 5.4751559164891646 0 324.0 5.4751559164891646 1
gene  1 71 9 1.4645806130804766 0 325.0 1.4645806130804766 1
gene  3 3 9 -7.242202333065727 0 337.0 -7.242202333065727 1
genomeend 46
/* Organism # 047 Fitness:  4,001 Error:  2,000                      */
genomestart  47
trait 1 0.1 0.45272406683450983 0.0 0.0 0.5159692809141584 0.0 0.0 0.41364988158325133 
trait 2 0.44349432773446346 0.0 0.0 0.0 0.0 0.0 0.0 0.0 
trait 3 1.0488435596478576 0.2400608743524843 0.0 0.4203521171963492 1.2458746619020131 1.3169659827890707 0.8850765105369446 0.0 
node 1 1 1 1
node 2 1 1 1
node 3 1 1 3
node 4 1 0 2
node 9 1 0 0
node 71 2 0 0
node 157 1 0 0
gene  1 1 4 2.1161731397644292 0 1.0 2.1161731397644292 0
gene  2 2 4 1.2076294122207556 0 2.0 1.2076294122207556 1
gene  3 3 4 0.9396923364575227 0 3.0 0.9396923364575227 1
gene  2 2 9 -2.9065443534819355 0 15.0 -2.9065443534819355 1
gene  2 9 4 -0.3197430535563752 0 16.0 -0.3197430535563752 1
gene  3 1 9 10.242066521720627 0 205.0 10.242066521720627 1
gene  2 2 71 3.452239206180165 0 324.0 3.452239206180165 1
gene  1 71 9 1.4131953864473594 0 325.0 1.4131953864473594 1
gene  3 3 9 -5.203996809154173 0 337.0 -5.203996809154173 1
gene  1 1 157 1.0 0 763.0 0.0 1
gene  1 157 4 2.1161731397644292 0 764.0 0.0 1
genomeend 47
/* Organism # 048 Fitness:  1,675 Error:  2,706                      */
genomestart  48
trait 1 0.1 0.45272406683450983 0.0 0.0 0.5159692809141584 0.0 0.0 0.41364988158325133 
trait 2 0.44349432773446346 0.0 0.0 0.0 0.0 0.0 0.0 0.0 
trait 3 1.0488435596478576 0.2400608743524843 0.0 0.4203521171963492 1.2458746619020131 1.3169659827890707 0.8850765105369446 0.0 
node 1 1 1 1
node 2 1 1 1
node 3 1 1 3
node 4 1 0 2
node 9 1 0 0
node 71 2 0 0
gene  1 1 4 0.634658653596291 0 1.0 0.634658653596291 1
gene  2 2 4 -0.7731031322588868 0 2.0 -0.7731031322588868 1
gene  3 3 4 2.3600882017982325 0 3.0 2.3600882017982325 1
gene  2 2 9 -2.7273184426923547 0 15.0 -2.7273184426923547 1
gene  2 9 4 -0.11625773672407574 0 16.0 -0.11625773672407574 1
gene  3 1 9 8.295207391082474 0 205.0 8.295207391082474 1
gene  2 2 71 1.9667972209493028 0 324.0 1.9667972209493028 1
gene  1 71 9 0.013103271514691262 0 325.0 0.013103271514691262 1
gene  3 3 9 -4.006790937241178 0 337.0 -4.006790937241178 1
genomeend 48
/*-------------------------------------------------------------------*/
/* Species # 014         : (size= 003) (AvfFit= 9,000) (Age= 44,000)  */
/*-------------------------------------------------------------------*/
/* Organism # 049 Fitness:  9,000 Error:  1,000                      */
genomestart  49
trait 1 0.07500000000000001 0.0 0.0 0.0 0.0 0.0 0.0 0.0 
trait 2 0.2 0.0 0.5190469864233626 0.24645029783808747 0.0 0.8836334253204547 0.0 0.7039107179756289 
trait 3 0.0 0.0 0.8884812695476085 0.4700542223514843 0.0 0.8894371636002683 0.9864521557579792 0.11233246437105315 
node 1 1 1 1
node 2 1 1 1
node 3 3 1 3
node 4 1 0 2
node 12 1 0 0
node 14 1 0 0
node 15 1 0 0
node 19 3 0 0
node 26 3 0 0
node 39 2 0 0
gene  1 1 4 0.08325361247396812 0 1.0 0.08325361247396812 0
gene  2 2 4 -11.955011983258874 0 2.0 -11.955011983258874 1
gene  3 3 4 17.49504578339063 0 3.0 17.49504578339063 1
gene  1 1 14 -0.5166681050336008 0 35.0 -0.5166681050336008 0
gene  1 14 4 -3.7833366558956962 0 36.0 -3.7833366558956962 1
gene  3 1 15 -2.335517635688404 0 40.0 -2.335517635688404 1
gene  1 15 12 2.6587430544117305 0 41.0 2.6587430544117305 1
gene  2 2 19 2.670948659808873 0 60.0 2.670948659808873 1
gene  2 19 4 -13.652855487223153 0 61.0 -13.652855487223153 1
gene  1 1 26 1.661007387625312 0 84.0 1.661007387625312 1
gene  1 26 14 1.8164692773540538 0 85.0 1.8164692773540538 1
gene  1 15 39 4.487795395413205 0 145.0 4.487795395413205 1
gene  2 39 12 -6.834864596764652 0 146.0 -6.834864596764652 1
gene  1 2 26 -0.31996902771820074 0 459.0 -0.31996902771820074 1
genomeend 49
/* Organism # 050 Fitness:  9,000 Error:  1,000                      */
genomestart  50
trait 1 0.07500000000000001 0.0 0.0 0.0 0.0 0.0 0.0 0.0 
trait 2 0.2 0.0 0.5190469864233626 0.24645029783808747 0.0 0.8836334253204547 0.0 0.7039107179756289 
trait 3 0.0 0.0 0.8884812695476085 0.4700542223514843 0.0 0.8894371636002683 0.9864521557579792 0.11233246437105315 
node 1 1 1 1
node 2 1 1 1
node 3 3 1 3
node 4 1 0 2
node 12 1 0 0
node 14 1 0 0
node 15 1 0 0
node 19 3 0 0
node 26 3 0 0
node 39 2 0 0
gene  1 1 4 -0.8967108236504266 0 1.0 -0.8967108236504266 0
gene  2 2 4 -11.070699280644977 0 2.0 -11.070699280644977 1
gene  3 3 4 17.25729891174294 0 3.0 17.25729891174294 1
gene  1 1 14 -0.25829628432030516 0 35.0 -0.25829628432030516 0
gene  1 14 4 -2.008496387035966 0 36.0 -2.008496387035966 1
gene  3 1 15 -2.9327325987285766 0 40.0 -2.9327325987285766 1
gene  1 15 12 1.8741719621122674 0 41.0 1.8741719621122674 1
gene  2 2 19 0.39463996028593123 0 60.0 0.39463996028593123 1
gene  2 19 4 -13.77651527882922 0 61.0 -13.77651527882922 1
gene  1 1 26 2.949836766917365 0 84.0 2.949836766917365 1
gene  1 26 14 2.8907268421735544 0 85.0 2.8907268421735544 1
gene  1 15 39 2.6304371330050724 0 145.0 2.6304371330050724 1
gene  2 39 12 -5.201471829436764 0 146.0 -5.201471829436764 1
gene  1 2 26 -1.0957713066977934 0 459.0 -1.0957713066977934 1
genomeend 50
/* Organism # 051 Fitness:  9,000 Error:  1,000                      */
genomestart  51
trait 1 0.07500000000000001 0.0 0.0 0.0 0.0 0.0 0.0 0.0 
trait 2 0.2 0.0 0.5190469864233626 0.24645029783808747 0.0 0.8836334253204547 0.0 0.7039107179756289 
trait 3 0.0 0.0 0.8884812695476085 0.4700542223514843 0.0 0.8894371636002683 0.9864521557579792 0.11233246437105315 
node 1 1 1 1
node 2 1 1 1
node 3 3 1 3
node 4 1 0 2
node 12 1 0 0
node 14 1 0 0
node 15 1 0 0
node 19 3 0 0
node 26 3 0 0
node 39 2 0 0
gene  1 1 4 1.282553887014119 0 1.0 1.282553887014119 0
gene  2 2 4 -11.070699280644977 0 2.0 -11.070699280644977 1
gene  3 3 4 14.986499395805097 0 3.0 14.986499395805097 1
gene  3 1 14 -2.017275831467379 0 35.0 -2.017275831467379 0
gene  1 14 4 -0.9210269304634638 0 36.0 -0.9210269304634638 1
gene  3 1 15 -3.3530939972798794 0 40.0 -3.3530939972798794 1
gene  1 15 12 1.130125615773815 0 41.0 1.130125615773815 1
gene  2 2 19 1.1154479520495275 0 60.0 1.1154479520495275 1
gene  2 19 4 -13.071897685716044 0 61.0 -13.071897685716044 1
gene  1 1 26 2.949836766917365 0 84.0 2.949836766917365 1
gene  1 26 14 2.5523632730383543 0 85.0 2.5523632730383543 1
gene  1 15 39 0.3870286525572089 0 145.0 0.3870286525572089 1
gene  2 39 12 -5.201471829436764 0 146.0 -5.201471829436764 1
gene  1 2 26 -1.1065991208063228 0 459.0 -1.1065991208063228 1
genomeend 51
/*-------------------------------------------------------------------*/
/* Species # 015         : (size= 006) (AvfFit= 9,000) (Age= 43,000)  */
/*-------------------------------------------------------------------*/
/* Organism # 052 Fitness:  9,000 Error:  1,000                      */
genomestart  52
trait 1 0.0 0.2980083218285674 0.6146215069883705 0.0 0.48642945093834966 0.44555401132109973 0.0 0.0 
trait 2 0.0 0.1338131837282759 0.5525458085823759 0.0 0.0 0.0 0.0 0.3632018802468182 
trait 3 0.3 0.2808502343399747 0.0 0.0 0.0 0.0 0.0 0.0 
node 1 1 1 1
node 2 2 1 1
node 3 1 1 3
node 4 2 0 2
node 12 1 0 0
node 14 1 0 0
node 22 1 0 0
gene  3 1 4 -10.008356969955187 0 1.0 -10.008356969955187 0
gene  2 2 4 -14.167645046006532 0 2.0 -14.167645046006532 1
gene  2 3 4 13.163305622817312 0 3.0 13.163305622817312 1
gene  1 1 12 0.5525101172165984 0 25.0 0.5525101172165984 0
gene  1 1 14 12.770459963725088 0 35.0 12.770459963725088 1
gene  1 14 4 -6.473486287350083 0 36.0 -6.473486287350083 1
gene  1 1 22 0.41012040589809406 0 74.0 0.41012040589809406 1
gene  1 22 12 5.362649174039903 0 75.0 5.362649174039903 1
gene  3 2 12 -2.077989583464886 0 135.0 -2.077989583464886 1
genomeend 52
/* Organism # 053 Fitness:  9,000 Error:  1,000                      */
genomestart  53
trait 1 0.0 0.2980083218285674 0.6146215069883705 0.0 0.48642945093834966 0.44555401132109973 0.0 0.0 
trait 2 0.0 0.1338131837282759 0.5525458085823759 0.0 0.0 0.0 0.0 0.3632018802468182 
trait 3 0.3 0.2808502343399747 0.0 0.0 0.0 0.0 0.0 0.0 
node 1 1 1 1
node 2 2 1 1
node 3 1 1 3
node 4 2 0 2
node 12 1 0 0
node 14 1 0 0
node 22 1 0 0
gene  3 1 4 -10.008356969955187 0 1.0 -10.008356969955187 0
gene  2 2 4 -14.087794143220956 0 2.0 -14.087794143220956 1
gene  2 3 4 11.335103958632072 0 3.0 11.335103958632072 1
gene  1 1 12 -1.1812655823926668 0 25.0 -1.1812655823926668 0
gene  1 1 14 12.770459963725088 0 35.0 12.770459963725088 1
gene  1 14 4 -5.869410402617598 0 36.0 -5.869410402617598 1
gene  1 1 22 1.3476918733775478 0 74.0 1.3476918733775478 1
gene  1 22 12 5.616502322378661 0 75.0 5.616502322378661 1
gene  3 2 12 -2.5292885140554686 0 135.0 -2.5292885140554686 1
genomeend 53
/* Organism # 054 Fitness:  9,000 Error:  1,000                      */
genomestart  54
trait 1 0.0 0.2980083218285674 0.6146215069883705 0.0 0.48642945093834966 0.44555401132109973 0.0 0.0 
trait 2 0.0 0.1338131837282759 0.5525458085823759 0.0 0.0 0.0 0.0 0.3632018802468182 
trait 3 0.3 0.2808502343399747 0.0 0.0 0.0 0.0 0.0 0.0 
node 1 1 1 1
node 2 2 1 1
node 3 1 1 3
node 4 2 0 2
node 12 1 0 0
node 14 1 0 0
node 22 1 0 0
gene  3 1 4 -1.4834950741685982 0 1.0 -1.4834950741685982 0
gene  2 2 4 -16.174279843338876 0 2.0 -16.174279843338876 1
gene  2 3 4 13.163305622817312 0 3.0 13.163305622817312 1
gene  1 1 12 2.2887075240254595 0 25.0 2.2887075240254595 0
gene  1 1 14 12.770459963725088 0 35.0 12.770459963725088 1
gene  1 14 4 -6.473486287350083 0 36.0 -6.473486287350083 1
gene  1 1 22 0.41012040589809406 0 74.0 0.41012040589809406 1
gene  1 22 12 3.6622994978369876 0 75.0 3.6622994978369876 1
gene  3 2 12 -3.9854101247447797 0 135.0 -3.9854101247447797 1
genomeend 54
/* Organism # 055 Fitness:  9,000 Error:  1,000                      */
genomestart  55
trait 1 0.0 0.2980083218285674 0.6146215069883705 0.0 0.48642945093834966 0.44555401132109973 0.0 0.0 
trait 2 0.0 0.1338131837282759 0.5525458085823759 0.0 0.0 0.0 0.0 0.3632018802468182 
trait 3 0.3 0.2808502343399747 0.0 0.0 0.0 0.0 0.0 0.0 
node 1 1 1 1
node 2 2 1 1
node 3 1 1 3
node 4 2 0 2
node 12 1 0 0
node 14 1 0 0
node 22 1 0 0
gene  3 1 4 -7.6689630751745135 0 1.0 -7.6689630751745135 0
gene  2 2 4 -15.990088478515945 0 2.0 -15.990088478515945 1
gene  2 3 4 13.970281042366304 0 3.0 13.970281042366304 1
gene  1 1 12 -1.434264773451674 0 25.0 -1.434264773451674 1
gene  1 1 14 10.35036839060599 0 35.0 10.35036839060599 1
gene  1 14 4 -8.648392062122172 0 36.0 -8.648392062122172 1
gene  1 1 22 -1.5927803532247717 0 74.0 -1.5927803532247717 1
gene  1 22 12 4.07906045426277 0 75.0 4.07906045426277 1
gene  3 2 12 -0.2512665725385119 0 135.0 -0.2512665725385119 1
genomeend 55
/* Organism # 056 Fitness:  9,000 Error:  1,000                      */
genomestart  56
trait 1 0.0 0.2980083218285674 0.6146215069883705 0.0 0.48642945093834966 0.44555401132109973 0.0 0.0 
trait 2 0.0 0.1338131837282759 0.5525458085823759 0.0 0.0 0.0 0.0 0.3632018802468182 
trait 3 0.3 0.2808502343399747 0.0 0.0 0.0 0.0 0.0 0.0 
node 1 1 1 1
node 2 2 1 1
node 3 1 1 3
node 4 2 0 2
node 12 1 0 0
node 14 1 0 0
node 22 1 0 0
gene  3 1 4 -10.008356969955187 0 1.0 -10.008356969955187 0
gene  2 2 4 -14.167645046006532 0 2.0 -14.167645046006532 1
gene  2 3 4 13.163305622817312 0 3.0 13.163305622817312 1
gene  1 1 12 0.5525101172165984 0 25.0 0.5525101172165984 0
gene  1 1 14 12.770459963725088 0 35.0 12.770459963725088 1
gene  1 14 4 -6.473486287350083 0 36.0 -6.473486287350083 1
gene  1 1 22 0.41012040589809406 0 74.0 0.41012040589809406 1
gene  1 22 12 5.362649174039903 0 75.0 5.362649174039903 1
gene  3 2 12 -2.077989583464886 0 135.0 -2.077989583464886 1
genomeend 56
/* Organism # 057 Fitness:  9,000 Error:  1,000                      */
genomestart  57
trait 1 0.0 0.2980083218285674 0.6146215069883705 0.0 0.48642945093834966 0.44555401132109973 0.0 0.0 
trait 2 0.0 0.1338131837282759 0.5525458085823759 0.0 0.0 0.0 0.0 0.3632018802468182 
trait 3 0.3 0.2808502343399747 0.0 0.0 0.0 0.0 0.0 0.0 
node 1 1 1 1
node 2 2 1 1
node 3 1 1 3
node 4 2 0 2
node 12 1 0 0
node 14 1 0 0
node 22 1 0 0
gene  3 1 4 -7.858903350841386 0 1.0 -7.858903350841386 0
gene  2 2 4 -13.911748989341357 0 2.0 -13.911748989341357 1
gene  3 3 4 10.770536675686625 0 3.0 10.770536675686625 1
gene  1 1 12 -0.15071755900049555 0 25.0 -0.15071755900049555 0
gene  1 1 14 10.518636154889041 0 35.0 10.518636154889041 1
gene  1 14 4 -8.061451793835598 0 36.0 -8.061451793835598 1
gene  1 1 22 2.2757756875060617 0 74.0 2.2757756875060617 1
gene  1 22 12 4.576131921831433 0 75.0 4.576131921831433 1
gene  3 2 12 -3.584353753908827 0 135.0 -3.584353753908827 1
genomeend 57
/*-------------------------------------------------------------------*/
/* Species # 017         : (size= 002) (AvfFit= 4,000) (Age= 40,000)  */
/*-------------------------------------------------------------------*/
/* Organism # 058 Fitness:  4,000 Error:  2,000                      */
genomestart  58
trait 1 0.7500883549232766 0.0 0.0 0.0 0.0 0.8280560738004444 0.8098624965295711 0.9757652513031895 
trait 2 0.2 0.0 0.0 0.08080764749679303 0.0 0.02529213551812548 0.0 0.8822091776111235 
trait 3 0.3068565455467368 0.0 0.02743951904101366 0.0 0.0 0.0 0.0 0.12397142264148128 
node 1 1 1 1
node 2 1 1 1
node 3 1 1 3
node 4 3 0 2
node 5 2 0 0
node 7 1 0 0
gene  1 1 4 -1.799794227581873 0 1.0 -1.799794227581873 0
gene  2 2 4 2.373189271678526 0 2.0 2.373189271678526 1
gene  3 3 4 4.863107953884031 0 3.0 4.863107953884031 1
gene  1 1 5 6.085791383962826 0 4.0 6.085791383962826 1
gene  1 5 4 -6.826530042524963 0 5.0 -6.826530042524963 1
gene  1 1 7 -2.2934508909989315 0 10.0 -2.2934508909989315 1
gene  3 7 4 -1.1680650952697855 0 11.0 -1.1680650952697855 1
gene  1 5 7 -1.8564060396195077 0 95.0 -1.8564060396195077 1
gene  3 3 5 -6.85495189490219 0 110.0 -6.85495189490219 1
gene  3 2 5 0.8636723432038135 0 121.0 0.8636723432038135 1
gene  2 3 7 -2.3099250250420464 0 147.0 -2.3099250250420464 1
gene  2 2 7 4.017695283035875 0 551.0 4.017695283035875 1
genomeend 58
/* Organism # 059 Fitness:  4,000 Error:  2,000                      */
genomestart  59
trait 1 0.0 0.0 0.0 0.0 0.0 0.8280560738004444 0.8098624965295711 0.9757652513031895 
trait 2 0.2 0.0 0.0 0.08080764749679303 0.0 0.02529213551812548 0.0 0.8822091776111235 
trait 3 0.3068565455467368 0.0 0.02743951904101366 0.0 0.0 0.0 0.0 0.12397142264148128 
node 1 1 1 1
node 2 1 1 1
node 3 1 1 3
node 4 3 0 2
node 5 2 0 0
node 7 1 0 0
gene  1 1 4 -0.8823504044221565 0 1.0 -0.8823504044221565 0
gene  2 2 4 0.4542986024147013 0 2.0 0.4542986024147013 1
gene  3 3 4 3.066709020254418 0 3.0 3.066709020254418 1
gene  1 1 5 6.880263640899004 0 4.0 6.880263640899004 1
gene  1 5 4 -6.44630245757215 0 5.0 -6.44630245757215 1
gene  1 1 7 -0.5972918739163011 0 10.0 -0.5972918739163011 1
gene  3 7 4 -3.510605088799882 0 11.0 -3.510605088799882 1
gene  1 5 7 -3.2393198891474944 0 95.0 -3.2393198891474944 1
gene  3 3 5 -8.237877046795765 0 110.0 -8.237877046795765 1
gene  3 2 5 0.009331124839594418 0 121.0 0.009331124839594418 1
gene  2 3 7 -1.431199209802335 0 147.0 -1.431199209802335 1
gene  2 2 7 0.5686450437474017 0 551.0 0.5686450437474017 1
genomeend 59
/*-------------------------------------------------------------------*/
/* Species # 018         : (size= 005) (AvfFit= 9,000) (Age= 38,000)  */
/*-------------------------------------------------------------------*/
/* Organism # 060 Fitness:  9,000 Error:  1,000                      */
genomestart  60
trait 1 0.0 0.0 0.0 0.0 0.0 0.0 0.0 0.0 
trait 2 0.2 0.0 0.0 0.0 0.0 0.0 0.0 0.0 
trait 3 0.3 0.0 0.0 0.0 0.0 0.0 0.0 0.0 
node 1 2 1 1
node 2 1 1 1
node 3 2 1 3
node 4 1 0 2
node 36 2 0 0
gene  2 1 4 3.650385359806041 0 1.0 3.650385359806041 0
gene  2 2 4 19.502101877925927 0 2.0 19.502101877925927 1
gene  3 3 4 18.612950371130406 0 3.0 18.612950371130406 1
gene  1 1 36 4.407560731272588 0 133.0 4.407560731272588 1
gene  1 36 4 -8.414293039452668 0 134.0 -8.414293039452668 1
gene  1 3 36 -2.3074092043788283 0 153.0 -2.3074092043788283 1
gene  1 2 36 9.320349674839283 0 201.0 9.320349674839283 1
genomeend 60
/* Organism # 061 Fitness:  9,000 Error:  1,000                      */
genomestart  61
trait 1 0.0 0.0 0.0 0.0 0.0 0.0 0.0 0.0 
trait 2 0.2 0.0 0.0 0.0 0.0 0.0 0.0 0.0 
trait 3 0.3 0.0 0.0 0.0 0.0 0.0 0.0 0.0 
node 1 2 1 1
node 2 1 1 1
node 3 2 1 3
node 4 1 0 2
node 36 2 0 0
gene  2 1 4 1.6575703372661963 0 1.0 1.6575703372661963 0
gene  2 2 4 17.160443550674316 0 2.0 17.160443550674316 1
gene  3 3 4 20.96653114027097 0 3.0 20.96653114027097 1
gene  1 1 36 1.9278125058145443 0 133.0 1.9278125058145443 1
gene  1 36 4 -6.652919423067216 0 134.0 -6.652919423067216 1
gene  1 3 36 -0.2590465253018106 0 153.0 -0.2590465253018106 1
gene  1 2 36 8.012056259337232 0 201.0 8.012056259337232 1
genomeend 61
/* Organism # 062 Fitness:  9,000 Error:  1,000                      */
genomestart  62
trait 1 0.0 0.0 0.0 0.0 0.0 0.0 0.0 0.0 
trait 2 0.2 0.0 0.0 0.0 0.0 0.0 0.0 0.0 
trait 3 0.3 0.0 0.0 0.0 0.0 0.0 0.0 0.0 
node 1 2 1 1
node 2 1 1 1
node 3 2 1 3
node 4 1 0 2
node 36 2 0 0
gene  3 1 4 4.5028996829225 0 1.0 4.5028996829225 0
gene  2 2 4 17.18523936082643 0 2.0 17.18523936082643 1
gene  3 3 4 19.17941592595632 0 3.0 19.17941592595632 1
gene  1 1 36 5.4400447699524115 0 133.0 5.4400447699524115 1
gene  1 36 4 -5.944210754094129 0 134.0 -5.944210754094129 1
gene  1 3 36 -4.277176699875337 0 153.0 -4.277176699875337 1
gene  1 2 36 10.826410851188273 0 201.0 10.826410851188273 1
genomeend 62
/* Organism # 063 Fitness:  9,000 Error:  1,000                      */
genomestart  63
trait 1 0.0 0.0 0.0 0.0 0.0 0.0 0.0 0.0 
trait 2 0.2 0.0 0.0 0.0 0.0 0.0 0.0 0.0 
trait 3 0.3 0.0 0.0 0.0 0.0 0.0 0.0 0.0 
node 1 2 1 1
node 2 1 1 1
node 3 2 1 3
node 4 1 0 2
node 36 2 0 0
gene  2 1 4 1.5275291316359443 0 1.0 1.5275291316359443 0
gene  2 2 4 19.96949078206564 0 2.0 19.96949078206564 1
gene  3 3 4 19.920678957445695 0 3.0 19.920678957445695 1
gene  1 1 36 3.992871285663087 0 133.0 3.992871285663087 1
gene  1 36 4 -10.741129283419008 0 134.0 -10.741129283419008 1
gene  1 3 36 -1.026513133131203 0 153.0 -1.026513133131203 1
gene  1 2 36 10.827879348918325 0 201.0 10.827879348918325 1
genomeend 63
/* Organism # 064 Fitness:  9,000 Error:  1,000                      */
genomestart  64
trait 1 0.0 0.0 0.0 0.0 0.0 0.0 0.0 0.0 
trait 2 0.2 0.0 0.0 0.0 0.0 0.0 0.0 0.0 
trait 3 0.3 0.0 0.0 0.0 0.0 0.0 0.0 0.0 
node 1 2 1 1
node 2 1 1 1
node 3 2 1 3
node 4 1 0 2
node 36 2 0 0
gene  2 1 4 3.650385359806041 0 1.0 3.650385359806041 0
gene  2 2 4 19.502101877925927 0 2.0 19.502101877925927 1
gene  3 3 4 18.612950371130406 0 3.0 18.612950371130406 1
gene  1 1 36 4.407560731272588 0 133.0 4.407560731272588 1
gene  1 36 4 -8.414293039452668 0 134.0 -8.414293039452668 1
gene  1 3 36 -2.3074092043788283 0 153.0 -2.3074092043788283 1
gene  1 2 36 9.320349674839283 0 201.0 9.320349674839283 1
genomeend 64
/*-------------------------------------------------------------------*/
/* Species # 019         : (size= 005) (AvfFit= 8,012) (Age= 38,000)  */
/*-------------------------------------------------------------------*/
/* Organism # 065 Fitness:  4,062 Error:  1,985                      */
genomestart  65
trait 1 0.7949372350370381 0.5372534671267148 0.5965851801701454 0.0 0.18994372007981997 0.0 0.07387542383354972 0.8746802787318567 
trait 2 0.8643473711171628 0.0 0.0 0.0 0.5553874975635208 0.0 0.0 0.8755823480863029 
trait 3 0.0 0.0 1.732308625683137 0.0 0.5326786339220376 1.3757903707633066 0.0 0.0 
node 1 2 1 1
node 2 3 1 1
node 3 1 1 3
node 4 1 0 2
node 12 1 0 0
node 14 1 0 0
node 15 1 0 0
node 19 3 0 0
node 26 2 0 0
node 40 1 0 0
node 76 1 0 0
gene  1 1 4 -2.1908469800483 0 1.0 -2.1908469800483 0
gene  2 2 4 -2.038069637073525 0 2.0 -2.038069637073525 0
gene  3 3 4 -0.6644743959419386 0 3.0 -0.6644743959419386 1
gene  1 1 14 -7.5670033225204865 0 35.0 -7.5670033225204865 1
gene  1 14 4 1.9184687759092598 0 36.0 1.9184687759092598 1
gene  1 1 15 3.5062645666253482 0 40.0 3.5062645666253482 1
gene  1 15 12 0.7642348989202872 0 41.0 0.7642348989202872 1
gene  2 2 19 1.6122434301396764 0 60.0 1.6122434301396764 1
gene  2 19 4 1.5034673727503676 0 61.0 1.5034673727503676 1
gene  1 1 26 0.641099160562562 0 84.0 0.641099160562562 1
gene  1 26 14 -2.414750282680643 0 85.0 -2.414750282680643 1
gene  2 3 14 1.9803894455385995 0 143.0 1.9803894455385995 1
gene  2 2 40 -1.7445776633489267 0 150.0 -1.7445776633489267 1
gene  2 40 4 -9.912603601361134 0 151.0 -9.912603601361134 1
gene  1 1 76 -1.9578846894826551 0 348.0 -1.9578846894826551 1
gene  1 76 14 6.2503484394313915 0 349.0 6.2503484394313915 1
gene  1 3 19 0.11048111690030415 0 477.0 0.11048111690030415 1
gene  2 4 15 -1.220587308902643 0 494.0 -1.220587308902643 1
gene  3 40 15 2.0620490645513767 0 642.0 2.0620490645513767 1
genomeend 65
/* Organism # 066 Fitness:  8,998 Error:  1,000                      */
genomestart  66
trait 1 0.7949372350370381 0.5372534671267148 0.5965851801701454 0.0 0.18994372007981997 0.0 0.07387542383354972 0.8746802787318567 
trait 2 0.8643473711171628 0.0 0.0 0.0 0.5553874975635208 0.0 0.0 0.8755823480863029 
trait 3 0.0 0.0 1.732308625683137 0.0 0.08903532127729352 1.7647622189055854 0.0 0.0 
node 1 2 1 1
node 2 3 1 1
node 3 1 1 3
node 4 1 0 2
node 12 1 0 0
node 14 1 0 0
node 15 1 0 0
node 19 3 0 0
node 26 2 0 0
node 40 1 0 0
node 76 1 0 0
gene  1 1 4 2.008799014577963 0 1.0 2.008799014577963 0
gene  2 2 4 -3.1604777482717035 0 2.0 -3.1604777482717035 0
gene  3 3 4 8.706535550748367 0 3.0 8.706535550748367 1
gene  1 1 14 -8.540080031999798 0 35.0 -8.540080031999798 1
gene  1 14 4 -0.08495200517718815 0 36.0 -0.08495200517718815 1
gene  1 1 15 4.06593826056472 0 40.0 4.06593826056472 1
gene  1 15 12 1.7533650420421518 0 41.0 1.7533650420421518 1
gene  2 2 19 2.821602729851147 0 60.0 2.821602729851147 1
gene  2 19 4 1.6436347960487476 0 61.0 1.6436347960487476 1
gene  1 1 26 -2.48171797729522 0 84.0 -2.48171797729522 1
gene  1 26 14 -4.669306448656076 0 85.0 -4.669306448656076 1
gene  2 3 14 -0.3482642921788792 0 143.0 -0.3482642921788792 1
gene  2 2 40 -2.3198955596449062 0 150.0 -2.3198955596449062 1
gene  2 40 4 -11.706577146155775 0 151.0 -11.706577146155775 1
gene  1 1 76 -0.012288628237205557 0 348.0 -0.012288628237205557 1
gene  1 76 14 4.779168377280968 0 349.0 4.779168377280968 1
gene  1 3 19 -0.9404115774985224 0 477.0 -0.9404115774985224 1
gene  2 4 15 0.6946390705402723 0 494.0 0.6946390705402723 1
gene  3 40 15 0.4475231112999547 0 642.0 0.4475231112999547 1
genomeend 66
/* Organism # 067 Fitness:  9,000 Error:  1,000                      */
genomestart  67
trait 1 0.7949372350370381 0.5372534671267148 0.5965851801701454 0.0 0.18994372007981997 0.0 0.07387542383354972 0.8746802787318567 
trait 2 0.8643473711171628 0.0 0.0 0.0 0.5553874975635208 0.0 0.0 0.8755823480863029 
trait 3 0.0 0.0 1.732308625683137 0.0 0.08903532127729352 1.7647622189055854 0.0 0.0 
node 1 2 1 1
node 2 3 1 1
node 3 1 1 3
node 4 1 0 2
node 12 1 0 0
node 14 1 0 0
node 15 1 0 0
node 19 3 0 0
node 26 2 0 0
node 40 1 0 0
node 76 1 0 0
gene  1 1 4 -1.3630193768260415 0 1.0 -1.3630193768260415 0
gene  2 2 4 -0.6706259808248252 0 2.0 -0.6706259808248252 0
gene  3 3 4 9.688769839481381 0 3.0 9.688769839481381 1
gene  1 1 14 -6.7251628279771385 0 35.0 -6.7251628279771385 1
gene  1 14 4 -2.1019523920486938 0 36.0 -2.1019523920486938 1
gene  1 1 15 0.8587030358379601 0 40.0 0.8587030358379601 1
gene  1 15 12 -1.495008192274816 0 41.0 -1.495008192274816 1
gene  2 2 19 4.023080871739733 0 60.0 4.023080871739733 1
gene  2 19 4 3.990103702857187 0 61.0 3.990103702857187 1
gene  1 1 26 -2.5622111868638635 0 84.0 -2.5622111868638635 1
gene  1 26 14 -3.010867551799385 0 85.0 -3.010867551799385 1
gene  2 3 14 0.13133777653462525 0 143.0 0.13133777653462525 1
gene  2 2 40 -1.9785446792279944 0 150.0 -1.9785446792279944 1
gene  2 40 4 -9.764926390678069 0 151.0 -9.764926390678069 1
gene  1 1 76 -0.00568647264481853 0 348.0 -0.00568647264481853 1
gene  1 76 14 4.715109904092758 0 349.0 4.715109904092758 1
gene  1 3 19 -0.9404115774985224 0 477.0 -0.9404115774985224 1
gene  2 4 15 0.6946390705402723 0 494.0 0.6946390705402723 1
gene  3 40 15 0.4475231112999547 0 642.0 0.4475231112999547 1
genomeend 67
/* Organism # 068 Fitness:  9,000 Error:  1,000                      */
genomestart  68
trait 1 0.7949372350370381 0.5372534671267148 0.5965851801701454 0.0 0.18994372007981997 0.0 0.07387542383354972 0.8746802787318567 
trait 2 0.8643473711171628 0.0 0.0 0.0 0.5553874975635208 0.0 0.0 0.8755823480863029 
trait 3 0.0 0.0 1.732308625683137 0.0 0.08903532127729352 1.7647622189055854 0.0 0.0 
node 1 2 1 1
node 2 3 1 1
node 3 1 1 3
node 4 1 0 2
node 12 1 0 0
node 14 1 0 0
node 15 1 0 0
node 19 3 0 0
node 26 2 0 0
node 40 1 0 0
node 76 1 0 0
gene  1 1 4 -0.032546143836493346 0 1.0 -0.032546143836493346 0
gene  2 2 4 -2.9351689471119435 0 2.0 -2.9351689471119435 0
gene  3 3 4 10.337059123737514 0 3.0 10.337059123737514 1
gene  1 1 14 -7.5670033225204865 0 35.0 -7.5670033225204865 1
gene  1 14 4 -1.5074944646912636 0 36.0 -1.5074944646912636 1
gene  1 1 15 2.168458551806131 0 40.0 2.168458551806131 1
gene  1 15 12 0.7642348989202872 0 41.0 0.7642348989202872 1
gene  2 2 19 1.6122434301396764 0 60.0 1.6122434301396764 1
gene  2 19 4 2.5842677421364346 0 61.0 2.5842677421364346 1
gene  1 1 26 -0.5102340224574873 0 84.0 -0.5102340224574873 1
gene  1 26 14 -2.478183842661758 0 85.0 -2.478183842661758 1
gene  2 3 14 0.44954784721399665 0 143.0 0.44954784721399665 1
gene  2 2 40 -1.9901401013120297 0 150.0 -1.9901401013120297 1
gene  2 40 4 -10.258647632307634 0 151.0 -10.258647632307634 1
gene  1 1 76 0.42008387161002975 0 348.0 0.42008387161002975 1
gene  1 76 14 6.2503484394313915 0 349.0 6.2503484394313915 1
gene  1 3 19 -0.9404115774985224 0 477.0 -0.9404115774985224 1
gene  2 4 15 0.6946390705402723 0 494.0 0.6946390705402723 1
gene  3 40 15 0.4475231112999547 0 642.0 0.4475231112999547 1
gene  1 2 12 1.2990540694399888 0 765.0 1.2990540694399888 1
genomeend 68
/* Organism # 069 Fitness:  8,999 Error:  1,000                      */
genomestart  69
trait 1 0.7949372350370381 0.11796997302638823 0.5965851801701454 0.08814543519547124 0.7010499281963493 0.0 0.07387542383354972 0.9974433465552879 
trait 2 0.8643473711171628 0.0 0.0 0.0 0.5553874975635208 0.0 0.0 0.8755823480863029 
trait 3 0.0 0.0 1.732308625683137 0.0 0.08903532127729352 1.7647622189055854 0.0 0.0 
node 1 2 1 1
node 2 3 1 1
node 3 1 1 3
node 4 1 0 2
node 12 1 0 0
node 14 1 0 0
node 15 1 0 0
node 19 3 0 0
node 26 2 0 0
node 40 1 0 0
node 76 1 0 0
gene  1 1 4 -0.9723781413273492 0 1.0 -0.9723781413273492 0
gene  2 2 4 -4.367064100061256 0 2.0 -4.367064100061256 0
gene  3 3 4 10.337059123737514 0 3.0 10.337059123737514 1
gene  1 1 14 -7.930006579179794 0 35.0 -7.930006579179794 1
gene  1 14 4 -3.778470995548978 0 36.0 -3.778470995548978 1
gene  1 1 15 2.817927167416884 0 40.0 2.817927167416884 1
gene  1 15 12 0.7642348989202872 0 41.0 0.7642348989202872 1
gene  2 2 19 3.0976704469006453 0 60.0 3.0976704469006453 1
gene  2 19 4 2.653150675126914 0 61.0 2.653150675126914 1
gene  1 1 26 -2.6701850573009613 0 84.0 -2.6701850573009613 1
gene  1 26 14 -4.658876480587399 0 85.0 -4.658876480587399 1
gene  2 3 14 1.0777014289847784 0 143.0 1.0777014289847784 1
gene  2 2 40 -0.42988665001822834 0 150.0 -0.42988665001822834 1
gene  2 40 4 -8.149306766332447 0 151.0 -8.149306766332447 1
gene  1 1 76 -0.08405903801132392 0 348.0 -0.08405903801132392 1
gene  1 76 14 4.405757616663435 0 349.0 4.405757616663435 1
gene  1 3 19 -1.0790301869289465 0 477.0 -1.0790301869289465 1
gene  2 4 15 3.0136684303428147 0 494.0 3.0136684303428147 1
gene  3 40 15 2.572585911772319 0 642.0 2.572585911772319 1
genomeend 69
/*-------------------------------------------------------------------*/
/* Species # 020         : (size= 004) (AvfFit= 5,817) (Age= 36,000)  */
/*-------------------------------------------------------------------*/
/* Organism # 070 Fitness:  6,250 Error:  1,500                      */
genomestart  70
trait 1 0.053125000000000006 0.0 0.0 0.0 0.0 0.0 0.0 0.0 
trait 2 0.2 0.0 0.0 0.0 0.0 0.0 0.0 0.0 
trait 3 0.3 0.0 0.0 0.0 0.0 0.0 0.0 0.0 
node 1 2 1 1
node 2 1 1 1
node 3 1 1 3
node 4 3 0 2
node 14 1 0 0
node 43 1 0 0
gene  1 1 4 2.3549416765423086 0 1.0 2.3549416765423086 0
gene  2 2 4 -17.43116993614622 0 2.0 -17.43116993614622 1
gene  3 3 4 14.303010287181769 0 3.0 14.303010287181769 1
gene  1 1 14 -5.918888030836843 0 35.0 -5.918888030836843 1
gene  1 14 4 -12.870750302963815 0 36.0 -12.870750302963815 1
gene  1 2 14 3.618738817354628 0 149.0 3.618738817354628 1
gene  1 1 43 8.548871496326738 0 175.0 8.548871496326738 1
gene  2 43 14 1.5876690582903419 0 176.0 1.5876690582903419 1
gene  1 3 43 -4.0137725911610636 0 469.0 -4.0137725911610636 1
gene  3 3 14 -2.6971364194316805 0 689.0 -2.6971364194316805 1
genomeend 70
/* Organism # 071 Fitness:  3,994 Error:  2,002                      */
genomestart  71
trait 1 0.053125000000000006 0.0 0.4971643615331671 0.0 0.0 0.0 0.0 0.9250019737104495 
trait 2 0.2 0.0 0.0 0.0 0.0 0.0 0.0 0.0 
trait 3 0.3 0.0 0.0 0.0 0.0 0.0 0.0 0.0 
node 1 2 1 1
node 2 1 1 1
node 3 1 1 3
node 4 3 0 2
node 14 1 0 0
node 43 1 0 0
gene  1 1 4 -1.3060734921718986 0 1.0 -1.3060734921718986 1
gene  2 2 4 -11.969069410583417 0 2.0 -11.969069410583417 1
gene  3 3 4 16.9452343124962 0 3.0 16.9452343124962 1
gene  1 1 14 -7.347505509419703 0 35.0 -7.347505509419703 1
gene  1 14 4 1.3585716923243134 0 36.0 1.3585716923243134 1
gene  1 2 14 -0.9243588332652799 0 149.0 -0.9243588332652799 1
gene  1 1 43 -1.0579118447914935 0 175.0 -1.0579118447914935 1
gene  2 43 14 0.2370563209654794 0 176.0 0.2370563209654794 1
gene  1 3 43 -3.4256466132435515 0 469.0 -3.4256466132435515 1
gene  3 3 14 2.4774896964222535 0 689.0 2.4774896964222535 1
genomeend 71
/* Organism # 072 Fitness:  4,024 Error:  1,994                      */
genomestart  72
trait 1 0.053125000000000006 0.0 0.0 0.0 0.0 0.0 0.0 0.0 
trait 2 0.2 0.0 0.0 0.0 0.0 0.0 0.0 0.0 
trait 3 0.3 0.0 0.0 0.0 0.0 0.0 0.0 0.0 
node 1 2 1 1
node 2 1 1 1
node 3 1 1 3
node 4 3 0 2
node 14 1 0 0
node 43 1 0 0
gene  1 1 4 -3.65094435777682 0 1.0 -3.65094435777682 0
gene  2 2 4 -19.80167724663654 0 2.0 -19.80167724663654 1
gene  3 3 4 12.548785048528805 0 3.0 12.548785048528805 1
gene  1 1 14 -4.121083056770233 0 35.0 -4.121083056770233 1
gene  1 14 4 1.042288831389768 0 36.0 1.042288831389768 1
gene  1 2 14 1.2277517783390053 0 149.0 1.2277517783390053 1
gene  1 1 43 6.011683937023009 0 175.0 6.011683937023009 1
gene  2 43 14 6.468629891097253 0 176.0 6.468629891097253 1
gene  1 3 43 -5.871637096387335 0 469.0 -5.871637096387335 1
gene  3 3 14 -0.7907245000397258 0 689.0 -0.7907245000397258 1
genomeend 72
/* Organism # 073 Fitness:  9,000 Error:  1,000                      */
genomestart  73
trait 1 0.053125000000000006 0.0 0.0 0.0 0.0 0.0 0.0 0.0 
trait 2 0.2 0.0 0.0 0.0 0.0 0.0 0.0 0.0 
trait 3 0.3 0.0 0.0 0.0 0.0 0.0 0.0 0.0 
node 1 2 1 1
node 2 1 1 1
node 3 1 1 3
node 4 3 0 2
node 14 1 0 0
node 43 1 0 0
gene  1 1 4 -3.113224337986265 0 1.0 -3.113224337986265 0
gene  2 2 4 -15.239694223785929 0 2.0 -15.239694223785929 1
gene  3 3 4 15.106975510741934 0 3.0 15.106975510741934 1
gene  1 1 14 -4.037441072478782 0 35.0 -4.037441072478782 1
gene  1 14 4 -10.908260205041527 0 36.0 -10.908260205041527 1
gene  1 2 14 2.8456581261754463 0 149.0 2.8456581261754463 1
gene  1 1 43 9.368297782864817 0 175.0 9.368297782864817 1
gene  2 43 14 4.831692456945793 0 176.0 4.831692456945793 1
gene  1 3 43 -3.0513056753277175 0 469.0 -3.0513056753277175 1
gene  3 3 14 -1.772257931446965 0 689.0 -1.772257931446965 1
genomeend 73
/*-------------------------------------------------------------------*/
/* Species # 021         : (size= 003) (AvfFit= 5,646) (Age= 36,000)  */
/*-------------------------------------------------------------------*/
/* Organism # 074 Fitness:  4,132 Error:  1,967                      */
genomestart  74
trait 1 0.3943518152472121 0.6091503535315591 0.498704435481923 0.0 0.01021803802828668 0.0 0.0 0.0018338841161459108 
trait 2 0.2 0.0 0.0 0.0 0.0 0.0 0.0 0.0 
trait 3 0.0 0.11288121054901043 0.9277318827308184 0.0 0.009616806161856204 0.0 0.0 0.0 
node 1 1 1 1
node 2 1 1 1
node 3 1 1 3
node 4 1 0 2
node 5 2 0 0
node 48 1 0 0
node 109 2 0 0
gene  1 1 4 -2.637671100781858 0 1.0 -2.637671100781858 0
gene  2 2 4 -5.86923716363698 0 2.0 -5.86923716363698 1
gene  3 3 4 4.240722219940682 0 3.0 4.240722219940682 1
gene  1 1 5 0.761120980488005 0 4.0 0.761120980488005 1
gene  1 5 4 0.6559033552619689 0 5.0 0.6559033552619689 1
gene  2 2 5 -1.4589527631711408 0 8.0 -1.4589527631711408 1
gene  1 3 5 1.834100584475744 0 152.0 1.834100584475744 1
gene  2 2 48 -1.0123579362601 0 196.0 -1.0123579362601 0
gene  2 48 4 -0.28263144770121623 0 197.0 -0.28263144770121623 1
gene  1 3 48 0.14777526839153732 0 281.0 0.14777526839153732 1
gene  2 2 109 -1.9363461002557956 0 498.0 -1.9363461002557956 1
gene  2 109 48 -3.9132889998935756 0 499.0 -3.9132889998935756 1
gene  3 3 109 -0.6577741108603732 0 549.0 -0.6577741108603732 1
gene  2 5 109 1.4628271821152543 0 568.0 1.4628271821152543 1
gene  1 5 48 -1.5882074566737712 0 587.0 -1.5882074566737712 1
genomeend 74
/* Organism # 075 Fitness:  4,000 Error:  2,000                      */
genomestart  75
trait 1 0.3943518152472121 0.6091503535315591 0.498704435481923 0.0 0.01021803802828668 0.0 0.0 0.0018338841161459108 
trait 2 0.2 0.0 0.0 0.0 0.0 0.0 0.0 0.0 
trait 3 0.0 0.11288121054901043 0.9277318827308184 0.0 0.009616806161856204 0.0 0.0 0.0 
node 1 1 1 1
node 2 1 1 1
node 3 1 1 3
node 4 1 0 2
node 5 2 0 0
node 48 1 0 0
node 109 2 0 0
gene  1 1 4 -3.1189630208026826 0 1.0 -3.1189630208026826 1
gene  2 2 4 -1.6973478794571448 0 2.0 -1.6973478794571448 1
gene  3 3 4 2.681761152337552 0 3.0 2.681761152337552 1
gene  1 1 5 2.0666391723129607 0 4.0 2.0666391723129607 1
gene  1 5 4 -3.6925916037217648 0 5.0 -3.6925916037217648 1
gene  2 2 5 -1.5780543317930047 0 8.0 -1.5780543317930047 1
gene  1 3 5 -0.17921507483712618 0 152.0 -0.17921507483712618 1
gene  2 2 48 -1.86915203407414 0 196.0 -1.86915203407414 0
gene  2 48 4 -0.9393893870589562 0 197.0 -0.9393893870589562 1
gene  1 3 48 2.97163395313999 0 281.0 2.97163395313999 1
gene  2 2 109 -2.7951929616207716 0 498.0 -2.7951929616207716 1
gene  2 109 48 -2.742566973415462 0 499.0 -2.742566973415462 1
gene  3 3 109 -0.6446693487598782 0 549.0 -0.6446693487598782 1
gene  2 5 109 -1.345980161403906 0 568.0 -1.345980161403906 1
gene  1 5 48 -0.5784239453074985 0 587.0 -0.5784239453074985 1
genomeend 75
/* Organism # 076 Fitness:  8,806 Error:  1,033                      */
genomestart  76
trait 1 0.3943518152472121 0.6091503535315591 0.498704435481923 0.0 0.01021803802828668 0.0 0.0 0.0018338841161459108 
trait 2 0.2 0.0 0.0 0.0 0.0 0.0 0.0 0.0 
trait 3 0.0 0.11288121054901043 0.9277318827308184 0.0 0.009616806161856204 0.0 0.0 0.0 
node 1 1 1 1
node 2 1 1 1
node 3 1 1 3
node 4 1 0 2
node 5 2 0 0
node 48 1 0 0
node 109 2 0 0
node 159 1 0 0
gene  1 1 4 -1.2982290038402728 0 1.0 -1.2982290038402728 0
gene  2 2 4 -3.4485478011998802 0 2.0 -3.4485478011998802 1
gene  3 3 4 3.956498964814869 0 3.0 3.956498964814869 1
gene  1 1 5 0.761120980488005 0 4.0 0.761120980488005 1
gene  1 5 4 -1.6248648859372912 0 5.0 -1.6248648859372912 1
gene  2 2 5 -0.10165628880916522 0 8.0 -0.10165628880916522 1
gene  1 3 5 0.3354452408119388 0 152.0 0.3354452408119388 1
gene  2 2 48 -1.1977186435258695 0 196.0 -1.1977186435258695 0
gene  2 48 4 0.4132767966668535 0 197.0 0.4132767966668535 1
gene  1 3 48 3.2993268776721663 0 281.0 3.2993268776721663 1
gene  2 2 109 -3.2142242859111487 0 498.0 -3.2142242859111487 1
gene  2 109 48 -3.029627770253144 0 499.0 -3.029627770253144 1
gene  3 3 109 1.587612227902008 0 549.0 1.587612227902008 1
gene  2 5 109 0.8826568053028855 0 568.0 0.8826568053028855 1
gene  1 5 48 -1.245251989782249 0 587.0 -1.245251989782249 0
gene  1 5 159 1.0 0 770.0 0.0 1
gene  1 159 48 -1.245251989782249 0 771.0 0.0 1
genomeend 76
/*-------------------------------------------------------------------*/
/* Species # 022         : (size= 004) (AvfFit= 7,750) (Age= 35,000)  */
/*-------------------------------------------------------------------*/
/* Organism # 077 Fitness:  9,000 Error:  1,000                      */
genomestart  77
trait 1 0.9251473407130391 1.4461169616591305 0.0 0.0 1.7878207442493188 0.01844750209648538 0.0 0.0 
trait 2 0.2 0.0 0.0 0.0 0.0 0.0 0.0 0.0 
trait 3 0.3 0.0 0.0 0.0 0.0 0.0 0.0 0.0 
node 1 1 1 1
node 2 2 1 1
node 3 1 1 3
node 4 1 0 2
node 46 1 0 0
node 137 1 0 0
gene  1 1 4 1.909304198375123 0 1.0 1.909304198375123 0
gene  2 2 4 -20.453346924668843 0 2.0 -20.453346924668843 1
gene  3 3 4 11.987825659172808 0 3.0 11.987825659172808 1
gene  2 1 46 2.4527202107948294 0 183.0 2.4527202107948294 1
gene  1 46 4 -0.9247998419861991 0 184.0 -0.9247998419861991 1
gene  1 3 46 -1.2204016537930173 0 217.0 -1.2204016537930173 1
gene  2 2 46 -6.467158995327643 0 246.0 -6.467158995327643 1
gene  1 1 137 3.7878219340974515 0 637.0 3.7878219340974515 1
gene  1 137 4 -2.987649192936181 0 638.0 -2.987649192936181 1
genomeend 77
/* Organism # 078 Fitness:  9,000 Error:  1,000                      */
genomestart  78
trait 1 0.9251473407130391 1.4461169616591305 0.0 0.0 1.7878207442493188 0.01844750209648538 0.0 0.0 
trait 2 0.2 0.0 0.0 0.0 0.0 0.0 0.0 0.0 
trait 3 0.3 0.0 0.0 0.0 0.0 0.0 0.0 0.0 
node 1 1 1 1
node 2 2 1 1
node 3 1 1 3
node 4 1 0 2
node 46 1 0 0
node 137 1 0 0
gene  1 1 4 0.8755168896338106 0 1.0 0.8755168896338106 1
gene  2 2 4 -20.31910417341796 0 2.0 -20.31910417341796 1
gene  3 3 4 11.07757248624587 0 3.0 11.07757248624587 1
gene  2 1 46 -1.4591281877016913 0 183.0 -1.4591281877016913 1
gene  1 46 4 -1.9791702019708979 0 184.0 -1.9791702019708979 1
gene  1 3 46 -3.476072293150201 0 217.0 -3.476072293150201 1
gene  2 2 46 -8.965403519909016 0 246.0 -8.965403519909016 1
gene  1 1 137 0.4906354558448196 0 637.0 0.4906354558448196 1
gene  1 137 4 -4.422009543548173 0 638.0 -4.422009543548173 1
genomeend 78
/* Organism # 079 Fitness:  9,000 Error:  1,000                      */
genomestart  79
trait 1 0.9251473407130391 1.4461169616591305 0.0 0.0 1.7878207442493188 0.01844750209648538 0.0 0.0 
trait 2 0.2 0.0 0.0 0.0 0.0 0.0 0.0 0.0 
trait 3 0.3 0.0 0.0 0.0 0.0 0.0 0.0 0.0 
node 1 1 1 1
node 2 2 1 1
node 3 1 1 3
node 4 1 0 2
node 46 1 0 0
node 137 3 0 0
gene  1 1 4 6.221577569187162 0 1.0 6.221577569187162 0
gene  2 2 4 -23.043372829999864 0 2.0 -23.043372829999864 1
gene  3 3 4 11.661937613078765 0 3.0 11.661937613078765 1
gene  2 1 46 -2.2001896159785335 0 183.0 -2.2001896159785335 1
gene  1 46 4 2.4318008302968037 0 184.0 2.4318008302968037 1
gene  1 3 46 -3.476072293150201 0 217.0 -3.476072293150201 1
gene  2 2 46 -6.153666044847125 0 246.0 -6.153666044847125 1
gene  1 1 137 2.3766059592022986 0 637.0 2.3766059592022986 1
gene  1 137 4 -2.987649192936181 0 638.0 -2.987649192936181 1
genomeend 79
/* Organism # 080 Fitness:  4,000 Error:  2,000                      */
genomestart  80
trait 1 0.9251473407130391 1.4461169616591305 0.0 0.0 1.7878207442493188 0.01844750209648538 0.0 0.0 
trait 2 0.2 0.0 0.0 0.0 0.0 0.0 0.0 0.0 
trait 3 0.3 0.0 0.0 0.0 0.0 0.0 0.0 0.0 
node 1 1 1 1
node 2 2 1 1
node 3 1 1 3
node 4 1 0 2
node 46 1 0 0
node 137 1 0 0
gene  1 1 4 0.8810433856164754 0 1.0 0.8810433856164754 0
gene  2 2 4 -18.524790414968294 0 2.0 -18.524790414968294 1
gene  3 3 4 -1.7270979269033995 0 3.0 -1.7270979269033995 1
gene  2 1 46 -1.5970494271993352 0 183.0 -1.5970494271993352 1
gene  1 46 4 -0.30592720528423323 0 184.0 -0.30592720528423323 1
gene  1 3 46 -9.9087576386242E-4 0 217.0 -9.9087576386242E-4 1
gene  2 2 46 -7.775618582287429 0 246.0 -7.775618582287429 1
gene  1 1 137 0.46093565429879135 0 637.0 0.46093565429879135 1
gene  1 137 4 -3.5241083441568968 0 638.0 -3.5241083441568968 1
genomeend 80
/*-------------------------------------------------------------------*/
/* Species # 023         : (size= 004) (AvfFit= 7,719) (Age= 35,000)  */
/*-------------------------------------------------------------------*/
/* Organism # 081 Fitness:  9,000 Error:  1,000                      */
genomestart  81
trait 1 0.0 0.0 0.0 0.0 0.0 0.41117422329314635 0.4231433452503337 0.0 
trait 2 0.1 0.0 0.2745656836152613 0.0 0.0 0.0 0.4434326801698363 0.0 
trait 3 0.3 0.8631788603424162 1.425861272003624 0.9542506669486637 0.27478525958130695 1.0225649362153018 0.17316938897765422 0.0 
node 1 1 1 1
node 2 1 1 1
node 3 1 1 3
node 4 1 0 2
node 12 1 0 0
node 14 1 0 0
node 15 2 0 0
node 48 3 0 0
node 135 1 0 0
gene  2 1 4 1.26242810637575 0 1.0 1.26242810637575 0
gene  2 2 4 -22.292313179658773 0 2.0 -22.292313179658773 1
gene  3 3 4 14.856054781229004 0 3.0 14.856054781229004 1
gene  1 1 14 1.623424382213658 0 35.0 1.623424382213658 0
gene  1 14 4 0.7345169213470781 0 36.0 0.7345169213470781 1
gene  1 1 15 -4.084885290216795 0 40.0 -4.084885290216795 1
gene  2 15 12 1.213438915428379 0 41.0 1.213438915428379 1
gene  3 3 15 3.118577070341289 0 92.0 3.118577070341289 1
gene  1 12 14 -0.7694330608241919 0 141.0 -0.7694330608241919 1
gene  2 2 48 0.9187185198469475 0 196.0 0.9187185198469475 1
gene  2 48 4 -16.51130092639036 0 197.0 -16.51130092639036 1
gene  3 1 12 7.590845969018705 0 535.0 7.590845969018705 1
gene  2 48 12 -1.592714469213201 0 591.0 -1.592714469213201 1
gene  1 1 135 1.6037387104692007 0 630.0 1.6037387104692007 1
gene  1 135 14 0.0600973576043502 0 631.0 0.0600973576043502 1
genomeend 81
/* Organism # 082 Fitness:  9,000 Error:  1,000                      */
genomestart  82
trait 1 0.0 0.0 0.0 0.0 0.0 0.41117422329314635 0.4231433452503337 0.0 
trait 2 0.1 0.0 0.2745656836152613 0.0 0.0 0.0 0.4434326801698363 0.0 
trait 3 0.34979933430019633 0.8631788603424162 1.425861272003624 0.20013252963922956 0.27478525958130695 1.0225649362153018 0.17316938897765422 0.9456193402941695 
node 1 1 1 1
node 2 1 1 1
node 3 1 1 3
node 4 1 0 2
node 12 1 0 0
node 14 1 0 0
node 15 2 0 0
node 48 3 0 0
node 135 1 0 0
gene  2 1 4 2.514287141674698 0 1.0 2.514287141674698 0
gene  2 2 4 -24.239860026331467 0 2.0 -24.239860026331467 1
gene  3 3 4 14.880776828173108 0 3.0 14.880776828173108 1
gene  1 1 14 -1.956674225406789 0 35.0 -1.956674225406789 0
gene  1 14 4 2.2726547661938685 0 36.0 2.2726547661938685 1
gene  1 1 15 -3.6142393336029612 0 40.0 -3.6142393336029612 1
gene  2 15 12 2.5849392016864363 0 41.0 2.5849392016864363 1
gene  3 3 15 5.371473455076794 0 92.0 5.371473455076794 1
gene  1 12 14 -1.9654626969021196 0 141.0 -1.9654626969021196 1
gene  2 2 48 0.3063830460510286 0 196.0 0.3063830460510286 1
gene  2 48 4 -17.796645489600497 0 197.0 -17.796645489600497 1
gene  3 1 12 8.03126563286651 0 535.0 8.03126563286651 1
gene  2 48 12 -3.771625697177506 0 591.0 -3.771625697177506 1
gene  1 1 135 0.7350202038821854 0 630.0 0.7350202038821854 1
gene  1 135 14 1.8264103457892338 0 631.0 1.8264103457892338 1
genomeend 82
/* Organism # 083 Fitness:  3,876 Error:  2,031                      */
genomestart  83
trait 1 0.0 0.0 0.0 0.0 0.0 0.41117422329314635 0.4231433452503337 0.0 
trait 2 0.1 0.0 0.2745656836152613 0.0 0.0 0.0 0.4434326801698363 0.0 
trait 3 0.3 0.8631788603424162 1.425861272003624 0.9542506669486637 0.27478525958130695 1.0225649362153018 0.17316938897765422 0.0 
node 1 1 1 1
node 2 1 1 1
node 3 1 1 3
node 4 1 0 2
node 12 1 0 0
node 14 1 0 0
node 15 2 0 0
node 48 3 0 0
node 135 1 0 0
gene  2 1 4 1.26242810637575 0 1.0 1.26242810637575 0
gene  2 2 4 -1.3028186900506389 0 2.0 -1.3028186900506389 1
gene  3 3 4 13.092337626355729 0 3.0 13.092337626355729 1
gene  1 1 14 -0.6007468576294811 0 35.0 -0.6007468576294811 0
gene  1 14 4 -0.47679233496155526 0 36.0 -0.47679233496155526 1
gene  1 1 15 -6.063638876906692 0 40.0 -6.063638876906692 1
gene  2 15 12 -1.0361428193574977 0 41.0 -1.0361428193574977 1
gene  3 3 15 2.80974841176213 0 92.0 2.80974841176213 1
gene  1 12 14 -0.7694330608241919 0 141.0 -0.7694330608241919 1
gene  2 2 48 0.9937868606316658 0 196.0 0.9937868606316658 1
gene  2 48 4 1.9900072001124651 0 197.0 1.9900072001124651 1
gene  3 1 12 2.4336522068103466 0 535.0 2.4336522068103466 1
gene  2 48 12 -2.089875594882879 0 591.0 -2.089875594882879 1
gene  1 1 135 0.3052291066905184 0 630.0 0.3052291066905184 1
gene  1 135 14 0.0600973576043502 0 631.0 0.0600973576043502 1
genomeend 83
/* Organism # 084 Fitness:  9,000 Error:  1,000                      */
genomestart  84
trait 1 0.0 0.0 0.0 0.0 0.0 0.41117422329314635 0.4231433452503337 0.0 
trait 2 0.1 0.0 0.2745656836152613 0.0 0.0 0.0 0.4434326801698363 0.0 
trait 3 0.3 0.8631788603424162 1.425861272003624 0.9542506669486637 0.27478525958130695 1.0225649362153018 0.17316938897765422 0.0 
node 1 1 1 1
node 2 1 1 1
node 3 1 1 3
node 4 1 0 2
node 12 1 0 0
node 14 1 0 0
node 15 2 0 0
node 48 3 0 0
node 135 1 0 0
gene  2 1 4 3.2169990798820143 0 1.0 3.2169990798820143 0
gene  2 2 4 -20.424561988713087 0 2.0 -20.424561988713087 1
gene  3 3 4 16.212570378211336 0 3.0 16.212570378211336 1
gene  1 1 14 0.43033128481226823 0 35.0 0.43033128481226823 0
gene  1 14 4 0.332804116089743 0 36.0 0.332804116089743 1
gene  1 1 15 -3.3868639259686395 0 40.0 -3.3868639259686395 1
gene  2 15 12 1.213438915428379 0 41.0 1.213438915428379 1
gene  3 3 15 2.413269833323846 0 92.0 2.413269833323846 1
