/* Species # 002         : (size= 003) (AvfFit= 21,721) (Age= 136,000)  */
/*-------------------------------------------------------------------*/
/* Organism # 000 Fitness:  25,000 Error:  6,000                      */
genomestart  0
trait 1 0.0 0.377714541487155 0.356688995212593 0.3926478553742436 0.0 0.0 0.0 0.0 
trait 2 0.0 0.822064430908221 0.6653515501097809 0.0 0.0 0.0 0.0 0.0 
trait 3 0.14152390037289103 0.0 0.9174354942660101 0.0 0.39942255915906555 0.0 0.0 0.6108226011211496 
node 1 1 1 1
node 2 3 1 1
node 3 1 1 3
node 4 2 0 2
node 5 1 1 1
node 10 1 0 0
node 12 1 0 0
node 80 3 0 0
node 299 3 0 0
node 556 1 0 0
gene  3 1 4 2.0930529612729005 0 1.0 2.0930529612729005 1
gene  3 2 4 -8.766612809167261 0 2.0 -8.766612809167261 1
gene  3 3 4 10.87004654216139 0 3.0 10.87004654216139 1
gene  2 5 4 17.76226223910885 0 3.0 17.76226223910885 1
gene  1 1 10 2.099956456040796 0 12.0 2.099956456040796 1
gene  1 10 4 1.4083128720195315 0 13.0 1.4083128720195315 1
gene  1 1 12 -0.17169197726877083 0 16.0 -0.17169197726877083 1
gene  1 12 10 10.686262960006145 0 17.0 10.686262960006145 1
gene  1 3 10 -1.3307542614137997 0 45.0 -1.3307542614137997 1
gene  2 5 10 7.291016901826075 0 149.0 7.291016901826075 1
gene  1 1 80 2.4780760166166513 0 357.0 2.4780760166166513 1
gene  1 80 4 1.646509201757652 0 358.0 1.646509201757652 1
gene  2 2 80 3.8986936034839963 0 498.0 3.8986936034839963 1
gene  1 3 80 1.4472718617158993 0 696.0 1.4472718617158993 1
gene  2 5 80 -9.323119284367044 0 773.0 -9.323119284367044 1
gene  1 12 80 -5.390878949911983 0 943.0 -5.390878949911983 1
gene  1 2 10 -9.371615512577495 0 1003.0 -9.371615512577495 1
gene  2 80 10 -4.742231086418311 0 1064.0 -4.742231086418311 1
gene  1 3 12 -1.1952773246054103 0 1150.0 -1.1952773246054103 1
gene  1 12 4 0.2913561232555098 0 1270.0 0.2913561232555098 1
gene  2 5 299 -1.9592184877807584 0 1349.0 -1.9592184877807584 1
gene  2 299 4 0.8522344485076105 0 1350.0 0.8522344485076105 1
gene  2 3 299 -3.015291533243766 0 1577.0 -3.015291533243766 1
gene  2 5 12 2.3153386838002286 0 1884.0 2.3153386838002286 1
gene  2 2 12 -0.4918772933771066 0 1971.0 -0.4918772933771066 1
gene  2 299 80 -0.34734795713367195 0 1999.0 -0.34734795713367195 1
gene  2 80 556 -3.0164505642040353 0 2488.0 -3.0164505642040353 1
gene  2 556 10 -0.7819517930002716 0 2489.0 -0.7819517930002716 1
gene  2 1 299 1.7541975036619954 0 2552.0 1.7541975036619954 1
gene  2 3 556 1.011059975208429 0 3110.0 1.011059975208429 1
genomeend 0
/* Organism # 001 Fitness:  15,769 Error:  4,971                      */
genomestart  1
trait 1 0.0 0.377714541487155 0.356688995212593 0.3926478553742436 0.0 0.0 0.0 0.0 
trait 2 0.0 0.822064430908221 0.6653515501097809 0.0 0.0 0.0 0.0 0.0 
trait 3 0.14152390037289103 0.0 0.9174354942660101 0.0 0.39942255915906555 0.0 0.0 0.6108226011211496 
node 1 1 1 1
node 2 3 1 1
node 3 1 1 3
node 4 2 0 2
node 5 1 1 1
node 10 1 0 0
node 12 1 0 0
node 80 3 0 0
node 299 3 0 0
node 556 1 0 0
gene  3 1 4 -1.270217327148928 0 1.0 -1.270217327148928 1
gene  3 2 4 -11.572046231965817 0 2.0 -11.572046231965817 1
gene  3 3 4 1.3638048732001131 0 3.0 1.3638048732001131 1
gene  2 5 4 18.064497630294788 0 3.0 18.064497630294788 1
gene  1 1 10 -2.2455682954090763 0 12.0 -2.2455682954090763 1
gene  1 10 4 1.610532517087844 0 13.0 1.610532517087844 1
gene  1 1 12 -2.3595915713845854 0 16.0 -2.3595915713845854 1
gene  1 12 10 9.323838487833212 0 17.0 9.323838487833212 1
gene  1 3 10 1.9545530737791672 0 45.0 1.9545530737791672 1
gene  2 5 10 6.7588224258366445 0 149.0 6.7588224258366445 1
gene  1 1 80 0.2498048074893473 0 357.0 0.2498048074893473 1
gene  1 80 4 4.5641518766527955 0 358.0 4.5641518766527955 1
gene  2 2 80 -1.0614378071013275 0 498.0 -1.0614378071013275 1
gene  1 3 80 2.6214312479172994 0 696.0 2.6214312479172994 1
gene  2 5 80 -10.204896960978136 0 773.0 -10.204896960978136 1
gene  1 12 80 -7.527034541811787 0 943.0 -7.527034541811787 1
gene  1 2 10 -10.142949002235499 0 1003.0 -10.142949002235499 1
gene  2 80 10 -4.358289783780479 0 1064.0 -4.358289783780479 1
gene  1 3 12 -2.573070956281388 0 1150.0 -2.573070956281388 1
gene  1 12 4 -5.521915720374514 0 1270.0 -5.521915720374514 1
gene  2 5 299 -2.779698593117964 0 1349.0 -2.779698593117964 1
gene  2 299 4 1.9607428674040477 0 1350.0 1.9607428674040477 1
gene  2 3 299 -2.8758644120180126 0 1577.0 -2.8758644120180126 1
gene  2 5 12 0.7600330097194641 0 1884.0 0.7600330097194641 1
gene  2 2 12 1.2455895644024426 0 1971.0 1.2455895644024426 1
gene  2 299 80 -1.3260639093099333 0 1999.0 -1.3260639093099333 1
gene  2 80 556 -0.5277777477257519 0 2488.0 -0.5277777477257519 1
gene  2 556 10 -0.464157988569333 0 2489.0 -0.464157988569333 1
gene  2 1 299 4.030618398149995 0 2552.0 4.030618398149995 1
gene  2 3 556 -1.6497381148554533 0 3110.0 -1.6497381148554533 1
genomeend 1
/* Organism # 002 Fitness:  24,393 Error:  5,939                      */
genomestart  2
trait 1 0.0 0.377714541487155 0.356688995212593 0.3926478553742436 0.0 0.0 0.0 0.0 
trait 2 0.0 0.822064430908221 0.6653515501097809 0.0 0.0 0.0 0.0 0.0 
trait 3 0.14152390037289103 0.0 0.9174354942660101 0.0 0.39942255915906555 0.0 0.0 0.6108226011211496 
node 1 1 1 1
node 2 3 1 1
node 3 1 1 3
node 4 2 0 2
node 5 1 1 1
node 10 1 0 0
node 12 1 0 0
node 80 3 0 0
node 299 3 0 0
node 556 1 0 0
gene  3 1 4 -2.626562848826241 0 1.0 -2.626562848826241 1
gene  3 2 4 -10.406117442852802 0 2.0 -10.406117442852802 1
gene  3 3 4 10.87004654216139 0 3.0 10.87004654216139 1
gene  2 5 4 16.32457860474107 0 3.0 16.32457860474107 1
gene  1 1 10 -0.2613967087380913 0 12.0 -0.2613967087380913 1
gene  1 10 4 2.477464979900538 0 13.0 2.477464979900538 1
gene  1 1 12 -0.17169197726877083 0 16.0 -0.17169197726877083 1
gene  1 12 10 10.880161191456192 0 17.0 10.880161191456192 1
gene  1 3 10 -0.4296235742555281 0 45.0 -0.4296235742555281 1
gene  2 5 10 6.3893510582196935 0 149.0 6.3893510582196935 1
gene  1 1 80 -1.3620470450990303 0 357.0 -1.3620470450990303 1
gene  1 80 4 2.5016406255235974 0 358.0 2.5016406255235974 1
gene  2 2 80 3.651383209484294 0 498.0 3.651383209484294 1
gene  1 3 80 1.3243317379553337 0 696.0 1.3243317379553337 1
gene  2 5 80 -9.328657602444062 0 773.0 -9.328657602444062 1
gene  1 12 80 -5.058704972941977 0 943.0 -5.058704972941977 1
gene  1 2 10 -9.371615512577495 0 1003.0 -9.371615512577495 1
gene  2 80 10 -3.386759055407631 0 1064.0 -3.386759055407631 1
gene  1 3 12 -1.1952773246054103 0 1150.0 -1.1952773246054103 1
gene  1 12 4 -3.394921080052465 0 1270.0 -3.394921080052465 1
gene  2 5 299 -1.4028449072907045 0 1349.0 -1.4028449072907045 1
gene  2 299 4 1.9607428674040477 0 1350.0 1.9607428674040477 1
gene  2 3 299 -2.8758644120180126 0 1577.0 -2.8758644120180126 1
gene  2 5 12 2.3153386838002286 0 1884.0 2.3153386838002286 1
gene  2 2 12 0.9738703436551756 0 1971.0 0.9738703436551756 1
gene  2 299 80 0.520299729249283 0 1999.0 0.520299729249283 1
gene  2 80 556 -3.0164505642040353 0 2488.0 -3.0164505642040353 1
gene  2 556 10 -0.3153463729609767 0 2489.0 -0.3153463729609767 1
gene  2 1 299 2.768952262519301 0 2552.0 2.768952262519301 1
gene  2 3 556 -8.36327427362588 0 3110.0 -8.36327427362588 1
genomeend 2
/*-------------------------------------------------------------------*/
/* Species # 013         : (size= 004) (AvfFit= 28,250) (Age= 130,000)  */
/*-------------------------------------------------------------------*/
/* Organism # 003 Fitness:  36,000 Error:  7,000                      */
genomestart  3
trait 1 0.7109643898863596 0.0 0.267713179610252 0.0 0.0 0.4659108399287851 0.0 0.0 
trait 2 0.30666624511108037 0.07744726312248107 0.0 0.3232305598153271 0.6041180136510335 0.0 0.0 0.0 
trait 3 0.0 0.5822510697910828 0.0 0.0 0.6021595693231717 0.0 0.9549065331695091 0.0 
node 1 1 1 1
node 2 1 1 1
node 3 1 1 3
node 4 1 0 2
node 5 2 1 1
node 10 2 0 0
node 12 1 0 0
node 27 3 0 0
node 98 3 0 0
node 641 1 0 0
node 689 1 0 0
gene  1 1 4 -0.3043975621929838 0 1.0 -0.3043975621929838 1
gene  2 2 4 27.28969746925789 0 2.0 27.28969746925789 1
gene  2 3 4 21.1817172387306 0 3.0 21.1817172387306 1
gene  2 5 4 0.4885227723061789 0 3.0 0.4885227723061789 1
gene  1 1 10 12.378352248955078 0 12.0 12.378352248955078 1
gene  1 10 4 1.0152021798618573 0 13.0 1.0152021798618573 0
gene  1 1 12 -0.008146689899268367 0 16.0 -0.008146689899268367 0
gene  1 12 10 1.4062245169138294 0 17.0 1.4062245169138294 1
gene  1 5 10 1.522197008274817 0 20.0 1.522197008274817 1
gene  2 5 12 6.147196010530812 0 46.0 6.147196010530812 1
gene  1 1 27 0.5620396851092362 0 79.0 0.5620396851092362 1
gene  1 27 4 -14.52969216919868 0 80.0 -14.52969216919868 1
gene  3 3 12 4.31407690614886 0 93.0 4.31407690614886 1
gene  2 12 4 2.5504470412112017 0 305.0 2.5504470412112017 1
gene  1 1 98 -11.174962767165523 0 442.0 -11.174962767165523 1
gene  1 98 4 -1.4894549608191785 0 443.0 -1.4894549608191785 1
gene  3 10 27 3.1581803804613298 0 768.0 3.1581803804613298 1
gene  3 5 27 -6.30290287958295 0 893.0 -6.30290287958295 1
gene  2 98 10 -0.6976864997717869 0 1020.0 -0.6976864997717869 1
gene  1 3 27 -0.6824466711729247 0 1048.0 -0.6824466711729247 1
gene  3 2 27 -2.267249934422657 0 1317.0 -2.267249934422657 1
gene  1 3 10 6.145583765193349 0 1442.0 6.145583765193349 1
gene  2 3 98 -4.775121363556137 0 1558.0 -4.775121363556137 1
gene  1 12 27 0.6485815373858548 0 1623.0 0.6485815373858548 1
gene  1 12 98 2.9570917734685693 0 1873.0 2.9570917734685693 1
gene  2 98 27 -2.020541004912866 0 2131.0 -2.020541004912866 1
gene  2 2 12 -2.020991857642112 0 2662.0 -2.020991857642112 1
gene  1 5 98 -1.8213621610028836 0 2677.0 -1.8213621610028836 1
gene  1 10 641 4.4174677865226 0 2897.0 4.4174677865226 1
gene  1 641 4 -17.003319220679135 0 2898.0 -17.003319220679135 1
gene  1 1 689 1.0 0 3095.0 0.0 1
gene  1 689 12 -0.008146689899268367 0 3096.0 0.0 1
genomeend 3
/* Organism # 004 Fitness:  16,000 Error:  5,000                      */
genomestart  4
trait 1 0.7109643898863596 0.0 0.267713179610252 0.0 0.0 0.4659108399287851 0.0 0.0 
trait 2 0.30666624511108037 0.07744726312248107 0.0 0.3232305598153271 0.6041180136510335 0.0 0.0 0.0 
trait 3 0.0 0.5822510697910828 0.0 0.0 0.6021595693231717 0.0 0.9549065331695091 0.0 
node 1 1 1 1
node 2 1 1 1
node 3 1 1 3
node 4 1 0 2
node 5 2 1 1
node 10 2 0 0
node 12 1 0 0
node 27 3 0 0
node 98 3 0 0
node 641 1 0 0
node 689 1 0 0
gene  1 1 4 1.716156149898772 0 1.0 1.716156149898772 1
gene  2 2 4 27.28969746925789 0 2.0 27.28969746925789 1
gene  2 3 4 23.27054077746613 0 3.0 23.27054077746613 1
gene  2 5 4 -1.1108680001374178 0 3.0 -1.1108680001374178 1
gene  1 1 10 12.206761713626143 0 12.0 12.206761713626143 1
gene  1 10 4 -0.9219248179830661 0 13.0 -0.9219248179830661 0
gene  1 1 12 -1.125759960729548 0 16.0 -1.125759960729548 0
gene  1 12 10 2.465553726211019 0 17.0 2.465553726211019 1
gene  1 5 10 1.6439491632450371 0 20.0 1.6439491632450371 1
gene  2 5 12 4.136062350036135 0 46.0 4.136062350036135 1
gene  1 1 27 0.5620396851092362 0 79.0 0.5620396851092362 1
gene  1 27 4 -15.500820052072777 0 80.0 -15.500820052072777 1
gene  3 3 12 4.31407690614886 0 93.0 4.31407690614886 1
gene  2 12 4 2.5504470412112017 0 305.0 2.5504470412112017 1
gene  1 1 98 -2.498090826984999 0 442.0 -2.498090826984999 1
gene  1 98 4 -2.24980602699854 0 443.0 -2.24980602699854 1
gene  3 10 27 3.1581803804613298 0 768.0 3.1581803804613298 1
gene  3 5 27 1.7021534910857459 0 893.0 1.7021534910857459 1
gene  2 98 10 -0.7347122186678295 0 1020.0 -0.7347122186678295 1
gene  1 3 27 -2.153023127090882 0 1048.0 -2.153023127090882 1
gene  3 2 27 0.09901587475466833 0 1317.0 0.09901587475466833 1
gene  1 3 10 0.7570568031122049 0 1442.0 0.7570568031122049 1
gene  2 3 98 -4.510590411003175 0 1558.0 -4.510590411003175 1
gene  1 12 27 -1.179168511452319 0 1623.0 -1.179168511452319 1
gene  1 12 98 2.9570917734685693 0 1873.0 2.9570917734685693 1
gene  2 98 27 -1.6693010838471187 0 2131.0 -1.6693010838471187 1
gene  2 2 12 -3.466186555922765 0 2662.0 -3.466186555922765 1
gene  1 5 98 -1.8213621610028836 0 2677.0 -1.8213621610028836 1
gene  1 10 641 3.410544166011427 0 2897.0 3.410544166011427 1
gene  1 641 4 -16.99054970155307 0 2898.0 -16.99054970155307 1
gene  1 1 689 1.4350109892823617 0 3095.0 1.4350109892823617 1
gene  1 689 12 -0.10238306790280438 0 3096.0 -0.10238306790280438 1
genomeend 4
/* Organism # 005 Fitness:  36,000 Error:  7,000                      */
genomestart  5
trait 1 0.7109643898863596 0.0 0.267713179610252 0.0 0.0 0.4659108399287851 0.0 0.0 
trait 2 0.30666624511108037 0.07744726312248107 0.0 0.3232305598153271 0.6041180136510335 0.0 0.0 0.0 
trait 3 0.0 0.5822510697910828 0.0 0.0 0.6021595693231717 0.0 0.9549065331695091 0.0 
node 1 1 1 1
node 2 1 1 1
node 3 1 1 3
node 4 1 0 2
node 5 2 1 1
node 10 2 0 0
node 12 1 0 0
node 27 3 0 0
node 98 3 0 0
node 641 1 0 0
node 689 1 0 0
node 697 1 0 0
gene  1 1 4 -0.3043975621929838 0 1.0 -0.3043975621929838 1
gene  2 2 4 27.28969746925789 0 2.0 27.28969746925789 1
gene  2 3 4 21.1817172387306 0 3.0 21.1817172387306 1
gene  2 5 4 0.4885227723061789 0 3.0 0.4885227723061789 1
gene  1 1 10 12.378352248955078 0 12.0 12.378352248955078 1
gene  1 10 4 1.0152021798618573 0 13.0 1.0152021798618573 0
gene  1 1 12 -0.008146689899268367 0 16.0 -0.008146689899268367 0
gene  1 12 10 1.4062245169138294 0 17.0 1.4062245169138294 1
gene  1 5 10 1.522197008274817 0 20.0 1.522197008274817 1
gene  2 5 12 6.147196010530812 0 46.0 6.147196010530812 1
gene  1 1 27 0.5620396851092362 0 79.0 0.5620396851092362 1
gene  1 27 4 -14.52969216919868 0 80.0 -14.52969216919868 1
gene  3 3 12 4.31407690614886 0 93.0 4.31407690614886 1
gene  2 12 4 2.5504470412112017 0 305.0 2.5504470412112017 1
gene  1 1 98 -11.174962767165523 0 442.0 -11.174962767165523 1
gene  1 98 4 -1.4894549608191785 0 443.0 -1.4894549608191785 0
gene  3 10 27 3.1581803804613298 0 768.0 3.1581803804613298 1
gene  3 5 27 -6.30290287958295 0 893.0 -6.30290287958295 1
gene  2 98 10 -0.6976864997717869 0 1020.0 -0.6976864997717869 1
gene  1 3 27 -0.6824466711729247 0 1048.0 -0.6824466711729247 1
gene  3 2 27 -2.267249934422657 0 1317.0 -2.267249934422657 1
gene  1 3 10 6.145583765193349 0 1442.0 6.145583765193349 1
gene  2 3 98 -4.775121363556137 0 1558.0 -4.775121363556137 1
gene  1 12 27 0.6485815373858548 0 1623.0 0.6485815373858548 1
gene  1 12 98 2.9570917734685693 0 1873.0 2.9570917734685693 1
gene  2 98 27 -2.020541004912866 0 2131.0 -2.020541004912866 1
gene  2 2 12 -2.020991857642112 0 2662.0 -2.020991857642112 1
gene  1 5 98 -1.8213621610028836 0 2677.0 -1.8213621610028836 1
gene  1 10 641 4.4174677865226 0 2897.0 4.4174677865226 1
gene  1 641 4 -17.003319220679135 0 2898.0 -17.003319220679135 1
gene  1 1 689 1.0 0 3095.0 0.0 1
gene  1 689 12 -0.008146689899268367 0 3096.0 0.0 1
gene  1 98 697 1.0 0 3124.0 0.0 1
gene  1 697 4 -1.4894549608191785 0 3125.0 0.0 1
genomeend 5
/* Organism # 006 Fitness:  25,000 Error:  6,000                      */
genomestart  6
trait 1 0.7109643898863596 0.0 0.267713179610252 0.0 0.0 0.4659108399287851 0.0 0.0 
trait 2 0.30666624511108037 0.07744726312248107 0.0 0.3232305598153271 0.6041180136510335 0.0 0.0 0.0 
trait 3 0.0 0.5822510697910828 0.0 0.0 0.6021595693231717 0.0 0.9549065331695091 0.0 
node 1 1 1 1
node 2 1 1 1
node 3 1 1 3
node 4 1 0 2
node 5 2 1 1
node 10 2 0 0
node 12 1 0 0
node 27 3 0 0
node 98 3 0 0
node 641 1 0 0
node 689 1 0 0
gene  1 1 4 2.2438221179690303 0 1.0 2.2438221179690303 1
gene  2 2 4 28.066410458436355 0 2.0 28.066410458436355 1
gene  2 3 4 2.1582289990784833 0 3.0 2.1582289990784833 1
gene  2 5 4 1.051990130781819 0 3.0 1.051990130781819 1
gene  1 1 10 10.396739901912365 0 12.0 10.396739901912365 1
gene  1 10 4 0.48352197370719074 0 13.0 0.48352197370719074 0
gene  1 1 12 0.3069888196601302 0 16.0 0.3069888196601302 0
gene  1 12 10 2.2778657139571545 0 17.0 2.2778657139571545 1
gene  1 5 10 0.9524295983654324 0 20.0 0.9524295983654324 1
gene  2 5 12 7.780256028220425 0 46.0 7.780256028220425 1
gene  1 1 27 0.2375062461277329 0 79.0 0.2375062461277329 1
gene  1 27 4 -16.237099311499673 0 80.0 -16.237099311499673 1
gene  3 3 12 2.398285367327101 0 93.0 2.398285367327101 1
gene  2 12 4 2.5504470412112017 0 305.0 2.5504470412112017 1
gene  1 1 98 -10.36240280308784 0 442.0 -10.36240280308784 1
gene  1 98 4 0.8052266798085681 0 443.0 0.8052266798085681 1
gene  3 10 27 4.693256888526143 0 768.0 4.693256888526143 1
gene  3 5 27 -5.174059431724955 0 893.0 -5.174059431724955 1
gene  2 98 10 1.099601277999289 0 1020.0 1.099601277999289 1
gene  1 3 27 -2.434839789719213 0 1048.0 -2.434839789719213 1
gene  3 2 27 -2.9101037248448933 0 1317.0 -2.9101037248448933 1
gene  1 3 10 -2.0213438097612735 0 1442.0 -2.0213438097612735 1
gene  2 3 98 -4.748969644357977 0 1558.0 -4.748969644357977 1
gene  1 12 27 2.545950346665845 0 1623.0 2.545950346665845 1
gene  1 12 98 1.0055848494234874 0 1873.0 1.0055848494234874 1
gene  2 98 27 0.4712684524885953 0 2131.0 0.4712684524885953 1
gene  2 2 12 -3.1002707577310966 0 2662.0 -3.1002707577310966 1
gene  1 5 98 -2.0559133704911363 0 2677.0 -2.0559133704911363 1
gene  1 10 641 6.55621608781378 0 2897.0 6.55621608781378 1
gene  1 641 4 -16.6210490856484 0 2898.0 -16.6210490856484 1
gene  1 1 689 0.3230977669372955 0 3095.0 0.3230977669372955 1
gene  1 689 12 2.2712647413015463 0 3096.0 2.2712647413015463 1
genomeend 6
/*-------------------------------------------------------------------*/
/* Species # 020         : (size= 002) (AvfFit= 6,733) (Age= 125,000)  */
/*-------------------------------------------------------------------*/
/* Organism # 007 Fitness:  4,117 Error:  3,029                      */
genomestart  7
trait 1 0.0 0.0 0.7719527001042042 0.49297474026356325 0.09876471083339569 0.16011468962644232 0.0 0.0 
trait 2 0.0 0.0 0.0 0.0 1.0404469021394909 0.0 0.4407713040207665 0.08844223137271352 
trait 3 0.3042771018078827 1.7993655230698202 0.52074275643882 0.0 0.873889112413632 0.4814420344740053 1.327646995767073 0.7063513875745703 
node 1 2 1 1
node 2 1 1 1
node 3 3 1 3
node 4 2 0 2
node 5 1 1 1
node 15 2 0 0
node 42 1 0 0
node 115 2 0 0
node 388 1 0 0
node 620 1 0 0
gene  1 1 4 -0.6368422633752879 0 1.0 -0.6368422633752879 1
gene  2 2 4 3.157668012112597 0 2.0 3.157668012112597 1
gene  3 3 4 9.896416461670107 0 3.0 9.896416461670107 1
gene  1 5 4 -6.655714034037471 0 3.0 -6.655714034037471 1
gene  1 1 15 0.8947350882176566 0 26.0 0.8947350882176566 1
gene  3 15 4 -3.585197843848358 0 27.0 -3.585197843848358 1
gene  2 3 15 0.5231138064840599 0 44.0 0.5231138064840599 1
gene  2 2 15 -3.1204557391422103 0 55.0 -3.1204557391422103 1
gene  2 5 15 -0.5800751876552274 0 147.0 -0.5800751876552274 1
gene  2 2 42 1.4606578150835485 0 162.0 1.4606578150835485 1
gene  2 42 4 2.7900105563994124 0 163.0 2.7900105563994124 1
gene  3 3 42 2.5486969800517807 0 362.0 2.5486969800517807 1
gene  1 15 42 -7.556550824282905 0 411.0 -7.556550824282905 1
gene  3 1 42 2.5942842719301558 0 521.0 2.5942842719301558 1
gene  1 1 115 -5.588342125380789 0 534.0 -5.588342125380789 1
gene  1 115 4 0.634693467498636 0 535.0 0.634693467498636 1
gene  2 15 115 -3.684530090113007 0 614.0 -3.684530090113007 1
gene  1 5 42 8.674991228288158 0 998.0 8.674991228288158 1
gene  3 115 42 -0.028919433791827043 0 1028.0 -0.028919433791827043 1
gene  3 5 115 -3.991658583582176 0 1328.0 -3.991658583582176 1
gene  2 3 115 -2.509419839806971 0 1342.0 -2.509419839806971 1
gene  3 2 115 2.1407887156986716 0 1546.0 2.1407887156986716 1
gene  1 2 388 1.735599125662317 0 1740.0 1.735599125662317 1
gene  2 388 15 1.9152342521248436 0 1741.0 1.9152342521248436 1
gene  1 388 42 1.0608904680399354 0 1809.0 1.0608904680399354 1
gene  3 5 388 2.738658918738831 0 1980.0 2.738658918738831 1
gene  2 388 4 -3.9601665406910698 0 2013.0 -3.9601665406910698 1
gene  2 388 115 -1.0103039361330013 0 2151.0 -1.0103039361330013 1
gene  2 3 388 -0.8103976803170454 0 2332.0 -0.8103976803170454 1
gene  2 1 388 0.1910022715402218 0 2446.0 0.1910022715402218 1
gene  1 1 620 -1.1468647881601997 0 2810.0 -1.1468647881601997 1
gene  1 620 4 -0.07256907660677236 0 2811.0 -0.07256907660677236 1
gene  3 620 42 2.5712805882181993 0 2924.0 2.5712805882181993 1
genomeend 7
/* Organism # 008 Fitness:  9,349 Error:  4,058                      */
genomestart  8
trait 1 0.0 0.0 0.7719527001042042 0.49297474026356325 0.09876471083339569 0.16011468962644232 0.0 0.0 
trait 2 0.0 0.0 0.0 0.0 1.0404469021394909 0.0 0.4407713040207665 0.08844223137271352 
trait 3 0.3042771018078827 1.7993655230698202 0.52074275643882 0.0 0.873889112413632 0.4814420344740053 1.327646995767073 0.7063513875745703 
node 1 2 1 1
node 2 1 1 1
node 3 3 1 3
node 4 2 0 2
node 5 1 1 1
node 15 2 0 0
node 42 1 0 0
node 115 2 0 0
node 388 1 0 0
node 620 1 0 0
node 701 1 0 0
gene  1 1 4 1.0266266812953893 0 1.0 1.0266266812953893 1
gene  2 2 4 5.593771768924345 0 2.0 5.593771768924345 1
gene  3 3 4 8.783067164003002 0 3.0 8.783067164003002 1
gene  1 5 4 -8.430256647090461 0 3.0 -8.430256647090461 0
gene  1 1 15 -0.9335387437542653 0 26.0 -0.9335387437542653 1
gene  3 15 4 -1.354964096748935 0 27.0 -1.354964096748935 1
gene  2 3 15 0.30632266577808576 0 44.0 0.30632266577808576 1
gene  2 2 15 -2.4671025305917054 0 55.0 -2.4671025305917054 1
gene  2 5 15 -0.2051530509277788 0 147.0 -0.2051530509277788 1
gene  2 2 42 1.6048916104528548 0 162.0 1.6048916104528548 1
gene  2 42 4 0.5263606330731319 0 163.0 0.5263606330731319 1
gene  3 3 42 3.383229601563711 0 362.0 3.383229601563711 1
gene  1 15 42 -5.226924534840513 0 411.0 -5.226924534840513 1
gene  3 1 42 0.11393879505541071 0 521.0 0.11393879505541071 1
gene  1 1 115 -7.189866107813773 0 534.0 -7.189866107813773 1
gene  1 115 4 0.15152269086019632 0 535.0 0.15152269086019632 1
gene  2 15 115 -6.144172061301999 0 614.0 -6.144172061301999 1
gene  1 5 42 10.229382390231741 0 998.0 10.229382390231741 1
gene  3 115 42 1.4051881226368637 0 1028.0 1.4051881226368637 1
gene  3 5 115 -4.1365478660237125 0 1328.0 -4.1365478660237125 1
gene  2 3 115 -1.0175492906483772 0 1342.0 -1.0175492906483772 1
gene  3 2 115 0.1606857336283538 0 1546.0 0.1606857336283538 1
gene  1 2 388 1.4280558022383176 0 1740.0 1.4280558022383176 1
gene  2 388 15 2.058571573747463 0 1741.0 2.058571573747463 1
gene  1 388 42 2.7085991430145087 0 1809.0 2.7085991430145087 1
gene  3 5 388 0.5257735865861959 0 1980.0 0.5257735865861959 1
gene  2 388 4 -3.9955915978343794 0 2013.0 -3.9955915978343794 1
gene  2 388 115 -1.5331473496233639 0 2151.0 -1.5331473496233639 1
gene  2 3 388 -3.9321743126174273 0 2332.0 -3.9321743126174273 1
gene  2 1 388 -1.3678021395915785 0 2446.0 -1.3678021395915785 1
gene  1 1 620 3.0459180005286473 0 2810.0 3.0459180005286473 1
gene  1 620 4 -0.07256907660677236 0 2811.0 -0.07256907660677236 1
gene  3 620 42 1.7161378522425759 0 2924.0 1.7161378522425759 1
gene  1 5 701 1.0 0 3139.0 0.0 1
gene  1 701 4 -8.430256647090461 0 3140.0 0.0 1
genomeend 8
/*-------------------------------------------------------------------*/
/* Species # 025         : (size= 002) (AvfFit= 14,510) (Age= 123,000)  */
/*-------------------------------------------------------------------*/
/* Organism # 009 Fitness:  19,005 Error:  5,359                      */
genomestart  9
trait 1 0.09480294113375583 0.7495064633242999 0.0 0.0 1.0095032412390144 1.1501550104111267 0.0 0.0 
trait 2 1.5055293687509639 0.4632711256369443 0.5209765262680396 0.0 0.11045330721149316 0.6670434250481475 3.0034956869008655 0.04528722414161934 
trait 3 0.0 0.0 1.151278311671133 0.9455255894144399 0.4722507194862615 0.0 0.5661404080005966 0.0 
node 1 3 1 1
node 2 1 1 1
node 3 1 1 3
node 4 3 0 2
node 5 2 1 1
node 15 1 0 0
node 19 1 0 0
node 20 2 0 0
node 23 2 0 0
node 26 1 0 0
node 104 2 0 0
node 144 1 0 0
node 158 2 0 0
node 294 1 0 0
node 476 1 0 0
gene  1 1 4 4.845966310227666 0 1.0 4.845966310227666 1
gene  2 2 4 -19.430647161269015 0 2.0 -19.430647161269015 1
gene  3 3 4 21.14764360186719 0 3.0 21.14764360186719 1
gene  2 5 4 -0.8504244032295873 0 3.0 -0.8504244032295873 1
gene  1 1 15 4.89381608222033 0 26.0 4.89381608222033 1
gene  3 15 4 -1.9434855458825155 0 27.0 -1.9434855458825155 1
gene  2 2 19 -5.3145915861831625 0 38.0 -5.3145915861831625 1
gene  2 19 4 4.012078519962151 0 39.0 4.012078519962151 1
gene  3 5 20 4.314636497539792 0 47.0 4.314636497539792 1
gene  2 20 4 -1.9086440642862479 0 48.0 -1.9086440642862479 1
gene  1 1 23 -2.09029729442918 0 56.0 -2.09029729442918 1
gene  1 23 15 4.327982856366594 0 57.0 4.327982856366594 1
gene  1 15 26 -1.1201550558042705 0 76.0 -1.1201550558042705 1
gene  3 26 4 -7.011258791812937 0 77.0 -7.011258791812937 1
gene  1 5 23 -1.7276371700305069 0 175.0 -1.7276371700305069 1
gene  2 20 23 -0.984204615120307 0 187.0 -0.984204615120307 1
gene  1 23 19 11.180154937748178 0 365.0 11.180154937748178 1
gene  1 5 104 2.848103652564266 0 468.0 2.848103652564266 1
gene  1 104 23 -7.207906687267947 0 469.0 -7.207906687267947 1
gene  1 5 144 -1.9398306006673915 0 671.0 -1.9398306006673915 1
gene  1 144 104 0.07207010432613492 0 672.0 0.07207010432613492 1
gene  1 23 158 1.9079542248153052 0 743.0 1.9079542248153052 1
gene  1 158 15 0.7279044362465797 0 744.0 0.7279044362465797 1
gene  3 3 144 -0.8533880522632578 0 870.0 -0.8533880522632578 1
gene  1 104 294 0.4690643121818011 0 1319.0 0.4690643121818011 1
gene  1 294 23 6.486657172734145 0 1320.0 6.486657172734145 1
gene  1 19 15 0.18235364699174583 0 1603.0 0.18235364699174583 1
gene  1 144 26 -3.6940998765846995 0 1678.0 -3.6940998765846995 1
gene  1 5 15 0.9940653409425835 0 1779.0 0.9940653409425835 1
gene  1 5 476 1.406614634282851 0 2173.0 1.406614634282851 1
gene  1 476 15 2.2138717737036826 0 2174.0 2.2138717737036826 1
gene  3 294 19 -1.7201847790859313 0 2200.0 -1.7201847790859313 1
gene  3 476 144 1.5330697234197177 0 2429.0 1.5330697234197177 1
gene  3 1 144 -4.7554941682887595 0 2780.0 -4.7554941682887595 1
gene  1 1 158 -3.7707947971418765 0 2951.0 -3.7707947971418765 1
genomeend 9
/* Organism # 010 Fitness:  10,015 Error:  4,165                      */
genomestart  10
trait 1 0.09480294113375583 0.7495064633242999 0.0 0.0 1.0095032412390144 1.1501550104111267 0.0 0.0 
trait 2 1.5055293687509639 0.4632711256369443 0.5209765262680396 0.0 0.11045330721149316 0.6670434250481475 3.0034956869008655 0.04528722414161934 
trait 3 0.0 0.0 1.151278311671133 0.9455255894144399 0.4722507194862615 0.0 0.5661404080005966 0.0 
node 1 3 1 1
node 2 1 1 1
node 3 1 1 3
node 4 3 0 2
node 5 2 1 1
node 15 1 0 0
node 19 1 0 0
node 20 2 0 0
node 23 2 0 0
node 26 1 0 0
node 104 2 0 0
node 144 1 0 0
node 158 2 0 0
node 294 1 0 0
node 476 1 0 0
gene  1 1 4 0.604105100949674 0 1.0 0.604105100949674 1
gene  2 2 4 -20.049538095630613 0 2.0 -20.049538095630613 1
gene  3 3 4 22.73758680431781 0 3.0 22.73758680431781 1
gene  2 5 4 -0.6715455061081749 0 3.0 -0.6715455061081749 1
gene  1 1 15 4.407112157704471 0 26.0 4.407112157704471 1
gene  3 15 4 -1.0884580202429905 0 27.0 -1.0884580202429905 1
gene  2 2 19 -6.960667863457177 0 38.0 -6.960667863457177 1
gene  2 19 4 1.23709457402279 0 39.0 1.23709457402279 1
gene  3 5 20 4.983894933273429 0 47.0 4.983894933273429 1
gene  2 20 4 -2.2728124253431163 0 48.0 -2.2728124253431163 1
gene  1 1 23 0.31130861392695763 0 56.0 0.31130861392695763 1
gene  1 23 15 0.6249524008515344 0 57.0 0.6249524008515344 1
gene  1 15 26 -1.3263784486497856 0 76.0 -1.3263784486497856 1
gene  3 26 4 -4.386193964662907 0 77.0 -4.386193964662907 1
gene  1 5 23 3.34171522250892 0 175.0 3.34171522250892 1
gene  2 20 23 -3.206668534954084 0 187.0 -3.206668534954084 1
gene  1 23 19 6.07066545353423 0 365.0 6.07066545353423 1
gene  1 5 104 2.0976896034975363 0 468.0 2.0976896034975363 1
gene  1 104 23 -3.829290468321749 0 469.0 -3.829290468321749 1
gene  1 5 144 -2.744113247737711 0 671.0 -2.744113247737711 1
gene  1 144 104 -2.5829973015032044 0 672.0 -2.5829973015032044 1
gene  1 23 158 -0.5083867615176533 0 743.0 -0.5083867615176533 1
gene  1 158 15 -0.3902706618740681 0 744.0 -0.3902706618740681 1
gene  3 3 144 0.13081777630134073 0 870.0 0.13081777630134073 1
gene  1 104 294 1.0164387425041732 0 1319.0 1.0164387425041732 1
gene  1 294 23 8.480140646561992 0 1320.0 8.480140646561992 1
gene  1 19 15 1.482794209810013 0 1603.0 1.482794209810013 1
gene  1 144 26 -3.918717819175614 0 1678.0 -3.918717819175614 1
gene  1 5 15 -0.24603990046020696 0 1779.0 -0.24603990046020696 1
gene  1 5 476 -2.0765989546877512 0 2173.0 -2.0765989546877512 1
gene  1 476 15 0.5454868500792673 0 2174.0 0.5454868500792673 1
gene  3 294 19 0.3736473381700298 0 2200.0 0.3736473381700298 1
gene  3 476 144 0.284500567087744 0 2429.0 0.284500567087744 1
gene  3 1 144 1.1278158882712122 0 2780.0 1.1278158882712122 1
gene  1 1 158 -3.6647219232158244 0 2951.0 -3.6647219232158244 1
genomeend 10
/*-------------------------------------------------------------------*/
/* Species # 026         : (size= 003) (AvfFit= 16,963) (Age= 122,000)  */
/*-------------------------------------------------------------------*/
/* Organism # 011 Fitness:  16,000 Error:  5,000                      */
genomestart  11
trait 1 0.08575527139885324 0.7489260966807729 0.0 0.281703827302132 0.18020609898197418 1.1154166631584985 0.0 0.0 
trait 2 1.7730519871057944 0.0 0.0 0.7870896727262396 0.7386969244882959 1.4653191733252475 0.0 0.0 
trait 3 0.0 1.6204857079851744 0.6381427565952488 0.46559794106044383 1.6692225345037737 0.0 0.13849426122178465 0.0 
node 1 2 1 1
node 2 3 1 1
node 3 1 1 3
node 4 1 0 2
node 5 1 1 1
node 11 1 0 0
node 15 2 0 0
node 19 1 0 0
node 24 1 0 0
node 38 1 0 0
node 515 1 0 0
node 681 1 0 0
gene  1 1 4 8.223169079866736 0 1.0 8.223169079866736 1
gene  2 2 4 7.557433062232728 0 2.0 7.557433062232728 0
gene  3 3 4 -1.827358016447978 0 3.0 -1.827358016447978 1
gene  2 5 4 -4.104070188120682 0 3.0 -4.104070188120682 1
gene  2 1 15 0.8241829517376773 0 26.0 0.8241829517376773 1
gene  3 3 11 -4.920595765986189 0 34.0 -4.920595765986189 1
gene  2 2 19 6.343661601703077 0 38.0 6.343661601703077 1
gene  3 19 4 -0.913737370648911 0 39.0 -0.913737370648911 1
gene  3 5 24 -0.4332410461096876 0 62.0 -0.4332410461096876 1
gene  3 24 4 -1.3687902812507113 0 63.0 -1.3687902812507113 1
gene  1 5 38 5.8237542604979184 0 140.0 5.8237542604979184 1
gene  2 38 4 -2.692625623023169 0 141.0 -2.692625623023169 1
gene  3 2 15 -0.4268416589370727 0 371.0 -0.4268416589370727 1
gene  2 24 15 -7.3883635499645495 0 505.0 -7.3883635499645495 1
gene  1 11 38 -2.3373480713386243 0 542.0 -2.3373480713386243 1
gene  1 2 38 -4.359144483568014 0 698.0 -4.359144483568014 1
gene  3 5 15 3.150403398664053 0 778.0 3.150403398664053 1
gene  3 2 11 4.622934452234274 0 903.0 4.622934452234274 1
gene  3 3 15 -0.9923402061258275 0 1161.0 -0.9923402061258275 1
gene  3 38 15 -5.407757034033439 0 1238.0 -5.407757034033439 1
gene  3 3 38 -6.396991647455129 0 1584.0 -6.396991647455129 1
gene  2 1 11 3.884775614127868 0 1892.0 3.884775614127868 1
gene  3 5 19 1.8920382915334821 0 1913.0 1.8920382915334821 1
gene  1 19 15 -0.867450269625098 0 2089.0 -0.867450269625098 1
gene  3 11 24 -0.864196720262143 0 2297.0 -0.864196720262143 1
gene  3 11 515 -0.01505188233671273 0 2335.0 -0.01505188233671273 1
gene  3 515 24 5.798258698126309 0 2336.0 5.798258698126309 1
gene  1 19 38 -0.028287479871963173 0 2422.0 -0.028287479871963173 1
gene  3 15 4 0.5250231993424006 0 3048.0 0.5250231993424006 1
gene  2 2 681 1.0 0 3059.0 1.0 1
gene  2 681 4 8.19300982963159 0 3060.0 8.19300982963159 1
gene  1 3 515 -6.25080784140492 0 3114.0 -6.25080784140492 1
genomeend 11
/* Organism # 012 Fitness:  18,889 Error:  5,346                      */
genomestart  12
trait 1 0.08575527139885324 0.7489260966807729 0.0 0.281703827302132 0.18020609898197418 1.1154166631584985 0.0 0.0 
trait 2 1.7730519871057944 0.0 0.0 0.7870896727262396 0.7386969244882959 1.4653191733252475 0.0 0.0 
trait 3 0.0 1.6204857079851744 0.6381427565952488 0.46559794106044383 1.6692225345037737 0.0 0.13849426122178465 0.0 
node 1 2 1 1
node 2 3 1 1
node 3 1 1 3
node 4 1 0 2
node 5 1 1 1
node 11 1 0 0
node 15 2 0 0
node 19 1 0 0
node 24 1 0 0
node 38 1 0 0
node 515 1 0 0
node 681 1 0 0
gene  1 1 4 11.459538288513793 0 1.0 11.459538288513793 0
gene  2 2 4 0.7719020280195454 0 2.0 0.7719020280195454 0
gene  3 3 4 -0.28498967393769364 0 3.0 -0.28498967393769364 1
gene  2 5 4 -5.7155001935516925 0 3.0 -5.7155001935516925 1
gene  2 1 15 1.1913752415124605 0 26.0 1.1913752415124605 1
gene  3 3 11 -1.829549220049372 0 34.0 -1.829549220049372 1
gene  2 2 19 4.02293488878958 0 38.0 4.02293488878958 1
gene  3 19 4 10.312214032671202 0 39.0 10.312214032671202 1
gene  3 5 24 1.004605880627814 0 62.0 1.004605880627814 1
gene  3 24 4 -1.5196695797804567 0 63.0 -1.5196695797804567 1
gene  1 5 38 6.207897459674163 0 140.0 6.207897459674163 1
gene  2 38 4 -1.1099597544024031 0 141.0 -1.1099597544024031 1
gene  3 2 15 -0.7909772200640868 0 371.0 -0.7909772200640868 1
gene  2 24 15 1.0023710234830627 0 505.0 1.0023710234830627 1
gene  1 11 38 -0.6369934491276474 0 542.0 -0.6369934491276474 1
gene  1 2 38 -1.5699651969617947 0 698.0 -1.5699651969617947 1
gene  3 5 15 4.069947121422128 0 778.0 4.069947121422128 1
gene  3 2 11 4.583746986946774 0 903.0 4.583746986946774 1
gene  3 3 15 1.176092154538928 0 1161.0 1.176092154538928 1
gene  3 38 15 -4.101098929387325 0 1238.0 -4.101098929387325 1
gene  3 3 38 -8.76209428422486 0 1584.0 -8.76209428422486 1
gene  2 1 11 2.0597017470872805 0 1892.0 2.0597017470872805 1
gene  3 5 19 1.880384601787512 0 1913.0 1.880384601787512 1
gene  1 19 15 -0.8945469790811644 0 2089.0 -0.8945469790811644 1
gene  3 11 24 -0.6038323711190203 0 2297.0 -0.6038323711190203 1
gene  3 11 515 -0.3501968024900495 0 2335.0 -0.3501968024900495 1
gene  3 515 24 4.132366506620379 0 2336.0 4.132366506620379 1
gene  1 19 38 1.2751025884928968 0 2422.0 1.2751025884928968 1
gene  3 15 4 -6.074913720925337 0 3048.0 -6.074913720925337 1
gene  2 2 681 2.2702986550872453 0 3059.0 2.2702986550872453 1
gene  2 681 4 6.25676551975171 0 3060.0 6.25676551975171 1
gene  1 3 515 -0.31999240172012056 0 3114.0 -0.31999240172012056 1
genomeend 12
/* Organism # 013 Fitness:  16,000 Error:  5,000                      */
genomestart  13
trait 1 0.08575527139885324 0.7489260966807729 0.0 0.281703827302132 0.18020609898197418 1.1154166631584985 0.0 0.0 
trait 2 1.7730519871057944 0.0 0.0 0.7870896727262396 0.7386969244882959 1.4653191733252475 0.0 0.0 
trait 3 0.0 1.6204857079851744 0.6381427565952488 0.46559794106044383 1.6692225345037737 0.0 0.13849426122178465 0.0 
node 1 2 1 1
node 2 3 1 1
node 3 1 1 3
node 4 1 0 2
node 5 1 1 1
node 11 1 0 0
node 15 2 0 0
node 19 1 0 0
node 24 1 0 0
node 38 1 0 0
node 515 1 0 0
node 681 1 0 0
gene  1 1 4 8.437558458492212 0 1.0 8.437558458492212 0
gene  2 2 4 9.020760173882858 0 2.0 9.020760173882858 0
gene  3 3 4 -1.5446249628389956 0 3.0 -1.5446249628389956 1
gene  2 5 4 -2.658791727088018 0 3.0 -2.658791727088018 1
gene  2 1 15 3.0102391699740156 0 26.0 3.0102391699740156 1
gene  3 3 11 -1.794549005248093 0 34.0 -1.794549005248093 1
gene  2 2 19 6.845697983461733 0 38.0 6.845697983461733 1
gene  3 19 4 7.950528941686042 0 39.0 7.950528941686042 1
gene  3 5 24 1.9570250996016236 0 62.0 1.9570250996016236 1
gene  3 24 4 -3.879846826661546 0 63.0 -3.879846826661546 1
gene  1 5 38 4.762766415786329 0 140.0 4.762766415786329 1
gene  2 38 4 0.5636945927678383 0 141.0 0.5636945927678383 1
gene  3 2 15 -4.731034358112373 0 371.0 -4.731034358112373 1
gene  2 24 15 -5.807067964507828 0 505.0 -5.807067964507828 1
gene  1 11 38 -3.1652726306269736 0 542.0 -3.1652726306269736 1
gene  1 2 38 -1.3612198922067835 0 698.0 -1.3612198922067835 1
gene  3 5 15 1.6141261856106113 0 778.0 1.6141261856106113 1
gene  3 2 11 5.07485630751182 0 903.0 5.07485630751182 1
gene  3 3 15 3.688512718303788 0 1161.0 3.688512718303788 1
gene  3 38 15 -1.3350819827626657 0 1238.0 -1.3350819827626657 1
gene  3 3 38 -7.268967516666625 0 1584.0 -7.268967516666625 1
gene  2 1 11 3.2112791371967133 0 1892.0 3.2112791371967133 1
gene  3 5 19 3.4184669618970878 0 1913.0 3.4184669618970878 1
gene  1 19 15 -2.2606204878366394 0 2089.0 -2.2606204878366394 1
gene  3 11 24 -0.31668191459225525 0 2297.0 -0.31668191459225525 1
gene  3 11 515 0.41995753911959 0 2335.0 0.41995753911959 1
gene  3 515 24 4.132366506620379 0 2336.0 4.132366506620379 1
gene  1 19 38 -0.3778240003116162 0 2422.0 -0.3778240003116162 1
gene  3 15 4 -9.608780227832165 0 3048.0 -9.608780227832165 1
gene  2 2 681 1.0 0 3059.0 1.0 1
gene  2 681 4 9.427667007186386 0 3060.0 9.427667007186386 1
gene  1 3 515 -5.321420972046049 0 3114.0 -5.321420972046049 1
genomeend 13
/*-------------------------------------------------------------------*/
/* Species # 029         : (size= 005) (AvfFit= 36,000) (Age= 121,000)  */
/*-------------------------------------------------------------------*/
/* Organism # 014 Fitness:  36,000 Error:  7,000                      */
genomestart  14
trait 1 0.916571492208762 0.492868708657794 0.2801725761334222 0.0 0.16365752004357964 0.0 0.0 0.0 
trait 2 0.1630859375 0.0 0.11485549311959667 0.0 0.0 0.0 0.0 0.0 
trait 3 0.29932022094726557 0.6577794709769369 0.0 0.0 0.0 0.0015604061780962316 0.0 0.0 
node 1 2 1 1
node 2 2 1 1
node 3 1 1 3
node 4 2 0 2
node 5 1 1 1
node 48 1 0 0
node 78 1 0 0
node 400 1 0 0
node 528 1 0 0
gene  3 1 4 -31.091719944461115 0 1.0 -31.091719944461115 0
gene  3 2 4 16.9265144902939 0 2.0 16.9265144902939 1
gene  3 3 4 13.86979376540024 0 3.0 13.86979376540024 1
gene  1 5 4 15.706083092578144 0 3.0 15.706083092578144 1
gene  1 1 48 4.323293292685337 0 201.0 4.323293292685337 1
gene  1 48 4 -1.0407114576848644 0 202.0 -1.0407114576848644 1
gene  2 5 48 -1.4264827525466486 0 227.0 -1.4264827525466486 1
gene  2 2 78 4.526499331586379 0 337.0 4.526499331586379 1
gene  2 78 4 6.409620304985173 0 338.0 6.409620304985173 1
gene  3 48 78 -6.875314937040518 0 629.0 -6.875314937040518 1
gene  3 3 78 -17.44950446839891 0 1047.0 -17.44950446839891 1
gene  1 3 48 -6.732337067521721 0 1239.0 -6.732337067521721 1
gene  2 2 48 -0.5140988453106665 0 1676.0 -0.5140988453106665 1
gene  1 1 78 -3.5476831616331777 0 1718.0 -3.5476831616331777 1
gene  1 1 400 7.660414517987533 0 1799.0 7.660414517987533 1
gene  1 400 4 -21.015613358413074 0 1800.0 -21.015613358413074 1
gene  3 5 78 -1.8216418877688663 0 2212.0 -1.8216418877688663 1
gene  3 400 78 0.09885377854375577 0 2244.0 0.09885377854375577 1
gene  3 48 400 3.440176745100594 0 2268.0 3.440176745100594 0
gene  3 48 528 -3.213843609660189 0 2386.0 -3.213843609660189 1
gene  3 528 400 -1.318669916294159 0 2387.0 -1.318669916294159 1
gene  2 5 528 1.2372719663411524 0 2522.0 1.2372719663411524 1
gene  3 3 400 2.1656231884567494 0 2768.0 2.1656231884567494 1
gene  1 2 528 -0.862161524689628 0 2793.0 -0.862161524689628 1
gene  2 3 528 1.4436089265369727 0 2997.0 1.4436089265369727 1
genomeend 14
/* Organism # 015 Fitness:  36,000 Error:  7,000                      */
genomestart  15
trait 1 0.916571492208762 0.492868708657794 0.2801725761334222 0.0 0.16365752004357964 0.0 0.0 0.0 
trait 2 0.1630859375 0.0 0.11485549311959667 0.0 0.0 0.0 0.0 0.0 
trait 3 0.29932022094726557 0.6577794709769369 0.0 0.0 0.0 0.0015604061780962316 0.0 0.0 
node 1 2 1 1
node 2 2 1 1
node 3 1 1 3
node 4 2 0 2
node 5 1 1 1
node 48 1 0 0
node 78 1 0 0
node 400 1 0 0
node 528 1 0 0
gene  3 1 4 -33.16223088053938 0 1.0 -33.16223088053938 0
gene  3 2 4 13.954821971936665 0 2.0 13.954821971936665 1
gene  3 3 4 16.715872807721425 0 3.0 16.715872807721425 1
gene  1 5 4 16.09571758660342 0 3.0 16.09571758660342 1
gene  1 1 48 1.166968703833362 0 201.0 1.166968703833362 1
gene  1 48 4 0.6279279009032166 0 202.0 0.6279279009032166 1
gene  2 5 48 -1.0002866855379664 0 227.0 -1.0002866855379664 1
gene  2 2 78 2.4000930417815804 0 337.0 2.4000930417815804 1
gene  2 78 4 5.383382862447196 0 338.0 5.383382862447196 1
gene  3 48 78 -6.494368649622054 0 629.0 -6.494368649622054 1
gene  3 3 78 -17.61576122451918 0 1047.0 -17.61576122451918 1
gene  1 3 48 -4.718783298590269 0 1239.0 -4.718783298590269 1
gene  2 2 48 -0.5885899949642511 0 1676.0 -0.5885899949642511 1
gene  1 1 78 -2.403103676424137 0 1718.0 -2.403103676424137 1
gene  1 1 400 5.804658795318959 0 1799.0 5.804658795318959 1
gene  1 400 4 -21.72950712507421 0 1800.0 -21.72950712507421 1
gene  3 5 78 0.6003033580635067 0 2212.0 0.6003033580635067 1
gene  3 400 78 0.10611182393298035 0 2244.0 0.10611182393298035 1
gene  3 48 400 -0.9290692348910614 0 2268.0 -0.9290692348910614 0
gene  3 48 528 -3.9978523309325995 0 2386.0 -3.9978523309325995 1
gene  3 528 400 -2.300115497107589 0 2387.0 -2.300115497107589 1
gene  2 5 528 -2.026411752792446 0 2522.0 -2.026411752792446 1
gene  3 3 400 1.568687521547483 0 2768.0 1.568687521547483 1
gene  1 2 528 -1.809696244543417 0 2793.0 -1.809696244543417 1
gene  2 3 528 -1.270880836512389 0 2997.0 -1.270880836512389 1
genomeend 15
/* Organism # 016 Fitness:  36,000 Error:  7,000                      */
genomestart  16
trait 1 0.916571492208762 0.492868708657794 0.2801725761334222 0.0 0.16365752004357964 0.0 0.0 0.0 
trait 2 0.1630859375 0.0 0.11485549311959667 0.0 0.0 0.0 0.0 0.0 
trait 3 0.29932022094726557 0.6577794709769369 0.0 0.0 0.0 0.0015604061780962316 0.0 0.0 
node 1 2 1 1
node 2 2 1 1
node 3 1 1 3
node 4 2 0 2
node 5 1 1 1
node 48 1 0 0
node 78 1 0 0
node 400 1 0 0
node 528 1 0 0
gene  3 1 4 -28.73259220221492 0 1.0 -28.73259220221492 0
gene  3 2 4 15.243331463127335 0 2.0 15.243331463127335 1
gene  3 3 4 16.15766154071764 0 3.0 16.15766154071764 1
gene  1 5 4 14.486973049040731 0 3.0 14.486973049040731 1
gene  1 1 48 0.5950564970981809 0 201.0 0.5950564970981809 1
gene  1 48 4 -1.5640609456484988 0 202.0 -1.5640609456484988 1
gene  2 5 48 1.1214821490067282 0 227.0 1.1214821490067282 1
gene  2 2 78 1.280779428098286 0 337.0 1.280779428098286 1
gene  2 78 4 3.3498407332842457 0 338.0 3.3498407332842457 1
gene  3 48 78 -5.711661155381217 0 629.0 -5.711661155381217 1
gene  3 3 78 -13.73249837948535 0 1047.0 -13.73249837948535 1
gene  1 3 48 -7.581044161918765 0 1239.0 -7.581044161918765 1
gene  2 2 48 -2.0075171290269114 0 1676.0 -2.0075171290269114 1
gene  1 1 78 -1.1082695719194884 0 1718.0 -1.1082695719194884 1
gene  1 1 400 2.926957393478481 0 1799.0 2.926957393478481 1
gene  1 400 4 -24.94675754961403 0 1800.0 -24.94675754961403 1
gene  3 5 78 1.5487133322456261 0 2212.0 1.5487133322456261 1
gene  3 400 78 3.1920811546026515 0 2244.0 3.1920811546026515 1
gene  3 48 400 3.192975378506965 0 2268.0 3.192975378506965 0
gene  3 48 528 -2.8623030748132807 0 2386.0 -2.8623030748132807 1
gene  3 528 400 0.53546516329612 0 2387.0 0.53546516329612 1
gene  2 5 528 -3.144544506901165 0 2522.0 -3.144544506901165 1
gene  3 3 400 3.496056285524742 0 2768.0 3.496056285524742 1
gene  1 2 528 3.461788943769226 0 2793.0 3.461788943769226 1
gene  2 3 528 7.974929364922972 0 2997.0 7.974929364922972 1
genomeend 16
/* Organism # 017 Fitness:  36,000 Error:  7,000                      */
genomestart  17
trait 1 0.916571492208762 0.492868708657794 0.2801725761334222 0.0 0.16365752004357964 0.0 0.0 0.0 
trait 2 0.1630859375 0.0 0.11485549311959667 0.0 0.0 0.0 0.0 0.0 
trait 3 0.29932022094726557 0.6577794709769369 0.0 0.0 0.0 0.0015604061780962316 0.0 0.0 
node 1 2 1 1
node 2 2 1 1
node 3 1 1 3
node 4 2 0 2
node 5 1 1 1
node 48 1 0 0
node 78 1 0 0
node 400 1 0 0
node 528 1 0 0
gene  3 1 4 -30.761054625516362 0 1.0 -30.761054625516362 0
gene  3 2 4 16.19169049348185 0 2.0 16.19169049348185 1
gene  2 3 4 15.247159177937279 0 3.0 15.247159177937279 1
gene  1 5 4 14.54336951566892 0 3.0 14.54336951566892 1
gene  1 1 48 2.651260042477465 0 201.0 2.651260042477465 1
gene  1 48 4 -0.8292679208086764 0 202.0 -0.8292679208086764 1
gene  2 5 48 0.654067240406754 0 227.0 0.654067240406754 1
gene  2 2 78 2.819265385624243 0 337.0 2.819265385624243 1
gene  2 78 4 5.094673605733112 0 338.0 5.094673605733112 1
gene  3 48 78 -5.362736103109196 0 629.0 -5.362736103109196 1
gene  3 3 78 -15.738817064858411 0 1047.0 -15.738817064858411 1
gene  1 3 48 -6.611431519803987 0 1239.0 -6.611431519803987 1
gene  2 2 48 -0.06830279504051595 0 1676.0 -0.06830279504051595 1
gene  1 1 78 -2.0390502523550804 0 1718.0 -2.0390502523550804 1
gene  1 1 400 5.232559729950033 0 1799.0 5.232559729950033 1
gene  1 400 4 -22.920993011430497 0 1800.0 -22.920993011430497 1
gene  3 5 78 -0.4108028429588835 0 2212.0 -0.4108028429588835 1
gene  3 400 78 1.0984970277902157 0 2244.0 1.0984970277902157 1
gene  3 48 400 1.4389724358719662 0 2268.0 1.4389724358719662 0
gene  3 48 528 -1.5304253834827388 0 2386.0 -1.5304253834827388 1
gene  3 528 400 -0.6764024208563761 0 2387.0 -0.6764024208563761 1
gene  2 5 528 -3.144544506901165 0 2522.0 -3.144544506901165 1
gene  3 3 400 1.568687521547483 0 2768.0 1.568687521547483 1
gene  1 2 528 4.487924347240951 0 2793.0 4.487924347240951 1
gene  2 3 528 7.974929364922972 0 2997.0 7.974929364922972 1
genomeend 17
/* Organism # 018 Fitness:  36,000 Error:  7,000                      */
genomestart  18
trait 1 0.916571492208762 0.492868708657794 0.2801725761334222 0.0 0.16365752004357964 0.0 0.0 0.0 
trait 2 0.1630859375 0.0 0.11485549311959667 0.0 0.0 0.0 0.0 0.0 
trait 3 0.29932022094726557 0.6577794709769369 0.0 0.0 0.0 0.0015604061780962316 0.0 0.0 
node 1 2 1 1
node 2 2 1 1
node 3 1 1 3
node 4 2 0 2
node 5 1 1 1
node 48 1 0 0
node 78 1 0 0
node 400 1 0 0
node 528 1 0 0
node 695 1 0 0
gene  3 1 4 -30.761054625516362 0 1.0 -30.761054625516362 0
gene  3 2 4 16.19169049348185 0 2.0 16.19169049348185 1
gene  3 3 4 15.247159177937279 0 3.0 15.247159177937279 1
gene  1 5 4 14.54336951566892 0 3.0 14.54336951566892 1
gene  1 1 48 2.651260042477465 0 201.0 2.651260042477465 1
gene  1 48 4 -0.8292679208086764 0 202.0 -0.8292679208086764 1
gene  2 5 48 0.654067240406754 0 227.0 0.654067240406754 1
gene  2 2 78 2.819265385624243 0 337.0 2.819265385624243 1
gene  2 78 4 5.094673605733112 0 338.0 5.094673605733112 1
gene  3 48 78 -5.362736103109196 0 629.0 -5.362736103109196 1
gene  3 3 78 -15.738817064858411 0 1047.0 -15.738817064858411 1
gene  1 3 48 -6.611431519803987 0 1239.0 -6.611431519803987 1
gene  2 2 48 -0.06830279504051595 0 1676.0 -0.06830279504051595 1
gene  1 1 78 -2.0390502523550804 0 1718.0 -2.0390502523550804 1
gene  1 1 400 5.232559729950033 0 1799.0 5.232559729950033 1
gene  1 400 4 -22.920993011430497 0 1800.0 -22.920993011430497 1
gene  3 5 78 -0.4108028429588835 0 2212.0 -0.4108028429588835 1
gene  3 400 78 1.0984970277902157 0 2244.0 1.0984970277902157 1
gene  3 48 400 1.4389724358719662 0 2268.0 1.4389724358719662 0
gene  3 48 528 -1.5304253834827388 0 2386.0 -1.5304253834827388 0
gene  3 528 400 -0.6764024208563761 0 2387.0 -0.6764024208563761 1
gene  2 5 528 -3.144544506901165 0 2522.0 -3.144544506901165 1
gene  3 3 400 1.568687521547483 0 2768.0 1.568687521547483 1
gene  1 2 528 4.487924347240951 0 2793.0 4.487924347240951 1
gene  2 3 528 7.974929364922972 0 2997.0 7.974929364922972 1
gene  3 48 695 1.0 0 3119.0 0.0 1
gene  3 695 528 -1.5304253834827388 0 3120.0 0.0 1
genomeend 18
/*-------------------------------------------------------------------*/
/* Species # 031         : (size= 003) (AvfFit= 19,000) (Age= 121,000)  */
/*-------------------------------------------------------------------*/
/* Organism # 019 Fitness:  25,000 Error:  6,000                      */
genomestart  19
trait 1 0.16108091647639 0.0 0.8478661543176111 0.097744914174411 0.0 1.6441123749901512 0.0 0.0 
trait 2 0.2 0.0 0.041482620516879454 0.0 0.03578438440624859 0.08372673206168535 0.006410894689880833 0.0 
trait 3 0.0 0.7182567053904385 0.0 0.7965519686472772 0.0 0.0 0.11102969219138381 0.0 
node 1 2 1 1
node 2 1 1 1
node 3 3 1 3
node 4 1 0 2
node 5 3 1 1
node 11 1 0 0
node 41 1 0 0
node 56 1 0 0
node 86 1 0 0
node 145 1 0 0
node 248 3 0 0
node 301 2 0 0
node 421 1 0 0
node 522 1 0 0
node 592 1 0 0
node 634 1 0 0
gene  1 1 4 6.102476076390497 0 1.0 6.102476076390497 1
gene  2 2 4 15.331459073919383 0 2.0 15.331459073919383 1
gene  3 3 4 17.4660812429196 0 3.0 17.4660812429196 1
gene  3 5 4 -21.826480976588385 0 3.0 -21.826480976588385 1
gene  1 1 11 5.3046582759220815 0 14.0 5.3046582759220815 1
gene  2 11 4 -1.6045546233603707 0 15.0 -1.6045546233603707 1
gene  2 3 11 -15.1296094301105 0 144.0 -15.1296094301105 1
gene  2 5 41 6.951915520453692 0 159.0 6.951915520453692 1
gene  2 41 4 -3.303003115282665 0 160.0 -3.303003115282665 1
gene  1 3 41 -3.0582917915149297 0 200.0 -3.0582917915149297 1
gene  2 2 56 0.4917775697001171 0 239.0 0.4917775697001171 1
gene  2 56 4 10.317124112434554 0 240.0 10.317124112434554 1
gene  2 1 86 -4.150249073235248 0 388.0 -4.150249073235248 1
gene  1 86 11 -0.2893619185875633 0 389.0 -0.2893619185875633 1
gene  1 86 41 5.27619353312041 0 506.0 5.27619353312041 1
gene  2 56 41 -3.278509013858909 0 580.0 -3.278509013858909 1
gene  1 86 145 -1.6416117921771078 0 675.0 -1.6416117921771078 1
gene  1 145 41 -1.6566303044357724 0 676.0 -1.6566303044357724 1
gene  3 2 86 2.3266932127887383 0 889.0 2.3266932127887383 1
gene  1 1 41 -0.9501842693765774 0 930.0 -0.9501842693765774 1
gene  1 2 248 12.786885961228252 0 1142.0 12.786885961228252 1
gene  3 248 86 -3.9209541021066867 0 1143.0 -3.9209541021066867 1
gene  2 1 301 4.256480116156828 0 1354.0 4.256480116156828 1
gene  1 301 11 5.685468733817173 0 1355.0 5.685468733817173 1
gene  2 3 301 0.6696093091557452 0 1390.0 0.6696093091557452 1
gene  3 301 248 -2.396134339426771 0 1608.0 -2.396134339426771 1
gene  2 1 421 14.26307434029497 0 1896.0 14.26307434029497 1
gene  2 421 301 -7.477697135583815 0 1897.0 -7.477697135583815 1
gene  1 301 56 0.8929597638483022 0 2199.0 0.8929597638483022 1
gene  1 86 522 -2.0482069993157377 0 2366.0 -2.0482069993157377 1
gene  1 522 145 2.154770611124013 0 2367.0 2.154770611124013 1
gene  2 301 4 -0.6254036300346231 0 2397.0 -0.6254036300346231 1
gene  1 301 592 -4.088639242600928 0 2643.0 -4.088639242600928 1
gene  1 592 11 -5.857728951671325 0 2644.0 -5.857728951671325 1
gene  2 2 634 -4.666316626381754 0 2868.0 -4.666316626381754 1
gene  2 634 4 -2.378422267793266 0 2869.0 -2.378422267793266 1
gene  2 3 421 -0.3281515063937363 0 2980.0 -0.3281515063937363 1
gene  2 301 86 8.16416871073169 0 3071.0 8.16416871073169 1
gene  1 3 86 9.251440398552987 0 3130.0 9.251440398552987 1
genomeend 19
/* Organism # 020 Fitness:  16,001 Error:  5,000                      */
genomestart  20
trait 1 0.16108091647639 0.0 0.8478661543176111 0.097744914174411 0.0 1.6441123749901512 0.0 0.0 
trait 2 0.2 0.0 0.041482620516879454 0.0 0.03578438440624859 0.08372673206168535 0.006410894689880833 0.0 
trait 3 0.0 0.7182567053904385 0.0 0.7965519686472772 0.0 0.0 0.11102969219138381 0.0 
node 1 2 1 1
node 2 1 1 1
node 3 3 1 3
node 4 1 0 2
node 5 3 1 1
node 11 1 0 0
node 41 1 0 0
node 56 1 0 0
node 86 1 0 0
node 145 1 0 0
node 248 3 0 0
node 301 2 0 0
node 421 1 0 0
node 522 1 0 0
node 592 1 0 0
node 634 1 0 0
gene  1 1 4 6.4089452487993155 0 1.0 6.4089452487993155 1
gene  2 2 4 -0.6358781610142148 0 2.0 -0.6358781610142148 1
gene  3 3 4 16.57003568520319 0 3.0 16.57003568520319 1
gene  3 5 4 -21.339633407186806 0 3.0 -21.339633407186806 1
gene  1 1 11 7.529702481810145 0 14.0 7.529702481810145 1
gene  2 11 4 2.382372368849143 0 15.0 2.382372368849143 1
gene  2 3 11 -13.513172489575421 0 144.0 -13.513172489575421 1
gene  2 5 41 0.5004916312382551 0 159.0 0.5004916312382551 1
gene  2 41 4 -1.9593614531938925 0 160.0 -1.9593614531938925 1
gene  1 3 41 -1.160012659786665 0 200.0 -1.160012659786665 1
gene  2 2 56 0.33708998633377657 0 239.0 0.33708998633377657 1
gene  2 56 4 12.34299782929749 0 240.0 12.34299782929749 1
gene  2 1 86 -3.783999749403113 0 388.0 -3.783999749403113 1
gene  1 86 11 -1.6300746012126015 0 389.0 -1.6300746012126015 1
gene  1 86 41 0.10571084399565056 0 506.0 0.10571084399565056 1
gene  2 56 41 -1.3733497121017213 0 580.0 -1.3733497121017213 1
gene  1 86 145 -1.6416117921771078 0 675.0 -1.6416117921771078 1
gene  1 145 41 -1.6566303044357724 0 676.0 -1.6566303044357724 1
gene  3 2 86 0.644690973948186 0 889.0 0.644690973948186 1
gene  1 1 41 1.1761855167249526 0 930.0 1.1761855167249526 1
gene  1 2 248 -1.6831539302527414 0 1142.0 -1.6831539302527414 1
gene  3 248 86 -0.3908014537542684 0 1143.0 -0.3908014537542684 1
gene  2 1 301 5.304817143270117 0 1354.0 5.304817143270117 1
gene  1 301 11 1.5238843417571457 0 1355.0 1.5238843417571457 1
gene  2 3 301 0.6696093091557452 0 1390.0 0.6696093091557452 1
gene  3 301 248 -0.7231865194913394 0 1608.0 -0.7231865194913394 1
gene  2 1 421 15.895291136143387 0 1896.0 15.895291136143387 1
gene  2 421 301 -7.241476774580159 0 1897.0 -7.241476774580159 1
gene  1 301 56 0.8929597638483022 0 2199.0 0.8929597638483022 1
gene  1 86 522 -3.047149160966642 0 2366.0 -3.047149160966642 1
gene  1 522 145 2.869851357769827 0 2367.0 2.869851357769827 1
gene  2 301 4 -0.6380959032654702 0 2397.0 -0.6380959032654702 1
gene  1 301 592 -4.6889631980401845 0 2643.0 -4.6889631980401845 1
gene  1 592 11 -5.093791065447332 0 2644.0 -5.093791065447332 1
gene  2 2 634 0.605645855334988 0 2868.0 0.605645855334988 1
gene  2 634 4 1.0125492293324636 0 2869.0 1.0125492293324636 1
gene  2 3 421 -1.3613400137257354 0 2980.0 -1.3613400137257354 1
gene  2 301 86 10.063254791552438 0 3071.0 10.063254791552438 1
genomeend 20
/* Organism # 021 Fitness:  16,000 Error:  5,000                      */
genomestart  21
trait 1 0.16108091647639 0.0 0.8478661543176111 0.097744914174411 0.0 1.6441123749901512 0.0 0.0 
trait 2 0.2 0.0 0.041482620516879454 0.0 0.03578438440624859 0.08372673206168535 0.006410894689880833 0.0 
trait 3 0.0 0.7182567053904385 0.0 0.7965519686472772 0.0 0.0 0.11102969219138381 0.0 
node 1 2 1 1
node 2 1 1 1
node 3 3 1 3
node 4 1 0 2
node 5 3 1 1
node 11 1 0 0
node 41 1 0 0
node 56 1 0 0
node 86 1 0 0
node 145 1 0 0
node 248 3 0 0
node 301 2 0 0
node 421 1 0 0
node 522 1 0 0
node 592 1 0 0
node 634 1 0 0
gene  1 1 4 6.41605794894265 0 1.0 6.41605794894265 1
gene  2 2 4 1.7745338153692114 0 2.0 1.7745338153692114 1
gene  3 3 4 18.897189015633394 0 3.0 18.897189015633394 1
gene  3 5 4 -23.395773907613346 0 3.0 -23.395773907613346 1
gene  1 1 11 3.2825482620184423 0 14.0 3.2825482620184423 1
gene  2 11 4 -3.2462689722418503 0 15.0 -3.2462689722418503 1
gene  2 3 11 -14.013609147183217 0 144.0 -14.013609147183217 1
gene  2 5 41 -1.7152378750694044 0 159.0 -1.7152378750694044 1
gene  2 41 4 -1.1194862048343492 0 160.0 -1.1194862048343492 1
gene  1 3 41 -1.2194554727944058 0 200.0 -1.2194554727944058 1
gene  2 2 56 -0.5160545360661032 0 239.0 -0.5160545360661032 1
gene  2 56 4 12.524775718558079 0 240.0 12.524775718558079 1
gene  2 1 86 -5.649799479694347 0 388.0 -5.649799479694347 1
gene  1 86 11 0.4229244093519882 0 389.0 0.4229244093519882 1
gene  1 86 41 3.8899365423291052 0 506.0 3.8899365423291052 1
gene  2 56 41 -1.9255652668429 0 580.0 -1.9255652668429 1
gene  1 86 145 -2.1181193671605385 0 675.0 -2.1181193671605385 1
gene  1 145 41 -1.6566303044357724 0 676.0 -1.6566303044357724 1
gene  3 2 86 0.4114293127453208 0 889.0 0.4114293127453208 1
gene  1 1 41 -1.8742441216962196 0 930.0 -1.8742441216962196 1
gene  1 2 248 11.077188205772927 0 1142.0 11.077188205772927 1
gene  3 248 86 -4.750207642088402 0 1143.0 -4.750207642088402 1
gene  2 1 301 3.139992133526526 0 1354.0 3.139992133526526 1
gene  1 301 11 1.5337834877420935 0 1355.0 1.5337834877420935 1
gene  2 3 301 1.8511162149582745 0 1390.0 1.8511162149582745 1
gene  3 301 248 -1.059692622304486 0 1608.0 -1.059692622304486 1
gene  2 1 421 -1.9049101845289753 0 1896.0 -1.9049101845289753 1
gene  2 421 301 -8.982246642866775 0 1897.0 -8.982246642866775 1
gene  1 301 56 -0.70797621406263 0 2199.0 -0.70797621406263 1
gene  1 86 522 -0.28975915315579925 0 2366.0 -0.28975915315579925 1
gene  1 522 145 0.08704467094851981 0 2367.0 0.08704467094851981 1
gene  2 301 4 1.4978188749170385 0 2397.0 1.4978188749170385 1
gene  1 301 592 -1.7322612250853675 0 2643.0 -1.7322612250853675 1
gene  1 592 11 -0.7970147900706015 0 2644.0 -0.7970147900706015 1
gene  2 2 634 -6.41513860342322 0 2868.0 -6.41513860342322 1
gene  2 634 4 -1.4167052419219295 0 2869.0 -1.4167052419219295 1
gene  2 3 421 0.1236342575703655 0 2980.0 0.1236342575703655 1
gene  2 301 86 8.16416871073169 0 3071.0 8.16416871073169 1
genomeend 21
/*-------------------------------------------------------------------*/
/* Species # 033         : (size= 004) (AvfFit= 27,338) (Age= 119,000)  */
/*-------------------------------------------------------------------*/
/* Organism # 022 Fitness:  15,260 Error:  4,906                      */
genomestart  22
trait 1 0.6746208131906923 0.4487440544195519 0.0 0.5653011475088281 0.0 0.0 0.8171948133503227 0.30918239632349076 
trait 2 0.0 0.2660552448158252 2.153154919494778 1.7749421371852745 0.06555306539773043 0.0 0.18521461455929644 1.1825180195237373 
trait 3 0.2737401444344563 0.0 0.0 0.8159245860741685 0.33148680033867917 0.0 0.0 0.6812874543147432 
node 1 1 1 1
node 2 2 1 1
node 3 1 1 3
node 4 1 0 2
node 5 3 1 1
node 10 1 0 0
node 12 1 0 0
node 29 1 0 0
node 116 2 0 0
node 163 1 0 0
node 175 1 0 0
node 319 3 0 0
node 683 1 0 0
node 690 1 0 0
gene  2 1 4 1.2170121265043912 0 1.0 1.2170121265043912 1
gene  2 2 4 13.051299507256061 0 2.0 13.051299507256061 1
gene  3 3 4 -1.660755892240044 0 3.0 -1.660755892240044 1
gene  2 5 4 6.459131123737886 0 3.0 6.459131123737886 1
gene  1 1 10 -1.049392130126239 0 12.0 -1.049392130126239 1
gene  1 10 4 1.9518825108400173 0 13.0 1.9518825108400173 1
gene  1 1 12 -1.588702529393914 0 16.0 -1.588702529393914 1
gene  1 12 10 2.0499798802594245 0 17.0 2.0499798802594245 0
gene  3 5 10 -1.8851550327910824 0 20.0 -1.8851550327910824 1
gene  2 5 12 -2.5008605327929456 0 46.0 -2.5008605327929456 1
gene  1 1 29 -0.7235068488641463 0 91.0 -0.7235068488641463 1
gene  1 29 4 -3.936044811306671 0 92.0 -3.936044811306671 1
gene  3 12 29 -2.280685093306725 0 129.0 -2.280685093306725 1
gene  1 5 29 -3.268036329641444 0 223.0 -3.268036329641444 0
gene  3 2 12 13.070788437646822 0 234.0 13.070788437646822 1
gene  3 3 10 -4.339136743189991 0 262.0 -4.339136743189991 1
gene  3 29 10 -1.8814884282771054 0 428.0 -1.8814884282771054 1
gene  2 5 116 -9.164205054040496 0 536.0 -9.164205054040496 1
gene  1 116 12 -5.378938312687689 0 537.0 -5.378938312687689 1
gene  1 116 29 -1.38698332150402 0 556.0 -1.38698332150402 1
gene  1 3 29 -1.3104160447772322 0 583.0 -1.3104160447772322 1
gene  2 12 163 2.102706722192554 0 759.0 2.102706722192554 1
gene  1 163 29 2.4729946445922977 0 760.0 2.4729946445922977 1
gene  2 3 12 -2.7938041022519746 0 779.0 -2.7938041022519746 1
gene  2 116 175 0.35246575235002525 0 818.0 0.35246575235002525 1
gene  3 175 12 -0.5693529918194864 0 819.0 -0.5693529918194864 1
gene  1 175 10 -3.504703333611843 0 895.0 -3.504703333611843 1
gene  1 12 319 6.856565356403863 0 1419.0 6.856565356403863 1
gene  1 319 10 -3.9477219770399814 0 1420.0 -3.9477219770399814 1
gene  2 5 175 -5.515147237168647 0 1583.0 -5.515147237168647 1
gene  2 1 116 1.7974760116606854 0 1826.0 1.7974760116606854 1
gene  2 2 10 -1.1864981861159478 0 2245.0 -1.1864981861159478 1
gene  2 3 116 -0.0344404426035827 0 2542.0 -0.0344404426035827 1
gene  2 29 319 -1.7316634953738 0 2694.0 -1.7316634953738 0
gene  2 3 163 4.459697076314643 0 2747.0 4.459697076314643 1
gene  1 116 163 2.6728807019770677 0 2976.0 2.6728807019770677 1
gene  2 29 683 -0.16825103400645092 0 3066.0 -0.16825103400645092 1
gene  2 683 319 1.7859482381416083 0 3067.0 1.7859482381416083 1
gene  1 5 690 2.4566608099212752 0 3097.0 2.4566608099212752 1
gene  1 690 29 -0.5577056903973555 0 3098.0 -0.5577056903973555 1
genomeend 22
/* Organism # 023 Fitness:  35,556 Error:  6,963                      */
genomestart  23
trait 1 0.6746208131906923 0.4487440544195519 0.0 0.5653011475088281 0.0 0.0 0.8171948133503227 0.30918239632349076 
trait 2 0.0 0.2660552448158252 2.153154919494778 1.7749421371852745 0.06555306539773043 0.0 0.18521461455929644 1.1825180195237373 
trait 3 0.2737401444344563 0.0 0.0 0.8159245860741685 0.33148680033867917 0.0 0.0 0.6812874543147432 
node 1 1 1 1
node 2 2 1 1
node 3 1 1 3
node 4 1 0 2
node 5 3 1 1
node 10 1 0 0
node 12 1 0 0
node 29 1 0 0
node 116 2 0 0
node 163 1 0 0
node 175 1 0 0
node 319 3 0 0
node 683 1 0 0
node 690 1 0 0
gene  2 1 4 -15.35852063791392 0 1.0 -15.35852063791392 1
gene  2 2 4 12.143363354768367 0 2.0 12.143363354768367 1
gene  3 3 4 16.90314529743083 0 3.0 16.90314529743083 1
gene  2 5 4 8.690952562535273 0 3.0 8.690952562535273 1
gene  1 1 10 0.5080935452924755 0 12.0 0.5080935452924755 1
gene  1 10 4 1.5327788627723877 0 13.0 1.5327788627723877 1
gene  1 1 12 1.7125100504146837 0 16.0 1.7125100504146837 1
gene  1 12 10 -0.453325264803855 0 17.0 -0.453325264803855 1
gene  3 5 10 1.2987457652596943 0 20.0 1.2987457652596943 1
gene  2 5 12 -0.47159057748252736 0 46.0 -0.47159057748252736 1
gene  1 1 29 3.3056000401425463 0 91.0 3.3056000401425463 1
gene  1 29 4 -2.2056600612813124 0 92.0 -2.2056600612813124 1
gene  3 12 29 -3.6319912610460765 0 129.0 -3.6319912610460765 1
gene  1 5 29 -0.5093545498047942 0 223.0 -0.5093545498047942 0
gene  3 2 12 11.546024703245351 0 234.0 11.546024703245351 1
gene  3 3 10 -6.204295274383686 0 262.0 -6.204295274383686 1
gene  3 29 10 -5.463460196967977 0 428.0 -5.463460196967977 1
gene  2 5 116 -7.949615089409984 0 536.0 -7.949615089409984 1
gene  1 116 12 -3.5817046401081463 0 537.0 -3.5817046401081463 1
gene  1 116 29 -1.7424406060369277 0 556.0 -1.7424406060369277 1
gene  1 3 29 -1.1426136411348398 0 583.0 -1.1426136411348398 1
gene  2 12 163 -0.39543456912878416 0 759.0 -0.39543456912878416 1
gene  1 163 29 2.049121240067226 0 760.0 2.049121240067226 1
gene  2 3 12 0.5819975652773639 0 779.0 0.5819975652773639 1
gene  2 116 175 -1.90325781975053 0 818.0 -1.90325781975053 1
gene  3 175 12 -6.588412075905482 0 819.0 -6.588412075905482 1
gene  1 175 10 -0.489197495412113 0 895.0 -0.489197495412113 1
gene  1 12 319 4.008302268381598 0 1419.0 4.008302268381598 1
gene  1 319 10 -6.599540121266573 0 1420.0 -6.599540121266573 1
gene  2 5 175 -6.565325340439815 0 1583.0 -6.565325340439815 1
gene  2 1 116 3.8256359061791207 0 1826.0 3.8256359061791207 1
gene  2 2 10 -1.8857631620562003 0 2245.0 -1.8857631620562003 1
gene  2 3 116 3.2587290305325802 0 2542.0 3.2587290305325802 1
gene  2 29 319 -1.7316634953738 0 2694.0 -1.7316634953738 0
gene  2 3 163 1.6241172886454738 0 2747.0 1.6241172886454738 1
gene  1 116 163 0.7458125238934221 0 2976.0 0.7458125238934221 1
gene  2 29 683 0.8487100732862589 0 3066.0 0.8487100732862589 1
gene  2 683 319 1.5436834903056684 0 3067.0 1.5436834903056684 1
gene  1 5 690 1.0 0 3097.0 1.0 1
gene  1 690 29 0.9487819817253162 0 3098.0 0.9487819817253162 1
genomeend 23
/* Organism # 024 Fitness:  32,900 Error:  6,736                      */
genomestart  24
trait 1 0.6746208131906923 0.4487440544195519 0.0 0.5653011475088281 0.0 0.0 0.8171948133503227 0.30918239632349076 
trait 2 0.0 0.2660552448158252 2.153154919494778 1.7749421371852745 0.06555306539773043 0.0 0.18521461455929644 1.1825180195237373 
trait 3 0.2737401444344563 0.0 0.0 0.8159245860741685 0.33148680033867917 0.0 0.0 0.6812874543147432 
node 1 1 1 1
node 2 2 1 1
node 3 1 1 3
node 4 1 0 2
node 5 3 1 1
node 10 1 0 0
node 12 1 0 0
node 29 1 0 0
node 116 2 0 0
node 163 1 0 0
node 175 1 0 0
node 319 3 0 0
node 683 1 0 0
node 690 1 0 0
gene  2 1 4 -16.003230840809795 0 1.0 -16.003230840809795 1
gene  2 2 4 16.175503130723293 0 2.0 16.175503130723293 1
gene  3 3 4 16.86957067862167 0 3.0 16.86957067862167 1
gene  2 5 4 2.120411874801959 0 3.0 2.120411874801959 1
gene  1 1 10 -1.8810629629472866 0 12.0 -1.8810629629472866 1
gene  1 10 4 0.8464913024463294 0 13.0 0.8464913024463294 1
gene  1 1 12 -0.9652864297065546 0 16.0 -0.9652864297065546 1
gene  1 12 10 1.8480798780500658 0 17.0 1.8480798780500658 0
gene  3 5 10 0.7708870041662791 0 20.0 0.7708870041662791 1
gene  2 5 12 0.6771796969854672 0 46.0 0.6771796969854672 1
gene  1 1 29 1.4250028477751917 0 91.0 1.4250028477751917 1
gene  1 29 4 -3.251193357409451 0 92.0 -3.251193357409451 1
gene  3 12 29 -0.19768032325371665 0 129.0 -0.19768032325371665 1
gene  1 5 29 -0.5100544945921213 0 223.0 -0.5100544945921213 1
gene  3 2 12 12.854759842589699 0 234.0 12.854759842589699 1
gene  3 3 10 -7.467600654174352 0 262.0 -7.467600654174352 1
gene  3 29 10 1.1299341613278435 0 428.0 1.1299341613278435 1
gene  2 5 116 -10.610113565277459 0 536.0 -10.610113565277459 1
gene  1 116 12 -6.603926370594914 0 537.0 -6.603926370594914 1
gene  1 116 29 2.615525415863198 0 556.0 2.615525415863198 1
gene  1 3 29 -2.2040698257850058 0 583.0 -2.2040698257850058 1
gene  2 12 163 0.9149803163066716 0 759.0 0.9149803163066716 1
gene  1 163 29 -1.727757223898341 0 760.0 -1.727757223898341 1
gene  2 3 12 -0.44452119265284334 0 779.0 -0.44452119265284334 1
gene  2 116 175 -1.9660229257852198 0 818.0 -1.9660229257852198 1
gene  3 175 12 -7.1378719934737624 0 819.0 -7.1378719934737624 1
gene  1 175 10 0.16219126085050856 0 895.0 0.16219126085050856 1
gene  1 12 319 4.88882927673416 0 1419.0 4.88882927673416 1
gene  1 319 10 1.2421559667461644 0 1420.0 1.2421559667461644 1
gene  2 5 175 -7.337466567600403 0 1583.0 -7.337466567600403 1
gene  2 1 116 2.0232807100344066 0 1826.0 2.0232807100344066 1
gene  2 2 10 -0.6992962122330479 0 2245.0 -0.6992962122330479 1
gene  2 3 116 2.886732076245118 0 2542.0 2.886732076245118 1
gene  2 29 319 -1.2447501736606235 0 2694.0 -1.2447501736606235 0
gene  2 3 163 4.167614375138735 0 2747.0 4.167614375138735 1
gene  1 116 163 -0.7129828983007946 0 2976.0 -0.7129828983007946 1
gene  2 29 683 -0.4980528211215458 0 3066.0 -0.4980528211215458 1
gene  2 683 319 -1.7316634953738 0 3067.0 -1.7316634953738 1
gene  1 5 690 0.8120247948522149 0 3097.0 0.8120247948522149 1
gene  1 690 29 -0.5041649196781496 0 3098.0 -0.5041649196781496 1
genomeend 24
/* Organism # 025 Fitness:  25,635 Error:  6,063                      */
genomestart  25
trait 1 0.6746208131906923 0.4487440544195519 0.0 0.5653011475088281 0.0 0.0 0.8171948133503227 0.30918239632349076 
trait 2 0.0 0.2660552448158252 2.153154919494778 1.7749421371852745 0.06555306539773043 0.0 0.18521461455929644 1.1825180195237373 
trait 3 0.2737401444344563 0.0 0.0 0.8159245860741685 0.33148680033867917 0.0 0.0 0.6812874543147432 
node 1 1 1 1
node 2 2 1 1
node 3 1 1 3
node 4 1 0 2
node 5 3 1 1
node 10 1 0 0
node 12 1 0 0
node 29 1 0 0
node 116 3 0 0
node 163 1 0 0
node 175 1 0 0
node 319 3 0 0
node 683 1 0 0
node 690 1 0 0
gene  2 1 4 -16.475404034017888 0 1.0 -16.475404034017888 1
gene  2 2 4 16.03191037531751 0 2.0 16.03191037531751 1
gene  3 3 4 12.991511356867697 0 3.0 12.991511356867697 1
gene  2 5 4 4.009842102142108 0 3.0 4.009842102142108 1
gene  1 1 10 -0.5086704869450942 0 12.0 -0.5086704869450942 1
gene  1 10 4 2.4835980383776217 0 13.0 2.4835980383776217 1
gene  1 1 12 1.5236592407159408 0 16.0 1.5236592407159408 1
gene  1 12 10 0.8497227803805674 0 17.0 0.8497227803805674 0
gene  3 5 10 -1.3425615903847117 0 20.0 -1.3425615903847117 1
gene  2 5 12 -1.5203002043584566 0 46.0 -1.5203002043584566 1
gene  1 1 29 4.563145397595315 0 91.0 4.563145397595315 1
gene  1 29 4 -1.071615994734795 0 92.0 -1.071615994734795 1
gene  3 12 29 -4.171006634028509 0 129.0 -4.171006634028509 1
gene  1 5 29 0.34786657917957675 0 223.0 0.34786657917957675 0
gene  3 2 12 12.11068267640967 0 234.0 12.11068267640967 1
gene  3 3 10 -8.130151911350474 0 262.0 -8.130151911350474 1
gene  3 29 10 1.8871230465811049 0 428.0 1.8871230465811049 1
gene  2 5 116 -8.082288294971807 0 536.0 -8.082288294971807 1
gene  1 116 12 -4.010885903948432 0 537.0 -4.010885903948432 1
gene  1 116 29 -1.2184932809751063 0 556.0 -1.2184932809751063 1
gene  1 3 29 -2.413347770617373 0 583.0 -2.413347770617373 1
gene  2 12 163 3.455871107830819 0 759.0 3.455871107830819 1
gene  1 163 29 1.6364828305793864 0 760.0 1.6364828305793864 1
gene  2 3 12 -1.1805978169661273 0 779.0 -1.1805978169661273 1
gene  2 116 175 -1.6408446886995476 0 818.0 -1.6408446886995476 1
gene  3 175 12 -7.363516850938473 0 819.0 -7.363516850938473 1
gene  1 175 10 -0.7966480195114087 0 895.0 -0.7966480195114087 1
gene  1 12 319 2.569303359521919 0 1419.0 2.569303359521919 1
gene  1 319 10 -6.7879747314676795 0 1420.0 -6.7879747314676795 1
gene  2 5 175 -5.612084434447619 0 1583.0 -5.612084434447619 1
gene  2 1 116 -0.7310672652563635 0 1826.0 -0.7310672652563635 1
gene  2 2 10 1.611886584745866 0 2245.0 1.611886584745866 1
gene  2 3 116 1.2855789680323644 0 2542.0 1.2855789680323644 1
gene  2 29 319 -3.019254950062492 0 2694.0 -3.019254950062492 0
gene  2 3 163 2.2748826502824473 0 2747.0 2.2748826502824473 1
gene  1 116 163 0.6058550575069169 0 2976.0 0.6058550575069169 1
gene  2 29 683 -0.23636152857016124 0 3066.0 -0.23636152857016124 1
gene  2 683 319 -0.29243975176602355 0 3067.0 -0.29243975176602355 1
gene  1 5 690 -1.327859872979468 0 3097.0 -1.327859872979468 1
gene  1 690 29 -1.9206679991272588 0 3098.0 -1.9206679991272588 1
genomeend 25
/*-------------------------------------------------------------------*/
/* Species # 042         : (size= 001) (AvfFit= 4,000) (Age= 116,000)  */
/*-------------------------------------------------------------------*/
/* Organism # 026 Fitness:  4,000 Error:  3,000                      */
genomestart  26
trait 1 0.886306918663991 0.0 1.054321046648595 0.5482245350094094 1.2186817001213652 0.4074758520315832 0.0 1.831024284264838 
trait 2 0.1630859375 0.0 0.11485549311959667 0.0 0.0 0.0 0.0 0.0 
trait 3 0.0 0.0 0.0 0.0 0.0 0.0 0.0 0.0 
node 1 1 1 1
node 2 1 1 1
node 3 1 1 3
node 4 3 0 2
node 5 1 1 1
node 48 3 0 0
node 67 1 0 0
node 81 2 0 0
node 147 1 0 0
node 228 1 0 0
node 413 1 0 0
node 516 1 0 0
node 572 1 0 0
node 635 3 0 0
gene  3 1 4 -13.578706525862096 0 1.0 -13.578706525862096 1
gene  2 2 4 6.282470956128622 0 2.0 6.282470956128622 1
gene  3 3 4 -3.0714660681812114 0 3.0 -3.0714660681812114 1
gene  1 5 4 1.0195018159445843 0 3.0 1.0195018159445843 1
gene  1 1 48 -0.8846155995645191 0 201.0 -0.8846155995645191 1
gene  1 48 4 -22.040887648139265 0 202.0 -22.040887648139265 1
gene  3 5 48 0.8358364753407721 0 227.0 0.8358364753407721 1
gene  1 1 67 -4.151694028606957 0 285.0 -4.151694028606957 1
gene  2 67 48 -3.0677341277893024 0 286.0 -3.0677341277893024 1
gene  2 2 81 -2.655283118035439 0 359.0 -2.655283118035439 1
gene  2 81 4 0.7759118334131117 0 360.0 0.7759118334131117 1
gene  3 3 48 1.6334316922100478 0 628.0 1.6334316922100478 1
gene  1 5 147 7.067848276226227 0 688.0 7.067848276226227 1
gene  1 147 4 2.2495153923200117 0 689.0 2.2495153923200117 1
gene  1 81 48 3.385448197216673 0 934.0 3.385448197216673 0
gene  1 147 48 5.019218550780934 0 971.0 5.019218550780934 1
gene  3 1 228 5.870811380624449 0 1049.0 5.870811380624449 1
gene  3 228 4 -5.690749145884015 0 1050.0 -5.690749145884015 1
gene  1 228 67 9.554019179802813 0 1199.0 9.554019179802813 1
gene  1 147 81 -1.140299745160131 0 1523.0 -1.140299745160131 1
gene  3 3 147 5.781624226378966 0 1770.0 5.781624226378966 1
gene  3 1 413 6.963551588578403 0 1854.0 6.963551588578403 1
gene  3 413 4 -3.416341767344719 0 1855.0 -3.416341767344719 1
gene  1 3 81 2.035998348178518 0 1934.0 2.035998348178518 1
gene  2 81 228 -7.808095523439151 0 1967.0 -7.808095523439151 1
gene  2 5 67 0.24905190709558633 0 2271.0 0.24905190709558633 1
gene  1 1 516 3.575623453613116 0 2337.0 3.575623453613116 1
gene  1 516 48 5.430724424336903 0 2338.0 5.430724424336903 1
gene  1 81 413 -0.7758266179153974 0 2396.0 -0.7758266179153974 1
gene  1 2 516 -4.7862092641578124 0 2425.0 -4.7862092641578124 1
gene  1 81 572 2.4246592202116406 0 2545.0 2.4246592202116406 1
gene  1 572 48 2.3403578803847997 0 2546.0 2.3403578803847997 1
gene  3 516 413 -0.46859604434397045 0 2593.0 -0.46859604434397045 1
gene  3 1 572 -0.023428497257104386 0 2761.0 -0.023428497257104386 1
gene  1 81 635 2.005634466799683 0 2876.0 2.005634466799683 1
gene  1 635 413 -3.7454995996987104 0 2877.0 -3.7454995996987104 1
gene  3 228 48 1.3490571636183772 0 3081.0 1.3490571636183772 1
genomeend 26
/*-------------------------------------------------------------------*/
/* Species # 059         : (size= 004) (AvfFit= 16,853) (Age= 103,000)  */
/*-------------------------------------------------------------------*/
/* Organism # 027 Fitness:  24,064 Error:  5,906                      */
genomestart  27
trait 1 1.01537521003263 0.0 0.0 0.5973362437765772 0.0 0.0 0.0 0.0 
trait 2 0.2 0.0 0.0 0.0 0.0 0.0 0.0 0.0 
trait 3 0.0 0.26104623995673615 0.9527814217331274 0.16647405514284408 0.1382733234760395 0.0 0.0 0.9353524682743787 
node 1 1 1 1
node 2 1 1 1
node 3 1 1 3
node 4 3 0 2
node 5 3 1 1
node 10 1 0 0
node 12 2 0 0
node 29 1 0 0
node 127 1 0 0
node 230 2 0 0
node 578 1 0 0
node 684 1 0 0
gene  1 1 4 2.9774490751649885 0 1.0 2.9774490751649885 1
gene  2 2 4 -2.4568298668893065 0 2.0 -2.4568298668893065 1
gene  3 3 4 8.979697202344777 0 3.0 8.979697202344777 1
gene  2 5 4 -5.976454631589645 0 3.0 -5.976454631589645 1
gene  1 1 10 1.4861809977493587 0 12.0 1.4861809977493587 1
gene  1 10 4 -2.626796644138105 0 13.0 -2.626796644138105 1
gene  1 1 12 0.7957551710962028 0 16.0 0.7957551710962028 1
gene  2 12 10 0.2911784196603079 0 17.0 0.2911784196603079 0
gene  2 5 10 4.109310542317542 0 20.0 4.109310542317542 1
gene  2 5 12 -0.7574014285321018 0 46.0 -0.7574014285321018 1
gene  1 1 29 10.255961341534853 0 91.0 10.255961341534853 1
gene  1 29 4 -0.2229284615601883 0 92.0 -0.2229284615601883 1
gene  3 12 29 0.7580486900658999 0 129.0 0.7580486900658999 1
gene  2 5 29 1.8568392274198722 0 199.0 1.8568392274198722 1
gene  3 5 127 3.9243867806596917 0 591.0 3.9243867806596917 1
gene  2 127 4 -2.8386043188594634 0 592.0 -2.8386043188594634 1
gene  2 127 12 6.044293471595511 0 646.0 6.044293471595511 1
gene  2 2 29 2.1243936142212294 0 784.0 2.1243936142212294 1
gene  3 2 12 -2.274081108279586 0 862.0 -2.274081108279586 1
gene  1 127 10 -13.616867489643822 0 905.0 -13.616867489643822 1
gene  1 10 29 -3.8443980225816303 0 1030.0 -3.8443980225816303 1
gene  2 5 230 -2.8761490775155147 0 1055.0 -2.8761490775155147 1
gene  2 230 12 -0.880334458297614 0 1056.0 -0.880334458297614 1
gene  3 3 230 2.049249418155954 0 1480.0 2.049249418155954 1
gene  3 2 127 10.120074508912792 0 1651.0 10.120074508912792 1
gene  1 127 29 -0.07818975832979502 0 1791.0 -0.07818975832979502 1
gene  1 230 10 -11.07288825389027 0 1860.0 -11.07288825389027 1
gene  2 230 29 1.6239644252311367 0 1976.0 1.6239644252311367 1
gene  3 3 10 -2.985825173976103 0 2116.0 -2.985825173976103 1
gene  3 127 230 5.178254289267843 0 2341.0 5.178254289267843 1
gene  2 3 12 -3.6969010683519885 0 2394.0 -3.6969010683519885 1
gene  2 12 578 -2.9890691579503113 0 2566.0 -2.9890691579503113 1
gene  2 578 10 0.7439670946848786 0 2567.0 0.7439670946848786 1
gene  1 578 29 -1.4836358573717607 0 2615.0 -1.4836358573717607 1
gene  2 2 10 -1.5148928823890433 0 2693.0 -1.5148928823890433 0
gene  2 2 684 0.8009687712032714 0 3069.0 0.8009687712032714 1
gene  2 684 10 -0.876868708202216 0 3070.0 -0.876868708202216 1
gene  2 2 230 4.423331872218287 0 3132.0 4.423331872218287 1
genomeend 27
/* Organism # 028 Fitness:  8,994 Error:  3,999                      */
genomestart  28
trait 1 1.01537521003263 0.0 0.0 0.5973362437765772 0.0 0.0 0.0 0.0 
trait 2 0.0 0.0974419501268049 0.0 0.0 0.0 0.0 0.46442555471651437 0.0 
trait 3 0.0 0.26104623995673615 0.9527814217331274 0.16647405514284408 0.1382733234760395 0.0 0.0 0.9353524682743787 
node 1 1 1 1
node 2 1 1 1
node 3 1 1 3
node 4 3 0 2
node 5 3 1 1
node 10 1 0 0
node 12 2 0 0
node 29 1 0 0
node 127 1 0 0
node 230 2 0 0
node 578 1 0 0
node 684 1 0 0
gene  1 1 4 1.5803594687139113 0 1.0 1.5803594687139113 1
gene  2 2 4 -3.857926814152447 0 2.0 -3.857926814152447 1
gene  3 3 4 11.279630964372071 0 3.0 11.279630964372071 1
gene  2 5 4 -6.0459803644566685 0 3.0 -6.0459803644566685 1
gene  1 1 10 1.7959145174947335 0 12.0 1.7959145174947335 1
gene  1 10 4 -3.704677727661979 0 13.0 -3.704677727661979 1
gene  1 1 12 -0.3208985590873961 0 16.0 -0.3208985590873961 1
gene  2 12 10 1.0043604380535245 0 17.0 1.0043604380535245 0
gene  2 5 10 5.9593739187303285 0 20.0 5.9593739187303285 1
gene  2 5 12 -2.7388519079455085 0 46.0 -2.7388519079455085 1
gene  1 1 29 8.471652176750126 0 91.0 8.471652176750126 1
gene  1 29 4 -2.318827188737614 0 92.0 -2.318827188737614 1
gene  3 12 29 -0.21112251464071763 0 129.0 -0.21112251464071763 1
gene  2 5 29 1.553181262673432 0 199.0 1.553181262673432 1
gene  3 5 127 3.7355056466675087 0 591.0 3.7355056466675087 1
gene  2 127 4 -3.104555029308409 0 592.0 -3.104555029308409 1
gene  2 127 12 6.044293471595511 0 646.0 6.044293471595511 1
gene  2 2 29 2.1243936142212294 0 784.0 2.1243936142212294 1
gene  3 2 12 -4.065995115776907 0 862.0 -4.065995115776907 1
gene  1 127 10 -2.065020334941298 0 905.0 -2.065020334941298 1
gene  1 10 29 -3.4521196697867107 0 1030.0 -3.4521196697867107 1
gene  2 5 230 -1.350639506790244 0 1055.0 -1.350639506790244 1
gene  2 230 12 1.141027330455488 0 1056.0 1.141027330455488 1
gene  3 3 230 2.843683800489975 0 1480.0 2.843683800489975 1
gene  3 2 127 10.120074508912792 0 1651.0 10.120074508912792 1
gene  1 127 29 -0.07818975832979502 0 1791.0 -0.07818975832979502 1
gene  1 230 10 -11.353163281957675 0 1860.0 -11.353163281957675 1
gene  2 230 29 1.6239644252311367 0 1976.0 1.6239644252311367 1
gene  3 3 10 -0.9604388236160437 0 2116.0 -0.9604388236160437 1
gene  3 127 230 6.142034015671435 0 2341.0 6.142034015671435 1
gene  2 3 12 -3.1671658894321104 0 2394.0 -3.1671658894321104 1
gene  2 12 578 -2.9890691579503113 0 2566.0 -2.9890691579503113 1
gene  2 578 10 0.7439670946848786 0 2567.0 0.7439670946848786 1
gene  1 578 29 -0.8980560758404048 0 2615.0 -0.8980560758404048 1
gene  2 2 10 -1.7708766768702013 0 2693.0 -1.7708766768702013 0
gene  2 2 684 -0.49965394619194664 0 3069.0 -0.49965394619194664 1
gene  2 684 10 -2.62161672320299 0 3070.0 -2.62161672320299 1
genomeend 28
/* Organism # 029 Fitness:  24,064 Error:  5,906                      */
genomestart  29
trait 1 1.01537521003263 0.0 0.0 0.5973362437765772 0.0 0.0 0.0 0.0 
trait 2 0.2 0.0 0.0 0.0 0.0 0.0 0.0 0.0 
trait 3 0.0 0.26104623995673615 0.9527814217331274 0.16647405514284408 0.1382733234760395 0.0 0.0 0.9353524682743787 
node 1 1 1 1
node 2 1 1 1
node 3 1 1 3
node 4 3 0 2
node 5 3 1 1
node 10 1 0 0
node 12 2 0 0
node 29 1 0 0
node 127 1 0 0
node 230 2 0 0
node 578 1 0 0
node 684 1 0 0
gene  1 1 4 2.9774490751649885 0 1.0 2.9774490751649885 1
gene  2 2 4 -2.4568298668893065 0 2.0 -2.4568298668893065 1
gene  3 3 4 8.979697202344777 0 3.0 8.979697202344777 1
gene  2 5 4 -5.976454631589645 0 3.0 -5.976454631589645 1
gene  1 1 10 1.4861809977493587 0 12.0 1.4861809977493587 1
gene  1 10 4 -2.626796644138105 0 13.0 -2.626796644138105 1
gene  1 1 12 0.7957551710962028 0 16.0 0.7957551710962028 1
gene  2 12 10 0.2911784196603079 0 17.0 0.2911784196603079 0
gene  2 5 10 4.109310542317542 0 20.0 4.109310542317542 1
gene  2 5 12 -0.7574014285321018 0 46.0 -0.7574014285321018 1
gene  1 1 29 10.255961341534853 0 91.0 10.255961341534853 1
gene  1 29 4 -0.2229284615601883 0 92.0 -0.2229284615601883 1
gene  3 12 29 0.7580486900658999 0 129.0 0.7580486900658999 1
gene  2 5 29 1.8568392274198722 0 199.0 1.8568392274198722 1
gene  3 5 127 3.9243867806596917 0 591.0 3.9243867806596917 1
gene  2 127 4 -2.8386043188594634 0 592.0 -2.8386043188594634 1
gene  2 127 12 6.044293471595511 0 646.0 6.044293471595511 1
gene  2 2 29 2.1243936142212294 0 784.0 2.1243936142212294 1
gene  3 2 12 -2.274081108279586 0 862.0 -2.274081108279586 1
gene  1 127 10 -13.616867489643822 0 905.0 -13.616867489643822 1
gene  1 10 29 -3.8443980225816303 0 1030.0 -3.8443980225816303 1
gene  2 5 230 -2.8761490775155147 0 1055.0 -2.8761490775155147 1
gene  2 230 12 -0.880334458297614 0 1056.0 -0.880334458297614 1
gene  3 3 230 2.049249418155954 0 1480.0 2.049249418155954 1
gene  3 2 127 10.120074508912792 0 1651.0 10.120074508912792 1
gene  1 127 29 -0.07818975832979502 0 1791.0 -0.07818975832979502 1
gene  1 230 10 -11.07288825389027 0 1860.0 -11.07288825389027 1
gene  2 230 29 1.6239644252311367 0 1976.0 1.6239644252311367 1
gene  3 3 10 -2.985825173976103 0 2116.0 -2.985825173976103 1
gene  3 127 230 5.178254289267843 0 2341.0 5.178254289267843 1
gene  2 3 12 -3.6969010683519885 0 2394.0 -3.6969010683519885 1
gene  2 12 578 -2.9890691579503113 0 2566.0 -2.9890691579503113 1
gene  2 578 10 0.7439670946848786 0 2567.0 0.7439670946848786 1
gene  1 578 29 -1.4836358573717607 0 2615.0 -1.4836358573717607 1
gene  2 2 10 -1.5148928823890433 0 2693.0 -1.5148928823890433 0
gene  2 2 684 0.8009687712032714 0 3069.0 0.8009687712032714 1
gene  2 684 10 -0.876868708202216 0 3070.0 -0.876868708202216 1
gene  3 3 684 3.4876119184539722 0 3133.0 3.4876119184539722 1
genomeend 29
/* Organism # 030 Fitness:  10,291 Error:  4,208                      */
genomestart  30
trait 1 1.01537521003263 0.0 0.0 0.5973362437765772 0.0 0.0 0.0 0.0 
trait 2 0.2 0.0 0.0 0.0 0.0 0.0 0.0 0.0 
trait 3 0.0 0.26104623995673615 0.9527814217331274 0.16647405514284408 0.1382733234760395 0.0 0.0 0.9353524682743787 
node 1 1 1 1
node 2 1 1 1
node 3 1 1 3
node 4 3 0 2
node 5 3 1 1
node 10 1 0 0
node 12 2 0 0
node 29 1 0 0
node 127 1 0 0
node 230 2 0 0
node 578 1 0 0
node 684 1 0 0
gene  1 1 4 2.1844830445570036 0 1.0 2.1844830445570036 1
gene  2 2 4 -2.934653766534129 0 2.0 -2.934653766534129 1
gene  3 3 4 8.299018610832704 0 3.0 8.299018610832704 1
gene  2 5 4 -7.289396909258493 0 3.0 -7.289396909258493 1
gene  1 1 10 3.7958607169173915 0 12.0 3.7958607169173915 1
gene  1 10 4 -2.299457154857662 0 13.0 -2.299457154857662 1
gene  1 1 12 -0.4544317165507512 0 16.0 -0.4544317165507512 1
gene  2 12 10 -1.5148368670497159 0 17.0 -1.5148368670497159 0
gene  2 5 10 6.597686704392309 0 20.0 6.597686704392309 1
gene  2 5 12 0.03129103002276179 0 46.0 0.03129103002276179 1
gene  1 1 29 11.64398221286644 0 91.0 11.64398221286644 1
gene  1 29 4 1.4918817326478637 0 92.0 1.4918817326478637 1
gene  3 12 29 0.9772736662593409 0 129.0 0.9772736662593409 1
gene  2 5 29 1.746896163703753 0 199.0 1.746896163703753 1
gene  3 5 127 1.4377944863541279 0 591.0 1.4377944863541279 1
gene  2 127 4 -4.95839662448328 0 592.0 -4.95839662448328 1
gene  2 127 12 5.471901500279833 0 646.0 5.471901500279833 1
gene  2 2 29 4.159386321116623 0 784.0 4.159386321116623 1
gene  3 2 12 -2.188825489651538 0 862.0 -2.188825489651538 1
gene  1 127 10 -14.186533948887401 0 905.0 -14.186533948887401 1
gene  1 10 29 -5.833646404578038 0 1030.0 -5.833646404578038 1
gene  2 5 230 -4.567750521283607 0 1055.0 -4.567750521283607 1
gene  2 230 12 1.2450461604738527 0 1056.0 1.2450461604738527 1
gene  3 3 230 0.8966720134813777 0 1480.0 0.8966720134813777 1
gene  3 2 127 8.671372937908572 0 1651.0 8.671372937908572 1
gene  1 127 29 -0.8414210403024891 0 1791.0 -0.8414210403024891 1
gene  1 230 10 -12.190182709094032 0 1860.0 -12.190182709094032 1
gene  2 230 29 2.347634338233713 0 1976.0 2.347634338233713 1
gene  3 3 10 -3.9277212026415174 0 2116.0 -3.9277212026415174 1
gene  3 127 230 3.760138021443538 0 2341.0 3.760138021443538 1
gene  2 3 12 2.041637634937261 0 2394.0 2.041637634937261 1
gene  2 12 578 -2.7857087630621518 0 2566.0 -2.7857087630621518 1
gene  2 578 10 -0.48696006286104265 0 2567.0 -0.48696006286104265 1
gene  1 578 29 0.8651969287998513 0 2615.0 0.8651969287998513 1
gene  2 2 10 -0.048896319257739906 0 2693.0 -0.048896319257739906 0
gene  2 2 684 -2.05059843924924 0 3069.0 -2.05059843924924 1
gene  2 684 10 0.6826718095206745 0 3070.0 0.6826718095206745 1
genomeend 30
/*-------------------------------------------------------------------*/
/* Species # 063         : (size= 003) (AvfFit= 16,039) (Age= 95,000)  */
/*-------------------------------------------------------------------*/
/* Organism # 031 Fitness:  16,000 Error:  5,000                      */
genomestart  31
trait 1 0.0 0.0 0.8471657307494798 0.0 2.031525856916771 0.6628444564898777 0.0 0.0 
trait 2 1.8125708260793636 0.04464941584216886 0.0 0.334556460306512 0.0 0.0 0.0 0.039468049298522434 
trait 3 0.5710597232733698 0.0 0.0 0.0 0.0 0.18063832292065696 0.7739847958021154 0.0 
node 1 1 1 1
node 2 1 1 1
node 3 1 1 3
node 4 1 0 2
node 5 2 1 1
node 15 2 0 0
node 19 1 0 0
node 20 2 0 0
node 146 1 0 0
node 162 1 0 0
node 517 1 0 0
node 546 1 0 0
node 586 1 0 0
node 622 1 0 0
gene  1 1 4 -0.516939303961822 0 1.0 -0.516939303961822 1
gene  2 2 4 9.078018881664285 0 2.0 9.078018881664285 1
gene  3 3 4 2.6883037890980632 0 3.0 2.6883037890980632 1
gene  2 5 4 12.377984468359676 0 3.0 12.377984468359676 1
gene  1 1 15 4.12581469308393 0 26.0 4.12581469308393 1
gene  1 15 4 8.329419849727586 0 27.0 8.329419849727586 1
gene  2 2 19 0.14900645386542155 0 38.0 0.14900645386542155 1
gene  3 19 4 -7.431487764677381 0 39.0 -7.431487764677381 1
gene  3 5 20 12.246772228698973 0 47.0 12.246772228698973 1
gene  3 20 4 1.4644825547174205 0 48.0 1.4644825547174205 1
gene  1 2 15 5.5185017128020695 0 73.0 5.5185017128020695 1
gene  2 3 19 2.5540673748825795 0 152.0 2.5540673748825795 1
gene  1 5 19 1.2900443605928595 0 545.0 1.2900443605928595 1
gene  1 1 146 -3.7214874700033187 0 683.0 -3.7214874700033187 1
gene  1 146 4 9.424213539476618 0 684.0 9.424213539476618 1
gene  3 2 162 -4.808261923349582 0 757.0 -4.808261923349582 1
gene  1 162 15 3.3735083715430987 0 758.0 3.3735083715430987 1
gene  3 146 19 4.997773802323911 0 1452.0 4.997773802323911 1
gene  3 146 162 -0.4599522661238553 0 1502.0 -0.4599522661238553 1
gene  3 3 15 0.9483932262076402 0 2154.0 0.9483932262076402 1
gene  2 20 15 -0.9029644948208696 0 2221.0 -0.9029644948208696 1
gene  1 2 517 -0.49930467239071863 0 2339.0 -0.49930467239071863 1
gene  1 517 15 2.7126426655716003 0 2340.0 2.7126426655716003 0
gene  1 15 546 -0.8570164768866069 0 2460.0 -0.8570164768866069 1
gene  1 546 4 0.2873428468238166 0 2461.0 0.2873428468238166 1
gene  3 146 586 -3.058490544049559 0 2596.0 -3.058490544049559 1
gene  3 586 162 -0.7288855507618801 0 2597.0 -0.7288855507618801 1
gene  2 517 586 -1.914430824772347 0 2664.0 -1.914430824772347 1
gene  1 3 517 -0.008534593785095801 0 2700.0 -0.008534593785095801 1
gene  2 546 19 4.494845361117438 0 2731.0 4.494845361117438 1
gene  1 517 622 -2.1264188550788123 0 2815.0 -2.1264188550788123 1
gene  1 622 15 -1.301106749766212 0 2816.0 -1.301106749766212 1
genomeend 31
/* Organism # 032 Fitness:  16,116 Error:  5,015                      */
genomestart  32
trait 1 0.0 0.0 0.8471657307494798 0.0 2.031525856916771 0.6628444564898777 0.0 0.0 
trait 2 1.8125708260793636 0.04464941584216886 0.0 0.334556460306512 0.0 0.0 0.0 0.039468049298522434 
trait 3 0.5710597232733698 0.0 0.0 0.0 0.0 0.18063832292065696 0.7739847958021154 0.0 
node 1 1 1 1
node 2 1 1 1
node 3 1 1 3
node 4 1 0 2
node 5 2 1 1
node 15 2 0 0
node 19 1 0 0
node 20 2 0 0
node 146 1 0 0
node 162 1 0 0
node 517 1 0 0
node 546 1 0 0
node 586 1 0 0
node 622 1 0 0
gene  1 1 4 1.5663513131115405 0 1.0 1.5663513131115405 1
gene  2 2 4 6.5587227460050705 0 2.0 6.5587227460050705 1
gene  3 3 4 0.6726556676584103 0 3.0 0.6726556676584103 1
gene  2 5 4 14.306814516009556 0 3.0 14.306814516009556 1
gene  1 1 15 3.789408442968017 0 26.0 3.789408442968017 1
gene  1 15 4 9.930472369945543 0 27.0 9.930472369945543 1
gene  2 2 19 0.6605820045592914 0 38.0 0.6605820045592914 1
gene  3 19 4 -1.539035205451425 0 39.0 -1.539035205451425 1
gene  3 5 20 12.706262376750237 0 47.0 12.706262376750237 1
gene  3 20 4 -0.0976930493849576 0 48.0 -0.0976930493849576 1
gene  1 2 15 -0.7643162532819486 0 73.0 -0.7643162532819486 1
gene  2 3 19 1.051358123570102 0 152.0 1.051358123570102 1
gene  1 5 19 -0.6684191317332455 0 545.0 -0.6684191317332455 1
gene  1 1 146 -5.311348883302749 0 683.0 -5.311348883302749 1
gene  1 146 4 6.789875594008375 0 684.0 6.789875594008375 1
gene  3 2 162 -5.5548563603075065 0 757.0 -5.5548563603075065 1
gene  1 162 15 -0.7606165072932962 0 758.0 -0.7606165072932962 1
gene  3 146 19 3.6805358363681306 0 1452.0 3.6805358363681306 1
gene  3 146 162 -0.392464304217635 0 1502.0 -0.392464304217635 1
gene  3 3 15 -7.803527525723068 0 2154.0 -7.803527525723068 1
gene  2 20 15 0.7750870066072648 0 2221.0 0.7750870066072648 1
gene  1 2 517 1.0097014161972049 0 2339.0 1.0097014161972049 1
gene  1 517 15 3.871162203340279 0 2340.0 3.871162203340279 0
gene  1 15 546 -0.39734584703218623 0 2460.0 -0.39734584703218623 1
gene  1 546 4 0.3785954066832755 0 2461.0 0.3785954066832755 1
gene  3 146 586 -2.0124110405915805 0 2596.0 -2.0124110405915805 1
gene  3 586 162 1.764507450182165 0 2597.0 1.764507450182165 1
gene  2 517 586 -3.9213629899326814 0 2664.0 -3.9213629899326814 1
gene  1 3 517 0.1587279995107197 0 2700.0 0.1587279995107197 1
gene  2 546 19 -0.25767099858409137 0 2731.0 -0.25767099858409137 1
gene  1 517 622 -0.2827845184154312 0 2815.0 -0.2827845184154312 1
gene  1 622 15 -2.290489196064982 0 2816.0 -2.290489196064982 1
genomeend 32
/* Organism # 033 Fitness:  16,000 Error:  5,000                      */
genomestart  33
trait 1 0.0 0.0 0.8471657307494798 0.0 2.031525856916771 0.6628444564898777 0.0 0.0 
trait 2 1.8125708260793636 0.04464941584216886 0.0 0.334556460306512 0.0 0.0 0.0 0.039468049298522434 
trait 3 0.5710597232733698 0.0 0.0 0.0 0.0 0.18063832292065696 0.7739847958021154 0.0 
node 1 1 1 1
node 2 1 1 1
node 3 1 1 3
node 4 1 0 2
node 5 2 1 1
node 15 2 0 0
node 19 1 0 0
node 20 2 0 0
node 146 1 0 0
node 162 1 0 0
node 517 1 0 0
node 546 1 0 0
node 586 1 0 0
node 622 1 0 0
gene  1 1 4 0.884657555892146 0 1.0 0.884657555892146 1
gene  2 2 4 6.230787671819815 0 2.0 6.230787671819815 1
gene  3 3 4 -0.016197930143066752 0 3.0 -0.016197930143066752 1
gene  2 5 4 12.607566407907486 0 3.0 12.607566407907486 1
gene  1 1 15 3.607345747512765 0 26.0 3.607345747512765 1
gene  1 15 4 7.057609098351461 0 27.0 7.057609098351461 1
gene  2 2 19 1.834925004770198 0 38.0 1.834925004770198 1
gene  3 19 4 1.2764793849303002 0 39.0 1.2764793849303002 1
gene  3 5 20 10.201533325284423 0 47.0 10.201533325284423 1
gene  3 20 4 -1.3942293373938777 0 48.0 -1.3942293373938777 1
gene  1 2 15 3.64428478412698 0 73.0 3.64428478412698 1
gene  2 3 19 3.2778752852599236 0 152.0 3.2778752852599236 1
gene  1 5 19 -1.9456985720459044 0 545.0 -1.9456985720459044 1
gene  1 1 146 0.8597109308996176 0 683.0 0.8597109308996176 1
gene  1 146 4 5.470453496455311 0 684.0 5.470453496455311 1
gene  3 2 162 -4.304827227131208 0 757.0 -4.304827227131208 1
gene  1 162 15 2.1291707734711087 0 758.0 2.1291707734711087 1
gene  3 146 19 3.7965845675449787 0 1452.0 3.7965845675449787 1
gene  3 146 162 -1.6269841970597434 0 1502.0 -1.6269841970597434 1
gene  3 3 15 0.007096748822466303 0 2154.0 0.007096748822466303 1
gene  2 20 15 -0.8015901968831068 0 2221.0 -0.8015901968831068 1
gene  1 2 517 -2.385840712295388 0 2339.0 -2.385840712295388 1
gene  1 517 15 0.8148680262225451 0 2340.0 0.8148680262225451 1
gene  1 15 546 1.3043249156259094 0 2460.0 1.3043249156259094 1
gene  1 546 4 0.3998939090417408 0 2461.0 0.3998939090417408 1
gene  3 146 586 -3.4314476150401534 0 2596.0 -3.4314476150401534 1
gene  3 586 162 -2.6389213745923636 0 2597.0 -2.6389213745923636 1
gene  2 517 586 -0.3437453913832076 0 2664.0 -0.3437453913832076 1
gene  1 3 517 1.3804028516831541 0 2700.0 1.3804028516831541 1
gene  2 546 19 -1.5722795266680816 0 2731.0 -1.5722795266680816 1
gene  1 517 622 2.486903523840794 0 2815.0 2.486903523840794 1
gene  1 622 15 -1.9995799290821346 0 2816.0 -1.9995799290821346 1
genomeend 33
/*-------------------------------------------------------------------*/
/* Species # 064         : (size= 002) (AvfFit= 14,222) (Age= 94,000)  */
/*-------------------------------------------------------------------*/
/* Organism # 034 Fitness:  15,939 Error:  4,992                      */
genomestart  34
trait 1 0.0 0.0 0.4020361469517819 0.0 2.213050121726637 0.26420338492383666 0.5670242009068013 0.0 
trait 2 1.53521814242924 0.4257414032431177 0.4613160837649084 1.570817548534928 0.5347522517375817 0.7641573728524613 0.6757571486721213 0.0 
trait 3 0.5209294142106495 0.0 1.0255531355740308 0.3234975151170353 0.0 0.0 0.0 2.1088071920628644 
node 1 1 1 1
node 2 1 1 1
node 3 1 1 3
node 4 1 0 2
node 5 1 1 1
node 11 1 0 0
node 15 1 0 0
node 19 2 0 0
node 24 2 0 0
node 176 2 0 0
node 441 1 0 0
node 458 1 0 0
node 621 1 0 0
gene  3 1 4 -0.7835641732871745 0 1.0 -0.7835641732871745 1
gene  2 2 4 3.431160190249943 0 2.0 3.431160190249943 1
gene  1 3 4 3.966639857288926 0 3.0 3.966639857288926 1
gene  2 5 4 -3.3931125883643296 0 3.0 -3.3931125883643296 1
gene  2 1 15 0.2848929057705424 0 26.0 0.2848929057705424 1
gene  3 3 11 -2.382903829704305 0 34.0 -2.382903829704305 1
gene  1 2 19 -0.7851750207296022 0 38.0 -0.7851750207296022 1
gene  2 19 4 2.466682108103709 0 39.0 2.466682108103709 1
gene  2 5 24 -4.334482730192104 0 62.0 -4.334482730192104 1
gene  2 24 4 0.5342829735273367 0 63.0 0.5342829735273367 1
gene  1 4 11 -1.845572521558694 0 386.0 -1.845572521558694 1
gene  2 24 11 -3.823726674933731 0 565.0 -3.823726674933731 1
gene  1 1 176 0.43639901308156315 0 826.0 0.43639901308156315 1
gene  1 176 4 2.4474425536083966 0 827.0 2.4474425536083966 0
gene  2 24 176 2.585501320290175 0 906.0 2.585501320290175 1
gene  2 5 176 3.891158188923991 0 1471.0 3.891158188923991 1
gene  2 4 15 0.774219960207504 0 1492.0 0.774219960207504 1
gene  2 176 15 0.5466738637972649 0 1713.0 0.5466738637972649 1
gene  3 3 176 1.6640902403319147 0 1782.0 1.6640902403319147 1
gene  2 5 441 -0.8265115249100998 0 2023.0 -0.8265115249100998 1
gene  2 441 176 -1.1579069183046746 0 2024.0 -1.1579069183046746 1
gene  2 441 458 3.1028644020512215 0 2094.0 3.1028644020512215 1
gene  3 458 176 2.21684520765221 0 2095.0 2.21684520765221 1
gene  2 24 458 0.7157586088129777 0 2257.0 0.7157586088129777 1
gene  3 5 11 3.5303678624906576 0 2408.0 3.5303678624906576 1
gene  1 11 15 0.5736826163717157 0 2529.0 0.5736826163717157 1
gene  1 176 621 -1.1481593717391618 0 2813.0 -1.1481593717391618 1
gene  1 621 4 -3.86958626450381 0 2814.0 -3.86958626450381 1
gene  1 621 11 2.2496677408140773 0 2954.0 2.2496677408140773 1
genomeend 34
/* Organism # 035 Fitness:  12,505 Error:  4,536                      */
genomestart  35
trait 1 0.0 0.0 0.4020361469517819 0.0 2.213050121726637 0.26420338492383666 0.5670242009068013 0.0 
trait 2 1.53521814242924 0.4257414032431177 0.4613160837649084 0.960061216433046 0.9559287793381464 0.7641573728524613 0.0 0.0 
trait 3 0.5209294142106495 0.0 1.0255531355740308 0.3234975151170353 0.0 0.0 0.0 2.1088071920628644 
node 1 1 1 1
node 2 1 1 1
node 3 1 1 3
node 4 1 0 2
node 5 1 1 1
node 11 1 0 0
node 15 1 0 0
node 19 2 0 0
node 24 2 0 0
node 176 2 0 0
node 441 1 0 0
node 458 1 0 0
node 621 1 0 0
gene  3 1 4 -0.09588759426723481 0 1.0 -0.09588759426723481 1
gene  2 2 4 -0.1315589747906083 0 2.0 -0.1315589747906083 1
gene  1 3 4 2.768369908884625 0 3.0 2.768369908884625 1
gene  2 5 4 -1.9020756719125296 0 3.0 -1.9020756719125296 1
gene  2 1 15 2.044881443834563 0 26.0 2.044881443834563 1
gene  3 3 11 1.6450438450643534 0 34.0 1.6450438450643534 1
gene  1 2 19 1.2613749911643732 0 38.0 1.2613749911643732 1
gene  2 19 4 -0.5365951377283067 0 39.0 -0.5365951377283067 1
gene  2 5 24 -3.131318667462522 0 62.0 -3.131318667462522 1
gene  2 24 4 -2.2261703948350933 0 63.0 -2.2261703948350933 1
gene  1 4 11 2.6186213953619704 0 386.0 2.6186213953619704 1
gene  2 24 11 -0.9325570377066139 0 565.0 -0.9325570377066139 1
gene  1 1 176 -0.5968943953315295 0 826.0 -0.5968943953315295 1
gene  1 176 4 2.8400249276212675 0 827.0 2.8400249276212675 0
gene  2 24 176 1.6858667826058826 0 906.0 1.6858667826058826 1
gene  2 5 176 1.9609572962667712 0 1471.0 1.9609572962667712 1
gene  2 4 15 0.47790825123724745 0 1492.0 0.47790825123724745 1
gene  2 176 15 -0.5257156761816695 0 1713.0 -0.5257156761816695 1
gene  3 3 176 1.2293590398486196 0 1782.0 1.2293590398486196 1
gene  2 5 441 0.47782029459768305 0 2023.0 0.47782029459768305 1
gene  2 441 176 -2.2165727524270613 0 2024.0 -2.2165727524270613 1
gene  2 441 458 2.066082539754795 0 2094.0 2.066082539754795 1
gene  3 458 176 -0.00197551634255666 0 2095.0 -0.00197551634255666 1
gene  2 24 458 -0.6093258557776473 0 2257.0 -0.6093258557776473 1
gene  3 5 11 3.3853837809005403 0 2408.0 3.3853837809005403 1
gene  1 11 15 -1.548447064989098 0 2529.0 -1.548447064989098 1
gene  1 176 621 -4.870006902815435 0 2813.0 -4.870006902815435 1
gene  1 621 4 -3.9212854083133757 0 2814.0 -3.9212854083133757 1
gene  1 621 11 1.7914965076051617 0 2954.0 1.7914965076051617 1
genomeend 35
/*-------------------------------------------------------------------*/
/* Species # 069         : (size= 002) (AvfFit= 20,470) (Age= 91,000)  */
/*-------------------------------------------------------------------*/
/* Organism # 036 Fitness:  24,879 Error:  5,988                      */
genomestart  36
trait 1 1.2007880051846371 0.9647114650049781 0.0 0.0 1.1620647074400385 0.14859273705594522 0.0 0.2699679397700332 
trait 2 0.0 1.065319708207126 0.9936164628265397 0.0 0.0 0.304195137288662 0.0 0.5285010411126795 
trait 3 0.46834930445103373 0.8375606652349433 0.0 0.0 0.33240773050569816 0.13318415188029298 0.0 1.5631144218812962 
node 1 2 1 1
node 2 1 1 1
node 3 1 1 3
node 4 1 0 2
node 5 1 1 1
node 10 1 0 0
node 12 3 0 0
node 75 3 0 0
node 172 1 0 0
node 266 1 0 0
node 316 1 0 0
node 376 1 0 0
node 533 1 0 0
node 609 1 0 0
node 662 1 0 0
gene  1 1 4 -0.7123095911451955 0 1.0 -0.7123095911451955 1
gene  2 2 4 9.645360840764805 0 2.0 9.645360840764805 1
gene  3 3 4 -7.39186737346947 0 3.0 -7.39186737346947 1
gene  2 5 4 6.46143982788474 0 3.0 6.46143982788474 1
gene  1 1 10 -1.1942855918562816 0 12.0 -1.1942855918562816 1
gene  1 10 4 -0.6858071472733501 0 13.0 -0.6858071472733501 1
gene  1 1 12 1.4309003116283683 0 16.0 1.4309003116283683 1
gene  1 12 10 1.9302581995719867 0 17.0 1.9302581995719867 1
gene  1 5 10 1.3597796081132951 0 20.0 1.3597796081132951 1
gene  2 5 12 5.3941979301902405 0 46.0 5.3941979301902405 1
gene  2 2 10 1.2039888854951937 0 94.0 1.2039888854951937 1
gene  1 1 75 0.4617061466942216 0 323.0 0.4617061466942216 1
gene  1 75 4 6.25057841201767 0 324.0 6.25057841201767 1
gene  1 5 75 -3.643548502765279 0 459.0 -3.643548502765279 1
gene  1 1 172 2.97779937314361 0 811.0 2.97779937314361 0
gene  3 172 10 0.6600393212145669 0 812.0 0.6600393212145669 1
gene  3 12 75 -2.9035090807243216 0 1102.0 -2.9035090807243216 1
gene  2 2 266 0.5681624350536638 0 1200.0 0.5681624350536638 1
gene  2 266 10 0.5992395948456144 0 1201.0 0.5992395948456144 1
gene  3 12 316 -3.1445979085614923 0 1411.0 -3.1445979085614923 1
gene  3 316 75 -2.400803832200982 0 1412.0 -2.400803832200982 1
gene  1 266 4 -10.329019200055116 0 1529.0 -10.329019200055116 1
gene  1 5 376 -2.649054024998955 0 1686.0 -2.649054024998955 1
gene  1 376 10 -8.097468989381255 0 1687.0 -8.097468989381255 1
gene  2 266 316 2.0515320926232734 0 1736.0 2.0515320926232734 1
gene  2 1 266 -2.9057109265900367 0 1835.0 -2.9057109265900367 1
gene  1 12 376 -1.1031899614500253 0 1879.0 -1.1031899614500253 1
gene  3 3 316 -2.2981218662919707 0 1898.0 -2.2981218662919707 1
gene  1 316 172 6.657842786475564 0 1987.0 6.657842786475564 1
gene  2 12 4 3.223466931305743 0 2006.0 3.223466931305743 1
gene  1 172 75 5.437439295512796 0 2018.0 5.437439295512796 1
gene  2 266 12 -3.9552035346726764 0 2181.0 -3.9552035346726764 1
gene  2 3 376 1.6550768923198733 0 2207.0 1.6550768923198733 1
gene  2 376 316 1.1685266287348481 0 2298.0 1.1685266287348481 1
gene  1 1 533 -4.513173709558668 0 2410.0 -4.513173709558668 1
gene  1 533 12 -2.1296441396593138 0 2411.0 -2.1296441396593138 1
gene  3 5 316 3.4245641141428766 0 2467.0 3.4245641141428766 1
gene  3 376 75 -1.2568001253649708 0 2603.0 -1.2568001253649708 1
gene  1 376 4 -0.4360166541002272 0 2668.0 -0.4360166541002272 1
gene  2 3 533 -1.7952687793786453 0 2681.0 -1.7952687793786453 1
