/* Species # 007         : (size= 003) (AvfFit= 5,661) (Age= 93,000)  */
/*-------------------------------------------------------------------*/
/* Organism # 000 Fitness:  3,981 Error:  2,005                      */
genomestart  0
trait 1 0.8852445140920412 0.4100005836106212 0.0 0.0 0.0 0.0 0.0 0.0 
trait 2 0.1 0.0 0.2745656836152613 0.8163729433678998 0.0 0.3301629726161752 0.4434326801698363 0.0 
trait 3 0.1770668262601972 0.0 1.1646136890459076 0.0 0.2879334855204876 0.0 0.305630474635493 0.0 
node 1 1 1 1
node 2 1 1 1
node 3 2 1 3
node 4 1 0 2
node 12 2 0 0
node 14 1 0 0
node 15 2 0 0
node 193 1 0 0
node 298 1 0 0
node 390 1 0 0
gene  1 1 4 -11.684115738446064 0 1.0 -11.684115738446064 0
gene  2 2 4 -9.521354952964973 0 2.0 -9.521354952964973 1
gene  1 3 4 12.218589220373751 0 3.0 12.218589220373751 1
gene  1 1 14 1.1371847804435065 0 35.0 1.1371847804435065 1
gene  2 14 4 -1.07640731134543 0 36.0 -1.07640731134543 1
gene  1 1 15 -1.212168198006254 0 40.0 -1.212168198006254 1
gene  2 15 12 -0.9664085845784584 0 41.0 -0.9664085845784584 1
gene  3 3 15 3.6636709578673816 0 92.0 3.6636709578673816 1
gene  3 2 15 9.916004423889836 0 159.0 9.916004423889836 1
gene  2 2 12 1.4181399618478385 0 208.0 1.4181399618478385 1
gene  1 14 15 10.21104409103136 0 399.0 10.21104409103136 1
gene  2 4 15 4.37331153970488 0 639.0 4.37331153970488 0
gene  2 3 12 -10.19272490077749 0 902.0 -10.19272490077749 1
gene  1 1 193 -11.298428040723667 0 946.0 -11.298428040723667 1
gene  1 193 4 -0.30633310813227593 0 947.0 -0.30633310813227593 1
gene  3 3 14 5.538729158308695 0 965.0 5.538729158308695 1
gene  1 3 193 8.97416801617957 0 1134.0 8.97416801617957 1
gene  3 193 15 -0.03601007922136246 0 1158.0 -0.03601007922136246 1
gene  3 2 193 -1.6777573176569507 0 1200.0 -1.6777573176569507 1
gene  1 1 298 2.594673059007001 0 1419.0 2.594673059007001 1
gene  1 298 15 -2.2113184294636676 0 1420.0 -2.2113184294636676 1
gene  2 4 390 -1.167340091160817 0 1783.0 -1.167340091160817 1
gene  2 390 15 2.5796151348775016 0 1784.0 2.5796151348775016 1
genomeend 0
/* Organism # 001 Fitness:  4,003 Error:  1,999                      */
genomestart  1
trait 1 0.8852445140920412 0.4100005836106212 0.0 0.0 0.0 0.0 0.0 0.0 
trait 2 0.1 0.0 0.2745656836152613 0.8163729433678998 0.0 0.3301629726161752 0.4434326801698363 0.0 
trait 3 0.1770668262601972 0.0 1.1646136890459076 0.0 0.2879334855204876 0.0 0.305630474635493 0.0 
node 1 1 1 1
node 2 1 1 1
node 3 2 1 3
node 4 1 0 2
node 12 2 0 0
node 14 1 0 0
node 15 2 0 0
node 193 1 0 0
node 298 1 0 0
node 390 1 0 0
gene  1 1 4 -10.747312080961771 0 1.0 -10.747312080961771 0
gene  2 2 4 -11.965717154051255 0 2.0 -11.965717154051255 1
gene  1 3 4 11.71223131243121 0 3.0 11.71223131243121 1
gene  1 1 14 1.7564406379598465 0 35.0 1.7564406379598465 1
gene  2 14 4 -3.5206039476932767 0 36.0 -3.5206039476932767 1
gene  1 1 15 -0.7727490010782001 0 40.0 -0.7727490010782001 1
gene  2 15 12 0.8726616189220632 0 41.0 0.8726616189220632 1
gene  3 3 15 2.2921719859227667 0 92.0 2.2921719859227667 1
gene  3 2 15 12.280963032018475 0 159.0 12.280963032018475 1
gene  2 2 12 1.4514016845350985 0 208.0 1.4514016845350985 1
gene  1 14 15 10.313373438547142 0 399.0 10.313373438547142 1
gene  2 4 15 2.5796151348775016 0 639.0 2.5796151348775016 0
gene  2 3 12 -7.991787428369298 0 902.0 -7.991787428369298 1
gene  1 1 193 -11.949354356742365 0 946.0 -11.949354356742365 1
gene  1 193 4 -0.5270670506194541 0 947.0 -0.5270670506194541 1
gene  3 3 14 5.925634092314182 0 965.0 5.925634092314182 1
gene  1 3 193 8.74138287025406 0 1134.0 8.74138287025406 1
gene  3 193 15 2.2921000604139286 0 1158.0 2.2921000604139286 1
gene  3 2 193 -2.290910716726405 0 1200.0 -2.290910716726405 1
gene  1 1 298 2.594673059007001 0 1419.0 2.594673059007001 1
gene  1 298 15 -0.8275687406744603 0 1420.0 -0.8275687406744603 1
gene  2 4 390 1.0 0 1783.0 0.0 1
gene  2 390 15 2.5796151348775016 0 1784.0 0.0 1
gene  3 298 4 -9.637294122943795 0 1807.0 -9.637294122943795 1
genomeend 1
/* Organism # 002 Fitness:  9,000 Error:  1,000                      */
genomestart  2
trait 1 0.8852445140920412 0.4100005836106212 0.0 0.0 0.0 0.0 0.0 0.0 
trait 2 0.1 0.0 0.2745656836152613 0.8163729433678998 0.0 0.3301629726161752 0.4434326801698363 0.0 
trait 3 0.1770668262601972 0.0 1.1646136890459076 0.0 0.2879334855204876 0.0 0.305630474635493 0.0 
node 1 1 1 1
node 2 1 1 1
node 3 2 1 3
node 4 1 0 2
node 12 2 0 0
node 14 1 0 0
node 15 2 0 0
node 193 1 0 0
node 298 1 0 0
node 390 1 0 0
gene  1 1 4 -8.62284642863239 0 1.0 -8.62284642863239 0
gene  2 2 4 -13.336460570603204 0 2.0 -13.336460570603204 1
gene  1 3 4 13.053554346486914 0 3.0 13.053554346486914 1
gene  1 1 14 2.1405291272537985 0 35.0 2.1405291272537985 1
gene  2 14 4 -3.4466914765998724 0 36.0 -3.4466914765998724 1
gene  1 1 15 -0.7727490010782001 0 40.0 -0.7727490010782001 1
gene  2 15 12 -0.25380610169451734 0 41.0 -0.25380610169451734 1
gene  3 3 15 2.282828802486178 0 92.0 2.282828802486178 1
gene  3 2 15 12.441003267362976 0 159.0 12.441003267362976 1
gene  2 2 12 0.7916968742185968 0 208.0 0.7916968742185968 1
gene  1 14 15 10.313373438547142 0 399.0 10.313373438547142 1
gene  2 4 15 1.7465799582764086 0 639.0 1.7465799582764086 0
gene  2 3 12 2.14120841423691 0 902.0 2.14120841423691 1
gene  1 1 193 1.3387630498226486 0 946.0 1.3387630498226486 1
gene  1 193 4 -0.5270670506194541 0 947.0 -0.5270670506194541 1
gene  3 3 14 3.5342348445286103 0 965.0 3.5342348445286103 1
gene  1 3 193 7.8742040192585945 0 1134.0 7.8742040192585945 1
gene  3 193 15 1.448495412275045 0 1158.0 1.448495412275045 1
gene  2 2 193 -1.0420461766219244 0 1200.0 -1.0420461766219244 1
gene  1 1 298 0.7559199738476874 0 1419.0 0.7559199738476874 1
gene  1 298 15 -0.8275687406744603 0 1420.0 -0.8275687406744603 1
gene  2 4 390 2.5529679131433793 0 1783.0 2.5529679131433793 1
gene  2 390 15 2.5796151348775016 0 1784.0 2.5796151348775016 1
genomeend 2
/*-------------------------------------------------------------------*/
/* Species # 010         : (size= 005) (AvfFit= 9,000) (Age= 92,000)  */
/*-------------------------------------------------------------------*/
/* Organism # 003 Fitness:  9,000 Error:  1,000                      */
genomestart  3
trait 1 0.1 0.0 0.475284408634976 0.4634245404460393 0.0 0.0 0.5454613617079802 0.0 
trait 2 0.2 0.7428131076073421 0.0 0.6194596212085887 0.0 0.0 0.0 0.0 
trait 3 0.0 0.0 0.49640954461309594 0.0 0.0 0.5634905550359267 0.802104184087284 0.0 
node 1 3 1 1
node 2 2 1 1
node 3 2 1 3
node 4 2 0 2
node 5 1 0 0
node 7 2 0 0
node 12 1 0 0
gene  1 1 4 -16.300523374914913 0 1.0 -16.300523374914913 1
gene  1 2 4 28.4323764292956 0 2.0 28.4323764292956 1
gene  3 3 4 -28.285191973001687 0 3.0 -28.285191973001687 1
gene  1 1 5 -4.704065196729386 0 4.0 -4.704065196729386 1
gene  1 5 4 0.19706333691584765 0 5.0 0.19706333691584765 1
gene  1 1 7 -1.972322479511909 0 10.0 -1.972322479511909 1
gene  1 7 4 1.9619372532137347 0 11.0 1.9619372532137347 1
gene  1 1 12 -1.4873429821645436 0 25.0 -1.4873429821645436 1
gene  1 12 4 7.3696602135844165 0 26.0 7.3696602135844165 1
gene  2 2 7 -0.7795353735638803 0 577.0 -0.7795353735638803 1
gene  2 5 7 -2.716310952719814 0 686.0 -2.716310952719814 1
gene  2 12 7 -2.2363411385448977 0 725.0 -2.2363411385448977 1
gene  1 3 7 -3.7024310769745714 0 1045.0 -3.7024310769745714 1
gene  3 5 12 -6.5931256735759405 0 1249.0 -6.5931256735759405 1
gene  2 3 5 -0.7939862299570395 0 1379.0 -0.7939862299570395 1
gene  3 3 12 0.3800011909767506 0 1463.0 0.3800011909767506 1
gene  3 2 5 7.6811837073660705 0 1733.0 7.6811837073660705 1
gene  1 2 12 -5.535515356845072 0 1793.0 -5.535515356845072 1
genomeend 3
/* Organism # 004 Fitness:  9,000 Error:  1,000                      */
genomestart  4
trait 1 0.1 0.0 0.475284408634976 0.4634245404460393 0.0 0.0 0.5454613617079802 0.0 
trait 2 0.2 0.7428131076073421 0.0 0.6194596212085887 0.0 0.0 0.0 0.0 
trait 3 0.0 0.0 0.49640954461309594 0.0 0.0 0.5634905550359267 0.802104184087284 0.0 
node 1 3 1 1
node 2 2 1 1
node 3 2 1 3
node 4 2 0 2
node 5 1 0 0
node 7 2 0 0
node 12 3 0 0
gene  1 1 4 -14.882750315152947 0 1.0 -14.882750315152947 1
gene  1 2 4 28.002666980524246 0 2.0 28.002666980524246 1
gene  3 3 4 -26.645209409629185 0 3.0 -26.645209409629185 1
gene  1 1 5 -3.5905412904108234 0 4.0 -3.5905412904108234 1
gene  1 5 4 -2.2697840957914726 0 5.0 -2.2697840957914726 1
gene  1 1 7 -2.22377631019309 0 10.0 -2.22377631019309 1
gene  1 7 4 1.201942620977632 0 11.0 1.201942620977632 1
gene  1 1 12 -3.24837936617295 0 25.0 -3.24837936617295 1
gene  1 12 4 8.450439257980397 0 26.0 8.450439257980397 1
gene  2 2 7 0.9026215589340248 0 577.0 0.9026215589340248 1
gene  2 5 7 -2.172356018226489 0 686.0 -2.172356018226489 1
gene  2 12 7 -3.372969226836438 0 725.0 -3.372969226836438 1
gene  1 3 7 -3.5200593838686416 0 1045.0 -3.5200593838686416 1
gene  3 5 12 -8.870774614062887 0 1249.0 -8.870774614062887 1
gene  2 3 5 -0.7939862299570395 0 1379.0 -0.7939862299570395 1
gene  3 3 12 1.7848927854241625 0 1463.0 1.7848927854241625 1
gene  3 2 5 7.6811837073660705 0 1733.0 7.6811837073660705 1
genomeend 4
/* Organism # 005 Fitness:  9,000 Error:  1,000                      */
genomestart  5
trait 1 0.1 0.0 0.475284408634976 0.4634245404460393 0.0 0.0 0.5454613617079802 0.0 
trait 2 0.2 0.7428131076073421 0.0 0.6194596212085887 0.0 0.0 0.0 0.0 
trait 3 0.0 0.0 0.49640954461309594 0.0 0.0 0.5634905550359267 0.802104184087284 0.0 
node 1 3 1 1
node 2 2 1 1
node 3 2 1 3
node 4 2 0 2
node 5 1 0 0
node 7 2 0 0
node 12 1 0 0
gene  1 1 4 -14.186149738786668 0 1.0 -14.186149738786668 1
gene  1 2 4 26.10942681097954 0 2.0 26.10942681097954 1
gene  3 3 4 -28.60339762776297 0 3.0 -28.60339762776297 1
gene  1 1 5 -5.277882714663455 0 4.0 -5.277882714663455 1
gene  1 5 4 2.207707587547613 0 5.0 2.207707587547613 1
gene  1 1 7 -2.746239121658661 0 10.0 -2.746239121658661 1
gene  1 7 4 0.6907459749123621 0 11.0 0.6907459749123621 1
gene  1 1 12 -1.7059113346170596 0 25.0 -1.7059113346170596 1
gene  1 12 4 9.308437824642194 0 26.0 9.308437824642194 1
gene  2 2 7 1.573675323945091 0 577.0 1.573675323945091 1
gene  2 5 7 -0.5768456566693367 0 686.0 -0.5768456566693367 1
gene  2 12 7 -0.288615666037467 0 725.0 -0.288615666037467 1
gene  1 3 7 -2.3295343863589464 0 1045.0 -2.3295343863589464 1
gene  3 5 12 -6.6082298619513615 0 1249.0 -6.6082298619513615 1
gene  2 3 5 -0.28131076842502134 0 1379.0 -0.28131076842502134 1
gene  3 3 12 0.3800011909767506 0 1463.0 0.3800011909767506 1
gene  2 2 5 8.400140672136892 0 1733.0 8.400140672136892 1
genomeend 5
/* Organism # 006 Fitness:  9,000 Error:  1,000                      */
genomestart  6
trait 1 0.1 0.0 0.475284408634976 0.4634245404460393 0.0 0.0 0.5454613617079802 0.0 
trait 2 0.2 0.7428131076073421 0.0 0.6194596212085887 0.0 0.0 0.0 0.0 
trait 3 0.0 0.0 0.49640954461309594 0.0 0.0 0.5634905550359267 0.802104184087284 0.0 
node 1 3 1 1
node 2 2 1 1
node 3 2 1 3
node 4 2 0 2
node 5 1 0 0
node 7 2 0 0
node 12 1 0 0
gene  1 1 4 -14.027143297956158 0 1.0 -14.027143297956158 1
gene  1 2 4 28.29058359622234 0 2.0 28.29058359622234 1
gene  3 3 4 -26.146254450089764 0 3.0 -26.146254450089764 1
gene  1 1 5 -3.3291242385459165 0 4.0 -3.3291242385459165 1
gene  3 5 4 -1.5078307619536577 0 5.0 -1.5078307619536577 1
gene  1 1 7 0.17292147717298434 0 10.0 0.17292147717298434 1
gene  1 7 4 0.11220088637028702 0 11.0 0.11220088637028702 1
gene  1 1 12 -1.7034917347005525 0 25.0 -1.7034917347005525 1
gene  1 12 4 9.13760349007199 0 26.0 9.13760349007199 1
gene  2 2 7 -1.2145827108688936 0 577.0 -1.2145827108688936 1
gene  2 5 7 -1.7342288689303365 0 686.0 -1.7342288689303365 1
gene  2 12 7 -2.601699351925485 0 725.0 -2.601699351925485 1
gene  1 3 7 -2.251639780205473 0 1045.0 -2.251639780205473 1
gene  3 5 12 -4.368808083154569 0 1249.0 -4.368808083154569 1
gene  2 3 5 -2.0024901823023074 0 1379.0 -2.0024901823023074 1
gene  3 3 12 0.12635155777001583 0 1463.0 0.12635155777001583 1
gene  3 2 5 7.6811837073660705 0 1733.0 7.6811837073660705 1
genomeend 6
/* Organism # 007 Fitness:  9,000 Error:  1,000                      */
genomestart  7
trait 1 0.1 0.0 0.475284408634976 0.4634245404460393 0.0 0.0 0.5454613617079802 0.0 
trait 2 0.2 0.7428131076073421 0.0 0.6194596212085887 0.0 0.0 0.0 0.0 
trait 3 0.0 0.0 0.49640954461309594 0.0 0.0 0.5634905550359267 0.802104184087284 0.0 
node 1 3 1 1
node 2 2 1 1
node 3 2 1 3
node 4 2 0 2
node 5 1 0 0
node 7 2 0 0
node 12 1 0 0
gene  1 1 4 -16.300523374914913 0 1.0 -16.300523374914913 1
gene  1 2 4 28.4323764292956 0 2.0 28.4323764292956 1
gene  3 3 4 -28.285191973001687 0 3.0 -28.285191973001687 1
gene  1 1 5 -4.704065196729386 0 4.0 -4.704065196729386 1
gene  1 5 4 0.19706333691584765 0 5.0 0.19706333691584765 1
gene  1 1 7 -1.972322479511909 0 10.0 -1.972322479511909 1
gene  1 7 4 1.9619372532137347 0 11.0 1.9619372532137347 1
gene  1 1 12 -1.4873429821645436 0 25.0 -1.4873429821645436 1
gene  1 12 4 7.3696602135844165 0 26.0 7.3696602135844165 1
gene  2 2 7 -0.7795353735638803 0 577.0 -0.7795353735638803 1
gene  2 5 7 -2.716310952719814 0 686.0 -2.716310952719814 1
gene  2 12 7 -2.2363411385448977 0 725.0 -2.2363411385448977 1
gene  1 3 7 -3.7024310769745714 0 1045.0 -3.7024310769745714 1
gene  3 5 12 -6.5931256735759405 0 1249.0 -6.5931256735759405 1
gene  2 3 5 -0.7939862299570395 0 1379.0 -0.7939862299570395 1
gene  3 3 12 0.3800011909767506 0 1463.0 0.3800011909767506 1
gene  1 2 5 7.6811837073660705 0 1733.0 7.6811837073660705 1
genomeend 7
/*-------------------------------------------------------------------*/
/* Species # 015         : (size= 005) (AvfFit= 8,000) (Age= 89,000)  */
/*-------------------------------------------------------------------*/
/* Organism # 008 Fitness:  9,000 Error:  1,000                      */
genomestart  8
trait 1 0.0 0.2980083218285674 0.6146215069883705 0.0 0.48642945093834966 0.44555401132109973 0.0 0.0 
trait 2 0.0 1.5630735477747089 2.024216100331159 0.13817939604982676 0.20243028698447807 0.18474239773516177 0.6779028454363701 0.3632018802468182 
trait 3 0.3 0.2808502343399747 0.0 0.0 0.0 0.0 0.0 0.0 
node 1 1 1 1
node 2 2 1 1
node 3 1 1 3
node 4 2 0 2
node 12 1 0 0
node 14 1 0 0
node 22 2 0 0
node 190 1 0 0
gene  3 1 4 0.9414613550263506 0 1.0 0.9414613550263506 1
gene  2 2 4 -17.81147217894405 0 2.0 -17.81147217894405 1
gene  2 3 4 21.159331148468738 0 3.0 21.159331148468738 1
gene  1 1 12 -5.073600168046514 0 25.0 -5.073600168046514 1
gene  1 1 14 15.315332372141008 0 35.0 15.315332372141008 1
gene  1 14 4 -14.227391298971929 0 36.0 -14.227391298971929 1
gene  1 1 22 1.3058651310818272 0 74.0 1.3058651310818272 1
gene  1 22 12 -7.566022420468156 0 75.0 -7.566022420468156 1
gene  3 2 12 2.8091050882754933 0 135.0 2.8091050882754933 1
gene  3 4 12 9.508649127596259 0 784.0 9.508649127596259 1
gene  2 1 190 6.582206697895357 0 924.0 6.582206697895357 1
gene  1 190 14 18.488952887188884 0 925.0 18.488952887188884 1
gene  2 3 22 9.112172511787694 0 974.0 9.112172511787694 1
gene  1 190 22 -3.5129158789580033 0 1021.0 -3.5129158789580033 1
gene  3 2 22 3.247660953563507 0 1148.0 3.247660953563507 1
gene  1 190 12 2.914741180502028 0 1175.0 2.914741180502028 1
gene  1 22 14 3.0242671952062423 0 1498.0 3.0242671952062423 1
gene  3 3 14 -1.4100568048602127 0 1526.0 -1.4100568048602127 1
gene  2 2 14 -1.9378893567200663 0 1552.0 -1.9378893567200663 1
gene  3 14 12 0.282217504700662 0 1754.0 0.282217504700662 1
gene  3 3 190 0.030966538402075194 0 1794.0 0.030966538402075194 1
genomeend 8
/* Organism # 009 Fitness:  9,000 Error:  1,000                      */
genomestart  9
trait 1 0.0 0.2980083218285674 1.5375338389385709 0.0 0.0 0.44555401132109973 0.0 0.7903772864592652 
trait 2 0.0 1.1204007568616854 1.1172044103779508 0.0 0.0 0.0 0.6779028454363701 0.3632018802468182 
trait 3 0.3 0.2808502343399747 0.0 0.0 0.0 0.0 0.0 0.0 
node 1 1 1 1
node 2 2 1 1
node 3 1 1 3
node 4 2 0 2
node 12 1 0 0
node 14 1 0 0
node 22 2 0 0
node 190 1 0 0
gene  3 1 4 0.7404366653542964 0 1.0 0.7404366653542964 1
gene  2 2 4 -20.172235772668124 0 2.0 -20.172235772668124 1
gene  2 3 4 22.26027610481418 0 3.0 22.26027610481418 1
gene  1 1 12 -2.1617330370734837 0 25.0 -2.1617330370734837 1
gene  1 1 14 15.675245187728349 0 35.0 15.675245187728349 1
gene  1 14 4 -12.708115679500569 0 36.0 -12.708115679500569 1
gene  1 1 22 4.384254790743265 0 74.0 4.384254790743265 1
gene  1 22 12 1.845966965763707 0 75.0 1.845966965763707 1
gene  3 2 12 0.3113048237648197 0 135.0 0.3113048237648197 1
gene  1 4 12 9.58807537411183 0 784.0 9.58807537411183 1
gene  2 1 190 4.195694263719966 0 924.0 4.195694263719966 1
gene  1 190 14 16.345751728063554 0 925.0 16.345751728063554 1
gene  2 3 22 8.116136899048787 0 974.0 8.116136899048787 1
gene  1 190 22 -1.4797112671404646 0 1021.0 -1.4797112671404646 1
gene  3 2 22 1.9666768098874523 0 1148.0 1.9666768098874523 1
gene  1 190 12 -2.4953830435181104 0 1175.0 -2.4953830435181104 1
gene  1 22 14 -2.2113017769210357 0 1498.0 -2.2113017769210357 1
gene  3 3 14 0.20438816278951644 0 1526.0 0.20438816278951644 1
gene  2 2 14 -4.604887756686632 0 1552.0 -4.604887756686632 1
genomeend 9
/* Organism # 010 Fitness:  9,000 Error:  1,000                      */
genomestart  10
trait 1 0.0 0.2980083218285674 0.6146215069883705 0.0 0.48642945093834966 0.44555401132109973 0.0 0.0 
trait 2 0.0 1.5630735477747089 2.024216100331159 0.13817939604982676 0.43053702065321486 0.0 0.6779028454363701 0.9875487980728045 
trait 3 0.3 0.2808502343399747 0.0 0.0 0.0 0.0 0.0 0.0 
node 1 1 1 1
node 2 2 1 1
node 3 1 1 3
node 4 2 0 2
node 12 1 0 0
node 14 1 0 0
node 22 2 0 0
node 190 1 0 0
gene  3 1 4 -1.2088997835726882 0 1.0 -1.2088997835726882 1
gene  2 2 4 -18.584533880503198 0 2.0 -18.584533880503198 1
gene  2 3 4 19.136015896975046 0 3.0 19.136015896975046 1
gene  1 1 12 -3.0771625108951968 0 25.0 -3.0771625108951968 1
gene  1 1 14 17.171087776242793 0 35.0 17.171087776242793 1
gene  1 14 4 -11.745630629981171 0 36.0 -11.745630629981171 1
gene  1 1 22 2.9614114053752187 0 74.0 2.9614114053752187 1
gene  1 22 12 -7.05671438753553 0 75.0 -7.05671438753553 1
gene  3 2 12 1.282335372924417 0 135.0 1.282335372924417 1
gene  3 4 12 8.134885772521892 0 784.0 8.134885772521892 1
gene  2 1 190 8.239539430236718 0 924.0 8.239539430236718 1
gene  1 190 14 20.49386421426242 0 925.0 20.49386421426242 1
gene  2 3 22 -0.16769459852400942 0 974.0 -0.16769459852400942 1
gene  1 190 22 -3.430040071398217 0 1021.0 -3.430040071398217 1
gene  3 2 22 2.4684566921458657 0 1148.0 2.4684566921458657 1
gene  1 190 12 2.059068388984268 0 1175.0 2.059068388984268 1
gene  1 22 14 5.200212043011097 0 1498.0 5.200212043011097 1
gene  3 3 14 -0.4091504547814445 0 1526.0 -0.4091504547814445 1
gene  2 2 14 -1.8889106998762597 0 1552.0 -1.8889106998762597 1
gene  3 14 12 0.7614696398200776 0 1754.0 0.7614696398200776 1
genomeend 10
/* Organism # 011 Fitness:  9,000 Error:  1,000                      */
genomestart  11
trait 1 0.0 0.2980083218285674 0.6146215069883705 0.0 0.48642945093834966 0.44555401132109973 0.0 0.0 
trait 2 0.0 1.5630735477747089 2.024216100331159 0.13817939604982676 0.20243028698447807 0.18474239773516177 0.6779028454363701 0.3632018802468182 
trait 3 0.1984850650832402 1.04384530186675 0.0 0.0 0.6905593250749289 0.0 0.0 0.0 
node 1 1 1 1
node 2 2 1 1
node 3 1 1 3
node 4 2 0 2
node 12 1 0 0
node 14 1 0 0
node 22 2 0 0
node 190 1 0 0
gene  3 1 4 0.9456471017063067 0 1.0 0.9456471017063067 1
gene  2 2 4 -18.680741798445617 0 2.0 -18.680741798445617 1
gene  2 3 4 22.94249688207746 0 3.0 22.94249688207746 1
gene  1 1 12 -4.559664846294899 0 25.0 -4.559664846294899 1
gene  1 1 14 17.31054541138005 0 35.0 17.31054541138005 1
gene  1 14 4 -14.10918160091427 0 36.0 -14.10918160091427 1
gene  1 1 22 2.671601017046631 0 74.0 2.671601017046631 1
gene  1 22 12 -8.580022860026775 0 75.0 -8.580022860026775 1
gene  3 2 12 2.353071224342754 0 135.0 2.353071224342754 1
gene  3 4 12 7.486894930218346 0 784.0 7.486894930218346 1
gene  2 1 190 4.52538958026499 0 924.0 4.52538958026499 1
gene  1 190 14 18.849713889865516 0 925.0 18.849713889865516 1
gene  2 3 22 10.543798289752615 0 974.0 10.543798289752615 1
gene  1 190 22 -3.4123828789046873 0 1021.0 -3.4123828789046873 1
gene  3 2 22 3.4696244892316903 0 1148.0 3.4696244892316903 1
gene  1 190 12 4.178007951766867 0 1175.0 4.178007951766867 1
gene  1 22 14 2.0582186238139633 0 1498.0 2.0582186238139633 1
gene  3 3 14 -2.4921964367158904 0 1526.0 -2.4921964367158904 1
gene  2 2 14 -1.9378893567200663 0 1552.0 -1.9378893567200663 1
gene  3 14 12 0.282217504700662 0 1754.0 0.282217504700662 1
genomeend 11
/* Organism # 012 Fitness:  4,000 Error:  2,000                      */
genomestart  12
trait 1 0.0 0.2980083218285674 0.6146215069883705 0.0 0.48642945093834966 0.44555401132109973 0.0 0.0 
trait 2 0.0 1.1204007568616854 1.1172044103779508 0.0 0.0 0.0 0.6779028454363701 0.3632018802468182 
trait 3 0.3 0.2808502343399747 0.0 0.0 0.0 0.0 0.0 0.0 
node 1 1 1 1
node 2 2 1 1
node 3 1 1 3
node 4 2 0 2
node 12 1 0 0
node 14 1 0 0
node 22 2 0 0
node 190 1 0 0
gene  3 1 4 1.2420781430732015 0 1.0 1.2420781430732015 1
gene  2 2 4 -20.182061779799593 0 2.0 -20.182061779799593 1
gene  2 3 4 -2.1127834044501 0 3.0 -2.1127834044501 1
gene  1 1 12 -2.1617330370734837 0 25.0 -2.1617330370734837 1
gene  1 1 14 14.130608443408244 0 35.0 14.130608443408244 1
gene  1 14 4 -10.948804586006597 0 36.0 -10.948804586006597 1
gene  1 1 22 3.970783822189801 0 74.0 3.970783822189801 1
gene  1 22 12 0.9042319764738194 0 75.0 0.9042319764738194 1
gene  3 2 12 0.7685192367504523 0 135.0 0.7685192367504523 1
gene  1 4 12 0.459254513092352 0 784.0 0.459254513092352 1
gene  2 1 190 3.7145914875922714 0 924.0 3.7145914875922714 1
gene  1 190 14 14.228779140099885 0 925.0 14.228779140099885 1
gene  2 3 22 9.122299556074386 0 974.0 9.122299556074386 1
gene  1 190 22 0.6154408076252931 0 1021.0 0.6154408076252931 1
gene  3 2 22 1.076101849871677 0 1148.0 1.076101849871677 1
gene  1 190 12 -0.6793270231968431 0 1175.0 -0.6793270231968431 1
gene  1 22 14 -3.4723203784271433 0 1498.0 -3.4723203784271433 1
gene  3 3 14 2.200053780924458 0 1526.0 2.200053780924458 1
gene  2 2 14 -4.822804530677278 0 1552.0 -4.822804530677278 1
genomeend 12
/*-------------------------------------------------------------------*/
/* Species # 020         : (size= 005) (AvfFit= 8,134) (Age= 82,000)  */
/*-------------------------------------------------------------------*/
/* Organism # 013 Fitness:  3,998 Error:  2,000                      */
genomestart  13
trait 1 0.053125000000000006 0.4047272515755067 0.0 0.9208890756846675 0.513019520848363 1.3301646237021116 0.0 0.0 
trait 2 0.646487506324695 0.6027635205302301 0.13028134050159612 0.0 0.941534816419983 1.1261092808001494 0.0 0.0 
trait 3 0.16095373577986377 0.0 0.0 0.0 0.0 0.0 0.5268393200346156 0.0 
node 1 1 1 1
node 2 1 1 1
node 3 1 1 3
node 4 3 0 2
node 14 2 0 0
node 43 2 0 0
node 213 1 0 0
gene  1 1 4 -0.842356356012548 0 1.0 -0.842356356012548 1
gene  2 2 4 -2.9909313514865192 0 2.0 -2.9909313514865192 1
gene  3 3 4 0.44375718054491564 0 3.0 0.44375718054491564 1
gene  1 1 14 15.205001851502667 0 35.0 15.205001851502667 1
gene  1 14 4 5.378941162532223 0 36.0 5.378941162532223 1
gene  1 2 14 1.4691328233124188 0 149.0 1.4691328233124188 1
gene  1 1 43 -0.45653291288856424 0 175.0 -0.45653291288856424 1
gene  2 43 14 -5.1776208337786445 0 176.0 -5.1776208337786445 1
gene  1 3 43 -4.650872152047326 0 469.0 -4.650872152047326 1
gene  3 3 14 -2.4612117565303357 0 689.0 -2.4612117565303357 1
gene  2 43 4 -13.502949550156863 0 803.0 -13.502949550156863 1
gene  2 2 43 -12.238903978912994 0 900.0 -12.238903978912994 1
gene  1 1 213 -9.743150362830455 0 1030.0 -9.743150362830455 1
gene  2 213 4 5.520625024450588 0 1031.0 5.520625024450588 1
gene  2 43 213 -0.9616979937669584 0 1118.0 -0.9616979937669584 1
gene  1 3 213 1.2990311958516663 0 1367.0 1.2990311958516663 1
gene  3 14 213 9.019111759106018 0 1492.0 9.019111759106018 1
gene  2 2 213 -7.1330655105285725 0 1522.0 -7.1330655105285725 1
genomeend 13
/* Organism # 014 Fitness:  9,000 Error:  1,000                      */
genomestart  14
trait 1 0.053125000000000006 0.4047272515755067 0.0 0.9208890756846675 0.513019520848363 1.3301646237021116 0.0 0.0 
trait 2 0.646487506324695 0.6027635205302301 0.13028134050159612 0.0 0.941534816419983 1.1261092808001494 0.0 0.0 
trait 3 0.16095373577986377 0.0 0.0 0.0 0.0 0.0 0.5268393200346156 0.0 
node 1 1 1 1
node 2 1 1 1
node 3 1 1 3
node 4 3 0 2
node 14 2 0 0
node 43 2 0 0
node 213 1 0 0
gene  1 1 4 0.8818875427871351 0 1.0 0.8818875427871351 1
gene  2 2 4 -1.327714961941401 0 2.0 -1.327714961941401 1
gene  3 3 4 -0.2984685706880599 0 3.0 -0.2984685706880599 1
gene  1 1 14 17.971510402192052 0 35.0 17.971510402192052 1
gene  1 14 4 5.2482437282172905 0 36.0 5.2482437282172905 1
gene  1 2 14 3.820643859604171 0 149.0 3.820643859604171 1
gene  1 1 43 0.8923824997357774 0 175.0 0.8923824997357774 1
gene  2 43 14 1.4143032136699343 0 176.0 1.4143032136699343 1
gene  1 3 43 -4.068458195266566 0 469.0 -4.068458195266566 1
gene  3 3 14 -1.072619538329349 0 689.0 -1.072619538329349 1
gene  2 43 4 -14.669387286607783 0 803.0 -14.669387286607783 1
gene  2 2 43 -12.029788795724366 0 900.0 -12.029788795724366 1
gene  1 1 213 -0.5118440632465215 0 1030.0 -0.5118440632465215 1
gene  2 213 4 0.4545300653384757 0 1031.0 0.4545300653384757 1
gene  2 43 213 1.7034735005347144 0 1118.0 1.7034735005347144 1
gene  1 3 213 1.1857559977701981 0 1367.0 1.1857559977701981 1
gene  3 14 213 9.640418957953994 0 1492.0 9.640418957953994 1
gene  3 2 213 -6.2738691402661315 0 1522.0 -6.2738691402661315 1
genomeend 14
/* Organism # 015 Fitness:  9,671 Error:  0,890                      */
genomestart  15
trait 1 0.053125000000000006 0.4047272515755067 0.0 0.9208890756846675 0.513019520848363 1.3301646237021116 0.0 0.0 
trait 2 0.646487506324695 0.6027635205302301 0.13028134050159612 0.0 0.941534816419983 1.1261092808001494 0.0 0.0 
trait 3 0.16095373577986377 0.0 0.0 0.0 0.0 0.0 0.5268393200346156 0.0 
node 1 1 1 1
node 2 1 1 1
node 3 1 1 3
node 4 1 0 2
node 14 2 0 0
node 43 2 0 0
node 213 1 0 0
gene  1 1 4 -0.6483815927534147 0 1.0 -0.6483815927534147 1
gene  2 2 4 -2.748986175685582 0 2.0 -2.748986175685582 1
gene  3 3 4 -0.2256792469287771 0 3.0 -0.2256792469287771 1
gene  1 1 14 16.31943344242863 0 35.0 16.31943344242863 1
gene  1 14 4 2.881667718315247 0 36.0 2.881667718315247 1
gene  1 2 14 1.4929423775821484 0 149.0 1.4929423775821484 1
gene  1 1 43 -0.10708807693842715 0 175.0 -0.10708807693842715 1
gene  2 43 14 1.6280738948235065 0 176.0 1.6280738948235065 1
gene  1 3 43 -4.85578884096942 0 469.0 -4.85578884096942 1
gene  3 3 14 -3.063330569622988 0 689.0 -3.063330569622988 1
gene  2 43 4 -15.14606489451596 0 803.0 -15.14606489451596 1
gene  2 2 43 -10.319741942024626 0 900.0 -10.319741942024626 1
gene  1 1 213 -2.5461129703713423 0 1030.0 -2.5461129703713423 1
gene  2 213 4 1.2384771053940182 0 1031.0 1.2384771053940182 1
gene  2 43 213 2.3872836088993785 0 1118.0 2.3872836088993785 1
gene  1 3 213 -0.5811053947421809 0 1367.0 -0.5811053947421809 1
gene  3 14 213 8.402887203909962 0 1492.0 8.402887203909962 1
gene  2 2 213 -6.2738691402661315 0 1522.0 -6.2738691402661315 1
genomeend 15
/* Organism # 016 Fitness:  9,000 Error:  1,000                      */
genomestart  16
trait 1 0.053125000000000006 0.4047272515755067 0.0 0.9208890756846675 0.513019520848363 1.3301646237021116 0.0 0.0 
trait 2 0.646487506324695 0.6027635205302301 0.13028134050159612 0.0 0.941534816419983 1.1261092808001494 0.0 0.0 
trait 3 0.16095373577986377 0.0 0.0 0.0 0.0 0.0 0.5268393200346156 0.0 
node 1 1 1 1
node 2 1 1 1
node 3 1 1 3
node 4 3 0 2
node 14 2 0 0
node 43 2 0 0
node 213 1 0 0
gene  1 1 4 0.8818875427871351 0 1.0 0.8818875427871351 1
gene  2 2 4 -1.327714961941401 0 2.0 -1.327714961941401 1
gene  3 3 4 -0.2984685706880599 0 3.0 -0.2984685706880599 1
gene  1 1 14 17.971510402192052 0 35.0 17.971510402192052 1
gene  1 14 4 5.2482437282172905 0 36.0 5.2482437282172905 1
gene  1 2 14 3.820643859604171 0 149.0 3.820643859604171 1
gene  1 1 43 0.8923824997357774 0 175.0 0.8923824997357774 1
gene  2 43 14 1.4143032136699343 0 176.0 1.4143032136699343 1
gene  1 3 43 -4.068458195266566 0 469.0 -4.068458195266566 1
gene  3 3 14 -1.072619538329349 0 689.0 -1.072619538329349 1
gene  2 43 4 -14.669387286607783 0 803.0 -14.669387286607783 1
gene  2 2 43 -12.029788795724366 0 900.0 -12.029788795724366 1
gene  1 1 213 -0.5118440632465215 0 1030.0 -0.5118440632465215 1
gene  2 213 4 0.4545300653384757 0 1031.0 0.4545300653384757 1
gene  2 43 213 1.7034735005347144 0 1118.0 1.7034735005347144 1
gene  1 3 213 1.1857559977701981 0 1367.0 1.1857559977701981 1
gene  3 14 213 9.640418957953994 0 1492.0 9.640418957953994 1
gene  2 2 213 -6.2738691402661315 0 1522.0 -6.2738691402661315 1
genomeend 16
/* Organism # 017 Fitness:  9,000 Error:  1,000                      */
genomestart  17
trait 1 0.053125000000000006 0.4047272515755067 0.0 0.9208890756846675 0.513019520848363 1.3301646237021116 0.0 0.0 
trait 2 0.646487506324695 0.6027635205302301 0.13028134050159612 0.0 0.941534816419983 1.1261092808001494 0.0 0.0 
trait 3 0.16095373577986377 0.0 0.0 0.0 0.0 0.0 0.5268393200346156 0.0 
node 1 1 1 1
node 2 1 1 1
node 3 1 1 3
node 4 3 0 2
node 14 2 0 0
node 43 2 0 0
node 213 1 0 0
gene  1 1 4 -3.5302604492405187 0 1.0 -3.5302604492405187 1
gene  2 2 4 -3.30622014092255 0 2.0 -3.30622014092255 1
gene  3 3 4 -0.9687964790685906 0 3.0 -0.9687964790685906 1
gene  1 1 14 16.196226802487487 0 35.0 16.196226802487487 1
gene  1 14 4 4.490898536204439 0 36.0 4.490898536204439 1
gene  1 2 14 1.455524910936987 0 149.0 1.455524910936987 1
gene  1 1 43 3.0882850128125785 0 175.0 3.0882850128125785 1
gene  2 43 14 -7.440509447622184 0 176.0 -7.440509447622184 1
gene  1 3 43 -6.562263169111979 0 469.0 -6.562263169111979 1
gene  3 3 14 0.5292275664053929 0 689.0 0.5292275664053929 1
gene  2 43 4 -15.080210170718086 0 803.0 -15.080210170718086 1
gene  2 2 43 -8.182138979399921 0 900.0 -8.182138979399921 1
gene  1 1 213 -6.399699207789531 0 1030.0 -6.399699207789531 1
gene  2 213 4 4.545562011015697 0 1031.0 4.545562011015697 1
gene  2 43 213 3.109063706392734 0 1118.0 3.109063706392734 1
gene  1 3 213 0.44737115920091935 0 1367.0 0.44737115920091935 1
gene  3 14 213 8.149903622978455 0 1492.0 8.149903622978455 1
gene  2 2 213 -7.1330655105285725 0 1522.0 -7.1330655105285725 1
genomeend 17
/*-------------------------------------------------------------------*/
/* Species # 025         : (size= 006) (AvfFit= 8,165) (Age= 80,000)  */
/*-------------------------------------------------------------------*/
/* Organism # 018 Fitness:  9,000 Error:  1,000                      */
genomestart  18
trait 1 1.7334590430282564 0.2161180681235908 0.0 0.0 0.0 0.3549359367826768 0.0 0.0 
trait 2 0.2 0.0 0.0 0.0 0.0 0.0 0.0 0.0 
trait 3 0.0 0.440690988740321 0.0 0.01552558161925266 1.1307863304468155 0.0 0.0 0.0 
node 1 2 1 1
node 2 2 1 1
node 3 2 1 3
node 4 1 0 2
node 5 2 0 0
node 45 3 0 0
node 91 1 0 0
node 177 1 0 0
node 245 1 0 0
node 356 1 0 0
gene  1 1 4 -6.577076259116321 0 1.0 -6.577076259116321 1
gene  2 2 4 16.21234719345718 0 2.0 16.21234719345718 1
gene  2 3 4 -30.21796107498711 0 3.0 -30.21796107498711 1
gene  2 1 5 -0.5749105734640209 0 4.0 -0.5749105734640209 1
gene  2 5 4 1.7423555017497847 0 5.0 1.7423555017497847 1
gene  3 2 5 0.8641382366075107 0 8.0 0.8641382366075107 1
gene  1 3 5 1.672007881965555 0 152.0 1.672007881965555 1
gene  1 2 45 0.4044865031568464 0 180.0 0.4044865031568464 1
gene  2 45 4 1.883801986357729 0 181.0 1.883801986357729 1
gene  1 1 91 -2.9867035634271346 0 420.0 -2.9867035634271346 1
gene  1 91 5 6.117202101272532 0 421.0 6.117202101272532 0
gene  2 2 177 -4.171578874690382 0 854.0 -4.171578874690382 1
gene  2 177 4 -2.0085378783740833 0 855.0 -2.0085378783740833 1
gene  2 177 91 -0.2969560401790834 0 904.0 -0.2969560401790834 1
gene  3 177 45 -7.175594356219786 0 968.0 -7.175594356219786 0
gene  3 177 245 3.0345404475399143 0 1178.0 3.0345404475399143 1
gene  3 245 45 1.689489876096941 0 1179.0 1.689489876096941 1
gene  3 2 245 -1.7712362988116441 0 1272.0 -1.7712362988116441 1
gene  3 177 5 1.059266521764711 0 1392.0 1.059266521764711 1
gene  1 245 5 -5.229493216543854 0 1436.0 -5.229493216543854 1
gene  3 91 245 0.42192674411595243 0 1584.0 0.42192674411595243 1
gene  1 91 356 -0.1802625050993506 0 1639.0 -0.1802625050993506 1
gene  1 356 5 1.5036306853258048 0 1640.0 1.5036306853258048 1
genomeend 18
/* Organism # 019 Fitness:  9,000 Error:  1,000                      */
genomestart  19
trait 1 1.7334590430282564 0.2161180681235908 0.0 0.0 0.0 0.3549359367826768 0.0 0.0 
trait 2 0.2 0.0 0.0 0.0 0.0 0.0 0.0 0.0 
trait 3 0.0 0.440690988740321 0.0 0.01552558161925266 1.1307863304468155 0.0 0.0 0.0 
node 1 2 1 1
node 2 2 1 1
node 3 2 1 3
node 4 1 0 2
node 5 2 0 0
node 45 3 0 0
node 91 1 0 0
node 177 1 0 0
node 245 1 0 0
node 356 1 0 0
gene  1 1 4 -8.707840662828596 0 1.0 -8.707840662828596 1
gene  2 2 4 12.571038817786592 0 2.0 12.571038817786592 1
gene  2 3 4 -33.04513565445057 0 3.0 -33.04513565445057 1
gene  2 1 5 -0.2682981554087918 0 4.0 -0.2682981554087918 1
gene  2 5 4 0.22426453361482018 0 5.0 0.22426453361482018 1
gene  3 2 5 -1.2765172410453804 0 8.0 -1.2765172410453804 1
gene  1 3 5 -2.4445033984627775 0 152.0 -2.4445033984627775 1
gene  1 2 45 -1.4767548284788703 0 180.0 -1.4767548284788703 1
gene  2 45 4 -8.507958221547494 0 181.0 -8.507958221547494 1
gene  1 1 91 0.06791698673274449 0 420.0 0.06791698673274449 1
gene  1 91 5 4.308771105372234 0 421.0 4.308771105372234 0
gene  2 2 177 -2.015655730093848 0 854.0 -2.015655730093848 1
gene  2 177 4 -0.9392201244506879 0 855.0 -0.9392201244506879 1
gene  2 177 91 -3.14206480232663 0 904.0 -3.14206480232663 1
gene  3 177 45 1.5540654759406423 0 968.0 1.5540654759406423 0
gene  3 177 245 2.8790378979439186 0 1178.0 2.8790378979439186 1
gene  3 245 45 -4.62890595554707 0 1179.0 -4.62890595554707 1
gene  3 2 245 -3.6432805157062056 0 1272.0 -3.6432805157062056 1
gene  3 177 5 0.6426131058164047 0 1392.0 0.6426131058164047 1
gene  1 245 5 1.5448931500746474 0 1436.0 1.5448931500746474 1
gene  3 91 245 -1.5596946527398945 0 1584.0 -1.5596946527398945 1
gene  1 91 356 0.758260733255944 0 1639.0 0.758260733255944 1
gene  1 356 5 -4.261783303379632 0 1640.0 -4.261783303379632 1
genomeend 19
/* Organism # 020 Fitness:  4,000 Error:  2,000                      */
genomestart  20
trait 1 1.7334590430282564 0.2161180681235908 0.0 0.0 0.0 0.3549359367826768 0.0 0.0 
trait 2 0.2 0.0 0.0 0.0 0.0 0.0 0.0 0.0 
trait 3 0.0 0.440690988740321 0.0 0.01552558161925266 1.1307863304468155 0.0 0.0 0.0 
node 1 2 1 1
node 2 2 1 1
node 3 2 1 3
node 4 1 0 2
node 5 2 0 0
node 45 3 0 0
node 91 1 0 0
node 177 1 0 0
node 245 1 0 0
node 356 1 0 0
gene  1 1 4 -9.535235057007498 0 1.0 -9.535235057007498 1
gene  2 2 4 -0.5658626476041834 0 2.0 -0.5658626476041834 1
gene  2 3 4 -29.674892676829636 0 3.0 -29.674892676829636 1
gene  2 1 5 -1.5487554719114822 0 4.0 -1.5487554719114822 1
gene  2 5 4 -0.9323205539304356 0 5.0 -0.9323205539304356 1
gene  3 2 5 0.5908323223589734 0 8.0 0.5908323223589734 1
gene  1 3 5 -0.6079455524010771 0 152.0 -0.6079455524010771 1
gene  1 2 45 0.1753698119521785 0 180.0 0.1753698119521785 1
gene  2 45 4 -5.792227741781793 0 181.0 -5.792227741781793 1
gene  1 1 91 -2.1881623605579037 0 420.0 -2.1881623605579037 1
gene  1 91 5 4.291266407715962 0 421.0 4.291266407715962 0
gene  2 2 177 -1.16788266501598 0 854.0 -1.16788266501598 1
gene  2 177 4 -2.339238274305778 0 855.0 -2.339238274305778 1
gene  2 177 91 -0.8667734903072424 0 904.0 -0.8667734903072424 1
gene  3 177 45 1.7348984533922844 0 968.0 1.7348984533922844 0
gene  3 177 245 2.1335071930141885 0 1178.0 2.1335071930141885 1
gene  3 245 45 -2.441709244417465 0 1179.0 -2.441709244417465 1
gene  3 2 245 1.3476980953559603 0 1272.0 1.3476980953559603 1
gene  3 177 5 -0.6918183308643404 0 1392.0 -0.6918183308643404 1
gene  1 245 5 -0.9333721161194775 0 1436.0 -0.9333721161194775 1
gene  3 91 245 0.4648867799197612 0 1584.0 0.4648867799197612 1
gene  1 91 356 -0.18400284707032677 0 1639.0 -0.18400284707032677 1
gene  1 356 5 -2.791217511547941 0 1640.0 -2.791217511547941 1
genomeend 20
/* Organism # 021 Fitness:  8,991 Error:  1,002                      */
genomestart  21
trait 1 1.7334590430282564 0.2161180681235908 0.0 0.0 0.0 0.3549359367826768 0.0 0.0 
trait 2 0.2 0.0 0.0 0.0 0.0 0.0 0.0 0.0 
trait 3 0.0 0.440690988740321 0.0 0.01552558161925266 1.1307863304468155 0.0 0.0 0.0 
node 1 2 1 1
node 2 2 1 1
node 3 2 1 3
node 4 1 0 2
node 5 2 0 0
node 45 3 0 0
node 91 1 0 0
node 177 1 0 0
node 245 1 0 0
node 356 1 0 0
gene  1 1 4 -9.252679216575874 0 1.0 -9.252679216575874 1
gene  2 2 4 11.941568848532938 0 2.0 11.941568848532938 1
gene  2 3 4 -31.91818648727831 0 3.0 -31.91818648727831 1
gene  2 1 5 0.49409373484596486 0 4.0 0.49409373484596486 1
gene  2 5 4 -1.4387111723444135 0 5.0 -1.4387111723444135 1
gene  3 2 5 1.3117645330466234 0 8.0 1.3117645330466234 1
gene  1 3 5 -1.5289818841102487 0 152.0 -1.5289818841102487 1
gene  1 2 45 -1.1250766253192812 0 180.0 -1.1250766253192812 1
gene  2 45 4 -7.549278349552822 0 181.0 -7.549278349552822 1
gene  1 1 91 -0.9970702708087846 0 420.0 -0.9970702708087846 1
gene  1 91 5 1.343336103999916 0 421.0 1.343336103999916 0
gene  2 2 177 -4.234633641353634 0 854.0 -4.234633641353634 1
gene  2 177 4 -6.454116659172387 0 855.0 -6.454116659172387 1
gene  2 177 91 -4.713283401754448 0 904.0 -4.713283401754448 1
gene  3 177 45 -13.49131787973666 0 968.0 -13.49131787973666 0
gene  3 177 245 3.0040416100398883 0 1178.0 3.0040416100398883 1
gene  3 245 45 -4.8481461094620775 0 1179.0 -4.8481461094620775 1
gene  3 2 245 -1.8022883642238834 0 1272.0 -1.8022883642238834 1
gene  3 177 5 -0.38203032494623423 0 1392.0 -0.38203032494623423 1
gene  1 245 5 -2.735231386303464 0 1436.0 -2.735231386303464 1
gene  3 91 245 0.0111158199885808 0 1584.0 0.0111158199885808 1
gene  1 91 356 0.08185399814491484 0 1639.0 0.08185399814491484 1
gene  1 356 5 -2.5093887312214362 0 1640.0 -2.5093887312214362 1
genomeend 21
/* Organism # 022 Fitness:  9,000 Error:  1,000                      */
genomestart  22
trait 1 1.7334590430282564 0.2161180681235908 0.0 0.0 0.0 0.3549359367826768 0.0 0.0 
trait 2 0.2 0.0 0.0 0.0 0.0 0.0 0.0 0.0 
trait 3 0.0 0.440690988740321 0.0 0.01552558161925266 1.1307863304468155 0.0 0.0 0.0 
node 1 2 1 1
node 2 2 1 1
node 3 2 1 3
node 4 1 0 2
node 5 2 0 0
node 45 3 0 0
node 91 1 0 0
node 177 1 0 0
node 245 1 0 0
node 356 1 0 0
gene  1 1 4 -7.554072780862934 0 1.0 -7.554072780862934 1
gene  2 2 4 12.090509796755567 0 2.0 12.090509796755567 1
gene  2 3 4 -32.697835932706354 0 3.0 -32.697835932706354 1
gene  2 1 5 -1.1554349281139185 0 4.0 -1.1554349281139185 1
gene  2 5 4 -0.4561121112857087 0 5.0 -0.4561121112857087 1
gene  3 2 5 -0.35717930794210406 0 8.0 -0.35717930794210406 1
gene  1 3 5 -2.9663073493403362 0 152.0 -2.9663073493403362 1
gene  1 2 45 -1.7434129646741805 0 180.0 -1.7434129646741805 1
gene  2 45 4 -6.948408767164645 0 181.0 -6.948408767164645 1
gene  1 1 91 -5.137026565549263E-4 0 420.0 -5.137026565549263E-4 1
gene  1 91 5 3.7476208345076074 0 421.0 3.7476208345076074 0
gene  2 2 177 -0.982811337413348 0 854.0 -0.982811337413348 1
gene  2 177 4 -5.2584491134177025 0 855.0 -5.2584491134177025 1
gene  2 177 91 -5.298114699930132 0 904.0 -5.298114699930132 1
gene  2 177 45 -11.100671364136815 0 968.0 -11.100671364136815 0
gene  3 177 245 1.850446205483734 0 1178.0 1.850446205483734 1
gene  3 245 45 -4.646320161484197 0 1179.0 -4.646320161484197 1
gene  3 2 245 -5.715725228357069 0 1272.0 -5.715725228357069 1
gene  3 177 5 -3.939600025187787 0 1392.0 -3.939600025187787 1
gene  1 245 5 0.3147444793974369 0 1436.0 0.3147444793974369 1
gene  3 91 245 0.0111158199885808 0 1584.0 0.0111158199885808 1
gene  1 91 356 -0.18400284707032677 0 1639.0 -0.18400284707032677 1
gene  1 356 5 -2.526974032026883 0 1640.0 -2.526974032026883 1
genomeend 22
/* Organism # 023 Fitness:  9,000 Error:  1,000                      */
genomestart  23
trait 1 1.7334590430282564 0.2161180681235908 0.0 0.0 0.0 0.3549359367826768 0.0 0.0 
trait 2 0.2 0.0 0.0 0.0 0.0 0.0 0.0 0.0 
trait 3 0.0 0.440690988740321 0.0 0.01552558161925266 1.1307863304468155 0.0 0.0 0.0 
node 1 2 1 1
node 2 2 1 1
node 3 2 1 3
node 4 1 0 2
node 5 2 0 0
node 45 3 0 0
node 91 1 0 0
node 177 1 0 0
node 245 1 0 0
node 356 1 0 0
gene  1 1 4 -6.577076259116321 0 1.0 -6.577076259116321 1
gene  2 2 4 16.21234719345718 0 2.0 16.21234719345718 1
gene  2 3 4 -30.21796107498711 0 3.0 -30.21796107498711 1
gene  2 1 5 -0.5749105734640209 0 4.0 -0.5749105734640209 1
gene  2 5 4 1.7423555017497847 0 5.0 1.7423555017497847 1
gene  3 2 5 0.8641382366075107 0 8.0 0.8641382366075107 1
gene  1 3 5 1.672007881965555 0 152.0 1.672007881965555 1
gene  1 2 45 0.4044865031568464 0 180.0 0.4044865031568464 1
gene  2 45 4 1.883801986357729 0 181.0 1.883801986357729 1
gene  1 1 91 -2.9867035634271346 0 420.0 -2.9867035634271346 1
gene  1 91 5 6.117202101272532 0 421.0 6.117202101272532 0
gene  2 2 177 -4.171578874690382 0 854.0 -4.171578874690382 1
gene  2 177 4 -2.0085378783740833 0 855.0 -2.0085378783740833 1
gene  2 177 91 -0.2969560401790834 0 904.0 -0.2969560401790834 1
gene  3 177 45 -7.175594356219786 0 968.0 -7.175594356219786 0
gene  3 177 245 3.0345404475399143 0 1178.0 3.0345404475399143 1
gene  3 245 45 1.689489876096941 0 1179.0 1.689489876096941 1
gene  3 2 245 -1.7712362988116441 0 1272.0 -1.7712362988116441 1
gene  3 177 5 1.059266521764711 0 1392.0 1.059266521764711 1
gene  1 245 5 -5.229493216543854 0 1436.0 -5.229493216543854 1
gene  3 91 245 0.42192674411595243 0 1584.0 0.42192674411595243 1
gene  1 91 356 -0.1802625050993506 0 1639.0 -0.1802625050993506 1
gene  1 356 5 1.5036306853258048 0 1640.0 1.5036306853258048 1
gene  2 5 45 9.043400849272945 0 1801.0 9.043400849272945 1
genomeend 23
/*-------------------------------------------------------------------*/
/* Species # 029         : (size= 002) (AvfFit= 5,228) (Age= 77,000)  */
/*-------------------------------------------------------------------*/
/* Organism # 024 Fitness:  6,456 Error:  1,459                      */
genomestart  24
trait 1 1.755281616104779 0.0 0.0 0.07987668535116343 0.2401367280879267 0.04999579445779356 0.5173678652815354 0.0223559206539692 
trait 2 0.20738193200696514 0.0 0.5773563903809437 0.4752533357200238 0.04054567628505934 0.038997666672241915 0.8575199646330913 0.581170739607239 
trait 3 0.3 0.0 0.26970397889731224 0.0 0.0 0.0 0.0 0.0 
node 1 1 1 1
node 2 1 1 1
node 3 1 1 3
node 4 1 0 2
node 5 3 0 0
node 7 1 0 0
node 12 1 0 0
node 60 3 0 0
node 247 1 0 0
gene  1 1 4 -1.6704108778303426 0 1.0 -1.6704108778303426 1
gene  2 2 4 16.339761999829975 0 2.0 16.339761999829975 1
gene  3 3 4 5.2890649591339 0 3.0 5.2890649591339 1
gene  1 1 5 13.138836012995359 0 4.0 13.138836012995359 1
gene  1 5 4 0.1426980860630389 0 5.0 0.1426980860630389 1
gene  1 1 7 1.7267953472058735 0 10.0 1.7267953472058735 1
gene  1 7 4 1.494833595775533 0 11.0 1.494833595775533 1
gene  1 1 12 -1.9699771415729972 0 25.0 -1.9699771415729972 1
gene  2 12 4 -8.267779285738914 0 26.0 -8.267779285738914 1
gene  2 2 5 -3.7057723732792307 0 245.0 -3.7057723732792307 1
gene  1 1 60 0.8351371799706903 0 264.0 0.8351371799706903 1
gene  3 60 5 9.709456373600824 0 265.0 9.709456373600824 1
gene  3 3 7 -4.010149144695384 0 307.0 -4.010149144695384 1
gene  1 2 60 -2.591535209223847 0 380.0 -2.591535209223847 1
gene  3 3 5 -17.96918159681818 0 496.0 -17.96918159681818 1
gene  3 60 4 3.883087120928623 0 507.0 3.883087120928623 1
gene  1 3 12 -5.546775749392763 0 582.0 -5.546775749392763 1
gene  2 7 5 -7.192316476879855 0 909.0 -7.192316476879855 1
gene  1 12 60 1.7085152227215183 0 1025.0 1.7085152227215183 1
gene  1 2 247 -7.422163692743261 0 1184.0 -7.422163692743261 1
gene  1 247 60 3.2745512621093935 0 1185.0 3.2745512621093935 1
gene  1 7 12 -0.5495390886729499 0 1351.0 -0.5495390886729499 1
gene  3 247 5 1.5153275897904868 0 1364.0 1.5153275897904868 1
gene  2 7 60 -8.158175526786218 0 1480.0 -8.158175526786218 1
gene  1 12 247 -6.691874467297784 0 1645.0 -6.691874467297784 1
gene  2 12 5 1.2168451694873383 0 1787.0 1.2168451694873383 1
genomeend 24
/* Organism # 025 Fitness:  4,000 Error:  2,000                      */
genomestart  25
trait 1 0.9208127455428833 0.38671442279471413 0.0 0.07987668535116343 0.2401367280879267 0.0 0.1171753644430491 0.0223559206539692 
trait 2 0.20738193200696514 0.0 0.5773563903809437 0.4752533357200238 0.04054567628505934 0.038997666672241915 0.8575199646330913 0.581170739607239 
trait 3 0.3 0.0 0.26970397889731224 0.0 0.0 0.0 0.0 0.0 
node 1 1 1 1
node 2 1 1 1
node 3 1 1 3
node 4 1 0 2
node 5 3 0 0
node 7 1 0 0
node 12 1 0 0
node 60 3 0 0
node 247 1 0 0
gene  1 1 4 -0.09883685764474182 0 1.0 -0.09883685764474182 1
gene  2 2 4 15.400525648134183 0 2.0 15.400525648134183 1
gene  3 3 4 7.9061266903459035 0 3.0 7.9061266903459035 1
gene  1 1 5 12.654085965580752 0 4.0 12.654085965580752 1
gene  1 5 4 -0.7081584556443754 0 5.0 -0.7081584556443754 1
gene  1 1 7 -0.44907735458727016 0 10.0 -0.44907735458727016 1
gene  1 7 4 1.2704206307419834 0 11.0 1.2704206307419834 1
gene  1 1 12 -0.43779184415458094 0 25.0 -0.43779184415458094 1
gene  2 12 4 -6.026549980182456 0 26.0 -6.026549980182456 1
gene  2 2 5 -2.781606123586897 0 245.0 -2.781606123586897 1
gene  1 1 60 8.597410521308824 0 264.0 8.597410521308824 1
gene  3 60 5 11.81687100530414 0 265.0 11.81687100530414 1
gene  3 3 7 -6.97492703265406 0 307.0 -6.97492703265406 1
gene  1 2 60 -3.51190535800649 0 380.0 -3.51190535800649 1
gene  3 3 5 -17.645403873447563 0 496.0 -17.645403873447563 1
gene  3 60 4 3.911044090267794 0 507.0 3.911044090267794 1
gene  1 3 12 -7.716998115013208 0 582.0 -7.716998115013208 1
gene  2 7 5 -4.7898317709661615 0 909.0 -4.7898317709661615 1
gene  1 12 60 2.1948523318508237 0 1025.0 2.1948523318508237 1
gene  1 2 247 -5.246458623537709 0 1184.0 -5.246458623537709 1
gene  1 247 60 2.827851663337393 0 1185.0 2.827851663337393 1
gene  1 7 12 -1.9542496229055473 0 1351.0 -1.9542496229055473 1
gene  3 247 5 1.916219686746124 0 1364.0 1.916219686746124 1
gene  2 7 60 -7.024792712455374 0 1480.0 -7.024792712455374 1
gene  1 12 247 1.6122299519198497 0 1645.0 1.6122299519198497 1
gene  2 12 5 1.9049704741055309 0 1787.0 1.9049704741055309 1
genomeend 25
/*-------------------------------------------------------------------*/
/* Species # 030         : (size= 003) (AvfFit= 6,045) (Age= 76,000)  */
/*-------------------------------------------------------------------*/
/* Organism # 026 Fitness:  7,052 Error:  1,344                      */
genomestart  26
trait 1 0.24065012538159075 0.15036456107791457 0.40976602941731965 0.0594094503700963 0.6751227059609091 0.07082942154753001 0.0 0.0 
trait 2 0.0895784151568591 0.0 0.45696991777887563 0.0 0.0 0.0 0.0 0.0 
trait 3 0.0 0.0 0.37677259993549284 0.0 0.0 0.0 0.0 0.0 
node 1 1 1 1
node 2 1 1 1
node 3 2 1 3
node 4 1 0 2
node 5 1 0 0
node 7 1 0 0
node 11 3 0 0
node 54 1 0 0
node 326 1 0 0
node 359 2 0 0
gene  1 1 4 1.3317513854900112 0 1.0 1.3317513854900112 1
gene  2 2 4 -5.2806854814084785 0 2.0 -5.2806854814084785 1
gene  3 3 4 -1.4486362013337069 0 3.0 -1.4486362013337069 1
gene  3 1 5 -3.000613771586612 0 4.0 -3.000613771586612 1
gene  2 5 4 0.5268978240840405 0 5.0 0.5268978240840405 1
gene  1 2 5 2.4263234413589774 0 9.0 2.4263234413589774 1
gene  1 1 7 3.329486052334655 0 10.0 3.329486052334655 1
gene  2 7 4 5.909656047239551 0 11.0 5.909656047239551 1
gene  2 2 11 0.2019703139459954 0 23.0 0.2019703139459954 1
gene  2 11 4 -0.974256937269389 0 24.0 -0.974256937269389 1
gene  2 11 7 -2.7232012651302115 0 83.0 -2.7232012651302115 1
gene  3 1 54 -2.854570785375194 0 226.0 -2.854570785375194 1
gene  2 54 7 3.581250997646557 0 227.0 3.581250997646557 1
gene  2 54 11 2.607916065523126 0 454.0 2.607916065523126 1
gene  1 1 11 0.29368300609571296 0 649.0 0.29368300609571296 1
gene  2 5 7 6.081489612772183 0 931.0 6.081489612772183 1
gene  1 5 54 1.7428937671885631 0 1296.0 1.7428937671885631 1
gene  3 1 326 -3.0738744075884554 0 1518.0 -3.0738744075884554 1
gene  3 326 5 2.676213055923908 0 1519.0 2.676213055923908 1
gene  1 1 359 -1.4857515942534314 0 1646.0 -1.4857515942534314 1
gene  1 359 4 -1.3397996025506425 0 1647.0 -1.3397996025506425 1
gene  2 54 4 0.19201569616198322 0 1685.0 0.19201569616198322 1
gene  1 359 326 -1.2812893512400825 0 1773.0 -1.2812893512400825 1
gene  2 3 5 0.5532681085263478 0 1786.0 0.5532681085263478 1
genomeend 26
/* Organism # 027 Fitness:  4,000 Error:  2,000                      */
genomestart  27
trait 1 0.24065012538159075 0.15036456107791457 0.40976602941731965 0.0594094503700963 0.6751227059609091 0.07082942154753001 0.0 0.0 
trait 2 0.0895784151568591 0.0 0.45696991777887563 0.0 0.0 0.0 0.0 0.0 
trait 3 0.0 0.0 0.37677259993549284 0.0 0.0 0.0 0.0 0.0 
node 1 1 1 1
node 2 1 1 1
node 3 2 1 3
node 4 1 0 2
node 5 1 0 0
node 7 1 0 0
node 11 3 0 0
node 54 1 0 0
node 326 1 0 0
node 359 1 0 0
gene  1 1 4 2.4326831241735754 0 1.0 2.4326831241735754 0
gene  2 2 4 -4.540309666049975 0 2.0 -4.540309666049975 1
gene  3 3 4 -1.5927294166238997 0 3.0 -1.5927294166238997 1
gene  3 1 5 -0.7090039975006195 0 4.0 -0.7090039975006195 1
gene  2 5 4 3.157796319272685 0 5.0 3.157796319272685 1
gene  1 2 5 0.4760918733619268 0 9.0 0.4760918733619268 1
gene  1 1 7 3.063373428259767 0 10.0 3.063373428259767 1
gene  2 7 4 5.785703914636924 0 11.0 5.785703914636924 1
gene  2 2 11 -2.129192806917233 0 23.0 -2.129192806917233 1
gene  2 11 4 -0.011042190547532416 0 24.0 -0.011042190547532416 1
gene  2 11 7 -5.524507298813998 0 83.0 -5.524507298813998 1
gene  3 1 54 1.1103180209622645 0 226.0 1.1103180209622645 1
gene  2 54 7 2.848310345673883 0 227.0 2.848310345673883 1
gene  2 54 11 -2.077533169294096 0 454.0 -2.077533169294096 1
gene  1 1 11 -2.012179210699628 0 649.0 -2.012179210699628 1
gene  2 5 7 3.263268372065279 0 931.0 3.263268372065279 1
gene  1 5 54 -0.440737353644717 0 1296.0 -0.440737353644717 1
gene  3 1 326 -2.7802034776182074 0 1518.0 -2.7802034776182074 1
gene  3 326 5 -1.2265735530123836 0 1519.0 -1.2265735530123836 1
gene  1 1 359 -5.376662509714793 0 1646.0 -5.376662509714793 1
gene  1 359 4 -1.4450985345932315 0 1647.0 -1.4450985345932315 1
gene  2 54 4 1.6700628135416704 0 1685.0 1.6700628135416704 1
gene  1 359 326 -1.2812893512400825 0 1773.0 -1.2812893512400825 1
gene  2 3 5 5.264743617922797 0 1786.0 5.264743617922797 1
genomeend 27
/* Organism # 028 Fitness:  7,083 Error:  1,339                      */
genomestart  28
trait 1 0.24065012538159075 0.15036456107791457 0.40976602941731965 0.0594094503700963 0.6751227059609091 0.07082942154753001 0.0 0.0 
trait 2 0.0895784151568591 0.0 0.45696991777887563 0.0 0.0 0.0 0.0 0.0 
trait 3 0.0 0.0 0.37677259993549284 0.0 0.0 0.0 0.0 0.0 
node 1 1 1 1
node 2 1 1 1
node 3 2 1 3
node 4 1 0 2
node 5 1 0 0
node 7 1 0 0
node 11 3 0 0
node 54 1 0 0
node 326 1 0 0
node 359 1 0 0
gene  1 1 4 1.2884384997249685 0 1.0 1.2884384997249685 0
gene  2 2 4 -6.354323727064658 0 2.0 -6.354323727064658 1
gene  3 3 4 -3.160576206697638 0 3.0 -3.160576206697638 1
gene  3 1 5 -2.4595083263884483 0 4.0 -2.4595083263884483 1
gene  2 5 4 2.295307374890047 0 5.0 2.295307374890047 1
gene  1 2 5 1.637638068083062 0 9.0 1.637638068083062 1
gene  1 1 7 3.5775609070272454 0 10.0 3.5775609070272454 1
gene  2 7 4 6.494932440653805 0 11.0 6.494932440653805 1
gene  2 2 11 -1.3285615150176073 0 23.0 -1.3285615150176073 1
gene  2 11 4 -1.5419472393324096 0 24.0 -1.5419472393324096 1
gene  2 11 7 -4.706986329659791 0 83.0 -4.706986329659791 1
gene  3 1 54 -1.2049883831797692 0 226.0 -1.2049883831797692 1
gene  2 54 7 2.29824887780052 0 227.0 2.29824887780052 1
gene  2 54 11 0.35529096824400574 0 454.0 0.35529096824400574 1
gene  1 1 11 -1.7260238897728257 0 649.0 -1.7260238897728257 1
gene  2 5 7 4.283866743932649 0 931.0 4.283866743932649 1
gene  1 5 54 1.2950989287573984 0 1296.0 1.2950989287573984 1
gene  3 1 326 -1.3155142167436962 0 1518.0 -1.3155142167436962 1
gene  3 326 5 1.268718157106742 0 1519.0 1.268718157106742 1
gene  1 1 359 -3.2974970627042177 0 1646.0 -3.2974970627042177 1
gene  1 359 4 -0.5143911721575525 0 1647.0 -0.5143911721575525 1
gene  2 54 4 0.19201569616198322 0 1685.0 0.19201569616198322 1
gene  1 359 326 -1.2812893512400825 0 1773.0 -1.2812893512400825 1
gene  2 3 5 7.506426250916787 0 1786.0 7.506426250916787 1
genomeend 28
/*-------------------------------------------------------------------*/
/* Species # 032         : (size= 005) (AvfFit= 6,000) (Age= 75,000)  */
/*-------------------------------------------------------------------*/
/* Organism # 029 Fitness:  9,000 Error:  1,000                      */
genomestart  29
trait 1 0.0 0.0 0.0 0.0 0.25026946476608636 0.0 0.0 0.0 
trait 2 0.2 0.0 0.0 0.0 0.0 0.0 0.0 0.0 
trait 3 0.0 0.18943956236972637 0.0 0.0013603363882406239 0.0 0.03164597716859208 0.9928906283687635 0.0 
node 1 3 1 1
node 2 3 1 1
node 3 3 1 3
node 4 3 0 2
node 80 1 0 0
node 324 1 0 0
node 330 2 0 0
gene  3 1 4 2.727644868620677 0 1.0 2.727644868620677 0
gene  2 2 4 14.689540670854276 0 2.0 14.689540670854276 1
gene  3 3 4 10.103370357751414 0 3.0 10.103370357751414 1
gene  1 1 80 -0.1437176167723052 0 362.0 -0.1437176167723052 0
gene  1 80 4 -1.291422192601677 0 363.0 -1.291422192601677 1
gene  2 3 80 -2.077433288184162 0 474.0 -2.077433288184162 1
gene  2 2 80 -2.328232426673445 0 521.0 -2.328232426673445 1
gene  3 1 324 6.062289475899126 0 1513.0 6.062289475899126 1
gene  3 324 4 -2.031615621701259 0 1514.0 -2.031615621701259 1
gene  1 1 330 -0.5042185198367364 0 1535.0 -0.5042185198367364 1
gene  1 330 80 -1.0830026556318033 0 1536.0 -1.0830026556318033 1
genomeend 29
/* Organism # 030 Fitness:  4,000 Error:  2,000                      */
genomestart  30
trait 1 0.0 0.0 0.0 0.0 0.25026946476608636 0.0 0.0 0.0 
trait 2 0.2 0.0 0.0 0.0 0.0 0.0 0.0 0.0 
trait 3 0.0 0.18943956236972637 0.0 0.0013603363882406239 0.0 0.03164597716859208 0.9928906283687635 0.0 
node 1 3 1 1
node 2 3 1 1
node 3 3 1 3
node 4 3 0 2
node 80 1 0 0
node 324 1 0 0
node 330 2 0 0
gene  3 1 4 0.6053338850247825 0 1.0 0.6053338850247825 0
gene  2 2 4 0.9661567544260261 0 2.0 0.9661567544260261 1
gene  3 3 4 1.1348955140249448 0 3.0 1.1348955140249448 1
gene  1 1 80 1.1863908810377892 0 362.0 1.1863908810377892 0
gene  1 80 4 0.48344067132466684 0 363.0 0.48344067132466684 1
gene  2 3 80 -1.2908933507342768 0 474.0 -1.2908933507342768 1
gene  2 2 80 -1.7958923384359071 0 521.0 -1.7958923384359071 1
gene  3 1 324 7.217475377136418 0 1513.0 7.217475377136418 1
gene  3 324 4 -4.818587774875796 0 1514.0 -4.818587774875796 1
gene  1 1 330 0.21859388056573725 0 1535.0 0.21859388056573725 1
gene  1 330 80 -1.5037232331255557 0 1536.0 -1.5037232331255557 1
genomeend 30
/* Organism # 031 Fitness:  4,000 Error:  2,000                      */
genomestart  31
trait 1 0.0 0.0 0.0 0.0 0.25026946476608636 0.0 0.0 0.0 
trait 2 0.2 0.0 0.0 0.0 0.0 0.0 0.0 0.0 
trait 3 0.0 0.18943956236972637 0.0 0.0013603363882406239 0.0 0.03164597716859208 0.9928906283687635 0.0 
node 1 3 1 1
node 2 3 1 1
node 3 3 1 3
node 4 3 0 2
node 80 1 0 0
node 324 1 0 0
node 330 2 0 0
gene  3 1 4 2.980258039662527 0 1.0 2.980258039662527 0
gene  2 2 4 13.633144003917105 0 2.0 13.633144003917105 1
gene  3 3 4 5.653739686344473 0 3.0 5.653739686344473 1
gene  1 1 80 -0.3794426516528162 0 362.0 -0.3794426516528162 0
gene  1 80 4 -4.908383643543967 0 363.0 -4.908383643543967 1
gene  3 3 80 0.5631361941789392 0 474.0 0.5631361941789392 1
gene  2 2 80 -3.6460498018579974 0 521.0 -3.6460498018579974 1
gene  3 1 324 5.681375488864433 0 1513.0 5.681375488864433 1
gene  3 324 4 -4.777482489828682 0 1514.0 -4.777482489828682 1
gene  1 1 330 -1.8603466550421373 0 1535.0 -1.8603466550421373 1
gene  1 330 80 -0.5427878452113164 0 1536.0 -0.5427878452113164 1
genomeend 31
/* Organism # 032 Fitness:  9,000 Error:  1,000                      */
genomestart  32
trait 1 0.0 0.0 0.0 0.0 0.25026946476608636 0.0 0.0 0.0 
trait 2 0.2 0.0 0.0 0.0 0.0 0.0 0.0 0.0 
trait 3 0.0 0.18943956236972637 0.0 0.0013603363882406239 0.0 0.03164597716859208 0.9928906283687635 0.0 
node 1 3 1 1
node 2 3 1 1
node 3 3 1 3
node 4 3 0 2
node 80 1 0 0
node 324 1 0 0
node 330 2 0 0
node 394 1 0 0
gene  3 1 4 4.22255343398227 0 1.0 4.22255343398227 0
gene  2 2 4 14.466440050231789 0 2.0 14.466440050231789 1
gene  3 3 4 9.224564241178967 0 3.0 9.224564241178967 1
gene  1 1 80 -0.8085383785485216 0 362.0 -0.8085383785485216 0
gene  1 80 4 -1.6420056227011206 0 363.0 -1.6420056227011206 0
gene  2 3 80 -1.2908933507342768 0 474.0 -1.2908933507342768 1
gene  2 2 80 -1.8046579378399201 0 521.0 -1.8046579378399201 1
gene  3 1 324 4.913352468787327 0 1513.0 4.913352468787327 1
gene  3 324 4 -3.7948286412329337 0 1514.0 -3.7948286412329337 1
gene  1 1 330 -0.5042185198367364 0 1535.0 -0.5042185198367364 1
gene  1 330 80 0.4788208698719518 0 1536.0 0.4788208698719518 1
gene  1 80 394 1.0 0 1804.0 0.0 1
gene  1 394 4 -1.6420056227011206 0 1805.0 0.0 1
genomeend 32
/* Organism # 033 Fitness:  4,000 Error:  2,000                      */
genomestart  33
trait 1 0.0 0.0 0.0 0.0 0.25026946476608636 0.0 0.0 0.0 
trait 2 0.2 0.0 0.0 0.0 0.0 0.0 0.0 0.0 
trait 3 0.0 0.18943956236972637 0.0 0.0013603363882406239 0.0 0.03164597716859208 0.9928906283687635 0.0 
node 1 3 1 1
node 2 3 1 1
node 3 3 1 3
node 4 3 0 2
node 80 1 0 0
node 324 2 0 0
node 330 2 0 0
gene  3 1 4 4.507467473862684 0 1.0 4.507467473862684 0
gene  2 2 4 0.7817351402751316 0 2.0 0.7817351402751316 1
gene  3 3 4 9.224564241178967 0 3.0 9.224564241178967 1
gene  1 1 80 -1.7802560104023042 0 362.0 -1.7802560104023042 0
gene  1 80 4 0.2274593990300655 0 363.0 0.2274593990300655 1
gene  2 3 80 0.7280650732429228 0 474.0 0.7280650732429228 1
gene  2 2 80 0.7357220675343984 0 521.0 0.7357220675343984 1
gene  3 1 324 3.5144264884803533 0 1513.0 3.5144264884803533 1
gene  3 324 4 -5.408158364736301 0 1514.0 -5.408158364736301 1
gene  1 1 330 0.9820210966746534 0 1535.0 0.9820210966746534 1
gene  1 330 80 -1.2750454185051001 0 1536.0 -1.2750454185051001 1
genomeend 33
/*-------------------------------------------------------------------*/
/* Species # 033         : (size= 005) (AvfFit= 8,926) (Age= 75,000)  */
/*-------------------------------------------------------------------*/
/* Organism # 034 Fitness:  8,629 Error:  1,062                      */
genomestart  34
trait 1 0.5024726620418294 0.4823780392212365 0.0 0.0 0.0 0.002988254706022848 0.0 0.0020794935959868813 
trait 2 0.0 0.4777667938049285 0.2343737308292766 0.3057730085894761 0.04606477703652567 0.0 1.8984618199414205 0.4706756283249418 
trait 3 0.508629191444272 0.11207242762510328 0.3142085595512333 0.02370639599583833 0.0643733083283938 0.28758208364855997 0.0 0.011749223863684176 
node 1 1 1 1
node 2 1 1 1
node 3 2 1 3
node 4 1 0 2
node 5 2 0 0
node 62 1 0 0
node 223 1 0 0
node 260 1 0 0
gene  1 1 4 0.1465938086488061 0 1.0 0.1465938086488061 1
gene  2 2 4 30.49639012935105 0 2.0 30.49639012935105 1
gene  3 3 4 -30.231996092737344 0 3.0 -30.231996092737344 1
gene  1 1 5 -11.513546431298774 0 4.0 -11.513546431298774 1
gene  1 5 4 -3.825559582900598 0 5.0 -3.825559582900598 1
gene  2 2 5 1.1900936997544298 0 8.0 1.1900936997544298 1
gene  1 5 62 1.5495766505176478 0 274.0 1.5495766505176478 1
gene  3 62 4 -1.643095212271649 0 275.0 -1.643095212271649 1
gene  1 1 62 -0.9140388407787157 0 291.0 -0.9140388407787157 1
gene  3 3 62 -5.2143219690194025 0 677.0 -5.2143219690194025 1
gene  2 3 5 2.403098329769011 0 734.0 2.403098329769011 1
gene  1 2 62 7.169112128353242 0 828.0 7.169112128353242 1
gene  2 1 223 1.9414746020509788 0 1076.0 1.9414746020509788 1
gene  2 223 4 -0.9999721527368161 0 1077.0 -0.9999721527368161 1
gene  1 5 223 1.4783224651543492 0 1115.0 1.4783224651543492 0
gene  3 223 62 -1.9403096382063727 0 1206.0 -1.9403096382063727 1
gene  2 5 260 0.6504079801960214 0 1251.0 0.6504079801960214 1
gene  2 260 223 -0.24035233264138867 0 1252.0 -0.24035233264138867 1
gene  1 1 260 1.9782712115977308 0 1714.0 1.9782712115977308 1
gene  1 2 260 0.7538172582116318 0 1755.0 0.7538172582116318 1
genomeend 34
/* Organism # 035 Fitness:  9,000 Error:  1,000                      */
genomestart  35
trait 1 0.5024726620418294 0.4823780392212365 0.0 0.0 0.0 0.002988254706022848 0.0 0.0020794935959868813 
trait 2 0.0 0.4777667938049285 0.2343737308292766 0.3057730085894761 0.04606477703652567 0.0 1.8984618199414205 0.4706756283249418 
trait 3 0.508629191444272 0.11207242762510328 0.3142085595512333 0.02370639599583833 0.0643733083283938 0.28758208364855997 0.0 0.011749223863684176 
node 1 1 1 1
node 2 1 1 1
node 3 2 1 3
node 4 1 0 2
node 5 2 0 0
node 62 1 0 0
node 223 1 0 0
node 260 1 0 0
gene  1 1 4 -5.748859633004211 0 1.0 -5.748859633004211 1
gene  2 2 4 28.52089911124252 0 2.0 28.52089911124252 1
gene  3 3 4 -26.6878265637495 0 3.0 -26.6878265637495 1
gene  1 1 5 -11.108797307713283 0 4.0 -11.108797307713283 1
gene  1 5 4 -4.898781089135867 0 5.0 -4.898781089135867 1
gene  2 2 5 0.9916135259523657 0 8.0 0.9916135259523657 1
gene  1 5 62 -2.8487971917501382 0 274.0 -2.8487971917501382 1
gene  3 62 4 2.032833997624411 0 275.0 2.032833997624411 1
gene  1 1 62 3.368303927016313 0 291.0 3.368303927016313 1
gene  2 3 62 -4.890569316076935 0 677.0 -4.890569316076935 1
gene  2 3 5 1.7469934014550268 0 734.0 1.7469934014550268 1
gene  1 2 62 6.739217705525132 0 828.0 6.739217705525132 1
gene  2 1 223 1.3446933289360536 0 1076.0 1.3446933289360536 1
gene  2 223 4 -6.274946142575046 0 1077.0 -6.274946142575046 1
gene  1 5 223 3.3476785894852275 0 1115.0 3.3476785894852275 0
gene  3 223 62 0.23703303030099376 0 1206.0 0.23703303030099376 1
gene  2 5 260 0.6223054558320835 0 1251.0 0.6223054558320835 1
gene  2 260 223 1.4028119331081337 0 1252.0 1.4028119331081337 1
gene  1 1 260 1.1292364418934686 0 1714.0 1.1292364418934686 1
gene  1 2 260 1.2619796741490097 0 1755.0 1.2619796741490097 1
genomeend 35
/* Organism # 036 Fitness:  9,000 Error:  1,000                      */
genomestart  36
trait 1 0.5024726620418294 0.4823780392212365 0.0 0.0 0.0 0.002988254706022848 0.0 0.0020794935959868813 
trait 2 0.0 0.4777667938049285 0.2343737308292766 0.3057730085894761 0.04606477703652567 0.0 1.8984618199414205 0.4706756283249418 
trait 3 0.508629191444272 0.11207242762510328 0.3142085595512333 0.02370639599583833 0.0643733083283938 0.28758208364855997 0.0 0.011749223863684176 
node 1 1 1 1
node 2 1 1 1
node 3 2 1 3
node 4 2 0 2
node 5 2 0 0
node 62 1 0 0
node 223 1 0 0
node 260 1 0 0
gene  1 1 4 -8.677975049544033 0 1.0 -8.677975049544033 1
gene  2 2 4 26.967592572398875 0 2.0 26.967592572398875 1
gene  3 3 4 -29.700875551912443 0 3.0 -29.700875551912443 1
gene  1 1 5 -11.357656845894699 0 4.0 -11.357656845894699 1
gene  1 5 4 -5.222987026257198 0 5.0 -5.222987026257198 1
gene  2 2 5 -1.5837606882214434 0 8.0 -1.5837606882214434 1
gene  1 5 62 0.667078520664001 0 274.0 0.667078520664001 1
gene  3 62 4 3.445841404418131 0 275.0 3.445841404418131 1
gene  1 1 62 5.068201071350485 0 291.0 5.068201071350485 1
gene  3 3 62 -2.049419492162067 0 677.0 -2.049419492162067 1
gene  2 3 5 1.8537578507675487 0 734.0 1.8537578507675487 1
gene  1 2 62 6.3431705447075615 0 828.0 6.3431705447075615 1
gene  2 1 223 2.8030512002365615 0 1076.0 2.8030512002365615 1
gene  2 223 4 -8.170374820202682 0 1077.0 -8.170374820202682 1
gene  1 5 223 1.7825774870936464 0 1115.0 1.7825774870936464 0
gene  3 223 62 1.7522726471222394 0 1206.0 1.7522726471222394 1
gene  2 5 260 -0.17750801383607984 0 1251.0 -0.17750801383607984 1
gene  2 260 223 -0.6893404052627716 0 1252.0 -0.6893404052627716 1
gene  1 1 260 2.7215850509702886 0 1714.0 2.7215850509702886 1
gene  1 2 260 0.9850959232796179 0 1755.0 0.9850959232796179 1
genomeend 36
/* Organism # 037 Fitness:  9,000 Error:  1,000                      */
genomestart  37
trait 1 0.5024726620418294 0.4823780392212365 0.0 0.0 0.0 0.002988254706022848 0.0 0.0020794935959868813 
trait 2 0.0 0.4777667938049285 0.2343737308292766 0.3057730085894761 0.04606477703652567 0.0 1.8984618199414205 0.4706756283249418 
trait 3 0.508629191444272 0.11207242762510328 0.3142085595512333 0.02370639599583833 0.0643733083283938 0.28758208364855997 0.0 0.011749223863684176 
node 1 1 1 1
node 2 1 1 1
node 3 2 1 3
node 4 1 0 2
node 5 2 0 0
node 62 1 0 0
node 223 1 0 0
node 260 1 0 0
gene  1 1 4 -6.95277573403286 0 1.0 -6.95277573403286 1
gene  2 2 4 28.290126509427346 0 2.0 28.290126509427346 1
gene  3 3 4 -27.500194639922555 0 3.0 -27.500194639922555 1
gene  1 1 5 -14.160709113295546 0 4.0 -14.160709113295546 1
gene  1 5 4 -4.801927538268811 0 5.0 -4.801927538268811 1
gene  2 2 5 -2.467390900078165 0 8.0 -2.467390900078165 1
gene  1 5 62 0.6101122243111842 0 274.0 0.6101122243111842 1
gene  3 62 4 1.7150543797621225 0 275.0 1.7150543797621225 1
gene  1 1 62 5.68784750571513 0 291.0 5.68784750571513 1
gene  3 3 62 -3.066841801541552 0 677.0 -3.066841801541552 1
gene  2 3 5 4.530302553254286 0 734.0 4.530302553254286 1
gene  1 2 62 0.587984735311806 0 828.0 0.587984735311806 1
gene  2 1 223 2.2361240089669985 0 1076.0 2.2361240089669985 1
gene  2 223 4 -5.68859503172652 0 1077.0 -5.68859503172652 1
gene  1 5 223 3.624735555641419 0 1115.0 3.624735555641419 0
gene  3 223 62 -1.442763406330193 0 1206.0 -1.442763406330193 1
gene  2 5 260 -0.8046864297108869 0 1251.0 -0.8046864297108869 1
gene  2 260 223 -1.4245898828462942 0 1252.0 -1.4245898828462942 1
gene  1 1 260 0.43916832830486463 0 1714.0 0.43916832830486463 1
gene  1 2 260 1.009650542197481 0 1755.0 1.009650542197481 1
genomeend 37
/* Organism # 038 Fitness:  9,000 Error:  1,000                      */
genomestart  38
trait 1 0.5024726620418294 0.4823780392212365 0.0 0.0 0.0 0.002988254706022848 0.0 0.0020794935959868813 
trait 2 0.0 0.4777667938049285 0.2343737308292766 0.3057730085894761 0.04606477703652567 0.0 1.8984618199414205 0.4706756283249418 
trait 3 0.508629191444272 0.11207242762510328 0.3142085595512333 0.02370639599583833 0.0643733083283938 0.28758208364855997 0.0 0.011749223863684176 
node 1 1 1 1
node 2 1 1 1
node 3 2 1 3
node 4 1 0 2
node 5 2 0 0
node 62 1 0 0
node 223 1 0 0
node 260 1 0 0
gene  1 1 4 -8.412054901405616 0 1.0 -8.412054901405616 1
gene  2 2 4 30.154804814520155 0 2.0 30.154804814520155 1
gene  3 3 4 -30.696865457928805 0 3.0 -30.696865457928805 1
gene  1 1 5 -15.175764887048592 0 4.0 -15.175764887048592 1
gene  1 5 4 -5.242742470745583 0 5.0 -5.242742470745583 1
gene  2 2 5 -2.5309527517675647 0 8.0 -2.5309527517675647 1
gene  1 5 62 1.0907733173029381 0 274.0 1.0907733173029381 1
gene  3 62 4 0.9829791652156181 0 275.0 0.9829791652156181 1
gene  1 1 62 2.7325998113425385 0 291.0 2.7325998113425385 1
gene  3 3 62 -2.23597584903954 0 677.0 -2.23597584903954 1
gene  2 3 5 0.4377384422209407 0 734.0 0.4377384422209407 1
gene  1 2 62 7.477164543905778 0 828.0 7.477164543905778 1
gene  2 1 223 2.488194866796113 0 1076.0 2.488194866796113 1
gene  2 223 4 -8.42526173581079 0 1077.0 -8.42526173581079 1
gene  1 5 223 2.2292206841321276 0 1115.0 2.2292206841321276 0
gene  3 223 62 -0.2256750131606855 0 1206.0 -0.2256750131606855 1
gene  2 5 260 0.22650430022467755 0 1251.0 0.22650430022467755 1
gene  2 260 223 -1.2146713492880745 0 1252.0 -1.2146713492880745 1
gene  1 1 260 0.9293034700267775 0 1714.0 0.9293034700267775 1
gene  1 2 260 3.882028479235988 0 1755.0 3.882028479235988 1
genomeend 38
/*-------------------------------------------------------------------*/
/* Species # 035         : (size= 009) (AvfFit= 10,541) (Age= 73,000)  */
/*-------------------------------------------------------------------*/
/* Organism # 039 Fitness:  16,000 Error:  0,000                      */
/*  $  This organism is WINNER with genome_id  039 Species # 035 $   */
genomestart  39
trait 1 0.0625 0.2724425882405344 0.24099075266557268 0.0 0.0 0.16220035527095605 0.0 0.0 
trait 2 0.1 0.3766210321742431 0.0 0.0 0.0 0.0 0.0 0.0 
trait 3 0.357329124334572 0.1944401156848417 0.0 0.0 0.41097968266643076 0.0 0.0 0.33515801431742454 
node 1 3 1 1
node 2 1 1 1
node 3 3 1 3
node 4 2 0 2
node 6 1 0 0
node 10 2 0 0
node 69 1 0 0
node 101 1 0 0
gene  2 1 4 0.16932979996708752 0 1.0 0.16932979996708752 0
gene  2 2 4 -2.759966996945762 0 2.0 -2.759966996945762 0
gene  3 3 4 -7.040601555215413 0 3.0 -7.040601555215413 1
gene  1 1 6 -6.042899556235655 0 6.0 -6.042899556235655 0
gene  1 6 4 -26.641399429705885 0 7.0 -26.641399429705885 1
gene  1 1 10 0.23427078784933325 0 17.0 0.23427078784933325 1
gene  1 10 6 -0.47636595502633183 0 18.0 -0.47636595502633183 1
gene  1 3 6 -9.162140785977552 0 167.0 -9.162140785977552 1
gene  3 2 10 1.4232436546222411 0 182.0 1.4232436546222411 1
gene  1 2 6 -8.734762140268408 0 271.0 -8.734762140268408 1
gene  1 10 4 3.8265223576729865 0 304.0 3.8265223576729865 1
gene  2 2 69 -10.326079005065294 0 310.0 -10.326079005065294 1
gene  2 69 4 16.085766573600555 0 311.0 16.085766573600555 1
gene  1 1 101 -0.02444141593021698 0 455.0 -0.02444141593021698 1
gene  1 101 6 0.9305470298652239 0 456.0 0.9305470298652239 1
gene  3 3 69 0.5924107461255168 0 1775.0 0.5924107461255168 1
genomeend 39
/* Organism # 040 Fitness:  9,505 Error:  0,917                      */
genomestart  40
trait 1 0.0625 0.2724425882405344 0.24099075266557268 0.0 0.0 0.16220035527095605 0.0 0.0 
trait 2 0.1 0.3766210321742431 0.0 0.0 0.0 0.0 0.0 0.0 
trait 3 0.357329124334572 0.1944401156848417 0.0 0.0 0.41097968266643076 0.0 0.0 0.33515801431742454 
node 1 3 1 1
node 2 1 1 1
node 3 3 1 3
node 4 2 0 2
node 6 1 0 0
node 10 2 0 0
node 69 1 0 0
node 101 1 0 0
gene  2 1 4 -0.10794843772563212 0 1.0 -0.10794843772563212 0
gene  2 2 4 -1.7480576560764647 0 2.0 -1.7480576560764647 0
gene  3 3 4 -5.65128122112055 0 3.0 -5.65128122112055 1
gene  1 1 6 -7.755523224432974 0 6.0 -7.755523224432974 0
gene  1 6 4 -25.34391009144239 0 7.0 -25.34391009144239 1
gene  1 1 10 2.452974832053006 0 17.0 2.452974832053006 1
gene  1 10 6 1.9961165345909375 0 18.0 1.9961165345909375 1
gene  1 3 6 -7.989999672348706 0 167.0 -7.989999672348706 1
gene  3 2 10 3.2293915744953745 0 182.0 3.2293915744953745 1
gene  1 2 6 -7.604871322820285 0 271.0 -7.604871322820285 1
gene  1 10 4 6.139240421754322 0 304.0 6.139240421754322 1
gene  2 2 69 -11.803147144002505 0 310.0 -11.803147144002505 1
gene  2 69 4 17.787596124369486 0 311.0 17.787596124369486 1
gene  1 1 101 2.066468678672775 0 455.0 2.066468678672775 1
gene  1 101 6 0.9313727185434326 0 456.0 0.9313727185434326 1
genomeend 40
/* Organism # 041 Fitness:  16,000 Error:  0,000                      */
/*  $  This organism is WINNER with genome_id  041 Species # 035 $   */
genomestart  41
trait 1 0.0625 0.2724425882405344 0.24099075266557268 0.0 0.0 0.16220035527095605 0.0 0.0 
trait 2 0.8209637952722718 0.36326667753848557 0.0 0.0 0.16417408596880323 0.251984244949058 0.0 0.0 
trait 3 0.357329124334572 0.1944401156848417 0.0 0.0 0.41097968266643076 0.0 0.0 0.33515801431742454 
node 1 3 1 1
node 2 1 1 1
node 3 3 1 3
node 4 2 0 2
node 6 1 0 0
node 10 2 0 0
node 69 1 0 0
node 101 1 0 0
gene  2 1 4 -1.6594230155728562 0 1.0 -1.6594230155728562 0
gene  2 2 4 -3.458985116684153 0 2.0 -3.458985116684153 0
gene  3 3 4 -7.718277314653212 0 3.0 -7.718277314653212 1
gene  1 1 6 -6.3423686302850255 0 6.0 -6.3423686302850255 0
gene  1 6 4 -28.0628883732055 0 7.0 -28.0628883732055 1
gene  1 1 10 1.3175909129282997 0 17.0 1.3175909129282997 1
gene  1 10 6 1.7159289024992472 0 18.0 1.7159289024992472 1
gene  1 3 6 -11.61074476209658 0 167.0 -11.61074476209658 1
gene  3 2 10 3.4350723129501515 0 182.0 3.4350723129501515 1
gene  1 2 6 -9.149919182551768 0 271.0 -9.149919182551768 1
gene  1 10 4 3.112568386622554 0 304.0 3.112568386622554 1
gene  2 2 69 -9.56852316214908 0 310.0 -9.56852316214908 1
gene  2 69 4 14.913485115091273 0 311.0 14.913485115091273 1
gene  3 1 101 1.932692510709314 0 455.0 1.932692510709314 1
gene  1 101 6 0.9305470298652239 0 456.0 0.9305470298652239 1
genomeend 41
/* Organism # 042 Fitness:  8,999 Error:  1,000                      */
genomestart  42
trait 1 0.0625 0.2724425882405344 0.24099075266557268 0.0 0.0 0.16220035527095605 0.0 0.0 
trait 2 0.1 0.3766210321742431 0.0 0.0 0.0 0.0 0.0 0.0 
trait 3 0.357329124334572 0.1944401156848417 0.0 0.0 0.41097968266643076 0.0 0.0 0.33515801431742454 
node 1 3 1 1
node 2 1 1 1
node 3 3 1 3
node 4 2 0 2
node 6 1 0 0
node 10 2 0 0
node 69 1 0 0
node 101 1 0 0
gene  2 1 4 -1.659044527268536 0 1.0 -1.659044527268536 0
gene  2 2 4 -1.277251018961432 0 2.0 -1.277251018961432 0
gene  3 3 4 -5.576869407778377 0 3.0 -5.576869407778377 1
gene  1 1 6 -4.688277952533992 0 6.0 -4.688277952533992 0
gene  1 6 4 -26.641399429705885 0 7.0 -26.641399429705885 1
gene  1 1 10 1.1374250980604281 0 17.0 1.1374250980604281 1
gene  1 10 6 1.524717791842424 0 18.0 1.524717791842424 1
gene  1 3 6 -9.162140785977552 0 167.0 -9.162140785977552 1
gene  3 2 10 0.5679748739456867 0 182.0 0.5679748739456867 1
gene  1 2 6 -0.262167939189428 0 271.0 -0.262167939189428 1
gene  1 10 4 3.890979583601303 0 304.0 3.890979583601303 1
gene  2 2 69 -9.340714984465539 0 310.0 -9.340714984465539 1
gene  2 69 4 18.346504880875933 0 311.0 18.346504880875933 1
gene  1 1 101 -1.5488616887718702 0 455.0 -1.5488616887718702 1
gene  1 101 6 0.41622553957898445 0 456.0 0.41622553957898445 1
genomeend 42
/* Organism # 043 Fitness:  9,000 Error:  1,000                      */
genomestart  43
trait 1 0.0625 0.2724425882405344 0.24099075266557268 0.0 0.0 0.16220035527095605 0.0 0.0 
trait 2 0.1 0.3766210321742431 0.0 0.0 0.0 0.0 0.0 0.0 
trait 3 0.357329124334572 0.1944401156848417 0.0 0.0 0.41097968266643076 0.0 0.0 0.33515801431742454 
node 1 3 1 1
node 2 1 1 1
node 3 3 1 3
node 4 2 0 2
node 6 1 0 0
node 10 2 0 0
node 69 1 0 0
node 101 1 0 0
gene  2 1 4 0.16932979996708752 0 1.0 0.16932979996708752 0
gene  2 2 4 -2.759966996945762 0 2.0 -2.759966996945762 0
gene  3 3 4 -7.040601555215413 0 3.0 -7.040601555215413 1
gene  1 1 6 -6.042899556235655 0 6.0 -6.042899556235655 0
gene  1 6 4 -26.641399429705885 0 7.0 -26.641399429705885 1
gene  1 1 10 0.23427078784933325 0 17.0 0.23427078784933325 1
gene  1 10 6 -0.47636595502633183 0 18.0 -0.47636595502633183 1
gene  1 3 6 -9.162140785977552 0 167.0 -9.162140785977552 1
gene  3 2 10 1.4232436546222411 0 182.0 1.4232436546222411 1
gene  1 2 6 -8.734762140268408 0 271.0 -8.734762140268408 1
gene  1 10 4 3.8265223576729865 0 304.0 3.8265223576729865 1
gene  2 2 69 -10.326079005065294 0 310.0 -10.326079005065294 1
gene  2 69 4 16.085766573600555 0 311.0 16.085766573600555 1
gene  1 1 101 -0.02444141593021698 0 455.0 -0.02444141593021698 1
gene  1 101 6 0.9305470298652239 0 456.0 0.9305470298652239 1
gene  1 101 69 9.287925310344233 0 1789.0 9.287925310344233 1
genomeend 43
/* Organism # 044 Fitness:  9,000 Error:  1,000                      */
genomestart  44
trait 1 0.0625 0.2724425882405344 0.24099075266557268 0.0 0.0 0.16220035527095605 0.0 0.0 
trait 2 0.1 0.3766210321742431 0.0 0.0 0.0 0.0 0.0 0.0 
trait 3 0.357329124334572 0.1944401156848417 0.0 0.0 0.41097968266643076 0.0 0.0 0.33515801431742454 
node 1 3 1 1
node 2 1 1 1
node 3 3 1 3
node 4 2 0 2
node 6 1 0 0
node 10 2 0 0
node 69 1 0 0
node 101 1 0 0
gene  2 1 4 0.16932979996708752 0 1.0 0.16932979996708752 0
gene  2 2 4 -2.759966996945762 0 2.0 -2.759966996945762 0
gene  3 3 4 -7.040601555215413 0 3.0 -7.040601555215413 1
gene  1 1 6 -6.042899556235655 0 6.0 -6.042899556235655 0
gene  1 6 4 -26.641399429705885 0 7.0 -26.641399429705885 1
gene  1 1 10 0.23427078784933325 0 17.0 0.23427078784933325 1
gene  1 10 6 -0.47636595502633183 0 18.0 -0.47636595502633183 1
gene  1 3 6 -9.162140785977552 0 167.0 -9.162140785977552 1
gene  3 2 10 1.4232436546222411 0 182.0 1.4232436546222411 1
gene  1 2 6 -8.734762140268408 0 271.0 -8.734762140268408 1
gene  1 10 4 3.8265223576729865 0 304.0 3.8265223576729865 1
gene  2 2 69 -10.326079005065294 0 310.0 -10.326079005065294 1
gene  2 69 4 16.085766573600555 0 311.0 16.085766573600555 1
gene  1 1 101 -0.02444141593021698 0 455.0 -0.02444141593021698 1
gene  1 101 6 0.9305470298652239 0 456.0 0.9305470298652239 1
gene  3 3 69 0.5924107461255168 0 1775.0 0.5924107461255168 1
gene  1 101 69 9.287925310344233 0 1789.0 0.0 1
genomeend 44
/* Organism # 045 Fitness:  9,000 Error:  1,000                      */
genomestart  45
trait 1 0.0625 0.2724425882405344 0.24099075266557268 0.0 0.0 0.16220035527095605 0.0 0.0 
trait 2 0.1 0.3766210321742431 0.0 0.0 0.0 0.0 0.0 0.0 
trait 3 0.357329124334572 0.1944401156848417 0.0 0.0 0.41097968266643076 0.0 0.0 0.33515801431742454 
node 1 3 1 1
node 2 1 1 1
node 3 3 1 3
node 4 2 0 2
node 6 1 0 0
node 10 2 0 0
node 69 1 0 0
node 101 1 0 0
gene  2 1 4 -0.14973545315710857 0 1.0 -0.14973545315710857 0
gene  2 2 4 -2.65916638736031 0 2.0 -2.65916638736031 0
gene  3 3 4 -6.063328815698542 0 3.0 -6.063328815698542 1
gene  1 1 6 -8.055151678660003 0 6.0 -8.055151678660003 0
gene  1 6 4 -28.26877513589195 0 7.0 -28.26877513589195 1
gene  1 1 10 -0.9057925111947516 0 17.0 -0.9057925111947516 1
gene  1 10 6 -2.689871246966431 0 18.0 -2.689871246966431 1
gene  1 3 6 -7.889159662646869 0 167.0 -7.889159662646869 1
gene  3 2 10 2.862582682425082 0 182.0 2.862582682425082 1
gene  1 2 6 -7.936410799804586 0 271.0 -7.936410799804586 1
gene  1 10 4 2.8834936788928576 0 304.0 2.8834936788928576 1
gene  2 2 69 -10.070073968386112 0 310.0 -10.070073968386112 1
gene  2 69 4 17.04286623230985 0 311.0 17.04286623230985 1
gene  1 1 101 -0.02444141593021698 0 455.0 -0.02444141593021698 1
gene  1 101 6 0.9305470298652239 0 456.0 0.9305470298652239 1
gene  3 3 69 -1.5252567432130164 0 1775.0 -1.5252567432130164 1
genomeend 45
/* Organism # 046 Fitness:  9,005 Error:  0,999                      */
genomestart  46
trait 1 0.0625 0.2724425882405344 0.24099075266557268 0.0 0.0 0.16220035527095605 0.0 0.0 
trait 2 0.1 0.3766210321742431 0.0 0.0 0.0 0.0 0.0 0.0 
trait 3 0.357329124334572 0.1944401156848417 0.0 0.0 0.41097968266643076 0.0 0.0 0.33515801431742454 
node 1 3 1 1
node 2 1 1 1
node 3 3 1 3
node 4 2 0 2
node 6 1 0 0
node 10 2 0 0
node 69 1 0 0
node 101 1 0 0
gene  2 1 4 1.9026173683839798 0 1.0 1.9026173683839798 0
gene  2 2 4 -1.3858238790245905 0 2.0 -1.3858238790245905 0
gene  3 3 4 -5.732219400725535 0 3.0 -5.732219400725535 1
gene  1 1 6 -6.777633989090021 0 6.0 -6.777633989090021 0
gene  1 6 4 -27.004928647622854 0 7.0 -27.004928647622854 1
gene  1 1 10 1.7801265603815473 0 17.0 1.7801265603815473 1
gene  1 10 6 0.35640347714546416 0 18.0 0.35640347714546416 1
gene  1 3 6 -7.045786236971475 0 167.0 -7.045786236971475 1
gene  3 2 10 1.9398286031469354 0 182.0 1.9398286031469354 1
gene  1 2 6 -11.034677312791395 0 271.0 -11.034677312791395 1
gene  1 10 4 4.890234295109696 0 304.0 4.890234295109696 1
gene  2 2 69 -9.85101772247986 0 310.0 -9.85101772247986 1
gene  2 69 4 17.836408100347743 0 311.0 17.836408100347743 1
gene  1 1 101 -0.6124971588102276 0 455.0 -0.6124971588102276 1
gene  1 101 6 0.034790170892122 0 456.0 0.034790170892122 1
gene  3 3 69 -1.4959438232817066 0 1775.0 -1.4959438232817066 1
genomeend 46
/* Organism # 047 Fitness:  8,362 Error:  1,108                      */
genomestart  47
trait 1 0.7145371795079064 0.2724425882405344 0.24099075266557268 0.0 0.5568655395467068 0.16220035527095605 0.0 0.0 
trait 2 0.1 0.3766210321742431 0.0 0.0 0.0 0.0 0.0 0.0 
trait 3 0.357329124334572 0.1944401156848417 0.0 0.0 0.41097968266643076 0.0 0.0 0.33515801431742454 
node 1 3 1 1
node 2 1 1 1
node 3 3 1 3
node 4 2 0 2
node 6 1 0 0
node 10 2 0 0
node 69 1 0 0
node 101 1 0 0
gene  2 1 4 0.08034197373777913 0 1.0 0.08034197373777913 0
gene  2 2 4 -1.1935620277538788 0 2.0 -1.1935620277538788 0
gene  3 3 4 -7.040601555215413 0 3.0 -7.040601555215413 1
gene  1 1 6 0.20473099044314935 0 6.0 0.20473099044314935 0
gene  1 6 4 -0.23218954400603314 0 7.0 -0.23218954400603314 1
gene  1 1 10 -2.1654748655386453 0 17.0 -2.1654748655386453 1
gene  1 10 6 0.6957507612307146 0 18.0 0.6957507612307146 1
gene  1 3 6 -10.300893826509535 0 167.0 -10.300893826509535 1
gene  3 2 10 3.4754169617234965 0 182.0 3.4754169617234965 1
gene  1 2 6 -6.5207702674270225 0 271.0 -6.5207702674270225 1
gene  1 10 4 3.4962032252595403 0 304.0 3.4962032252595403 1
gene  2 2 69 -10.361081700074427 0 310.0 -10.361081700074427 1
gene  2 69 4 -0.3967553021428222 0 311.0 -0.3967553021428222 1
gene  1 1 101 1.0852564304024908 0 455.0 1.0852564304024908 1
gene  1 101 6 0.9305470298652239 0 456.0 0.9305470298652239 1
genomeend 47
/*-------------------------------------------------------------------*/
/* Species # 036         : (size= 005) (AvfFit= 7,005) (Age= 73,000)  */
/*-------------------------------------------------------------------*/
/* Organism # 048 Fitness:  4,026 Error:  1,994                      */
genomestart  48
trait 1 0.43030748644980743 0.27355213687893665 0.0 0.9797869190912817 0.0 0.0 0.6847123902830005 0.12916835141453142 
trait 2 0.2 0.7428131076073421 0.0 0.6194596212085887 0.0 0.0 0.0 0.0 
trait 3 0.8495577759014167 1.6758223578065796 2.910902454628598 0.022285209322072785 0.5498377699382752 0.0 2.6201895408533393 1.5599648499033192 
node 1 1 1 1
node 2 1 1 1
node 3 1 1 3
node 4 1 0 2
node 5 3 0 0
node 7 3 0 0
node 12 1 0 0
node 60 3 0 0
node 215 1 0 0
node 323 1 0 0
gene  1 1 4 0.47110954924737103 0 1.0 0.47110954924737103 1
gene  2 2 4 -14.242850911123943 0 2.0 -14.242850911123943 1
gene  3 3 4 -0.07399006585747325 0 3.0 -0.07399006585747325 1
gene  1 1 5 2.989578343446468 0 4.0 2.989578343446468 1
gene  1 5 4 -1.463388150329443 0 5.0 -1.463388150329443 1
gene  1 1 7 0.3217359051218019 0 10.0 0.3217359051218019 1
gene  1 7 4 -1.6780399319334474 0 11.0 -1.6780399319334474 1
gene  1 1 12 -13.201573002230582 0 25.0 -13.201573002230582 1
gene  1 12 4 0.7132824463618421 0 26.0 0.7132824463618421 1
gene  1 2 5 -1.2457956577691855 0 245.0 -1.2457956577691855 1
gene  1 1 60 13.43667638825283 0 264.0 13.43667638825283 1
gene  1 60 5 -0.5000201177172401 0 265.0 -0.5000201177172401 1
gene  2 3 7 -8.822072172465262 0 280.0 -8.822072172465262 1
gene  3 7 5 4.051577858662033 0 295.0 4.051577858662033 1
gene  3 12 60 0.19579924545447214 0 822.0 0.19579924545447214 1
gene  3 3 5 1.0239063122459915 0 910.0 1.0239063122459915 1
gene  1 1 215 -3.485837243243402 0 1035.0 -3.485837243243402 1
gene  1 215 5 -4.08129513347094 0 1036.0 -4.08129513347094 1
gene  1 215 60 7.803191742011543 0 1387.0 7.803191742011543 1
gene  3 2 12 3.848547320699422 0 1424.0 3.848547320699422 1
gene  1 215 323 -0.9757729944421125 0 1510.0 -0.9757729944421125 1
gene  1 323 5 -5.586747227162869 0 1511.0 -5.586747227162869 1
gene  2 215 7 0.9872817236485406 0 1534.0 0.9872817236485406 1
gene  2 2 7 1.3152883017333534 0 1585.0 1.3152883017333534 1
gene  2 12 7 -1.1286625088946243 0 1716.0 -1.1286625088946243 1
genomeend 48
/* Organism # 049 Fitness:  9,000 Error:  1,000                      */
genomestart  49
trait 1 0.43030748644980743 0.27355213687893665 0.0 0.9797869190912817 0.0 0.0 0.6847123902830005 0.12916835141453142 
trait 2 0.2 0.7428131076073421 0.0 0.6194596212085887 0.0 0.0 0.0 0.0 
trait 3 0.8495577759014167 1.6758223578065796 2.910902454628598 0.022285209322072785 0.5498377699382752 0.0 2.6201895408533393 1.5599648499033192 
node 1 1 1 1
node 2 1 1 1
node 3 1 1 3
node 4 1 0 2
node 5 3 0 0
node 7 3 0 0
node 12 1 0 0
node 60 3 0 0
node 215 1 0 0
node 323 1 0 0
gene  1 1 4 -5.827940133346418 0 1.0 -5.827940133346418 1
gene  2 2 4 -12.976497181975267 0 2.0 -12.976497181975267 1
gene  3 3 4 15.622943890490378 0 3.0 15.622943890490378 1
gene  1 1 5 2.746424611761036 0 4.0 2.746424611761036 1
gene  1 5 4 -0.4958524547570211 0 5.0 -0.4958524547570211 1
gene  1 1 7 2.2814725502308724 0 10.0 2.2814725502308724 1
gene  1 7 4 -3.5852013440197004 0 11.0 -3.5852013440197004 1
gene  1 1 12 -13.472657235036092 0 25.0 -13.472657235036092 1
gene  1 12 4 1.7792137991673507 0 26.0 1.7792137991673507 1
gene  1 2 5 1.7483797821062388 0 245.0 1.7483797821062388 1
gene  1 1 60 13.64190316676314 0 264.0 13.64190316676314 1
gene  1 60 5 0.25445277718191495 0 265.0 0.25445277718191495 1
gene  2 3 7 -6.9499523130267695 0 280.0 -6.9499523130267695 1
gene  3 7 5 0.32731812621575695 0 295.0 0.32731812621575695 1
gene  3 12 60 -2.324500330774552 0 822.0 -2.324500330774552 1
gene  3 3 5 2.8811906296255616 0 910.0 2.8811906296255616 1
gene  1 1 215 -0.49907028950664545 0 1035.0 -0.49907028950664545 1
gene  1 215 5 -1.1126021231573135 0 1036.0 -1.1126021231573135 1
gene  1 215 60 8.03230333795887 0 1387.0 8.03230333795887 1
gene  3 2 12 1.0214763307557042 0 1424.0 1.0214763307557042 1
gene  1 215 323 -1.6798398663936454 0 1510.0 -1.6798398663936454 1
gene  1 323 5 -4.0049152125078 0 1511.0 -4.0049152125078 1
gene  2 215 7 0.313871520904056 0 1534.0 0.313871520904056 1
gene  2 2 7 -0.2525137564393915 0 1585.0 -0.2525137564393915 1
gene  2 12 7 -3.618975360909972 0 1716.0 -3.618975360909972 1
genomeend 49
/* Organism # 050 Fitness:  9,000 Error:  1,000                      */
genomestart  50
trait 1 0.43030748644980743 0.27355213687893665 0.0 0.9797869190912817 0.0 0.0 0.6847123902830005 0.12916835141453142 
trait 2 0.2 0.7428131076073421 0.0 0.6194596212085887 0.0 0.0 0.0 0.0 
trait 3 0.8495577759014167 1.6758223578065796 2.910902454628598 0.022285209322072785 0.5498377699382752 0.0 2.6201895408533393 1.5599648499033192 
node 1 1 1 1
node 2 1 1 1
node 3 1 1 3
node 4 1 0 2
node 5 3 0 0
node 7 3 0 0
node 12 1 0 0
node 60 3 0 0
node 215 1 0 0
node 323 1 0 0
gene  1 1 4 -6.663696945143935 0 1.0 -6.663696945143935 1
gene  2 2 4 -13.130846397185566 0 2.0 -13.130846397185566 1
gene  3 3 4 12.602955622628645 0 3.0 12.602955622628645 1
gene  1 1 5 3.9656649140256346 0 4.0 3.9656649140256346 1
gene  1 5 4 1.1305194780361507 0 5.0 1.1305194780361507 1
gene  1 1 7 4.201510667530978 0 10.0 4.201510667530978 1
gene  1 7 4 -1.1461238585089326 0 11.0 -1.1461238585089326 1
gene  1 1 12 -9.74799720312253 0 25.0 -9.74799720312253 1
gene  1 12 4 4.211955594824872 0 26.0 4.211955594824872 1
gene  1 2 5 -1.2330320136404813 0 245.0 -1.2330320136404813 1
gene  1 1 60 11.66152541862122 0 264.0 11.66152541862122 1
gene  1 60 5 -2.1146462049331314 0 265.0 -2.1146462049331314 1
gene  2 3 7 -8.391246245104572 0 280.0 -8.391246245104572 1
gene  3 7 5 2.268428395272407 0 295.0 2.268428395272407 1
gene  3 12 60 -2.74836645813173 0 822.0 -2.74836645813173 1
gene  3 3 5 1.044562739577277 0 910.0 1.044562739577277 1
gene  1 1 215 -2.1960800653158716 0 1035.0 -2.1960800653158716 1
gene  1 215 5 -0.2063422740968579 0 1036.0 -0.2063422740968579 1
gene  1 215 60 10.333599960793284 0 1387.0 10.333599960793284 1
gene  3 2 12 1.7098168810556205 0 1424.0 1.7098168810556205 1
gene  1 215 323 -0.6399861009673942 0 1510.0 -0.6399861009673942 1
gene  1 323 5 -2.2791409968649816 0 1511.0 -2.2791409968649816 1
gene  2 215 7 -0.580480644747324 0 1534.0 -0.580480644747324 1
gene  2 2 7 1.5155126818483926 0 1585.0 1.5155126818483926 1
gene  2 12 7 0.9736327962024267 0 1716.0 0.9736327962024267 1
genomeend 50
/* Organism # 051 Fitness:  4,000 Error:  2,000                      */
genomestart  51
trait 1 0.43030748644980743 0.27355213687893665 0.0 0.9797869190912817 0.0 0.0 0.6847123902830005 0.12916835141453142 
trait 2 0.2 0.7428131076073421 0.0 0.6194596212085887 0.0 0.0 0.0 0.0 
trait 3 0.8495577759014167 1.6758223578065796 2.910902454628598 0.022285209322072785 0.5498377699382752 0.0 2.6201895408533393 1.5599648499033192 
node 1 1 1 1
node 2 1 1 1
node 3 1 1 3
node 4 1 0 2
node 5 3 0 0
node 7 3 0 0
node 12 1 0 0
node 60 3 0 0
node 215 1 0 0
node 323 1 0 0
gene  1 1 4 -3.8921892824324416 0 1.0 -3.8921892824324416 1
gene  2 2 4 -11.768709429020989 0 2.0 -11.768709429020989 1
gene  3 3 4 -0.36646400038062354 0 3.0 -0.36646400038062354 1
gene  1 1 5 1.3238624466788529 0 4.0 1.3238624466788529 1
gene  1 5 4 -3.1064471348680267 0 5.0 -3.1064471348680267 1
gene  1 1 7 4.463304358685302 0 10.0 4.463304358685302 1
gene  1 7 4 -2.953409959614974 0 11.0 -2.953409959614974 1
gene  1 1 12 -11.023414839352343 0 25.0 -11.023414839352343 1
gene  1 12 4 -1.1505905242550014 0 26.0 -1.1505905242550014 1
gene  1 2 5 0.01349934147799009 0 245.0 0.01349934147799009 1
gene  1 1 60 10.380431779861409 0 264.0 10.380431779861409 1
gene  1 60 5 2.3005601081793525 0 265.0 2.3005601081793525 1
gene  2 3 7 -6.409444432605939 0 280.0 -6.409444432605939 1
gene  3 7 5 2.063330764768241 0 295.0 2.063330764768241 1
gene  3 12 60 1.2015988609858537 0 822.0 1.2015988609858537 1
gene  3 3 5 3.214094561814397 0 910.0 3.214094561814397 1
gene  1 1 215 -3.2769278561721764 0 1035.0 -3.2769278561721764 1
gene  1 215 5 -3.752332555718059 0 1036.0 -3.752332555718059 1
gene  1 215 60 9.775260156644917 0 1387.0 9.775260156644917 1
gene  3 2 12 2.635381137400862 0 1424.0 2.635381137400862 1
gene  1 215 323 -1.1320743235539432 0 1510.0 -1.1320743235539432 1
gene  1 323 5 -4.744662101409662 0 1511.0 -4.744662101409662 1
gene  2 215 7 2.1126128402876754 0 1534.0 2.1126128402876754 1
gene  2 2 7 2.089605039321488 0 1585.0 2.089605039321488 1
gene  2 12 7 -1.4758932755666172 0 1716.0 -1.4758932755666172 1
genomeend 51
/* Organism # 052 Fitness:  9,000 Error:  1,000                      */
genomestart  52
trait 1 0.43030748644980743 0.27355213687893665 0.0 0.9797869190912817 0.0 0.0 0.6847123902830005 0.12916835141453142 
trait 2 0.2 0.7428131076073421 0.0 0.6194596212085887 0.0 0.0 0.0 0.0 
trait 3 0.8495577759014167 1.6758223578065796 2.910902454628598 0.022285209322072785 0.5498377699382752 0.0 2.6201895408533393 1.5599648499033192 
node 1 1 1 1
node 2 1 1 1
node 3 1 1 3
node 4 1 0 2
node 5 3 0 0
node 7 3 0 0
node 12 1 0 0
node 60 3 0 0
node 215 1 0 0
node 323 1 0 0
gene  1 1 4 -6.268685340913981 0 1.0 -6.268685340913981 1
gene  2 2 4 -15.729391402062346 0 2.0 -15.729391402062346 1
gene  3 3 4 14.04373082448309 0 3.0 14.04373082448309 1
gene  1 1 5 3.1896036213897423 0 4.0 3.1896036213897423 1
gene  1 5 4 0.7546224066276714 0 5.0 0.7546224066276714 1
gene  1 1 7 -0.1599464836556308 0 10.0 -0.1599464836556308 1
gene  1 7 4 -5.172605748877041 0 11.0 -5.172605748877041 1
gene  1 1 12 -11.022901275097244 0 25.0 -11.022901275097244 1
gene  1 12 4 1.0353975749219388 0 26.0 1.0353975749219388 1
gene  1 2 5 -0.957669929964678 0 245.0 -0.957669929964678 1
gene  1 1 60 12.966098407327177 0 264.0 12.966098407327177 1
gene  1 60 5 -1.6908376446045295 0 265.0 -1.6908376446045295 1
gene  2 3 7 -10.588240087296434 0 280.0 -10.588240087296434 1
gene  3 7 5 0.13685257469344236 0 295.0 0.13685257469344236 1
gene  3 12 60 -1.915532002378308 0 822.0 -1.915532002378308 1
gene  3 3 5 -0.34377513183232833 0 910.0 -0.34377513183232833 1
gene  1 1 215 -1.3694036092959039 0 1035.0 -1.3694036092959039 1
gene  1 215 5 -0.0825573300566742 0 1036.0 -0.0825573300566742 1
gene  1 215 60 8.897826408865273 0 1387.0 8.897826408865273 1
gene  3 2 12 -0.18291944458702725 0 1424.0 -0.18291944458702725 1
gene  1 215 323 -0.3303512059662599 0 1510.0 -0.3303512059662599 1
gene  1 323 5 -4.744662101409662 0 1511.0 -4.744662101409662 1
gene  2 215 7 -0.7838087359969503 0 1534.0 -0.7838087359969503 1
gene  2 2 7 -0.2525137564393915 0 1585.0 -0.2525137564393915 1
gene  2 12 7 -1.1286625088946243 0 1716.0 -1.1286625088946243 1
genomeend 52
/*-------------------------------------------------------------------*/
/* Species # 038         : (size= 006) (AvfFit= 8,159) (Age= 72,000)  */
/*-------------------------------------------------------------------*/
/* Organism # 053 Fitness:  9,000 Error:  1,000                      */
genomestart  53
trait 1 0.1 0.3523315172112398 0.0 0.0 0.0 0.4809194318651705 0.0 0.0 
trait 2 0.2 0.0 0.0 0.0 0.0 0.0 0.0 0.3547596881145114 
trait 3 1.2996916148797006 0.0 0.34465553597210496 0.7225259727165763 1.7077128449778125 0.11777060309655607 0.685614168267841 1.2140439465436317 
node 1 2 1 1
node 2 3 1 1
node 3 2 1 3
node 4 3 0 2
node 12 1 0 0
node 15 1 0 0
node 67 1 0 0
node 281 1 0 0
gene  1 1 4 -6.543419901541912 0 1.0 -6.543419901541912 1
gene  3 2 4 -15.043753176400227 0 2.0 -15.043753176400227 1
gene  3 3 4 10.120535657895601 0 3.0 10.120535657895601 1
gene  3 1 12 -6.5609680066803495 0 25.0 -6.5609680066803495 1
gene  3 12 4 3.353327064141055 0 26.0 3.353327064141055 1
gene  1 1 15 -3.540390093544316 0 40.0 -3.540390093544316 1
gene  1 15 12 2.461787592825295 0 41.0 2.461787592825295 1
gene  1 2 15 0.38763629723528825 0 108.0 0.38763629723528825 1
gene  1 1 67 -2.0635475975927724 0 299.0 -2.0635475975927724 1
gene  1 67 4 2.7310757381842596 0 300.0 2.7310757381842596 1
gene  3 3 67 0.4009815758945859 0 334.0 0.4009815758945859 1
gene  3 3 15 3.5719696955378915 0 634.0 3.5719696955378915 1
gene  3 12 67 4.233105970189714 0 780.0 4.233105970189714 1
gene  1 2 12 -6.4995143322382365 0 991.0 -6.4995143322382365 0
gene  3 3 12 8.363190883269802 0 1222.0 8.363190883269802 1
gene  1 2 281 -3.038479373566401 0 1327.0 -3.038479373566401 1
gene  1 281 12 0.027238242349009734 0 1328.0 0.027238242349009734 1
gene  2 281 67 1.5299675112593287 0 1352.0 1.5299675112593287 1
gene  3 281 4 -0.3811150948846326 0 1566.0 -0.3811150948846326 1
gene  2 2 67 0.3557414678692519 0 1614.0 0.3557414678692519 1
gene  1 3 281 -2.4656671832103334 0 1658.0 -2.4656671832103334 1
gene  2 15 4 -1.8051256833849696 0 1763.0 -1.8051256833849696 1
genomeend 53
/* Organism # 054 Fitness:  9,000 Error:  1,000                      */
genomestart  54
trait 1 0.1 0.3523315172112398 0.0 0.0 0.0 0.4809194318651705 0.0 0.0 
trait 2 0.2 0.0 0.0 0.0 0.0 0.0 0.0 0.3547596881145114 
trait 3 1.2996916148797006 0.0 0.34465553597210496 0.7225259727165763 1.7077128449778125 0.11777060309655607 0.685614168267841 1.2140439465436317 
node 1 2 1 1
node 2 3 1 1
node 3 2 1 3
node 4 3 0 2
node 12 1 0 0
node 15 1 0 0
node 67 1 0 0
node 281 1 0 0
node 392 1 0 0
gene  1 1 4 -6.543419901541912 0 1.0 -6.543419901541912 1
gene  3 2 4 -15.043753176400227 0 2.0 -15.043753176400227 1
gene  3 3 4 10.120535657895601 0 3.0 10.120535657895601 1
gene  3 1 12 -6.5609680066803495 0 25.0 -6.5609680066803495 1
gene  3 12 4 3.353327064141055 0 26.0 3.353327064141055 1
gene  1 1 15 -3.540390093544316 0 40.0 -3.540390093544316 1
gene  1 15 12 2.461787592825295 0 41.0 2.461787592825295 1
gene  1 2 15 0.38763629723528825 0 108.0 0.38763629723528825 0
gene  1 1 67 -2.0635475975927724 0 299.0 -2.0635475975927724 1
gene  1 67 4 2.7310757381842596 0 300.0 2.7310757381842596 1
gene  3 3 67 0.4009815758945859 0 334.0 0.4009815758945859 1
gene  3 3 15 3.5719696955378915 0 634.0 3.5719696955378915 1
gene  3 12 67 4.233105970189714 0 780.0 4.233105970189714 1
gene  1 2 12 -6.4995143322382365 0 991.0 -6.4995143322382365 0
gene  3 3 12 8.363190883269802 0 1222.0 8.363190883269802 1
gene  1 2 281 -3.038479373566401 0 1327.0 -3.038479373566401 1
gene  1 281 12 0.027238242349009734 0 1328.0 0.027238242349009734 1
gene  2 281 67 1.5299675112593287 0 1352.0 1.5299675112593287 1
gene  3 281 4 -0.3811150948846326 0 1566.0 -0.3811150948846326 1
gene  2 2 67 0.3557414678692519 0 1614.0 0.3557414678692519 1
gene  1 3 281 -2.4656671832103334 0 1658.0 -2.4656671832103334 1
gene  2 15 4 -1.8051256833849696 0 1763.0 -1.8051256833849696 1
gene  1 2 392 1.0 0 1796.0 0.0 1
gene  1 392 15 0.38763629723528825 0 1797.0 0.0 1
genomeend 54
/* Organism # 055 Fitness:  9,000 Error:  1,000                      */
genomestart  55
trait 1 0.1 0.3523315172112398 0.0 0.0 0.0 0.4809194318651705 0.0 0.0 
trait 2 0.2 0.0 0.0 0.0 0.0 0.0 0.0 0.3547596881145114 
trait 3 1.2996916148797006 0.0 0.34465553597210496 0.7225259727165763 1.7077128449778125 0.11777060309655607 0.685614168267841 1.2140439465436317 
node 1 2 1 1
node 2 3 1 1
node 3 2 1 3
node 4 3 0 2
node 12 1 0 0
node 15 1 0 0
node 67 1 0 0
node 281 1 0 0
gene  1 1 4 -6.45306909500515 0 1.0 -6.45306909500515 1
gene  3 2 4 -15.084958042804876 0 2.0 -15.084958042804876 1
gene  3 3 4 8.301533065482047 0 3.0 8.301533065482047 1
gene  3 1 12 -8.09878549319295 0 25.0 -8.09878549319295 1
gene  3 12 4 4.549272284793845 0 26.0 4.549272284793845 1
gene  1 1 15 -1.6825249580643613 0 40.0 -1.6825249580643613 1
gene  1 15 12 4.43463958527111 0 41.0 4.43463958527111 1
gene  1 2 15 0.6327813425387734 0 108.0 0.6327813425387734 1
gene  1 1 67 0.271829677012573 0 299.0 0.271829677012573 1
gene  1 67 4 1.918061833871205 0 300.0 1.918061833871205 1
gene  3 3 67 -1.387668542595024 0 334.0 -1.387668542595024 1
gene  3 3 15 4.3534911990939955 0 634.0 4.3534911990939955 1
gene  3 12 67 2.5394661980459876 0 780.0 2.5394661980459876 1
gene  1 2 12 -6.245602183043031 0 991.0 -6.245602183043031 0
gene  3 3 12 6.950026588549943 0 1222.0 6.950026588549943 1
gene  1 2 281 -2.214972616020326 0 1327.0 -2.214972616020326 1
gene  1 281 12 0.035093052146937254 0 1328.0 0.035093052146937254 1
gene  2 281 67 2.3691077856572065 0 1352.0 2.3691077856572065 1
gene  3 281 4 -0.3811150948846326 0 1566.0 -0.3811150948846326 1
gene  2 2 67 -1.9582449846111123 0 1614.0 -1.9582449846111123 1
gene  1 3 281 -0.516353638220487 0 1658.0 -0.516353638220487 1
gene  2 15 4 -1.2503189769022711 0 1763.0 -1.2503189769022711 1
genomeend 55
/* Organism # 056 Fitness:  8,956 Error:  1,007                      */
genomestart  56
trait 1 0.1 0.3523315172112398 0.0 0.0 0.0 0.4809194318651705 0.0 0.0 
trait 2 0.2 0.0 0.0 0.0 0.0 0.0 0.0 0.3547596881145114 
trait 3 1.2996916148797006 0.0 0.34465553597210496 0.7225259727165763 1.7077128449778125 0.11777060309655607 0.685614168267841 1.2140439465436317 
node 1 2 1 1
node 2 3 1 1
node 3 2 1 3
node 4 3 0 2
node 12 1 0 0
node 15 1 0 0
node 67 1 0 0
node 281 1 0 0
gene  1 1 4 -10.39623071863091 0 1.0 -10.39623071863091 1
gene  3 2 4 -10.417866411281118 0 2.0 -10.417866411281118 1
gene  3 3 4 12.737732679054343 0 3.0 12.737732679054343 1
gene  3 1 12 -0.14813492363997205 0 25.0 -0.14813492363997205 1
gene  3 12 4 7.0799591765908385 0 26.0 7.0799591765908385 1
gene  1 1 15 -5.33544855969958 0 40.0 -5.33544855969958 1
gene  1 15 12 -0.2905571371171911 0 41.0 -0.2905571371171911 1
gene  1 2 15 -1.8360192861520899 0 108.0 -1.8360192861520899 1
gene  1 1 67 -0.08201245072385399 0 299.0 -0.08201245072385399 1
gene  1 67 4 0.7000497423841767 0 300.0 0.7000497423841767 1
gene  3 3 67 -4.269165357750987 0 334.0 -4.269165357750987 1
gene  3 3 15 3.3954034430429108 0 634.0 3.3954034430429108 1
gene  3 12 67 1.98108966759864 0 780.0 1.98108966759864 1
gene  1 2 12 -1.994604113721984 0 991.0 -1.994604113721984 0
gene  3 3 12 10.538248602049702 0 1222.0 10.538248602049702 1
gene  1 2 281 -8.794514776676237 0 1327.0 -8.794514776676237 1
gene  1 281 12 1.4429815020941772 0 1328.0 1.4429815020941772 1
gene  2 281 67 1.1914576778767634 0 1352.0 1.1914576778767634 1
gene  3 281 4 -0.146324655128653 0 1566.0 -0.146324655128653 1
gene  2 2 67 0.05641839630261003 0 1614.0 0.05641839630261003 1
gene  1 3 281 -0.5605457658462827 0 1658.0 -0.5605457658462827 1
genomeend 56
/* Organism # 057 Fitness:  9,000 Error:  1,000                      */
genomestart  57
trait 1 0.1 0.3523315172112398 0.0 0.0 0.0 0.4809194318651705 0.0 0.0 
trait 2 0.2 0.0 0.0 0.0 0.0 0.0 0.0 0.3547596881145114 
trait 3 1.2996916148797006 0.0 0.34465553597210496 0.7225259727165763 1.7077128449778125 0.11777060309655607 0.685614168267841 1.2140439465436317 
node 1 2 1 1
node 2 3 1 1
node 3 2 1 3
node 4 3 0 2
node 12 1 0 0
node 15 1 0 0
node 67 1 0 0
node 281 1 0 0
gene  1 1 4 -6.543419901541912 0 1.0 -6.543419901541912 1
gene  3 2 4 -15.043753176400227 0 2.0 -15.043753176400227 1
gene  3 3 4 10.120535657895601 0 3.0 10.120535657895601 1
gene  3 1 12 -6.5609680066803495 0 25.0 -6.5609680066803495 1
gene  3 12 4 3.353327064141055 0 26.0 3.353327064141055 1
gene  1 1 15 -3.540390093544316 0 40.0 -3.540390093544316 1
gene  1 15 12 2.461787592825295 0 41.0 2.461787592825295 1
