/* Species # 001         : (size= 003) (AvfFit= 8,999) (Age= 72,000)  */
/*-------------------------------------------------------------------*/
/* Organism # 000 Fitness:  9,000 Error:  1,000                      */
genomestart  0
trait 1 0.0 0.0 0.0 0.0 0.0 0.0 0.0 0.0 
trait 2 0.0 0.12164882254541409 0.0 0.16000971012070053 0.0 0.6105478423543726 0.0 0.0 
trait 3 0.11451302014212156 0.0 0.39448116603739247 0.0 0.0 0.0 0.0 0.0 
node 1 1 1 1
node 2 2 1 1
node 3 1 1 3
node 4 1 0 2
node 84 1 0 0
node 171 3 0 0
gene  3 1 4 -7.5613859007420725 0 1.0 -7.5613859007420725 1
gene  1 2 4 15.648481589745343 0 2.0 15.648481589745343 1
gene  2 3 4 13.235068642313571 0 3.0 13.235068642313571 1
gene  1 1 84 12.734234247626434 0 381.0 12.734234247626434 0
gene  1 84 4 -1.1918878399963035 0 382.0 -1.1918878399963035 1
gene  1 2 84 -0.35769610982884137 0 538.0 -0.35769610982884137 1
gene  3 3 84 -3.234867844303791 0 593.0 -3.234867844303791 1
gene  1 1 171 1.12879798987516 0 825.0 1.12879798987516 1
gene  1 171 84 -0.8151501608697351 0 826.0 -0.8151501608697351 1
gene  3 3 171 -3.8292521758108 0 917.0 -3.8292521758108 1
gene  1 2 171 -6.189728535781293 0 1216.0 -6.189728535781293 1
genomeend 0
/* Organism # 001 Fitness:  9,000 Error:  1,000                      */
genomestart  1
trait 1 0.0 0.0 0.0 0.0 0.0 0.0 0.0 0.0 
trait 2 0.0 0.12164882254541409 0.0 0.16000971012070053 0.0 0.6105478423543726 0.0 0.0 
trait 3 0.11451302014212156 0.0 0.39448116603739247 0.0 0.0 0.0 0.0 0.0 
node 1 1 1 1
node 2 2 1 1
node 3 1 1 3
node 4 1 0 2
node 84 1 0 0
node 171 3 0 0
gene  3 1 4 -8.392993514346157 0 1.0 -8.392993514346157 1
gene  1 2 4 16.543653979068633 0 2.0 16.543653979068633 1
gene  2 3 4 13.235068642313571 0 3.0 13.235068642313571 1
gene  1 1 84 14.453188476523247 0 381.0 14.453188476523247 0
gene  1 84 4 2.131847196468488 0 382.0 2.131847196468488 1
gene  1 2 84 -2.822754496893665 0 538.0 -2.822754496893665 1
gene  3 3 84 -1.2046710451278915 0 593.0 -1.2046710451278915 1
gene  1 1 171 -0.2644006633685072 0 825.0 -0.2644006633685072 1
gene  1 171 84 0.11505771644885421 0 826.0 0.11505771644885421 1
gene  3 3 171 -2.084338541445132 0 917.0 -2.084338541445132 1
genomeend 1
/* Organism # 002 Fitness:  8,997 Error:  1,000                      */
genomestart  2
trait 1 0.0 0.0 0.0 0.0 0.0 0.0 0.0 0.0 
trait 2 0.0 0.12164882254541409 0.0 0.16000971012070053 0.0 0.6105478423543726 0.0 0.0 
trait 3 0.11451302014212156 0.0 0.39448116603739247 0.0 0.0 0.0 0.0 0.0 
node 1 1 1 1
node 2 2 1 1
node 3 1 1 3
node 4 1 0 2
node 84 1 0 0
node 171 3 0 0
gene  3 1 4 -0.904053194531183 0 1.0 -0.904053194531183 1
gene  1 2 4 17.47932834147135 0 2.0 17.47932834147135 1
gene  2 3 4 13.496543989883818 0 3.0 13.496543989883818 1
gene  1 1 84 10.631854651492933 0 381.0 10.631854651492933 0
gene  1 84 4 -0.887900318486198 0 382.0 -0.887900318486198 1
gene  1 2 84 -1.0525168530588684 0 538.0 -1.0525168530588684 1
gene  3 3 84 -4.9099737227715075 0 593.0 -4.9099737227715075 1
gene  1 1 171 -0.19709327174537306 0 825.0 -0.19709327174537306 1
gene  1 171 84 0.7008545843667985 0 826.0 0.7008545843667985 1
gene  3 3 171 -2.9291036220892783 0 917.0 -2.9291036220892783 1
genomeend 2
/*-------------------------------------------------------------------*/
/* Species # 002         : (size= 004) (AvfFit= 7,598) (Age= 70,000)  */
/*-------------------------------------------------------------------*/
/* Organism # 003 Fitness:  9,000 Error:  1,000                      */
genomestart  3
trait 1 0.1 0.0 0.0 0.30397849318147796 0.011495292781822517 0.0 0.0 0.00206311963066415 
trait 2 0.42000616145913794 0.31707582415339564 0.0 0.0 0.0 0.0 0.0 0.0 
trait 3 0.3 0.0 0.005759404633646656 0.023685799648318052 0.009735323139203025 0.8152900615263758 0.0 0.011754876500900707 
node 1 2 1 1
node 2 1 1 1
node 3 1 1 3
node 4 1 0 2
node 5 3 0 0
node 121 1 0 0
gene  3 1 4 10.62427479398677 0 1.0 10.62427479398677 1
gene  2 2 4 21.05663440522898 0 2.0 21.05663440522898 1
gene  3 3 4 -18.055019962915843 0 3.0 -18.055019962915843 1
gene  1 1 5 5.564826886616607 0 4.0 5.564826886616607 1
gene  1 5 4 -16.94971090086778 0 5.0 -16.94971090086778 1
gene  3 2 5 -2.3728183369642086 0 8.0 -2.3728183369642086 1
gene  1 3 5 3.3966230574952787 0 332.0 3.3966230574952787 1
gene  1 1 121 -3.344454234993175 0 556.0 -3.344454234993175 1
gene  1 121 5 4.3245569138113975 0 557.0 4.3245569138113975 1
gene  1 2 121 -1.490726030231174 0 654.0 -1.490726030231174 1
gene  2 3 121 -3.6192922135608363 0 673.0 -3.6192922135608363 1
gene  3 121 4 -5.094207696070338 0 863.0 -5.094207696070338 1
genomeend 3
/* Organism # 004 Fitness:  9,000 Error:  1,000                      */
genomestart  4
trait 1 0.1 0.0 0.0 0.30397849318147796 0.011495292781822517 0.0 0.0 0.00206311963066415 
trait 2 0.42000616145913794 0.31707582415339564 0.0 0.0 0.0 0.0 0.0 0.0 
trait 3 0.3 0.0 0.005759404633646656 0.023685799648318052 0.009735323139203025 0.8152900615263758 0.0 0.011754876500900707 
node 1 2 1 1
node 2 1 1 1
node 3 1 1 3
node 4 1 0 2
node 5 2 0 0
node 121 1 0 0
gene  3 1 4 9.965106981871596 0 1.0 9.965106981871596 1
gene  2 2 4 19.071915705174334 0 2.0 19.071915705174334 1
gene  3 3 4 -17.552383938154474 0 3.0 -17.552383938154474 1
gene  1 1 5 7.956028239024314 0 4.0 7.956028239024314 1
gene  1 5 4 -19.37783618793807 0 5.0 -19.37783618793807 1
gene  3 2 5 0.08917247842554088 0 8.0 0.08917247842554088 1
gene  1 3 5 2.8533052543972843 0 332.0 2.8533052543972843 1
gene  1 1 121 -1.8328738540826053 0 556.0 -1.8328738540826053 1
gene  1 121 5 2.6195307493127666 0 557.0 2.6195307493127666 1
gene  1 2 121 -2.719652500992761 0 654.0 -2.719652500992761 1
gene  3 3 121 -3.6192922135608363 0 673.0 -3.6192922135608363 1
gene  3 121 4 -5.26149501497647 0 863.0 -5.26149501497647 1
genomeend 4
/* Organism # 005 Fitness:  9,000 Error:  1,000                      */
genomestart  5
trait 1 0.1 0.0 0.0 0.30397849318147796 0.011495292781822517 0.0 0.0 0.00206311963066415 
trait 2 0.42000616145913794 0.31707582415339564 0.0 0.0 0.0 0.0 0.0 0.0 
trait 3 0.3 0.0 0.005759404633646656 0.023685799648318052 0.009735323139203025 0.8152900615263758 0.0 0.011754876500900707 
node 1 2 1 1
node 2 1 1 1
node 3 1 1 3
node 4 1 0 2
node 5 2 0 0
node 121 1 0 0
gene  3 1 4 9.547619025137365 0 1.0 9.547619025137365 1
gene  2 2 4 17.26735694867832 0 2.0 17.26735694867832 1
gene  3 3 4 -16.98681167814882 0 3.0 -16.98681167814882 1
gene  1 1 5 6.168581113829477 0 4.0 6.168581113829477 1
gene  1 5 4 -19.3035239825571 0 5.0 -19.3035239825571 1
gene  3 2 5 -1.6873122678852805 0 8.0 -1.6873122678852805 1
gene  1 3 5 1.3586539013727537 0 332.0 1.3586539013727537 1
gene  1 1 121 -2.165128722230583 0 556.0 -2.165128722230583 1
gene  1 121 5 4.157023364827886 0 557.0 4.157023364827886 1
gene  1 2 121 -2.1518371521806077 0 654.0 -2.1518371521806077 1
gene  2 3 121 -4.543868686058957 0 673.0 -4.543868686058957 1
gene  3 121 4 -5.26149501497647 0 863.0 -5.26149501497647 1
genomeend 5
/* Organism # 006 Fitness:  3,392 Error:  2,158                      */
genomestart  6
trait 1 0.1 0.0 0.0 0.30397849318147796 0.011495292781822517 0.0 0.0 0.00206311963066415 
trait 2 0.42000616145913794 0.31707582415339564 0.0 0.0 0.0 0.0 0.0 0.0 
trait 3 0.3 0.0 0.005759404633646656 0.023685799648318052 0.009735323139203025 0.8152900615263758 0.0 0.011754876500900707 
node 1 2 1 1
node 2 1 1 1
node 3 1 1 3
node 4 1 0 2
node 5 2 0 0
node 121 1 0 0
gene  3 1 4 1.617634565456954 0 1.0 1.617634565456954 1
gene  2 2 4 16.99222971411329 0 2.0 16.99222971411329 1
gene  3 3 4 -0.7062745113134061 0 3.0 -0.7062745113134061 1
gene  1 1 5 6.469387008720227 0 4.0 6.469387008720227 1
gene  1 5 4 -0.5810911660485246 0 5.0 -0.5810911660485246 1
gene  3 2 5 -1.217596107342568 0 8.0 -1.217596107342568 1
gene  1 3 5 2.112002487334695 0 332.0 2.112002487334695 1
gene  1 1 121 -1.9946840682656986 0 556.0 -1.9946840682656986 1
gene  1 121 5 2.590486122681903 0 557.0 2.590486122681903 1
gene  1 2 121 -2.719652500992761 0 654.0 -2.719652500992761 1
gene  2 3 121 -3.1467014905097135 0 673.0 -3.1467014905097135 1
gene  3 121 4 -4.4945978508028555 0 863.0 -4.4945978508028555 1
genomeend 6
/*-------------------------------------------------------------------*/
/* Species # 003         : (size= 003) (AvfFit= 9,000) (Age= 69,000)  */
/*-------------------------------------------------------------------*/
/* Organism # 007 Fitness:  9,000 Error:  1,000                      */
genomestart  7
trait 1 0.24529831478263675 0.0 0.0 0.0 0.0 0.0 0.0 0.0 
trait 2 0.0 0.0031211841603571155 0.9912896452680293 0.10387949668834628 0.8742722211053654 0.29763645693557517 0.6693122862190585 0.0 
trait 3 0.10653868622867413 0.0 0.0 0.04273968451844101 0.0 0.0 0.5591637474897992 0.9586955729685762 
node 1 1 1 1
node 2 3 1 1
node 3 1 1 3
node 4 1 0 2
node 5 1 0 0
node 7 1 0 0
node 116 2 0 0
node 186 2 0 0
node 200 1 0 0
gene  1 1 4 1.8800202556351175 0 1.0 1.8800202556351175 1
gene  1 2 4 -22.12748829090986 0 2.0 -22.12748829090986 1
gene  3 3 4 32.458539865231 0 3.0 32.458539865231 1
gene  1 1 5 6.477643012389745 0 4.0 6.477643012389745 1
gene  1 5 4 0.5190156175920289 0 5.0 0.5190156175920289 0
gene  1 1 7 15.204245330762758 0 10.0 15.204245330762758 1
gene  1 7 4 -0.49779539169933135 0 11.0 -0.49779539169933135 1
gene  3 5 7 4.127059320915064 0 122.0 4.127059320915064 1
gene  2 2 5 1.1985579055039894 0 154.0 1.1985579055039894 1
gene  3 2 7 -0.2648672617823673 0 247.0 -0.2648672617823673 1
gene  3 3 7 2.2419656214231773 0 406.0 2.2419656214231773 1
gene  1 1 116 -2.341538281833499 0 529.0 -2.341538281833499 1
gene  1 116 5 0.9442519547583822 0 530.0 0.9442519547583822 1
gene  1 2 116 3.6181752665377456 0 606.0 3.6181752665377456 1
gene  3 116 7 -1.196441999454145 0 699.0 -1.196441999454145 0
gene  3 3 116 -0.6289302776915134 0 845.0 -0.6289302776915134 1
gene  3 116 186 -2.1985869666689415 0 898.0 -2.1985869666689415 1
gene  3 186 7 -0.2287397206234827 0 899.0 -0.2287397206234827 1
gene  1 5 200 0.9640155079883808 0 972.0 0.9640155079883808 1
gene  1 200 4 -13.79248581155612 0 973.0 -13.79248581155612 1
gene  2 2 200 1.3410147234790124 0 1119.0 1.3410147234790124 1
genomeend 7
/* Organism # 008 Fitness:  9,000 Error:  1,000                      */
genomestart  8
trait 1 0.24529831478263675 0.0 0.0 0.0 0.0 0.0 0.0 0.0 
trait 2 0.0 0.0031211841603571155 0.9912896452680293 0.10387949668834628 0.8742722211053654 0.29763645693557517 0.6693122862190585 0.0 
trait 3 0.10653868622867413 0.0 0.0 0.04273968451844101 0.0 0.0 0.5591637474897992 0.9586955729685762 
node 1 1 1 1
node 2 3 1 1
node 3 1 1 3
node 4 1 0 2
node 5 1 0 0
node 7 1 0 0
node 116 2 0 0
node 186 2 0 0
node 200 1 0 0
node 243 1 0 0
gene  1 1 4 -0.7080257241837291 0 1.0 -0.7080257241837291 1
gene  1 2 4 -20.411364134997516 0 2.0 -20.411364134997516 1
gene  3 3 4 30.842073886182366 0 3.0 30.842073886182366 1
gene  1 1 5 10.276180090359722 0 4.0 10.276180090359722 1
gene  1 5 4 -11.623514111804852 0 5.0 -11.623514111804852 0
gene  1 1 7 15.649862368099301 0 10.0 15.649862368099301 1
gene  1 7 4 -1.1987610962213766 0 11.0 -1.1987610962213766 1
gene  3 5 7 3.6823076585001924 0 122.0 3.6823076585001924 1
gene  2 2 5 1.1003322957426216 0 154.0 1.1003322957426216 1
gene  3 2 7 -2.3278126653507147 0 247.0 -2.3278126653507147 0
gene  3 3 7 2.2073018054092612 0 406.0 2.2073018054092612 1
gene  1 1 116 4.166841155703976 0 529.0 4.166841155703976 1
gene  1 116 5 4.829962947682326 0 530.0 4.829962947682326 1
gene  1 2 116 3.7784160774897098 0 606.0 3.7784160774897098 1
gene  3 116 7 1.2423217888248206 0 699.0 1.2423217888248206 0
gene  3 3 116 2.99888422459272 0 845.0 2.99888422459272 1
gene  3 116 186 -2.506389101699119 0 898.0 -2.506389101699119 1
gene  3 186 7 1.0127617250721523 0 899.0 1.0127617250721523 1
gene  1 5 200 2.864314529083205 0 972.0 2.864314529083205 1
gene  1 200 4 -13.708280557086507 0 973.0 -13.708280557086507 1
gene  2 2 200 -1.3533049288638335 0 1119.0 -1.3533049288638335 1
gene  3 2 243 -0.32538120334930687 0 1173.0 -0.32538120334930687 1
gene  3 243 7 -1.4772750139065434 0 1174.0 -1.4772750139065434 1
genomeend 8
/* Organism # 009 Fitness:  9,000 Error:  1,000                      */
genomestart  9
trait 1 0.24529831478263675 0.0 0.0 0.0 0.0 0.0 0.0 0.0 
trait 2 0.0 0.0031211841603571155 0.9912896452680293 0.10387949668834628 0.8742722211053654 0.29763645693557517 0.6693122862190585 0.0 
trait 3 0.10653868622867413 0.0 0.0 0.04273968451844101 0.0 0.0 0.5591637474897992 0.9586955729685762 
node 1 1 1 1
node 2 3 1 1
node 3 1 1 3
node 4 1 0 2
node 5 1 0 0
node 7 1 0 0
node 116 2 0 0
node 186 2 0 0
node 200 1 0 0
node 243 1 0 0
gene  1 1 4 -4.2139928552950545 0 1.0 -4.2139928552950545 1
gene  1 2 4 -23.396171020614926 0 2.0 -23.396171020614926 1
gene  3 3 4 29.092643920345264 0 3.0 29.092643920345264 1
gene  1 1 5 9.046071465387264 0 4.0 9.046071465387264 1
gene  1 5 4 -10.958561624957696 0 5.0 -10.958561624957696 0
gene  1 1 7 15.602038476425948 0 10.0 15.602038476425948 1
gene  1 7 4 -1.0220143814913545 0 11.0 -1.0220143814913545 1
gene  3 5 7 1.8451133338482033 0 122.0 1.8451133338482033 1
gene  2 2 5 -0.8662224855403868 0 154.0 -0.8662224855403868 1
gene  3 2 7 0.3977332919004175 0 247.0 0.3977332919004175 0
gene  3 3 7 2.1148334146484884 0 406.0 2.1148334146484884 1
gene  1 1 116 0.9616726803584978 0 529.0 0.9616726803584978 1
gene  1 116 5 4.028366877785498 0 530.0 4.028366877785498 1
gene  1 2 116 -0.2888913228911927 0 606.0 -0.2888913228911927 1
gene  3 116 7 0.054960593412566594 0 699.0 0.054960593412566594 0
gene  3 3 116 -1.5888557446109528 0 845.0 -1.5888557446109528 1
gene  3 116 186 -1.8209427864237755 0 898.0 -1.8209427864237755 1
gene  3 186 7 4.161033631843201 0 899.0 4.161033631843201 1
gene  1 5 200 2.136415223728904 0 972.0 2.136415223728904 1
gene  1 200 4 -14.8560150332121 0 973.0 -14.8560150332121 1
gene  2 2 200 5.761310262969657 0 1119.0 5.761310262969657 1
gene  3 2 243 0.8119475368858902 0 1173.0 0.8119475368858902 1
gene  3 243 7 1.6567722236950448 0 1174.0 1.6567722236950448 1
genomeend 9
/*-------------------------------------------------------------------*/
/* Species # 004         : (size= 003) (AvfFit= 5,714) (Age= 68,000)  */
/*-------------------------------------------------------------------*/
/* Organism # 010 Fitness:  4,143 Error:  1,964                      */
genomestart  10
trait 1 0.0 0.0 0.0 0.11515979884592453 0.10820001854691197 0.6782844712534337 0.49826864144017213 0.0 
trait 2 0.2 0.0 0.0 0.0 0.0 0.0 0.0 0.0 
trait 3 0.4962279769096369 0.8502529274642209 0.0 0.0 0.0 0.1979837198087172 0.0 0.0 
node 1 1 1 1
node 2 1 1 1
node 3 1 1 3
node 4 3 0 2
node 14 3 0 0
node 146 1 0 0
node 163 2 0 0
node 233 1 0 0
gene  1 1 4 0.4693289199970138 0 1.0 0.4693289199970138 1
gene  2 2 4 0.851757359129113 0 2.0 0.851757359129113 1
gene  2 3 4 13.503466004922513 0 3.0 13.503466004922513 1
gene  2 1 14 2.0766024573354622 0 35.0 2.0766024573354622 0
gene  1 14 4 -8.517108653391327 0 36.0 -8.517108653391327 1
gene  1 2 14 1.2314125299831251 0 242.0 1.2314125299831251 1
gene  2 3 14 -1.1484000301812216 0 254.0 -1.1484000301812216 1
gene  2 2 146 4.204783127802068 0 700.0 4.204783127802068 1
gene  2 146 4 -14.154030066805412 0 701.0 -14.154030066805412 1
gene  1 1 163 -1.5391824455510865 0 785.0 -1.5391824455510865 1
gene  1 163 14 -2.7830067709719977 0 786.0 -2.7830067709719977 1
gene  2 146 163 -1.2696616441935837 0 930.0 -1.2696616441935837 1
gene  2 1 233 0.32924493397035093 0 1126.0 0.32924493397035093 1
gene  2 233 14 0.6139411307617078 0 1127.0 0.6139411307617078 1
gene  2 2 163 8.857808904849026 0 1147.0 8.857808904849026 1
genomeend 10
/* Organism # 011 Fitness:  4,000 Error:  2,000                      */
genomestart  11
trait 1 0.0 0.0 0.0 0.11515979884592453 0.10820001854691197 0.6782844712534337 0.49826864144017213 0.0 
trait 2 0.2 0.0 0.0 0.0 0.0 0.0 0.0 0.0 
trait 3 0.4962279769096369 0.8502529274642209 0.0 0.0 0.0 0.1979837198087172 0.0 0.0 
node 1 1 1 1
node 2 1 1 1
node 3 1 1 3
node 4 3 0 2
node 14 3 0 0
node 146 1 0 0
node 163 1 0 0
node 233 1 0 0
gene  1 1 4 -0.1742617213583797 0 1.0 -0.1742617213583797 1
gene  2 2 4 2.8109555672372353 0 2.0 2.8109555672372353 1
gene  2 3 4 14.444201727618399 0 3.0 14.444201727618399 1
gene  2 1 14 1.01096069977685 0 35.0 1.01096069977685 0
gene  1 14 4 1.981683665307832 0 36.0 1.981683665307832 1
gene  1 2 14 14.493699917703612 0 242.0 14.493699917703612 1
gene  2 3 14 -5.4866775665303535 0 254.0 -5.4866775665303535 1
gene  2 2 146 6.10219108934477 0 700.0 6.10219108934477 1
gene  2 146 4 -14.947294598386026 0 701.0 -14.947294598386026 1
gene  1 1 163 0.13927462519747014 0 785.0 0.13927462519747014 1
gene  1 163 14 -5.854936485110908 0 786.0 -5.854936485110908 1
gene  2 146 163 -1.4529687152812558 0 930.0 -1.4529687152812558 1
gene  2 1 233 0.2761578517221235 0 1126.0 0.2761578517221235 1
gene  2 233 14 1.193278309469362 0 1127.0 1.193278309469362 1
gene  2 2 163 8.556279822517869 0 1147.0 8.556279822517869 1
genomeend 11
/* Organism # 012 Fitness:  9,000 Error:  1,000                      */
genomestart  12
trait 1 0.0 0.0 0.0 0.11515979884592453 0.10820001854691197 0.6782844712534337 0.49826864144017213 0.0 
trait 2 0.2 0.0 0.0 0.0 0.0 0.0 0.0 0.0 
trait 3 0.4962279769096369 0.8502529274642209 0.0 0.0 0.0 0.1979837198087172 0.0 0.0 
node 1 1 1 1
node 2 1 1 1
node 3 1 1 3
node 4 3 0 2
node 14 3 0 0
node 146 1 0 0
node 163 2 0 0
node 233 1 0 0
node 254 1 0 0
gene  1 1 4 -1.1041871962627503 0 1.0 -1.1041871962627503 1
gene  2 2 4 0.8800556445507246 0 2.0 0.8800556445507246 1
gene  2 3 4 14.98026267364476 0 3.0 14.98026267364476 1
gene  2 1 14 2.0766024573354622 0 35.0 2.0766024573354622 0
gene  1 14 4 -9.484169977543681 0 36.0 -9.484169977543681 1
gene  1 2 14 14.487915824723792 0 242.0 14.487915824723792 1
gene  2 3 14 -3.4331845972845687 0 254.0 -3.4331845972845687 1
gene  2 2 146 6.10219108934477 0 700.0 6.10219108934477 1
gene  2 146 4 -14.154030066805412 0 701.0 -14.154030066805412 1
gene  1 1 163 -1.6274187375563507 0 785.0 -1.6274187375563507 1
gene  1 163 14 -4.132471858764161 0 786.0 -4.132471858764161 1
gene  2 146 163 -1.6150058686453732 0 930.0 -1.6150058686453732 0
gene  2 1 233 1.0 0 1126.0 0.0 1
gene  2 233 14 2.0766024573354622 0 1127.0 0.0 1
gene  2 2 163 6.956999431778165 0 1147.0 6.956999431778165 1
gene  2 146 254 1.0 0 1212.0 0.0 1
gene  2 254 163 -1.6150058686453732 0 1213.0 0.0 1
genomeend 12
/*-------------------------------------------------------------------*/
/* Species # 005         : (size= 005) (AvfFit= 7,987) (Age= 68,000)  */
/*-------------------------------------------------------------------*/
/* Organism # 013 Fitness:  3,994 Error:  2,001                      */
genomestart  13
trait 1 0.025 0.5448851764810688 0.0 0.0 0.0 0.3244007105419121 0.0 0.0 
trait 2 0.2 0.0 0.0 0.0 0.0 0.0 0.0 0.0 
trait 3 0.3190884541009838 0.9695881249306622 0.0 0.0 0.1066469058176206 0.0 0.0 0.09539242270437731 
node 1 1 1 1
node 2 1 1 1
node 3 1 1 3
node 4 2 0 2
node 6 1 0 0
node 10 1 0 0
gene  1 1 4 4.163529310711832 0 1.0 4.163529310711832 1
gene  2 2 4 5.912685670645719 0 2.0 5.912685670645719 1
gene  3 3 4 -2.3578402649072245 0 3.0 -2.3578402649072245 1
gene  1 1 6 -0.6265462133720696 0 6.0 -0.6265462133720696 0
gene  1 6 4 -8.9433760766927 0 7.0 -8.9433760766927 1
gene  1 1 10 7.79826478268457 0 17.0 7.79826478268457 1
gene  1 10 6 1.732075801181413 0 18.0 1.732075801181413 1
gene  1 3 6 -6.957079506724791 0 167.0 -6.957079506724791 1
gene  1 2 10 -13.975976116862423 0 182.0 -13.975976116862423 1
gene  1 2 6 0.7671085128826793 0 271.0 0.7671085128826793 1
gene  1 3 10 -0.701525159766893 0 626.0 -0.701525159766893 1
gene  1 10 4 -5.817498310012163 0 864.0 -5.817498310012163 1
genomeend 13
/* Organism # 014 Fitness:  9,000 Error:  1,000                      */
genomestart  14
trait 1 0.025 0.5448851764810688 0.0 0.0 0.0 0.3244007105419121 0.0 0.0 
trait 2 0.2 0.0 0.0 0.0 0.0 0.0 0.0 0.0 
trait 3 0.3190884541009838 0.9695881249306622 0.0 0.0 0.1066469058176206 0.0 0.0 0.09539242270437731 
node 1 1 1 1
node 2 1 1 1
node 3 1 1 3
node 4 2 0 2
node 6 1 0 0
node 10 1 0 0
node 252 1 0 0
gene  1 1 4 0.1372201321380031 0 1.0 0.1372201321380031 0
gene  2 2 4 6.343220182415949 0 2.0 6.343220182415949 1
gene  3 3 4 17.740710325587408 0 3.0 17.740710325587408 1
gene  1 1 6 -3.2510410161526924 0 6.0 -3.2510410161526924 0
gene  1 6 4 -6.720479271226779 0 7.0 -6.720479271226779 1
gene  1 1 10 5.616641682377532 0 17.0 5.616641682377532 1
gene  1 10 6 1.7901105704863454 0 18.0 1.7901105704863454 1
gene  1 3 6 -7.51025498953141 0 167.0 -7.51025498953141 1
gene  3 2 10 -13.423658255377388 0 182.0 -13.423658255377388 1
gene  1 2 6 -13.13889230928039 0 271.0 -13.13889230928039 1
gene  1 3 10 0.9223294981638404 0 626.0 0.9223294981638404 1
gene  1 10 4 -2.9332587246669997 0 864.0 -2.9332587246669997 1
gene  1 1 252 1.0 0 1198.0 0.0 1
gene  1 252 4 0.1372201321380031 0 1199.0 0.0 1
genomeend 14
/* Organism # 015 Fitness:  9,000 Error:  1,000                      */
genomestart  15
trait 1 0.025 0.5448851764810688 0.0 0.0 0.0 0.3244007105419121 0.0 0.0 
trait 2 0.2 0.0 0.0 0.0 0.0 0.0 0.0 0.0 
trait 3 0.3190884541009838 0.9695881249306622 0.0 0.0 0.1066469058176206 0.0 0.0 0.09539242270437731 
node 1 1 1 1
node 2 1 1 1
node 3 1 1 3
node 4 2 0 2
node 6 1 0 0
node 10 1 0 0
gene  1 1 4 2.804159312517407 0 1.0 2.804159312517407 1
gene  2 2 4 4.103199598789349 0 2.0 4.103199598789349 1
gene  3 3 4 19.29819496885333 0 3.0 19.29819496885333 1
gene  1 1 6 -2.2294312893057135 0 6.0 -2.2294312893057135 0
gene  1 6 4 -7.12960578985089 0 7.0 -7.12960578985089 1
gene  1 1 10 7.685103895669345 0 17.0 7.685103895669345 1
gene  1 10 6 2.0403285040227526 0 18.0 2.0403285040227526 1
gene  1 3 6 -5.644541321015929 0 167.0 -5.644541321015929 1
gene  1 2 10 -16.41247514627629 0 182.0 -16.41247514627629 1
gene  1 2 6 -11.275107993661127 0 271.0 -11.275107993661127 1
gene  1 3 10 2.6016240660990375 0 626.0 2.6016240660990375 1
gene  1 10 4 -2.3447132458691367 0 864.0 -2.3447132458691367 1
genomeend 15
/* Organism # 016 Fitness:  9,000 Error:  1,000                      */
genomestart  16
trait 1 0.025 0.5448851764810688 0.0 0.0 0.0 0.3244007105419121 0.0 0.0 
trait 2 0.2 0.0 0.0 0.0 0.0 0.0 0.0 0.0 
trait 3 0.3190884541009838 0.9695881249306622 0.0 0.0 0.1066469058176206 0.0 0.0 0.09539242270437731 
node 1 1 1 1
node 2 1 1 1
node 3 1 1 3
node 4 2 0 2
node 6 1 0 0
node 10 1 0 0
gene  1 1 4 1.394805589829459 0 1.0 1.394805589829459 1
gene  2 2 4 3.842981515400875 0 2.0 3.842981515400875 1
gene  3 3 4 20.62313834156431 0 3.0 20.62313834156431 1
gene  1 1 6 -1.7037526643751253 0 6.0 -1.7037526643751253 0
gene  1 6 4 -5.904748645111198 0 7.0 -5.904748645111198 1
gene  1 1 10 8.031535427231693 0 17.0 8.031535427231693 1
gene  1 10 6 2.0543888721951458 0 18.0 2.0543888721951458 1
gene  1 3 6 -6.983550770889129 0 167.0 -6.983550770889129 1
gene  1 2 10 -15.433728389010312 0 182.0 -15.433728389010312 1
gene  1 2 6 -14.277640234086181 0 271.0 -14.277640234086181 1
gene  1 3 10 1.4766368596448165 0 626.0 1.4766368596448165 1
gene  1 10 4 -4.809319308777791 0 864.0 -4.809319308777791 1
genomeend 16
/* Organism # 017 Fitness:  8,943 Error:  1,010                      */
genomestart  17
trait 1 0.025 0.5448851764810688 0.0 0.0 0.0 0.3244007105419121 0.0 0.0 
trait 2 0.2 0.0 0.0 0.0 0.0 0.0 0.0 0.0 
trait 3 0.3190884541009838 0.9695881249306622 0.0 0.0 0.1066469058176206 0.0 0.0 0.09539242270437731 
node 1 1 1 1
node 2 1 1 1
node 3 1 1 3
node 4 2 0 2
node 6 1 0 0
node 10 1 0 0
gene  1 1 4 0.6503813329871315 0 1.0 0.6503813329871315 1
gene  2 2 4 8.810791204320793 0 2.0 8.810791204320793 1
gene  3 3 4 16.18150595904233 0 3.0 16.18150595904233 1
gene  1 1 6 -4.228010902284717 0 6.0 -4.228010902284717 0
gene  1 6 4 -6.224487340142153 0 7.0 -6.224487340142153 1
gene  1 1 10 7.335909544024063 0 17.0 7.335909544024063 1
gene  1 10 6 0.05056417361516874 0 18.0 0.05056417361516874 1
gene  1 3 6 -7.4154447046399845 0 167.0 -7.4154447046399845 1
gene  3 2 10 -15.262216975221735 0 182.0 -15.262216975221735 1
gene  1 2 6 -15.628518464526653 0 271.0 -15.628518464526653 1
gene  1 3 10 0.9223294981638404 0 626.0 0.9223294981638404 1
gene  1 10 4 1.9044235982494848 0 864.0 1.9044235982494848 1
genomeend 17
/*-------------------------------------------------------------------*/
/* Species # 006         : (size= 003) (AvfFit= 7,726) (Age= 67,000)  */
/*-------------------------------------------------------------------*/
/* Organism # 018 Fitness:  8,998 Error:  1,000                      */
genomestart  18
trait 1 0.1 0.0 0.0 0.0 0.0 0.0 0.0 0.0 
trait 2 0.0 0.40979683904090647 0.0 0.5682128972918722 0.0 1.0255600142119943 0.1761519314000648 0.0 
trait 3 0.3 0.0 0.0 0.0 0.0 0.0 0.0 0.0 
node 1 3 1 1
node 2 1 1 1
node 3 1 1 3
node 4 1 0 2
node 5 2 0 0
node 11 1 0 0
node 139 1 0 0
node 145 1 0 0
gene  1 1 4 3.0338030649818353 0 1.0 3.0338030649818353 0
gene  2 2 4 14.07432397381164 0 2.0 14.07432397381164 1
gene  3 3 4 13.34985351470763 0 3.0 13.34985351470763 1
gene  1 1 5 1.1147525029802106 0 4.0 1.1147525029802106 1
gene  1 5 4 -2.444908476031283 0 5.0 -2.444908476031283 1
gene  3 2 5 1.207382803598578 0 9.0 1.207382803598578 1
gene  2 3 5 6.425364197121497 0 19.0 6.425364197121497 1
gene  2 2 11 3.33004448995733 0 23.0 3.33004448995733 1
gene  2 11 4 0.7923900984863728 0 24.0 0.7923900984863728 1
gene  2 5 11 5.643396047884986 0 127.0 5.643396047884986 1
gene  1 3 11 -1.8479371965432136 0 231.0 -1.8479371965432136 1
gene  2 1 11 0.36773940810884254 0 612.0 0.36773940810884254 1
gene  1 5 139 -6.105049488376721 0 646.0 -6.105049488376721 1
gene  1 139 4 -2.2089993052739927 0 647.0 -2.2089993052739927 1
gene  2 2 139 4.77012950773152 0 680.0 4.77012950773152 1
gene  2 2 145 -2.300220418693667 0 695.0 -2.300220418693667 1
gene  2 145 139 6.507972203714086 0 696.0 6.507972203714086 1
gene  3 5 145 -1.6178961511725196 0 944.0 -1.6178961511725196 1
gene  3 145 11 -2.38190607639491 0 985.0 -2.38190607639491 1
gene  3 3 145 -2.187174074459794 0 1024.0 -2.187174074459794 1
gene  3 1 145 -2.5799149059184523 0 1165.0 -2.5799149059184523 1
genomeend 18
/* Organism # 019 Fitness:  5,180 Error:  1,724                      */
genomestart  19
trait 1 0.1 0.0 0.0 0.0 0.0 0.0 0.0 0.0 
trait 2 0.0 0.40979683904090647 0.0 0.5682128972918722 0.0 1.0255600142119943 0.1761519314000648 0.0 
trait 3 0.3 0.0 0.0 0.0 0.0 0.0 0.0 0.0 
node 1 3 1 1
node 2 1 1 1
node 3 1 1 3
node 4 1 0 2
node 5 2 0 0
node 11 1 0 0
node 139 1 0 0
node 145 1 0 0
gene  1 1 4 0.3205641988483321 0 1.0 0.3205641988483321 0
gene  2 2 4 -1.4919909227158656 0 2.0 -1.4919909227158656 1
gene  3 3 4 -1.6321608055006989 0 3.0 -1.6321608055006989 1
gene  1 1 5 -0.8129212819156186 0 4.0 -0.8129212819156186 1
gene  1 5 4 2.3846589167185086 0 5.0 2.3846589167185086 1
gene  3 2 5 -0.7141565962319203 0 9.0 -0.7141565962319203 1
gene  2 3 5 4.177473681093532 0 19.0 4.177473681093532 1
gene  2 2 11 1.717158087175073 0 23.0 1.717158087175073 1
gene  2 11 4 -1.484019084194204 0 24.0 -1.484019084194204 1
gene  2 5 11 7.079906251744141 0 127.0 7.079906251744141 1
gene  1 3 11 -4.344202224652797 0 231.0 -4.344202224652797 1
gene  2 1 11 -4.018423092521724 0 612.0 -4.018423092521724 1
gene  1 5 139 -7.865591721043908 0 646.0 -7.865591721043908 1
gene  1 139 4 0.13030458684095303 0 647.0 0.13030458684095303 1
gene  2 2 139 5.089062882923058 0 680.0 5.089062882923058 1
gene  2 2 145 -0.28831543123503833 0 695.0 -0.28831543123503833 1
gene  2 145 139 2.8134612708291744 0 696.0 2.8134612708291744 1
gene  3 5 145 -2.333569962277373 0 944.0 -2.333569962277373 1
gene  3 145 11 -0.012698189280203831 0 985.0 -0.012698189280203831 1
gene  3 3 145 0.5677498867103559 0 1024.0 0.5677498867103559 1
gene  3 1 145 0.3778852622749431 0 1165.0 0.3778852622749431 1
genomeend 19
/* Organism # 020 Fitness:  9,000 Error:  1,000                      */
genomestart  20
trait 1 0.1 0.0 0.0 0.0 0.0 0.0 0.0 0.0 
trait 2 0.0 0.40979683904090647 0.0 0.5682128972918722 0.0 1.0255600142119943 0.1761519314000648 0.0 
trait 3 0.3 0.0 0.0 0.0 0.0 0.0 0.0 0.0 
node 1 3 1 1
node 2 1 1 1
node 3 1 1 3
node 4 1 0 2
node 5 2 0 0
node 11 1 0 0
node 139 1 0 0
node 145 1 0 0
node 255 1 0 0
gene  1 1 4 2.021504436913702 0 1.0 2.021504436913702 0
gene  2 2 4 11.814623773116544 0 2.0 11.814623773116544 1
gene  3 3 4 11.770330048912045 0 3.0 11.770330048912045 1
gene  1 1 5 0.7545975719874742 0 4.0 0.7545975719874742 1
gene  1 5 4 -3.388468104902403 0 5.0 -3.388468104902403 1
gene  3 2 5 -0.7141565962319203 0 9.0 -0.7141565962319203 1
gene  2 3 5 5.584293793009822 0 19.0 5.584293793009822 1
gene  2 2 11 3.64263948974207 0 23.0 3.64263948974207 1
gene  2 11 4 -1.4743875178335604 0 24.0 -1.4743875178335604 1
gene  2 5 11 4.835626625635285 0 127.0 4.835626625635285 1
gene  1 3 11 -3.198954416651424 0 231.0 -3.198954416651424 1
gene  2 1 11 -2.094147730935888 0 612.0 -2.094147730935888 1
gene  1 5 139 -6.103544521440907 0 646.0 -6.103544521440907 0
gene  1 139 4 -0.4208982294670923 0 647.0 -0.4208982294670923 1
gene  2 2 139 3.0222445949160264 0 680.0 3.0222445949160264 1
gene  2 2 145 -2.9075507221897716 0 695.0 -2.9075507221897716 1
gene  2 145 139 4.399934909081661 0 696.0 4.399934909081661 1
gene  3 5 145 -1.6178961511725196 0 944.0 -1.6178961511725196 1
gene  3 145 11 -2.0018664646976214 0 985.0 -2.0018664646976214 1
gene  3 3 145 -1.1036844499346252 0 1024.0 -1.1036844499346252 1
gene  3 1 145 -1.412182708594476 0 1165.0 -1.412182708594476 1
gene  1 5 255 1.0 0 1220.0 0.0 1
gene  1 255 139 -6.103544521440907 0 1221.0 0.0 1
genomeend 20
/*-------------------------------------------------------------------*/
/* Species # 007         : (size= 004) (AvfFit= 9,000) (Age= 67,000)  */
/*-------------------------------------------------------------------*/
/* Organism # 021 Fitness:  9,000 Error:  1,000                      */
genomestart  21
trait 1 0.8852445140920412 0.4100005836106212 0.0 0.0 0.0 0.0 0.0 0.0 
trait 2 0.1 0.0 0.2745656836152613 0.8163729433678998 0.0 0.3301629726161752 0.4434326801698363 0.0 
trait 3 0.3 0.0 0.0 0.0 0.0 0.0 0.0 0.0 
node 1 1 1 1
node 2 1 1 1
node 3 1 1 3
node 4 1 0 2
node 12 2 0 0
node 14 1 0 0
node 15 2 0 0
node 193 1 0 0
gene  1 1 4 -8.009965758919508 0 1.0 -8.009965758919508 0
gene  2 2 4 -20.157802511393328 0 2.0 -20.157802511393328 1
gene  3 3 4 17.474362797956246 0 3.0 17.474362797956246 1
gene  1 1 14 4.695456049447501 0 35.0 4.695456049447501 1
gene  2 14 4 -7.794977523131617 0 36.0 -7.794977523131617 1
gene  1 1 15 -1.2869921434797038 0 40.0 -1.2869921434797038 1
gene  1 15 12 2.0174618148824894 0 41.0 2.0174618148824894 1
gene  3 3 15 -2.1671711140456087 0 92.0 -2.1671711140456087 1
gene  3 2 15 -1.5650972441328341 0 159.0 -1.5650972441328341 1
gene  2 2 12 -1.3857092034500982 0 208.0 -1.3857092034500982 1
gene  1 14 15 -1.3682334053329994 0 399.0 -1.3682334053329994 1
gene  2 4 15 0.6282997427121959 0 639.0 0.6282997427121959 1
gene  2 3 12 2.3099798954708786 0 902.0 2.3099798954708786 1
gene  1 1 193 -4.312490658273456 0 946.0 -4.312490658273456 1
gene  1 193 4 -4.864858152782278 0 947.0 -4.864858152782278 1
gene  3 3 14 -0.05938668872555919 0 965.0 -0.05938668872555919 1
gene  1 3 193 3.0948137011464643 0 1134.0 3.0948137011464643 1
gene  3 193 15 4.150771967215988 0 1158.0 4.150771967215988 1
gene  3 2 193 6.185683749054358 0 1200.0 6.185683749054358 1
genomeend 21
/* Organism # 022 Fitness:  9,000 Error:  1,000                      */
genomestart  22
trait 1 0.8852445140920412 0.18247874061750335 0.0 0.0 0.0 0.0 0.0 0.0 
trait 2 0.1 0.0 0.2745656836152613 0.8163729433678998 0.0 0.3301629726161752 0.4434326801698363 0.0 
trait 3 0.3 0.0 0.0 0.0 0.0 0.0 0.0 0.0 
node 1 1 1 1
node 2 1 1 1
node 3 1 1 3
node 4 1 0 2
node 12 2 0 0
node 14 1 0 0
node 15 2 0 0
node 193 1 0 0
gene  1 1 4 -9.836450296589366 0 1.0 -9.836450296589366 0
gene  2 2 4 -21.354074412567464 0 2.0 -21.354074412567464 1
gene  3 3 4 15.744962517957239 0 3.0 15.744962517957239 1
gene  1 1 14 5.0425218275075485 0 35.0 5.0425218275075485 1
gene  2 14 4 -6.157200500648171 0 36.0 -6.157200500648171 1
gene  1 1 15 -2.105604642148072 0 40.0 -2.105604642148072 1
gene  1 15 12 3.1855562591656517 0 41.0 3.1855562591656517 1
gene  3 3 15 -1.4341530306535297 0 92.0 -1.4341530306535297 1
gene  3 2 15 0.3278255028637225 0 159.0 0.3278255028637225 1
gene  2 2 12 -0.85748032556979 0 208.0 -0.85748032556979 1
gene  1 14 15 -0.027945740543398268 0 399.0 -0.027945740543398268 1
gene  2 4 15 1.4266985641015024 0 639.0 1.4266985641015024 1
gene  2 3 12 1.4696530992395056 0 902.0 1.4696530992395056 1
gene  1 1 193 -5.05302805615927 0 946.0 -5.05302805615927 1
gene  1 193 4 -4.636805730985261 0 947.0 -4.636805730985261 1
gene  3 3 14 -1.572324006863393 0 965.0 -1.572324006863393 1
gene  1 3 193 0.002791503120892491 0 1134.0 0.002791503120892491 1
gene  3 193 15 4.150771967215988 0 1158.0 4.150771967215988 1
genomeend 22
/* Organism # 023 Fitness:  9,000 Error:  1,000                      */
genomestart  23
trait 1 0.8852445140920412 0.4100005836106212 0.0 0.0 0.0 0.0 0.0 0.0 
trait 2 0.1 0.0 0.2745656836152613 0.8163729433678998 0.0 0.3301629726161752 0.4434326801698363 0.0 
trait 3 0.3 0.0 0.0 0.0 0.0 0.0 0.0 0.0 
node 1 1 1 1
node 2 1 1 1
node 3 1 1 3
node 4 1 0 2
node 12 2 0 0
node 14 1 0 0
node 15 2 0 0
node 193 1 0 0
gene  1 1 4 -8.510756302929362 0 1.0 -8.510756302929362 0
gene  2 2 4 -20.849823958905965 0 2.0 -20.849823958905965 1
gene  3 3 4 16.596241647359506 0 3.0 16.596241647359506 1
gene  1 1 14 6.229118738340934 0 35.0 6.229118738340934 1
gene  2 14 4 -7.009205380229277 0 36.0 -7.009205380229277 1
gene  1 1 15 -0.32849940353717855 0 40.0 -0.32849940353717855 1
gene  1 15 12 0.6443270991341585 0 41.0 0.6443270991341585 1
gene  3 3 15 -2.1663946235000178 0 92.0 -2.1663946235000178 1
gene  3 2 15 -1.3550693361104897 0 159.0 -1.3550693361104897 1
gene  2 2 12 -1.1984729411676867 0 208.0 -1.1984729411676867 1
gene  1 14 15 0.8025489561211867 0 399.0 0.8025489561211867 1
gene  2 4 15 3.1173983383986217 0 639.0 3.1173983383986217 1
gene  2 3 12 3.8096911687753865 0 902.0 3.8096911687753865 1
gene  1 1 193 -5.860578037463444 0 946.0 -5.860578037463444 1
gene  1 193 4 -7.033696535300287 0 947.0 -7.033696535300287 1
gene  3 3 14 -0.05938668872555919 0 965.0 -0.05938668872555919 1
gene  1 3 193 5.09402188801809 0 1134.0 5.09402188801809 1
gene  3 193 15 5.840277093625926 0 1158.0 5.840277093625926 1
genomeend 23
/* Organism # 024 Fitness:  9,000 Error:  1,000                      */
genomestart  24
trait 1 0.8852445140920412 0.4100005836106212 0.0 0.0 0.0 0.0 0.0 0.0 
trait 2 0.1 0.0 0.2745656836152613 0.8163729433678998 0.0 0.3301629726161752 0.4434326801698363 0.0 
trait 3 0.3 0.0 0.0 0.0 0.0 0.0 0.0 0.0 
node 1 1 1 1
node 2 1 1 1
node 3 1 1 3
node 4 1 0 2
node 12 2 0 0
node 14 1 0 0
node 15 2 0 0
node 193 1 0 0
gene  1 1 4 -8.009965758919508 0 1.0 -8.009965758919508 0
gene  2 2 4 -20.157802511393328 0 2.0 -20.157802511393328 1
gene  3 3 4 17.474362797956246 0 3.0 17.474362797956246 1
gene  1 1 14 4.695456049447501 0 35.0 4.695456049447501 1
gene  2 14 4 -7.794977523131617 0 36.0 -7.794977523131617 1
gene  1 1 15 -1.2869921434797038 0 40.0 -1.2869921434797038 1
gene  1 15 12 2.0174618148824894 0 41.0 2.0174618148824894 1
gene  3 3 15 -2.1671711140456087 0 92.0 -2.1671711140456087 1
gene  3 2 15 -1.5650972441328341 0 159.0 -1.5650972441328341 1
gene  2 2 12 -1.3857092034500982 0 208.0 -1.3857092034500982 1
gene  1 14 15 -1.3682334053329994 0 399.0 -1.3682334053329994 1
gene  2 4 15 0.6282997427121959 0 639.0 0.6282997427121959 1
gene  2 3 12 2.3099798954708786 0 902.0 2.3099798954708786 1
gene  1 1 193 -4.312490658273456 0 946.0 -4.312490658273456 1
gene  1 193 4 -4.864858152782278 0 947.0 -4.864858152782278 1
gene  3 3 14 -0.05938668872555919 0 965.0 -0.05938668872555919 1
gene  1 3 193 3.0948137011464643 0 1134.0 3.0948137011464643 1
gene  3 193 15 4.150771967215988 0 1158.0 4.150771967215988 1
gene  3 14 12 -6.903660079378873 0 1201.0 -6.903660079378873 1
genomeend 24
/*-------------------------------------------------------------------*/
/* Species # 008         : (size= 004) (AvfFit= 7,750) (Age= 67,000)  */
/*-------------------------------------------------------------------*/
/* Organism # 025 Fitness:  9,000 Error:  1,000                      */
genomestart  25
trait 1 0.24065012538159075 0.15036456107791457 0.4671000768679908 0.0594094503700963 0.25417881566220435 0.07082942154753001 0.0 0.06928844706069931 
trait 2 0.2 0.4593718097531386 0.0 0.0 0.0 0.0 0.9634715117673269 0.5072397795116275 
trait 3 0.0 0.0 0.0 1.1076980566392902 0.0 0.1608150986896274 0.7669643444852611 0.0 
node 1 1 1 1
node 2 1 1 1
node 3 3 1 3
node 4 2 0 2
node 5 1 0 0
node 7 1 0 0
node 11 1 0 0
node 128 1 0 0
node 167 1 0 0
gene  1 1 4 9.769311623530387 0 1.0 9.769311623530387 1
gene  1 2 4 1.7785780804506732 0 2.0 1.7785780804506732 1
gene  3 3 4 23.04123000716465 0 3.0 23.04123000716465 1
gene  2 1 5 11.22749112738368 0 4.0 11.22749112738368 1
gene  1 5 4 -12.875429534490173 0 5.0 -12.875429534490173 1
gene  1 2 5 -17.70074201941085 0 9.0 -17.70074201941085 1
gene  1 1 7 -1.6020283513183602 0 10.0 -1.6020283513183602 1
gene  1 7 4 -13.255046945173422 0 11.0 -13.255046945173422 1
gene  2 2 11 0.3517898802301025 0 23.0 0.3517898802301025 1
gene  3 11 4 -0.4616198574285615 0 24.0 -0.4616198574285615 1
gene  2 11 7 0.6490102055156897 0 83.0 0.6490102055156897 1
gene  1 3 5 1.061795183134092 0 500.0 1.061795183134092 1
gene  1 1 128 -5.048873489531028 0 589.0 -5.048873489531028 1
gene  1 128 7 -3.623131557131314 0 590.0 -3.623131557131314 1
gene  1 2 7 -3.197253620368343 0 787.0 -3.197253620368343 0
gene  1 2 167 -0.8371157477256194 0 808.0 -0.8371157477256194 1
gene  1 167 7 -2.0433612998100257 0 809.0 -2.0433612998100257 1
gene  3 128 5 1.209200008709368 0 893.0 1.209200008709368 1
gene  3 2 128 -0.3109940195740635 0 923.0 -0.3109940195740635 1
gene  1 128 11 0.32783386520163826 0 1097.0 0.32783386520163826 1
gene  1 5 7 2.1640850923092296 0 1160.0 2.1640850923092296 1
genomeend 25
/* Organism # 026 Fitness:  9,000 Error:  1,000                      */
genomestart  26
trait 1 0.24065012538159075 0.15036456107791457 0.4671000768679908 0.0594094503700963 0.25417881566220435 0.07082942154753001 0.0 0.06928844706069931 
trait 2 0.2 0.4593718097531386 0.0 0.0 0.0 0.0 0.9634715117673269 0.5072397795116275 
trait 3 0.0 0.0 0.0 1.1076980566392902 0.0 0.1608150986896274 0.7669643444852611 0.0 
node 1 1 1 1
node 2 1 1 1
node 3 3 1 3
node 4 2 0 2
node 5 1 0 0
node 7 1 0 0
node 11 1 0 0
node 128 1 0 0
node 167 1 0 0
gene  1 1 4 7.808028775154606 0 1.0 7.808028775154606 1
gene  1 2 4 0.5300105828419585 0 2.0 0.5300105828419585 1
gene  3 3 4 23.405146786656296 0 3.0 23.405146786656296 1
gene  2 1 5 9.441904049146443 0 4.0 9.441904049146443 1
gene  1 5 4 -14.288342310246485 0 5.0 -14.288342310246485 1
gene  1 2 5 -19.922532637268827 0 9.0 -19.922532637268827 1
gene  1 1 7 -1.166674774780152 0 10.0 -1.166674774780152 1
gene  1 7 4 -12.950938978504407 0 11.0 -12.950938978504407 1
gene  2 2 11 -1.8545007769205797 0 23.0 -1.8545007769205797 1
gene  3 11 4 -1.3308010927889935 0 24.0 -1.3308010927889935 1
gene  2 11 7 -2.5291547795492577 0 83.0 -2.5291547795492577 1
gene  1 3 5 0.044395671874695175 0 500.0 0.044395671874695175 1
gene  1 1 128 -3.2245600253949713 0 589.0 -3.2245600253949713 1
gene  1 128 7 -0.589655804855107 0 590.0 -0.589655804855107 1
gene  1 2 7 -1.2048923921325023 0 787.0 -1.2048923921325023 0
gene  1 2 167 -1.7698718601738186 0 808.0 -1.7698718601738186 1
gene  1 167 7 0.6147496276331981 0 809.0 0.6147496276331981 1
gene  3 128 5 3.825758630493123 0 893.0 3.825758630493123 1
gene  3 2 128 -0.05020668163127795 0 923.0 -0.05020668163127795 1
gene  1 128 11 -0.5043474435722863 0 1097.0 -0.5043474435722863 1
gene  1 5 7 0.1876944171297218 0 1160.0 0.1876944171297218 1
genomeend 26
/* Organism # 027 Fitness:  9,000 Error:  1,000                      */
genomestart  27
trait 1 0.24065012538159075 0.15036456107791457 0.4671000768679908 0.0594094503700963 0.25417881566220435 0.07082942154753001 0.0 0.06928844706069931 
trait 2 0.2 0.4593718097531386 0.0 0.0 0.0 0.0 0.9634715117673269 0.5072397795116275 
trait 3 0.0 0.608794485216695 0.0 0.5009022953327559 0.0 0.1608150986896274 0.7669643444852611 0.0 
node 1 1 1 1
node 2 1 1 1
node 3 3 1 3
node 4 2 0 2
node 5 1 0 0
node 7 1 0 0
node 11 1 0 0
node 128 1 0 0
node 167 1 0 0
gene  1 1 4 7.37943799210609 0 1.0 7.37943799210609 1
gene  1 2 4 2.134535603107664 0 2.0 2.134535603107664 1
gene  3 3 4 21.297517973976806 0 3.0 21.297517973976806 1
gene  2 1 5 8.215001612883421 0 4.0 8.215001612883421 1
gene  1 5 4 -15.359083095535714 0 5.0 -15.359083095535714 1
gene  1 2 5 -20.887183597093365 0 9.0 -20.887183597093365 1
gene  1 1 7 -2.725226628975527 0 10.0 -2.725226628975527 1
gene  1 7 4 -10.42727798389473 0 11.0 -10.42727798389473 1
gene  2 2 11 -1.9330341051347095 0 23.0 -1.9330341051347095 1
gene  3 11 4 -0.6007837389568416 0 24.0 -0.6007837389568416 1
gene  2 11 7 -4.070410270890931 0 83.0 -4.070410270890931 1
gene  1 3 5 -0.36668335624288506 0 500.0 -0.36668335624288506 1
gene  1 1 128 -1.019005703683785 0 589.0 -1.019005703683785 1
gene  1 128 7 -1.0425841571598253 0 590.0 -1.0425841571598253 1
gene  1 2 7 -0.6384415625535695 0 787.0 -0.6384415625535695 1
gene  1 2 167 -2.239818726717755 0 808.0 -2.239818726717755 1
gene  1 167 7 -1.0363496904009533 0 809.0 -1.0363496904009533 1
gene  3 128 5 -1.9398491154419077 0 893.0 -1.9398491154419077 1
gene  3 2 128 -0.6790068783200698 0 923.0 -0.6790068783200698 1
gene  1 128 11 -0.6071369034590651 0 1097.0 -0.6071369034590651 1
gene  1 5 7 1.1420964661189514 0 1160.0 1.1420964661189514 1
genomeend 27
/* Organism # 028 Fitness:  4,000 Error:  2,000                      */
genomestart  28
trait 1 0.24065012538159075 0.15036456107791457 0.4671000768679908 0.0594094503700963 0.25417881566220435 0.07082942154753001 0.0 0.06928844706069931 
trait 2 0.2 0.4593718097531386 0.0 0.0 0.0 0.0 0.9634715117673269 0.5072397795116275 
trait 3 0.0 0.0 0.0 1.1076980566392902 0.0 0.1608150986896274 0.7669643444852611 0.0 
node 1 1 1 1
node 2 1 1 1
node 3 3 1 3
node 4 2 0 2
node 5 1 0 0
node 7 1 0 0
node 11 1 0 0
node 128 1 0 0
node 167 1 0 0
gene  1 1 4 10.262904910674337 0 1.0 10.262904910674337 1
gene  1 2 4 -0.2798763552503589 0 2.0 -0.2798763552503589 1
gene  3 3 4 23.167574936634253 0 3.0 23.167574936634253 1
gene  2 1 5 11.979910539630234 0 4.0 11.979910539630234 1
gene  1 5 4 -15.200681060488387 0 5.0 -15.200681060488387 1
gene  1 2 5 -1.0445695332060543 0 9.0 -1.0445695332060543 1
gene  1 1 7 -3.2869129656569487 0 10.0 -3.2869129656569487 1
gene  1 7 4 -14.367780603431395 0 11.0 -14.367780603431395 1
gene  2 2 11 1.1984049038593259 0 23.0 1.1984049038593259 1
gene  3 11 4 -1.0973512562852603 0 24.0 -1.0973512562852603 1
gene  2 11 7 -0.5221026599489862 0 83.0 -0.5221026599489862 1
gene  1 3 5 0.9574377693992007 0 500.0 0.9574377693992007 1
gene  1 1 128 -2.027935740996038 0 589.0 -2.027935740996038 1
gene  1 128 7 -2.3544441247138623 0 590.0 -2.3544441247138623 1
gene  1 2 7 0.6936452519390163 0 787.0 0.6936452519390163 0
gene  1 2 167 -0.025978825849312992 0 808.0 -0.025978825849312992 1
gene  1 167 7 -0.48303681411343974 0 809.0 -0.48303681411343974 1
gene  3 128 5 2.127031628881384 0 893.0 2.127031628881384 1
gene  3 2 128 -0.5319921346299616 0 923.0 -0.5319921346299616 1
gene  1 128 11 -2.908040802238376 0 1097.0 -2.908040802238376 1
gene  1 5 7 -1.4943130815097474 0 1160.0 -1.4943130815097474 1
genomeend 28
/*-------------------------------------------------------------------*/
/* Species # 009         : (size= 005) (AvfFit= 7,453) (Age= 66,000)  */
/*-------------------------------------------------------------------*/
/* Organism # 029 Fitness:  9,000 Error:  1,000                      */
genomestart  29
trait 1 0.5993285321064178 0.37325862713536245 0.3470699875744914 0.0 0.0 0.0 0.21626607936537567 0.2434966697139031 
trait 2 0.2 0.0 0.0 0.0 0.0 0.0 0.0 0.0 
trait 3 0.0 0.24160785518255945 0.0 0.8142325610814206 0.0 1.8361704513802721 0.8702428825086888 1.2344732191454542 
node 1 1 1 1
node 2 3 1 1
node 3 3 1 3
node 4 2 0 2
node 5 3 0 0
node 56 3 0 0
node 238 1 0 0
gene  1 1 4 -1.669529769310043 0 1.0 -1.669529769310043 0
gene  2 2 4 17.36913104296489 0 2.0 17.36913104296489 1
gene  1 3 4 20.30538903449519 0 3.0 20.30538903449519 1
gene  1 1 5 0.6323937007530125 0 4.0 0.6323937007530125 1
gene  1 5 4 -2.534840556663566 0 5.0 -2.534840556663566 1
gene  1 2 5 -5.590622914803706 0 9.0 -5.590622914803706 1
gene  1 3 5 -6.12044913433939 0 14.0 -6.12044913433939 1
gene  1 1 56 -3.1163520540784044 0 236.0 -3.1163520540784044 1
gene  1 56 4 0.7952221586455066 0 237.0 0.7952221586455066 1
gene  3 2 56 2.864804123816476 0 250.0 2.864804123816476 1
gene  1 5 56 0.13920572437321455 0 757.0 0.13920572437321455 1
gene  3 3 56 -4.240373958131142 0 849.0 -4.240373958131142 1
gene  1 1 238 -0.9553247284670445 0 1149.0 -0.9553247284670445 1
gene  1 238 4 -2.207717501574355 0 1150.0 -2.207717501574355 1
genomeend 29
/* Organism # 030 Fitness:  9,000 Error:  1,000                      */
genomestart  30
trait 1 0.5993285321064178 0.37325862713536245 0.3470699875744914 0.0 0.0 0.0 0.21626607936537567 0.2434966697139031 
trait 2 0.2 0.0 0.0 0.0 0.0 0.0 0.0 0.0 
trait 3 0.0 0.24160785518255945 0.0 0.8142325610814206 0.0 1.8361704513802721 0.8702428825086888 1.2344732191454542 
node 1 1 1 1
node 2 3 1 1
node 3 3 1 3
node 4 2 0 2
node 5 3 0 0
node 56 3 0 0
node 238 1 0 0
gene  1 1 4 -0.7757936444090789 0 1.0 -0.7757936444090789 0
gene  2 2 4 19.283157221418467 0 2.0 19.283157221418467 1
gene  1 3 4 20.988926755266707 0 3.0 20.988926755266707 1
gene  1 1 5 3.0086847621813804 0 4.0 3.0086847621813804 1
gene  1 5 4 -3.421783135028508 0 5.0 -3.421783135028508 1
gene  1 2 5 -3.7404037784317743 0 9.0 -3.7404037784317743 1
gene  1 3 5 -3.7249766555432764 0 14.0 -3.7249766555432764 1
gene  1 1 56 -3.472194532171338 0 236.0 -3.472194532171338 1
gene  1 56 4 -2.0105331649675833 0 237.0 -2.0105331649675833 1
gene  3 2 56 4.958841390218005 0 250.0 4.958841390218005 1
gene  1 5 56 1.808112581122564 0 757.0 1.808112581122564 1
gene  3 3 56 -5.948699609307242 0 849.0 -5.948699609307242 1
gene  1 1 238 0.5510607754563881 0 1149.0 0.5510607754563881 1
gene  1 238 4 -2.207717501574355 0 1150.0 -2.207717501574355 1
gene  1 238 5 -6.562662475569596 0 1217.0 -6.562662475569596 1
genomeend 30
/* Organism # 031 Fitness:  9,000 Error:  1,000                      */
genomestart  31
trait 1 0.5993285321064178 0.37325862713536245 0.3470699875744914 0.0 0.0 0.0 0.21626607936537567 0.2434966697139031 
trait 2 0.2 0.0 0.0 0.0 0.0 0.0 0.0 0.0 
trait 3 0.0 0.24160785518255945 0.0 0.8142325610814206 0.0 1.8361704513802721 0.8702428825086888 1.2344732191454542 
node 1 1 1 1
node 2 3 1 1
node 3 3 1 3
node 4 2 0 2
node 5 3 0 0
node 56 3 0 0
node 238 1 0 0
gene  1 1 4 -0.7757936444090789 0 1.0 -0.7757936444090789 0
gene  2 2 4 19.283157221418467 0 2.0 19.283157221418467 1
gene  1 3 4 20.988926755266707 0 3.0 20.988926755266707 1
gene  1 1 5 3.0086847621813804 0 4.0 3.0086847621813804 1
gene  1 5 4 -3.421783135028508 0 5.0 -3.421783135028508 1
gene  1 2 5 -3.7404037784317743 0 9.0 -3.7404037784317743 1
gene  1 3 5 -3.7249766555432764 0 14.0 -3.7249766555432764 1
gene  1 1 56 -3.472194532171338 0 236.0 -3.472194532171338 1
gene  1 56 4 -2.0105331649675833 0 237.0 -2.0105331649675833 1
gene  3 2 56 4.958841390218005 0 250.0 4.958841390218005 1
gene  1 5 56 1.808112581122564 0 757.0 1.808112581122564 1
gene  3 3 56 -5.948699609307242 0 849.0 -5.948699609307242 1
gene  1 1 238 0.5510607754563881 0 1149.0 0.5510607754563881 1
gene  1 238 4 -2.207717501574355 0 1150.0 -2.207717501574355 1
gene  2 2 238 2.3012334848405147 0 1218.0 2.3012334848405147 1
genomeend 31
/* Organism # 032 Fitness:  6,266 Error:  1,497                      */
genomestart  32
trait 1 0.5993285321064178 0.37325862713536245 0.3470699875744914 0.0 0.0 0.0 0.21626607936537567 0.2434966697139031 
trait 2 0.2 0.0 0.0 0.0 0.0 0.0 0.0 0.0 
trait 3 0.0 0.24160785518255945 0.0 0.8142325610814206 0.0 1.8361704513802721 0.8702428825086888 1.2344732191454542 
node 1 1 1 1
node 2 3 1 1
node 3 3 1 3
node 4 2 0 2
node 5 3 0 0
node 56 3 0 0
node 238 1 0 0
gene  1 1 4 -1.9434882664448347 0 1.0 -1.9434882664448347 0
gene  2 2 4 19.283157221418467 0 2.0 19.283157221418467 1
gene  1 3 4 21.589693858026113 0 3.0 21.589693858026113 1
gene  1 1 5 -1.7975137241743788 0 4.0 -1.7975137241743788 1
gene  1 5 4 -1.8114613273303735 0 5.0 -1.8114613273303735 1
gene  1 2 5 -2.3281182318473763 0 9.0 -2.3281182318473763 1
gene  1 3 5 -2.3844308436298025 0 14.0 -2.3844308436298025 1
gene  1 1 56 -1.7764161056930416 0 236.0 -1.7764161056930416 1
gene  1 56 4 -2.086930429805418 0 237.0 -2.086930429805418 1
gene  3 2 56 4.209985779068922 0 250.0 4.209985779068922 1
gene  1 5 56 -0.03570369907671206 0 757.0 -0.03570369907671206 1
gene  3 3 56 -6.672842102954709 0 849.0 -6.672842102954709 1
gene  1 1 238 -1.4229355229023752 0 1149.0 -1.4229355229023752 1
gene  1 238 4 -2.207717501574355 0 1150.0 -2.207717501574355 1
genomeend 32
/* Organism # 033 Fitness:  4,000 Error:  2,000                      */
genomestart  33
trait 1 0.5993285321064178 0.37325862713536245 0.3470699875744914 0.0 0.0 0.0 0.21626607936537567 0.2434966697139031 
trait 2 0.2 0.0 0.0 0.0 0.0 0.0 0.0 0.0 
trait 3 0.0 0.24160785518255945 0.0 0.8142325610814206 0.0 1.8361704513802721 0.8702428825086888 1.2344732191454542 
node 1 1 1 1
node 2 3 1 1
node 3 3 1 3
node 4 2 0 2
node 5 3 0 0
node 56 3 0 0
node 238 1 0 0
gene  1 1 4 -1.208494621905011 0 1.0 -1.208494621905011 0
gene  2 2 4 -1.3395723479516366 0 2.0 -1.3395723479516366 1
gene  1 3 4 20.898919202575584 0 3.0 20.898919202575584 1
gene  1 1 5 4.772087717905858 0 4.0 4.772087717905858 1
gene  1 5 4 -5.314523783811961 0 5.0 -5.314523783811961 1
gene  1 2 5 -5.667682350628556 0 9.0 -5.667682350628556 1
gene  1 3 5 -2.1473882641998134 0 14.0 -2.1473882641998134 1
gene  1 1 56 -5.715198676745159 0 236.0 -5.715198676745159 1
gene  1 56 4 -1.4741682648330425 0 237.0 -1.4741682648330425 1
gene  3 2 56 6.681676158056183 0 250.0 6.681676158056183 1
gene  1 5 56 2.3991132941458364 0 757.0 2.3991132941458364 1
gene  3 3 56 -5.948699609307242 0 849.0 -5.948699609307242 1
gene  1 1 238 2.0956284236479457 0 1149.0 2.0956284236479457 1
gene  1 238 4 -2.4053132924065035 0 1150.0 -2.4053132924065035 1
genomeend 33
/*-------------------------------------------------------------------*/
/* Species # 010         : (size= 004) (AvfFit= 6,500) (Age= 66,000)  */
/*-------------------------------------------------------------------*/
/* Organism # 034 Fitness:  9,000 Error:  1,000                      */
genomestart  34
trait 1 0.1 0.12337605011521194 0.0 0.0 0.12456274929720906 0.03212569888679681 0.0 0.0223559206539692 
trait 2 0.2 0.7428131076073421 0.0 0.6194596212085887 0.0 0.0 0.0 0.0 
trait 3 0.0 0.0 0.49640954461309594 0.0 0.0 0.5634905550359267 0.802104184087284 0.0 
node 1 1 1 1
node 2 3 1 1
node 3 1 1 3
node 4 3 0 2
node 5 1 0 0
node 7 2 0 0
node 12 1 0 0
gene  1 1 4 -8.291481536237686 0 1.0 -8.291481536237686 1
gene  1 2 4 22.842877067564068 0 2.0 22.842877067564068 1
gene  1 3 4 -28.218622186560623 0 3.0 -28.218622186560623 1
gene  1 1 5 -0.5784742431328116 0 4.0 -0.5784742431328116 1
gene  1 5 4 -1.4523730276234033 0 5.0 -1.4523730276234033 1
gene  1 1 7 -6.2376190366735695 0 10.0 -6.2376190366735695 1
gene  1 7 4 -2.709712793977657 0 11.0 -2.709712793977657 1
gene  1 1 12 -1.6083837721405945 0 25.0 -1.6083837721405945 1
gene  1 12 4 -2.1836718276424154 0 26.0 -2.1836718276424154 1
gene  2 2 7 -5.497754201915802 0 577.0 -5.497754201915802 1
gene  2 5 7 -0.19575729544185516 0 686.0 -0.19575729544185516 1
gene  2 12 7 0.05252122071733001 0 725.0 0.05252122071733001 1
gene  1 3 7 -2.152868484847091 0 1045.0 -2.152868484847091 1
genomeend 34
/* Organism # 035 Fitness:  4,000 Error:  2,000                      */
genomestart  35
trait 1 0.1 0.12337605011521194 0.0 0.0 0.12456274929720906 0.03212569888679681 0.0 0.0223559206539692 
trait 2 0.2 0.7428131076073421 0.0 0.6194596212085887 0.0 0.0 0.0 0.0 
trait 3 0.0 0.0 0.49640954461309594 0.0 0.0 0.5634905550359267 0.802104184087284 0.0 
node 1 1 1 1
node 2 3 1 1
node 3 1 1 3
node 4 3 0 2
node 5 1 0 0
node 7 2 0 0
node 12 1 0 0
gene  1 1 4 -6.119280838804424 0 1.0 -6.119280838804424 1
gene  1 2 4 -0.35769311341777965 0 2.0 -0.35769311341777965 1
gene  1 3 4 -27.4108339718097 0 3.0 -27.4108339718097 1
gene  1 1 5 1.2120053067536611 0 4.0 1.2120053067536611 1
gene  1 5 4 -2.4207880629601877 0 5.0 -2.4207880629601877 1
gene  1 1 7 0.5834255645329736 0 10.0 0.5834255645329736 1
gene  1 7 4 -7.18079259676237 0 11.0 -7.18079259676237 1
gene  1 1 12 16.78338727594931 0 25.0 16.78338727594931 1
gene  1 12 4 -2.044169636188788 0 26.0 -2.044169636188788 1
gene  2 2 7 -9.067504494590912 0 577.0 -9.067504494590912 1
gene  2 5 7 0.12978545834435778 0 686.0 0.12978545834435778 1
gene  2 12 7 -0.09098803734546862 0 725.0 -0.09098803734546862 1
gene  1 3 7 1.8528289607665946 0 1045.0 1.8528289607665946 1
genomeend 35
/* Organism # 036 Fitness:  9,000 Error:  1,000                      */
genomestart  36
trait 1 0.1 0.12337605011521194 0.0 0.0 0.12456274929720906 0.03212569888679681 0.0 0.0223559206539692 
trait 2 0.2 0.7428131076073421 0.0 0.6194596212085887 0.0 0.0 0.0 0.0 
trait 3 0.0 0.0 0.49640954461309594 0.0 0.0 0.5634905550359267 0.802104184087284 0.0 
node 1 1 1 1
node 2 3 1 1
node 3 1 1 3
node 4 3 0 2
node 5 1 0 0
node 7 2 0 0
node 12 1 0 0
gene  1 1 4 -7.3658940856756345 0 1.0 -7.3658940856756345 1
gene  1 2 4 21.751702384837827 0 2.0 21.751702384837827 1
gene  1 3 4 -27.303636276832734 0 3.0 -27.303636276832734 1
gene  1 1 5 -1.2631768182538585 0 4.0 -1.2631768182538585 1
gene  1 5 4 -0.2985275563115075 0 5.0 -0.2985275563115075 1
gene  1 1 7 -7.704997516908399 0 10.0 -7.704997516908399 1
gene  1 7 4 -6.480744051284659 0 11.0 -6.480744051284659 1
gene  1 1 12 16.297570742664654 0 25.0 16.297570742664654 1
gene  1 12 4 -3.4774275194947677 0 26.0 -3.4774275194947677 1
gene  2 2 7 -4.545335439682759 0 577.0 -4.545335439682759 1
gene  2 5 7 -1.3710028162256518 0 686.0 -1.3710028162256518 1
gene  2 12 7 0.05252122071733001 0 725.0 0.05252122071733001 1
gene  1 3 7 1.8820878219901152 0 1045.0 1.8820878219901152 1
genomeend 36
/* Organism # 037 Fitness:  4,000 Error:  2,000                      */
genomestart  37
trait 1 0.1 0.12337605011521194 0.0 0.0 0.12456274929720906 0.03212569888679681 0.0 0.0223559206539692 
trait 2 0.2 0.7428131076073421 0.0 0.6194596212085887 0.0 0.0 0.0 0.0 
trait 3 0.0 0.0 0.49640954461309594 0.0 0.0 0.5634905550359267 0.802104184087284 0.0 
node 1 1 1 1
node 2 3 1 1
node 3 1 1 3
node 4 3 0 2
node 5 1 0 0
node 7 2 0 0
node 12 1 0 0
gene  1 1 4 -8.325362646193362 0 1.0 -8.325362646193362 1
gene  1 2 4 -1.1270765554573412 0 2.0 -1.1270765554573412 1
gene  1 3 4 -27.237549075052044 0 3.0 -27.237549075052044 1
gene  1 1 5 1.2175574535709617 0 4.0 1.2175574535709617 1
gene  1 5 4 -0.26870970876562206 0 5.0 -0.26870970876562206 1
gene  1 1 7 -8.535583737538538 0 10.0 -8.535583737538538 1
gene  1 7 4 -6.245876567486308 0 11.0 -6.245876567486308 1
gene  1 1 12 16.5154521795889 0 25.0 16.5154521795889 1
gene  1 12 4 -1.8605206623752386 0 26.0 -1.8605206623752386 1
gene  2 2 7 -2.368704055084671 0 577.0 -2.368704055084671 1
gene  2 5 7 -2.054121940389769 0 686.0 -2.054121940389769 1
gene  2 12 7 1.3561373360486615 0 725.0 1.3561373360486615 1
gene  1 3 7 0.19003241896843442 0 1045.0 0.19003241896843442 1
genomeend 37
/*-------------------------------------------------------------------*/
/* Species # 012         : (size= 004) (AvfFit= 7,753) (Age= 65,000)  */
/*-------------------------------------------------------------------*/
/* Organism # 038 Fitness:  4,014 Error:  1,997                      */
genomestart  38
trait 1 0.1 0.0 0.0 0.0 0.0 0.0 0.0 0.0 
trait 2 0.2 0.0 0.7934835419022715 0.0 0.0 0.0 0.0 0.0 
trait 3 0.2589673195230027 0.3891801959983823 1.4814992320211124 0.0 0.41250424352754567 0.0 0.0 0.0 
node 1 1 1 1
node 2 1 1 1
node 3 3 1 3
node 4 3 0 2
node 12 2 0 0
node 15 1 0 0
node 196 1 0 0
gene  1 1 4 -10.522514907014939 0 1.0 -10.522514907014939 0
gene  3 2 4 -19.558026727423318 0 2.0 -19.558026727423318 1
gene  3 3 4 23.727477958926077 0 3.0 23.727477958926077 1
gene  2 1 12 2.2196477574254905 0 25.0 2.2196477574254905 0
gene  1 12 4 -16.601185494714997 0 26.0 -16.601185494714997 1
gene  1 1 15 -1.8961258396661818 0 40.0 -1.8961258396661818 1
gene  3 15 12 0.9180272805818885 0 41.0 0.9180272805818885 1
gene  1 2 15 -1.9891998645387898 0 108.0 -1.9891998645387898 1
gene  2 15 4 -3.8917944950546173 0 351.0 -3.8917944950546173 1
gene  2 3 15 -6.1276548754635884 0 378.0 -6.1276548754635884 1
gene  1 1 196 2.7685545282336523 0 957.0 2.7685545282336523 1
gene  1 196 4 -3.0183446018928226 0 958.0 -3.0183446018928226 1
gene  3 2 12 -4.80666534217673 0 1211.0 -4.80666534217673 1
genomeend 38
/* Organism # 039 Fitness:  9,000 Error:  1,000                      */
genomestart  39
trait 1 0.1 0.0 0.0 0.0 0.0 0.0 0.0 0.0 
trait 2 0.2 0.0 0.7934835419022715 0.0 0.0 0.0 0.0 0.0 
trait 3 0.2589673195230027 0.3891801959983823 1.4814992320211124 0.0 0.41250424352754567 0.0 0.0 0.0 
node 1 1 1 1
node 2 1 1 1
node 3 3 1 3
node 4 3 0 2
node 12 2 0 0
node 15 1 0 0
node 196 1 0 0
gene  1 1 4 -11.535442847674503 0 1.0 -11.535442847674503 0
gene  3 2 4 -20.27081228286943 0 2.0 -20.27081228286943 1
gene  3 3 4 22.29485095058215 0 3.0 22.29485095058215 1
gene  2 1 12 0.5217380411013444 0 25.0 0.5217380411013444 0
gene  1 12 4 -16.395789416949082 0 26.0 -16.395789416949082 1
gene  1 1 15 -1.9046315900970565 0 40.0 -1.9046315900970565 1
gene  3 15 12 -1.401713311888807 0 41.0 -1.401713311888807 1
gene  1 2 15 -0.5561707127685949 0 108.0 -0.5561707127685949 1
gene  2 15 4 -6.128276068720697 0 351.0 -6.128276068720697 1
gene  2 3 15 -5.509769757044694 0 378.0 -5.509769757044694 1
gene  1 1 196 2.9451186518830728 0 957.0 2.9451186518830728 1
gene  1 196 4 -1.5840090198089551 0 958.0 -1.5840090198089551 1
genomeend 39
/* Organism # 040 Fitness:  9,000 Error:  1,000                      */
genomestart  40
trait 1 0.1 0.0 0.0 0.0 0.0 0.0 0.0 0.0 
trait 2 0.2 0.0 0.7934835419022715 0.0 0.0 0.0 0.0 0.0 
trait 3 0.2589673195230027 0.3891801959983823 1.4814992320211124 0.0 0.41250424352754567 0.0 0.0 0.0 
node 1 1 1 1
node 2 1 1 1
node 3 3 1 3
node 4 3 0 2
node 12 2 0 0
node 15 1 0 0
node 196 1 0 0
node 250 1 0 0
gene  1 1 4 -10.522514907014939 0 1.0 -10.522514907014939 0
gene  3 2 4 -19.558026727423318 0 2.0 -19.558026727423318 0
gene  3 3 4 23.727477958926077 0 3.0 23.727477958926077 1
gene  2 1 12 2.2196477574254905 0 25.0 2.2196477574254905 0
gene  1 12 4 -16.601185494714997 0 26.0 -16.601185494714997 1
gene  1 1 15 -1.8961258396661818 0 40.0 -1.8961258396661818 1
gene  3 15 12 0.9180272805818885 0 41.0 0.9180272805818885 1
gene  1 2 15 -1.9891998645387898 0 108.0 -1.9891998645387898 1
gene  2 15 4 -3.8917944950546173 0 351.0 -3.8917944950546173 1
gene  2 3 15 -6.1276548754635884 0 378.0 -6.1276548754635884 1
gene  1 1 196 2.7685545282336523 0 957.0 2.7685545282336523 1
gene  1 196 4 -3.0183446018928226 0 958.0 -3.0183446018928226 1
gene  3 2 250 1.0 0 1194.0 0.0 1
gene  3 250 4 -19.558026727423318 0 1195.0 0.0 1
genomeend 40
/* Organism # 041 Fitness:  9,000 Error:  1,000                      */
genomestart  41
trait 1 0.1 0.0 0.0 0.0 0.0 0.0 0.0 0.0 
trait 2 0.2 0.0 0.7934835419022715 0.0 0.0 0.0 0.0 0.0 
trait 3 0.2589673195230027 0.3891801959983823 1.4814992320211124 0.0 0.41250424352754567 0.0 0.0 0.0 
node 1 1 1 1
node 2 1 1 1
node 3 3 1 3
node 4 3 0 2
node 12 2 0 0
node 15 1 0 0
node 196 1 0 0
gene  1 1 4 -8.726797977714515 0 1.0 -8.726797977714515 0
gene  3 2 4 -21.222894364025166 0 2.0 -21.222894364025166 1
gene  3 3 4 21.773185011427802 0 3.0 21.773185011427802 1
gene  2 1 12 0.8059329908288695 0 25.0 0.8059329908288695 0
gene  1 12 4 -17.50509989306424 0 26.0 -17.50509989306424 1
gene  1 1 15 -4.312269968754237 0 40.0 -4.312269968754237 1
gene  3 15 12 1.1267145126047886 0 41.0 1.1267145126047886 1
gene  1 2 15 1.8325802361982606 0 108.0 1.8325802361982606 1
gene  2 15 4 -2.931904785326477 0 351.0 -2.931904785326477 1
gene  2 3 15 -3.7495441966590772 0 378.0 -3.7495441966590772 1
gene  1 1 196 1.8961157165266596 0 957.0 1.8961157165266596 1
gene  1 196 4 -1.226141985951196 0 958.0 -1.226141985951196 1
genomeend 41
/*-------------------------------------------------------------------*/
/* Species # 014         : (size= 004) (AvfFit= 9,000) (Age= 64,000)  */
/*-------------------------------------------------------------------*/
/* Organism # 042 Fitness:  9,000 Error:  1,000                      */
genomestart  42
trait 1 0.07500000000000001 0.0 0.22421226832731533 0.0 0.4915457193315329 0.0 0.714235516743662 0.0 
trait 2 0.2 0.0 0.5190469864233626 0.24645029783808747 0.0 0.8836334253204547 0.0 0.7039107179756289 
trait 3 0.0 0.0 0.5323273535837271 1.270685368024714 0.3825507836751918 0.0465019797845172 0.9864521557579792 2.0313543512891585 
node 1 1 1 1
node 2 1 1 1
node 3 3 1 3
node 4 1 0 2
node 12 1 0 0
node 14 1 0 0
node 15 1 0 0
node 19 3 0 0
node 26 3 0 0
node 39 1 0 0
node 234 1 0 0
gene  3 1 4 3.4094852225769827 0 1.0 3.4094852225769827 1
gene  2 2 4 -7.013915457767583 0 2.0 -7.013915457767583 1
gene  3 3 4 15.400982302449638 0 3.0 15.400982302449638 1
gene  1 1 14 -2.059285240839118 0 35.0 -2.059285240839118 1
gene  1 14 4 2.7726003578191616 0 36.0 2.7726003578191616 1
gene  3 1 15 -2.281310632912683 0 40.0 -2.281310632912683 1
gene  1 15 12 0.2941947283022755 0 41.0 0.2941947283022755 1
gene  2 2 19 11.780751097217571 0 60.0 11.780751097217571 1
gene  2 19 4 -21.01687744791984 0 61.0 -21.01687744791984 1
gene  1 1 26 1.0495629197168164 0 84.0 1.0495629197168164 1
gene  1 26 14 3.934255549393006 0 85.0 3.934255549393006 1
gene  1 15 39 2.2914349507773553 0 145.0 2.2914349507773553 0
gene  2 39 12 0.9177102274008723 0 146.0 0.9177102274008723 1
gene  1 2 26 4.032454047693825 0 459.0 4.032454047693825 1
gene  3 39 26 -9.733059032886752 0 1112.0 -9.733059032886752 1
gene  1 15 234 -0.6908535345831308 0 1129.0 -0.6908535345831308 1
gene  1 234 39 0.1467224159549767 0 1130.0 0.1467224159549767 1
gene  1 19 26 0.9808196283429536 0 1166.0 0.9808196283429536 1
gene  2 26 12 -4.215709841741303 0 1214.0 -4.215709841741303 1
genomeend 42
/* Organism # 043 Fitness:  9,000 Error:  1,000                      */
genomestart  43
trait 1 0.07500000000000001 0.0 0.22421226832731533 0.0 0.4915457193315329 0.0 0.714235516743662 0.0 
trait 2 0.2 0.0 0.5190469864233626 0.24645029783808747 0.0 0.8836334253204547 0.0 0.7039107179756289 
trait 3 0.0 0.0 0.5323273535837271 1.270685368024714 0.3825507836751918 0.0465019797845172 0.9864521557579792 2.0313543512891585 
node 1 1 1 1
node 2 1 1 1
node 3 3 1 3
node 4 1 0 2
node 12 1 0 0
node 14 1 0 0
node 15 1 0 0
node 19 2 0 0
node 26 3 0 0
node 39 1 0 0
node 234 1 0 0
gene  3 1 4 0.9262472184348305 0 1.0 0.9262472184348305 1
gene  2 2 4 -2.8825127827819945 0 2.0 -2.8825127827819945 1
gene  3 3 4 18.225986207986406 0 3.0 18.225986207986406 1
gene  1 1 14 2.7517779260341655 0 35.0 2.7517779260341655 1
gene  1 14 4 2.324093818849637 0 36.0 2.324093818849637 1
gene  3 1 15 1.9070466984236123 0 40.0 1.9070466984236123 1
gene  1 15 12 2.265100832194779 0 41.0 2.265100832194779 1
gene  2 2 19 3.7736983721891155 0 60.0 3.7736983721891155 1
gene  2 19 4 -21.95257900029852 0 61.0 -21.95257900029852 1
gene  1 1 26 -0.881992713922336 0 84.0 -0.881992713922336 1
gene  1 26 14 0.9822451107024244 0 85.0 0.9822451107024244 1
gene  1 15 39 0.3433066182334019 0 145.0 0.3433066182334019 0
gene  2 39 12 3.945410665623652 0 146.0 3.945410665623652 1
gene  1 2 26 -1.081384205268828 0 459.0 -1.081384205268828 1
gene  3 39 26 -11.26136493743007 0 1112.0 -11.26136493743007 1
gene  1 15 234 0.2745950503482244 0 1129.0 0.2745950503482244 1
gene  1 234 39 -0.12359158237069401 0 1130.0 -0.12359158237069401 1
genomeend 43
/* Organism # 044 Fitness:  9,000 Error:  1,000                      */
genomestart  44
trait 1 0.07500000000000001 0.0 0.22421226832731533 0.0 0.4915457193315329 0.0 0.714235516743662 0.0 
trait 2 0.2 0.0 0.5190469864233626 0.24645029783808747 0.0 0.8836334253204547 0.0 0.7039107179756289 
trait 3 0.0 0.0 0.5323273535837271 1.270685368024714 0.3825507836751918 0.0465019797845172 0.9864521557579792 2.0313543512891585 
node 1 1 1 1
node 2 1 1 1
node 3 3 1 3
node 4 1 0 2
node 12 1 0 0
node 14 1 0 0
node 15 1 0 0
node 19 3 0 0
node 26 3 0 0
node 39 1 0 0
node 234 1 0 0
gene  3 1 4 3.2187316609193846 0 1.0 3.2187316609193846 1
gene  2 2 4 -0.5158504945063882 0 2.0 -0.5158504945063882 1
gene  3 3 4 14.422900481020783 0 3.0 14.422900481020783 1
gene  1 1 14 1.6770546894268392 0 35.0 1.6770546894268392 1
gene  1 14 4 0.80096760962587 0 36.0 0.80096760962587 1
gene  3 1 15 2.7900568758642854 0 40.0 2.7900568758642854 1
gene  1 15 12 -0.6054143275899775 0 41.0 -0.6054143275899775 1
gene  2 2 19 2.328259602962908 0 60.0 2.328259602962908 1
gene  2 19 4 -23.021853834064494 0 61.0 -23.021853834064494 1
gene  1 1 26 -0.462512621924401 0 84.0 -0.462512621924401 1
gene  1 26 14 -0.6885879434760462 0 85.0 -0.6885879434760462 1
gene  1 15 39 -1.8939892178916362 0 145.0 -1.8939892178916362 0
gene  2 39 12 1.0321829330419061 0 146.0 1.0321829330419061 1
gene  1 2 26 0.05611999397304457 0 459.0 0.05611999397304457 1
gene  3 39 26 -10.887248429684327 0 1112.0 -10.887248429684327 1
gene  1 15 234 -1.1573972096321392 0 1129.0 -1.1573972096321392 1
gene  1 234 39 0.6550865423676764 0 1130.0 0.6550865423676764 1
genomeend 44
/* Organism # 045 Fitness:  9,000 Error:  1,000                      */
genomestart  45
trait 1 0.07500000000000001 0.0 0.22421226832731533 0.0 0.4915457193315329 0.0 0.714235516743662 0.0 
trait 2 0.2 0.0 0.5190469864233626 0.24645029783808747 0.0 0.8836334253204547 0.0 0.7039107179756289 
trait 3 0.0 0.0 0.5323273535837271 1.270685368024714 0.3825507836751918 0.0465019797845172 0.9864521557579792 2.0313543512891585 
node 1 1 1 1
node 2 1 1 1
node 3 3 1 3
node 4 1 0 2
node 12 1 0 0
node 14 1 0 0
node 15 1 0 0
node 19 3 0 0
node 26 3 0 0
node 39 1 0 0
node 234 1 0 0
gene  3 1 4 2.0887066953640456 0 1.0 2.0887066953640456 1
gene  2 2 4 -3.9700667610496763 0 2.0 -3.9700667610496763 1
gene  3 3 4 15.250575834187684 0 3.0 15.250575834187684 1
gene  1 1 14 1.1424447559364537 0 35.0 1.1424447559364537 1
gene  1 14 4 0.2679757197262136 0 36.0 0.2679757197262136 1
gene  3 1 15 3.459310416452619 0 40.0 3.459310416452619 1
gene  1 15 12 1.3517835239002958 0 41.0 1.3517835239002958 1
gene  2 2 19 2.8532548274707694 0 60.0 2.8532548274707694 1
gene  2 19 4 -25.765707581639564 0 61.0 -25.765707581639564 1
gene  1 1 26 -1.1599351763395238 0 84.0 -1.1599351763395238 1
gene  1 26 14 3.420706749137546 0 85.0 3.420706749137546 1
gene  1 15 39 1.3486133732058803 0 145.0 1.3486133732058803 0
gene  2 39 12 1.8760158538256362 0 146.0 1.8760158538256362 1
gene  1 2 26 -3.072718323669088 0 459.0 -3.072718323669088 1
gene  3 39 26 -12.732251327203965 0 1112.0 -12.732251327203965 1
gene  1 15 234 -0.6069455041751535 0 1129.0 -0.6069455041751535 1
gene  1 234 39 -0.34372247712586873 0 1130.0 -0.34372247712586873 1
genomeend 45
/*-------------------------------------------------------------------*/
/* Species # 015         : (size= 004) (AvfFit= 7,750) (Age= 63,000)  */
/*-------------------------------------------------------------------*/
/* Organism # 046 Fitness:  9,000 Error:  1,000                      */
genomestart  46
trait 1 0.0 0.2980083218285674 0.6146215069883705 0.0 0.48642945093834966 0.44555401132109973 0.0 0.0 
trait 2 0.0 1.1204007568616854 1.1172044103779508 0.0 0.0 0.0 0.6779028454363701 0.3632018802468182 
trait 3 0.3 0.2808502343399747 0.0 0.0 0.0 0.0 0.0 0.0 
node 1 1 1 1
node 2 2 1 1
node 3 1 1 3
node 4 2 0 2
node 12 1 0 0
node 14 1 0 0
node 22 1 0 0
node 190 1 0 0
gene  3 1 4 4.388812406904449 0 1.0 4.388812406904449 0
gene  2 2 4 -12.792541608539482 0 2.0 -12.792541608539482 1
gene  2 3 4 13.22973239801653 0 3.0 13.22973239801653 1
gene  1 1 12 0.3995742200749132 0 25.0 0.3995742200749132 1
gene  1 1 14 10.175627036243352 0 35.0 10.175627036243352 0
gene  1 14 4 -10.00803135851952 0 36.0 -10.00803135851952 1
gene  1 1 22 6.71120435763283 0 74.0 6.71120435763283 1
gene  1 22 12 -6.025288820920844 0 75.0 -6.025288820920844 1
gene  2 2 12 -5.5696114356055055 0 135.0 -5.5696114356055055 1
gene  1 4 12 5.308219358011389 0 784.0 5.308219358011389 1
gene  1 1 190 4.676091110330537 0 924.0 4.676091110330537 1
gene  1 190 14 16.11011372743117 0 925.0 16.11011372743117 1
gene  1 3 22 -1.51843245617223 0 974.0 -1.51843245617223 1
gene  1 190 22 -1.8816960952258808 0 1021.0 -1.8816960952258808 1
gene  3 2 22 6.722112548435879 0 1148.0 6.722112548435879 1
genomeend 46
/* Organism # 047 Fitness:  9,000 Error:  1,000                      */
genomestart  47
trait 1 0.0 0.2980083218285674 0.6146215069883705 0.0 0.48642945093834966 0.44555401132109973 0.0 0.0 
trait 2 0.0 1.1204007568616854 1.1172044103779508 0.0 0.0 0.0 0.6779028454363701 0.3632018802468182 
trait 3 0.3 0.2808502343399747 0.0 0.0 0.0 0.0 0.0 0.0 
node 1 1 1 1
node 2 2 1 1
node 3 1 1 3
node 4 2 0 2
node 12 1 0 0
node 14 1 0 0
node 22 1 0 0
node 190 1 0 0
gene  3 1 4 2.1049813975178995 0 1.0 2.1049813975178995 0
gene  2 2 4 -13.281804235934136 0 2.0 -13.281804235934136 1
gene  2 3 4 15.693604018734474 0 3.0 15.693604018734474 1
gene  1 1 12 0.3455871078474486 0 25.0 0.3455871078474486 1
gene  1 1 14 8.737166295684936 0 35.0 8.737166295684936 0
gene  1 14 4 -8.498663499671926 0 36.0 -8.498663499671926 1
gene  1 1 22 5.904783723226688 0 74.0 5.904783723226688 1
gene  1 22 12 -4.996355689206215 0 75.0 -4.996355689206215 1
gene  2 2 12 -5.033100018442012 0 135.0 -5.033100018442012 1
gene  1 4 12 6.334407499750113 0 784.0 6.334407499750113 1
gene  1 1 190 6.068797800930653 0 924.0 6.068797800930653 1
gene  1 190 14 17.07788451565934 0 925.0 17.07788451565934 1
gene  1 3 22 0.5611960877935691 0 974.0 0.5611960877935691 1
gene  1 190 22 -1.8816960952258808 0 1021.0 -1.8816960952258808 1
gene  3 2 22 6.722112548435879 0 1148.0 6.722112548435879 1
gene  1 2 190 5.086730519534695 0 1202.0 5.086730519534695 1
genomeend 47
/* Organism # 048 Fitness:  4,001 Error:  2,000                      */
genomestart  48
trait 1 0.0 0.2980083218285674 0.6146215069883705 0.0 0.48642945093834966 0.44555401132109973 0.0 0.0 
trait 2 0.0 1.1204007568616854 1.1172044103779508 0.0 0.0 0.0 0.6779028454363701 0.3632018802468182 
trait 3 0.3 0.2808502343399747 0.0 0.0 0.0 0.0 0.0 0.0 
node 1 1 1 1
node 2 2 1 1
node 3 1 1 3
node 4 2 0 2
node 12 1 0 0
node 14 1 0 0
node 22 1 0 0
node 190 1 0 0
gene  3 1 4 2.1049813975178995 0 1.0 2.1049813975178995 0
gene  2 2 4 -13.281804235934136 0 2.0 -13.281804235934136 1
gene  2 3 4 15.693604018734474 0 3.0 15.693604018734474 1
gene  1 1 12 0.3455871078474486 0 25.0 0.3455871078474486 1
gene  1 1 14 8.737166295684936 0 35.0 8.737166295684936 0
gene  1 14 4 -8.498663499671926 0 36.0 -8.498663499671926 1
gene  1 1 22 5.904783723226688 0 74.0 5.904783723226688 1
gene  1 22 12 -4.996355689206215 0 75.0 -4.996355689206215 1
gene  2 2 12 -5.033100018442012 0 135.0 -5.033100018442012 1
gene  1 4 12 6.334407499750113 0 784.0 6.334407499750113 1
gene  1 1 190 6.068797800930653 0 924.0 6.068797800930653 1
gene  1 190 14 17.07788451565934 0 925.0 17.07788451565934 1
gene  1 3 22 0.5611960877935691 0 974.0 0.5611960877935691 1
gene  1 190 22 -1.8816960952258808 0 1021.0 -1.8816960952258808 1
gene  3 2 22 6.722112548435879 0 1148.0 6.722112548435879 1
gene  1 190 4 -8.985746792740098 0 1203.0 -8.985746792740098 1
genomeend 48
/* Organism # 049 Fitness:  9,000 Error:  1,000                      */
genomestart  49
trait 1 0.0 0.2980083218285674 0.6146215069883705 0.0 0.48642945093834966 0.44555401132109973 0.0 0.0 
trait 2 0.0 1.1204007568616854 1.1172044103779508 0.0 0.0 0.0 0.6779028454363701 0.3632018802468182 
trait 3 0.3 0.2808502343399747 0.0 0.0 0.0 0.0 0.0 0.0 
node 1 1 1 1
node 2 2 1 1
node 3 1 1 3
node 4 2 0 2
node 12 1 0 0
node 14 1 0 0
node 22 1 0 0
node 190 1 0 0
gene  3 1 4 2.056508044002515 0 1.0 2.056508044002515 0
gene  2 2 4 -15.608637323254207 0 2.0 -15.608637323254207 1
gene  2 3 4 16.887469644357232 0 3.0 16.887469644357232 1
gene  1 1 12 1.044640140219459 0 25.0 1.044640140219459 1
gene  1 1 14 10.837684523063992 0 35.0 10.837684523063992 0
gene  1 14 4 -9.13316910002443 0 36.0 -9.13316910002443 1
gene  1 1 22 3.73517392453077 0 74.0 3.73517392453077 1
gene  1 22 12 -5.493929288656549 0 75.0 -5.493929288656549 1
gene  3 2 12 -5.817809169270404 0 135.0 -5.817809169270404 1
gene  1 4 12 4.373680411355478 0 784.0 4.373680411355478 1
gene  1 1 190 3.825537597638361 0 924.0 3.825537597638361 1
gene  1 190 14 17.036818898841815 0 925.0 17.036818898841815 1
gene  1 3 22 -1.4318246090568594 0 974.0 -1.4318246090568594 1
gene  1 190 22 -0.4587280295174512 0 1021.0 -0.4587280295174512 1
gene  3 2 22 6.722112548435879 0 1148.0 6.722112548435879 1
gene  1 190 12 -0.5988743855636813 0 1175.0 -0.5988743855636813 1
genomeend 49
/*-------------------------------------------------------------------*/
/* Species # 017         : (size= 004) (AvfFit= 6,500) (Age= 60,000)  */
/*-------------------------------------------------------------------*/
/* Organism # 050 Fitness:  9,000 Error:  1,000                      */
genomestart  50
trait 1 0.7500883549232766 0.0 0.0 0.0 0.0 0.8280560738004444 0.8098624965295711 0.9757652513031895 
trait 2 0.873334170084167 0.7168246809562769 0.4309242805540725 0.0 0.9410373215341513 0.3655001627071348 0.0 0.8822091776111235 
trait 3 0.3068565455467368 0.0 0.02743951904101366 0.0 0.0 0.0 0.0 0.12397142264148128 
node 1 1 1 1
node 2 1 1 1
node 3 2 1 3
node 4 2 0 2
node 5 2 0 0
node 7 1 0 0
gene  1 1 4 -2.478523331308395 0 1.0 -2.478523331308395 0
gene  2 2 4 6.72415236518969 0 2.0 6.72415236518969 1
gene  3 3 4 6.885458607095895 0 3.0 6.885458607095895 1
gene  1 1 5 5.185327065852057 0 4.0 5.185327065852057 1
gene  2 5 4 -3.9776543402864157 0 5.0 -3.9776543402864157 1
gene  1 1 7 -0.4848081682971822 0 10.0 -0.4848081682971822 1
gene  3 7 4 1.042180045408548 0 11.0 1.042180045408548 1
gene  1 5 7 -1.904810160482202 0 95.0 -1.904810160482202 1
gene  3 3 5 -5.647923175723422 0 110.0 -5.647923175723422 1
gene  3 2 5 3.8753827593275094 0 121.0 3.8753827593275094 1
gene  2 3 7 2.229695171472546 0 147.0 2.229695171472546 1
gene  1 2 7 3.260524698387199 0 551.0 3.260524698387199 1
genomeend 50
/* Organism # 051 Fitness:  4,000 Error:  2,000                      */
genomestart  51
trait 1 0.7500883549232766 0.0 0.0 0.0 0.0 0.8280560738004444 0.8098624965295711 0.9757652513031895 
trait 2 0.873334170084167 0.7168246809562769 0.4309242805540725 0.0 0.9410373215341513 0.3655001627071348 0.0 0.8822091776111235 
trait 3 0.3068565455467368 0.0 0.02743951904101366 0.0 0.0 0.0 0.0 0.12397142264148128 
node 1 1 1 1
node 2 1 1 1
node 3 2 1 3
node 4 2 0 2
node 5 2 0 0
node 7 1 0 0
gene  1 1 4 -4.464532136786671 0 1.0 -4.464532136786671 0
gene  2 2 4 7.915803618304961 0 2.0 7.915803618304961 1
gene  3 3 4 -1.9694167776142537 0 3.0 -1.9694167776142537 1
gene  1 1 5 5.965096516376067 0 4.0 5.965096516376067 1
gene  3 5 4 -3.388040663102754 0 5.0 -3.388040663102754 1
gene  1 1 7 -0.4848081682971822 0 10.0 -0.4848081682971822 1
gene  3 7 4 0.9689878888150736 0 11.0 0.9689878888150736 1
gene  1 5 7 -0.5668075788949962 0 95.0 -0.5668075788949962 1
gene  3 3 5 -3.6545117819728197 0 110.0 -3.6545117819728197 1
gene  3 2 5 2.5724027047240674 0 121.0 2.5724027047240674 1
gene  2 3 7 -1.2881512405245705 0 147.0 -1.2881512405245705 1
gene  1 2 7 5.289543070922154 0 551.0 5.289543070922154 1
genomeend 51
/* Organism # 052 Fitness:  4,000 Error:  2,000                      */
genomestart  52
trait 1 0.7500883549232766 0.0 0.0 0.0 0.0 0.8280560738004444 0.8098624965295711 0.9757652513031895 
trait 2 0.873334170084167 0.7168246809562769 0.4309242805540725 0.0 0.9410373215341513 0.3655001627071348 0.0 0.8822091776111235 
trait 3 0.3068565455467368 0.0 0.02743951904101366 0.0 0.0 0.0 0.0 0.12397142264148128 
node 1 1 1 1
node 2 1 1 1
node 3 2 1 3
node 4 2 0 2
node 5 2 0 0
node 7 1 0 0
gene  1 1 4 -2.4459867248039138 0 1.0 -2.4459867248039138 0
gene  2 2 4 6.72415236518969 0 2.0 6.72415236518969 1
gene  3 3 4 7.146221439881958 0 3.0 7.146221439881958 1
gene  1 1 5 5.965901489297196 0 4.0 5.965901489297196 1
gene  3 5 4 1.9855256454156294 0 5.0 1.9855256454156294 1
gene  1 1 7 1.6866474643991394 0 10.0 1.6866474643991394 1
gene  3 7 4 0.8557648854326533 0 11.0 0.8557648854326533 1
gene  1 5 7 1.0847792255952136 0 95.0 1.0847792255952136 1
gene  3 3 5 -4.544462386969452 0 110.0 -4.544462386969452 1
gene  3 2 5 3.0756522085474556 0 121.0 3.0756522085474556 1
gene  2 3 7 4.595336131355174 0 147.0 4.595336131355174 1
gene  1 2 7 0.9723975883410632 0 551.0 0.9723975883410632 1
genomeend 52
/* Organism # 053 Fitness:  9,000 Error:  1,000                      */
genomestart  53
trait 1 0.7500883549232766 0.0 0.0 0.5318519363163864 0.0 0.8280560738004444 0.8098624965295711 0.9757652513031895 
trait 2 0.873334170084167 0.7168246809562769 0.4309242805540725 0.0 0.9410373215341513 0.3655001627071348 0.0 0.8822091776111235 
trait 3 0.3068565455467368 0.0 0.02743951904101366 0.0 0.0 0.0 0.0 0.12397142264148128 
node 1 1 1 1
node 2 1 1 1
node 3 2 1 3
node 4 2 0 2
node 5 2 0 0
node 7 1 0 0
gene  1 1 4 -0.6778861707082977 0 1.0 -0.6778861707082977 0
gene  2 2 4 8.418805818949384 0 2.0 8.418805818949384 1
gene  3 3 4 5.845476481025585 0 3.0 5.845476481025585 1
gene  1 1 5 5.8061707585131295 0 4.0 5.8061707585131295 1
gene  3 5 4 -5.37327262551475 0 5.0 -5.37327262551475 1
gene  1 1 7 -2.551370663414601 0 10.0 -2.551370663414601 1
gene  3 7 4 1.5944077435481083 0 11.0 1.5944077435481083 1
gene  1 5 7 2.375172037932347 0 95.0 2.375172037932347 1
gene  3 3 5 -4.7874009600139615 0 110.0 -4.7874009600139615 1
gene  3 2 5 3.936158756190084 0 121.0 3.936158756190084 1
gene  2 3 7 2.229695171472546 0 147.0 2.229695171472546 1
gene  1 2 7 -0.716180783061364 0 551.0 -0.716180783061364 1
genomeend 53
/*-------------------------------------------------------------------*/
/* Species # 018         : (size= 004) (AvfFit= 7,750) (Age= 58,000)  */
/*-------------------------------------------------------------------*/
/* Organism # 054 Fitness:  9,000 Error:  1,000                      */
genomestart  54
trait 1 0.0 0.0 0.0 0.0 0.0 0.0 0.0 0.0 
trait 2 0.2 0.0 0.0 0.8767583579261666 0.0 0.2674280559566201 0.7022674847929224 0.9548943508089329 
trait 3 0.3 0.0 0.0 0.0 0.0 0.0 0.0 0.0 
node 1 2 1 1
node 2 1 1 1
node 3 2 1 3
node 4 1 0 2
node 36 2 0 0
node 244 1 0 0
gene  2 1 4 -0.25405288929004954 0 1.0 -0.25405288929004954 0
gene  3 2 4 30.974294180823776 0 2.0 30.974294180823776 1
gene  3 3 4 19.58826683511748 0 3.0 19.58826683511748 1
gene  1 1 36 1.3492012898288894 0 133.0 1.3492012898288894 0
gene  1 36 4 -13.824763040295485 0 134.0 -13.824763040295485 1
gene  1 3 36 -7.975612798144376 0 153.0 -7.975612798144376 1
gene  2 2 36 9.817956380648983 0 201.0 9.817956380648983 1
gene  1 1 244 -1.6235699535036803 0 1176.0 -1.6235699535036803 1
gene  1 244 36 2.014351122373866 0 1177.0 2.014351122373866 1
genomeend 54
/* Organism # 055 Fitness:  9,000 Error:  1,000                      */
genomestart  55
trait 1 0.0 0.0 0.0 0.0 0.0 0.0 0.0 0.0 
trait 2 0.2 0.0 0.0 0.8767583579261666 0.0 0.2674280559566201 0.7022674847929224 0.9548943508089329 
trait 3 0.3 0.0 0.0 0.0 0.0 0.0 0.0 0.0 
node 1 2 1 1
node 2 1 1 1
node 3 2 1 3
node 4 1 0 2
node 36 2 0 0
node 244 1 0 0
gene  2 1 4 0.10890917562944735 0 1.0 0.10890917562944735 0
gene  3 2 4 28.517678689244413 0 2.0 28.517678689244413 1
gene  3 3 4 17.805198551237904 0 3.0 17.805198551237904 1
gene  1 1 36 0.05393535335871369 0 133.0 0.05393535335871369 0
gene  1 36 4 -9.853594175210493 0 134.0 -9.853594175210493 1
gene  1 3 36 -4.7710186094242815 0 153.0 -4.7710186094242815 1
gene  2 2 36 8.510290558950437 0 201.0 8.510290558950437 1
gene  1 1 244 0.08751856030394678 0 1176.0 0.08751856030394678 1
gene  1 244 36 3.2434684995615646 0 1177.0 3.2434684995615646 1
genomeend 55
/* Organism # 056 Fitness:  9,000 Error:  1,000                      */
genomestart  56
trait 1 0.0 0.0 0.0 0.0 0.0 0.0 0.0 0.0 
trait 2 0.2 0.0 0.0 0.8767583579261666 0.0 0.2674280559566201 0.7022674847929224 0.9548943508089329 
trait 3 0.3 0.0 0.0 0.0 0.0 0.0 0.0 0.0 
node 1 2 1 1
node 2 1 1 1
node 3 2 1 3
node 4 1 0 2
node 36 2 0 0
node 244 1 0 0
gene  2 1 4 -0.40614630014470654 0 1.0 -0.40614630014470654 0
gene  3 2 4 31.275844600949004 0 2.0 31.275844600949004 1
gene  3 3 4 19.87751451019443 0 3.0 19.87751451019443 1
gene  1 1 36 -0.6174866485012906 0 133.0 -0.6174866485012906 0
gene  1 36 4 -12.900192071803403 0 134.0 -12.900192071803403 1
gene  1 3 36 -4.251426171762754 0 153.0 -4.251426171762754 1
gene  2 2 36 9.752172800798414 0 201.0 9.752172800798414 1
gene  1 1 244 -1.062852291836121 0 1176.0 -1.062852291836121 1
gene  1 244 36 1.8914149055886762 0 1177.0 1.8914149055886762 1
genomeend 56
/* Organism # 057 Fitness:  4,000 Error:  2,000                      */
genomestart  57
trait 1 0.0 0.0 0.0 0.0 0.0 0.0 0.0 0.0 
trait 2 0.2 0.0 0.0 0.8767583579261666 0.0 0.2674280559566201 0.7022674847929224 0.9548943508089329 
trait 3 0.3 0.0 0.0 0.0 0.0 0.0 0.0 0.0 
node 1 2 1 1
node 2 1 1 1
node 3 2 1 3
node 4 1 0 2
node 36 2 0 0
node 244 1 0 0
node 250 1 0 0
gene  2 1 4 1.5646870283254672 0 1.0 1.5646870283254672 0
gene  3 2 4 28.850290278611887 0 2.0 28.850290278611887 0
gene  3 3 4 17.841213480415956 0 3.0 17.841213480415956 1
gene  1 1 36 0.7828150517034314 0 133.0 0.7828150517034314 0
gene  1 36 4 -11.783355512449237 0 134.0 -11.783355512449237 1
gene  1 3 36 -5.852156678309839 0 153.0 -5.852156678309839 1
gene  2 2 36 7.777038291536233 0 201.0 7.777038291536233 1
gene  1 1 244 1.0 0 1176.0 0.0 1
gene  1 244 36 0.7828150517034314 0 1177.0 0.0 1
gene  3 2 250 1.0 0 1194.0 0.0 1
gene  3 250 4 28.850290278611887 0 1195.0 0.0 1
genomeend 57
/*-------------------------------------------------------------------*/
/* Species # 019         : (size= 004) (AvfFit= 9,000) (Age= 58,000)  */
/*-------------------------------------------------------------------*/
/* Organism # 058 Fitness:  9,000 Error:  1,000                      */
genomestart  58
trait 1 0.7949372350370381 0.5372534671267148 0.5965851801701454 0.0 0.18994372007981997 0.0 0.07387542383354972 0.8746802787318567 
trait 2 0.8643473711171628 0.0 0.0 0.0 0.5553874975635208 0.0 0.0 0.8755823480863029 
trait 3 0.0 0.0 1.732308625683137 0.0 0.08903532127729352 1.7647622189055854 0.0 0.0 
node 1 2 1 1
node 2 3 1 1
node 3 1 1 3
node 4 1 0 2
node 12 1 0 0
node 14 1 0 0
node 15 1 0 0
node 19 1 0 0
node 26 2 0 0
node 40 1 0 0
node 76 1 0 0
node 256 1 0 0
gene  1 1 4 2.5515023856809824 0 1.0 2.5515023856809824 0
gene  2 2 4 1.9932773722631696 0 2.0 1.9932773722631696 0
gene  3 3 4 -0.07008759010864529 0 3.0 -0.07008759010864529 1
gene  1 1 14 -12.15552038555675 0 35.0 -12.15552038555675 1
gene  1 14 4 3.725919191012902 0 36.0 3.725919191012902 1
gene  1 1 15 8.085535109993089 0 40.0 8.085535109993089 1
gene  1 15 12 0.6691163339286554 0 41.0 0.6691163339286554 1
gene  2 2 19 6.118574659056454 0 60.0 6.118574659056454 1
gene  2 19 4 8.694622961226214 0 61.0 8.694622961226214 1
gene  1 1 26 -2.013621450290915 0 84.0 -2.013621450290915 1
gene  1 26 14 2.161905784209723 0 85.0 2.161905784209723 0
gene  2 3 14 18.87042934329267 0 143.0 18.87042934329267 1
gene  2 2 40 1.828485957566182 0 150.0 1.828485957566182 1
gene  2 40 4 -15.538057061275657 0 151.0 -15.538057061275657 1
gene  1 1 76 2.9795969930710835 0 348.0 2.9795969930710835 1
gene  1 76 14 -1.8174294314081911 0 349.0 -1.8174294314081911 1
gene  1 3 19 8.958545776044135 0 477.0 8.958545776044135 1
gene  2 4 15 0.388605323924222 0 494.0 0.388605323924222 1
gene  3 40 15 -2.0333292249279653 0 642.0 -2.0333292249279653 1
gene  1 26 15 1.6639658140217644 0 812.0 1.6639658140217644 1
gene  2 76 15 -2.430119897023682 0 927.0 -2.430119897023682 1
gene  2 3 26 0.29523935591073164 0 1029.0 0.29523935591073164 1
gene  1 26 256 1.0 0 1224.0 0.0 1
gene  1 256 14 2.161905784209723 0 1225.0 0.0 1
genomeend 58
/* Organism # 059 Fitness:  9,000 Error:  1,000                      */
genomestart  59
trait 1 0.7949372350370381 0.5372534671267148 0.5965851801701454 0.0 0.18994372007981997 0.0 0.07387542383354972 0.8746802787318567 
trait 2 0.8643473711171628 0.0 0.0 0.0 0.5553874975635208 0.0 0.0 0.8755823480863029 
trait 3 0.0 0.0 1.732308625683137 0.0 0.08903532127729352 1.7647622189055854 0.0 0.0 
node 1 2 1 1
node 2 3 1 1
node 3 1 1 3
node 4 1 0 2
node 12 1 0 0
node 14 1 0 0
node 15 1 0 0
node 19 1 0 0
node 26 2 0 0
node 40 1 0 0
node 76 1 0 0
gene  1 1 4 3.5699779288876154 0 1.0 3.5699779288876154 0
gene  2 2 4 1.2409148130512433 0 2.0 1.2409148130512433 0
gene  3 3 4 -0.47649744538274136 0 3.0 -0.47649744538274136 1
gene  1 1 14 -12.311599347973681 0 35.0 -12.311599347973681 1
gene  1 14 4 3.136606821755187 0 36.0 3.136606821755187 1
gene  1 1 15 9.807686063924201 0 40.0 9.807686063924201 1
gene  1 15 12 2.026545125519233 0 41.0 2.026545125519233 1
gene  2 2 19 4.179559885888345 0 60.0 4.179559885888345 1
gene  2 19 4 9.691227417794988 0 61.0 9.691227417794988 1
gene  1 1 26 -0.004011985588397771 0 84.0 -0.004011985588397771 1
gene  1 26 14 1.671324483752867 0 85.0 1.671324483752867 1
gene  2 3 14 18.874932503500588 0 143.0 18.874932503500588 1
gene  2 2 40 3.0167436957525204 0 150.0 3.0167436957525204 1
gene  2 40 4 -17.55160206407962 0 151.0 -17.55160206407962 1
gene  1 1 76 2.9169301196245105 0 348.0 2.9169301196245105 1
gene  1 76 14 -0.8760847115667424 0 349.0 -0.8760847115667424 1
gene  1 3 19 9.208358547595829 0 477.0 9.208358547595829 1
gene  2 4 15 1.494636563230898 0 494.0 1.494636563230898 1
gene  3 40 15 -2.0333292249279653 0 642.0 -2.0333292249279653 1
gene  1 26 15 -0.6506804932629504 0 812.0 -0.6506804932629504 1
gene  2 76 15 -1.4094624230129917 0 927.0 -1.4094624230129917 1
gene  2 3 26 0.29523935591073164 0 1029.0 0.29523935591073164 1
genomeend 59
/* Organism # 060 Fitness:  9,000 Error:  1,000                      */
genomestart  60
trait 1 0.7949372350370381 0.5372534671267148 0.5965851801701454 0.0 0.18994372007981997 0.0 0.07387542383354972 0.8746802787318567 
trait 2 0.8643473711171628 0.0 0.0 0.0 0.5553874975635208 0.0 0.0 0.8755823480863029 
trait 3 0.0 0.0 1.732308625683137 0.0 0.08903532127729352 1.7647622189055854 0.0 0.0 
node 1 2 1 1
node 2 3 1 1
node 3 1 1 3
node 4 1 0 2
node 12 1 0 0
node 14 1 0 0
node 15 1 0 0
node 19 1 0 0
node 26 2 0 0
node 40 1 0 0
node 76 1 0 0
node 256 1 0 0
gene  1 1 4 2.5515023856809824 0 1.0 2.5515023856809824 0
gene  2 2 4 1.9932773722631696 0 2.0 1.9932773722631696 0
gene  3 3 4 -0.07008759010864529 0 3.0 -0.07008759010864529 1
gene  1 1 14 -12.15552038555675 0 35.0 -12.15552038555675 1
gene  1 14 4 3.725919191012902 0 36.0 3.725919191012902 1
gene  1 1 15 8.085535109993089 0 40.0 8.085535109993089 1
gene  1 15 12 0.6691163339286554 0 41.0 0.6691163339286554 1
gene  2 2 19 6.118574659056454 0 60.0 6.118574659056454 1
gene  2 19 4 8.694622961226214 0 61.0 8.694622961226214 1
gene  1 1 26 -2.013621450290915 0 84.0 -2.013621450290915 1
gene  1 26 14 2.161905784209723 0 85.0 2.161905784209723 0
gene  2 3 14 18.87042934329267 0 143.0 18.87042934329267 1
gene  2 2 40 1.828485957566182 0 150.0 1.828485957566182 1
gene  2 40 4 -15.538057061275657 0 151.0 -15.538057061275657 1
gene  1 1 76 2.9795969930710835 0 348.0 2.9795969930710835 1
gene  1 76 14 -1.8174294314081911 0 349.0 -1.8174294314081911 1
gene  1 3 19 8.958545776044135 0 477.0 8.958545776044135 1
gene  2 4 15 0.388605323924222 0 494.0 0.388605323924222 1
gene  3 40 15 -2.0333292249279653 0 642.0 -2.0333292249279653 1
gene  1 26 15 1.6639658140217644 0 812.0 1.6639658140217644 1
gene  2 76 15 -2.430119897023682 0 927.0 -2.430119897023682 1
gene  2 3 26 0.29523935591073164 0 1029.0 0.29523935591073164 1
gene  1 26 256 1.0 0 1224.0 0.0 1
gene  1 256 14 2.161905784209723 0 1225.0 0.0 1
genomeend 60
/* Organism # 061 Fitness:  9,000 Error:  1,000                      */
genomestart  61
trait 1 0.7949372350370381 0.5372534671267148 0.5965851801701454 0.0 0.18994372007981997 0.0 0.07387542383354972 0.8746802787318567 
trait 2 0.8643473711171628 0.0 0.0 0.0 0.5553874975635208 0.0 0.0 0.8755823480863029 
trait 3 0.0 0.0 1.732308625683137 0.0 0.08903532127729352 1.7647622189055854 0.0 0.0 
node 1 2 1 1
node 2 3 1 1
node 3 1 1 3
node 4 1 0 2
node 12 1 0 0
node 14 1 0 0
node 15 1 0 0
node 19 1 0 0
node 26 2 0 0
node 40 1 0 0
node 76 1 0 0
gene  1 1 4 4.556064729899306 0 1.0 4.556064729899306 0
gene  2 2 4 4.007662073931239 0 2.0 4.007662073931239 0
gene  3 3 4 -2.3960979643676596 0 3.0 -2.3960979643676596 1
gene  1 1 14 -12.473203044558693 0 35.0 -12.473203044558693 1
gene  1 14 4 4.188649915902073 0 36.0 4.188649915902073 1
gene  1 1 15 9.568014930541107 0 40.0 9.568014930541107 1
gene  1 15 12 -1.5294081587043913 0 41.0 -1.5294081587043913 1
gene  2 2 19 7.591930972730053 0 60.0 7.591930972730053 1
gene  2 19 4 8.242360244454586 0 61.0 8.242360244454586 1
gene  1 1 26 -0.5192026914761159 0 84.0 -0.5192026914761159 1
gene  1 26 14 0.9136891646667886 0 85.0 0.9136891646667886 1
gene  2 3 14 19.900473909112755 0 143.0 19.900473909112755 1
gene  2 2 40 4.180549826762215 0 150.0 4.180549826762215 1
gene  2 40 4 -14.682052563238331 0 151.0 -14.682052563238331 1
gene  1 1 76 3.425396722662412 0 348.0 3.425396722662412 1
gene  1 76 14 -3.9120537998538225 0 349.0 -3.9120537998538225 1
gene  1 3 19 11.447629471024305 0 477.0 11.447629471024305 1
gene  2 4 15 0.0295379852321927 0 494.0 0.0295379852321927 1
gene  3 40 15 1.9720139573852316 0 642.0 1.9720139573852316 1
gene  1 26 15 1.6639658140217644 0 812.0 1.6639658140217644 1
gene  2 76 15 -3.1096228745827386 0 927.0 -3.1096228745827386 1
gene  2 3 26 2.4396548429929297 0 1029.0 2.4396548429929297 1
genomeend 61
/*-------------------------------------------------------------------*/
/* Species # 020         : (size= 002) (AvfFit= 5,731) (Age= 56,000)  */
/*-------------------------------------------------------------------*/
/* Organism # 062 Fitness:  7,462 Error:  1,268                      */
genomestart  62
trait 1 0.053125000000000006 0.4047272515755067 0.0 0.9208890756846675 0.513019520848363 1.3301646237021116 0.0 0.0 
trait 2 0.2 0.0 0.0 0.0 0.0 0.0 0.0 0.0 
trait 3 0.16095373577986377 0.0 0.0 0.0 0.0 0.0 0.5268393200346156 0.0 
node 1 2 1 1
node 2 1 1 1
node 3 1 1 3
node 4 3 0 2
node 14 2 0 0
node 43 2 0 0
node 213 1 0 0
gene  1 1 4 0.4995237060137192 0 1.0 0.4995237060137192 0
gene  2 2 4 -0.9173032558257566 0 2.0 -0.9173032558257566 1
gene  3 3 4 0.9429670192106945 0 3.0 0.9429670192106945 1
gene  1 1 14 3.5021366157963696 0 35.0 3.5021366157963696 1
gene  1 14 4 -0.3511496623720257 0 36.0 -0.3511496623720257 1
gene  1 2 14 -2.766456930243631 0 149.0 -2.766456930243631 1
gene  1 1 43 0.7032988889661471 0 175.0 0.7032988889661471 1
gene  2 43 14 -3.5309784194875062 0 176.0 -3.5309784194875062 1
gene  1 3 43 -2.32282747840601 0 469.0 -2.32282747840601 1
gene  3 3 14 5.8005894928749635 0 689.0 5.8005894928749635 1
gene  2 43 4 -9.321786477882027 0 803.0 -9.321786477882027 1
gene  2 2 43 -7.310415449317305 0 900.0 -7.310415449317305 1
gene  1 1 213 2.756523313891217 0 1030.0 2.756523313891217 1
gene  1 213 4 0.08803642198601175 0 1031.0 0.08803642198601175 1
gene  2 43 213 -0.21384137325796715 0 1118.0 -0.21384137325796715 1
genomeend 62
/* Organism # 063 Fitness:  4,000 Error:  2,000                      */
genomestart  63
trait 1 0.053125000000000006 0.4047272515755067 0.0 0.9208890756846675 0.513019520848363 1.3301646237021116 0.0 0.0 
trait 2 0.2 0.0 0.0 0.0 0.0 0.0 0.0 0.0 
trait 3 0.16095373577986377 0.0 0.0 0.0 0.0 0.0 0.5268393200346156 0.0 
node 1 2 1 1
node 2 1 1 1
node 3 1 1 3
node 4 3 0 2
node 14 2 0 0
node 43 2 0 0
node 213 1 0 0
gene  1 1 4 -3.6899459051189467 0 1.0 -3.6899459051189467 0
gene  2 2 4 -0.9173032558257566 0 2.0 -0.9173032558257566 1
gene  3 3 4 -0.04365766424175632 0 3.0 -0.04365766424175632 1
gene  1 1 14 0.2384733733711757 0 35.0 0.2384733733711757 1
gene  1 14 4 -0.15727249939469845 0 36.0 -0.15727249939469845 1
gene  1 2 14 -3.8617821931614205 0 149.0 -3.8617821931614205 1
gene  1 1 43 -1.3748095484988694 0 175.0 -1.3748095484988694 1
gene  2 43 14 -1.4235355082525327 0 176.0 -1.4235355082525327 1
gene  1 3 43 0.31998458731744117 0 469.0 0.31998458731744117 1
gene  3 3 14 -1.5312392297328463 0 689.0 -1.5312392297328463 1
gene  2 43 4 0.7015396310037822 0 803.0 0.7015396310037822 1
gene  2 2 43 -1.4042077336974714 0 900.0 -1.4042077336974714 1
gene  1 1 213 1.6812542111653983 0 1030.0 1.6812542111653983 1
gene  1 213 4 -2.1768645669038804 0 1031.0 -2.1768645669038804 1
gene  2 43 213 -2.113257753023017 0 1118.0 -2.113257753023017 1
genomeend 63
/*-------------------------------------------------------------------*/
/* Species # 021         : (size= 002) (AvfFit= 4,000) (Age= 56,000)  */
/*-------------------------------------------------------------------*/
/* Organism # 064 Fitness:  4,000 Error:  2,000                      */
genomestart  64
trait 1 0.3943518152472121 0.6091503535315591 0.498704435481923 0.0 0.01021803802828668 0.0 0.0 0.0018338841161459108 
trait 2 0.0 0.0 1.2213904221528333 0.21703194695907602 0.0 0.0 0.0 0.0266024266482342 
trait 3 0.0 0.11288121054901043 0.9277318827308184 0.0 0.009616806161856204 0.0 0.0 0.0 
node 1 1 1 1
node 2 1 1 1
node 3 1 1 3
node 4 3 0 2
node 5 2 0 0
node 48 1 0 0
node 109 2 0 0
node 159 1 0 0
gene  1 1 4 4.089013458278991 0 1.0 4.089013458278991 0
gene  2 2 4 -1.9757111189765506 0 2.0 -1.9757111189765506 1
gene  3 3 4 -2.8952671521126243 0 3.0 -2.8952671521126243 1
gene  1 1 5 2.8925680880718954 0 4.0 2.8925680880718954 1
gene  1 5 4 -5.338202811205244 0 5.0 -5.338202811205244 1
gene  2 2 5 6.074482892383315 0 8.0 6.074482892383315 1
gene  1 3 5 2.3255237510578723 0 152.0 2.3255237510578723 1
gene  2 2 48 -1.1642296156942655 0 196.0 -1.1642296156942655 1
gene  2 48 4 -2.6140135250594296 0 197.0 -2.6140135250594296 1
gene  1 3 48 -1.7785463123804184 0 281.0 -1.7785463123804184 1
gene  2 2 109 -5.023069112132814 0 498.0 -5.023069112132814 1
gene  2 109 48 3.198411509863111 0 499.0 3.198411509863111 1
gene  3 3 109 -2.1701581580067177 0 549.0 -2.1701581580067177 1
gene  2 5 109 1.7614212580368565 0 568.0 1.7614212580368565 1
gene  1 5 48 -2.851367300489019 0 587.0 -2.851367300489019 0
gene  2 5 159 -0.46785054240965795 0 770.0 -0.46785054240965795 1
gene  1 159 48 4.299196493873048 0 771.0 4.299196493873048 1
gene  3 109 4 3.2214465667026744 0 1170.0 3.2214465667026744 1
genomeend 64
/* Organism # 065 Fitness:  4,000 Error:  2,000                      */
genomestart  65
trait 1 0.3943518152472121 0.6091503535315591 0.498704435481923 0.0 0.01021803802828668 0.0 0.0 0.0018338841161459108 
trait 2 0.0 0.0 1.2213904221528333 0.21703194695907602 0.0 0.0 0.0 0.0266024266482342 
trait 3 0.0 0.11288121054901043 0.9277318827308184 0.0 0.009616806161856204 0.0 0.0 0.0 
node 1 1 1 1
node 2 1 1 1
node 3 1 1 3
node 4 2 0 2
node 5 2 0 0
node 48 1 0 0
node 109 2 0 0
node 159 1 0 0
gene  1 1 4 3.166261709745106 0 1.0 3.166261709745106 0
gene  2 2 4 -0.918621285084191 0 2.0 -0.918621285084191 1
gene  3 3 4 -3.641517123140516 0 3.0 -3.641517123140516 1
gene  1 1 5 3.0603592472478534 0 4.0 3.0603592472478534 1
gene  1 5 4 -5.058443092519827 0 5.0 -5.058443092519827 1
gene  2 2 5 6.116130315282884 0 8.0 6.116130315282884 1
gene  1 3 5 4.449694285279639 0 152.0 4.449694285279639 1
gene  2 2 48 -3.2491124198847374 0 196.0 -3.2491124198847374 1
gene  2 48 4 -3.3580592760382393 0 197.0 -3.3580592760382393 1
gene  1 3 48 -3.4703333068415922 0 281.0 -3.4703333068415922 1
gene  2 2 109 -6.973544540742648 0 498.0 -6.973544540742648 1
gene  2 109 48 2.3476002484786074 0 499.0 2.3476002484786074 1
gene  3 3 109 -0.18562873942065372 0 549.0 -0.18562873942065372 1
gene  2 5 109 2.454912939608004 0 568.0 2.454912939608004 1
gene  1 5 48 -3.531522096613304 0 587.0 -3.531522096613304 0
gene  2 5 159 -0.46785054240965795 0 770.0 -0.46785054240965795 1
gene  1 159 48 1.6293387915877018 0 771.0 1.6293387915877018 1
gene  3 109 4 3.2214465667026744 0 1170.0 3.2214465667026744 1
genomeend 65
/*-------------------------------------------------------------------*/
/* Species # 022         : (size= 005) (AvfFit= 8,999) (Age= 55,000)  */
/*-------------------------------------------------------------------*/
/* Organism # 066 Fitness:  9,000 Error:  1,000                      */
genomestart  66
trait 1 0.9251473407130391 1.4461169616591305 0.0 0.0 1.7878207442493188 0.01844750209648538 0.0 0.0 
trait 2 0.2 0.0 0.0 0.0 0.0 0.0 0.0 0.0 
trait 3 0.29729152111869434 0.0 0.0 0.0 0.0 0.0 0.0 0.24606594673300763 
node 1 1 1 1
node 2 2 1 1
node 3 1 1 3
node 4 1 0 2
node 46 1 0 0
node 137 1 0 0
node 206 3 0 0
gene  1 1 4 -2.846000580821375 0 1.0 -2.846000580821375 0
gene  3 2 4 -26.056478022986457 0 2.0 -26.056478022986457 1
gene  3 3 4 18.514146622254867 0 3.0 18.514146622254867 1
gene  2 1 46 5.565316679329111 0 183.0 5.565316679329111 1
gene  1 46 4 -11.267121215642595 0 184.0 -11.267121215642595 1
gene  2 3 46 -9.511171558152576 0 217.0 -9.511171558152576 1
gene  2 2 46 -1.3141505188287568 0 246.0 -1.3141505188287568 1
gene  1 1 137 -2.7490781706327008 0 637.0 -2.7490781706327008 1
gene  1 137 4 -2.4326046238263355 0 638.0 -2.4326046238263355 1
gene  2 2 137 -5.421460498872893 0 913.0 -5.421460498872893 1
gene  1 1 206 1.0689920194392593 0 1002.0 1.0689920194392593 1
gene  1 206 4 -2.4738350742369293 0 1003.0 -2.4738350742369293 1
gene  2 206 137 -11.669101822839693 0 1047.0 -11.669101822839693 1
gene  2 46 206 1.037656201981775 0 1131.0 1.037656201981775 1
genomeend 66
/* Organism # 067 Fitness:  8,993 Error:  1,001                      */
genomestart  67
trait 1 0.9251473407130391 1.4461169616591305 0.0 0.0 1.7878207442493188 0.01844750209648538 0.0 0.0 
trait 2 0.2 0.0 0.0 0.11730530236788628 0.0 0.0 0.0 0.0 
trait 3 0.3 0.0 0.0 0.0 0.0 0.0 0.0 0.0 
node 1 1 1 1
node 2 2 1 1
node 3 1 1 3
node 4 1 0 2
node 46 1 0 0
node 137 1 0 0
node 206 3 0 0
gene  1 1 4 -1.0917252571353495 0 1.0 -1.0917252571353495 0
gene  3 2 4 -24.67150449844165 0 2.0 -24.67150449844165 1
gene  3 3 4 17.287551571439334 0 3.0 17.287551571439334 1
gene  2 1 46 3.8144816678619717 0 183.0 3.8144816678619717 1
gene  1 46 4 -13.392985510355896 0 184.0 -13.392985510355896 1
gene  2 3 46 -0.3729559368790744 0 217.0 -0.3729559368790744 1
gene  2 2 46 -3.601916398791574 0 246.0 -3.601916398791574 1
gene  1 1 137 -0.9651746258551905 0 637.0 -0.9651746258551905 1
gene  1 137 4 -6.594187862727785 0 638.0 -6.594187862727785 1
gene  2 2 137 -1.4511979575091654 0 913.0 -1.4511979575091654 1
gene  1 1 206 -0.00722239539074887 0 1002.0 -0.00722239539074887 1
gene  1 206 4 -2.534328333259249 0 1003.0 -2.534328333259249 1
gene  2 206 137 -13.687670217432885 0 1047.0 -13.687670217432885 1
gene  2 46 206 2.2775097797422914 0 1131.0 2.2775097797422914 1
genomeend 67
/* Organism # 068 Fitness:  9,000 Error:  1,000                      */
genomestart  68
trait 1 0.9251473407130391 1.4461169616591305 0.0 0.0 1.7878207442493188 0.01844750209648538 0.0 0.0 
trait 2 0.2 0.0 0.0 0.0 0.0 0.0 0.0 0.0 
trait 3 0.3 0.0 0.0 0.0 0.0 0.0 0.0 0.0 
node 1 1 1 1
node 2 2 1 1
node 3 1 1 3
node 4 1 0 2
node 46 1 0 0
node 137 1 0 0
node 206 3 0 0
gene  1 1 4 -5.058700335178627 0 1.0 -5.058700335178627 0
gene  3 2 4 -20.47894812356142 0 2.0 -20.47894812356142 1
gene  3 3 4 12.955997045583985 0 3.0 12.955997045583985 1
gene  2 1 46 3.811391334369163 0 183.0 3.811391334369163 1
gene  1 46 4 -8.861002595387061 0 184.0 -8.861002595387061 1
gene  2 3 46 -7.685113899903793 0 217.0 -7.685113899903793 1
