genomestart  129
trait 1 
trait 2 
trait 3 
node 1 1 1 1
node 2 3 1 1
node 3 1 1 3
node 4 2 0 2
node 11 1 0 0
node 19 1 0 0
node 421 1 0 0
node 470 3 0 0
node 512 1 0 0
node 531 3 0 0
node 536 2 0 0
node 818 1 0 0
node 1097 1 0 0
node 1112 1 0 0
node 1376 1 0 0
gene  2 1 4 2.1292711318263815 0 1.0 2.1292711318263815 1
gene  2 2 4 -1.5048360586892455 0 2.0 -1.5048360586892455 1
gene  3 3 4 0.7827581254531419 0 3.0 0.7827581254531419 1
gene  1 1 11 -14.042600855048956 0 21.0 -14.042600855048956 1
gene  3 11 4 -0.6367439436872746 0 22.0 -0.6367439436872746 1
gene  1 2 11 -1.777478082766694 0 44.0 -1.777478082766694 1
gene  1 1 19 1.6028691412942795 0 62.0 1.6028691412942795 1
gene  1 19 4 -5.239470710782087 0 63.0 -5.239470710782087 1
gene  2 3 11 9.354638301322915 0 133.0 9.354638301322915 1
gene  1 19 11 7.835168012141271 0 534.0 7.835168012141271 1
gene  3 3 19 -0.6952075567960692 0 749.0 -0.6952075567960692 1
gene  2 2 19 -4.167232287873599 0 902.0 -4.167232287873599 1
gene  1 11 421 -1.3871295255915572 0 1984.0 -1.3871295255915572 1
gene  3 421 4 0.4210807121166318 0 1985.0 0.4210807121166318 1
gene  3 19 421 -0.08151707694840798 0 2011.0 -0.08151707694840798 1
gene  2 1 421 2.2267565050481055 0 2043.0 2.2267565050481055 1
gene  2 3 421 -4.634543645974476 0 2064.0 -4.634543645974476 1
gene  3 421 470 -1.3022906179241105 0 2167.0 -1.3022906179241105 1
gene  3 470 4 8.73797290598758 0 2168.0 8.73797290598758 1
gene  1 19 512 -3.6039080055224453 0 2343.0 -3.6039080055224453 1
gene  3 512 11 -3.354225150794293 0 2344.0 -3.354225150794293 1
gene  3 512 531 6.208490828493651 0 2427.0 6.208490828493651 1
gene  3 531 11 -1.4080371399198757 0 2428.0 -1.4080371399198757 1
gene  3 512 536 5.847380772435525 0 2480.0 5.847380772435525 1
gene  3 536 531 1.431619828357651 0 2481.0 1.431619828357651 0
gene  1 531 4 1.2783269603462548 0 2581.0 1.2783269603462548 1
gene  3 2 421 10.89896289534424 0 2855.0 10.89896289534424 1
gene  1 1 512 4.369574278637306 0 3169.0 4.369574278637306 1
gene  3 3 531 1.360283005586525 0 3405.0 1.360283005586525 1
gene  2 11 470 2.070574512940038 0 3585.0 2.070574512940038 1
gene  1 421 818 7.886670060430054 0 3854.0 7.886670060430054 1
gene  1 818 4 -8.143349958478336 0 3855.0 -8.143349958478336 1
gene  1 512 470 9.871628044114862 0 5027.0 9.871628044114862 1
gene  2 3 512 -1.0609566420585443 0 5119.0 -1.0609566420585443 1
gene  3 512 1097 0.8774804372410885 0 5140.0 0.8774804372410885 1
gene  3 1097 536 -3.6514338450657142 0 5141.0 -3.6514338450657142 1
gene  1 19 1112 1.2542399740815413 0 5202.0 1.2542399740815413 1
gene  1 1112 512 0.23362658629212496 0 5203.0 0.23362658629212496 1
gene  3 536 818 -0.5681343919094171 0 5860.0 -0.5681343919094171 1
gene  2 536 421 -1.2965698372728598 0 6058.0 -1.2965698372728598 1
gene  3 2 512 -4.200682110294911 0 6133.0 -4.200682110294911 1
gene  3 531 421 2.1769912899410335 0 6308.0 2.1769912899410335 1
gene  2 1 1097 0.12322653039011894 0 6377.0 0.12322653039011894 1
gene  3 536 1376 3.3295965068850037 0 6425.0 3.3295965068850037 1
gene  3 1376 531 1.3155673703954607 0 6426.0 1.3155673703954607 1
gene  3 1376 470 0.9783106894848825 0 6451.0 0.9783106894848825 1
genomeend 129
