genomestart  112
trait 1 
trait 2 
trait 3 
node 1 2 1 1
node 2 3 1 1
node 3 2 1 3
node 4 2 0 2
node 76 1 0 0
node 114 2 0 0
node 202 1 0 0
gene  1 1 4 4.5021173544743105 0 1.0 4.5021173544743105 1
gene  2 2 4 -3.848441102298769 0 2.0 -3.848441102298769 1
gene  3 3 4 -1.6531897191920826 0 3.0 -1.6531897191920826 1
gene  3 1 76 3.0288170903666263 0 370.0 3.0288170903666263 1
gene  1 76 4 -1.5476796344255037 0 371.0 -1.5476796344255037 1
gene  2 3 76 -0.6398114472035838 0 441.0 -0.6398114472035838 1
gene  2 2 76 -7.030896292674745 0 471.0 -7.030896292674745 1
gene  3 1 114 -3.065328819809391 0 536.0 -3.065328819809391 1
gene  1 114 76 1.8541346388215576 0 537.0 1.8541346388215576 1
gene  2 3 114 3.1147302956107814 0 623.0 3.1147302956107814 1
gene  1 2 114 3.1332744012007585 0 709.0 3.1332744012007585 1
gene  1 1 202 0.36917625115166636 0 958.0 0.36917625115166636 1
gene  3 202 4 -12.047108554088354 0 959.0 -12.047108554088354 1
gene  1 114 202 -1.962003308685156 0 1015.0 -1.962003308685156 1
gene  2 3 202 -1.488689470355998 0 1280.0 -1.488689470355998 1
gene  3 76 202 1.3898475912876798 0 1807.0 1.3898475912876798 1
gene  2 114 4 0.4557048978700178 0 1928.0 0.4557048978700178 1
gene  3 2 202 -0.797918470720075 0 2070.0 -0.797918470720075 1
genomeend 112
