genomestart  0
trait 1 0.20049012304903827 0.5998885022479318 0.13538556299044202 1.172560147209068 1.8785835056652571 1.2111068394281745 1.07054703661015 0.7686512537639284 
trait 2 0.7352331019473891 1.317807682500462 0.0 0.7165278534490043 0.1420774550486189 0.20451503296199425 0.0 0.9956944716435914 
trait 3 0.0312894132005187 0.937766271506709 0.0 0.13579420539003362 0.9706906285729024 0.24785079734623217 1.0302970453382811 0.0 
node 1 1 1 1
node 2 1 1 1
node 3 2 1 3
node 4 3 0 2
node 5 1 0 2
node 6 1 0 0
node 7 2 0 0
node 390 2 0 0
node 550 1 0 0
node 600 1 0 0
node 714 1 0 0
node 736 1 0 0
node 967 1 0 0
node 1021 1 0 0
node 1030 1 0 0
node 1282 1 0 0
node 1348 1 0 0
node 1599 1 0 0
node 1677 2 0 0
node 1754 1 0 0
node 1857 1 0 0
node 2055 1 0 0
node 2135 1 0 0
node 2144 1 0 0
node 2149 1 0 0
node 2158 1 0 0
node 2368 2 0 0
node 2386 3 0 0
node 2494 1 0 0
gene  1 1 4 -2.794918124037033 0 1.0 -2.794918124037033 1
gene  2 2 4 -28.43171949883597 0 2.0 -28.43171949883597 1
gene  3 3 4 39.33781980677622 0 3.0 39.33781980677622 1
gene  1 1 5 -17.34290592989918 0 1.0 -17.34290592989918 1
gene  2 2 5 24.78703452863323 0 2.0 24.78703452863323 1
gene  3 3 5 -36.35669706038474 0 3.0 -36.35669706038474 1
gene  1 1 6 0.3239101860010116 0 5.0 0.3239101860010116 0
gene  2 2 7 3.4790801899846393 0 8.0 3.4790801899846393 1
gene  2 7 4 -4.123611739352324 0 9.0 -4.123611739352324 1
gene  1 7 6 0.6720463009051464 0 14.0 0.6720463009051464 1
gene  1 3 6 3.335063730446391 0 45.0 3.335063730446391 1
gene  3 5 4 4.041755750291486 0 515.0 4.041755750291486 1
gene  1 6 5 3.9026947524138094 0 1539.0 3.9026947524138094 1
gene  3 2 6 -3.4824693608209976 0 1581.0 -3.4824693608209976 1
gene  2 3 7 0.9829532836020007 0 1786.0 0.9829532836020007 1
gene  1 6 390 5.433178126686285 0 1852.0 5.433178126686285 1
gene  1 390 5 -6.319240409998441 0 1853.0 -6.319240409998441 1
gene  2 2 390 1.0031325184347937 0 1915.0 1.0031325184347937 1
gene  1 390 4 -1.0333108238479753 0 1986.0 -1.0333108238479753 1
gene  1 1 7 -3.143827786544785 0 2416.0 -3.143827786544785 1
gene  3 1 550 0.3946104390916535 0 2609.0 0.3946104390916535 1
gene  1 550 7 7.429162472916459 0 2610.0 7.429162472916459 1
gene  1 7 5 4.78057963229089 0 2647.0 4.78057963229089 1
gene  1 7 390 -9.661685433945902 0 2669.0 -9.661685433945902 1
gene  3 2 550 -2.8304268172827785 0 2742.0 -2.8304268172827785 1
gene  1 6 4 -2.352212157647338 0 2780.0 -2.352212157647338 1
gene  3 3 390 3.9877793958625993 0 2826.0 3.9877793958625993 1
gene  2 2 600 4.237437376473496 0 2848.0 4.237437376473496 1
gene  3 600 6 -1.653675537289703 0 2849.0 -1.653675537289703 1
gene  2 550 6 -12.593383998845107 0 3266.0 -12.593383998845107 1
gene  3 600 714 18.785514020566737 0 3317.0 18.785514020566737 1
gene  1 714 6 -6.461245634584574 0 3318.0 -6.461245634584574 1
gene  3 2 736 4.1978815128266245 0 3407.0 4.1978815128266245 1
gene  3 736 550 -10.838065645627932 0 3408.0 -10.838065645627932 1
gene  2 3 714 -16.065197583536367 0 3430.0 -16.065197583536367 1
gene  2 3 736 6.543208320559659 0 3609.0 6.543208320559659 1
gene  1 736 714 -4.769422878128967 0 3863.0 -4.769422878128967 1
gene  2 550 967 5.152727582866721 0 4511.0 5.152727582866721 1
gene  2 967 6 8.306240885422639 0 4512.0 8.306240885422639 1
gene  1 967 600 -1.9740756612140031 0 4693.0 -1.9740756612140031 1
gene  3 736 6 -3.470703628305996 0 4731.0 -3.470703628305996 1
gene  3 967 5 1.7383909120759014 0 4748.0 1.7383909120759014 1
gene  1 6 1021 5.095425221407692 0 4786.0 5.095425221407692 1
gene  1 1021 5 3.2540724979493607 0 4787.0 3.2540724979493607 1
gene  3 2 1030 -3.890365269735438 0 4828.0 -3.890365269735438 1
gene  3 1030 600 8.365295317983412 0 4829.0 8.365295317983412 1
gene  2 1 600 -3.361972206796879 0 4846.0 -3.361972206796879 0
gene  2 1030 6 1.5447922107278833 0 5285.0 1.5447922107278833 1
gene  1 736 600 1.1379300132549777 0 5419.0 1.1379300132549777 1
gene  3 1030 550 12.613443067083047 0 5448.0 12.613443067083047 1
gene  1 1030 390 2.798047312782122 0 5791.0 2.798047312782122 1
gene  2 3 600 0.13451685272737524 0 5827.0 0.13451685272737524 1
gene  1 967 7 2.584195465204768 0 5902.0 2.584195465204768 1
gene  1 1030 736 5.102759866075394 0 6004.0 5.102759866075394 1
gene  1 736 1282 -2.66504889579815 0 6046.0 -2.66504889579815 1
gene  3 1282 714 -11.1221005590108 0 6047.0 -11.1221005590108 1
gene  1 2 967 5.63291213711593 0 6337.0 5.63291213711593 1
gene  2 967 1348 -4.31614007577728 0 6356.0 -4.31614007577728 1
gene  2 1348 6 5.36112875976394 0 6357.0 5.36112875976394 1
gene  3 736 1021 2.2575415875123173 0 6568.0 2.2575415875123173 1
gene  2 1 1030 4.219246037904044 0 6669.0 4.219246037904044 1
gene  1 600 7 2.4589224892330295 0 6724.0 2.4589224892330295 1
gene  1 550 1348 2.8294024244897096 0 6778.0 2.8294024244897096 1
gene  3 967 390 -5.711512405823015 0 6876.0 -5.711512405823015 1
gene  2 714 7 2.1897111590747587 0 6922.0 2.1897111590747587 1
gene  2 1348 4 -20.804018723842365 0 7004.0 -20.804018723842365 1
gene  3 1282 4 1.4423900245693098 0 7030.0 1.4423900245693098 1
gene  1 736 4 -1.7067224561839733 0 7105.0 -1.7067224561839733 1
gene  3 736 967 3.0472139401266354 0 7183.0 3.0472139401266354 1
gene  3 967 714 5.367939731545816 0 7332.0 5.367939731545816 1
gene  1 390 1599 -0.3129503471528621 0 7516.0 -0.3129503471528621 1
gene  1 1599 4 -0.7866523033184967 0 7517.0 -0.7866523033184967 1
gene  1 1282 1677 6.121090346352133 0 7903.0 6.121090346352133 1
gene  3 1677 4 -4.317112707721086 0 7904.0 -4.317112707721086 1
gene  3 600 1599 1.8252409663556945 0 7988.0 1.8252409663556945 1
gene  2 600 1677 2.477624255332686 0 8097.0 2.477624255332686 1
gene  1 7 1754 5.3764525491038455 0 8203.0 5.3764525491038455 1
gene  1 1754 6 2.6813375438149265 0 8204.0 2.6813375438149265 1
gene  2 1 1754 -4.924060971277241 0 8523.0 -4.924060971277241 1
gene  1 7 1857 -1.608744805407376 0 8756.0 -1.608744805407376 1
gene  1 1857 6 -5.178347159581712 0 8757.0 -5.178347159581712 1
gene  3 1030 5 0.11127961459640545 0 8933.0 0.11127961459640545 1
gene  1 3 1857 -3.4314404889916106 0 8970.0 -3.4314404889916106 1
gene  1 1282 600 -0.04112962370833895 0 9204.0 -0.04112962370833895 1
gene  3 1 1021 1.050714098721984 0 9503.0 1.050714098721984 1
gene  2 1348 1677 2.078214161745806 0 9646.0 2.078214161745806 1
gene  1 1754 2055 -6.985258035270073 0 9672.0 -6.985258035270073 1
gene  1 2055 6 0.6630959057342389 0 9673.0 0.6630959057342389 1
gene  1 1857 4 -0.851732603473158 0 9934.0 -0.851732603473158 1
gene  3 2 2135 -0.45250297820871266 0 10043.0 -0.45250297820871266 1
gene  3 2135 550 -4.053010442541549 0 10044.0 -4.053010442541549 1
gene  2 714 1857 3.016052413261142 0 10076.0 3.016052413261142 1
gene  1 6 2144 -1.132373150008974 0 10117.0 -1.132373150008974 1
gene  1 2144 1021 -0.8356832440740514 0 10118.0 -0.8356832440740514 1
gene  3 1 2149 -1.2490938261972 0 10144.0 -1.2490938261972 1
gene  3 2149 550 -1.1722293980898604 0 10145.0 -1.1722293980898604 1
gene  1 1 2158 0.10116627041162696 0 10188.0 0.10116627041162696 1
gene  1 2158 6 -2.0957510828593238 0 10189.0 -2.0957510828593238 1
gene  1 2135 2055 -3.4983903448839944 0 10632.0 -3.4983903448839944 1
gene  3 2149 1282 -2.1402234403502294 0 10986.0 -2.1402234403502294 0
gene  2 2158 1857 0.082377002575301 0 11067.0 0.082377002575301 1
gene  2 1 2368 5.1447124075858675 0 11190.0 5.1447124075858675 1
gene  2 2368 600 -2.323977305465965 0 11191.0 -2.323977305465965 1
gene  1 1021 2386 3.0084223234818217 0 11263.0 3.0084223234818217 1
gene  1 2386 5 -3.4240093563362617 0 11264.0 -3.4240093563362617 1
gene  2 2135 4 -3.586711551217997 0 11391.0 -3.586711551217997 1
gene  2 1030 2158 -0.6601807138496028 0 11467.0 -0.6601807138496028 1
gene  3 2149 2494 -0.1386068074003874 0 11828.0 -0.1386068074003874 1
gene  3 2494 1282 0.6347565901554386 0 11829.0 0.6347565901554386 1
gene  2 967 2144 -3.5818243498269675 0 12043.0 -3.5818243498269675 1
gene  3 7 2055 -1.9982837542444054 0 12150.0 -1.9982837542444054 1
genomeend 0