genomestart  197
trait 1 0.7122745426756957 1.5816841070469283 2.5569377692679347 0.0 0.0 1.060554151124551 0.1093271969843228 0.0 
trait 2 1.8409547181715875 0.2247807119379146 0.8263442474912771 0.08936938866814936 0.8460328408954596 2.013478268449859 0.2994842894906261 0.0 
trait 3 0.7182779257895267 0.4733799962700431 0.5261495171769661 1.254050819821134 1.086049239076144 0.0 0.17708779371965824 1.0449835790959043 
node 1 1 1 1
node 2 3 1 1
node 3 1 1 3
node 4 1 0 2
node 5 1 1 1
node 6 1 0 0
node 13 1 0 0
node 25 3 0 0
node 38 2 0 0
node 78 1 0 0
node 125 1 0 0
node 321 1 0 0
node 475 2 0 0
node 497 1 0 0
node 547 3 0 0
node 557 1 0 0
node 713 3 0 0
node 790 2 0 0
node 1138 1 0 0
node 1294 1 0 0
node 1309 1 0 0
node 1346 1 0 0
node 1440 1 0 0
node 1478 2 0 0
node 1538 1 0 0
node 1561 3 0 0
node 1765 1 0 0
node 1861 3 0 0
node 2027 1 0 0
node 2048 1 0 0
node 2346 1 0 0
node 2348 1 0 0
node 2365 1 0 0
node 2390 1 0 0
node 2456 1 0 0
node 2467 1 0 0
node 2579 1 0 0
gene  2 1 4 -26.78164787585109 0 1.0 -26.78164787585109 1
gene  2 2 4 30.726178236098942 0 2.0 30.726178236098942 1
gene  2 3 4 21.694946150517616 0 3.0 21.694946150517616 1
gene  3 5 4 36.05088409709803 0 4.0 36.05088409709803 1
gene  1 1 6 -0.08729309992854084 0 5.0 -0.08729309992854084 1
gene  3 6 4 0.7151206641318306 0 6.0 0.7151206641318306 1
gene  1 2 6 3.7762163721194257 0 20.0 3.7762163721194257 1
gene  2 2 13 0.3280145966298884 0 23.0 0.3280145966298884 1
gene  3 13 4 1.0890376442794 0 24.0 1.0890376442794 1
gene  1 1 25 1.8440428073171673 0 75.0 1.8440428073171673 1
gene  1 25 6 -3.645743676524913 0 76.0 -3.645743676524913 1
gene  1 5 25 0.749962961288166 0 139.0 0.749962961288166 1
gene  2 2 38 -0.20129374816427603 0 154.0 -0.20129374816427603 1
gene  2 38 4 3.3535652740384703 0 155.0 3.3535652740384703 1
gene  2 25 38 1.985896683342562 0 188.0 1.985896683342562 1
gene  2 6 38 -0.47848747694997407 0 327.0 -0.47848747694997407 1
gene  1 1 78 2.7098802737794276 0 369.0 2.7098802737794276 1
gene  1 78 25 -0.019644732056229408 0 370.0 -0.019644732056229408 1
gene  2 25 125 -13.02706883418515 0 599.0 -13.02706883418515 1
gene  1 125 6 0.14353108009883653 0 600.0 0.14353108009883653 1
gene  3 125 38 -3.0217648849672765 0 994.0 -3.0217648849672765 1
gene  2 5 78 1.476690368054405 0 1116.0 1.476690368054405 1
gene  3 3 6 4.892143937855877 0 1187.0 4.892143937855877 1
gene  2 2 321 4.177440091625067 0 1490.0 4.177440091625067 1
gene  1 321 4 -0.4943103910323854 0 1491.0 -0.4943103910323854 1
gene  1 6 13 0.5447093962904093 0 1563.0 0.5447093962904093 1
gene  1 3 25 4.0024288043034755 0 1581.0 4.0024288043034755 1
gene  3 321 125 -0.9014950383893148 0 2131.0 -0.9014950383893148 1
gene  3 321 475 2.28142030710345 0 2162.0 2.28142030710345 1
gene  3 475 125 -1.4982758021465452 0 2163.0 -1.4982758021465452 1
gene  3 5 475 -1.2853443723162508 0 2192.0 -1.2853443723162508 1
gene  2 78 13 -2.324511712040109 0 2211.0 -2.324511712040109 1
gene  2 3 125 1.443246860758468 0 2248.0 1.443246860758468 1
gene  2 25 321 -20.94894609672771 0 2271.0 -20.94894609672771 0
gene  2 2 497 -2.113347531042461 0 2301.0 -2.113347531042461 1
gene  2 497 13 -2.2439510874544277 0 2302.0 -2.2439510874544277 1
gene  3 3 321 -1.03467166590572 0 2312.0 -1.03467166590572 1
gene  3 1 125 1.9155396631745676 0 2339.0 1.9155396631745676 1
gene  1 5 125 1.8808188062031201 0 2383.0 1.8808188062031201 1
gene  1 25 547 -0.4394930166360669 0 2503.0 -0.4394930166360669 1
gene  1 547 6 -1.6069395960164978 0 2504.0 -1.6069395960164978 1
gene  3 5 557 -10.49433599567497 0 2537.0 -10.49433599567497 1
gene  3 557 475 2.34592156009841 0 2538.0 2.34592156009841 1
gene  1 125 547 1.6140669486218777 0 2779.0 1.6140669486218777 1
gene  2 475 6 -7.608019237116627 0 3007.0 -7.608019237116627 1
gene  3 557 713 0.1326688619546601 0 3231.0 0.1326688619546601 1
gene  3 713 475 1.5937643286904661 0 3232.0 1.5937643286904661 1
gene  2 125 790 -3.45519018871522 0 3519.0 -3.45519018871522 1
gene  2 790 38 3.099482996951749 0 3520.0 3.099482996951749 1
gene  2 3 547 2.0007045788634548 0 3620.0 2.0007045788634548 1
gene  2 475 497 0.3244220066909817 0 3768.0 0.3244220066909817 1
gene  1 5 790 -0.15991461780048155 0 4088.0 -0.15991461780048155 1
gene  2 790 13 2.4397539128547314 0 4281.0 2.4397539128547314 1
gene  1 5 497 -5.800243736355876 0 4487.0 -5.800243736355876 1
gene  1 557 497 1.2044009337039063 0 4857.0 1.2044009337039063 1
gene  2 5 713 -4.712439415404216 0 5075.0 -4.712439415404216 1
gene  2 790 1138 -0.7114046459950356 0 5104.0 -0.7114046459950356 1
gene  2 1138 13 1.012452403773029 0 5105.0 1.012452403773029 1
gene  2 2 547 3.92578981259768 0 5782.0 3.92578981259768 1
gene  2 6 1294 -0.4416161986791888 0 5834.0 -0.4416161986791888 1
gene  2 1294 38 -0.3351196301339634 0 5835.0 -0.3351196301339634 1
gene  3 321 1309 0.5333327355192632 0 5895.0 0.5333327355192632 1
gene  3 1309 125 -0.6072705639723103 0 5896.0 -0.6072705639723103 1
gene  2 5 1346 -1.6248662310167363 0 6071.0 -1.6248662310167363 1
gene  1 1346 497 0.8495405559599849 0 6072.0 0.8495405559599849 1
gene  3 1294 1138 -0.16458235995390846 0 6195.0 -0.16458235995390846 1
gene  2 557 1294 -4.0571034632397724 0 6241.0 -4.0571034632397724 1
gene  3 557 125 -4.3937270336830965 0 6494.0 -4.3937270336830965 1
gene  3 557 1440 2.2512279231531522 0 6546.0 2.2512279231531522 1
gene  3 1440 125 -2.835977831680886 0 6547.0 -2.835977831680886 1
gene  2 497 1294 -0.0060176969177525574 0 6565.0 -0.0060176969177525574 1
gene  2 557 790 -6.2225792365171095 0 6684.0 -6.2225792365171095 1
gene  3 5 1478 7.526181617746272 0 6728.0 7.526181617746272 1
gene  1 1478 25 -0.6654414147353163 0 6729.0 -0.6654414147353163 1
gene  3 25 1294 -4.506277930349796 0 6864.0 -4.506277930349796 1
gene  2 38 1538 -0.06854011817471029 0 7008.0 -0.06854011817471029 1
gene  2 1538 4 -16.06270977097475 0 7009.0 -16.06270977097475 1
gene  2 5 1561 -0.9116024936840256 0 7137.0 -0.9116024936840256 1
gene  2 1561 78 -1.3456277450846827 0 7138.0 -1.3456277450846827 1
gene  2 713 321 5.132168628661746 0 7164.0 5.132168628661746 1
gene  3 713 547 2.2776858276490235 0 7209.0 2.2776858276490235 1
gene  2 547 1765 2.1367530073687675 0 8129.0 2.1367530073687675 1
gene  1 1765 6 -4.885289796121114 0 8130.0 -4.885289796121114 1
gene  3 1294 1861 -1.0746945107216423 0 8602.0 -1.0746945107216423 1
gene  3 1861 1138 9.879079774171556 0 8603.0 9.879079774171556 1
gene  2 1861 38 -1.3867232422249522 0 8752.0 -1.3867232422249522 1
gene  2 1440 1309 3.3635889877262937 0 8885.0 3.3635889877262937 1
gene  1 475 1861 1.4054172290334088 0 9013.0 1.4054172290334088 1
gene  1 1440 1538 6.049343781020818 0 9128.0 6.049343781020818 1
gene  1 1 38 -11.534035404862225 0 9342.0 -11.534035404862225 1
gene  2 2 1346 7.728374091737457 0 9384.0 7.728374091737457 1
gene  3 321 2027 5.031052684859446 0 9429.0 5.031052684859446 1
gene  3 2027 475 4.846020764891044 0 9430.0 4.846020764891044 1
gene  2 25 2027 -0.033460493502591504 0 9469.0 -0.033460493502591504 1
gene  1 5 2048 -1.3856279007786945 0 9538.0 -1.3856279007786945 1
gene  1 2048 1346 -0.3642188741010407 0 9539.0 -0.3642188741010407 1
gene  3 1294 13 -0.7107141158248795 0 10098.0 -0.7107141158248795 1
gene  3 13 38 3.693483567986317 0 10118.0 3.693483567986317 1
gene  1 1478 2027 -0.701364865270232 0 10332.0 -0.701364865270232 1
gene  2 321 547 0.12143620373758462 0 10414.0 0.12143620373758462 1
gene  2 1309 1294 2.3484537677339583 0 10460.0 2.3484537677339583 1
gene  3 1765 1346 3.8988139581160928 0 10697.0 3.8988139581160928 1
gene  1 2 1309 -2.2947899713988273 0 10801.0 -2.2947899713988273 1
gene  1 2048 547 6.940361540421389 0 10822.0 6.940361540421389 1
gene  2 1440 2346 4.435913457274047 0 10885.0 4.435913457274047 1
gene  2 2346 1309 -0.4076822146186879 0 10886.0 -0.4076822146186879 1
gene  2 1561 2348 0.3775921720345152 0 10900.0 0.3775921720345152 1
gene  2 2348 78 0.5930927874027019 0 10901.0 0.5930927874027019 1
gene  2 5 2365 -2.145710925321074 0 10968.0 -2.145710925321074 1
gene  2 2365 78 -0.23282044848642602 0 10969.0 -0.23282044848642602 1
gene  1 1765 2390 2.6853907566551385 0 11073.0 2.6853907566551385 1
gene  1 2390 6 4.679075306897475 0 11074.0 4.679075306897475 1
gene  1 2365 4 -2.946588056696832 0 11122.0 -2.946588056696832 1
gene  2 3 2346 0.7160259460596499 0 11377.0 0.7160259460596499 1
gene  3 1440 2456 4.876740204349092 0 11406.0 4.876740204349092 1
gene  3 2456 125 -2.18901553250986 0 11407.0 -2.18901553250986 1
gene  3 5 2467 3.1356129804619473 0 11458.0 3.1356129804619473 1
gene  3 2467 557 -2.588319634931526 0 11459.0 -2.588319634931526 1
gene  3 547 1294 3.674981706854308 0 11743.0 3.674981706854308 1
gene  1 2 2365 1.597014211768474 0 11769.0 1.597014211768474 1
gene  3 2346 13 3.968586123565413 0 11835.0 3.968586123565413 1
gene  2 2467 2365 -3.391215373310071 0 11901.0 -3.391215373310071 1
gene  2 25 2579 4.781003682478458 0 11971.0 4.781003682478458 1
gene  2 2579 321 -0.3415467452027246 0 11972.0 -0.3415467452027246 1
gene  3 1440 713 0.9983418269577513 0 11992.0 0.9983418269577513 1
gene  2 3 1478 1.1024129033260248 0 12014.0 1.1024129033260248 1
gene  3 713 2579 1.881633134525317 0 12194.0 1.881633134525317 1
gene  1 2346 1861 8.052428337218057 0 12220.0 8.052428337218057 1
genomeend 197