genomestart  55
trait 1 0.07500000000000001 0.0 0.10921510528396428 0.2505184454649356 0.3071310537597738 0.0 0.14388705471512442 0.0 
trait 2 0.2 0.025648024632447683 0.596779892099482 0.0 0.0 0.9853424190749317 0.019417952497150025 0.0 
trait 3 0.3 0.0 0.0 0.0 0.0 0.20129712248566078 0.0 0.8831482748177278 
node 1 1 1 1
node 2 1 1 1
node 3 3 1 3
node 4 1 0 2
node 6 1 0 0
node 7 1 0 0
node 13 1 0 0
gene  1 1 4 -6.8730570866162495 0 1.0 -6.8730570866162495 0
gene  2 2 4 0.643013643618332 0 2.0 0.643013643618332 0
gene  1 3 4 6.965789673704956 0 3.0 6.965789673704956 1
gene  1 1 6 3.8962499335204845 0 6.0 3.8962499335204845 1
gene  1 6 4 -2.342739127382794 0 7.0 -2.342739127382794 1
gene  2 2 7 0.9651112530754149 0 9.0 0.9651112530754149 1
gene  2 7 4 -8.107272837649353 0 10.0 -8.107272837649353 1
gene  2 3 7 -1.6130702379211215 0 27.0 -1.6130702379211215 1
gene  2 2 13 6.49630567318552 0 32.0 6.49630567318552 1
gene  2 13 4 6.315312271760266 0 33.0 6.315312271760266 1
gene  2 13 7 -7.156936153431855 0 58.0 -7.156936153431855 1
gene  3 1 13 0.8111274131417145 0 111.0 0.8111274131417145 1
gene  1 2 6 1.3125411162838119 0 207.0 1.3125411162838119 1
gene  1 3 13 -6.8240715856413985 0 238.0 -6.8240715856413985 1
gene  1 3 6 -4.854316783863947 0 310.0 -4.854316783863947 1
gene  3 6 13 -1.162532279630812 0 427.0 -1.162532279630812 1
gene  2 6 7 1.6841024728283105 0 510.0 1.6841024728283105 1
genomeend 55
