genomestart  49
trait 1 1.0894787841374893 0.0 0.0 0.0 0.0 0.0 0.5517844928080644 0.8176167604520771 
trait 2 0.0 0.0 0.8895476496367479 0.8616183981640615 0.0 0.3826978327750037 0.0 0.0 
trait 3 0.3 0.007866773285583951 0.0 0.0 0.0 0.0 0.0 0.0 
node 1 1 1 1
node 2 1 1 1
node 3 1 1 3
node 4 3 0 2
node 5 2 1 1
node 18 3 0 0
node 45 1 0 0
node 254 1 0 0
node 265 1 0 0
node 273 1 0 0
gene  2 1 4 4.21338702895591 0 1.0 4.21338702895591 1
gene  2 2 4 -2.9016237439873804 0 2.0 -2.9016237439873804 1
gene  3 3 4 -3.5088709419178348 0 3.0 -3.5088709419178348 1
gene  1 5 4 -3.3425064060731717 0 4.0 -3.3425064060731717 0
gene  2 2 18 -10.073492508899118 0 38.0 -10.073492508899118 1
gene  2 18 4 7.056903596464274 0 39.0 7.056903596464274 1
gene  2 3 18 -0.844967015302849 0 75.0 -0.844967015302849 1
gene  2 5 18 4.1683051232676345 0 86.0 4.1683051232676345 1
gene  3 1 18 2.0264762943968018 0 103.0 2.0264762943968018 1
gene  3 5 45 16.111734595737328 0 164.0 16.111734595737328 1
gene  3 45 4 -29.01563983786513 0 165.0 -29.01563983786513 1
gene  2 2 45 -4.386033338785795 0 210.0 -4.386033338785795 1
gene  3 45 18 -5.47676027149327 0 600.0 -5.47676027149327 1
gene  2 3 45 -6.6695641817751685 0 780.0 -6.6695641817751685 1
gene  2 1 254 -2.418948013853006 0 1195.0 -2.418948013853006 1
gene  2 254 4 18.40972231951018 0 1196.0 18.40972231951018 1
gene  1 2 265 -0.22206952750578202 0 1259.0 -0.22206952750578202 1
gene  2 265 4 -5.274845588875371 0 1260.0 -5.274845588875371 1
gene  1 5 273 3.183238265879626 0 1286.0 3.183238265879626 1
gene  1 273 4 3.922900334522951 0 1287.0 3.922900334522951 1
gene  1 3 254 -11.262086909851352 0 1377.0 -11.262086909851352 1
gene  3 45 273 0.6110978484691578 0 1407.0 0.6110978484691578 1
gene  3 265 18 2.1303538798878505 0 1509.0 2.1303538798878505 1
gene  2 265 273 -1.2634921146201172 0 1559.0 -1.2634921146201172 1
gene  1 273 254 -5.818287685966457 0 1620.0 -5.818287685966457 1
gene  2 18 273 0.37070957904027285 0 1685.0 0.37070957904027285 1
gene  2 5 254 9.68203898999539 0 1916.0 9.68203898999539 1
genomeend 49
